#include "neural_network.h"
#include <stdio.h>
#include <math.h>

const float weights_fc1[] = {
-0.18456318974494934, -0.6178627014160156, 0.813537061214447, -0.1595885157585144, -0.5374751091003418, -0.09293369948863983, -0.08175239711999893, 0.02478642575442791, -0.2136932760477066, -0.008088220842182636, -0.18045252561569214, 0.14099262654781342, -0.1343183070421219, -0.22752460837364197, -0.0558125339448452, -0.12184441089630127, -0.023278331384062767, -0.17996329069137573, 0.3406936526298523, -0.1655118614435196,
-0.06973715126514435, -0.07569988071918488, -0.4802657663822174, -0.08172698318958282, 0.009091599844396114, -0.4980289936065674, 0.33835569024086, -0.10951020568609238, -0.3219728171825409, -0.018707063049077988, 0.11658072471618652, 0.02642771042883396, 0.05369625613093376, 0.09093895554542542, 0.374068021774292, -0.1508706957101822, -0.300735741853714, -0.12567904591560364, 0.03020954690873623, -0.2567434310913086,
-0.003994935657829046, -0.1436959058046341, -0.6576195955276489, -0.23338499665260315, 0.11601252108812332, -0.2768317461013794, 0.21707184612751007, 0.5023961067199707, -0.15369196236133575, 0.07168139517307281, -0.04406628757715225, -0.08510830253362656, -0.09805097430944443, 0.12327692657709122, 0.07010383158922195, 0.5841607451438904, 0.39592453837394714, -0.18577077984809875, -0.028304316103458405, -0.2071593552827835,
0.1706218719482422, -0.19309653341770172, 0.49004998803138733, -0.10371822863817215, -0.19752006232738495, 0.35942691564559937, 0.5557935237884521, -0.13965079188346863, 0.07741475105285645, 0.034821320325136185, -0.04484852775931358, 0.35032668709754944, -0.048193227499723434, -0.21497024595737457, 0.37546220421791077, -0.11773154139518738, -0.3080790936946869, 0.08020994812250137, 0.19656169414520264, 0.015699898824095726,
0.584606945514679, 0.5459126830101013, -0.17974424362182617, 0.1668495237827301, 0.026870695874094963, -0.23391957581043243, -0.2874734401702881, 0.35286465287208557, 0.28384146094322205, 0.2045254111289978, 0.21608372032642365, 0.04863801226019859, -0.05773913860321045, 0.07195138186216354, -0.1560666263103485, 0.058493953198194504, -0.38549062609672546, -0.48851278424263, -0.2683045566082001, -0.2948407828807831,
-0.08393148332834244, 0.466913640499115, 0.008371686562895775, -0.07465104758739471, 0.012692738324403763, -0.1842246949672699, -0.009091242216527462, 0.487954318523407, -0.31537654995918274, -0.06805144995450974, 0.1329837292432785, -0.11907064914703369, -0.02677656151354313, 0.00035391421988606453, -0.42636144161224365, -0.14555636048316956, 0.1707773506641388, -0.07776681333780289, 0.030369941145181656, -0.2973175346851349,
0.4548809826374054, 0.576663076877594, 0.46474069356918335, 0.20675896108150482, 0.08019551634788513, 0.2809180021286011, -0.09194770455360413, 0.20331639051437378, 0.0057378895580768585, 0.07202287763357162, -0.054659757763147354, -0.04458184167742729, 0.03521728515625, -0.2504943609237671, -0.18963970243930817, 0.10640920698642731, -0.08036214858293533, -0.2986932694911957, -0.1834268718957901, -0.153225839138031,
0.07057389616966248, -0.2212267518043518, 0.2316247522830963, 0.21756024658679962, 0.16296672821044922, 0.17977696657180786, 0.24564242362976074, 0.7260149717330933, 0.05494843050837517, -0.013888814486563206, 0.10878720879554749, 0.15518499910831451, -0.10471950471401215, 0.09845838695764542, -0.2920994758605957, 0.21320080757141113, 0.17981818318367004, 0.009990095160901546, 0.1762140989303589, -0.06372462958097458,
0.4014536142349243, -0.25179824233055115, -1.0055136680603027, 0.21833005547523499, 0.003982921130955219, -0.5287718772888184, -0.2069443315267563, 0.08961700648069382, 0.053793806582689285, 0.024362357333302498, 0.012472996488213539, -0.04784368351101875, 0.2634391188621521, -0.014776702038943768, 0.21258792281150818, 0.29720863699913025, -0.0838262066245079, -0.06095624715089798, 0.11470329761505127, 0.09509273618459702,
-0.0012355268700048327, -0.342647522687912, 0.03507637977600098, 0.29504987597465515, -0.21087561547756195, -0.12841905653476715, -0.06522995233535767, -0.2784504294395447, 0.5037316083908081, 0.13606129586696625, -0.045001380145549774, -0.12186744809150696, -0.22548887133598328, -0.16312584280967712, 0.12902213633060455, -0.06678344309329987, 0.02443605288863182, 0.0014626884367316961, 0.08085944503545761, -0.5972378849983215,
-0.1612548530101776, 0.1553966999053955, -0.02841552533209324, 0.04134160652756691, 0.4836295545101166, -0.22779227793216705, 0.41200968623161316, -0.4927172064781189, -0.04038231447339058, 0.1620716005563736, -0.10809618979692459, 0.19013386964797974, -0.21011856198310852, -0.1943994164466858, -0.005961029790341854, -0.04764144867658615, 0.07484973967075348, -0.21490401029586792, 0.0998665988445282, -0.3779139220714569,
-0.4953570067882538, -0.4425406754016876, 0.2109919637441635, -0.07346204668283463, -0.1674393117427826, 0.19165103137493134, -0.10660270601511002, 0.3527012765407562, 0.11740095168352127, 0.057343825697898865, 0.2687176764011383, -0.0952235758304596, 0.2854488492012024, 0.16560862958431244, -0.2746782600879669, 0.015567637979984283, -0.15280066430568695, -0.21420110762119293, 0.15699371695518494, 0.039497341960668564,
-0.25618723034858704, -0.11914099752902985, -0.08449027687311172, -0.21138377487659454, 0.10915403068065643, -0.19819656014442444, 0.17135557532310486, 0.12361069768667221, -0.8654373288154602, 0.12480741739273071, 0.02091265097260475, 0.19602999091148376, 0.06835810840129852, 0.013113502413034439, 0.21185030043125153, 0.023307740688323975, 0.1894666850566864, 0.08593438565731049, 0.2526436448097229, -0.06680023670196533,
-0.14346404373645782, 0.00020496253273449838, 0.3947793245315552, 0.02636411041021347, 0.06091536581516266, 0.7296575903892517, -0.2666609585285187, 0.48444607853889465, -0.14922766387462616, 0.028608765453100204, 0.004694485571235418, 0.21757051348686218, 0.24991917610168457, -0.05036838725209236, 0.22307753562927246, 0.10765612870454788, -0.2501334547996521, -0.227811798453331, 0.16606809198856354, 0.033034488558769226,
-0.03001212142407894, -0.19721342623233795, 0.2340211123228073, -0.015202626585960388, -0.06319090723991394, -0.10829651355743408, -0.21853086352348328, 0.38947463035583496, -0.9156179428100586, 0.0948692187666893, 0.19101376831531525, -0.14361685514450073, -0.06076839938759804, 0.01795949600636959, 0.2858234941959381, -0.23210744559764862, 0.41886183619499207, -0.1616443544626236, 0.025178903713822365, 0.31212568283081055,
-0.24875083565711975, 0.5473771691322327, 0.6186131834983826, -0.13815367221832275, 0.16971521079540253, 0.14481298625469208, 0.5276495218276978, 0.10187884420156479, -0.05607298016548157, 0.061519503593444824, 0.098028264939785, -0.4207511246204376, -0.13122940063476562, 0.11028952151536942, 0.00827260222285986, 0.3892384171485901, 0.14627808332443237, -0.019145281985402107, -0.18319715559482574, 0.10618304461240768,
-0.07191356271505356, 0.5099567770957947, -0.6140170097351074, 0.23342885076999664, 0.1943783462047577, 0.03029567375779152, 0.2558329403400421, 0.016041914001107216, -0.05998608469963074, 0.08007001876831055, 0.31265291571617126, 0.07529643177986145, -0.20832756161689758, -0.22447483241558075, -0.17493747174739838, -0.07636654376983643, 0.14061112701892853, 0.0626194030046463, -0.15054461359977722, 0.00910378061234951,
0.009590493515133858, 0.43421393632888794, -0.12448832392692566, 0.046952810138463974, 0.06594039499759674, 0.2147965133190155, -0.3374107778072357, 0.8202354907989502, 0.03533606231212616, -0.05604500696063042, -0.11154142767190933, 0.23716075718402863, -0.21518872678279877, 0.08826030790805817, 0.1374037265777588, 0.2371109426021576, 0.32469192147254944, -0.17720790207386017, -0.11706772446632385, 0.1679728776216507,
-0.1107921153306961, -0.2861545979976654, -0.7794451117515564, 0.12021283060312271, 0.2782451808452606, -0.5605630874633789, 0.4849245250225067, -0.018240632489323616, 0.40262261033058167, -0.0936838760972023, -0.14411230385303497, -0.27884170413017273, 0.13064013421535492, -0.1778520941734314, -0.22868672013282776, -0.009200789965689182, -0.01856287382543087, 0.08829155564308167, -0.01691730134189129, 0.1414594203233719,
0.21899709105491638, -0.14789707958698273, 0.05157217010855675, -0.09590849280357361, 0.04743174463510513, 0.25922292470932007, -0.2761702537536621, 0.4164368808269501, -0.17532892525196075, -0.20243366062641144, 0.15091201663017273, -0.15936119854450226, 0.0050970446318387985, 0.6484034657478333, -0.31082868576049805, -0.12430928647518158, -0.03155781328678131, 0.2194833904504776, 0.19012658298015594, 0.161088764667511,
0.3220195174217224, 0.27232447266578674, -0.12294355034828186, 0.27396246790885925, -0.2193707823753357, -0.23580020666122437, -0.19638459384441376, 0.22060668468475342, 0.21894171833992004, 0.06274957209825516, -0.4487203061580658, 0.2217339128255844, -0.2881358563899994, -0.3364608883857727, -0.4325816035270691, -0.0007677452522329986, -0.29913678765296936, -0.043853383511304855, -0.008221383206546307, 0.04240865260362625,
0.08418282121419907, 0.1349329799413681, 1.2849889993667603, 0.10636866092681885, 0.11946111172437668, 0.0010428844252601266, 0.4777953326702118, -0.24083983898162842, -0.627606987953186, 0.05114658549427986, -0.09826500713825226, -0.03137458115816116, 0.2088295966386795, -0.35815727710723877, 0.42496100068092346, -0.19421164691448212, 0.020335210487246513, -0.05511265620589256, 0.051578328013420105, -0.25421786308288574,
-0.11924778670072556, 0.06779570877552032, 0.0915846973657608, -0.15736383199691772, -0.07800522446632385, 0.3297796845436096, 0.29177436232566833, 0.4005720615386963, 0.14994564652442932, 0.28804779052734375, 0.02465464361011982, 0.16201555728912354, 0.11353558301925659, -0.13784627616405487, -0.24683958292007446, -0.09034266322851181, -0.14571791887283325, 0.15686124563217163, 0.18133948743343353, -0.046735141426324844,
0.20749524235725403, -0.2882692217826843, 0.6525760889053345, -0.055951450020074844, 0.011687000282108784, -0.25348228216171265, 0.0834149643778801, -0.04106568917632103, -0.6081570386886597, -0.12331148982048035, 0.03306630998849869, -0.04844982922077179, 0.12110438197851181, -0.18006429076194763, 0.3426322638988495, 0.24783533811569214, -0.12105776369571686, 0.5059432983398438, -0.19491370022296906, 0.09376821666955948,
-0.24100489914417267, -0.052816055715084076, -0.4663049876689911, -0.3150331974029541, -0.12891343235969543, -0.017144231125712395, 0.1627577692270279, 0.08493959158658981, 0.577142059803009, 0.052021730691194534, 0.14745992422103882, 0.13691474497318268, 0.15910333395004272, -0.09533436596393585, 0.32255470752716064, -0.047437820583581924, 0.6655237078666687, 0.08883216977119446, -0.19618044793605804, 0.22814364731311798,
-0.24999883770942688, 0.25787919759750366, 1.096763253211975, -0.017313187941908836, 0.2157636284828186, -0.15706446766853333, -0.21505019068717957, 0.24744224548339844, -0.028510864824056625, -0.09765247255563736, 0.029069257900118828, 0.0524478480219841, 0.38426995277404785, 0.03629159927368164, 0.04097975790500641, -0.20168721675872803, 0.3569887578487396, -0.12537246942520142, 0.023779504001140594, -0.28774571418762207,
-0.3260057270526886, -0.35436752438545227, 0.41697466373443604, -0.12857744097709656, -0.09122760593891144, 0.4411403238773346, -0.3130026161670685, 0.2656148374080658, -0.1935657560825348, -0.14225973188877106, -0.0024958434514701366, 0.08625315874814987, -0.31148064136505127, -0.23124104738235474, 0.20764325559139252, -0.07600811868906021, -0.02038257196545601, -0.09666138887405396, -0.18637166917324066, -0.16125214099884033,
-0.3991488814353943, -0.014645379036664963, 0.14337080717086792, -0.34236446022987366, -0.09598353505134583, 0.2015395611524582, -0.6438435912132263, -0.1560440957546234, -0.21133024990558624, -0.04190654680132866, -0.1025974377989769, -0.30134209990501404, 0.3314831852912903, 0.1204071119427681, 0.09446936845779419, -0.11616185307502747, -0.10167456418275833, -0.19617214798927307, -0.22802698612213135, 0.05681758373975754,
-0.184663787484169, -0.12420038878917694, -0.5375092029571533, -0.10201630741357803, -0.14084269106388092, -0.41724422574043274, -0.26179975271224976, 0.5845661759376526, 0.3160751461982727, -0.012292137369513512, -0.15544408559799194, 0.1330862194299698, 0.08834287524223328, 0.21266008913516998, -0.06502493470907211, -0.057977158576250076, 0.3859560787677765, -0.08835221827030182, -0.052583009004592896, 0.029916467145085335,
0.32472360134124756, -0.45802974700927734, 0.5905159711837769, 0.10359252989292145, -0.07864711433649063, 0.1414991170167923, -0.13654682040214539, -0.3883565664291382, -0.07296887040138245, -0.04292760789394379, -0.11642806977033615, 0.2931501567363739, 0.1186910942196846, 0.12051510065793991, -0.14110293984413147, -0.44642776250839233, 0.5109741687774658, 0.08710979670286179, 0.0013894287403672934, -0.09003518521785736,
0.022906402125954628, 0.13953141868114471, 0.24104881286621094, -0.010700755752623081, 0.026409003883600235, -0.15077543258666992, 0.22835032641887665, -0.08707189559936523, 0.6421844363212585, -0.0313551239669323, -0.03367935121059418, -0.15782831609249115, -0.22341620922088623, -0.10294238477945328, 0.27263343334198, 0.16437731683254242, 0.20143470168113708, -0.11733534187078476, 0.1657799631357193, 0.3338775634765625,
-0.09616801142692566, -0.09053182601928711, -0.4047590494155884, -0.2762336730957031, 0.06349769979715347, -0.03892277926206589, 0.34472501277923584, -0.10486960411071777, 0.4399144947528839, 0.14147353172302246, 0.30977416038513184, 0.019599314779043198, -0.20160357654094696, -0.09265460819005966, 0.1400614082813263, 0.17675627768039703, -0.13912302255630493, 0.08934532105922699, 0.20583054423332214, -0.05534471571445465,
0.01768224872648716, -0.059119611978530884, -0.060338202863931656, -0.37067562341690063, 0.2511260211467743, 0.1874229460954666, -0.5244717001914978, -0.13456180691719055, -0.6604772210121155, 0.04905254766345024, -0.0755256786942482, -0.06583546847105026, 0.21155744791030884, 0.11873279511928558, -0.19194211065769196, 0.1820022463798523, 0.19983038306236267, -0.1503596007823944, 0.01657060533761978, -0.1270916908979416,
0.11727266758680344, 0.2924385368824005, -0.13058914244174957, -0.4347785711288452, -0.10557081550359726, -0.018146606162190437, -0.03597629815340042, -0.19305455684661865, -0.06906166672706604, -0.08023561537265778, -0.2157815843820572, 0.18452419340610504, -0.14343371987342834, 0.032074932008981705, 0.15140031278133392, 0.004931772593408823, -0.5434171557426453, 0.20845994353294373, 0.05626815930008888, -0.019591165706515312,
-0.274111807346344, -0.3818301856517792, -1.0527842044830322, 0.034743066877126694, -0.1680353432893753, -0.8064257502555847, -0.034339599311351776, 0.40056630969047546, -0.04651061072945595, -0.048312388360500336, 0.11839836090803146, 0.19787205755710602, 0.07082460075616837, 0.2810765206813812, 0.08521610498428345, 0.021075693890452385, 0.121294304728508, 0.1643057018518448, 0.14818552136421204, -0.26487821340560913,
0.14024627208709717, 0.28301066160202026, 0.3391759395599365, -0.40733304619789124, 0.2124631553888321, -0.013088692910969257, -0.39797770977020264, -0.0879271999001503, 0.4820736348628998, -0.06811678409576416, -0.01255727093666792, 0.10155346989631653, 0.2702299654483795, 0.19638392329216003, 0.23577538132667542, -0.07656250149011612, -0.2596520781517029, 0.1494804471731186, -0.20366623997688293, 0.08623874932527542,
-0.08558611571788788, -0.25722578167915344, 0.4026446044445038, 0.2355702817440033, 0.06720378994941711, 0.06722568720579147, 0.708045244216919, 0.011935379356145859, 0.2759714424610138, -0.012609168887138367, 0.022237088531255722, 0.318004310131073, -0.259930282831192, 0.19791558384895325, 0.1230212077498436, 0.15831659734249115, -0.24309176206588745, 0.11074309796094894, 0.05411194637417793, -0.1814860850572586,
0.2672542333602905, -0.3281530737876892, 0.5393593907356262, -0.10242710262537003, -0.3468063473701477, 0.14804349839687347, 0.3094038665294647, -0.3991856575012207, 0.1803652048110962, 0.033523306250572205, 0.0607699491083622, -0.03273855522274971, 0.32398974895477295, -0.08423618227243423, 0.008087498135864735, 0.19907791912555695, 0.08696692436933517, -0.10456448793411255, -0.07030712813138962, -0.2006836235523224,
0.25651317834854126, -0.2908487021923065, 0.6964391469955444, 0.06486599892377853, -0.1538407951593399, 0.2513854205608368, 0.17626869678497314, -0.468794047832489, -0.1463630646467209, 0.08267046511173248, -0.09054837375879288, -0.13109321892261505, 0.15825384855270386, -0.08209303021430969, -0.0598047599196434, -0.28947579860687256, -0.1835963875055313, 0.07010749727487564, 0.1920265555381775, 0.07079634070396423,
-0.18520691990852356, 0.3626837134361267, -0.6413329839706421, 0.0552312508225441, 0.0216680821031332, 0.05465912073850632, -0.12959063053131104, 0.2205280065536499, -0.14377562701702118, 0.24199500679969788, 0.09364163130521774, -0.165169820189476, -0.16429634392261505, 0.08066387474536896, -0.06495911628007889, 0.0189713966101408, -0.05202590301632881, -0.07942775636911392, 0.24965010583400726, 0.09895200282335281,
0.14842882752418518, 0.13902956247329712, 0.6076800227165222, 0.06253252923488617, 0.3174016773700714, 0.15773160755634308, -0.5327035784721375, 0.3183615803718567, 0.03572575002908707, -0.012095191515982151, 0.145852193236351, -0.12326536327600479, 0.057853952050209045, 0.14054857194423676, -0.3030543625354767, -0.0032268031500279903, -0.17806720733642578, 0.18446145951747894, -0.25942471623420715, -0.012528251856565475,
0.9973880648612976, 0.25926482677459717, 0.16271840035915375, 0.159085214138031, 0.13997900485992432, -0.48100921511650085, 0.2360285520553589, 0.08443354815244675, 0.2135762721300125, -0.01586097851395607, 0.07531420886516571, 0.11246339231729507, 0.10874276608228683, 0.02670148015022278, 0.044923365116119385, -0.1697947233915329, -0.04864317551255226, 0.14249294996261597, -0.29143041372299194, -0.01666439138352871,
0.0937698483467102, -0.1120101734995842, 0.45802271366119385, 0.14029479026794434, 0.02772335708141327, 0.0703301653265953, -0.32748764753341675, -0.13641123473644257, -0.38951435685157776, -0.019929008558392525, -0.11793215572834015, -0.21064148843288422, -0.12746743857860565, 0.6299354434013367, 0.004421361722052097, -0.3191441595554352, 0.00973436702042818, 0.31056898832321167, 0.07085184007883072, 0.120952308177948,
-0.26794877648353577, -0.18298305571079254, -0.12423484027385712, 0.08918563276529312, 0.020632941275835037, 0.10225330293178558, 0.2780452072620392, -0.31059345602989197, -0.2187146246433258, -0.18476492166519165, -0.18725870549678802, -0.13198676705360413, 0.31242871284484863, 0.1275978535413742, -0.27294835448265076, -0.06108328327536583, -0.0469406321644783, -0.031295400112867355, -0.21636876463890076, 0.3810093104839325,
0.058904312551021576, -0.0529850572347641, 0.13774389028549194, -0.3014768064022064, -0.0585516132414341, -0.3289693593978882, 0.07746744155883789, -0.23258182406425476, -0.30018365383148193, 0.008675244636833668, -0.18191860616207123, -0.17272217571735382, -0.2664225399494171, 0.43268072605133057, 0.21488453447818756, 0.06326398253440857, -0.16463837027549744, -0.480205237865448, -0.1863853931427002, 0.08649589121341705,
-0.19494357705116272, -0.12232891470193863, 0.6842200756072998, 0.036108531057834625, 0.1944064348936081, 0.08536162227392197, 0.15716423094272614, -0.07304078340530396, -0.21946854889392853, 0.06833300739526749, -0.17615202069282532, 0.0052998261526227, -0.1540156453847885, -0.1947890818119049, -0.03514597937464714, 0.0635848268866539, 0.09819424897432327, 0.1939876824617386, -0.1327696442604065, 0.6521771550178528,
-0.4328555762767792, 0.48621851205825806, 0.14390774071216583, -0.2954763174057007, 0.16061821579933167, -0.04218357428908348, 0.2379746288061142, -0.16711266338825226, 0.7974467277526855, -0.03558103367686272, 0.0660264641046524, 0.18457378447055817, 0.12110123783349991, 0.0924481675028801, 0.31205862760543823, -0.02632024884223938, 0.2650303244590759, 0.2351888120174408, -0.16939955949783325, -0.1700400710105896,
0.4750111401081085, 0.14493878185749054, -0.6879817843437195, 0.5114027857780457, -0.08244575560092926, 0.162730410695076, -0.12231157720088959, 0.03727069869637489, -0.07356857508420944, -0.0742078423500061, -0.016738127917051315, -0.16942793130874634, -0.1279028058052063, -0.37867194414138794, -0.02534358762204647, -0.17421038448810577, -0.4005386531352997, -0.42618006467819214, 0.26781177520751953, -0.1046118438243866,
0.2797830104827881, 0.11366918683052063, 0.6765778660774231, 0.12298250198364258, -0.0034007972571998835, 0.013778026215732098, -0.11140561103820801, 0.32946425676345825, 0.4528162181377411, -0.017951177433133125, 0.22424151003360748, 0.1038382351398468, 0.16554129123687744, -0.044632356613874435, -0.01996792107820511, -0.10456445068120956, -0.3452858328819275, -0.20456385612487793, -0.20990845561027527, -0.20655296742916107,
-0.2527163624763489, 0.2835075855255127, 0.6018106937408447, 0.21378964185714722, -0.14681527018547058, 0.4427790939807892, 0.37370070815086365, 0.4449407458305359, 0.008571808226406574, 0.24144642055034637, -0.20329302549362183, -0.029334360733628273, -0.2431565523147583, -0.13192419707775116, 0.3555483818054199, 0.2864191234111786, 0.11992736160755157, 0.03659304976463318, -0.09777405112981796, -0.32328805327415466,
-0.37201225757598877, -0.16123269498348236, 0.37530574202537537, 0.25178617238998413, -0.038223639130592346, -0.32291343808174133, -0.8731550574302673, -0.43442848324775696, 0.3424171209335327, 0.02943647839128971, -0.06875402480363846, 0.20247763395309448, 0.17228789627552032, 0.04185469448566437, -0.03131112828850746, -0.039339810609817505, 0.017405163496732712, 0.2163015753030777, -0.06525000929832458, 0.059401243925094604,
0.3069593906402588, -0.43863120675086975, -0.014486892148852348, 0.17459233105182648, 0.013096565380692482, 0.24545325338840485, 0.06678450852632523, 0.37486833333969116, -0.01720254309475422, 0.20365533232688904, 0.06591848284006119, -0.056031353771686554, -0.01836790144443512, 0.18500864505767822, -0.1693776547908783, -0.10287436097860336, 0.0889829620718956, 0.19695378839969635, -0.12044081091880798, 0.04560087248682976,
0.2862379252910614, -0.321128785610199, -0.26420652866363525, -0.18061698973178864, 0.012403451837599277, -0.05152725800871849, 0.1544618308544159, -0.17172583937644958, -0.5853111743927002, 0.17806649208068848, 0.08334453403949738, -0.07235613465309143, 0.022419404238462448, 0.1055949255824089, 0.1843711882829666, 0.05790574476122856, -0.16490690410137177, 0.11108355224132538, 0.2234552949666977, -0.1649753749370575,
-0.04567998647689819, 0.8436151146888733, 0.5398406982421875, 0.14201433956623077, 0.0033451076596975327, -0.1980917751789093, 0.09002808481454849, 0.08831105381250381, 0.09359737485647202, -0.020757563412189484, -0.5362653732299805, 0.09576889872550964, 0.19742780923843384, -0.29047390818595886, -0.025749802589416504, 0.12198014557361603, -0.13396483659744263, 0.1482761800289154, 0.07633153349161148, 0.10057706385850906,
-0.0487065389752388, -0.40338900685310364, -0.029621129855513573, -0.04320879653096199, -0.24392463266849518, 0.025522802025079727, 0.0976351723074913, 0.13379599153995514, -0.5843461155891418, -0.12034481018781662, -0.008059523068368435, -0.23269309103488922, 0.2035893052816391, -0.11692310124635696, 0.060449182987213135, -0.052361179143190384, 0.07487302273511887, 0.36640027165412903, -0.4408420920372009, -0.06758683919906616,
-0.29234662652015686, 0.0627836361527443, -0.42362135648727417, 0.2520953118801117, 0.10732683539390564, -0.16647419333457947, 0.07575871050357819, -0.13311269879341125, 0.04180115461349487, -0.014940444380044937, -0.2204814851284027, -0.051618099212646484, -0.005037999711930752, -0.14360836148262024, 0.04153543338179588, -0.16562342643737793, 0.0782373771071434, -0.12456753104925156, -0.3347133994102478, -0.36982619762420654,
0.3885444700717926, 0.05573229119181633, 0.23924875259399414, -0.4076133072376251, 0.10242683440446854, 0.059702131897211075, -0.004596007522195578, 0.3935362994670868, 0.39449426531791687, -0.1960049569606781, 0.07861625403165817, 0.15898630023002625, -0.23269972205162048, -0.5102570652961731, -0.35227885842323303, -0.27328550815582275, -0.06296839565038681, -0.05238337814807892, 0.35135960578918457, -0.05699731782078743,
-0.060328297317028046, -0.17726624011993408, 0.5206597447395325, 0.15442948043346405, -0.17505159974098206, 0.04519333690404892, -0.7133197784423828, -0.08878633379936218, -0.5645514726638794, -0.16401879489421844, 0.06478031724691391, 0.1465511918067932, -0.10699509084224701, 0.42983144521713257, -0.39285603165626526, 0.03167739883065224, 0.4739533066749573, 0.07636141777038574, 0.11352352797985077, 0.08686425536870956,
0.2179870456457138, -0.7065766453742981, 0.4804242253303528, -0.24125996232032776, -0.09795764088630676, 0.2168501913547516, -0.004664565436542034, 0.008735341019928455, 0.19541361927986145, 0.2024921476840973, -0.2956904172897339, -0.11514787375926971, -0.09987808763980865, 0.1921899914741516, -0.19501683115959167, -0.2742147743701935, -0.1893172413110733, -0.1178118959069252, -0.1844806969165802, -0.123381607234478,
0.18723326921463013, 0.658744215965271, -0.02620360627770424, 0.09242241829633713, 0.37439993023872375, 0.06226590648293495, 0.0742163211107254, -0.010682807303965092, 0.1936521828174591, -0.015322201885282993, -0.27258768677711487, 0.02409347891807556, -0.07876826077699661, -0.027144592255353928, 0.02872641384601593, -0.027548639103770256, -0.13570795953273773, 0.03790709376335144, 0.023334287106990814, -0.1490495204925537,
-0.5379878282546997, -0.14803126454353333, -1.1058915853500366, -0.17877493798732758, 0.027663692831993103, -0.040684670209884644, -0.043807998299598694, -0.3589968979358673, 0.009979428723454475, -0.02111007831990719, -0.007540414109826088, 0.39598819613456726, 0.2202598601579666, 0.4395202696323395, 0.013611417263746262, 0.10983831435441971, 0.32894235849380493, -0.3178878724575043, 0.03932182490825653, 0.10691066086292267,
0.017370687797665596, -0.38631412386894226, 0.00025864335475489497, -0.05765432491898537, -0.10404308140277863, -0.12837062776088715, -0.4651291072368622, -0.3199520409107208, -0.2881942391395569, 0.05499584600329399, -0.11035282909870148, 0.18201695382595062, -0.10314571112394333, 0.21518030762672424, 0.047502774745225906, 0.009058932773768902, 0.1301887184381485, -0.15098287165164948, -0.1249331533908844, -0.02017069235444069,
0.1839400678873062, -0.2641844153404236, -0.5006822347640991, 0.1173638328909874, -0.24262073636054993, -0.09514642506837845, 0.2864755690097809, 0.46663522720336914, -0.2932022213935852, -0.2835441827774048, 0.06913486868143082, 0.3619040846824646, -0.013326681219041348, -0.27816829085350037, -0.20623637735843658, -0.10625386983156204, -0.37203389406204224, -0.21233175694942474, -0.1668093055486679, 0.08756107836961746,
-0.2330394685268402, 0.16540729999542236, 0.48446622490882874, 0.03873234614729881, 0.030711811035871506, 0.46351414918899536, -0.459819495677948, -0.15806151926517487, 0.6419016718864441, -0.070509172976017, -0.24563537538051605, 0.21714934706687927, 0.46232253313064575, 0.24313393235206604, 0.1398182213306427, -0.30086544156074524, -0.092682845890522, -0.035122986882925034, 0.005092427134513855, -0.217854306101799
};

const float biases_fc1[] = {
-0.07958722114562988, -0.03601998835802078, 0.2857518792152405, -0.13151505589485168, -0.024311333894729614, 0.10735870897769928, 0.01981865055859089, 0.13486693799495697, -0.11732739955186844, -0.04552993178367615, -0.012935249134898186, 0.10998399555683136, 0.14147590100765228, -0.017995325848460197, 0.05348999798297882, 0.23096749186515808, 0.0690331682562828, 0.1762235015630722, -0.03592005372047424, 0.03739016503095627, -0.1286231130361557, 0.06225115433335304, -0.17209705710411072, 0.09860654175281525, 0.24121636152267456, 0.2218564748764038, -0.012413784861564636, 0.12472070008516312, 0.31797757744789124, 0.06480754911899567, 0.17400206625461578, -0.07915370166301727, 0.09493318200111389, -0.08152773231267929, 0.17837588489055634, -0.038110651075839996, 0.08987411856651306, -0.0011434564366936684, -0.031018003821372986, -0.06357717514038086, 0.0122766038402915, -0.05105827748775482, 0.06683071702718735, -0.15105217695236206, -0.10619284212589264, 0.036449071019887924, -0.00667462358251214, -0.14890043437480927, -0.05412133038043976, 0.06990951299667358, -0.02891831286251545, 0.03886587172746658, -0.1785907745361328, -0.03795384615659714, 0.017008179798722267, -0.1339641660451889, -0.243356391787529, 0.21257266402244568, -0.1641077846288681, -0.09968315809965134, 0.28391751646995544, 0.00521876709535718, -0.0935264527797699, -0.02865428477525711
};

const float weights_fc2[] = {
-0.12117909640073776, 0.23739203810691833, 0.3018714189529419, -0.17052273452281952, -0.06956299394369125, -0.026847271248698235, 0.08491436392068863, 0.32562097907066345, 0.15977880358695984, 0.056893352419137955, -0.3188863694667816, 0.34462204575538635, -0.09575484693050385, -0.15976262092590332, 0.1675092726945877, -0.415572851896286, -0.5062118768692017, -0.04301096126437187, -0.14815586805343628, 0.35320284962654114, -0.2567763328552246, -0.1813165545463562, 0.006003159563988447, 0.11052200943231583, -0.1066960021853447, -0.148738831281662, 0.5002392530441284, -0.004938941448926926, 0.4244394302368164, -0.0196364838629961, -0.05897114798426628, -0.12353385239839554, 0.1766880601644516, 0.15375690162181854, 0.28783366084098816, -0.19124259054660797, -0.031066954135894775, -0.13163484632968903, 0.01246331725269556, 0.11582865566015244, 0.12902076542377472, 0.11883772164583206, 0.10570108890533447, 0.05724186822772026, 0.1426621824502945, -0.06500444561243057, -0.20786333084106445, -0.21981345117092133, -0.11724033206701279, -0.024865981191396713, 0.24763625860214233, 0.12749545276165009, -0.04049946740269661, -0.08400168269872665, 0.3430182635784149, 0.04860413819551468, 0.0039157927967607975, 0.05489473044872284, -0.178414449095726, 0.0013755632098764181, -0.07299696654081345, 0.4400523602962494, 0.0018597731832414865, 0.13281576335430145,
0.06711238622665405, -0.17510075867176056, -0.5327957272529602, -0.24617059528827667, -0.1305428445339203, -0.1298617273569107, -0.1922624558210373, 0.2987998425960541, -0.0050806705839931965, -0.041241299360990524, -0.47367602586746216, -0.22879624366760254, 0.05136403441429138, -0.0673322007060051, 0.13573864102363586, -0.18302631378173828, 0.2495681494474411, 0.28450801968574524, 0.49825963377952576, 0.05155837535858154, -0.22419480979442596, -0.24618680775165558, 0.18343126773834229, -0.21456240117549896, -0.0821114033460617, -0.16484302282333374, -0.0924496278166771, -0.250990629196167, 0.33369743824005127, 0.3666239082813263, -0.24385100603103638, -0.11279023438692093, -0.16780078411102295, -0.056729063391685486, -0.2770403325557709, -0.41129523515701294, -0.07550477981567383, 0.06700830161571503, 0.24780350923538208, 0.015194065868854523, 0.2482946813106537, -0.0031544563826173544, -0.09461920708417892, 0.21466773748397827, -0.26178178191185, 0.023548830300569534, -0.19991227984428406, 0.13354651629924774, 0.344476580619812, 0.06713194400072098, -0.23715513944625854, 0.22861801087856293, 0.14828218519687653, 0.04547916352748871, -0.18053999543190002, -0.20804792642593384, -0.03163108974695206, 0.012158175930380821, -0.05640162527561188, 0.16959966719150543, -0.013669639825820923, 0.17635931074619293, -0.25378546118736267, 0.11207651346921921,
-0.2488306313753128, -0.04008036106824875, 0.052307792007923126, -0.21446271240711212, -0.181664377450943, -0.05742599442601204, 0.0205231923609972, -0.11734384298324585, -0.2039681375026703, -0.021960757672786713, 0.025594506412744522, -0.191243976354599, 0.09565792232751846, 0.004604090005159378, 0.24741198122501373, 0.1910926103591919, -0.0071449181996285915, -0.15553134679794312, 0.07874096930027008, -0.025955980643630028, -0.18318191170692444, -0.3428759276866913, 0.3776731491088867, -0.2760702073574066, -0.20785962045192719, -0.024308741092681885, -0.06323046237230301, 0.49598225951194763, 0.3411339223384857, -0.20183734595775604, 0.16611266136169434, -0.07252432405948639, 0.07449469715356827, -0.018479175865650177, -0.2794938385486603, 0.012724647298455238, -0.24498257040977478, 0.015505826100707054, 0.36500754952430725, 0.1258954405784607, -0.11727995425462723, -0.16172610223293304, 0.09009892493486404, -0.09492813050746918, -0.0356546975672245, 0.05263731628656387, 0.20284703373908997, -0.4435243010520935, -0.7525439262390137, -0.22203190624713898, 0.17352962493896484, -0.2461162507534027, 0.13233433663845062, -0.20474785566329956, -0.8280699849128723, -0.005579985212534666, -0.3149951100349426, -0.357417494058609, 0.2811765670776367, 0.16685844957828522, -0.3787290155887604, 0.2223566323518753, 0.13770975172519684, -0.1787516325712204,
0.10574102401733398, 0.17224079370498657, 0.07926979660987854, 0.484527587890625, -0.05792670324444771, 0.17574410140514374, -0.28269556164741516, 0.209140345454216, -0.2594357430934906, -0.15470002591609955, 0.09100903570652008, -0.054324012249708176, 0.1333899050951004, -0.18607081472873688, 0.07767841219902039, 0.05851658806204796, -0.10374560207128525, 0.037061236798763275, 0.13123498857021332, 0.07595472782850266, -0.17869752645492554, 0.5230807662010193, -0.044435638934373856, 0.08852134644985199, -0.07653486728668213, 0.22381141781806946, 0.27229538559913635, -0.12267720699310303, 0.011991504579782486, 0.19447769224643707, 0.1851077377796173, -0.05686011165380478, -0.35813790559768677, -0.1316477656364441, -0.3853369653224945, -0.28009384870529175, 0.345732182264328, 0.035731662064790726, -0.0904897078871727, 0.11776699870824814, 0.1071932464838028, -0.09253139793872833, -0.42904794216156006, 0.0173445213586092, 0.1689041256904602, 0.28452467918395996, 0.22511211037635803, -0.2650879919528961, -0.1348457932472229, 0.26409533619880676, -0.34885597229003906, 0.00645844079554081, -0.08790507912635803, 0.12571261823177338, 0.16832564771175385, -0.0012147563975304365, 0.15913352370262146, -0.18661820888519287, 0.06869229674339294, -0.27584272623062134, 0.04288958013057709, -0.26144182682037354, 0.23929953575134277, -0.5363271832466125,
0.32109829783439636, 0.03639190271496773, 0.11670638620853424, 0.27069470286369324, 0.03612262383103371, 0.28385066986083984, -0.07152321189641953, 0.09341631829738617, -0.11698640137910843, -0.26471027731895447, 0.1954328566789627, -0.2326800376176834, 0.29336604475975037, -0.3225194215774536, -0.008430730551481247, -0.045305684208869934, 0.25897759199142456, -0.19756127893924713, -0.3483896851539612, -0.12976530194282532, -0.030033053830266, -0.03812890872359276, -0.08022147417068481, 0.062410205602645874, 0.004999125842005014, 0.09568370878696442, 0.3240993320941925, -0.0605449415743351, 0.07189591974020004, 0.21267837285995483, -0.07186673581600189, 0.10336917638778687, 0.05864228680729866, 0.3889537453651428, 0.029795873910188675, -0.03299235925078392, -0.04131823778152466, -0.06383408606052399, -0.26941242814064026, 0.03895192965865135, -0.5851348638534546, -0.08125090599060059, 0.09569735080003738, 0.25143709778785706, 0.0052673774771392345, -0.28904086351394653, -0.29931384325027466, -0.21120376884937286, -0.27752527594566345, -0.231519415974617, -0.05346910282969475, -0.07523564249277115, -0.19511005282402039, -0.03854461386799812, -0.14061707258224487, 0.23197156190872192, -0.174380823969841, -0.19002528488636017, 0.41222837567329407, -0.27278822660446167, 0.14926449954509735, 0.2832016348838806, -0.0382554829120636, 0.12254054844379425,
0.17425425350666046, 0.12629689276218414, 0.1778780072927475, 0.11556398868560791, -0.4212011992931366, 0.21951451897621155, 0.1480306088924408, -0.10687850415706635, -0.10579400509595871, -0.16886885464191437, 0.13638141751289368, 0.08388566225767136, 0.2588660717010498, 0.5584201216697693, -0.03694570064544678, 0.04800551384687424, -0.02298489771783352, -0.2461109161376953, -0.06480579078197479, -0.12395338714122772, -0.09153351187705994, 0.2766043543815613, 0.022155914455652237, 0.3027805984020233, -0.21786411106586456, 0.21849627792835236, -0.197034552693367, 0.18859247863292694, 0.16662831604480743, 0.045701220631599426, -0.07642180472612381, 0.1700771003961563, 0.027953507378697395, 0.38009679317474365, -0.13897737860679626, -0.09428689628839493, 0.14440707862377167, 0.231475368142128, 0.32968199253082275, -0.14208802580833435, 0.22451341152191162, 0.08047902584075928, -0.07316087186336517, 0.3310064673423767, -0.00702118081972003, -0.07036673277616501, -0.3812830150127411, 0.0830279067158699, -0.29307690262794495, -0.24086515605449677, -0.36742573976516724, 0.3512714207172394, 0.36325928568840027, -0.34479132294654846, 0.35061267018318176, 0.007591893896460533, 0.014747723937034607, -0.1733408421278, 0.12194229662418365, -0.014055213890969753, -0.14946076273918152, 0.14292939007282257, -0.29867759346961975, 0.045025408267974854,
0.320934921503067, 0.016566317528486252, 0.06669033318758011, -0.16515178978443146, -0.03705424815416336, 0.22471310198307037, 0.24597935378551483, -0.38642793893814087, -0.07778763025999069, -0.09471442550420761, -0.35657164454460144, -0.2329064905643463, 0.260447233915329, 0.15394772589206696, 0.05132456496357918, 0.20387700200080872, -0.11408481746912003, 0.13752850890159607, 0.11307968944311142, -0.0889468714594841, -0.0513690821826458, 0.13247115910053253, -0.2675364911556244, -0.3306646943092346, -0.23144611716270447, 0.28500187397003174, 0.27503859996795654, 0.2939600646495819, 0.14395038783550262, -0.14393958449363708, 0.15981687605381012, -0.020035257562994957, 0.16069822013378143, -0.4865500330924988, -0.1991921067237854, -0.3734615743160248, -0.42762529850006104, 0.021143050864338875, -0.019208479672670364, -0.283700168132782, 0.21504636108875275, -0.18172776699066162, 0.05015750229358673, -0.08915998786687851, -0.04817914217710495, -0.023758497089147568, 0.3102768659591675, -0.16258062422275543, 0.15385910868644714, -0.09912356734275818, 0.24542993307113647, 0.044515274465084076, -0.3427887260913849, 0.14333544671535492, 0.09177375584840775, 0.15608401596546173, -0.10500770062208176, 0.136764258146286, 0.0837382823228836, -0.0578598715364933, 0.2745649516582489, 0.1512669026851654, -0.3497816324234009, 0.22318249940872192,
0.4696987569332123, 0.05160481110215187, -0.27143600583076477, -0.1430818736553192, 0.21515615284442902, 0.06316519528627396, 0.1895037144422531, 0.3641859292984009, 0.23631301522254944, 0.20937012135982513, -0.016952069476246834, 0.1298605352640152, 0.03360026329755783, -0.05252602696418762, -0.20771051943302155, 0.18108142912387848, -0.014467851258814335, 0.00045309975394047797, -0.1991521418094635, 0.18892250955104828, -0.4738636612892151, 0.47224894165992737, -0.26933443546295166, -0.23105283081531525, 0.0860634297132492, 0.18900755047798157, -0.020920967683196068, -0.11288019269704819, -0.11522378772497177, 0.10350638628005981, 0.07716794312000275, 0.008439716883003712, 0.01126338541507721, -0.22729207575321198, 0.07495202869176865, 0.02785429358482361, 0.19361011683940887, -0.19642363488674164, -0.10373448580503464, -0.15408648550510406, -0.04975779354572296, -0.3940223455429077, -0.3105262815952301, -0.07519686967134476, -0.15229572355747223, -0.3292520046234131, -0.12007832527160645, 0.1502409428358078, 0.12077771127223969, -0.06940217316150665, 0.1922149360179901, -0.26133477687835693, -0.2845200002193451, -0.1785355806350708, 0.08198756724596024, -0.2261774092912674, 0.17626532912254333, -0.35171714425086975, -0.4108595550060272, 0.3629957139492035, -0.15332113206386566, -0.5428959727287292, -0.03324873372912407, 0.02423393912613392,
0.29944032430648804, -0.1426735669374466, 0.27059105038642883, -0.14665409922599792, -0.07185836881399155, -0.24581055343151093, -0.018912214785814285, 0.10372193902730942, -0.6448146104812622, 0.3265652358531952, -0.22682452201843262, 0.03427828848361969, -0.0009795454097911716, 0.22941721975803375, -0.2207263708114624, 0.36814379692077637, -0.019955841824412346, 0.38684144616127014, -0.3288259506225586, 0.12807077169418335, -0.13931871950626373, -0.13958224654197693, -0.08269570767879486, 0.13627715408802032, 0.5597180724143982, 0.19646187126636505, 0.4205314815044403, 0.1757950335741043, -0.023974936455488205, 0.17655988037586212, -0.19929909706115723, -0.1889064759016037, 0.11493194103240967, 0.031011290848255157, 0.2872213125228882, -0.24074703454971313, -0.1884336918592453, 0.06760798394680023, -0.2611944377422333, -0.11648831516504288, -0.052673403173685074, 0.2252698540687561, -0.015289993956685066, 0.1931566298007965, -0.20431579649448395, 0.2737618386745453, -0.032327987253665924, -0.058816421777009964, -0.06904694437980652, -0.023268776014447212, -0.20194000005722046, -0.11286059021949768, 0.06127903237938881, 0.07861034572124481, -0.10173328220844269, 0.09655284881591797, -0.2013024240732193, -0.07171808928251266, -0.03197736665606499, -0.4139476716518402, -0.16093887388706207, 0.0432642363011837, -0.2632119953632355, -0.3350403308868408,
0.0011845625704154372, 0.29621458053588867, -0.2866192162036896, -0.10364271700382233, 0.33737847208976746, 0.019359314814209938, -0.3383839726448059, -0.09472543746232986, 0.051631148904561996, 0.06424962729215622, 0.07571481913328171, -0.49766218662261963, 0.11396504938602448, 0.04653393477201462, -0.042816411703825, -0.3000868856906891, -0.10767950862646103, 0.00023720278113614768, -0.30432242155075073, 0.14558477699756622, -0.006259227637201548, -0.27155905961990356, 0.09098419547080994, 0.015459416434168816, 0.18023166060447693, -0.49932432174682617, -0.11019721627235413, -0.42419129610061646, 0.21397168934345245, 0.44229403138160706, 0.13287948071956635, -0.2233458310365677, -0.2156956046819687, -0.20890983939170837, 0.23889239132404327, -0.11442908644676208, -0.3499084413051605, -0.23936167359352112, 0.07191421836614609, 0.19599471986293793, 0.08134486526250839, -0.11484739184379578, 0.1629316210746765, 0.04556305706501007, -0.14692431688308716, 0.1607971340417862, -0.1777663677930832, -0.08089780062437057, -0.08411837369203568, -0.1557450145483017, 0.11439582705497742, 0.13634881377220154, 0.03569239750504494, -0.039585597813129425, -0.15172600746154785, -0.07110002636909485, -0.11515223234891891, 0.3782896101474762, -0.28062137961387634, 0.11322628706693649, 0.4027652144432068, -0.16303156316280365, 0.10113387554883957, -0.17329928278923035,
0.28998443484306335, 0.49494796991348267, 0.12191504240036011, -0.0042028045281767845, -0.27302664518356323, -0.011505341157317162, -0.27887263894081116, 0.05109187960624695, -0.2235882580280304, 0.04431021958589554, 0.2940313220024109, -0.030193764716386795, -0.567358136177063, 0.010084924288094044, -0.06901800632476807, 0.1572912335395813, 0.05038398504257202, -0.10863334685564041, -0.09112754464149475, 0.03876466676592827, -0.35629838705062866, 0.009571067057549953, 0.00889436062425375, 0.3289516866207123, -0.18976619839668274, -0.11926674097776413, -0.2649535536766052, 0.2119859755039215, -0.6227030754089355, 0.22524021565914154, -0.0862867534160614, -0.20690889656543732, -0.010239681228995323, 0.026131778955459595, -0.38888752460479736, -0.14743663370609283, 0.017446545884013176, 0.09197893738746643, 0.05493594706058502, 0.33159351348876953, -0.07882741093635559, -0.03317730128765106, 0.09803440421819687, 0.142922043800354, 0.35901904106140137, 0.06803100556135178, 0.0528777539730072, -0.3515659272670746, 0.14546003937721252, -0.06520961970090866, 0.3133261501789093, 0.0378168560564518, -0.04014146327972412, 0.07352446764707565, 0.31371140480041504, -0.06712953001260757, 0.08347108960151672, -0.0596579946577549, 0.12268751114606857, -0.08463132381439209, -0.0397026352584362, 0.2394040822982788, -0.08416543900966644, 0.14107631146907806,
0.08923225849866867, -0.3012692928314209, -0.10210628062486649, -0.22858606278896332, -0.21821002662181854, 0.0035820419434458017, 0.0052774520590901375, -0.3238086700439453, 0.05359984561800957, 0.20025236904621124, 0.1695338636636734, 0.3608149290084839, -0.26663878560066223, -0.11215593665838242, 0.33255869150161743, 0.25755661725997925, -0.2858319878578186, -0.2694065272808075, -0.04220231994986534, 0.4906879961490631, -0.1052728146314621, 0.14177612960338593, -0.2587028443813324, -0.35634857416152954, 0.06761863082647324, -0.3115835189819336, -0.008897264488041401, -0.36019304394721985, -0.14411626756191254, -0.0812610387802124, 0.20307138562202454, 0.09269513189792633, 0.022669395431876183, 0.0629655197262764, -0.3326169550418854, -0.05133458599448204, -0.2449227273464203, 0.000554658065084368, 0.15669366717338562, 0.001030410174280405, -0.09282226115465164, 0.08649297058582306, -0.07872489839792252, 0.18308515846729279, -0.03415147587656975, -0.30085477232933044, 0.15657134354114532, 0.2916843295097351, 0.08881620317697525, -0.1413562297821045, -0.05437609180808067, -0.12482177466154099, 0.16491691768169403, 0.018784431740641594, -0.19322358071804047, -0.09134947508573532, -0.425035685300827, 0.21582815051078796, 0.08390018343925476, -0.3716171979904175, -0.040984511375427246, 0.2822096347808838, -0.2913392186164856, -0.029327169060707092,
0.1631331443786621, 0.009477660991251469, 0.05283503234386444, -0.15616779029369354, -0.4543318450450897, -0.14910085499286652, 0.07201191782951355, -0.03157435730099678, -0.1736735999584198, 0.12860339879989624, -0.2554992735385895, 0.025462301447987556, -0.0008702055783942342, 0.085816390812397, 0.26464971899986267, -0.5184620022773743, -0.2505796551704407, -0.2440396547317505, 0.04139959067106247, 0.051476769149303436, -0.039759520441293716, -0.2690921723842621, -0.1471131294965744, -0.0627707839012146, 0.3060908913612366, 0.4638250172138214, 0.10932612419128418, -0.01001861784607172, -0.13334724307060242, 0.48606130480766296, 0.08562964200973511, 0.07021468132734299, 0.04458552598953247, 0.13478048145771027, 0.04697152227163315, 0.2234347015619278, -0.10561095178127289, 0.06142405420541763, 0.009004550985991955, 0.17039340734481812, -0.009248430840671062, -0.15465164184570312, 0.3613755404949188, 0.11814388632774353, -0.20054709911346436, -0.13198226690292358, -0.011332259513437748, 0.0607631579041481, 0.08225511014461517, -0.015651049092411995, 0.2925560176372528, -0.10756956040859222, -0.11939126998186111, 0.00856132060289383, -0.02388107031583786, 0.04283643513917923, 0.24312327802181244, 0.10932667553424835, 0.06407515704631805, -0.3215165138244629, 0.4765460789203644, -0.06966228783130646, -0.014227420091629028, -0.34708350896835327,
0.2672725021839142, -0.0457913763821125, -0.09870539605617523, 0.34030991792678833, -0.01731337420642376, 0.1632247418165207, -0.043713971972465515, 0.20015347003936768, -0.30636873841285706, -0.20938150584697723, -0.2153647541999817, -0.007379986811429262, 0.19001448154449463, 0.08752378076314926, 0.10758012533187866, 0.08205000311136246, 0.14559589326381683, 0.02110413648188114, 0.11012140661478043, 0.10680365562438965, -0.2921052873134613, 0.48910313844680786, -0.13203734159469604, 0.04483345150947571, 0.06608570367097855, -0.25439563393592834, 0.018604202196002007, -0.14249613881111145, -0.4468095600605011, -0.23862822353839874, -0.02691824361681938, -0.03756309673190117, 0.17904132604599, 0.3493386209011078, -0.12964269518852234, -0.018643148243427277, -0.056725263595581055, 0.12236975133419037, 0.37330031394958496, 0.08538191020488739, 0.012601214461028576, -0.07586121559143066, 0.10103319585323334, 0.16868676245212555, 0.08762816339731216, 0.07999158650636673, 0.509458601474762, -0.013502408750355244, -0.10695620626211166, -0.0842314213514328, -0.2710590362548828, 0.17964324355125427, 0.044993020594120026, 0.017787771299481392, 0.19108127057552338, -0.0812634751200676, 0.30968132615089417, -0.2016904652118683, 0.34306642413139343, 0.487138032913208, 0.04416347295045853, 0.08714591711759567, 0.2987445890903473, 0.14037612080574036,
-0.07577451318502426, 0.1486285775899887, 0.16210061311721802, -0.22823065519332886, 0.22486479580402374, -0.21920999884605408, 0.15967966616153717, 0.23319673538208008, -0.1514238715171814, 0.04369354620575905, -0.06613382697105408, -0.06351503729820251, -0.18713435530662537, 0.27211663126945496, 0.30582067370414734, 0.05943123623728752, 0.13415464758872986, -0.30264535546302795, -0.05302907153964043, 0.1982783079147339, 0.25216004252433777, 0.1124962866306305, -0.44599971175193787, 0.06772762537002563, -0.7904341220855713, -0.08125081658363342, -0.07655016332864761, -0.06478729844093323, 0.26934656500816345, 0.2249542474746704, 0.002112132264301181, -0.3572268784046173, 0.06394419819116592, 0.05527482554316521, 0.18160293996334076, 0.4037701487541199, -0.05159655585885048, 0.15751127898693085, -0.30611106753349304, -0.13599665462970734, -0.08403368294239044, -0.07693283259868622, -0.05764179304242134, -0.17423264682292938, -0.36921581625938416, 0.013121807016432285, -0.16909350454807281, 0.2493012696504593, -0.05745285749435425, -0.26029306650161743, -0.35796526074409485, -0.10261830687522888, -0.23645979166030884, 0.4099147915840149, 0.07841033488512039, -0.19677655398845673, 0.2840116620063782, -0.1575951874256134, -0.47176432609558105, -0.10646046698093414, -0.02695893496274948, -0.16357821226119995, 0.013115596026182175, 0.1844726800918579,
-0.05800463631749153, 0.02613922394812107, 0.08672098070383072, 0.23279157280921936, 0.0280443262308836, -0.09483979642391205, 0.00996207632124424, -0.020919637754559517, 0.22019678354263306, 0.18123416602611542, 0.023204514756798744, -0.24825860559940338, 0.02774277701973915, 0.01434476487338543, -0.35270339250564575, 0.09701921045780182, 0.15821877121925354, -0.301040917634964, 0.027736490592360497, -0.03840622305870056, -0.06445713341236115, 0.30618980526924133, -0.2795757055282593, 0.10257650911808014, 0.06543871760368347, -0.01706612855195999, 0.029482422396540642, -0.17241771519184113, -0.0900082141160965, -0.02208344079554081, -0.4438442587852478, -0.19116176664829254, -0.22706171870231628, -0.14734035730361938, -0.15486882627010345, -0.3154274523258209, 0.058281224220991135, 0.23787638545036316, 0.412008136510849, 0.4483281075954437, -0.05998627468943596, 0.0029860304202884436, -0.14872191846370697, 0.02006225474178791, 0.10079251974821091, -0.2983422577381134, -0.26392772793769836, 0.06661152839660645, -0.03431880474090576, -0.3855062425136566, 0.3231257498264313, -0.2827519178390503, 0.25937190651893616, -0.1950969398021698, 0.01118900254368782, 0.07387810200452805, -0.0018869307823479176, 0.36661913990974426, 0.014528016559779644, -0.02693937160074711, -0.01821495033800602, 0.2104492038488388, 0.03692393749952316, -0.022167226299643517,
0.4733506143093109, 0.05261307954788208, -0.2723512649536133, 0.17136681079864502, -0.32718777656555176, -0.044705551117658615, 0.020658712834119797, 0.049369823187589645, -0.15653586387634277, -0.04758426174521446, -0.32447388768196106, 0.2222032994031906, -0.007647708058357239, -0.1628362387418747, -0.041522905230522156, -0.23363927006721497, 0.05913529545068741, -0.17372310161590576, -0.09112619608640671, -0.002623774344101548, -0.19935089349746704, -0.23700666427612305, -0.20090097188949585, -0.14032940566539764, 0.18136784434318542, -0.40878328680992126, -0.11150523275136948, 0.12963107228279114, 0.18274982273578644, 0.1284516155719757, 0.15763117372989655, 0.261133074760437, -0.13278673589229584, -0.29230502247810364, 0.05311725288629532, 0.007436101324856281, -0.01587703451514244, 0.3710537254810333, 0.006724086124449968, 0.19775250554084778, 0.026234876364469528, 0.15641288459300995, -0.12543219327926636, -0.2662872076034546, 0.3299461603164673, 0.2583778500556946, -0.3532212972640991, 0.06068117171525955, -0.21879714727401733, 0.0010743298335000873, 0.24354363977909088, 0.2034674435853958, 0.11650098860263824, -0.1757446676492691, 0.12047559767961502, 0.19544048607349396, -0.46497902274131775, 0.11470399796962738, -0.30365127325057983, -0.04638290777802467, 0.007347282022237778, -0.07033180445432663, 0.15092547237873077, -0.18318691849708557,
0.0575815811753273, 0.2750528156757355, 0.3812128007411957, -0.14592184126377106, 0.08715247362852097, -0.4014887809753418, -0.1816464215517044, -0.10922948271036148, -0.12691859900951385, 0.035477057099342346, -0.2892659306526184, -0.015993190929293633, -0.2327110469341278, -0.12864026427268982, 0.10291728377342224, -0.03931804746389389, -0.006088652182370424, -0.023721005767583847, -0.3664376437664032, -0.0916559174656868, 0.08391350507736206, 0.2291918396949768, -0.016053125262260437, -0.010746018029749393, 0.23070162534713745, -0.2038624882698059, -0.14074300229549408, 0.08114399760961533, 0.5314884781837463, -0.16398707032203674, 0.28889408707618713, 0.08014144003391266, -0.2701210379600525, -0.04881560057401657, 0.16175790131092072, -0.2506878972053528, 0.22039198875427246, -0.04263404756784439, 0.024292802438139915, 0.041822753846645355, -0.21313787996768951, 0.015733735635876656, -0.27754759788513184, -0.06976602226495743, -0.05840989202260971, -0.5301145315170288, 0.030153531581163406, -0.25287678837776184, 0.011610865592956543, 0.14323213696479797, -0.042966753244400024, 0.10812242329120636, 0.24827030301094055, 0.4664750397205353, 0.09530016779899597, -0.15303032100200653, 0.36226215958595276, 0.14179401099681854, 0.1772194653749466, -0.4572121500968933, -0.551991879940033, -0.04961339384317398, 0.18923664093017578, -0.30817556381225586,
0.1980195939540863, -0.3054957985877991, -0.20551295578479767, 0.3926679491996765, 0.1426345854997635, 0.1173875704407692, 0.01084133516997099, -0.07820607721805573, 0.020720500499010086, -0.17733356356620789, -0.15189051628112793, 0.12008023262023926, -0.47473302483558655, 0.3420240581035614, 0.2691729962825775, 0.07945103198289871, -0.28652259707450867, 0.08274350315332413, -0.060795433819293976, -0.028330892324447632, 0.16294658184051514, 0.15728174149990082, 0.18299157917499542, 0.10489331185817719, 0.04717077687382698, 0.10208233445882797, 0.18063855171203613, 0.08839684724807739, 0.192933589220047, 0.2624306082725525, -0.12756900489330292, -0.0035962045658379793, -0.0841701328754425, -0.4214627742767334, -0.11981085687875748, 0.19386979937553406, 0.24895703792572021, 0.018431227654218674, -0.03385201841592789, -0.20424385368824005, 0.28953179717063904, 0.09986216574907303, 0.008053509518504143, 0.260731965303421, -0.11487952619791031, -0.09349749237298965, -0.09103113412857056, 0.08948484063148499, 0.30320632457733154, 0.11939103901386261, 0.1196984350681305, 0.06425996124744415, 0.03004153072834015, -0.032688383013010025, -0.10283396393060684, 0.00020708859665319324, 0.020853711292147636, -0.07337364554405212, -0.12776276469230652, 0.33894097805023193, -0.18625929951667786, 0.22506260871887207, 0.42133650183677673, 0.3788807988166809,
-0.12443412840366364, -0.10956883430480957, 0.16001178324222565, -0.0452953465282917, -0.3659045994281769, -0.1314624398946762, 0.051447175443172455, -0.03140479698777199, -0.14902934432029724, -0.0023384741507470608, -0.10204236209392548, -0.369299978017807, 0.2217065691947937, -0.13783755898475647, 0.06852756440639496, 0.23108769953250885, 0.027756093069911003, -0.32856008410453796, 0.08970222622156143, 0.03771904855966568, 0.33171480894088745, 0.4878208637237549, -0.19340740144252777, 0.09511759877204895, -0.18060608208179474, -0.21148011088371277, -0.0368364192545414, 0.023132503032684326, -0.4173661768436432, 0.15747420489788055, 0.10018759220838547, -0.19012048840522766, 0.2514409124851227, -0.23182348906993866, 0.1350473016500473, -0.4109474718570709, -0.1422988474369049, -0.33683067560195923, 0.0068166726268827915, 0.004815749824047089, -0.3415013551712036, -0.05393463373184204, -0.14325974881649017, 0.37150558829307556, 0.17096178233623505, 0.5032668709754944, -0.43840035796165466, -0.14964044094085693, 0.05288299545645714, 0.11139017343521118, -0.01367595698684454, -0.11440987884998322, 0.2738519310951233, 0.02388128824532032, 0.330995112657547, -0.029651978984475136, 0.027410779148340225, 0.21330492198467255, 0.116836778819561, 0.2420967072248459, -0.08360236138105392, 0.20088866353034973, 0.2632282078266144, -0.06377482414245605,
-0.10828430205583572, 0.007151431869715452, -0.3839271664619446, -0.2570693790912628, -0.075812928378582, -0.24753478169441223, -0.10051728039979935, -0.13845548033714294, -0.26316386461257935, -0.1857147216796875, 0.2739526927471161, 0.1585182547569275, 0.3632843494415283, 0.12714701890945435, -0.09297486394643784, -0.022562280297279358, -0.47041115164756775, -0.10957298427820206, 0.27385684847831726, -0.23410314321517944, -0.13754823803901672, -0.038127679377794266, -0.6418116092681885, 0.3680211901664734, 0.22093479335308075, 0.06850051879882812, 0.15396764874458313, 0.16872525215148926, 0.0472472608089447, -0.05958859622478485, -0.06315267086029053, -0.3330700099468231, 0.3202440142631531, -0.025306977331638336, -0.4541487693786621, 0.08203750103712082, -0.02299690432846546, -0.09127919375896454, -0.11164192855358124, 0.1748199313879013, -0.25437742471694946, 0.11973600834608078, 0.018509523943066597, 0.23656070232391357, 0.1441759616136551, -0.08430291712284088, -0.23069262504577637, 0.10407222807407379, 0.09222038090229034, -0.4538287818431854, 0.1321568340063095, -0.10648319870233536, -0.372991144657135, -0.23281338810920715, 0.17360031604766846, 0.21939364075660706, -0.17312510311603546, -0.027239929884672165, -0.10229340195655823, 0.11400873959064484, 0.0781748816370964, 0.009844427928328514, 0.0887751504778862, -0.11012240499258041,
0.017598895356059074, 0.3163706660270691, 0.042608797550201416, -0.05111756548285484, 0.0338163860142231, -0.09765569865703583, 0.17452570796012878, -0.21408770978450775, 0.16446223855018616, -0.09532099217176437, -0.24332042038440704, 0.3779023587703705, -0.16369852423667908, 0.10219132900238037, -0.5096341967582703, 0.2941887080669403, 0.05513526871800423, 0.05028849095106125, -0.00650129234418273, -0.1448393166065216, -0.1386527270078659, -0.08353675901889801, -0.332388699054718, -0.14453794062137604, -0.3317369222640991, 0.04936709254980087, -0.242616206407547, -0.4669426679611206, -0.06418688595294952, 0.586073100566864, 0.03891284763813019, -0.3589167594909668, -0.09113085269927979, -0.03441391512751579, -0.037770241498947144, -0.2540135681629181, 0.18109682202339172, 0.2240150421857834, 0.1443595141172409, -0.20292794704437256, -0.6542071104049683, -0.16893982887268066, -0.06445279717445374, -0.09164014458656311, 0.13310368359088898, -0.09973607957363129, 0.09350977092981339, 0.14195972681045532, 0.03428782895207405, 0.35021400451660156, -0.22312675416469574, -0.23862473666667938, 0.22618450224399567, -0.2646876871585846, 0.006009393371641636, 0.08157357573509216, 0.04926392436027527, -0.14732380211353302, 0.23164065182209015, -0.040013693273067474, -0.03824599087238312, -0.1862407773733139, 0.22340136766433716, 0.1575886458158493,
0.01826784759759903, -0.11339197307825089, -0.3101559281349182, -0.26116055250167847, -0.1426273137331009, -0.16861768066883087, -0.09301861375570297, 0.2986307740211487, 0.589335560798645, -0.047675374895334244, 0.02375365048646927, -0.062091197818517685, -0.2939724028110504, 0.2263144552707672, -0.22401666641235352, -0.24645690619945526, 0.2558579742908478, -0.2365345060825348, 0.12093599140644073, 4.0454302506987005e-05, 0.1346493810415268, 0.032019101083278656, -0.3473135828971863, 0.30803918838500977, 0.04373030364513397, -0.2860705852508545, 0.41703978180885315, -0.21538594365119934, -0.20784412324428558, 0.11488547921180725, 0.3067120909690857, -0.02675888128578663, 0.1798940747976303, -0.23542238771915436, -0.0687396451830864, 0.2300747036933899, 0.05996895208954811, -0.04092494770884514, 0.32676541805267334, -0.1179085448384285, 0.22946682572364807, -0.038795553147792816, 0.18750761449337006, -0.05418340489268303, 0.08753421902656555, 0.0519975982606411, -0.16762812435626984, -0.3974536955356598, 0.050572630017995834, 0.1195584088563919, -0.18889053165912628, 0.2830096185207367, 0.06194765493273735, 0.17386649549007416, -0.26525548100471497, -0.04965190589427948, 0.0029292849358171225, -0.15537534654140472, -0.056338049471378326, 0.08526308089494705, -0.3162155747413635, 0.09840193390846252, 0.2521468698978424, -0.19566740095615387,
0.08408015221357346, -0.16375261545181274, 0.3162115514278412, -0.012787303887307644, 0.05208498239517212, -0.015493229031562805, 0.008056582883000374, 0.2102205455303192, 0.25568509101867676, 0.0007700244896113873, -0.13558952510356903, -0.023839116096496582, 0.34937846660614014, 0.06216761842370033, 0.4189840257167816, 0.08966702222824097, -0.05374542251229286, 0.21453896164894104, 0.03428603708744049, -0.16831345856189728, -0.27425646781921387, 0.02427799254655838, -0.07214826345443726, 0.26776108145713806, 0.10717112571001053, 0.1321197897195816, -0.2669762670993805, -0.4255000650882721, -0.24525095522403717, -0.022156421095132828, 0.1655603051185608, -0.023243751376867294, -0.009187823161482811, -0.13398422300815582, -0.1098303347826004, -0.06448031961917877, -0.23196929693222046, -0.2914707660675049, -0.1875820755958557, -0.06705281138420105, 0.027223974466323853, 0.4766603112220764, -0.1158805713057518, 0.02656647376716137, -0.6807132363319397, -0.129820317029953, -0.0568673312664032, -0.18462207913398743, -0.20846253633499146, 0.023956798017024994, 0.2679128348827362, 0.0798044502735138, -0.28558939695358276, -0.057080041617155075, -0.14853329956531525, -0.2926676273345947, -0.38896864652633667, 0.19261685013771057, -0.08837630599737167, 0.07488466054201126, -0.3327045738697052, -0.1613926887512207, 0.10722383856773376, 0.06541658937931061,
0.07032808661460876, 0.09152448922395706, 0.12857678532600403, -0.18120624125003815, -0.0753030851483345, -0.23958364129066467, 0.18245388567447662, 0.15595118701457977, -0.21890410780906677, 0.27883267402648926, -0.11159901320934296, 0.18107713758945465, 0.01700209453701973, -0.026337632909417152, -0.3658575117588043, 0.18675649166107178, -0.16070783138275146, -0.13895615935325623, -0.4188515841960907, -0.09793771803379059, 0.09881298989057541, 0.18024173378944397, -0.03761253505945206, 0.03299131989479065, -0.0070402114652097225, -0.14945892989635468, -0.12727613747119904, -0.08818070590496063, -0.0850866287946701, 0.21510282158851624, -0.2600465714931488, 0.15428870916366577, -0.3180844485759735, -0.038029883056879044, -0.42690056562423706, 0.03619172424077988, 0.20775622129440308, 0.2641350030899048, 0.035015616565942764, -0.11354734748601913, 0.28200945258140564, -0.2790103256702423, 0.10002043098211288, 0.04611000418663025, -0.20679974555969238, 0.29780375957489014, 0.21929620206356049, -0.022487442940473557, -0.181407168507576, -0.011251186951994896, 0.09658887982368469, -0.40053731203079224, -0.607698917388916, 0.056217461824417114, -0.18276366591453552, -0.04470772668719292, -0.19266803562641144, 0.05031900107860565, 0.16675728559494019, 0.14655767381191254, 0.20185357332229614, -0.22836625576019287, -0.13350415229797363, 0.18702289462089539,
0.14146745204925537, -0.08017999678850174, 0.11606167256832123, 0.3376220762729645, 0.3107539117336273, -0.11444296687841415, 0.16577905416488647, 0.16602389514446259, -0.1004585549235344, 0.4692819118499756, -0.06231577321887016, -0.14974716305732727, -0.038292963057756424, -0.11375110596418381, -0.23449742794036865, -0.14477473497390747, -0.1486082524061203, -0.04731043055653572, -0.31688326597213745, 0.1114964708685875, 0.06920790672302246, 0.04008949175477028, 0.2214982509613037, 0.030962800607085228, -0.1254575252532959, 0.5349310040473938, -0.1614588350057602, -0.31998780369758606, -0.08164316415786743, 0.07068848609924316, 0.09376178681850433, 0.1880318522453308, -0.015239809639751911, -0.5135983824729919, -0.41873449087142944, -0.08788739889860153, 0.3084387183189392, 0.2775859236717224, 0.28459057211875916, -0.1291082352399826, -0.39036333560943604, 0.21896983683109283, 0.015559244900941849, -0.14755643904209137, -0.23919762670993805, -0.07395201176404953, 0.17814841866493225, 0.03024299442768097, 0.12948885560035706, -0.07628773152828217, -0.06096123903989792, 0.21869169175624847, 0.1021915003657341, 0.14048637449741364, -0.3842748999595642, -0.04968472197651863, -0.21253761649131775, 0.010999588295817375, -0.1319756656885147, 0.027992727234959602, -0.18976128101348877, -0.04732777178287506, 0.025290625169873238, 0.3460629880428314,
-0.2083345651626587, 0.3267991840839386, 0.11446291208267212, 0.14677242934703827, 0.046427514404058456, -0.09731122106313705, 0.19414721429347992, 0.2417176514863968, -0.2305627465248108, 0.11042598634958267, -0.22667118906974792, -0.15840652585029602, -0.057249996811151505, 0.025490913540124893, 0.15930913388729095, 0.4722137451171875, 0.11680001020431519, -0.248177170753479, -0.36979418992996216, -0.11513042449951172, -0.011574765667319298, 0.2776395380496979, 0.09076587855815887, 0.047053173184394836, -0.059714943170547485, -0.05673617124557495, 0.0650109127163887, 0.08646314591169357, -0.35658323764801025, -0.19495929777622223, -0.20110037922859192, -0.15489165484905243, -0.08813326805830002, -0.38085681200027466, 0.03931036591529846, 0.2450920045375824, -0.03420667350292206, -0.29283276200294495, 0.09146784991025925, -0.06621724367141724, -0.5163699388504028, -0.16874843835830688, -0.004574362654238939, 0.03377937152981758, -0.09757395833730698, -0.1640770137310028, 0.040114376693964005, -0.08433476835489273, -0.03599708527326584, 0.44000136852264404, -0.1849997639656067, 0.42121297121047974, -0.13953779637813568, -0.02556299977004528, -0.13118788599967957, -0.05824938789010048, -0.2326427847146988, 0.1369834691286087, 0.2861420512199402, -0.21259690821170807, -0.01825484074652195, -0.3404167592525482, -0.45537495613098145, -0.28848376870155334,
-0.19751808047294617, -0.2107045203447342, 0.19941726326942444, 0.25103428959846497, -0.35426920652389526, -0.04953108727931976, -0.3740009367465973, -0.021124115213751793, -0.05091617628931999, 0.008021359331905842, -0.25331997871398926, 0.10659575462341309, -0.3769475221633911, 0.2465907633304596, 0.058611832559108734, -0.1216992437839508, 0.1340227723121643, 0.35560667514801025, -0.37986066937446594, -0.04609839245676994, -0.07584453374147415, -0.18235892057418823, -0.10309507697820663, -0.01719478704035282, -0.061353739351034164, 0.11560987681150436, 0.23231515288352966, 0.10736749321222305, 0.266979455947876, -0.05072897672653198, -0.12636518478393555, 0.22734758257865906, 0.09718803316354752, 0.06696125864982605, -0.045628972351551056, 0.02201125957071781, 0.14105965197086334, 0.012002089992165565, -0.3965856432914734, -0.1844203919172287, -0.3829258680343628, 0.10697495192289352, -0.40020325779914856, -0.25661736726760864, 0.06488481909036636, -0.0075515080243349075, -0.1113506555557251, -0.4807446002960205, -0.1242791935801506, -0.4005833566188812, 0.14730115234851837, 0.1602751761674881, 0.10034804791212082, 0.16490449011325836, -0.2456737607717514, -0.07427462935447693, 0.04376273229718208, 0.06302972882986069, 0.017831409350037575, 0.0830502063035965, 0.41552242636680603, -0.2169354110956192, -0.2229754626750946, 0.32924115657806396,
-0.35682550072669983, -0.15232650935649872, -0.1979096233844757, 0.08812158554792404, 0.3119911253452301, 0.10617931187152863, -0.37520721554756165, 0.19011437892913818, -0.01195761002600193, 0.11383048444986343, -0.16005389392375946, 0.03472205251455307, -0.17025800049304962, 0.1154039204120636, -0.25881531834602356, -0.3375236392021179, -0.042263541370630264, -0.10922911018133163, -0.13629961013793945, -0.14387212693691254, 0.053723420947790146, -0.28044742345809937, -0.27120283246040344, -0.33967557549476624, -0.10729548335075378, 0.1255805492401123, -0.23305340111255646, 0.020658379420638084, 0.07611259073019028, 0.3629764914512634, 0.17724767327308655, 0.08830738812685013, -0.0059680393896996975, 0.0011164298048242927, -0.2966640889644623, 0.33605340123176575, -0.0812315046787262, -0.3455468714237213, -0.21691901981830597, -0.1590949147939682, 0.07884439080953598, 0.29542621970176697, 0.12444090098142624, 0.2235109508037567, -0.15190951526165009, 0.0058616590686142445, 0.4353685975074768, 0.10144295543432236, 0.068603515625, 0.11470648646354675, 0.3246428370475769, 0.1260753720998764, 0.1740243136882782, -0.03491593897342682, 0.01403987966477871, 0.08491691201925278, 0.36746805906295776, -0.032047390937805176, -0.1485593318939209, -0.25263944268226624, -0.07287786155939102, 0.26457658410072327, -0.06377902626991272, 0.37333962321281433,
-0.1107512041926384, 0.10882890224456787, 0.19593901932239532, 0.42289555072784424, 0.11502183973789215, 0.10984919965267181, -0.22624321281909943, -0.045472439378499985, 0.1582910716533661, 0.05917636677622795, -0.03316514194011688, 0.020018303766846657, -0.1498555839061737, 0.06890972703695297, -0.133470818400383, 0.17568886280059814, -0.38566428422927856, -0.1299148052930832, 0.22028982639312744, 0.001534925540909171, -0.2878718972206116, 0.2488463968038559, 0.0019157046917825937, -0.15786167979240417, 0.2559378445148468, -0.08282474428415298, -0.270804762840271, 0.02544989064335823, -0.08596444129943848, 0.14359383285045624, 0.3569636046886444, 0.04412968084216118, -0.1853708177804947, 0.134614959359169, -0.03610684722661972, 0.3147546648979187, 0.0034205366391688585, 0.274527370929718, 0.5034589171409607, -0.1871269941329956, -0.20999179780483246, -0.004061492159962654, -0.09974725544452667, -0.1402484029531479, -0.44376489520072937, 0.17653769254684448, -0.06353218853473663, 0.09338768571615219, 0.1955662965774536, 0.12327297031879425, 0.04353054240345955, -0.04468439146876335, -0.11503695696592331, 0.05854249745607376, 0.0019033481366932392, 0.4556935429573059, -0.013626051135361195, -0.47128456830978394, 0.0010656461818143725, 0.1804095059633255, -0.03784912824630737, -0.19631727039813995, -0.4432002604007721, 0.28056854009628296,
-0.06089811772108078, 0.3187900185585022, 0.2506864666938782, -0.26909053325653076, 0.1924481987953186, -0.09883634001016617, -0.3957493007183075, -0.3537849485874176, 0.17624136805534363, -0.12475383281707764, -0.2841036021709442, 0.2042613923549652, -0.11729886382818222, -0.36898231506347656, 0.2944406270980835, -0.139596089720726, 0.25194045901298523, -0.1964631825685501, 0.15880531072616577, 0.29484134912490845, -0.15748310089111328, -0.38636213541030884, -0.1359715461730957, 0.2469639927148819, 0.13894668221473694, 0.33077940344810486, -0.46582144498825073, 0.13756214082241058, 0.29451873898506165, -0.011537913233041763, -0.04393811896443367, 0.2527834177017212, 0.1299382746219635, -0.08495074510574341, 0.22739604115486145, -0.05854668840765953, -0.18079693615436554, -0.3031037747859955, 0.35086095333099365, 0.012473918497562408, -0.09803906083106995, -0.02641848474740982, -0.19542169570922852, 0.42026785016059875, 0.03132159262895584, 0.07254867255687714, -0.06945904344320297, -0.17528516054153442, -0.16781693696975708, -0.3478705585002899, -0.0628497302532196, -0.018076682463288307, -0.18462955951690674, 0.007189127150923014, -0.06567763537168503, -0.07635345309972763, -0.3607328534126282, -0.0019482370698824525, -0.19817501306533813, -0.26851728558540344, 0.310015469789505, 0.1265108585357666, -0.11854510754346848, -0.2544052302837372,
-0.27772533893585205, 0.1249748095870018, 0.07107555121183395, -0.12682406604290009, 0.08660445362329483, 0.16051265597343445, 0.16472361981868744, 0.18428067862987518, 0.06305287778377533, -0.042577747255563736, 0.28761428594589233, -0.30073148012161255, -0.3631918728351593, -0.2192390412092209, -0.1548665165901184, 0.14661961793899536, -0.09803612530231476, -0.13144001364707947, 0.0893547534942627, -0.3842114806175232, -0.253543883562088, -0.03178383782505989, 0.0075958543457090855, -0.06267550587654114, 0.3574046790599823, 0.351390540599823, -0.2705687880516052, -0.22341005504131317, -0.0029042332898825407, -0.14121665060520172, 0.27271732687950134, 0.20913660526275635, -0.24786531925201416, 0.2832724452018738, 0.1068304181098938, -0.18724249303340912, 0.15738803148269653, 0.018757160753011703, -0.3304557502269745, -0.01092566642910242, -0.2385534644126892, -0.503367006778717, -0.2114877849817276, -0.10738112032413483, 0.00018353482300881296, 0.10718317329883575, 0.2721420228481293, 0.4229178726673126, -0.13126304745674133, 0.19046573340892792, -0.0751664862036705, -0.24075396358966827, 0.10467689484357834, 0.3965635299682617, -0.3789971172809601, -0.0996796265244484, -0.47922056913375854, -0.09114367514848709, -0.1374502331018448, 0.15165354311466217, 0.10676107555627823, -0.14247466623783112, -0.1986113041639328, -0.17092765867710114,
0.21599286794662476, 0.1160205826163292, -0.43593233823776245, 0.2224365770816803, -0.10741335898637772, -0.531325101852417, 0.2001512348651886, -0.2766691744327545, 0.052031490951776505, 0.13070157170295715, -0.028347358107566833, 0.19412675499916077, 0.14130799472332, 0.14694759249687195, 0.03936782851815224, -0.26110368967056274, 0.004300384316593409, -0.35464203357696533, -0.19267186522483826, -0.03079364262521267, 0.015209916047751904, 0.534789502620697, 0.11793621629476547, 0.1744913011789322, -0.21612516045570374, -0.2647305727005005, -0.06633246690034866, 0.13149961829185486, -0.23591139912605286, 0.19879627227783203, -0.0220252126455307, -0.3447425663471222, 0.07754518836736679, 0.47849240899086, -0.0619780495762825, 0.003520052880048752, 0.28988608717918396, -0.04217963293194771, 0.15793409943580627, -0.22008302807807922, -0.10687026381492615, -0.023938313126564026, 0.20040805637836456, 0.2128739356994629, 0.07693281024694443, 0.016106434166431427, -0.04896153137087822, -0.3695625066757202, -0.04179288074374199, 0.19004687666893005, -0.00908267218619585, -0.06489317864179611, -0.02217729389667511, 0.10870338976383209, -0.06136183813214302, 0.06601213663816452, -0.24961304664611816, 0.27132442593574524, -0.6991493701934814, 0.037628255784511566, 0.09572315961122513, 0.17529745399951935, -0.4874413311481476, 0.12233062833547592,
0.09414462745189667, -0.11632100492715836, -0.1732129603624344, 0.058501873165369034, 0.348096638917923, -0.11119452863931656, 0.3706649839878082, 0.14075839519500732, 0.0030274984892457724, -0.20329110324382782, 0.28274714946746826, -0.24217091500759125, -0.09729117900133133, 0.18745194375514984, 0.07043825834989548, 0.47399476170539856, 0.054007139056921005, 0.07130871713161469, 0.19060412049293518, 0.11016683280467987, -0.2501836121082306, 0.18985548615455627, 0.1920250654220581, -0.10563410073518753, -0.1853480041027069, -0.011742658913135529, 0.06274700164794922, -0.21087200939655304, 0.015187397599220276, -0.03957981616258621, -0.2722804546356201, 0.6092246770858765, 0.5100979804992676, 0.004979575052857399, -0.2824316918849945, 0.03038041852414608, -0.02469048462808132, -0.19203418493270874, -0.046865787357091904, 0.07057631760835648, 0.11455231159925461, -0.042598187923431396, -0.08949175477027893, -0.13402222096920013, -0.25865674018859863, 0.14726153016090393, 0.19808119535446167, 0.11992909759283066, -0.1660877913236618, 0.05843014270067215, 0.21539564430713654, 0.012541194446384907, -0.012732739560306072, 0.06555313616991043, -0.1229962706565857, 0.2747688293457031, 0.17891360819339752, -0.013603992760181427, 0.2577786445617676, 0.02267397940158844, -0.2951267957687378, -0.17291893064975739, -0.28859904408454895, -0.2489238828420639,
-0.27708956599235535, -0.06529801338911057, 0.0234147310256958, -0.28140032291412354, -0.005398478824645281, 0.0800984650850296, 0.2508859932422638, -0.2478547841310501, 0.35859692096710205, 0.19981564581394196, 0.1372746378183365, -0.16695192456245422, 0.10236357897520065, 0.13358420133590698, -0.24657970666885376, -0.13677938282489777, 0.12652702629566193, 0.28943386673927307, 0.015580707229673862, 0.26525965332984924, -0.09040001779794693, -0.29935410618782043, -0.02653035894036293, -0.04752665385603905, 0.3040843605995178, -0.1723693460226059, -0.469979852437973, -0.20380361378192902, 0.27594760060310364, -0.19570854306221008, -0.0979294627904892, 0.08445945382118225, -0.19795385003089905, -0.2708985209465027, 0.0411592498421669, 0.07737831771373749, -0.1619904488325119, 0.20862971246242523, -0.518929660320282, 0.16478584706783295, -0.6075819730758667, -0.0678461566567421, -0.256176233291626, 0.17128464579582214, -0.1832936406135559, -0.06363687664270401, -0.05801938474178314, -0.43269744515419006, 0.05156025290489197, 0.22344724833965302, -0.05545317381620407, -0.027945861220359802, -0.29752129316329956, 0.3291899561882019, -0.2701946198940277, 0.16909430921077728, 0.231113001704216, -0.11007561534643173, -0.06346572190523148, -0.037838976830244064, 0.34812626242637634, 0.40324339270591736, -0.06277460604906082, -0.08430907875299454,
-0.002886657603085041, 0.11560260504484177, 0.05777687206864357, -0.19676116108894348, 0.4152255356311798, -0.06405286490917206, 0.022583039477467537, 0.11178174614906311, 0.19645428657531738, -0.21247830986976624, -0.12420681118965149, 0.3888852894306183, 0.0007909723208285868, -0.06823957711458206, -0.3200796842575073, 0.1042528823018074, 0.044975701719522476, -0.11678355932235718, 0.20755548775196075, 0.15921272337436676, 0.4054231345653534, -0.4105614721775055, 0.30968233942985535, -0.19848231971263885, 0.0030057209078222513, -0.2249598354101181, 0.11550198495388031, 0.18916717171669006, -0.1834021657705307, -0.0950661301612854, 0.11953812837600708, 0.09092584997415543, 0.15970027446746826, 0.15427266061306, -0.3218243718147278, 0.11672952771186829, 0.1904011368751526, -0.08167806267738342, -0.31618866324424744, 0.16349497437477112, -0.052950289100408554, 0.18243533372879028, 0.10625080019235611, -0.11334101110696793, 0.008770213462412357, 0.01344784814864397, -0.25211215019226074, 0.2668097913265228, -0.051542893052101135, -0.2610072195529938, -0.04122196137905121, 0.10688797384500504, 0.46454858779907227, 0.14622311294078827, -0.19428063929080963, -0.12217671424150467, -0.17151913046836853, 0.22537411749362946, 0.1739186942577362, 0.27902793884277344, 0.23558947443962097, 0.2481338083744049, -0.02487988770008087, -0.27872446179389954,
-0.1941545456647873, -0.15075260400772095, -0.4303520619869232, -0.22484789788722992, -0.1532926857471466, -0.10714194923639297, 0.14531387388706207, -0.12332367897033691, -0.09856953471899033, 0.46407026052474976, 0.2850121855735779, 0.0494966097176075, -0.0433075837790966, 0.028024662286043167, -0.32659274339675903, -0.13655342161655426, -0.05843869224190712, 0.16529139876365662, 0.061467330902814865, 0.2088344544172287, -0.13646717369556427, 0.07394696027040482, 0.08054497092962265, 0.0425955168902874, -0.3436615467071533, 0.10031010955572128, -0.10413186997175217, 0.3825485408306122, -0.03664177656173706, -0.011842673644423485, 0.469467431306839, -0.0034252393525093794, -0.11214219033718109, 0.15227501094341278, -0.08810196816921234, 0.20243903994560242, -0.20334269106388092, -0.2999573051929474, 0.036655817180871964, 0.20120865106582642, 0.1440352350473404, -0.062237080186605453, -0.1122690886259079, -0.019429108127951622, -0.5397478342056274, -0.13176792860031128, 0.029574044048786163, 0.06460690498352051, 0.37213805317878723, 0.0010034925071522593, 0.13189953565597534, -0.0032301354221999645, 0.007148332893848419, -0.04618027061223984, -0.19322152435779572, 0.251347154378891, 0.03256916254758835, -0.24942027032375336, 0.23392626643180847, 0.026924224570393562, -0.07384474575519562, -0.013639148324728012, 0.17553192377090454, 0.33306172490119934,
0.08898551017045975, -0.325867623090744, 0.2812531292438507, -0.4832789897918701, 0.025648532435297966, 0.20491795241832733, 0.24545462429523468, 0.35156047344207764, -0.18797481060028076, -0.12972001731395721, -0.06495368480682373, 0.15039364993572235, -0.15796199440956116, -0.0530412457883358, -0.020729975774884224, 0.3070414960384369, 0.01703634485602379, -0.030349228531122208, -0.2150893360376358, -0.044572614133358, -0.2773912847042084, 0.020977983251214027, 0.07292962819337845, 0.00865954253822565, 0.2652623951435089, 0.1803399622440338, -0.24338428676128387, -0.3151501417160034, 0.1456005722284317, -0.09780818223953247, 0.09971115738153458, -0.3385396897792816, -0.19534385204315186, 0.17285102605819702, -0.020328626036643982, -0.20371660590171814, 0.0677097886800766, -0.21877554059028625, 0.019859926775097847, 0.10215975344181061, -0.04410367086529732, -0.03342065215110779, 0.0074510732665658, 0.011596910655498505, -0.0985337644815445, 0.3701644837856293, 0.09878680109977722, -0.01159218791872263, 0.0740964412689209, -0.021985318511724472, -0.18880370259284973, 0.3974471092224121, -0.3284115791320801, -0.1577371507883072, -0.2610504627227783, 0.48987120389938354, 0.19306109845638275, 0.07349134236574173, -0.27001428604125977, -0.24623434245586395, 0.1609925627708435, -0.13660453259944916, 0.07196211069822311, -0.14246846735477448,
-0.08376659452915192, -0.04340581223368645, 0.0637282058596611, -0.08828721940517426, -0.0770082026720047, 0.23315730690956116, 0.033963121473789215, -0.13030792772769928, 0.2582407593727112, -0.015367737971246243, 0.053482502698898315, 0.36885878443717957, 0.04106606915593147, -0.08356275409460068, 0.16116933524608612, 0.03005441278219223, -0.0400085486471653, 0.01189892552793026, -0.0019614468328654766, -0.08366905152797699, 0.05043313279747963, -0.4482439458370209, 0.18841302394866943, -0.37501153349876404, -0.119792141020298, -0.038869794458150864, -0.14729054272174835, 0.08955345302820206, -0.04796554893255234, -0.289933443069458, -0.25929149985313416, -0.35609903931617737, 0.2364155352115631, -0.11907932162284851, 0.0017201978480443358, 0.2570221722126007, -0.03045399859547615, 0.2294193059206009, 0.14936453104019165, 0.12154122442007065, 0.13032478094100952, 0.011881294660270214, -0.1038348525762558, 0.5806131362915039, 0.08569958806037903, -0.029558056965470314, 0.11124332994222641, 0.2374931126832962, -0.24472197890281677, -0.17020300030708313, 0.1539725959300995, -0.022367682307958603, 0.05050094425678253, 0.39666327834129333, 0.15297535061836243, 0.15181264281272888, -0.11138314008712769, -0.06910105049610138, 0.1014929786324501, 0.3023330569267273, -0.3130274713039398, -0.3130888044834137, -0.22650891542434692, -0.22170314192771912,
0.13844209909439087, -0.2685086131095886, 0.2134520560503006, -0.013370639644563198, 0.19676217436790466, 0.261213093996048, 0.4415518641471863, -0.27345186471939087, -0.040882598608732224, 0.15606875717639923, -0.05556471645832062, 0.004277321510016918, -0.2988990545272827, -0.3415064215660095, -0.12150898575782776, 0.10455808788537979, 0.2908463776111603, 0.17748263478279114, 0.11567147821187973, -0.08794345706701279, -0.29080626368522644, 0.3509262800216675, 0.2627766728401184, 0.25501540303230286, -0.031400274485349655, -0.10710322856903076, 0.0926666334271431, -0.014830298721790314, 0.27614593505859375, -0.006879303604364395, 0.17659611999988556, -0.1148546040058136, 0.33438432216644287, -0.13411782681941986, -0.45187968015670776, 0.3987586796283722, -0.39446163177490234, -0.546501100063324, -0.15265275537967682, 0.08429711312055588, 0.24845187366008759, 0.22194349765777588, 0.1870010942220688, -0.13834498822689056, 0.13581866025924683, -0.034213755279779434, 0.13839158415794373, 0.19473546743392944, 0.02581000328063965, -0.006815816275775433, 0.014935672283172607, -0.2878728210926056, -0.04043232277035713, -0.22644075751304626, -0.007294089067727327, 0.04165823385119438, 0.1996384859085083, 0.002126517007127404, 0.05175226181745529, 0.2449686974287033, -0.48281341791152954, -0.12090470641851425, -0.3508148789405823, -0.07857074588537216,
0.04967399686574936, 0.5761899948120117, 0.33295610547065735, -0.11413449794054031, -0.11102539300918579, 0.03456263244152069, -0.08918828517198563, 0.010172597132623196, 0.0814322680234909, 0.030511852353811264, -0.13357506692409515, -0.06711336225271225, -0.03775361552834511, -0.1040486991405487, 0.3173758089542389, -0.23591923713684082, 0.0484594888985157, 0.3668774366378784, -0.12861020863056183, -0.052032891660928726, -0.35485953092575073, 0.49634966254234314, -0.15771491825580597, -0.1412692815065384, -0.0820419043302536, 0.028641508892178535, -0.01368135865777731, -0.007626280188560486, -0.2169276624917984, -0.28373104333877563, 0.01693435199558735, -0.06947445124387741, 0.39185479283332825, -0.15548671782016754, 0.07917536795139313, 0.03558267280459404, -0.19405308365821838, 0.06718049198389053, -0.4801987409591675, -0.1310233324766159, -0.020207388326525688, -0.17706748843193054, 0.2167385220527649, 0.19447378814220428, -0.054516732692718506, 0.13310272991657257, -0.11007241159677505, 0.2556384801864624, -0.3768056333065033, -0.17139287292957306, -0.018450137227773666, -0.11425717920064926, -0.06654945015907288, -0.16164277493953705, -0.2213972955942154, 0.15394140779972076, -0.2139163315296173, -0.04767027869820595, -0.06977811455726624, -0.4344263970851898, 0.24169370532035828, 0.39991816878318787, 0.047749053686857224, -0.2812733054161072,
-0.520527184009552, 0.018022671341896057, 0.07817340642213821, 0.1366279423236847, -0.169666588306427, -0.260105699300766, -0.3084983229637146, -0.31169217824935913, -0.31019192934036255, 0.013338122516870499, 0.17211146652698517, -0.03470345586538315, 0.02951151318848133, 0.0026086592115461826, 0.013342051766812801, 0.074226513504982, 0.14920398592948914, -0.11103758960962296, 0.1752019077539444, 0.06149892881512642, -0.10700725018978119, -0.1293134242296219, -0.20278558135032654, -0.30100786685943604, 0.5793243646621704, 0.10218247026205063, -0.1708136349916458, -0.05640152841806412, 0.10492460429668427, -0.04156404733657837, 0.15023258328437805, -0.100029855966568, 0.05001336708664894, -0.2537759244441986, -0.04081264138221741, -0.40650492906570435, 0.24957367777824402, -0.3624788522720337, -0.33018654584884644, 0.09255202114582062, 0.0885561928153038, -0.1807757467031479, 0.17854472994804382, 0.026042433455586433, -0.37230759859085083, -0.017139939591288567, 0.1920534074306488, -0.315561980009079, -0.34576526284217834, 0.10282064974308014, -0.12233077734708786, 0.1121411845088005, -0.156971737742424, 0.18944235146045685, 0.0177666787058115, 0.31237733364105225, -0.34309840202331543, -0.296833336353302, 0.3204827904701233, -0.014716190285980701, 0.09093847870826721, -0.12549713253974915, 0.07108345627784729, 0.23064784705638885,
0.32436293363571167, -0.03131337836384773, -0.05572730675339699, 0.11309739202260971, 0.13584206998348236, -0.285086452960968, 0.15599282085895538, -0.12137514352798462, 0.048648491501808167, -0.18468520045280457, -0.1429094821214676, -0.23194602131843567, -0.13664796948432922, 0.515882134437561, -0.40505194664001465, -0.10986761003732681, -0.03646598756313324, 0.2625822126865387, -0.07374437898397446, 0.03810414671897888, -0.01018852461129427, -0.01851993426680565, 0.11952055990695953, -0.2228202521800995, -0.13136351108551025, 0.13667695224285126, 0.24705646932125092, -0.25810614228248596, 0.1039765402674675, -0.2915607988834381, -0.20756852626800537, -0.12814852595329285, 0.13472479581832886, 0.35290971398353577, 0.13253620266914368, 0.43179771304130554, 0.17631959915161133, -0.30624669790267944, 0.09124459326267242, 0.4676138162612915, 0.1666136234998703, 0.06050336733460426, 0.03910718113183975, 0.044579919427633286, -0.15837381780147552, 0.08076420426368713, -0.19556906819343567, -0.23552531003952026, 0.03980514779686928, 0.30012986063957214, -0.09437321871519089, -0.04642215371131897, -0.19745680689811707, 0.1871597319841385, 0.22251006960868835, -0.3751245141029358, -0.2587566375732422, 0.073176808655262, -0.07433987408876419, 0.04879097640514374, 0.06165456026792526, 0.25272446870803833, 0.23566758632659912, 0.13522720336914062,
-0.21654652059078217, -0.06486121565103531, 0.10884808748960495, -0.2613503932952881, 0.6818258762359619, 0.04568818211555481, 0.17986929416656494, -0.18317517638206482, -0.3222046196460724, 0.0886596068739891, -0.15329191088676453, 0.030126018449664116, -0.06788396835327148, 0.3644205927848816, 0.027397261932492256, -0.01337625365704298, 0.014667736366391182, -0.16123440861701965, 0.0001901744253700599, -0.3060591518878937, -0.43510153889656067, 0.14358167350292206, 0.053721051663160324, -0.12895303964614868, -0.0023776222951710224, 0.008578503504395485, -0.020144732668995857, 0.045049261301755905, -0.4022645950317383, -0.11898597329854965, 0.3563070297241211, 0.0832759439945221, 0.22972770035266876, -0.4385378062725067, 0.015568043105304241, -0.060698021203279495, -0.1501460075378418, 0.41202637553215027, -0.22952087223529816, 0.19481445848941803, 0.22780649363994598, -0.11622248589992523, -0.43932926654815674, 0.18939897418022156, 0.2723900377750397, -0.14873874187469482, -0.12667442858219147, -0.28750473260879517, 0.12868951261043549, -0.1995840221643448, -0.40873268246650696, -0.14411184191703796, -0.19620771706104279, -0.2799164950847626, -0.30918192863464355, -0.07608722150325775, -0.04691431671380997, 0.11387620866298676, 0.17532171308994293, -0.02285403572022915, -0.07947927713394165, -0.06286999583244324, -0.05705517530441284, -0.006582966074347496,
0.21607710421085358, -0.2578601539134979, 0.23854835331439972, -0.10172384232282639, -0.3872353732585907, -0.23290084302425385, -0.4460439682006836, 0.27908071875572205, -0.0622885636985302, -0.056183069944381714, 0.1512991189956665, 0.3511275053024292, 0.0854092389345169, 0.14953431487083435, -0.07966800779104233, -0.24260938167572021, -0.20973286032676697, -0.2298991084098816, 0.10996580123901367, 0.12400224059820175, -0.28880804777145386, 0.06912612915039062, 0.19176901876926422, -0.07443754374980927, -0.07886921614408493, 0.16210715472698212, -0.2315153330564499, 0.48527345061302185, 0.29417261481285095, -0.05655941739678383, -0.008564231917262077, -0.01191424485296011, 0.2255755364894867, 0.004489709157496691, 0.13799600303173065, -0.07275262475013733, -0.4408634901046753, -0.041372284293174744, 0.009960628114640713, -0.02677452564239502, 0.009277825243771076, -0.4241065979003906, 0.20906472206115723, 0.08198745548725128, 0.1727626472711563, -0.1386028379201889, -0.0772678330540657, 0.0324760265648365, -0.013159718364477158, -0.02487921342253685, -0.22575049102306366, -0.2214876115322113, -0.10017015039920807, 0.23716330528259277, -0.14576846361160278, 0.021435508504509926, 0.08434692770242691, 0.47739773988723755, 0.31055620312690735, -0.2439274936914444, 0.016700085252523422, 0.04891466721892357, -0.17070965468883514, 0.16239306330680847,
-0.28385958075523376, -0.3817286193370819, 0.19037280976772308, 0.03297757729887962, 0.21011562645435333, -0.2987476885318756, -0.2865158021450043, -0.30044618248939514, -0.052381180226802826, 0.054942257702350616, 0.10974017530679703, 0.045308467000722885, -0.024855129420757294, -0.12217064201831818, -0.24640153348445892, 0.10018902271986008, 0.2648472785949707, -0.258089154958725, 0.18094095587730408, 0.034341465681791306, -0.459322988986969, -0.3328627943992615, 0.16985245048999786, 0.1457606554031372, -0.09167039394378662, 0.03041442483663559, -0.07414443045854568, -0.27563002705574036, -0.20627735555171967, -0.17575126886367798, 0.0814957469701767, -0.10201260447502136, -0.19306564331054688, 0.39138826727867126, 0.16989248991012573, 0.24031072854995728, 0.17008300125598907, 0.09417098760604858, -0.1612619161605835, -0.15804821252822876, 0.09070051461458206, -0.418692946434021, 0.10548718273639679, 0.05038895085453987, 0.0002795234613586217, -0.011045627295970917, 0.00927578192204237, -0.13217774033546448, 0.030006999149918556, -0.11145642399787903, 0.48550790548324585, 0.3471091687679291, -0.026459908112883568, 0.08755868673324585, -0.004518742207437754, -0.10343898087739944, -0.23082396388053894, -0.2954857647418976, 0.04622882977128029, -0.047423284500837326, 0.1332586407661438, 0.007320266216993332, 0.10859247297048569, -0.2931137979030609,
0.21862946450710297, 0.272155225276947, -0.20997017621994019, -0.03501346334815025, -0.10304198414087296, -0.26952171325683594, -0.2399534285068512, -0.02572576515376568, -0.1031365618109703, 0.1081702783703804, -0.22805505990982056, -0.06039834022521973, 0.037406519055366516, -0.35167625546455383, -0.028867686167359352, 0.43235912919044495, -0.07061207294464111, -0.12127234786748886, 0.22048915922641754, 0.10048741102218628, -0.002569315256550908, 0.24264897406101227, 0.021177148446440697, -0.06947474926710129, -0.24324235320091248, 0.1848592907190323, -0.149702787399292, -0.1606796532869339, 0.003520707134157419, -0.23100464046001434, 0.16154679656028748, 0.31645846366882324, 0.03410809859633446, 0.22534923255443573, 0.12367340922355652, 0.28018397092819214, -0.045147787779569626, 0.26608219742774963, -0.006334696430712938, -0.02615811862051487, 0.24541261792182922, 0.3578643798828125, 0.2206379622220993, -0.09866420179605484, 0.5328567028045654, -0.164326474070549, 0.03219389170408249, -0.17559382319450378, 0.05212375521659851, -0.21002306044101715, 0.03320742025971413, -0.27753788232803345, -0.10952651500701904, -0.3967282474040985, 0.04370515048503876, 0.17228224873542786, -0.2366643249988556, -0.19001497328281403, -0.23839126527309418, 0.32892653346061707, -0.2411251962184906, 0.09574377536773682, 0.12222788482904434, -0.21369312703609467,
-0.15454427897930145, -0.061023857444524765, -0.5467163324356079, 0.26481661200523376, 0.07313524186611176, -0.049365125596523285, 0.3849499225616455, 0.2910476624965668, -0.18636681139469147, -0.13295970857143402, -0.11189307272434235, 0.5118304491043091, -0.1071423813700676, 0.5509001612663269, -0.45374807715415955, -0.06231648474931717, 0.018332596868276596, 0.34101057052612305, 0.07223498821258545, -0.007830433547496796, 0.34358981251716614, 0.052419379353523254, 0.18881331384181976, -0.2559695839881897, 0.23660901188850403, -0.030862150713801384, -0.0724233090877533, -0.4257565438747406, -0.042679160833358765, 0.2101038545370102, 0.037865471094846725, -0.008178857155144215, -0.3255902826786041, -0.1170203760266304, -0.14686909317970276, -0.07799715548753738, -0.34547093510627747, -0.043117888271808624, 0.07555645704269409, -0.5050000548362732, 0.0016223815036937594, -0.14640913903713226, -0.1757868379354477, -0.18485704064369202, 0.153644859790802, 0.10858902335166931, -0.00552970077842474, -0.16439762711524963, -0.15285558998584747, -0.17723745107650757, 0.13383282721042633, -0.00939618144184351, -0.17814575135707855, 0.425350546836853, 0.05661793425679207, -0.2563426196575165, 0.09478839486837387, 0.011459288187325, 0.07040426135063171, -0.03311065584421158, -0.0011378269409760833, 0.1109142154455185, 0.12292708456516266, 0.16142353415489197,
0.1564147025346756, -0.15144190192222595, -0.026317721232771873, -0.07411190867424011, 0.07290235161781311, 0.017148226499557495, -0.013428137637674809, 0.012950146570801735, 0.029118387028574944, -0.13433994352817535, 0.2156943380832672, -0.20052330195903778, -0.3319878876209259, 0.07023313641548157, -0.14990034699440002, -0.4636487364768982, 0.015338368713855743, 0.3307710587978363, 0.1703624576330185, 0.14481619000434875, 0.180897057056427, -0.08197148889303207, -0.13180825114250183, -0.29278695583343506, -0.26530513167381287, -0.06313043087720871, 0.11470750719308853, 0.08563482761383057, -0.02274712175130844, 0.1540723741054535, 0.12044813483953476, -0.19503363966941833, -0.4200749695301056, -0.20440123975276947, 0.258191853761673, -0.06254421919584274, 0.030790116637945175, -0.2525404393672943, 0.013099520467221737, 0.08801630884408951, -0.18841803073883057, 0.19936756789684296, 0.27111485600471497, 0.13973069190979004, 0.04907168075442314, -0.07066812366247177, -0.03430512174963951, -0.11925884336233139, -0.351566344499588, -0.13069850206375122, 0.1564514935016632, 0.20510664582252502, -0.09222882986068726, 0.16123764216899872, 0.06984882056713104, 0.11337731778621674, 0.12225982546806335, 0.03580569848418236, -0.2375134378671646, 0.29229187965393066, 0.1005147248506546, 0.19013378024101257, -0.29660260677337646, -0.04852351173758507,
0.15204600989818573, 0.12653648853302002, -0.05045679584145546, 0.10546594113111496, 0.021462729200720787, -0.6198030710220337, 0.22431500256061554, -0.1580275595188141, -0.03593960031867027, -0.19576120376586914, 0.26945045590400696, -0.18146730959415436, 0.1205064058303833, 0.01635567657649517, -0.12895606458187103, -0.14224155247211456, -0.0244756992906332, 0.17056114971637726, -0.11211712658405304, -0.07683888077735901, 0.041528068482875824, 0.00043168693082407117, -0.10768081992864609, -0.02041921578347683, 0.10931302607059479, 0.26429685950279236, -0.17160610854625702, -0.3016335964202881, 0.029277967289090157, -0.09594917297363281, 0.15188398957252502, -0.0835123360157013, -0.15556952357292175, 0.10907997936010361, -0.027095962315797806, 0.5136653184890747, 0.013941855169832706, 0.09697166830301285, 0.02319272793829441, -0.0544753335416317, 0.17966243624687195, -0.6729260087013245, -0.3342944383621216, -0.16975703835487366, -0.03717999905347824, 0.41406112909317017, 0.17492783069610596, -0.27039027214050293, -0.052865345031023026, 0.08112479746341705, 0.269999623298645, 0.07424301654100418, 0.13883666694164276, -0.43050915002822876, -0.302897185087204, -0.007561742793768644, 0.27440711855888367, 0.0428299680352211, 0.17142121493816376, 0.1719668209552765, -0.3692362904548645, 0.07993455231189728, -0.2789672911167145, 0.36979687213897705,
0.49543190002441406, -0.05694396793842316, -0.29650306701660156, 0.46040403842926025, -0.46011802554130554, -0.09748857468366623, -0.05049356073141098, -0.30432528257369995, -0.45974859595298767, 0.00722116744145751, -0.16602596640586853, -0.27760472893714905, -0.0262763649225235, -0.1432350128889084, -0.32322895526885986, -0.06381586939096451, -0.14180618524551392, -0.3394903838634491, -0.03608269244432449, -0.19006206095218658, 0.09557375311851501, -0.6567239761352539, 0.2971372604370117, -0.19378504157066345, 0.19417715072631836, -0.408633828163147, -0.040830716490745544, 0.05641201138496399, -0.1378202587366104, -0.0700409784913063, -0.01898467168211937, -0.20291365683078766, 0.13889887928962708, 0.0557992048561573, -0.0458487905561924, -0.12315861135721207, 0.21553413569927216, -0.24918068945407867, 0.16376414895057678, -0.2787907123565674, 0.13080339133739471, 0.07661496102809906, -0.248640239238739, 0.012964945286512375, 0.13424518704414368, 0.0045914906077086926, -0.35207292437553406, -0.03778494894504547, -0.3959067761898041, -0.18716277182102203, 0.14195671677589417, -0.1337517648935318, -0.34149661660194397, 0.008895083330571651, -0.02845628187060356, -0.3382986783981323, 0.3035013675689697, 0.16061872243881226, -0.07282694429159164, -0.29012778401374817, 0.2487339973449707, 0.2627702057361603, 0.15394601225852966, -0.04386230185627937,
-0.16004101932048798, -0.0011102384887635708, 0.349970281124115, 0.04572981223464012, -0.013097748160362244, 0.20287318527698517, -0.05592872202396393, 0.21357005834579468, -0.30898505449295044, 0.25449779629707336, 0.302275151014328, 0.18793389201164246, -0.22595007717609406, -0.06230047717690468, -0.2327938675880432, 0.051893528550863266, 0.19987636804580688, 0.22162091732025146, 0.2122669816017151, -0.38681381940841675, -0.01804189383983612, -0.07299177348613739, -0.11810462176799774, -0.16619591414928436, 0.28829774260520935, 0.07363612204790115, 0.01797535829246044, -0.23346774280071259, 0.14645124971866608, -0.12555114924907684, 0.2878246009349823, 0.2543181777000427, 0.1775975227355957, -0.2585654556751251, -0.10034602135419846, -0.2961648404598236, 0.08362694084644318, 0.34829607605934143, 0.12856845557689667, -0.16922424733638763, -0.1766025573015213, -0.19237053394317627, 0.03450052812695503, 0.14881734549999237, -0.30091720819473267, -0.05812487751245499, 0.20731601119041443, -0.4494667053222656, -0.07325740158557892, 0.12250042706727982, 0.04925932362675667, 0.08307798951864243, -0.23127123713493347, -0.5172289609909058, 0.2088223248720169, -0.29222652316093445, -0.1628502905368805, -0.01931988261640072, -0.10120280832052231, 0.19668741524219513, 0.12081447243690491, -0.12466148287057877, -0.15222743153572083, -0.25515803694725037,
