#include "neural_network.h"
#include <stdio.h>
#include <math.h>

const float weights_fc1[] = {
0.23142750561237335, 0.7622460722923279, -0.7755635976791382, -0.03369076922535896, -0.0801343023777008, 0.9061737656593323, -0.2241075187921524, -0.3718906342983246, -0.12491360306739807, -0.12912055850028992, -0.012478516437113285, -0.05395204573869705, -0.14251406490802765, -0.6676245927810669, 0.028269978240132332, 0.33040064573287964, -0.0719480887055397, 0.30959567427635193, 0.01092105358839035, 0.06520522385835648,
-0.04463692754507065, -0.8904836773872375, -1.0379014015197754, -0.023407477885484695, -0.08593206852674484, -0.05817268788814545, -0.6958086490631104, 0.6980182528495789, 0.23685982823371887, -0.03358234092593193, -0.03310047462582588, 0.25932472944259644, 0.04334506392478943, 0.4397887885570526, -0.23724466562271118, 0.4296632707118988, 0.5338075160980225, 0.22335538268089294, 0.14018577337265015, -0.1399647295475006,
-0.027625925838947296, 0.6848993897438049, 0.837754487991333, -0.12242907285690308, 0.25236785411834717, 0.07767322659492493, -0.6152814030647278, 0.5477471947669983, 0.7995758652687073, -0.22718104720115662, 0.03267289325594902, 0.16174544394016266, 0.4773213863372803, -0.5520830154418945, 0.011766234412789345, -0.261491060256958, 0.06259818375110626, -0.5415894389152527, -0.05595365911722183, -0.2822389006614685,
0.049904849380254745, -0.17815567553043365, 0.567177951335907, -0.43705660104751587, -0.03853443264961243, 0.273828387260437, -0.8662235736846924, 0.6991631388664246, -0.16905999183654785, -0.018710602074861526, 0.3755152225494385, -0.023328140377998352, 0.29279133677482605, 0.21850945055484772, 0.04899861291050911, -0.2784748673439026, 0.10467734932899475, 0.06453117728233337, 0.1277434378862381, 0.3255854547023773,
-0.24129585921764374, -0.839012622833252, 0.05094126611948013, 0.0977831780910492, -0.1819591075181961, 0.13255348801612854, -0.19955144822597504, -0.1711275577545166, -0.5592904686927795, -0.04529591277241707, -0.07722960412502289, -0.09136214852333069, 0.6352134943008423, -0.2470143735408783, -0.370989054441452, -1.13592529296875, -0.07851136475801468, 0.05051273852586746, 0.16695885360240936, -0.012981317937374115,
-0.00383717636577785, -0.16222204267978668, 1.3664307594299316, -0.04005206376314163, -0.03775789961218834, 0.47680041193962097, 0.7654669880867004, -0.3060193657875061, -0.13613328337669373, 0.09650469571352005, -0.10414991527795792, 0.10673722624778748, -0.3300890028476715, -0.5610321760177612, 0.7497674822807312, -0.07686984539031982, -0.004774890840053558, -0.0974363461136818, -0.09093879908323288, -0.0030216167215257883,
-0.11586645245552063, -0.1922423392534256, -1.2568650245666504, -0.0035863551311194897, 0.014951934106647968, -0.049783673137426376, -0.25319764018058777, -0.251088410615921, 0.010912701487541199, -0.058735691010951996, 0.16541019082069397, -0.18934252858161926, 0.12918764352798462, 0.6456043720245361, -0.10994922369718552, -0.4637991786003113, 0.10906383395195007, 0.04224032163619995, 0.29979461431503296, 0.45687752962112427,
0.7886335253715515, 0.3507024943828583, 0.5053780674934387, 0.031423818320035934, -0.05274990200996399, 0.050629206001758575, 0.3827255964279175, -0.8181239366531372, -0.13469572365283966, 0.09703484922647476, 0.016133127734065056, 0.26496434211730957, -0.020282963290810585, -0.18622705340385437, 0.4109739363193512, -0.0699361190199852, -0.12221384793519974, -0.0016411605756729841, -0.058546461164951324, -0.09248904883861542,
-0.4506813883781433, -0.5046228766441345, 0.11131436377763748, -0.14106673002243042, -0.002485930221155286, 0.20823504030704498, -0.10330189764499664, 0.3396075665950775, 0.3833017945289612, -0.04940108209848404, 0.07972215861082077, 0.036194607615470886, -0.2085392326116562, 0.4513489305973053, -0.09308980405330658, 0.3024439215660095, 0.742447555065155, 0.15573672950267792, 0.14132004976272583, -0.19700616598129272,
0.10043195635080338, -0.38315549492836, -0.31004422903060913, -0.1847696304321289, 0.4948013722896576, 0.06902527064085007, 0.09684289246797562, 0.4677644968032837, -0.6512172818183899, -0.012675466015934944, -0.2204887866973877, -0.11973879486322403, 0.22357794642448425, 0.3968983590602875, 0.1173362284898758, 0.25204551219940186, 0.16561977565288544, -0.41804155707359314, 0.19897396862506866, -0.07921300828456879,
-0.19169309735298157, 0.4463956356048584, -0.6861321926116943, 0.028169812634587288, 0.05664269998669624, -0.10901572555303574, -0.500385582447052, -0.029435979202389717, -0.5292143225669861, 0.1453922539949417, -0.09208526462316513, 0.416299968957901, -0.04099159315228462, -0.8596268892288208, 0.6177138686180115, -0.15589499473571777, -0.21995197236537933, -0.24663342535495758, -0.2340410053730011, -0.5007787942886353,
-0.3707214891910553, -0.4789966940879822, 0.09587845206260681, -0.33660778403282166, -0.04666287824511528, 0.425348699092865, -0.8782585263252258, 0.31072890758514404, -0.4007870554924011, -0.27745357155799866, -0.1616218537092209, -0.20982912182807922, 0.4732484221458435, 0.4139871299266815, -0.571734607219696, -0.1487102210521698, -0.019713183864951134, -0.05010231211781502, -0.15604229271411896, -0.1541557013988495,
0.46114522218704224, 0.20001040399074554, -0.6425167918205261, -0.17235495150089264, 0.06996875256299973, -0.2968067228794098, -0.407467782497406, 0.016033096238970757, 0.05729278177022934, -0.4044789671897888, -0.16403789818286896, 0.866907000541687, -0.5992472171783447, -0.6203599572181702, -0.2761305570602417, -0.03333711624145508, -0.2884337604045868, 0.0753372311592102, -0.32792484760284424, 0.11348417401313782,
-0.08319355547428131, 0.1518590897321701, -0.11210569739341736, -0.003146830713376403, 0.014448113739490509, 0.14816245436668396, -0.8198133111000061, 0.3640163540840149, -0.39369988441467285, -0.05748502537608147, -0.048660047352313995, 0.08248918503522873, -0.25042077898979187, 0.9137955904006958, -0.3010256588459015, -0.44096529483795166, 0.2690887749195099, 0.18401484191417694, -0.25255414843559265, 0.06568243354558945,
0.0564875565469265, 0.2082178294658661, 0.3478468954563141, -0.37697672843933105, 0.08778507262468338, -0.5953719019889832, 0.23992061614990234, 0.0014768344117328525, -0.10375257581472397, -0.14773932099342346, -0.05288945138454437, -0.05000054091215134, 0.255941241979599, 0.3510901629924774, -0.33371689915657043, -0.17941930890083313, -0.044828783720731735, 0.050042714923620224, 0.06028620898723602, 0.02918230928480625,
-0.001766369678080082, 0.2655957043170929, -0.4525167644023895, -0.13807722926139832, -0.007819246500730515, -0.5297390222549438, -0.15026450157165527, 0.5350854396820068, -0.12913678586483002, -0.02869676798582077, -0.12606900930404663, -0.18648821115493774, 0.534784197807312, -0.035702310502529144, 0.6104418039321899, -1.0539040565490723, 0.24072153866291046, -0.1799744963645935, -0.14820310473442078, -0.022828780114650726,
-0.2210640013217926, 0.7205820679664612, 0.7361822128295898, -0.08318699151277542, 0.1176995038986206, 0.6174845695495605, 0.09179551154375076, -1.149760127067566, 0.3291822075843811, 0.04111641272902489, -0.25599804520606995, -0.10261456668376923, 0.4230199158191681, -0.2692907750606537, 0.23390395939350128, -0.3704013526439667, 0.056889358907938004, 0.09020420908927917, -0.009743926115334034, -0.1387588232755661,
0.36974459886550903, -1.0505576133728027, -0.1738579422235489, 0.30412936210632324, -0.11273594945669174, -0.13818323612213135, -0.4670158922672272, -0.532622218132019, -0.5697411298751831, -0.13505321741104126, -0.01937541738152504, 0.047897886484861374, -0.6312957406044006, -0.5632693767547607, -0.4705941081047058, -0.2867903411388397, -0.3641889691352844, 0.2589622437953949, -0.11226055026054382, 0.36986106634140015,
-0.12922120094299316, 0.21939921379089355, -0.028555957600474358, 0.051105231046676636, 0.11747375130653381, -0.22995541989803314, -0.0008392624440602958, 0.273288369178772, -1.0345736742019653, -0.07254446297883987, 0.022488966584205627, -0.3838423192501068, -0.08329921960830688, -0.2193099856376648, -0.33969974517822266, -0.26195865869522095, 0.28744199872016907, -0.28456488251686096, 0.06587636470794678, -0.2268185168504715,
0.14256878197193146, -0.5725362300872803, 0.4979228377342224, 0.04012932628393173, -0.07493121176958084, -0.16348570585250854, 0.25066831707954407, -0.06797053664922714, -0.119947649538517, 0.07698742300271988, -0.05639566108584404, -0.6816772818565369, -0.11171841621398926, -0.5033296346664429, -0.07473807781934738, -0.045407406985759735, 0.2532026469707489, -0.04296698048710823, -0.43778273463249207, -0.07332601398229599,
0.23956246674060822, 0.17172127962112427, 0.5324606895446777, -0.611907958984375, -0.03690323606133461, -0.140485480427742, -0.18101085722446442, 0.45098963379859924, 0.34618446230888367, -0.3800795376300812, 0.10545887053012848, -0.15123680233955383, 0.2429370880126953, 0.3424663841724396, -0.28137049078941345, 0.021309228613972664, -0.14968127012252808, -0.24886949360370636, -0.03368417173624039, -0.07001394033432007,
-0.15448004007339478, 0.4122925400733948, -0.6262025237083435, -0.16671182215213776, 0.1211453229188919, 0.2806567847728729, 0.9490224123001099, -0.23713089525699615, 0.10725617408752441, 0.019512638449668884, 0.0010653991485014558, 0.4438978433609009, 0.3263837695121765, 0.480855256319046, -0.14614342153072357, 0.9329084157943726, -0.2053827941417694, -0.21106697618961334, 0.05674697458744049, 0.23527613282203674,
0.7200970649719238, -0.21047011017799377, 1.0383185148239136, 0.20828896760940552, -0.08791139721870422, 0.039449434727430344, -0.011834674514830112, 0.5632573366165161, -0.869549036026001, -0.042335640639066696, -0.1237357035279274, -0.3228675127029419, -0.16713052988052368, -0.4458930194377899, 0.5626723766326904, -0.3742833435535431, -0.042946379631757736, -0.24867278337478638, 0.09758774191141129, 0.2072550356388092,
0.08718536794185638, 0.6962219476699829, 1.3751001358032227, -0.20935358107089996, 0.24173961579799652, 0.46578478813171387, -1.0475287437438965, 0.8073293566703796, -0.0721789300441742, -0.18532922863960266, 0.10146809369325638, -0.14125096797943115, -0.21610981225967407, 0.13323791325092316, -0.5931101441383362, -0.5120859146118164, 0.2714512348175049, -0.0473887100815773, -0.2769400179386139, -0.04323776438832283,
0.41622194647789, 0.34531354904174805, -0.03394804894924164, 0.13262973725795746, -0.07698013633489609, 0.07122908532619476, 0.6082425713539124, -0.43978816270828247, 0.4424114227294922, -0.12688179314136505, -0.0564371719956398, -0.006558047141879797, -0.04622622951865196, -0.10269400477409363, 0.029629109427332878, 0.24847806990146637, -0.12511251866817474, -0.43336251378059387, 0.21541383862495422, -0.5930500030517578,
0.09496679157018661, -0.41402992606163025, 1.1711668968200684, 0.0494709350168705, -0.02034134790301323, 0.08795299381017685, 0.6171649098396301, 0.8957405090332031, -1.0629515647888184, 0.041776906698942184, -0.03895445540547371, 0.14458246529102325, -0.19043123722076416, -0.6347384452819824, 0.6614255905151367, -0.17257097363471985, -0.11331240087747574, 0.09132879227399826, -0.30898162722587585, -0.08606904000043869,
-0.29704201221466064, 0.00909300148487091, 0.4905662536621094, -0.5382965207099915, -0.42769038677215576, 0.5744810104370117, 0.40033507347106934, -0.02495775744318962, 0.11457452178001404, -0.23082339763641357, -0.10635533928871155, 0.1597331315279007, -0.4758630394935608, -0.015134219080209732, 0.0699680969119072, 0.10965026915073395, 0.19339148700237274, -0.2843933403491974, 0.005237768404185772, -0.34484773874282837,
-0.023324720561504364, 0.40119609236717224, -1.2823514938354492, 0.21261784434318542, -0.07904630154371262, -0.1661338359117508, -0.7284250259399414, 0.7284696698188782, 0.532456636428833, -0.06842485070228577, -0.01972159557044506, -0.3020865023136139, 0.2844577729701996, 0.33650729060173035, -0.10092981159687042, -0.2921520471572876, -0.4973490834236145, 0.13373395800590515, 0.018827853724360466, 0.008244819939136505,
0.061104338616132736, 0.21249568462371826, 0.21049177646636963, -0.2519853115081787, 0.12002020329236984, 0.5118324160575867, -0.3538706600666046, 0.3798753321170807, -0.09469564259052277, 0.042824529111385345, -0.01626850850880146, -0.1329028308391571, -0.03203155845403671, 0.06561654806137085, -0.14579083025455475, -0.4018735885620117, -0.7218567132949829, -0.028298772871494293, 0.08876746892929077, -0.2570081949234009,
-0.1260504573583603, 0.2866125702857971, 0.822821855545044, 0.03495653718709946, -0.1546342968940735, -0.14394350349903107, 0.34337687492370605, -0.24560287594795227, -0.7262299656867981, -0.07014362514019012, -0.1167551577091217, 0.21057190001010895, 0.16943196952342987, -0.33480116724967957, 0.28284186124801636, -0.13871581852436066, -0.25716325640678406, 0.056778788566589355, 0.20283518731594086, -0.13092555105686188,
-0.0835677981376648, -0.7410300970077515, -0.5471079349517822, 0.033021751791238785, -0.13556228578090668, 0.2846820652484894, -0.7214012742042542, -0.08559254556894302, 0.06491019576787949, -0.02718033827841282, -0.09860812872648239, 0.3910936415195465, 0.015472643077373505, 0.1623154878616333, -0.1812903881072998, -0.37108755111694336, 0.05412793159484863, -0.10497941076755524, -0.09055633842945099, 0.16579176485538483,
-0.12009777128696442, -0.45476794242858887, -0.04747392609715462, -0.3686593174934387, -0.18389791250228882, -0.29489555954933167, -0.4139271676540375, -1.0721038579940796, -0.35736435651779175, 0.027568617835640907, 0.1090654507279396, 0.3564419746398926, 0.38014698028564453, 0.30224329233169556, 0.35214850306510925, -0.24822008609771729, 0.11946754902601242, -0.03912333399057388, -0.22894187271595, -0.06420288234949112,
-0.1406557410955429, 0.744540810585022, -0.5510505437850952, -0.01799629256129265, 0.26308029890060425, -0.4733131229877472, 0.18696224689483643, -0.5066912770271301, 0.6369149088859558, -0.23216873407363892, -0.35024353861808777, 0.43658050894737244, -0.33084821701049805, -0.28144383430480957, 0.15183135867118835, -0.37214118242263794, -0.24709944427013397, 0.2480693757534027, 0.07695398479700089, 0.06251463294029236,
-0.5096225142478943, -0.3762255311012268, -0.46526244282722473, -0.07435356825590134, 0.498261958360672, -0.012787849642336369, 0.17786066234111786, -0.3339812159538269, -0.12718215584754944, 0.1712365299463272, 0.12644539773464203, 0.0285062063485384, -0.7047090530395508, -0.6260086894035339, -0.48593515157699585, 0.6418061256408691, -0.16286861896514893, 0.04852975532412529, -0.027498170733451843, 0.42242711782455444,
0.1734364926815033, 0.08952759206295013, 0.7973856925964355, 0.0046292380429804325, 0.04060492664575577, 0.3153616786003113, -0.4967440962791443, -0.6126707792282104, -0.5046303272247314, 0.03481220826506615, 0.029218968003988266, -0.5943302512168884, 0.026479195803403854, -0.4731236398220062, 0.5055096745491028, 0.1299199014902115, -0.06346823275089264, 0.4770216941833496, 0.45678120851516724, -0.07926285266876221,
-0.08472239226102829, -1.0161285400390625, -0.3670620620250702, -0.06296985596418381, -0.3243107497692108, 0.15458345413208008, 0.4251379668712616, 0.4297286570072174, 0.40296950936317444, 0.07981228083372116, 0.05397713929414749, -0.002326690824702382, -0.32233354449272156, -0.2459515780210495, 0.05654662474989891, 0.5270130038261414, 0.08415946364402771, 0.19510112702846527, 0.18002037703990936, 0.32534629106521606,
-0.4729180932044983, 0.2193668633699417, 0.12803007662296295, 0.0781743973493576, 0.07121594995260239, -0.2152414470911026, -0.5793997645378113, 1.3508020639419556, 0.17381015419960022, -0.04243825376033783, -0.013071322813630104, -0.14968982338905334, 0.3314038813114166, 0.41663989424705505, -0.09813287109136581, -0.5353658199310303, -0.11822804808616638, -0.1467859297990799, -0.11164504289627075, -0.005075340159237385,
0.5215322971343994, -0.7130230665206909, 0.10259605944156647, -0.0899272933602333, -0.3043191730976105, -0.25609293580055237, 0.16633901000022888, 0.47819870710372925, 0.5136648416519165, -0.19923116266727448, -0.05024504289031029, 0.480483740568161, -0.9537451863288879, -0.4432365894317627, 0.02833588980138302, 0.18347331881523132, -0.0024335687048733234, 0.2945269048213959, 0.10745414346456528, 0.009872214868664742,
0.32597920298576355, 0.06952690333127975, -0.12511730194091797, -0.37711411714553833, 0.021014558151364326, -0.03502859175205231, -0.6875030994415283, 0.48912540078163147, -0.3029963970184326, -0.0349605493247509, 0.24156630039215088, 0.0945032462477684, 0.18084482848644257, -0.40524739027023315, -0.10017362236976624, -0.09449190646409988, -0.20233385264873505, -0.27852314710617065, -0.03226390853524208, -0.559272050857544,
0.19087214767932892, -0.3762591481208801, -0.6554263234138489, -0.2384558916091919, 0.3431239128112793, -0.4540470838546753, 0.4865790903568268, 0.12102911621332169, 0.26384270191192627, -0.10982926934957504, 0.08225829899311066, 0.02068728394806385, 0.01222000177949667, -0.1629205048084259, 0.06395360082387924, 0.34659329056739807, 0.39765292406082153, 0.14347338676452637, 0.13846631348133087, -0.19684208929538727,
0.6235224604606628, -0.06585361063480377, 0.7047778367996216, 0.17520080506801605, 0.16965588927268982, 0.22653132677078247, -0.5607163906097412, -0.08862263709306717, 0.8972128033638, -0.08504392206668854, 0.05196060612797737, -0.1522856056690216, 0.09190665930509567, -0.13091738522052765, -0.4061259627342224, -0.27750444412231445, 0.013651207089424133, 0.2671010196208954, -0.2929380536079407, 0.3025098443031311,
-0.2805500030517578, 0.7529106736183167, -1.549491286277771, -0.01691325008869171, 0.015340986661612988, -0.17531907558441162, -0.15919557213783264, -0.3478405177593231, -0.40424615144729614, 0.11165443062782288, 0.023797566071152687, 0.11057979613542557, -0.13371165096759796, -0.1367981731891632, -0.3921515941619873, 0.7982804775238037, 0.11917977035045624, -0.5912801027297974, 0.18713678419589996, -0.4874148964881897,
0.6914564967155457, -0.521071195602417, 0.018983814865350723, 0.14653952419757843, 0.18612845242023468, 0.11330613493919373, -0.17168213427066803, 0.9903639554977417, 0.9265086650848389, 0.0910504162311554, -0.06638184934854507, 0.5255411863327026, 0.25024282932281494, -0.07910675555467606, -0.20830532908439636, -0.3202565908432007, -0.05745329335331917, -0.030813204124569893, 0.20442365109920502, -0.1649944931268692,
-0.10595937073230743, -1.1982078552246094, -0.14189666509628296, 0.13937540352344513, -0.11961408704519272, 0.13984264433383942, -0.47046080231666565, -0.7822606563568115, -0.5972678661346436, -0.003126133233308792, -0.13788336515426636, 0.1788676530122757, 0.38512054085731506, -0.34333035349845886, -0.09561338275671005, -0.749899685382843, -0.07627902179956436, 0.1503395140171051, 0.17039978504180908, 0.13897863030433655,
0.5453315377235413, -0.3459415137767792, 0.3534574806690216, -0.04546375945210457, -0.2879244387149811, 0.07888928800821304, -0.6859265565872192, 0.0912010595202446, -0.16579392552375793, 0.1589999943971634, 0.04369132220745087, 0.09516742080450058, 0.44629380106925964, 0.04309771955013275, -0.0567963607609272, -0.47808319330215454, -0.183868408203125, 0.2941349446773529, 0.0068458085879683495, 0.1787342131137848,
0.12330340594053268, -0.06127632036805153, 0.7075339555740356, -0.25654032826423645, -0.07499370723962784, 0.024669326841831207, -0.46171531081199646, -0.14490646123886108, 0.4563957154750824, -0.235067680478096, -0.39503785967826843, 0.18672508001327515, 0.39370837807655334, 0.42048293352127075, 0.2195982187986374, 0.10076554864645004, -0.1889778971672058, -0.012043208815157413, -0.1760357916355133, 0.02064165659248829,
-0.06147247925400734, 0.43567579984664917, -0.3266213536262512, -0.010381631553173065, 0.07766596972942352, 0.28558820486068726, 0.7378612756729126, 1.1085618734359741, 0.14384673535823822, -6.934855628060177e-05, -0.03349348530173302, -0.4470517933368683, -0.17849986255168915, 0.005370714236050844, 0.3053228557109833, 0.2901581823825836, 0.4029950499534607, 0.12639811635017395, -0.2703149914741516, -0.2828274667263031,
1.0096384286880493, 0.6630265116691589, 0.6934975385665894, -0.12040520459413528, 0.5858510732650757, 0.294852077960968, -0.24937960505485535, 0.451969712972641, 0.4397525489330292, -0.03535209596157074, -0.042815688997507095, 0.03354282304644585, -0.2770581543445587, 0.09119037538766861, -0.37562549114227295, 0.08015791326761246, -0.24197566509246826, 0.19705668091773987, 0.008462765254080296, -0.0930999368429184,
0.11292842775583267, 0.6315630078315735, 0.3912319242954254, -0.07546848058700562, 0.03744204342365265, -0.2822946310043335, 0.27791252732276917, -0.06285104155540466, 0.15644824504852295, -0.06253843754529953, 0.233934685587883, -0.12162100523710251, -0.6624678373336792, 0.137241393327713, 0.4857792854309082, 0.3301984369754791, -0.06542205810546875, -0.5308324694633484, -0.12746365368366241, -0.22146496176719666,
0.594966471195221, 0.275997132062912, -0.04541989788413048, -0.09597497433423996, 0.6732032299041748, -0.249116912484169, 0.2947578430175781, 0.16175948083400726, -0.27095696330070496, 0.17332814633846283, -0.12129227817058563, -0.1893869936466217, -0.571849524974823, 0.163784921169281, -0.11518919467926025, -0.26108115911483765, 0.05511638522148132, -0.10447252541780472, 0.09335236251354218, 0.18965916335582733,
-0.6052230596542358, -0.25419822335243225, 0.11972769349813461, -0.15212348103523254, -0.17655570805072784, 0.2135794460773468, -0.8076435327529907, -0.7327640652656555, -0.392887145280838, -0.11919436603784561, -0.06270739436149597, -0.3966961205005646, 0.25840699672698975, -0.4160720109939575, 0.3813970386981964, -0.026065105572342873, -0.140641450881958, -0.40203678607940674, 0.04994884505867958, 0.09495408833026886,
0.3098827600479126, 0.2803172171115875, -0.7812308669090271, 0.06015145778656006, 0.10943524539470673, -0.13015435636043549, -0.044305380433797836, 0.9409910440444946, -0.4260900914669037, -0.018643060699105263, -0.040793027728796005, -0.16582156717777252, 0.14010408520698547, 0.008032800629734993, -0.23569230735301971, -0.057707078754901886, 0.4803404211997986, -0.05739903077483177, -0.10911940783262253, 0.38663923740386963,
0.15284393727779388, -0.5129212737083435, 0.11759337782859802, -0.6394744515419006, 0.18908099830150604, -0.42558974027633667, -0.1817963719367981, 0.12143968790769577, 0.4001881778240204, 0.27063271403312683, -0.2302432805299759, -0.013549953699111938, 0.5173531174659729, 0.2335411012172699, -0.01951669715344906, -0.39006683230400085, -0.062419526278972626, -0.15449590981006622, 0.0009549749083817005, 0.32077887654304504,
0.17508171498775482, -0.3731980621814728, -0.04399987310171127, -0.41778564453125, 0.3293863534927368, -0.13474605977535248, 0.1371535360813141, -0.10012581199407578, -0.8131507635116577, -0.1732294261455536, 0.14161181449890137, -0.4385952651500702, -0.27699097990989685, 0.11372579634189606, -0.1287824958562851, -0.2191549688577652, -0.5491319894790649, 0.13890661299228668, -0.10732325911521912, -0.029770132154226303,
-0.6306912302970886, -0.4128284156322479, -0.8187362551689148, 0.012533752247691154, 0.026670781895518303, -0.005481772590428591, 0.07228308916091919, -0.050254322588443756, -0.3838634192943573, 0.06840233504772186, 0.19613607227802277, 0.15347078442573547, -0.6496070027351379, 0.1216280609369278, -0.6195385456085205, 0.04618129879236221, -0.15717025101184845, -0.31071871519088745, 0.030430294573307037, -0.5250338912010193,
0.6077027916908264, 0.22020851075649261, -0.7276221513748169, -0.05268845707178116, 0.013925569131970406, -0.41918542981147766, -0.6482442021369934, 0.09183160960674286, -0.6990549564361572, -0.0817362368106842, -0.15273135900497437, 0.16071376204490662, 0.1506955921649933, -0.1623213142156601, -0.4309493899345398, -0.31701216101646423, -0.017683742567896843, -0.13952462375164032, 0.11980793625116348, -0.15141913294792175,
-0.2161611020565033, -0.9288457036018372, -0.1250591278076172, -0.23168088495731354, 0.3695937395095825, -0.21113741397857666, 0.4165968894958496, 0.5003597736358643, -0.11534520983695984, -0.06863940507173538, 0.050031013786792755, -0.40459510684013367, 0.1608978509902954, 0.48848649859428406, 0.14250196516513824, -0.13514940440654755, -0.100764200091362, 0.15984894335269928, -0.024901721626520157, -0.06397514790296555,
-0.16064749658107758, 0.8329384922981262, 0.6678341031074524, 0.04359268397092819, 0.12251421809196472, 0.011964808218181133, 0.49228110909461975, -0.7984946966171265, 0.9788497090339661, 0.035217925906181335, -0.06153567507863045, 0.25845062732696533, -0.06536109745502472, -0.28714585304260254, 0.4769381880760193, 0.20783057808876038, 0.21961426734924316, -0.1747593730688095, 0.22150462865829468, -0.19179512560367584,
0.1200767382979393, -0.07257620245218277, 1.184206485748291, -0.10971055924892426, -0.1030123233795166, 0.3510526120662689, 1.1472456455230713, 0.20477896928787231, 0.4374464750289917, 0.13233384490013123, -0.018751297146081924, 0.025820063427090645, -0.26856887340545654, -0.3375682234764099, 0.26817587018013, 0.2525351047515869, 0.2207762449979782, 0.1981457769870758, -0.4510771334171295, 0.07347314059734344,
-0.5328897833824158, 0.9719248414039612, -0.9388676881790161, -0.056175388395786285, 0.2382284253835678, -0.0717887282371521, 0.03379102796316147, 0.19789880514144897, 0.7390069961547852, 0.03279581665992737, 0.056712646037340164, 0.15152177214622498, 0.3180403709411621, 0.037383727729320526, 0.5527389645576477, 0.054479848593473434, -0.01210594829171896, 0.30880847573280334, -0.027785232290625572, -0.050954364240169525,
-0.08429907262325287, -0.036616358906030655, -0.6315233111381531, -0.12216085195541382, 0.20162548124790192, -0.09637574106454849, 0.7392938137054443, 0.4937969744205475, -0.24947889149188995, -0.055464863777160645, 0.13365702331066132, -0.28382936120033264, -0.2948303520679474, 0.30520397424697876, 0.13266894221305847, 0.3128175437450409, 0.3361867070198059, -0.2743282914161682, 0.17368477582931519, 0.05439023673534393,
-0.2907733917236328, 0.7630048990249634, -0.30313146114349365, -0.030574064701795578, 0.6182748675346375, -0.0630955770611763, -0.44315165281295776, -0.20904524624347687, 0.8481577634811401, -0.10498356074094772, -0.20554058253765106, -0.3907012343406677, -0.14988529682159424, -0.24648036062717438, 0.18831320106983185, -0.26181766390800476, -0.1989402025938034, 0.05664845183491707, 0.04938684403896332, -0.12218119204044342,
0.7567119598388672, -0.6855303049087524, -0.691659688949585, 0.1568066030740738, 0.07635404914617538, -0.18263158202171326, -0.3868178129196167, -0.46323728561401367, -0.5352959632873535, -0.07698062807321548, 0.029826130717992783, 0.12642325460910797, 0.1329456865787506, -0.04986327886581421, -0.3203936815261841, -0.30130159854888916, -0.05837489292025566, 0.19640010595321655, 0.03087206371128559, 0.08444152772426605,
-0.5939620733261108, -0.27218616008758545, -0.6404592394828796, -0.06179133802652359, -0.3302210867404938, -0.21823234856128693, -0.04894013702869415, 0.04692576453089714, -0.15653730928897858, -0.18586908280849457, -0.0800108015537262, -0.24025902152061462, -0.2797393202781677, -0.382244735956192, -0.33755993843078613, -0.14731673896312714, -0.40907925367355347, 0.05289740115404129, 0.05592659115791321, 0.05277471989393234
};

const float biases_fc1[] = {
-0.027933593839406967, 0.24904005229473114, 0.07753727585077286, -0.06790515035390854, -0.1869937926530838, 0.011105868965387344, -0.036173488944768906, -0.17933493852615356, 0.296210378408432, 0.002156866015866399, -0.21751289069652557, -0.02020413801074028, -0.21746554970741272, 0.019301803782582283, 0.02905208431184292, -0.030929556116461754, -0.11331138759851456, -0.19607868790626526, 0.056318748742341995, 0.023604486137628555, -0.23605962097644806, -0.06034914404153824, -0.09455366432666779, -0.03554977476596832, -0.048924364149570465, -0.13997799158096313, 0.029063455760478973, -0.16398847103118896, -0.1289018988609314, -0.2954554557800293, -0.10306884348392487, 0.05548960343003273, -0.14306484162807465, -0.019883153960108757, -0.1936267465353012, 0.0271605271846056, 0.033461589366197586, 0.1356007158756256, -0.2193330079317093, 0.15025594830513, -0.1774938553571701, -0.030735792592167854, -0.25129976868629456, -0.09069575369358063, -0.0553174763917923, -0.03069608472287655, 0.12645189464092255, -0.18078356981277466, 0.08978166431188583, -0.12817838788032532, -0.18311405181884766, 0.23947666585445404, 0.027930201962590218, -0.2475450038909912, -0.12627524137496948, -0.08580611646175385, -0.07672426849603653, 0.042601943016052246, 0.05627516657114029, 0.007936360314488411, 0.08501351624727249, -0.2151729166507721, -0.029901154339313507, -0.211310476064682
};

const float weights_fc2[] = {
-0.2516786754131317, -0.3881492018699646, 0.1763204038143158, -0.19086381793022156, 0.04205680638551712, 0.37060442566871643, 0.09029027074575424, -0.030957400798797607, -0.04173162952065468, -0.47659599781036377, -0.2447476089000702, 0.013746832497417927, -0.01884925365447998, 0.15554295480251312, -0.025820132344961166, -0.14157511293888092, -0.24655866622924805, 0.06430432200431824, -0.028851358219981194, 0.0843905434012413, -0.4014083445072174, 0.06204279512166977, 0.3464941382408142, 0.3873347043991089, -0.07749824970960617, -0.07851342856884003, 0.22094087302684784, -0.02061791904270649, 0.17393800616264343, 0.035193756222724915, -0.311128169298172, 0.16874298453330994, -0.3131908178329468, -0.43693456053733826, -0.3487641215324402, 0.3151412606239319, 0.187019482254982, 0.1245659664273262, -0.19136199355125427, 0.1214480921626091, 0.18612274527549744, -0.1344342827796936, -0.08158052712678909, 0.13127535581588745, -0.019121352583169937, -0.34925881028175354, -0.34304308891296387, 0.12155170738697052, -0.1036185696721077, 0.012486577033996582, -0.23665204644203186, 0.09958373010158539, 0.29950952529907227, -0.280092716217041, -0.1598929762840271, 0.0983673557639122, 0.21831995248794556, 0.2174934595823288, 0.5955105423927307, -0.24997209012508392, -0.2552688419818878, 0.07037360966205597, 0.09785622358322144, 0.06624218821525574,
-0.4724314510822296, -0.1807767003774643, 0.3901740610599518, -0.20113836228847504, -0.21640300750732422, 0.10567466169595718, -0.10011038184165955, 0.16515536606311798, -0.27789410948753357, -0.0826297476887703, -0.27868911623954773, 0.1603350043296814, -0.296988308429718, -0.20924817025661469, -0.3341832160949707, -0.3859928548336029, -0.20290571451187134, -0.15679718554019928, 0.18448129296302795, -0.6539230346679688, 0.005108965095132589, -0.29660817980766296, 0.20329773426055908, 0.6803414821624756, -0.5078187584877014, -0.11293264478445053, -0.21686036884784698, -0.0789247453212738, -0.09796836972236633, -0.4347924292087555, 0.38816797733306885, -0.9449699521064758, -0.26448652148246765, 0.015806730836629868, -0.3231945335865021, -0.322955459356308, -0.0866294875741005, -0.47288212180137634, 0.39637163281440735, 0.0008151706424541771, -0.24263809621334076, -0.1619648039340973, 0.030672132968902588, -0.18426989018917084, 0.22152291238307953, -0.20818261802196503, -0.3797529339790344, 0.22056370973587036, -0.0007953608874231577, -0.16766124963760376, -0.3155955672264099, 0.08805084973573685, -0.30843299627304077, -0.4046406149864197, -0.31200864911079407, 0.18314990401268005, -0.4640079140663147, -0.14805033802986145, 0.32349637150764465, -0.21743762493133545, -0.19885817170143127, -0.281488299369812, -0.040178414434194565, -0.6021355986595154,
-0.09155162423849106, -0.021284978836774826, -0.11951183527708054, -0.012544654309749603, -0.7978647947311401, -0.1455630362033844, 0.23922014236450195, 0.13997143507003784, 0.08914594352245331, -0.48416867852211, -0.33054330945014954, 0.09960680454969406, 0.40300488471984863, 0.04652668163180351, -0.1061352789402008, 0.10109315067529678, 0.557974100112915, -0.3787228763103485, -0.11310023069381714, 0.11103668063879013, -0.1332218199968338, 0.5886147022247314, -0.3034672737121582, 0.07083596289157867, 0.011989469639956951, -0.15341083705425262, -0.11753301322460175, -0.08185624331235886, -0.2302403301000595, -0.5929621458053589, 0.13317321240901947, 0.23319394886493683, -0.28281259536743164, -0.08555388450622559, 0.2581518888473511, -0.8482204079627991, 0.018088221549987793, -0.2993257939815521, -0.10881149768829346, -0.0035774195566773415, -0.17369583249092102, -0.2119975984096527, -0.635936439037323, -0.10066569596529007, -0.06862806528806686, 0.33899739384651184, 0.08560816943645477, -0.06795446574687958, -0.016007786616683006, 0.5125668048858643, 0.4039224088191986, -0.47472167015075684, -0.0025448340456932783, 0.09344997256994247, -0.4357921779155731, -0.18571500480175018, -0.11197995394468307, 0.14713941514492035, -0.14471395313739777, -0.2863094210624695, -0.43471914529800415, 0.35539713501930237, -0.5354877710342407, -0.3269323408603668,
0.0016887964447960258, -0.24277745187282562, -0.5106945037841797, 0.2497970461845398, -0.05904499441385269, 0.2452557235956192, -0.30726510286331177, 0.22873461246490479, -0.28440093994140625, 0.14152242243289948, -0.23789389431476593, -0.2467360943555832, 0.00693121924996376, -0.29964154958724976, 0.06264875084161758, -0.23228095471858978, 0.12770017981529236, 0.10366332530975342, -0.26843714714050293, 0.054868970066308975, 0.1901889592409134, 0.3123753070831299, 0.17179274559020996, 0.015271985903382301, -0.11775662750005722, 0.2955998182296753, 0.6897205710411072, -0.34761109948158264, 0.2553896903991699, 0.18029646575450897, 0.03432072699069977, -0.0029678752180188894, 0.19576026499271393, -0.04893762990832329, 0.08758678287267685, 0.21381786465644836, -0.6971246600151062, 0.3051525354385376, -0.13105352222919464, 0.3191535770893097, -0.03824993968009949, -0.3313467800617218, 0.02427426539361477, 0.0789225623011589, 0.3529817461967468, 0.1275399625301361, 0.3622327744960785, 0.18591366708278656, -0.14162874221801758, 0.1543777883052826, 0.14344631135463715, -0.1347016841173172, 0.1975715309381485, 0.2565457224845886, -0.16071724891662598, 0.058739062398672104, 0.024205973371863365, 0.31250908970832825, 0.41384005546569824, -0.48569804430007935, 0.3173298239707947, -0.044556405395269394, 0.30777227878570557, 0.3776339590549469,
-0.7623232007026672, -0.1951599419116974, 0.26094046235084534, -0.7912617325782776, -0.12341480702161789, 0.06065494194626808, 0.09156306087970734, -0.20214171707630157, -0.12178365886211395, -0.3511928915977478, 0.04392068088054657, -0.3753756880760193, -0.4077150523662567, 0.18366217613220215, 0.02493979223072529, 0.015762003138661385, 0.1370958387851715, -0.14090317487716675, -0.15665560960769653, 0.36585378646850586, 0.0990433394908905, -0.06331166625022888, -0.0974206030368805, 0.1657826006412506, -0.2476332187652588, -0.660350501537323, 0.03976614773273468, 0.4990195035934448, 0.06642421334981918, -0.0003721133107319474, -0.29089611768722534, -0.04038422927260399, 0.27561455965042114, 0.09335356205701828, -0.14962811768054962, -0.5868374705314636, 0.19342480599880219, -0.3397241234779358, -0.2866096496582031, -0.18236811459064484, -0.27045416831970215, 0.07446595281362534, -0.21946637332439423, 0.038451436907052994, -0.22784630954265594, -0.1666100174188614, -0.49829477071762085, 0.07427719235420227, -0.055794067680835724, 0.21567074954509735, 0.005944256670773029, -0.023782169446349144, -0.5914278030395508, -0.1374330371618271, -0.1894214004278183, -0.6001579165458679, 0.057551685720682144, 0.5323265790939331, -0.2966732978820801, 0.21015040576457977, 0.05701352283358574, 0.09313870221376419, -0.2788254916667938, 0.41703715920448303,
0.092536062002182, 0.5198084712028503, 0.24057090282440186, 0.06249852105975151, -0.21766209602355957, -0.29361000657081604, -0.36183035373687744, -0.11160591244697571, -0.24217641353607178, 0.10964381694793701, 0.1398860067129135, 0.20663192868232727, -0.36644962430000305, -0.37792477011680603, -0.09195616841316223, 0.0032537002116441727, 0.11851319670677185, -0.014307484030723572, -0.35109108686447144, -0.10526898503303528, 0.32094302773475647, 0.08368802070617676, -0.39324378967285156, -0.0728394165635109, -0.27295100688934326, -0.03989165648818016, -0.7478974461555481, 0.22232450544834137, 0.44911879301071167, -0.5894970893859863, 0.4532717764377594, 0.2030777484178543, 0.09780333936214447, -0.23651453852653503, -0.1336931437253952, -0.2298608273267746, 0.6333252787590027, 0.030414409935474396, -0.20662811398506165, 0.039134781807661057, 0.4030051529407501, -0.5804418921470642, 0.5044007301330566, 0.0438043475151062, -0.07625827193260193, -0.19616520404815674, 0.1798849254846573, 0.0938326045870781, -0.23491844534873962, -0.1456436663866043, -0.13948671519756317, -0.41288018226623535, 0.5956051349639893, -0.399137020111084, -0.5903632044792175, -0.04296959936618805, 0.33146876096725464, 0.22542312741279602, -0.3570437729358673, 0.3244730532169342, -0.7046483755111694, 0.2032969892024994, 0.06804168969392776, -0.06145145371556282,
-0.11282655596733093, 0.06687301397323608, 0.13388986885547638, 0.16511304676532745, 0.008062443695962429, 0.2374645322561264, -0.37909650802612305, -0.2652914822101593, -0.06926547735929489, -0.32214850187301636, 0.4053260087966919, -0.34114593267440796, -0.8900284767150879, -0.0774407833814621, -0.0568731389939785, -0.47736480832099915, -0.30897027254104614, 0.34792959690093994, 0.05564850941300392, 0.0073456838726997375, -0.26210230588912964, 0.4955810010433197, -0.3213058114051819, -0.263073593378067, 0.1891726553440094, -0.06760013103485107, 0.04667972773313522, -0.21124234795570374, -0.23816366493701935, 0.18537206947803497, -0.33438751101493835, 0.2785329520702362, 0.5708561539649963, 0.12987074255943298, 0.2222493588924408, 0.08448608219623566, -0.5188490152359009, 0.07069197297096252, -0.5293997526168823, -0.15330633521080017, -0.11916656792163849, 0.46335795521736145, -0.23650597035884857, -0.1636449247598648, -0.28285446763038635, 0.2086276113986969, -0.18024040758609772, -0.3625708222389221, -0.46142658591270447, 0.2562938630580902, -0.415262907743454, 0.18565674126148224, -0.40249890089035034, -0.12857700884342194, -0.4366926848888397, 0.3883402645587921, -0.14910395443439484, 0.17595982551574707, 0.052682287991046906, 0.09340673685073853, -0.19107285141944885, -0.3301140069961548, 0.07158740609884262, -0.05303528159856796,
-0.23034155368804932, -0.32980185747146606, -0.25870054960250854, 0.2763226330280304, -0.009608617052435875, -0.09235328435897827, -0.052993159741163254, -0.1393948793411255, -0.31781765818595886, -0.11286363005638123, 0.2761266529560089, 0.13660886883735657, -0.5329102873802185, -0.14245273172855377, 0.12028434872627258, -0.10439334809780121, 0.10531828552484512, 0.12589694559574127, 0.4822003245353699, 0.24205800890922546, 0.1319679468870163, 0.21333880722522736, -0.4365288019180298, 0.34091970324516296, -0.11890515685081482, -0.09964250773191452, -0.10587529093027115, 0.15934889018535614, -0.12429726123809814, -0.09774420410394669, -0.02660365216434002, -0.6083100438117981, 0.032675907015800476, -0.18343979120254517, 0.02364630252122879, -0.576919674873352, 0.4297398328781128, -0.9627253413200378, 0.09703978896141052, 0.2626216411590576, -0.4984629452228546, 0.45796725153923035, -0.3700023591518402, -0.12335752695798874, -0.021173909306526184, -0.4628784656524658, 0.24995242059230804, -0.1246742308139801, -0.14936263859272003, 0.09540215134620667, 0.22868695855140686, 0.22760337591171265, -0.16173695027828217, 0.21095781028270721, 0.31025567650794983, -0.022065265104174614, 0.5084708333015442, -0.027660349383950233, 0.15490955114364624, -0.221517413854599, 0.3646838665008545, -0.20154936611652374, -0.2441404163837433, -0.23072832822799683,
-0.37171676754951477, 0.2580460011959076, -0.6077883839607239, 0.05269424244761467, -0.21321618556976318, -0.24251531064510345, 0.16130875051021576, -0.15750980377197266, -0.016270700842142105, -0.34748294949531555, -0.04998325929045677, -0.012283770367503166, 0.0456811785697937, 0.3382227420806885, -0.22438818216323853, 0.35500970482826233, -0.18096403777599335, 0.44265344738960266, 0.17426805198192596, 0.2110895812511444, -0.0539134182035923, -0.05431734025478363, -0.2581273913383484, -0.35460802912712097, 0.25993117690086365, -0.5802689790725708, -0.2693382203578949, -0.10966824740171432, -0.09332112967967987, 0.3678758144378662, 0.3186427354812622, 0.050333764404058456, -0.12448563426733017, -0.13704848289489746, 0.02203776128590107, 0.10871437937021255, 0.5065494775772095, 0.17659351229667664, -0.4733116924762726, 0.14516086876392365, -0.01333245262503624, 0.281677782535553, 0.015880238264799118, 0.10253698378801346, -0.019913172349333763, -0.16441872715950012, -0.617361843585968, 0.07800988107919693, -0.20015780627727509, 0.017444811761379242, 0.2580198347568512, -0.013908199965953827, 0.2059997171163559, 0.014467908069491386, 0.2311369776725769, -0.1656627357006073, 0.08304192125797272, -0.3043091893196106, -0.6772647500038147, -0.16377535462379456, 0.03210026025772095, -0.40315714478492737, 0.35219207406044006, -0.11778643727302551,
0.1946570724248886, 0.13562311232089996, 0.03338731452822685, -0.43425431847572327, 0.35267454385757446, 0.05652492120862007, 0.3038282096385956, 0.206617534160614, -0.030554048717021942, 0.00047364510828629136, 0.16113102436065674, -0.16939090192317963, -0.34157121181488037, 0.025462975725531578, 0.22932219505310059, 0.2098032385110855, -0.39357540011405945, -0.005481993313878775, 0.027094468474388123, 0.038516804575920105, 0.025281323119997978, 0.18072111904621124, -0.0039867255836725235, -0.603782594203949, -0.06535715609788895, -0.3421283960342407, 0.14102381467819214, -0.17250119149684906, -0.5401288270950317, 0.29088762402534485, -0.03155148774385452, -0.12569713592529297, -0.08496512472629547, -0.08069499582052231, -0.19147533178329468, -0.2571146488189697, 0.2812979817390442, 0.08267655968666077, 0.037452179938554764, 0.29406866431236267, -0.11786497384309769, 0.061616916209459305, -0.20109878480434418, 0.42205652594566345, 0.09745960682630539, 0.19117100536823273, -0.21479366719722748, -0.005734435748308897, 0.08771955966949463, 0.10919531434774399, -0.27241310477256775, 0.41253626346588135, -0.13427568972110748, 0.30063778162002563, 0.27599024772644043, 0.1714431345462799, 0.07832206785678864, 0.007699119858443737, -0.7430988550186157, -0.15546955168247223, 0.06132473051548004, -0.2148212045431137, 0.3064357340335846, -0.2340085655450821,
0.2918899953365326, -0.16366660594940186, -0.054784685373306274, -0.3505617082118988, -0.6695403456687927, 0.23109373450279236, -0.10299038141965866, 0.23123253881931305, -0.22912296652793884, -0.30949556827545166, 0.005201396998018026, -0.4279662072658539, -0.6637589931488037, 0.31880834698677063, -0.35649800300598145, -0.2315051555633545, 0.6960179209709167, 0.191742941737175, 0.24435056746006012, -0.018093006685376167, -0.33696284890174866, 0.07982151210308075, 0.28899723291397095, 0.2447064220905304, -0.46115341782569885, -0.3866907060146332, -0.2946208417415619, 0.36510324478149414, 0.011834528297185898, -0.7395215630531311, -0.18175669014453888, 0.21294005215168, 0.500859260559082, -0.06679791212081909, 0.43624046444892883, -0.37811657786369324, -0.2532084286212921, -0.12962371110916138, -0.060776855796575546, -0.28263670206069946, 0.29891684651374817, 0.26256588101387024, -0.534710705280304, -0.04909910261631012, 0.16907073557376862, 0.05018273741006851, 0.12820899486541748, 0.21891692280769348, -0.20754162967205048, 0.08171423524618149, 0.27404481172561646, 0.014047731645405293, 0.13881972432136536, -0.17994746565818787, -0.12697821855545044, -0.03782539814710617, 0.23795077204704285, 0.09313539415597916, -0.05801733210682869, -0.5031555891036987, -0.4104335606098175, -0.3321535587310791, 0.20920680463314056, -0.2510262429714203,
-0.769740879535675, 0.3175906538963318, -0.2592598795890808, 0.22132574021816254, -0.07805928587913513, -0.25062093138694763, 0.09334233403205872, -0.1563957929611206, 0.048085618764162064, -0.06423994898796082, 0.18393808603286743, -0.33434048295021057, -0.4619307816028595, -0.07912205159664154, -0.023846982046961784, -0.07023471593856812, -0.44810330867767334, -0.1507926732301712, 0.08158844709396362, -0.10570164024829865, -0.024407725781202316, 0.2752980887889862, -0.19862768054008484, -0.16216714680194855, -0.647840142250061, -0.02500053308904171, -0.18865972757339478, 0.18276913464069366, 0.18093225359916687, -0.6521264314651489, -0.03778856247663498, -0.12153118848800659, 0.015689250081777573, 0.5246113538742065, 0.24261970818042755, 0.08552293479442596, 0.07338184118270874, 0.09599826484918594, -0.20341253280639648, 0.23760925233364105, -0.09437432140111923, 0.31027892231941223, -0.7926710844039917, -0.19256329536437988, -0.10962795466184616, -0.28930604457855225, -0.7007264494895935, -0.1288532018661499, -0.19629798829555511, 0.16961197555065155, -0.1790621280670166, -0.6666487455368042, 0.07937900722026825, -0.08657825738191605, 0.07643517851829529, 0.126646026968956, 0.19204460084438324, 0.04499794915318489, -0.14663076400756836, 0.4798608720302582, -0.2601868510246277, 0.26940348744392395, -0.14528261125087738, 0.056522853672504425,
-0.3902621269226074, -0.14031349122524261, 0.3732050955295563, 0.14889222383499146, -0.20088355243206024, -0.08788842707872391, 0.1629958301782608, -0.5843150019645691, 0.17708724737167358, -0.1636725813150406, 0.2595459818840027, 0.10856175422668457, -0.1736099272966385, -0.27302804589271545, 0.15435437858104706, -0.11910649389028549, -0.468054860830307, -0.5324999690055847, -0.1311105191707611, -0.2081851065158844, 0.23392583429813385, -0.10387767851352692, -0.12037195265293121, 0.702292799949646, -0.43204420804977417, -0.32023754715919495, -0.2933177947998047, 0.014446361921727657, -0.14666593074798584, -0.42268311977386475, 0.04997410625219345, -0.35537704825401306, -0.07869397848844528, -0.2469939887523651, -0.28809988498687744, -0.1441764384508133, 0.1063702404499054, -0.2037077695131302, 0.023625055328011513, 0.1282876580953598, 0.3973577618598938, -1.0048112869262695, 0.13299627602100372, -0.17103329300880432, -0.4850425720214844, -0.10366696119308472, 0.07101767510175705, -0.5119191408157349, 0.42727169394493103, -0.26806640625, -0.17125564813613892, -0.48600879311561584, -0.3403906524181366, 0.2935461401939392, -0.19814877212047577, -0.5840312242507935, 0.1291661113500595, -0.26001179218292236, 0.06859569996595383, 0.11363018304109573, 0.33848685026168823, -0.3854902982711792, 0.0340634286403656, -0.35660886764526367,
0.14864301681518555, -0.010728951543569565, 0.08367463946342468, -0.1718876212835312, -0.2074267417192459, 0.07997476309537888, -0.0039046292658895254, 0.14799289405345917, -0.14666277170181274, -0.5244961380958557, 0.11115532368421555, -0.42629197239875793, -0.10486414283514023, 0.16525498032569885, -0.5323010087013245, 0.2075980305671692, 0.053056731820106506, -0.4630148112773895, -0.5374637842178345, -0.09803655743598938, 0.0706842914223671, -0.028436869382858276, 0.2416103482246399, 0.009027778171002865, 0.4434540271759033, -0.355847030878067, -0.2311764508485794, 0.2809929847717285, -0.5036942362785339, 0.2163539081811905, 0.006294173188507557, 0.1345018744468689, -0.1989266276359558, -0.16742612421512604, -0.10482464730739594, -0.026360752061009407, -0.05578272044658661, -0.44480082392692566, 0.01742318645119667, -0.7263036966323853, 0.23528768122196198, 0.053004972636699677, 0.017153367400169373, -0.252912312746048, -0.18552114069461823, -0.2224811315536499, 0.4013725519180298, 0.46500322222709656, 0.07539045810699463, -0.7805916666984558, 0.4368501305580139, -0.2748129367828369, -0.38784876465797424, -0.5999552607536316, -0.7246083617210388, 0.1761697232723236, -0.4252878725528717, -0.01698029413819313, -0.04351357743144035, 0.13439162075519562, -0.09375293552875519, 0.010544017888605595, -0.6074404716491699, -0.04149947315454483,
0.020717022940516472, -0.14863434433937073, 0.10645155608654022, -0.2718655467033386, 0.4701523184776306, 0.26794570684432983, -0.04642070084810257, 0.15444162487983704, -0.016903845593333244, -0.28738880157470703, 0.16548578441143036, -0.05427993834018707, -0.31932592391967773, -0.24680250883102417, -0.10022036731243134, -0.14514097571372986, 0.25589317083358765, 0.2409701943397522, -0.5943255424499512, -0.17192348837852478, 0.2115531861782074, -0.09570439159870148, 0.18060056865215302, 0.1016678512096405, -0.12983345985412598, -0.1347055584192276, 0.12492711842060089, 0.3865131735801697, 0.15995891392230988, 0.2048083394765854, 0.18394282460212708, 0.11285400390625, 0.22711431980133057, -0.33307862281799316, -0.05342768877744675, 0.06656346470117569, -0.015184691175818443, -0.34363678097724915, -0.4948662221431732, -0.16679109632968903, 0.14220915734767914, -0.1621953248977661, 0.34307897090911865, 0.6742161512374878, -0.26366540789604187, 0.3773549199104309, -0.3272135853767395, 0.30058833956718445, -0.24657286703586578, -0.17130590975284576, 0.39990752935409546, -0.42705610394477844, -0.4384766221046448, 0.10497833788394928, 0.19864512979984283, -0.4950144588947296, -0.10616761445999146, -0.011753199622035027, -0.4112423360347748, -0.011935372836887836, -0.34569627046585083, 0.4343884587287903, 0.2927663028240204, -0.012197823263704777,
-0.08898110687732697, 0.03385232388973236, 0.1025603786110878, -0.09490253776311874, -0.4134773910045624, 0.6528639793395996, -0.4073077440261841, -0.25225698947906494, -0.3454512655735016, 0.023729875683784485, 0.3052486777305603, -0.7013460397720337, -0.5029478669166565, -0.26041004061698914, -0.09260165691375732, 0.4392288625240326, 0.3884691894054413, -0.5644174814224243, -0.3528751730918884, -0.061644650995731354, -0.26761773228645325, 0.22726821899414062, -0.28840896487236023, -0.17893362045288086, 0.4155678153038025, -0.5090771913528442, -0.10862936824560165, -0.0636938214302063, -0.20885808765888214, -0.08609829097986221, 0.08502978086471558, 0.06471946090459824, -0.10767897218465805, 0.25609081983566284, -0.17726533114910126, -0.31141746044158936, 0.0286418404430151, -0.15534254908561707, -0.01514189038425684, -0.10660991817712784, -0.23294983804225922, -0.07969391345977783, 0.05827358737587929, 0.24251845479011536, 0.027689257636666298, -0.14755336940288544, -0.16179604828357697, 0.136926531791687, 0.19979384541511536, 0.08384821563959122, -0.08935059607028961, -0.4955366551876068, 0.1899936944246292, 0.23700886964797974, 0.16798929870128632, 0.13959772884845734, -0.23517656326293945, 0.40178993344306946, 0.13194158673286438, 0.2003452032804489, -0.5498045682907104, 0.4430290758609772, -0.22192879021167755, 0.2590655982494354,
-0.034634653478860855, -0.6026595234870911, 0.31653961539268494, -0.5599712133407593, -0.12018145620822906, -0.2679756283760071, 0.1931392401456833, 0.030941179022192955, -0.3972146809101105, 0.04123729467391968, -0.0988650694489479, -0.0783647820353508, -0.32190680503845215, -0.3590235710144043, 0.6146129965782166, -0.06734572350978851, -0.4432551860809326, -0.12168347835540771, -0.061692554503679276, 0.19745822250843048, 0.36467745900154114, -0.3004331886768341, 0.2671647369861603, -0.13408724963665009, 0.15826520323753357, 0.1142474040389061, -0.06296860426664352, -0.00481203431263566, -0.4274962246417999, -0.09600424766540527, -0.07246994227170944, -0.4549822509288788, -0.1005755290389061, -0.08302166312932968, 0.2119249403476715, 0.1333470195531845, 0.01059672050178051, -0.4247995615005493, -0.3341342806816101, 0.14097175002098083, 0.016332730650901794, 0.3854263424873352, -0.4465414881706238, -0.34239625930786133, -0.3060397505760193, -0.152836874127388, 0.11743658035993576, 0.08643832057714462, 0.031502772122621536, 0.007268043700605631, 0.36905163526535034, 0.18697971105575562, -0.12679678201675415, 0.12263907492160797, -0.07790930569171906, -0.4960087239742279, -0.45339182019233704, 0.10061787068843842, -0.009316041134297848, 0.17510423064231873, -0.2756894826889038, 0.10199557989835739, -0.29687264561653137, -0.07156884670257568,
-0.12498888373374939, -0.125211700797081, -0.11312530934810638, -0.42011111974716187, 0.4453166127204895, 0.323819637298584, 0.1294974833726883, -0.34593647718429565, -0.015700720250606537, 0.16903731226921082, 0.12003340572118759, 0.002784210257232189, 0.06722958385944366, 0.04807829111814499, 0.008709972724318504, 0.023459451273083687, 0.06753180921077728, 0.07819069921970367, 0.27713948488235474, 0.20234471559524536, -0.12932321429252625, -0.27006515860557556, 0.08239457756280899, -0.6631332039833069, -0.25843533873558044, 0.22911599278450012, -0.014241731725633144, -0.20612309873104095, -0.2529447674751282, 0.3197269141674042, -0.13885878026485443, 0.13389229774475098, -0.22563259303569794, -0.8071883916854858, -0.13357576727867126, 0.23698650300502777, -0.0002052023191936314, -0.07148919999599457, 0.22307206690311432, -0.013320223428308964, -0.3262427747249603, 0.18938753008842468, -0.19869954884052277, 0.30530184507369995, -0.20156091451644897, 0.041135624051094055, 0.025255518034100533, -0.18874484300613403, -0.12956658005714417, -0.2271074652671814, 0.28700947761535645, 0.041748035699129105, 0.08494748920202255, -0.21574638783931732, 0.009376025758683681, 0.7497188448905945, -0.1192658543586731, -0.341460257768631, -0.08932266384363174, -0.43528062105178833, -0.2983818054199219, 0.004671025555580854, -0.317141056060791, 0.18695563077926636,
-0.531771719455719, -0.014418978244066238, 0.13584139943122864, -0.03179740905761719, -0.35437217354774475, 0.48202183842658997, 0.07389839738607407, 0.20694127678871155, -0.04169939085841179, -0.37592899799346924, -0.5476073026657104, 0.3004664480686188, 0.07680270820856094, 0.1835741400718689, -0.24981525540351868, -0.22687843441963196, 0.03992446884512901, 0.18172234296798706, -0.22232675552368164, -0.8705528974533081, -0.1938793659210205, 0.17573115229606628, -0.5336837768554688, -0.1372734159231186, -0.8763341903686523, 0.44482114911079407, 0.282013863325119, -1.0438392162322998, 0.09037402272224426, 0.24830558896064758, -0.04659119248390198, -0.1264622062444687, 0.47362765669822693, -0.2868804633617401, -0.30934762954711914, -0.10543595999479294, -0.22761204838752747, 0.1382719874382019, -0.4188709557056427, 0.08489371836185455, -0.5221085548400879, -0.21834805607795715, 0.42942798137664795, 0.11712691932916641, -0.12468384206295013, 0.33000320196151733, -0.7087355852127075, -0.2954050898551941, -0.360937237739563, 0.12260487675666809, -0.495631605386734, -0.09432205557823181, -1.2604634761810303, -0.4738959074020386, 0.2888185381889343, -0.34111306071281433, -0.16083012521266937, -0.07432233542203903, 0.03864818811416626, 0.19626224040985107, 0.052285995334386826, 0.2460189312696457, -0.02226625382900238, 0.0710291862487793,
0.6059641242027283, -0.28401145339012146, -0.029884494841098785, -0.6909903287887573, -0.33763787150382996, 0.015119588002562523, -0.43696725368499756, 0.14763517677783966, -0.29657766222953796, -0.20843301713466644, -0.3043975234031677, 0.30978867411613464, 0.1829107254743576, -0.46179866790771484, -0.39549192786216736, -0.1676594614982605, 0.07730092853307724, -0.4134070873260498, -0.006830952130258083, 0.32529550790786743, -0.13682012259960175, 0.29516321420669556, 0.12768487632274628, 0.13592728972434998, -0.2502419054508209, 0.29582542181015015, -0.009920112788677216, -0.048637427389621735, -0.01720999926328659, 0.14181439578533173, -0.034185443073511124, -0.1023741140961647, -0.3875676691532135, -0.5568221211433411, -0.2287278026342392, 0.14355556666851044, -0.00923154316842556, 0.03312128409743309, -0.11952663213014603, -0.4002602696418762, -0.18349915742874146, 0.3295133709907532, -0.017037788406014442, -0.6525360941886902, -0.021885916590690613, 0.41080495715141296, 0.107185959815979, -0.35726621747016907, 0.07092216610908508, 0.39582958817481995, 0.10328713059425354, 0.31333354115486145, -0.20928660035133362, 0.1994716078042984, 0.04916079342365265, 0.1687474250793457, -0.12205091118812561, -0.04801527410745621, 0.3804852068424225, 0.07993308454751968, -0.06901264190673828, 0.3136436939239502, 0.31360095739364624, -0.0713701844215393,
0.12055493891239166, -0.14421872794628143, 0.24701276421546936, 0.18264606595039368, -0.005970581900328398, 0.24243733286857605, 0.1647244691848755, 0.19366766512393951, -0.12544508278369904, -0.24185462296009064, 0.030344169586896896, 0.13749001920223236, -0.48185214400291443, -0.007395273540169001, -0.22633683681488037, -0.3417786657810211, -0.10231564193964005, -0.061069414019584656, -0.11637341976165771, -0.16707192361354828, 0.0522797629237175, 0.10305227339267731, 0.010092552751302719, 0.45781803131103516, 0.1754382848739624, -0.33104121685028076, -0.13207584619522095, -0.09837790578603745, 0.11987006664276123, 0.07981713861227036, 0.14365115761756897, -0.7989579439163208, -0.22185607254505157, -0.3924062252044678, 0.22750219702720642, 0.05034874752163887, -8.521265408489853e-05, -0.21659623086452484, 0.17731671035289764, -0.43406394124031067, 0.2350444495677948, 0.3410266041755676, 0.029168931767344475, 0.13426123559474945, 0.1708724945783615, -0.027788754552602768, -0.5390284061431885, -0.0979904979467392, -0.511039674282074, -0.3965824246406555, -0.2223263531923294, -0.5521498322486877, -0.20468270778656006, -0.4278360903263092, -0.1553216278553009, 0.4260329008102417, -0.8680751919746399, 0.44845160841941833, -0.21354876458644867, 0.10461852699518204, -0.3950594365596771, -0.05142557621002197, -0.07808630168437958, -0.17234766483306885,
-0.12167459726333618, 0.24284420907497406, -0.21482661366462708, 0.09385291486978531, -0.6038663983345032, -0.021048199385404587, 0.05348586663603783, -0.15899887681007385, 0.17466525733470917, 0.25682124495506287, 0.023166943341493607, -0.44838008284568787, -0.008271506987512112, 0.17608702182769775, -0.121795654296875, 0.18449722230434418, -0.019697293639183044, -0.23353563249111176, 0.12808598577976227, 0.061058398336172104, 0.19480784237384796, 0.1327565312385559, 0.11026968061923981, 0.06625872105360031, -0.03930310532450676, 0.33446410298347473, 0.03821944817900658, -0.2114666998386383, 0.04005904123187065, -0.5255340933799744, 0.029415041208267212, -0.2848637104034424, 0.12808610498905182, 0.028040021657943726, 0.14736370742321014, 0.23314832150936127, -0.2693106234073639, 0.24120073020458221, 0.1979178637266159, -0.17051315307617188, -0.41750195622444153, -0.0025385955814272165, 0.16627457737922668, -0.31550097465515137, -0.06885600835084915, 0.0785316601395607, 0.30113691091537476, -0.24510514736175537, -0.09044680744409561, -0.32141485810279846, -0.5282723903656006, 0.3059293329715729, -0.19030997157096863, -0.31190961599349976, 0.2603439688682556, 0.0979449599981308, -0.3926929831504822, 0.29308024048805237, 0.16760851442813873, 0.1101747527718544, 0.16146598756313324, -0.14821642637252808, -0.21860286593437195, -0.3486083447933197,
0.037797436118125916, 0.5261681079864502, -0.7143293023109436, 0.2801274061203003, 0.09516189247369766, -0.2893574833869934, 0.33439216017723083, -0.1400599628686905, 0.25833359360694885, 0.24598360061645508, -0.3199916481971741, -0.26520514488220215, -0.3751862943172455, -0.10529783368110657, -0.30530276894569397, -0.3358972370624542, -0.5079489946365356, -0.15982764959335327, -0.20741070806980133, 0.009717981331050396, 0.2661518454551697, -0.5411428809165955, 0.11512655764818192, 0.03244734928011894, -0.4765932261943817, -0.36146026849746704, -0.39926454424858093, 0.29177093505859375, -0.21487468481063843, 0.13454347848892212, 0.09684234112501144, -0.49810856580734253, -0.18203392624855042, -0.04830961674451828, -0.04278736561536789, 0.004833872430026531, -0.08535390347242355, 0.26307186484336853, -0.4359067380428314, -0.7016034722328186, 0.26996704936027527, -0.12845268845558167, 0.1755901724100113, -0.14490948617458344, 0.16479839384555817, -0.10099052637815475, 0.28134965896606445, 0.04523667320609093, -0.2987508773803711, 0.0559622123837471, -0.6562784910202026, 0.4374851882457733, -0.04508008435368538, -0.1950455904006958, -0.25322067737579346, 0.1240789145231247, -0.21865980327129364, 0.011063058860599995, 0.3280387222766876, 0.14592738449573517, -0.22178040444850922, -0.7796739935874939, -0.19808551669120789, -0.1491534411907196,
-0.6144084930419922, -0.09555680304765701, 0.10555097460746765, -0.11910319328308105, -0.4461793899536133, -0.12397018820047379, -0.2453058660030365, -0.5101584196090698, -0.29865649342536926, 0.23617812991142273, 0.28567633032798767, 0.5403603315353394, 0.2357649952173233, 0.3864222466945648, -0.038676027208566666, -0.19950780272483826, 0.5093757510185242, -0.23089134693145752, -0.12102127075195312, -0.31245744228363037, -0.21955107152462006, -0.34015363454818726, -0.3054039478302002, 0.18796253204345703, -0.5050318837165833, 0.051141880452632904, 0.06461019814014435, 0.3682463467121124, 0.29678425192832947, -0.19546279311180115, -0.37174880504608154, -0.2600821256637573, 0.12805095314979553, 0.3285543620586395, 0.2650298774242401, -0.5497931838035583, 0.18622881174087524, -0.9133149981498718, 0.10122362524271011, 0.39479345083236694, 0.20118340849876404, -0.014238592237234116, -0.43113335967063904, -0.13632696866989136, 0.23212431371212006, -0.5765888690948486, -0.1945614069700241, 0.11557329446077347, -0.04573402926325798, 0.05352092534303665, 0.20833134651184082, 0.015988914296030998, 0.23819902539253235, -0.18154016137123108, 0.059336092323064804, 0.4994949698448181, -0.32265761494636536, 0.3392335772514343, -0.40869036316871643, 0.3385809063911438, -0.45648178458213806, 0.3813498914241791, -0.4052157998085022, -0.06093465909361839,
0.29409509897232056, -0.14559142291545868, 0.051550623029470444, -0.4033587872982025, -0.06396838277578354, 0.013801209628582, 0.16316628456115723, -0.12005334347486496, -0.22957085072994232, -0.10689277946949005, 0.1809820681810379, -0.34784936904907227, 0.03997465968132019, -0.35109344124794006, -0.03788203001022339, -0.5225812196731567, 0.4383581578731537, -0.5467643737792969, 0.0333942249417305, 0.2313823401927948, -0.0369158536195755, 0.5676369667053223, -0.30588650703430176, -0.17929095029830933, -0.48511579632759094, 0.28389236330986023, -0.13860023021697998, 0.08505892753601074, 0.07759272307157516, -0.4110199809074402, 0.6169211268424988, -0.21644361317157745, 0.024176031351089478, 0.24300934374332428, 0.11223836988210678, -0.0006470754160545766, -0.24250222742557526, -0.3922586143016815, -0.7795787453651428, -0.27645057439804077, -0.4024321436882019, 0.10902963578701019, -0.3303063213825226, -0.3469797372817993, -0.23920588195323944, -0.4284301698207855, -0.0030363884288817644, 0.0921139046549797, 0.09379830956459045, -0.005700841546058655, 0.15147656202316284, 0.0072769043035805225, -0.07289032638072968, -0.3586025834083557, 0.42523694038391113, -0.20653769373893738, 0.132600337266922, -0.4588877856731415, -0.015861501917243004, 0.389973521232605, 0.08038163185119629, 0.42324432730674744, 0.042301978915929794, -0.28484272956848145,
-0.1317257434129715, 0.25885775685310364, -0.24443569779396057, 0.05376756563782692, 0.5737064480781555, -0.14470279216766357, 0.2890408933162689, -0.4648784101009369, -0.332250714302063, -0.1586628407239914, -0.4817237854003906, -0.03072590008378029, -0.26653337478637695, 0.24166357517242432, 0.14596664905548096, 0.165469229221344, 0.07830171287059784, 0.1015113890171051, 0.14524683356285095, -0.43773555755615234, -0.3606622517108917, -0.6192756295204163, -0.33499476313591003, 0.31578269600868225, -0.6404433250427246, 0.4833318889141083, -0.13805197179317474, -0.4410609304904938, -0.2633054554462433, -0.20865648984909058, -0.040049731731414795, 0.0846446231007576, 0.3158654570579529, 0.14523431658744812, -0.49754124879837036, -0.41972869634628296, 0.27639344334602356, -0.47072693705558777, -0.22060583531856537, -0.20190586149692535, 0.03347614035010338, -0.611113965511322, -0.2586836814880371, -0.1315246969461441, -0.04341030493378639, 0.6380549073219299, -0.29633262753486633, 0.21557751297950745, 0.0258393045514822, -0.3883148729801178, -0.002408830914646387, 0.11077070981264114, 0.19535650312900543, -0.0468476228415966, 0.19564062356948853, 0.29778316617012024, -0.04859655722975731, -0.02104128524661064, -0.14080049097537994, 0.23595048487186432, 0.22710148990154266, 0.12361308932304382, -0.019288592040538788, -0.3658079504966736,
0.13096943497657776, -0.06486870348453522, 0.31673479080200195, -0.23303645849227905, 0.09400487691164017, 0.20843122899532318, -0.47573989629745483, -0.025078002363443375, 0.0984182208776474, 0.1867126077413559, -0.30745288729667664, 0.27507877349853516, -0.1442245990037918, -0.3469577133655548, -0.29495322704315186, -0.16710184514522552, 0.4896131753921509, -0.1376083642244339, -0.09821359813213348, -0.3443089425563812, 0.19238506257534027, 0.41339319944381714, 0.04242156818509102, -0.36442995071411133, 0.37234658002853394, 0.01666390523314476, 0.5693807601928711, -0.8319903016090393, 0.13423609733581543, -0.2189893275499344, 0.135921448469162, 0.2906321883201599, -0.1582738757133484, -0.7352077960968018, -0.5583248138427734, -0.3205714225769043, 0.04577329382300377, 0.0037018044386059046, 0.41076913475990295, 0.616649866104126, -0.5216912031173706, -0.4827350974082947, -0.20185472071170807, 0.18018443882465363, -0.21219146251678467, 0.09163563698530197, -0.2967051565647125, 0.44711950421333313, 0.011142601259052753, 0.06295692175626755, -0.38822171092033386, -0.15953339636325836, 0.3349882960319519, -0.19555948674678802, 0.1741906851530075, -0.23948374390602112, -0.07506221532821655, -0.13949225842952728, 0.22336935997009277, -0.12917019426822662, -0.18036934733390808, -0.3991890847682953, -0.3415425419807434, -0.406196266412735,
0.0631365180015564, -0.2664841413497925, -0.44483715295791626, 0.031038468703627586, 0.10843473672866821, -0.058084577322006226, -0.7254973649978638, -0.2696962058544159, -0.2509210705757141, 0.25541794300079346, 0.14064326882362366, -0.18752141296863556, 0.06312382966279984, -0.14306090772151947, -0.018283385783433914, 0.10450039058923721, -0.4511042833328247, -0.33756810426712036, -0.12197180092334747, 0.2184569090604782, -0.567781388759613, 0.4244242012500763, 0.36303237080574036, 0.11597249656915665, -0.18352696299552917, -0.08172551542520523, 0.08687746524810791, -0.3278019428253174, 0.20348791778087616, 0.0692395567893982, 0.09196902066469193, -0.3132058382034302, -0.3895990550518036, -0.055120520293712616, -0.2256636619567871, -0.5608345866203308, -0.24530966579914093, -0.20758754014968872, -0.10792309045791626, -0.1944039911031723, -0.11834327131509781, -0.11123210191726685, 0.22746549546718597, -0.1325816661119461, 0.20989219844341278, 0.06384991854429245, -0.03363631293177605, -0.19815626740455627, -0.10802602022886276, -0.004278270527720451, -0.2484513819217682, -0.09084106236696243, -0.27786901593208313, 0.001141541637480259, 0.038261909037828445, 0.10221932828426361, 0.20462946593761444, -0.7477288842201233, 0.1153186485171318, -1.1049216985702515, -0.7258573770523071, -0.235500767827034, 0.12666811048984528, -0.5017225742340088,
-0.8251804113388062, 0.15530815720558167, 0.34951892495155334, 0.4804464280605316, -0.011493396013975143, -0.4858040511608124, -0.10653118789196014, -0.5793963670730591, 0.20490242540836334, -0.08326214551925659, 0.10833287984132767, 0.09964192658662796, -0.14289091527462006, 0.1805386245250702, 0.01183489989489317, 0.05434344708919525, 0.16701114177703857, -0.03452201560139656, -0.26201844215393066, -0.5190923810005188, 0.3627708852291107, -0.26029670238494873, -0.33327123522758484, 0.3218218982219696, -0.36613330245018005, -0.5443422794342041, 0.13656781613826752, -0.2265152484178543, 0.02067161723971367, 0.0909188911318779, 0.22332486510276794, -0.23952065408229828, -0.5034273862838745, -0.5085694789886475, -0.4804302155971527, 0.09679105132818222, 0.35686585307121277, 0.2691841721534729, 0.023038968443870544, 0.022317351773381233, 0.09596289694309235, -0.40827876329421997, -0.6424349546432495, 0.20547854900360107, 0.3745811879634857, 0.44466644525527954, -0.2523786425590515, -0.07710204273462296, 0.12797684967517853, -0.20626814663410187, 0.19209639728069305, -0.4576723277568817, -0.41301020979881287, -0.08603746443986893, 0.06030846759676933, 0.03156355768442154, -0.5172349214553833, -0.2002931535243988, 0.12199074774980545, -0.23702287673950195, -0.11597803980112076, 0.32751035690307617, -0.4232024848461151, 0.36473938822746277,
0.060411401093006134, -0.04812769591808319, 0.10079212486743927, 0.2303088754415512, -0.055827703326940536, -0.3518035411834717, -0.176493838429451, -0.07203943282365799, -0.3284199833869934, -0.11074464023113251, -0.3251414895057678, 0.10256504267454147, -0.8528555631637573, 0.15101173520088196, -0.010232365690171719, 0.4338931143283844, 0.45434609055519104, -0.08603766560554504, 0.02087564207613468, 0.12712666392326355, -0.1355598419904709, -0.10344520211219788, 0.4385763108730316, 0.11531143635511398, -0.22858448326587677, 0.16018059849739075, 0.5467959046363831, 0.39925524592399597, -0.20554761588573456, 0.05176423117518425, 0.38772913813591003, 0.033085305243730545, -0.5584337115287781, -0.1288602501153946, 0.033652160316705704, -0.1982751339673996, 0.06279810518026352, -0.3954109847545624, -0.03610396012663841, -0.009125798009335995, 0.4295412003993988, 0.08167918026447296, 0.10216692090034485, 0.5672616362571716, 0.2506270408630371, -0.382418155670166, -0.07189887017011642, 0.10857127606868744, -0.24813053011894226, -0.010306176729500294, 0.36933183670043945, 0.2172749787569046, -0.2399323433637619, 0.0847613587975502, -0.4055226743221283, 0.3010176122188568, -0.16252732276916504, -0.45469942688941956, -0.26663872599601746, 0.1321680098772049, -0.2067560851573944, -0.24192599952220917, 2.8763728550984524e-05, -0.24821564555168152,
0.1826985776424408, 0.05531597137451172, 0.22557079792022705, 0.0544530414044857, -0.26848214864730835, -0.3035352826118469, -0.4208243191242218, 0.10716821253299713, -0.2207847237586975, -0.025091959163546562, 0.1558333933353424, -0.31519532203674316, -0.12421251088380814, -0.4837798476219177, 0.11346964538097382, -0.05445845052599907, 0.005234756972640753, -0.04390404745936394, -0.10634215921163559, -0.09903442859649658, -0.39722079038619995, 0.0531948022544384, 0.5864859819412231, 0.013804560527205467, 0.22663146257400513, 0.3868158161640167, -0.3172094225883484, 0.04778718203306198, -0.363957941532135, 0.2958677411079407, -0.09163223952054977, 0.018406646326184273, -0.10167384147644043, -0.5507459044456482, 0.18496760725975037, -0.32302746176719666, -0.5935510396957397, 0.09532251209020615, -0.49876827001571655, -0.2772142291069031, -0.058685947209596634, 0.45801615715026855, -0.009825549088418484, -0.37394049763679504, 0.32139161229133606, 0.17843757569789886, -0.10046267509460449, -0.04805455729365349, 0.32257628440856934, 0.08756554126739502, -0.09844474494457245, 0.05920588970184326, 0.1332557201385498, -0.08272691071033478, 0.45784732699394226, 0.05895780771970749, 0.24124698340892792, 0.3831178843975067, -0.34692344069480896, -0.4031887650489807, 0.18398864567279816, -0.3226233720779419, -0.2544039189815521, 0.3597211241722107,
-0.09678073227405548, -0.1846274882555008, -0.05801410228013992, -0.3536580502986908, -0.18376211822032928, 0.26654455065727234, -0.2627679705619812, 0.26490771770477295, 0.0823092982172966, 0.05336601659655571, 0.31115469336509705, 0.15095825493335724, 0.2652784287929535, -0.2654988765716553, -0.15562961995601654, -0.919767439365387, 0.06923531740903854, 0.24215197563171387, 0.16939929127693176, -0.08475055545568466, -0.23052267730236053, -0.4903358817100525, 0.18122945725917816, 0.20579896867275238, 0.3108235001564026, 0.36008191108703613, 0.3620447516441345, 0.27261126041412354, 0.03193891793489456, -0.07571952790021896, -0.10215549916028976, -0.5443450808525085, -0.20816545188426971, 0.19237090647220612, 0.06937664747238159, 0.16613498330116272, -0.2899858057498932, 0.20909950137138367, -0.16748805344104767, -0.11128421127796173, -0.18590384721755981, 0.027004417032003403, -0.031035909429192543, -0.421246737241745, -0.24357393383979797, -0.20467565953731537, 0.005914269480854273, -0.2136005312204361, 0.2318144142627716, 0.494589626789093, 0.13842524588108063, -0.15274114906787872, -0.20355942845344543, 0.23785175383090973, 0.1304696500301361, 0.03516232594847679, -0.368084192276001, -0.02954503521323204, 0.4103265106678009, -0.29012906551361084, -0.1614440530538559, 0.5278307795524597, -0.11360686272382736, -0.18807058036327362,
-0.23615051805973053, -0.25723689794540405, 0.011418531648814678, 0.33246514201164246, -0.04829682409763336, 0.30438432097435, -0.33735528588294983, -0.16464193165302277, -0.39123964309692383, 0.4121304452419281, 0.29446905851364136, 0.41587480902671814, 0.021358974277973175, 0.48547348380088806, -0.2740859389305115, -0.08829398453235626, 0.14089283347129822, 0.6167491674423218, 0.09552539885044098, -0.23407411575317383, -0.21180053055286407, 0.15595220029354095, 0.43489301204681396, 0.02997478097677231, -0.07089407742023468, -0.11127468943595886, -0.2639942467212677, -0.053451668471097946, -0.13113871216773987, -0.2988251745700836, 0.5406425595283508, 0.1293756067752838, 0.21113021671772003, 0.09542921930551529, 0.33449602127075195, -0.8096890449523926, -0.16223816573619843, -0.42695102095603943, 0.1805175393819809, -0.39623814821243286, -0.05963088199496269, 0.009345104917883873, 0.3767242133617401, -0.1763496994972229, 0.3731882870197296, -0.33955976366996765, -0.10726802796125412, 0.6832666397094727, -0.08415565639734268, 0.42589059472084045, -0.09914141893386841, 0.061120063066482544, 0.30567416548728943, -0.3050621747970581, 0.11358703672885895, 0.3229724168777466, -0.03264614939689636, -0.3606722354888916, -0.1011490598320961, -0.15474985539913177, 0.2554174065589905, 0.05967196822166443, 0.32167842984199524, -0.6982511281967163,
-0.2139018177986145, -0.13474997878074646, -0.1916806399822235, 0.09548977762460709, -0.11465009301900864, 0.41998937726020813, -0.3501676321029663, -0.5241950154304504, -0.2831744849681854, 0.2018250674009323, -0.2800273001194, 0.2976623475551605, 0.3133541941642761, -0.2827947437763214, -0.1522318720817566, -0.19753098487854004, -0.42795708775520325, -0.4521305561065674, -0.19964566826820374, -0.09943399578332901, 0.01435227319598198, 0.351993590593338, 0.018137160688638687, 0.30751633644104004, -0.09848237782716751, -0.07574132084846497, 0.5068486928939819, 0.2139856070280075, 0.006467391271144152, -0.12909908592700958, -0.25488734245300293, 0.16373412311077118, -0.25055402517318726, -0.3447834849357605, -0.014027295634150505, -0.3602954149246216, -0.20744681358337402, -0.10507726669311523, -0.024891681969165802, -0.04201948270201683, -0.14925244450569153, -0.3908669650554657, -0.604231595993042, -0.423610121011734, 0.13314701616764069, 0.23485469818115234, -0.01544857770204544, -0.17676062881946564, 0.08914115279912949, -0.04078720882534981, -0.11258645355701447, -0.8151195049285889, 0.17195357382297516, 0.41974157094955444, -0.37087854743003845, -0.057314272969961166, -0.23379215598106384, -0.5242981910705566, -0.24630872905254364, -0.594790518283844, -0.25773343443870544, -0.08298051357269287, -0.2886769771575928, -0.003940788563340902,
-0.28970229625701904, -0.18588265776634216, -0.3047102987766266, -0.44352468848228455, -0.5247365832328796, -0.3897973299026489, 0.2558651566505432, -0.2665438652038574, 0.12050504237413406, 0.2401403933763504, -0.31528741121292114, -0.34088239073753357, 0.016710463911294937, -0.7979388236999512, -0.06497493386268616, -0.016443610191345215, -0.5264753699302673, -0.3456973433494568, 0.010140360333025455, 0.031292110681533813, -0.3079385459423065, 0.022842232137918472, -0.14489689469337463, -0.7995324730873108, 0.23207202553749084, -0.12005238234996796, 0.37512803077697754, -0.242093026638031, -0.2338898926973343, -0.33289632201194763, -0.11023472249507904, -0.19002512097358704, 0.05375039577484131, 0.23016983270645142, -0.07969105243682861, -0.26203951239585876, -0.4684968590736389, 0.2028411328792572, -0.5224474668502808, -0.07727885991334915, 0.20401540398597717, 0.024968570098280907, -0.0764802023768425, -0.459110826253891, -0.5353827476501465, -0.39910975098609924, 0.21282900869846344, -0.5106236934661865, 0.15711629390716553, -0.13191859424114227, 0.2162100225687027, 0.13032060861587524, 0.2652070224285126, -0.38696983456611633, -0.08900138735771179, -0.6170104742050171, 0.38044601678848267, 0.32660526037216187, 0.07090584933757782, 0.06993251293897629, 0.30375343561172485, 0.147195965051651, 0.05231169983744621, -0.11181317269802094,
-0.19754540920257568, 0.041366975754499435, 0.0811542421579361, -0.2795121371746063, 0.3786550760269165, -0.2463688999414444, 0.2809044420719147, -0.49326616525650024, -0.1446262151002884, 0.3409062623977661, -0.07333976775407791, -0.11759060621261597, 0.30892324447631836, -0.00669066933915019, 0.21218889951705933, 0.7138415575027466, 0.12178444117307663, -0.0028780840802937746, 0.2515273690223694, 0.22192449867725372, -0.09991338104009628, -0.4209640920162201, -0.05924603343009949, -0.5655405521392822, 0.07869932800531387, -0.22321544587612152, 0.12440446764230728, 0.12027003616094589, -0.3715078830718994, -0.05351255461573601, -0.20161443948745728, 0.11985048651695251, 0.4284624457359314, -0.2709157168865204, -0.5642006397247314, -0.2043890804052353, 0.010377929545938969, 0.05267966538667679, -0.2021781951189041, 0.3568274676799774, -0.040708027780056, -0.18340443074703217, 0.2687022089958191, -0.21737553179264069, -0.5993178486824036, 0.14913129806518555, 0.2623252272605896, -0.20670202374458313, -0.2493923157453537, 0.057145390659570694, -0.07720217853784561, 0.17226769030094147, 0.11468880623579025, -0.5482779145240784, 0.055361926555633545, 0.08833441138267517, -0.1264088749885559, -0.07893922924995422, -0.47064247727394104, 0.07684091478586197, 0.16294507682323456, 0.016724718734622, -0.03643227741122246, 0.22059625387191772,
0.07463277876377106, 0.304373174905777, -0.06653102487325668, 0.09004640579223633, -0.056210897862911224, -0.2546098232269287, -0.19013437628746033, -0.48442205786705017, 0.2162659764289856, 0.2434752881526947, 0.08363465219736099, 0.2993939518928528, -0.45391884446144104, 0.029011690989136696, 0.13222835958003998, -0.15601639449596405, -0.11100832372903824, -0.6320337653160095, 0.24486540257930756, 0.15159258246421814, -0.052300166338682175, 0.020776385441422462, -0.5794261693954468, -0.0689249038696289, 0.24036790430545807, -0.32418549060821533, 0.2030138522386551, -0.2456090748310089, -0.4325636029243469, 0.07302621752023697, -0.03987836092710495, 0.2021874636411667, -0.2966546416282654, -0.2057647407054901, 0.04346521198749542, 0.2320747673511505, 0.031062886118888855, -0.13955897092819214, -0.09119175374507904, -0.11285165697336197, -0.9979174137115479, 0.056535493582487106, 0.0939042940735817, -0.0626605972647667, 0.016268061473965645, -0.20221161842346191, -0.1775623857975006, -0.16768431663513184, 0.2387760877609253, 0.1104486808180809, -0.10735058784484863, -0.5154091715812683, -0.17773236334323883, -0.21690456569194794, 0.4731419086456299, -0.36152616143226624, 0.2092341184616089, -0.01974104903638363, 0.030759889632463455, 0.00886203907430172, -0.16005545854568481, -0.5393246412277222, -0.8829635977745056, 0.23775823414325714,
0.4966963231563568, -0.18728896975517273, -0.09131339192390442, -0.5119104981422424, 0.3589787185192108, 0.2974292039871216, -0.33940741419792175, -0.2801576256752014, 0.3991912305355072, -0.11151046305894852, 0.056632149964571, 0.322018563747406, 0.22179032862186432, 0.08951712399721146, 0.05798981711268425, 0.3409276008605957, 0.2850695848464966, -0.012567422352731228, 0.06847275048494339, 0.07446029782295227, 0.463547945022583, -0.45725351572036743, -0.16625094413757324, 0.21801608800888062, -0.024865807965397835, -0.39290523529052734, -0.008704699575901031, -0.3689885139465332, -0.2863934636116028, 0.3035723865032196, -0.037337690591812134, -0.08329739421606064, -0.2765437066555023, -0.13762761652469635, 0.46127963066101074, -0.17352505028247833, -0.010524981655180454, -0.2678585648536682, -0.4572333097457886, -0.12179294973611832, 0.13079774379730225, 0.17057636380195618, -0.3389967083930969, 0.37604162096977234, 0.19146037101745605, -0.08583372831344604, -0.552527129650116, -0.34210458397865295, -0.31343352794647217, -0.5556203126907349, 0.1758328378200531, -0.3819964826107025, -0.238532155752182, -0.25429394841194153, -0.37579211592674255, -0.32889118790626526, -0.09148349612951279, -0.2183387577533722, -0.02708306349813938, -0.36686310172080994, -0.3023780286312103, -0.009299056604504585, -0.32963743805885315, -0.054076842963695526,
-0.10929790884256363, 0.5196645259857178, -0.8414407968521118, -0.19644255936145782, -0.22349542379379272, -0.20622393488883972, -0.018908796831965446, -0.1954583078622818, 0.23712480068206787, 0.014850318431854248, 0.17168168723583221, 0.5760310888290405, -0.3908860385417938, 0.2539132833480835, 0.13027667999267578, 0.3905911147594452, -0.29818427562713623, 0.03449030593037605, -0.271171510219574, 0.09760130196809769, -0.20649048686027527, 0.07902940362691879, 0.03962366655468941, 0.42210277915000916, 0.016219113022089005, -0.3455822765827179, 0.2684212625026703, 0.0867639034986496, 0.08491670340299606, -0.0765075758099556, 0.12392337620258331, 0.4039672017097473, -0.4345177412033081, -0.13221804797649384, -0.08366990834474564, 0.061305832117795944, 0.15451155602931976, -0.3128274083137512, -0.06146896257996559, -0.5348642468452454, 0.06293727457523346, -0.04496590420603752, -0.05123536288738251, -0.06370905041694641, -0.33395084738731384, 0.21210137009620667, 0.3028726279735565, -0.30511021614074707, -0.24263393878936768, 0.3661770224571228, 0.560746967792511, 0.04183425009250641, -0.04814295470714569, -0.13212502002716064, -0.43140125274658203, 0.09420427680015564, -0.5194958448410034, -0.20499718189239502, -0.3234959840774536, 0.3204374313354492, -0.08108828216791153, -0.24003273248672485, 0.04233415797352791, 0.25991731882095337,
-0.0681166723370552, 0.36977025866508484, 0.014005296863615513, 0.18947795033454895, -0.3564230501651764, 0.07543494552373886, 0.04463924840092659, 0.12523745000362396, 0.09967955201864243, 0.026537423953413963, -0.08514049649238586, 0.15867021679878235, -0.13909825682640076, -0.21419160068035126, 0.31003209948539734, -0.0482415109872818, -0.11898842453956604, -0.05532680079340935, -0.011007951572537422, 0.3834889829158783, 0.17495515942573547, -0.7743388414382935, 0.24818763136863708, 0.09113988280296326, -0.1266782432794571, -0.2906244695186615, 0.08928554505109787, 0.16014277935028076, -0.09349513053894043, -0.28051167726516724, -0.5470291972160339, -0.25534167885780334, -0.8563084006309509, 0.14022117853164673, -0.15837132930755615, 0.37021803855895996, -0.05130239948630333, 0.12025053054094315, -0.001880647032521665, 0.2735302448272705, -0.2382744997739792, -0.3277243375778198, 0.06814908236265182, -0.231105774641037, -0.03119070455431938, -0.3444417715072632, -0.18048162758350372, -0.5529988408088684, 0.1472126990556717, -0.7683865427970886, 0.43059977889060974, 0.24138841032981873, 0.25463053584098816, 0.3877612054347992, -0.33675530552864075, 0.3094969093799591, 0.333951860666275, -0.37005433440208435, -0.2590002119541168, -0.5245653390884399, 0.39225125312805176, -0.23956021666526794, 0.3414108157157898, 0.15315115451812744,
0.1368379443883896, -0.30207809805870056, 0.14404579997062683, 0.13744865357875824, -0.030133504420518875, 0.0982828289270401, 0.1367950439453125, -0.17085996270179749, 0.051117852330207825, 0.0021711995359510183, 0.5674833059310913, -0.31902655959129333, 0.07267621159553528, 0.17959056794643402, -0.13620859384536743, 0.2699227035045624, -0.0610017329454422, -0.2502460181713104, -0.1533104032278061, -0.122308149933815, -0.14691857993602753, -0.13088345527648926, 0.47201189398765564, -0.2609766721725464, -0.2824949324131012, 0.4371470510959625, -0.7780017256736755, 0.09830597788095474, -0.03429853543639183, 0.2679210901260376, -0.22379553318023682, -0.22560331225395203, 0.2533843517303467, 0.09303876012563705, 0.4625259339809418, -0.09640669822692871, 0.12630446255207062, -0.31013941764831543, -0.2704797089099884, 0.027896160259842873, -0.3708953857421875, -0.35711896419525146, 0.23760902881622314, -0.7405775785446167, 0.20178543031215668, -0.04630586877465248, 0.3090116083621979, -0.16024799644947052, 0.17789418995380402, -0.13716067373752594, 0.10812690109014511, 0.13625848293304443, 0.4079645574092865, 0.3353634178638458, 0.04364895820617676, 0.27279943227767944, 0.12376155704259872, 0.006211566738784313, -0.0720028504729271, 0.2118348479270935, 0.1206204742193222, 0.0019387212814763188, -0.0991654247045517, -0.3384140729904175,
-0.22804874181747437, -0.1364217847585678, 0.02256772667169571, -0.42912590503692627, 0.33397942781448364, 0.11945874989032745, -0.18241067230701447, -0.43160900473594666, 0.08867595344781876, -0.20311257243156433, -0.1260731816291809, 0.03796413540840149, -0.16766056418418884, -0.2674359679222107, -0.3376302123069763, 0.022483522072434425, -0.23044666647911072, 0.07668372988700867, -0.5375640392303467, -0.33721408247947693, -0.22077105939388275, -0.17458198964595795, -0.2870407700538635, -0.006585557013750076, -0.079232357442379, -0.8469139933586121, -0.5312337875366211, -0.004618197213858366, -0.012191823683679104, -0.11884450167417526, 0.13977983593940735, -0.5361894369125366, -0.595951497554779, -0.15003952383995056, -0.6695525050163269, 0.5604884624481201, -0.003609866602346301, 0.39838647842407227, -0.3288480043411255, -0.2590077221393585, -0.24562539160251617, -0.18165668845176697, 0.14042507112026215, 0.42679786682128906, 0.03368670865893364, -0.14131519198417664, -0.04878414422273636, 0.4507058560848236, -0.20438522100448608, -0.40468794107437134, -0.5614765286445618, -0.1376158595085144, -0.018106691539287567, 0.272987961769104, -0.13487255573272705, -0.009946481324732304, -0.4490509331226349, 0.1478855460882187, -0.259624183177948, -0.31625470519065857, -0.18444019556045532, 0.21528682112693787, -0.17598974704742432, 0.15530700981616974,
0.036424506455659866, -0.012388806790113449, 0.5614743232727051, 0.4855765104293823, -0.15008452534675598, -0.469615638256073, -0.02654864452779293, 0.3816661536693573, 0.22002027928829193, 0.21921706199645996, -0.19634442031383514, 0.12818747758865356, -0.0155129823833704, 0.05984654277563095, -0.3629372715950012, 0.009569821879267693, -0.16005241870880127, -0.20343919098377228, -0.4647552967071533, -0.3487465977668762, -0.0019459046889096498, -0.07028738409280777, -0.3705540597438812, 0.19947227835655212, 0.08735543489456177, -1.2434152364730835, 0.20363496243953705, 0.14722391963005066, 0.1504001021385193, -0.04004986211657524, -0.17285025119781494, 0.19256138801574707, -0.27823108434677124, -0.06647735834121704, -0.35388582944869995, 0.279009610414505, -0.08520044386386871, 0.19168922305107117, 0.1644715815782547, -0.29274168610572815, -0.1876552850008011, 0.08203539252281189, -0.05113602802157402, -0.08904499560594559, -0.18466469645500183, -0.02092258259654045, 0.17257574200630188, -0.4223003685474396, 0.1273024082183838, -0.989338755607605, -0.4228838086128235, 0.20771124958992004, -0.9185073971748352, 0.19488421082496643, 0.16985520720481873, 0.18765704333782196, -0.46858707070350647, 0.09239929169416428, -0.03160020709037781, 0.06445489078760147, -0.19012190401554108, -0.06982167065143585, -0.12016351521015167, -0.31016984581947327,
-0.29942241311073303, -0.26887592673301697, 0.06128459423780441, -0.5793808698654175, -0.3745862543582916, 0.4615454375743866, -0.08639219403266907, -0.17881286144256592, -0.3366277813911438, 0.3928968906402588, 0.4134618639945984, 0.09901199489831924, -0.8410667181015015, -0.31855615973472595, -0.1123596578836441, 0.12471485137939453, 0.46193450689315796, -0.15432167053222656, -0.2506085932254791, 0.23682604730129242, -0.2566891014575958, 0.07258202880620956, -0.11385490745306015, -0.11091214418411255, -0.28392481803894043, 0.38548871874809265, 0.030745474621653557, -0.2610436677932739, -0.04100634530186653, -0.24711120128631592, -0.3561011850833893, 0.2679179906845093, 0.34290069341659546, -0.008813324384391308, -0.051839038729667664, 0.09854346513748169, 0.1031060740351677, -0.4533247649669647, -0.48716315627098083, 0.49289268255233765, 0.11999130249023438, 0.10095296800136566, -0.35622668266296387, 0.06917756050825119, 0.1813277155160904, -0.3104684352874756, 0.055151209235191345, 0.014246806502342224, 0.2088516503572464, 0.35184115171432495, 0.11261724680662155, -0.004214066080749035, 0.3941064476966858, -0.1230427473783493, -0.0232643224298954, -0.3242947459220886, 0.2774163782596588, 0.18062026798725128, -0.3978722095489502, 0.07663105428218842, -0.16695328056812286, 0.29973816871643066, -0.49891597032546997, -0.13934093713760376,
0.09361779689788818, -0.3304489254951477, 0.22179439663887024, -0.32034921646118164, 0.12441691011190414, 0.3488895297050476, -0.18542690575122833, -0.08985615521669388, -0.431797057390213, 0.28117480874061584, 0.34642672538757324, 0.127478688955307, 0.3218547999858856, -0.0947919636964798, -0.08210957050323486, -0.008501201868057251, 0.15785253047943115, 0.166230708360672, 0.36506879329681396, 0.09347645938396454, 0.032838817685842514, 0.5061941146850586, 0.2711998224258423, -0.8399336338043213, 0.20484308898448944, 0.5529632568359375, -0.10645431280136108, -0.18368731439113617, 0.18152496218681335, 0.07673586159944534, -0.050078652799129486, -0.03023596853017807, 0.031086545437574387, -0.06389732658863068, 0.0900307446718216, -0.053534843027591705, 0.1419345885515213, 0.11112760007381439, -0.37086284160614014, -0.41558191180229187, 0.08067674189805984, -0.10774972289800644, -0.02353399619460106, 0.1756938248872757, -0.2557391822338104, -0.18205995857715607, 0.3982648253440857, -0.002862239256501198, -0.3151271343231201, 0.32231172919273376, 0.1928943246603012, 0.17115791141986847, -0.329214870929718, 0.06379712373018265, -0.08062943816184998, 0.22323480248451233, 0.4079010486602783, -0.27402928471565247, -0.006647560279816389, -0.1956319361925125, 0.21037700772285461, 0.3666359782218933, 0.2621532082557678, 0.09513123333454132,
-0.004116816446185112, 0.22298476099967957, -0.4014925956726074, -0.08321745693683624, 0.29329270124435425, -0.2918110191822052, 0.08617798238992691, 0.11482556909322739, -0.38249287009239197, -0.14011599123477936, -0.3070620596408844, -0.6236048340797424, -0.4519089460372925, 0.08823436498641968, -0.1586359292268753, 0.14414013922214508, -0.32441747188568115, 0.5812433958053589, -0.13870276510715485, 0.12047545611858368, -0.7117912769317627, 0.43743857741355896, 0.06270118057727814, -0.21548248827457428, -0.33098748326301575, 0.019312743097543716, -0.1608225405216217, 0.07654841244220734, 0.4708530008792877, -0.19366660714149475, -0.07975447177886963, -0.014444077387452126, -0.052829843014478683, -0.47777995467185974, 0.3394635021686554, 0.025323253124952316, -0.14245519042015076, 0.3078448176383972, -0.498980849981308, -0.49961283802986145, 0.06702335178852081, -0.12863710522651672, 0.037758853286504745, 0.39969658851623535, 0.18314161896705627, 0.10047783702611923, -0.1822277307510376, 0.323456346988678, 0.3732476234436035, -0.10137765854597092, -0.27216240763664246, 0.3630189597606659, -0.6233159899711609, 0.07762891799211502, -0.3286699950695038, -0.3100242614746094, 0.11562459915876389, -0.3425733745098114, -0.1683262288570404, -0.10657728463411331, -0.03756678104400635, -0.6644493341445923, 0.02374056540429592, -0.14058996737003326,
0.29465654492378235, 0.014877377077937126, 0.2220078408718109, 0.3369908034801483, 0.43299412727355957, 0.14319968223571777, 0.01721339486539364, 0.027936751022934914, -0.24701951444149017, -0.002743867924436927, 0.09267859160900116, 0.15806296467781067, -0.33374372124671936, 0.3838385343551636, 0.5254700779914856, 0.18393057584762573, -0.056612953543663025, -0.7295097708702087, -0.32032105326652527, -0.13619031012058258, -0.21365897357463837, -0.2342277616262436, -0.10738757252693176, 0.24889938533306122, -0.06622493267059326, -0.4894031286239624, -0.4904790222644806, 0.34282147884368896, 0.30126631259918213, 0.1898370385169983, 0.5693336725234985, -0.19108250737190247, 0.25015419721603394, 0.08385774493217468, 0.24936039745807648, -0.00464701559394598, 0.14326119422912598, -0.14683721959590912, 0.07868203520774841, 0.27191513776779175, 0.019268369302153587, 0.051865722984075546, 0.10838918387889862, 0.7847814559936523, -0.11934765428304672, 0.6453073620796204, -0.2249167263507843, -0.09613020718097687, -0.20711606740951538, -0.08002685755491257, -0.41335350275039673, -0.36621007323265076, 0.016110047698020935, -0.6474599242210388, -0.050059426575899124, 0.24924823641777039, 0.10662119835615158, 0.020962953567504883, -0.218536838889122, -0.1058068722486496, -0.25387510657310486, 0.3419615924358368, -0.2002149224281311, -0.17880003154277802,
0.07554180175065994, 0.18864186108112335, -0.1955263912677765, 0.1563781201839447, -0.03931938111782074, 0.06366851180791855, 0.04561707004904747, -0.1785295158624649, 0.3708779811859131, 0.018035991117358208, -0.27461493015289307, -0.1282428801059723, -0.264945387840271, 0.3206758499145508, 0.07361961156129837, -0.04942058399319649, -0.2333502471446991, -0.39989984035491943, 0.19335559010505676, -0.021754872053861618, 0.09884635359048843, -0.33419159054756165, -0.22000615298748016, 0.11140793561935425, -0.4432354271411896, -0.046176448464393616, -0.38847461342811584, -0.13740061223506927, -0.03332410752773285, -0.6237451434135437, 0.1344582736492157, -0.054653599858284, -0.16007138788700104, -0.03307988494634628, 0.30901482701301575, -0.09371443837881088, 0.19178028404712677, -0.12120328098535538, -0.47194430232048035, 0.23165610432624817, -0.17341092228889465, -0.14301657676696777, -0.751362681388855, -0.10570767521858215, 0.31003448367118835, -0.7916339039802551, 0.21662451326847076, 0.21202801167964935, -0.11392172425985336, -0.09098882973194122, -0.4146846830844879, 0.16232161223888397, -0.017576275393366814, -0.46779346466064453, -0.297355979681015, 0.11854393035173416, -0.15516847372055054, 0.13551120460033417, -0.0026734620332717896, 0.42081332206726074, 0.08374715596437454, -0.5714085102081299, -0.5953097939491272, -0.2206450253725052,
-0.24938133358955383, 0.5812073349952698, -0.3294627368450165, 0.04121856763958931, 0.041465505957603455, -0.24508513510227203, 0.32919609546661377, 0.13719280064105988, -0.058853570371866226, -0.127019464969635, 0.12821996212005615, -0.5945452451705933, -0.04620964080095291, 0.12676922976970673, 0.06832082569599152, -0.096676766872406, -0.0674574002623558, -0.34993165731430054, -0.036086197942495346, -0.25038012862205505, -0.24553489685058594, -0.06861566752195358, 0.0957837924361229, -0.5373000502586365, 0.014586524106562138, -0.14790096879005432, -0.15340974926948547, 0.1749345064163208, 0.12602752447128296, 0.03766462579369545, 0.003165347734466195, 0.34426331520080566, -0.03332588076591492, 0.20825254917144775, 0.2762695252895355, -0.06621810793876648, -0.19907942414283752, -0.02121073193848133, 0.11376833915710449, 0.0641547292470932, -0.172808438539505, 0.41145002841949463, 0.14577578008174896, -0.2913951575756073, 0.31961795687675476, -0.047483377158641815, -0.1238958016037941, 0.3784068822860718, 0.052206870168447495, -0.03255920112133026, -0.5862098932266235, 0.26179587841033936, -0.011967637576162815, 0.28971564769744873, -0.22462014853954315, 0.0848221480846405, 0.0885765552520752, -0.16137565672397614, -0.4089535176753998, 0.290174663066864, -0.26467862725257874, -0.36334261298179626, 0.06779339164495468, -0.04382193833589554,
-0.17135190963745117, 0.035993438214063644, 0.19810976088047028, 0.08117382973432541, 0.2324933409690857, 0.2864918112754822, 0.09231708198785782, 0.11003700643777847, 0.19804640114307404, -0.0043111699633300304, -0.29336151480674744, -0.16976813971996307, -0.4644758403301239, -0.11458831280469894, -0.32583940029144287, -0.4578244686126709, 0.2719203531742096, 0.1479427069425583, -0.48492100834846497, 0.19616219401359558, -0.07342740893363953, -0.4354664087295532, 0.06921688467264175, -0.24692656099796295, 0.19693955779075623, 0.4149843156337738, -0.11413110047578812, -0.3619982600212097, 0.19072017073631287, -0.4298717975616455, -0.11510634422302246, -0.3246508240699768, 0.12112472206354141, -0.2938727140426636, 0.02371799759566784, -0.11977879703044891, -0.8059180378913879, 0.02600906603038311, 0.24782097339630127, -0.6276404857635498, -0.3408362567424774, -0.06409971415996552, 0.0806174948811531, 0.7182186245918274, 0.1081673875451088, 0.2080569863319397, -0.09097690135240555, -0.02894917130470276, -0.4914426803588867, -0.7230391502380371, -0.04776551201939583, -0.12516790628433228, -0.08009360730648041, 0.21982118487358093, -0.0035747892688959837, -0.30978527665138245, -0.0527484230697155, 0.012875732034444809, 0.17410925030708313, -0.3926635980606079, 0.011626564897596836, -0.20932862162590027, 0.28973057866096497, -0.09255025535821915,
-0.013670877553522587, -0.31978052854537964, 0.2018592357635498, -0.4851968288421631, -0.16936735808849335, 0.6331321001052856, -0.13083964586257935, 0.5463342666625977, -0.23229306936264038, -0.05899900197982788, 0.14685963094234467, -0.38648462295532227, -0.36743131279945374, -0.3690814971923828, 0.1351746916770935, 0.28520452976226807, 0.45016178488731384, -0.18007060885429382, -0.1722710132598877, -0.2165677696466446, -0.8275173306465149, 0.32500308752059937, 0.011414251290261745, 0.006650479510426521, 0.04021042212843895, 0.21963591873645782, -0.28245922923088074, -0.3665641248226166, 0.23551802337169647, 0.23917068541049957, -0.23847810924053192, 0.27533963322639465, 0.2741672098636627, -0.04851853847503662, 0.24606259167194366, -0.21384911239147186, -0.20573221147060394, -0.4688451290130615, -0.3288205862045288, 0.009208069182932377, -0.15759676694869995, 0.18393753468990326, -0.022289518266916275, 0.24416545033454895, 0.17160256206989288, -0.03494158387184143, -0.23768754303455353, -0.5223108530044556, -0.2595950961112976, -0.010110349394381046, 0.05456418916583061, -0.06103574112057686, 0.2617548108100891, -0.005081792362034321, -0.1380614936351776, -0.17582431435585022, -0.12345641106367111, 0.4528075158596039, 0.40364354848861694, 0.06245115026831627, 0.014588425867259502, 0.44260403513908386, -0.0966985747218132, -0.4780007004737854,
-0.010376574471592903, 0.37282535433769226, -0.1591147482395172, -0.3640161156654358, -0.4479106664657593, -0.375349760055542, -0.20360234379768372, -0.5820757150650024, -0.2505655586719513, -0.17513564229011536, 0.02066340669989586, 0.2691413164138794, 0.1069369986653328, -0.3276032507419586, -0.023083699867129326, 0.3357192277908325, -0.41949594020843506, -0.5430580377578735, 0.03295755758881569, -0.5994021892547607, 0.3295910656452179, 0.15332075953483582, -0.2751293480396271, 0.008146068081259727, -0.2756957709789276, -0.06548912823200226, 0.19922688603401184, -0.4954182505607605, 0.14702406525611877, 0.005551822483539581, -0.427191823720932, -0.29866135120391846, -0.013197499327361584, 0.07204298675060272, -0.6083914637565613, 0.13072305917739868, 0.4417070746421814, 0.21051466464996338, 0.0601569227874279, 0.3714659810066223, -0.1291971206665039, -0.2184162139892578, 0.00354828592389822, -0.03582344204187393, -0.1648363471031189, -0.0042932722717523575, -0.10930747538805008, 0.16128972172737122, -0.1865578144788742, -0.3731195032596588, 0.1052909567952156, -0.060403306037187576, 0.10563115775585175, 0.2088496834039688, -0.12200093269348145, 0.04870092496275902, 0.23434703052043915, -0.5356101393699646, -0.3048161566257477, -0.10884527862071991, -0.04304617643356323, -0.07680492848157883, 0.2873408794403076, 0.6561662554740906,
