#include "neural_network.h"
#include <stdio.h>
#include <math.h>

const float weights_fc1[] = {
0.29744672775268555, -0.18252070248126984, -0.2027115821838379, 0.3102039694786072, 0.002761316020041704, -0.1658971905708313, -0.1765879988670349, -0.21378734707832336, -0.28824517130851746, 0.20188401639461517, -0.303819477558136, 0.3463955521583557, 0.19318458437919617, 0.22290705144405365, -0.07943222671747208, -0.22210319340229034, -0.15389257669448853, -0.03459544852375984, 0.07881432771682739, -0.08243308216333389,
0.1166328638792038, -0.3476974666118622, -0.08937644958496094, -0.42535096406936646, -0.07365453988313675, -0.26160505414009094, -0.37902915477752686, -0.09236345440149307, -0.8033722043037415, -0.09887391328811646, 0.06610125303268433, 0.0514848455786705, 0.37218278646469116, 0.18444406986236572, -0.05011947453022003, -0.02842082269489765, 0.2901213765144348, -0.14928369224071503, -0.12617313861846924, -0.19928304851055145,
-0.2341766208410263, 0.20566394925117493, 0.18817387521266937, -0.052590109407901764, -0.0659371018409729, -0.052465472370386124, -0.6842498183250427, 0.1268443465232849, 0.10139170289039612, -0.018755782395601273, -0.042278971523046494, 0.03200493007898331, 0.5749675631523132, 0.1307179033756256, -0.20141904056072235, -0.014271612279117107, 0.11389192193746567, 0.17375972867012024, 0.011424140073359013, 0.06362607330083847,
-0.15193362534046173, 0.10124097764492035, 0.012412537820637226, -0.03463786095380783, -0.09419433772563934, -0.2466956228017807, 0.2846910059452057, -0.05654750019311905, 0.5332571864128113, 0.04342677816748619, 0.02633599191904068, 0.13461865484714508, -0.06829333305358887, 0.1669856607913971, -0.12687388062477112, 0.19532181322574615, -0.014406600035727024, 0.013598454184830189, -0.16032865643501282, -0.35867786407470703,
0.07679657638072968, -0.3154173195362091, 0.6109421253204346, 0.04683471843600273, -0.27990153431892395, -0.011487961746752262, 0.24115033447742462, 0.3192870020866394, 0.09745869040489197, -0.06026609614491463, -0.004696428310126066, -0.06994818896055222, -0.32859790325164795, 0.1591343879699707, -0.17949365079402924, -0.07182261347770691, -0.07706868648529053, 0.19661779701709747, -0.14874179661273956, 0.4225361943244934,
-0.14982497692108154, 0.31840580701828003, -0.06130654364824295, -0.01798100955784321, 0.21130092442035675, 0.089284248650074, -0.09205622971057892, -0.30388230085372925, 0.09614934772253036, -0.22414317727088928, -0.23131100833415985, 0.4250950217247009, 0.1122882068157196, 0.2415207326412201, 0.6810119152069092, -0.008170127868652344, -0.02695135958492756, 0.08830853551626205, 0.003934897482395172, -0.14188651740550995,
0.08917758613824844, 0.1824950873851776, 0.4552054703235626, 0.10572874546051025, 0.16211776435375214, 0.6263579726219177, -0.3839794099330902, 0.14944137632846832, 0.10211073607206345, -0.06635290384292603, 0.14102768898010254, -0.016848528757691383, 0.05307809263467789, 0.14371097087860107, -0.13452944159507751, -0.14270909130573273, 0.29845452308654785, 0.28744712471961975, -0.048891276121139526, -0.14878657460212708,
0.11942531168460846, 0.1258748173713684, -0.33620214462280273, -0.017800573259592056, -0.028437122702598572, -0.08529314398765564, 0.18654395639896393, -0.27099260687828064, 0.23095838725566864, -0.37239202857017517, -0.07135206460952759, 0.16956071555614471, 0.2984766662120819, -0.13733240962028503, -0.033512040972709656, 0.2376759797334671, -0.23062321543693542, -0.02131049521267414, 0.08341661840677261, -0.00029168062610551715,
0.00730798440054059, 0.04972575232386589, -0.697837233543396, 0.3034664988517761, 0.11964617669582367, -0.20946814119815826, 0.1000782698392868, 0.4002891480922699, -0.3478218913078308, 0.010875452309846878, -0.05987505242228508, -0.49943971633911133, -0.06948460638523102, 0.18339784443378448, 0.1503283530473709, 0.20750591158866882, 0.26884034276008606, 0.31880098581314087, 0.14688773453235626, -0.29186952114105225,
-0.09218145906925201, -0.0378093495965004, 0.41230183839797974, 0.10216383635997772, -0.07986823469400406, 0.06874872744083405, -0.16846095025539398, -0.2035822719335556, 0.44893789291381836, -0.05516780912876129, -0.04873446747660637, 0.2691181004047394, 0.016082927584648132, 0.21338456869125366, 0.0768391415476799, 0.24272854626178741, -0.1598181277513504, 0.18748173117637634, 0.11136617511510849, -0.16030776500701904,
0.1875641942024231, -0.12061757594347, -0.3590981364250183, -0.1510625183582306, -0.12636993825435638, -0.26851150393486023, -0.12349902093410492, -0.3115033805370331, -0.012509838677942753, 0.038027323782444, 0.12449872493743896, -0.19201798737049103, -0.14051730930805206, 0.279584139585495, -0.06696900725364685, 0.0988549217581749, 0.10286606848239899, 0.24348554015159607, -0.491089791059494, 0.3031810224056244,
0.21079562604427338, 0.368721604347229, -0.019836217164993286, -0.08614566177129745, 0.3121432662010193, 0.12671935558319092, 0.050343167036771774, -0.32268598675727844, 0.3273415267467499, 0.028718646615743637, -0.08608090877532959, 0.12492283433675766, 0.17112869024276733, 0.05627613142132759, 0.46239322423934937, -0.1639791578054428, -0.043709952384233475, 0.09649066627025604, 0.08478918671607971, 0.1580979824066162,
-0.12112723290920258, -0.16170088946819305, -0.5546103119850159, -0.37611961364746094, 0.1493247151374817, -0.08735735714435577, 0.40082278847694397, -0.3534585237503052, -0.07913576066493988, 0.019374659284949303, 0.03674736246466637, -0.24791547656059265, 0.0440092459321022, -0.09364494681358337, -0.23354366421699524, 0.02795363962650299, -0.033689409494400024, -0.18246495723724365, 0.0291415024548769, -0.2663535177707672,
0.22840619087219238, 0.2785537838935852, -0.15996472537517548, 0.09535730630159378, 0.1943262219429016, 0.4358174800872803, -0.19652824103832245, -0.48327791690826416, -0.40114328265190125, -0.17607484757900238, 0.09370286762714386, -0.49755823612213135, -0.2207908034324646, -0.13384288549423218, 0.14748522639274597, -0.1946175992488861, -0.15317298471927643, 0.26781049370765686, 0.09513314813375473, 0.3415514826774597,
0.25825703144073486, 0.1390938013792038, 0.6162493824958801, 0.11086853593587875, -0.17136475443840027, 0.06553319841623306, -0.10322843492031097, 0.539671003818512, -0.3004034161567688, 0.17003904283046722, 0.024047914892435074, -0.002987856278195977, -0.15253809094429016, -0.09455561637878418, 0.26831692457199097, 0.06119849905371666, 0.008030476979911327, -0.08887946605682373, 0.16491562128067017, 0.02505706436932087,
0.06181705743074417, 0.41344764828681946, 0.03225502744317055, 0.12476954609155655, 0.10169066488742828, -0.3730185329914093, -0.2887900471687317, -0.14938896894454956, 0.03191600367426872, -0.022992750629782677, -0.06059294939041138, -0.35073143243789673, 0.22402457892894745, 0.02394091710448265, 0.03715715929865837, -0.06984484940767288, -0.18309420347213745, 0.18482720851898193, -0.013815547339618206, -0.011872934177517891,
0.1965407431125641, -0.6927139163017273, 0.7426877617835999, 0.1644909828901291, -0.2815532684326172, 0.33029380440711975, 0.1928049772977829, -0.1076519638299942, -0.2932914197444916, -0.07280144095420837, -0.10546936094760895, 0.2222825586795807, 0.006037728860974312, -0.2781197726726532, 0.008184253238141537, -0.014688889496028423, 0.02804228477180004, 0.1821923702955246, 0.08589887619018555, -0.08601349592208862,
-0.5019034743309021, -0.19441922008991241, 0.8130391836166382, 0.15730375051498413, 0.0027855627704411745, 0.2527717649936676, -0.11620982736349106, 0.07534193247556686, -0.7561015486717224, -0.03794176131486893, -0.13516871631145477, -0.3387692868709564, 0.19737683236598969, -0.28441616892814636, -0.1004403829574585, 0.175475612282753, 0.16168153285980225, 0.14056387543678284, 0.04621300846338272, -0.009134638123214245,
0.01077352650463581, -0.19744496047496796, -0.8569505214691162, -0.19472697377204895, -0.04970357567071915, -0.2727350890636444, 0.011553280986845493, -0.20065893232822418, -0.4979134500026703, -0.057359904050827026, 0.020001523196697235, -0.09483516961336136, -0.15575699508190155, 0.2922947108745575, -0.02799944207072258, 0.36769092082977295, 0.3583770990371704, -0.07592269778251648, 0.25861504673957825, -0.09375113248825073,
-0.5663919448852539, -0.21798837184906006, 0.14116984605789185, -0.02232418581843376, 0.028269125148653984, -0.28201189637184143, -0.09392649680376053, -0.07783898711204529, 0.1444387137889862, -0.08846590667963028, 0.08793608844280243, 0.16536863148212433, 0.15445570647716522, 0.08825304359197617, -0.08993940055370331, -0.38898760080337524, 0.49731841683387756, 0.01101330853998661, 0.1634572148323059, -0.1569785177707672,
-0.2000046968460083, -0.20692186057567596, -0.5605591535568237, -0.013109247200191021, -0.19807486236095428, 0.0663113072514534, 0.11960230767726898, -0.09323442727327347, -0.5013743042945862, -0.11442524194717407, -0.36278340220451355, 0.2338114231824875, 0.03951631486415863, 0.007958732545375824, -0.20156732201576233, -0.08227422833442688, -0.23317784070968628, 0.11166974902153015, -0.022993413731455803, -0.18967661261558533,
0.02432793378829956, 0.18129456043243408, -0.06818869709968567, 0.06047448515892029, 0.3038114309310913, -0.019111620262265205, 0.15424589812755585, 0.33580923080444336, -0.08987239748239517, -0.07525020837783813, 0.18172965943813324, 0.09426198154687881, 0.01740139350295067, 0.10497381538152695, 0.17888449132442474, 0.04917072504758835, 0.16657674312591553, -0.41016721725463867, -0.24482733011245728, 0.1237383484840393,
-0.025394529104232788, -0.14961262047290802, 0.2883424460887909, -0.012591837905347347, -0.07365819066762924, 0.32680681347846985, -0.06834396719932556, -0.4090631604194641, 0.30225980281829834, 0.09019381552934647, -0.12615028023719788, -0.07205993682146072, 0.07971706241369247, -0.19421587884426117, 0.21641488373279572, 0.12716367840766907, 0.6376286149024963, -0.36395537853240967, -0.12423478811979294, -0.24958141148090363,
0.344139963388443, -0.29763534665107727, 0.030611414462327957, -0.035752490162849426, 0.03753970190882683, 0.3014058470726013, -0.4505784511566162, -0.05721411108970642, -0.07552648335695267, -0.07995928823947906, -0.07988620549440384, -0.2142496109008789, 0.07255113124847412, 0.2574792206287384, 0.044747136533260345, -0.07193729281425476, -0.08033575117588043, 0.23886510729789734, -0.05324274301528931, 0.18315739929676056,
-0.4487404525279999, 0.009657533839344978, -0.5891246199607849, 0.1397029608488083, -0.014017109759151936, -0.3267327845096588, 0.3821793496608734, -0.22908484935760498, -0.09704791754484177, 0.12182623147964478, -0.05341019108891487, 0.10096406936645508, 0.23458313941955566, -0.13729126751422882, 0.4100192189216614, 0.08752316981554031, 0.42215636372566223, -0.1952245533466339, 0.09659676253795624, 0.19413256645202637,
0.030452683568000793, 0.33933931589126587, 0.45050695538520813, -0.24091766774654388, 0.06492791324853897, 0.14540700614452362, 0.4373217821121216, 0.4396466314792633, 0.1576825976371765, 0.17044097185134888, -0.25803646445274353, -0.24747270345687866, 0.06400773674249649, 0.0015129526145756245, 0.2591330409049988, -0.10323657840490341, 0.18513508141040802, 0.05860944464802742, 0.1384425312280655, -0.2655958831310272,
0.10500568151473999, -0.042148787528276443, 0.3589557111263275, 0.11277908086776733, -0.14869889616966248, -0.12073159217834473, 0.37293535470962524, -0.26693832874298096, -0.6045985817909241, -0.004680856596678495, 0.011550270020961761, 0.14908525347709656, 0.03706305846571922, -0.1678098887205124, 0.2495904415845871, -0.25134894251823425, -0.030498439446091652, 0.24550406634807587, 0.2006613314151764, -0.05573615804314613,
-0.17932890355587006, 0.009427288547158241, 0.6136139035224915, 0.05588093027472496, 0.06745706498622894, -0.11849533766508102, -0.12095243483781815, -0.5345664620399475, -0.7249619364738464, 0.04564005881547928, -0.07043470442295074, -0.03789651021361351, 0.038993917405605316, -0.12413985282182693, 0.23570410907268524, -0.009820878505706787, 0.14291557669639587, 0.006991432048380375, -0.30748674273490906, 0.13882571458816528,
0.08367085456848145, 0.3173712193965912, 0.8928165435791016, -0.05622103437781334, -0.04109055548906326, 0.5172905921936035, 0.5861024260520935, 0.5341225266456604, -0.2572837471961975, 0.03630972281098366, -0.14124558866024017, 0.128423810005188, -0.012626701034605503, 0.2223324477672577, 0.08049791306257248, 0.15678071975708008, -0.09665138274431229, 0.3108185827732086, 0.02840115688741207, 0.14809739589691162,
0.30610859394073486, -0.23604637384414673, 0.8161564469337463, 0.013694954104721546, 0.0006477304268628359, 0.13497821986675262, -0.3893544375896454, -0.36917996406555176, 0.6090015769004822, -0.11190721392631531, -0.11375708878040314, -0.16173610091209412, -0.04370148852467537, -0.16166651248931885, -0.002220981754362583, -0.00349308829754591, -0.03853433579206467, -0.03778337314724922, 0.1559375673532486, -0.07127310335636139,
-0.5023806095123291, -0.26527881622314453, -0.5535791516304016, -0.2750694453716278, -0.12246180325746536, -0.30423006415367126, -0.2078983187675476, 0.12103617936372757, -0.06374487280845642, -0.08033405989408493, 0.3374207615852356, 0.1743876338005066, 0.02963414043188095, 0.2958345115184784, -0.14659851789474487, -0.07660381495952606, 0.33842819929122925, 0.05042752996087074, -0.02819337509572506, -0.09975111484527588,
-0.12151933461427689, 0.11245930939912796, 0.08486342430114746, -0.1830412745475769, 0.04112900048494339, -0.09345237165689468, -0.06927251070737839, 0.3743593096733093, -0.5054784417152405, -0.2871383726596832, -0.04611910507082939, 0.0405256561934948, 0.008244926109910011, 0.04960434138774872, -0.02053392305970192, 0.33616089820861816, 0.5011717677116394, -0.0018039954593405128, 0.19492071866989136, 0.10057562589645386,
-0.08041428029537201, -0.5662693977355957, 0.448098748922348, 0.05659333989024162, -0.003388936398550868, 0.14015722274780273, 0.06984800100326538, -0.10157915204763412, 0.18827205896377563, 0.06652384251356125, -0.05409577861428261, -0.16023844480514526, 0.31913524866104126, -0.11200442165136337, 0.23047220706939697, 0.026457220315933228, -0.546249270439148, -0.29797157645225525, 0.19830551743507385, 0.07021551579236984,
-0.20538292825222015, 0.05139988660812378, -0.17716184258460999, -0.05047525092959404, -0.35614174604415894, -0.0073269628919661045, -0.1641203761100769, 0.4631636142730713, -0.07686350494623184, 0.01447481568902731, -0.0066588399931788445, -0.01305314339697361, -0.1642633080482483, -0.019818801432847977, -0.17535088956356049, -0.25372782349586487, 0.03024156019091606, -0.07499296963214874, 0.038358498364686966, -0.09578070044517517,
-0.4612405300140381, 0.2758597731590271, 0.07893338054418564, -0.09248843789100647, 0.1480533331632614, -0.10118041187524796, 0.44269511103630066, -0.020301181823015213, 0.24257317185401917, 0.03482590243220329, 0.11140519380569458, -0.03940312936902046, -0.2954860031604767, -0.006101024802774191, -0.04481838643550873, 0.4448283612728119, 0.0053480700589716434, 0.075196772813797, 0.02897096425294876, 0.04640059545636177,
-0.06140482425689697, 0.1525973379611969, -0.11171260476112366, -0.1960856169462204, -0.19489607214927673, -0.17762519419193268, 0.264776349067688, 0.4699047803878784, 0.3108381927013397, -0.0816812664270401, -0.07840967178344727, -0.051820795983076096, 0.11595961451530457, -0.215891033411026, 0.28097373247146606, 0.494269460439682, -0.03357502073049545, 0.3188779056072235, -0.4084301292896271, -0.0006938254227861762,
0.09710624068975449, -0.2599683701992035, -0.1378912478685379, 0.23647858202457428, -0.10485348105430603, 0.11392094939947128, 0.48930248618125916, -0.1023474708199501, -0.27260005474090576, 0.005341824144124985, 0.039093781262636185, 0.09124904870986938, -0.1446555107831955, -0.14396947622299194, 0.5675148963928223, -0.26666536927223206, -0.280142217874527, 0.01895901933312416, 0.07231605052947998, 0.1195802167057991,
-0.12427253276109695, 0.3641015887260437, -0.05569868162274361, -0.050536561757326126, 0.24707885086536407, -0.015583613887429237, 0.2504112124443054, -0.16989146173000336, 0.2812120020389557, 0.1308540403842926, -0.13471554219722748, 0.3417408764362335, -0.07769123464822769, 0.2222466617822647, 0.19372698664665222, -0.17182695865631104, 0.17232830822467804, 0.08519385010004044, -0.10942783206701279, -0.004753793124109507,
-0.18675357103347778, -0.45636728405952454, -0.5903569459915161, -0.006346721667796373, -0.08676782995462418, -0.3699864447116852, -0.33544132113456726, -0.08898735791444778, -0.18885208666324615, 0.02647179365158081, -0.1702122539281845, 0.08735936135053635, 0.10600695013999939, 0.26023271679878235, -0.08894973248243332, -0.015626760199666023, 0.22307580709457397, 0.25106552243232727, -0.03421695902943611, 0.29920488595962524,
-0.27659687399864197, 0.21833084523677826, -0.3870144784450531, -0.1331348419189453, 0.04047037288546562, -0.2258739471435547, 0.3502342998981476, -0.2579261064529419, 0.6564562320709229, 0.059364646673202515, -0.028979497030377388, -0.002610903698951006, -0.19482412934303284, -0.19947971403598785, 0.30224406719207764, -0.026108236983418465, 0.1975756138563156, 0.2652418315410614, 0.043713632971048355, 0.049943890422582626,
0.08211330324411392, 0.17149163782596588, 0.08317186683416367, -0.0020494775380939245, 0.04002862796187401, 0.5324338674545288, 0.008862982504069805, -0.2160375714302063, -0.24133041501045227, 0.020761065185070038, -0.13232220709323883, -0.2094171792268753, 0.17488019168376923, 0.11771997809410095, -0.07275255769491196, 0.004690816625952721, -0.3181045651435852, 0.2562011182308197, -0.07715384662151337, -0.2364584356546402,
0.025614682585000992, -0.02618672326207161, 0.008653243072330952, -0.44706642627716064, -0.26506853103637695, -0.35842594504356384, -0.21443602442741394, -0.09687287360429764, -0.11213334649801254, 0.021483968943357468, -0.12122438102960587, -0.41598111391067505, 0.36944764852523804, 0.11968273669481277, -0.0499785840511322, -0.19086526334285736, -0.17980562150478363, -0.17214226722717285, 0.3030640482902527, -0.2063453644514084,
0.009783651679754257, 0.06758545339107513, -0.6216444969177246, -0.20926332473754883, 0.1824524998664856, -0.18513581156730652, 0.4228726327419281, -0.425553560256958, 0.03780777007341385, -0.09763367474079132, -0.07888614386320114, -0.29504868388175964, -0.14802373945713043, -0.27554047107696533, -0.24928444623947144, 0.09464462101459503, 0.05654670298099518, -0.13073034584522247, 0.016691971570253372, 0.09344368427991867,
0.3441927134990692, 0.19442999362945557, -0.6787440180778503, 0.5314562320709229, -0.2135956585407257, 0.015820741653442383, -0.13040922582149506, -0.08056378364562988, 0.13825273513793945, -0.11511127650737762, 0.07378479838371277, 0.007420222740620375, -0.11475354433059692, 0.042841773480176926, -0.2630532383918762, 0.13931909203529358, 0.06492815911769867, -0.012605023570358753, 0.2178289294242859, 0.11030345410108566,
-0.11143647134304047, -0.053253885358572006, 0.6487070918083191, 0.11526737362146378, -0.08291172981262207, 0.28744205832481384, -0.19173337519168854, 0.5772985219955444, 0.10819418728351593, -0.17671607434749603, -0.06983451545238495, -0.06323660910129547, 0.10994182527065277, 0.38307565450668335, -0.20907016098499298, -0.30841386318206787, -0.3858344554901123, -0.5686460137367249, 0.046263620257377625, -0.06876857578754425,
-0.20857366919517517, 0.09653054922819138, -0.08608681708574295, -0.10086435824632645, -0.06354992091655731, 0.007430461701005697, 0.2405761182308197, 0.4636780619621277, 0.5295736789703369, 0.007967798970639706, -0.061796627938747406, 0.03034929931163788, 0.007104312069714069, 0.21139173209667206, 0.007381010800600052, 0.15636329352855682, 0.7239255309104919, 0.20513252913951874, -0.1911536157131195, 0.11746782064437866,
0.2860133647918701, 0.07398884743452072, 0.10760337114334106, 0.06832847744226456, 0.2589770257472992, -0.22014908492565155, 0.5677302479743958, 0.1466190367937088, 0.30295127630233765, 0.039072610437870026, -0.0711551159620285, -0.025292672216892242, 0.2813014090061188, -0.25825226306915283, -0.0008098579128272831, 0.2989307940006256, 0.06527674198150635, -0.17297565937042236, 0.03491658717393875, -0.2730620503425598,
0.14728693664073944, 0.11419472843408585, 0.10739322751760483, -0.5714911222457886, -0.06527676433324814, -0.3365146815776825, -0.12624329328536987, 0.40640687942504883, 0.3231131136417389, -0.10365135222673416, 0.21007822453975677, 0.049909207969903946, -0.12702466547489166, -0.21201163530349731, 0.40713050961494446, 0.05554109811782837, -0.281664103269577, 0.34157973527908325, 0.04781315475702286, -0.12262730300426483,
0.04329080879688263, -0.36615708470344543, 0.6809287071228027, 0.036620739847421646, -0.07010170072317123, 0.0688287690281868, 0.5764796733856201, 0.5918926000595093, -0.5053209066390991, 0.026455864310264587, 0.07237688452005386, -0.1614282876253128, -0.16976268589496613, 0.18302395939826965, 0.050432778894901276, -0.1501874476671219, 0.03584285080432892, 0.03750266879796982, -0.24766212701797485, -0.012903587892651558,
0.23212456703186035, 0.11077562719583511, -0.22258660197257996, 0.05359895899891853, -0.22051529586315155, -0.38641729950904846, -0.2238551527261734, -0.07721948623657227, -0.0523277148604393, -0.20829029381275177, -0.11990275979042053, 0.11924400180578232, 0.05625922605395317, 0.09153904020786285, -0.04590538144111633, -0.1493312120437622, 0.22807711362838745, 0.2555871903896332, -0.45486509799957275, 0.4937613904476166,
0.31236985325813293, 0.5621092915534973, 0.25179216265678406, 0.13295869529247284, 0.25279346108436584, -0.22909018397331238, -0.42159080505371094, 0.22757458686828613, -0.005957803688943386, -0.2061096876859665, 0.00816313549876213, 0.21469788253307343, -0.3119482398033142, -0.06705710291862488, -0.32602062821388245, -0.17115646600723267, -0.1294618844985962, -0.2481265366077423, 0.0330127477645874, -0.013060715049505234,
0.47981640696525574, 0.14525187015533447, 0.6490815877914429, 0.4026539623737335, -0.04750727489590645, 0.11142999678850174, 0.12888360023498535, 0.1676194816827774, 0.002619936130940914, -0.023013265803456306, -0.04505187273025513, 0.009941809810698032, -0.288137286901474, -0.06266749650239944, 0.10709962993860245, -0.07181023061275482, -0.07504240423440933, 0.11040917783975601, 0.1821177899837494, -0.4651623070240021,
-0.15548405051231384, -0.06529223173856735, 0.02611939236521721, 0.0415993332862854, -0.2324257791042328, 0.03985530138015747, -0.23473241925239563, -0.6003785133361816, -0.1780128926038742, -0.08720933645963669, -0.2789653241634369, -0.028163211420178413, 0.2347046583890915, 0.3203648030757904, 0.023454006761312485, -0.3325834572315216, 0.13857519626617432, 0.018149137496948242, 0.06860645115375519, -0.08408478647470474,
0.3482598066329956, 0.1533341109752655, -0.3605218529701233, -0.06557208299636841, 0.06733176857233047, -0.19441090524196625, 0.1408727765083313, -0.10100524872541428, 0.41677260398864746, -0.05454457178711891, 0.008467691019177437, -0.5914398431777954, 0.16544146835803986, 0.11093061417341232, 0.11819356679916382, 0.07566673308610916, -0.17981921136379242, 0.03994153067469597, -0.20494085550308228, -0.17131032049655914,
0.6839794516563416, 0.26778727769851685, 0.34655869007110596, 0.2892898619174957, 0.3134400248527527, -0.24038541316986084, 0.11117420345544815, -0.2470182180404663, -0.470357209444046, -0.0845351293683052, 0.07738074660301208, 0.041464630514383316, 0.3305799067020416, -0.1887526512145996, -0.36307939887046814, -0.16603966057300568, -0.10156473517417908, 0.237833172082901, -0.003970649093389511, 0.08006004989147186,
-0.03211025148630142, 0.20920740067958832, 0.41524749994277954, -0.3497859835624695, 0.08577623218297958, -0.1073477640748024, -0.08162550628185272, 0.31256985664367676, 0.6907437443733215, -0.07651183754205704, -0.20682233572006226, -0.03294064477086067, -0.10502368956804276, 0.09697988629341125, 0.036536626517772675, -0.09962821751832962, 0.2759612798690796, -0.1300273835659027, 0.2822052538394928, 0.09549760073423386,
-0.3906509280204773, -0.08553299307823181, 0.13005989789962769, -0.059014592319726944, 0.18080708384513855, -0.09156227111816406, -0.12444110959768295, -0.150091290473938, -0.6362296342849731, -0.13363924622535706, -0.37735283374786377, 0.1539764553308487, -0.20787177979946136, 0.2613934278488159, 0.03165305778384209, 0.04292767867445946, -0.2035648077726364, 0.11204154044389725, -0.045221734791994095, -0.049715034663677216,
-0.10079629719257355, 0.04709601774811745, 1.010688304901123, 0.007142209447920322, 0.126334547996521, 0.46802252531051636, -0.08315088599920273, -0.07898958027362823, -0.052018117159605026, -0.019741902127861977, -0.021317949518561363, 0.28023645281791687, -0.04573074355721474, -0.1115458756685257, 0.10910917818546295, -0.0585622601211071, 0.06056944280862808, 0.2721942961215973, -0.34748297929763794, -0.1380261331796646,
-0.07017839699983597, 0.08154860883951187, 0.5044921636581421, 0.004568840842694044, -0.36109328269958496, -0.15704745054244995, 0.09029803425073624, -0.01981320045888424, 0.2928432524204254, -0.05178847163915634, -0.10853502154350281, -0.0045770215801894665, -0.3540928065776825, -0.3575179874897003, 0.37537628412246704, 0.03750927746295929, -0.04942306876182556, -0.3519831597805023, -0.1639968454837799, -0.09119696915149689,
0.2656441330909729, -0.37421202659606934, 0.4741465151309967, 0.04345773532986641, -0.04615551978349686, -0.08395373076200485, -0.539477527141571, 0.21227100491523743, -0.3245626389980316, 0.14224494993686676, 0.2000696063041687, 0.20284050703048706, -0.14091747999191284, 0.41242852807044983, -0.023444445803761482, 0.3199872076511383, 0.1655549854040146, -0.044804129749536514, 0.27419841289520264, -0.07077144086360931,
0.5849219560623169, 0.03902388736605644, 0.06688915938138962, 0.2573263645172119, -0.12229963392019272, -0.2285858690738678, 0.2620663642883301, -0.14354752004146576, 0.22182707488536835, 0.013657656498253345, 0.01697077788412571, -0.015139625407755375, -0.08695512264966965, -0.17133145034313202, 0.0947314202785492, -0.07703004777431488, -0.051167819648981094, -0.3802306354045868, -0.21660661697387695, -0.5145125985145569,
0.163653165102005, -0.034582868218421936, 0.7107702493667603, -0.120625339448452, -0.1072276383638382, 0.2110806107521057, 0.4357094466686249, -0.7745871543884277, 0.07410966604948044, 0.07051221281290054, -0.041902367025613785, -0.009090603329241276, -0.25089511275291443, 0.03662000223994255, 0.08734051883220673, 0.2848542034626007, 0.1108684092760086, -0.0686299130320549, 0.1434071958065033, 0.01735609397292137,
0.25341537594795227, 0.39607468247413635, -0.3515753149986267, -0.041545186191797256, 0.4678250849246979, -0.25993722677230835, -0.13244451582431793, 0.013552475720643997, 0.31237730383872986, 0.18949532508850098, -0.19957007467746735, -0.019838739186525345, -0.1747046709060669, -0.29615771770477295, -0.019840510562062263, 0.10272454470396042, -0.23488228023052216, -0.045834168791770935, -0.22566461563110352, -0.26010259985923767,
0.02894255332648754, -0.33291393518447876, -0.46224698424339294, -0.03608982637524605, 0.09254738688468933, 0.10391858220100403, 0.3078080415725708, 0.03427772596478462, -0.36522549390792847, -0.10029609501361847, 0.08248373121023178, -0.06476913392543793, -0.10715772211551666, 0.19977982342243195, -0.0988258495926857, -0.1701706498861313, -0.09296989440917969, -0.12788830697536469, -0.05707963556051254, 0.04660522937774658
};

const float biases_fc1[] = {
-0.13913314044475555, 0.09215085953474045, 0.11947055906057358, 0.18392813205718994, 0.055175915360450745, -0.07731810212135315, 0.00832358468323946, -0.09923441708087921, 0.1427915245294571, 0.03860592842102051, 0.09397315979003906, -0.022035356611013412, 0.0035487632267177105, -0.06697484850883484, 0.009700361639261246, -0.07447653263807297, -0.06815847754478455, 0.05198260396718979, 0.2246095836162567, 0.12693153321743011, -0.06131249666213989, 0.12135936319828033, 0.22327612340450287, -0.10266200453042984, 0.10754429548978806, -0.01655673235654831, -0.07019609957933426, 0.0644039586186409, -0.030082231387495995, -0.06706385314464569, 0.2509022653102875, 0.24154391884803772, -0.06198133900761604, 0.09256350994110107, 0.06539705395698547, 0.07258659601211548, -0.0639033317565918, 0.02965649776160717, 0.27317556738853455, 0.04793574661016464, 0.005847280845046043, -0.07841074466705322, -0.02539071813225746, -0.0702020451426506, -0.05730060487985611, 0.2598535120487213, -0.0007601208635605872, -0.05802392587065697, -0.026593836024403572, 0.025361232459545135, -0.09577887505292892, -0.053312525153160095, 0.01614176109433174, -0.0038032762240618467, -0.1265406757593155, 0.06727258861064911, 0.11942340433597565, -0.0879138633608818, -0.012803050689399242, 0.07822508364915848, -0.06415475904941559, 0.03508785739541054, -0.09712570160627365, 0.016575369983911514
};

const float weights_fc2[] = {
-0.01905430108308792, 0.28731870651245117, -0.003904270241037011, 0.16588830947875977, -0.07361460477113724, 0.18307191133499146, 0.08329174667596817, -0.5725714564323425, -0.09193074703216553, -0.08503469079732895, -0.14987418055534363, -0.012811695225536823, -0.022107556462287903, 0.09035204350948334, -0.0027197720482945442, 0.38269373774528503, 0.19211678206920624, -0.04782949760556221, -0.04196922853589058, -0.3046087324619293, 0.0790824368596077, -0.22857001423835754, 0.05495113506913185, 0.0934072881937027, 0.03196904808282852, 0.16526147723197937, 0.04348605126142502, -0.052199043333530426, -0.1678420901298523, 0.30646708607673645, -0.1579030603170395, 0.0449848398566246, 0.1231527030467987, 0.04893191158771515, -0.42681071162223816, -0.02996356412768364, 0.13392864167690277, 0.30907055735588074, -0.13578054308891296, 0.17026855051517487, 0.10578728467226028, 0.3039892315864563, -0.2346939742565155, 0.022354058921337128, 0.22397799789905548, -0.3567644953727722, -0.09886901080608368, -0.07678578048944473, 0.2799621522426605, -0.25883057713508606, 0.2538072466850281, -0.2220466583967209, -0.5256990194320679, -0.12668703496456146, 0.03929838538169861, -0.24619470536708832, 0.05488886684179306, -0.26026976108551025, 0.24332869052886963, -0.16529500484466553, 0.2818070650100708, 0.26630306243896484, 0.13267549872398376, 0.036520883440971375,
0.33625030517578125, -0.1151796206831932, 0.08407172560691833, 0.10351311415433884, 0.16751934587955475, 0.0763348639011383, -0.07011328637599945, -0.08252862840890884, -0.31129056215286255, 0.1460859775543213, 0.05502376705408096, -0.000805905379820615, -0.3380155861377716, -0.210464745759964, -0.007584880106151104, -0.19144828617572784, -0.13512766361236572, -0.06628783047199249, 0.04155571758747101, 0.3731567859649658, 0.3329106867313385, 0.11403077840805054, -0.03132756054401398, -0.24753227829933167, 0.0031690215691924095, -0.4624917805194855, -0.021006016060709953, 0.009266365319490433, -0.47468993067741394, 0.1347394734621048, 0.4407602548599243, 0.16986851394176483, 0.0812031626701355, -0.02438976801931858, -0.1299009770154953, -0.21992968022823334, -0.07069600373506546, 0.4165063798427582, -0.03436002507805824, -0.12400107830762863, -0.2736257314682007, -0.2208302915096283, 0.007607720326632261, 0.18418249487876892, 0.16616760194301605, 0.15236641466617584, 0.038255687803030014, 0.04871669411659241, 0.10507512837648392, 0.2190166860818863, 0.12479252368211746, -0.2472349852323532, 0.032460782676935196, -0.23987725377082825, -0.243302121758461, 0.07497195154428482, 0.06249646097421646, -0.07146357744932175, -0.16613146662712097, 0.17939971387386322, -0.03375298157334328, 0.16059383749961853, -0.17541182041168213, -0.13845358788967133,
0.13748042285442352, 0.3010448217391968, -0.33412227034568787, -0.20354034006595612, 0.378301203250885, -0.45476487278938293, 0.0533350333571434, 0.17715822160243988, -0.2123916745185852, -0.2815304398536682, -0.07253383100032806, 0.01989179290831089, -0.34840917587280273, -0.56238853931427, -0.029128046706318855, -0.0785127505660057, 0.05764754116535187, 0.07268065214157104, -0.0006758177187293768, 0.0017076414078474045, 0.20276235044002533, 0.1643477827310562, -0.23657441139221191, -0.29671674966812134, -0.09760553389787674, -0.244443878531456, 0.39567258954048157, 0.045585907995700836, 0.3979066014289856, -0.013051562942564487, -0.09031297266483307, -0.039696287363767624, 0.09299842268228531, 0.027458859607577324, 0.006368853617459536, 0.2580491602420807, 0.20386266708374023, -0.08362892270088196, -0.10949979722499847, -0.32549524307250977, -0.09920166432857513, 0.0627659261226654, -0.06687036901712418, -0.2719591557979584, 0.26731735467910767, 0.11753281950950623, -0.051705360412597656, -0.08276915550231934, 0.09747648984193802, 0.03325829654932022, -0.2848655879497528, 0.04270801693201065, -0.25698739290237427, -0.145247220993042, 0.27892422676086426, -0.3035969138145447, -0.24512504041194916, 0.05338633805513382, 0.35708168148994446, 0.28496283292770386, 0.1913098245859146, -0.1567874401807785, -0.4020795524120331, -0.15894843637943268,
-0.2173217087984085, -0.2696446478366852, 0.20351558923721313, -0.1469811350107193, 0.2715394198894501, -0.10143012553453445, -0.02627069130539894, -0.47152602672576904, -0.05575591325759888, -0.13678131997585297, -0.07124190032482147, -0.018863707780838013, -0.017415866255760193, -0.043780550360679626, -0.01690845377743244, 0.02582843229174614, -0.5961853265762329, -0.09625668823719025, -0.1864246129989624, 0.1007351502776146, -0.11724811792373657, -0.2557818591594696, -0.15386953949928284, 0.0491827018558979, 0.17004454135894775, 0.011518039740622044, -0.18092511594295502, 0.3629361093044281, 0.2872360944747925, -0.08291282504796982, 0.017227541655302048, 0.21517996490001678, 0.08934678882360458, 0.30738532543182373, 0.4184330105781555, -0.052083294838666916, -0.003020982490852475, 0.10527610033750534, 0.08077042549848557, 0.09118138253688812, -0.04569185525178909, -0.1941201388835907, -0.2923910319805145, -0.15112344920635223, 0.005992178339511156, 0.2935604751110077, -0.1903533637523651, -0.04235702380537987, 0.20622742176055908, -0.1671406775712967, -0.316141813993454, -0.5143490433692932, -0.22209897637367249, 0.02976207062602043, -0.1906776875257492, 0.2470158189535141, -0.19645452499389648, 0.3217543065547943, -0.10916168242692947, 0.08137880265712738, -0.11596693098545074, -0.12355192750692368, 0.05444138124585152, 0.1646348536014557,
-0.11051429808139801, -0.5407832860946655, -0.2858031392097473, 0.04330618679523468, -0.3312651216983795, -0.09709900617599487, -0.1472877860069275, 0.3439921736717224, 0.07966770231723785, 0.14109103381633759, -0.7446684837341309, 0.10721434652805328, 0.18530671298503876, 0.16295215487480164, -0.10225089639425278, 0.27496087551116943, 0.16244332492351532, -0.12118900567293167, -0.5666205286979675, 0.00598138477653265, 0.03099021501839161, 0.22563289105892181, 0.07630221545696259, 0.13041910529136658, 0.007298849988728762, 0.02416258491575718, -0.11199446767568588, 0.17174020409584045, -0.4250531494617462, -0.20088176429271698, 0.04263624548912048, -0.1245131865143776, 0.3322218954563141, -0.08693960309028625, -0.17031703889369965, -0.11742148548364639, -0.05836152657866478, -0.09276218712329865, 0.1287512183189392, -0.3242880702018738, -0.4206334054470062, -0.27749013900756836, 0.2715126574039459, 0.17895188927650452, 0.1718924343585968, 0.07218406349420547, -0.001707711024209857, 0.3207549452781677, 0.0030880533158779144, -0.17290663719177246, 0.05392400920391083, -0.16977307200431824, 0.010188019834458828, 0.10453551262617111, 0.08045220375061035, -0.31911301612854004, 0.27465012669563293, 0.18355610966682434, 0.1485430896282196, -0.061911337077617645, 0.2963903546333313, -0.22248587012290955, 0.1051441952586174, 0.02423441968858242,
0.1579926311969757, 0.029746975749731064, -0.15145431458950043, 0.20354963839054108, -0.021126115694642067, 0.1862718164920807, -0.12370376288890839, 0.054468560963869095, 0.17574630677700043, 0.038393910974264145, -0.13535116612911224, 0.06538873165845871, -0.30506694316864014, -0.06862282007932663, -0.19232244789600372, 0.010119402781128883, -0.3761787414550781, -0.21237201988697052, 0.08858778327703476, 0.30598288774490356, -0.4178653359413147, 0.03233468532562256, -0.21509943902492523, -0.2868090569972992, 0.07171209901571274, 0.1741076111793518, -0.4324079751968384, 0.06881461292505264, -0.3331809937953949, -0.3376929461956024, -0.0004744392354041338, 0.0556466206908226, 0.036563657224178314, 0.052667923271656036, -0.011791398748755455, 0.237232506275177, -0.03795024752616882, 0.1434105783700943, 0.21753914654254913, 0.08176090568304062, -0.014648648910224438, 0.047117505222558975, 0.08675207942724228, -0.49304836988449097, -0.13485057651996613, 0.4431259334087372, 0.206822007894516, -0.11906054615974426, -0.231427401304245, 0.4042899012565613, 0.11110580712556839, -0.06718875467777252, -0.14419198036193848, -0.1669986993074417, -0.20047461986541748, 0.13396523892879486, -0.30316752195358276, -0.40874814987182617, 0.3634728491306305, -0.14850136637687683, -0.14417147636413574, -0.18204393982887268, 0.120821014046669, -0.011414973065257072,
0.4202286899089813, 0.1667158454656601, -0.21710944175720215, -0.11242198199033737, 0.09153624624013901, 0.42915865778923035, 0.21172954142093658, -0.15981608629226685, -0.16874954104423523, -0.08373135328292847, -0.1494291126728058, -0.13285082578659058, 0.03131245821714401, 0.14786237478256226, -0.32623475790023804, -0.15707631409168243, -0.1530964970588684, 0.02513638511300087, -0.09821417182683945, -0.45050501823425293, -0.06288411468267441, 0.24906210601329803, 0.02849254012107849, 0.19355137646198273, -0.1797528713941574, -0.3988839387893677, -0.15078315138816833, -0.02320731244981289, -0.1695682853460312, 0.040134359151124954, -0.03529856353998184, 0.023370396345853806, -0.40793848037719727, -0.25428900122642517, 0.18797585368156433, 0.12350078672170639, -0.31033867597579956, -0.472882479429245, 0.27133724093437195, -0.003936944529414177, -0.22668761014938354, -0.2913172245025635, -0.1298486888408661, 0.22864490747451782, 0.19716191291809082, 0.16533713042736053, -0.012185720726847649, 0.24589604139328003, -0.1722601354122162, 0.12289373576641083, 0.13509951531887054, 0.23078182339668274, -0.0603271946310997, -0.016625434160232544, 0.16956977546215057, 0.09161704033613205, -0.030916737392544746, 0.009123211726546288, -0.07600920647382736, 0.03884921222925186, 0.38768619298934937, 0.1278691440820694, -0.15197114646434784, 0.0661608949303627,
0.12525120377540588, -0.18892407417297363, -0.24198943376541138, -0.2273804396390915, 0.37583017349243164, 0.10585608333349228, 0.2893970012664795, 0.0017343242652714252, 0.20206347107887268, 0.2558431029319763, -0.30421924591064453, -0.02049471251666546, 0.22466127574443817, -0.15788546204566956, -0.019186682999134064, -0.25627774000167847, 0.08715764433145523, -0.08539576828479767, -0.27739760279655457, -0.35304099321365356, 0.21263159811496735, -0.06320834159851074, -0.1556955873966217, 0.05755629017949104, -0.05325406417250633, 0.2554846405982971, 0.15513817965984344, 0.24053329229354858, 0.12233926355838776, 0.20496632158756256, -0.1960693895816803, 0.13857975602149963, -0.013979347422719002, -0.03754183650016785, -0.2771202325820923, 0.022542282938957214, 0.09558535367250443, 0.047535523772239685, -0.5254737138748169, 0.03853079304099083, -0.2068396508693695, 0.02101726084947586, -0.09091122448444366, 0.20739752054214478, 0.04987606778740883, -0.35890278220176697, 0.09816936403512955, -0.29166823625564575, -0.08559053391218185, 0.24344530701637268, -0.31279245018959045, -0.0068216039799153805, -0.001605616183951497, -0.042334649711847305, 0.18383020162582397, -0.05480382964015007, -0.4928344190120697, 0.04876631498336792, 0.01668999157845974, -0.19337677955627441, 0.11560950428247452, 0.1113620474934578, 0.11465509980916977, -0.542224109172821,
-0.11327683925628662, 0.10524246096611023, 0.13984161615371704, -0.13509878516197205, -0.42913520336151123, -0.08618279546499252, 0.06841960549354553, -0.14564862847328186, -0.09245430678129196, 0.15514259040355682, 0.15624572336673737, -0.08408551663160324, -0.2732681930065155, -0.20944111049175262, -0.06613237410783768, -0.11687439680099487, -0.31247106194496155, 0.19875168800354004, 0.5663540363311768, -0.36938536167144775, 0.0945693701505661, 0.32894429564476013, 0.05791027843952179, -0.12958598136901855, 0.07869477570056915, 0.4286545515060425, -0.4279211163520813, -0.01709498092532158, -0.12633641064167023, 0.11286995559930801, -0.1486341953277588, 0.24434399604797363, 0.24882270395755768, -0.2178962230682373, 0.0844138115644455, -0.22766798734664917, -0.12953977286815643, 0.0718442052602768, 0.18499061465263367, -0.23832416534423828, -0.40211719274520874, 0.06548402458429337, 0.13823938369750977, -0.10749900341033936, -0.0985305905342102, 0.2747153341770172, -0.23691686987876892, -0.2075909972190857, 0.03398076817393303, 0.02250012382864952, -0.13148529827594757, -0.08122845739126205, 0.016158340498805046, -0.12735944986343384, -0.00173380714841187, -0.032962918281555176, 0.22297556698322296, 0.27257025241851807, -0.3124599754810333, 0.16822566092014313, -0.19612149894237518, -0.481953501701355, 0.10867197066545486, -0.15033796429634094,
-0.11562920361757278, 0.10429291427135468, 0.34878700971603394, -0.05197445675730705, -0.3543795049190521, -0.29628971219062805, 0.06438525766134262, -0.13710962235927582, 0.10461275279521942, -0.05995095521211624, -0.21681495010852814, 0.04018273949623108, 0.09244602918624878, -0.026374150067567825, 0.07304226607084274, -0.36970895528793335, 0.03302326053380966, 0.29313111305236816, 0.16073784232139587, 0.20876185595989227, -0.1699199080467224, -0.015338974073529243, -0.02327125333249569, -0.24956125020980835, 0.07732054591178894, -0.26982516050338745, -0.1645250767469406, -0.0892113745212555, -0.3059965670108795, 0.15751244127750397, 0.18291381001472473, 0.37654319405555725, 0.17697203159332275, 0.2565147280693054, -0.22949203848838806, 0.14402227103710175, -0.22549931704998016, 0.044601742178201675, -0.1806577444076538, -0.3489900529384613, -0.22960802912712097, 0.11016851663589478, -0.5532000064849854, -0.16828835010528564, 0.43578410148620605, 0.26906314492225647, -0.2990061044692993, -0.17754225432872772, -0.1422448605298996, -0.16596445441246033, -0.12684285640716553, -0.16980870068073273, 0.4097575545310974, -0.06427819281816483, -0.1969284564256668, -0.008649727329611778, 0.06466703861951828, -0.2370646744966507, 0.3039974272251129, 0.05960366874933243, 0.1540006846189499, -0.04414951428771019, -0.021487370133399963, -0.06101125106215477,
-0.11535747349262238, 0.1960364580154419, 0.24586810171604156, -0.23779423534870148, -0.1880161464214325, 0.0571078322827816, -0.008651596494019032, -0.03052808716893196, -0.10657917708158493, 0.09139375388622284, 0.06685276329517365, 0.15907780826091766, -0.10152062773704529, 0.22699375450611115, -0.00592530332505703, -0.3058774471282959, -0.06026475504040718, -0.37723782658576965, 0.07820157706737518, 0.0670686587691307, 0.35160189867019653, -0.012215892784297466, 0.12035825103521347, -0.11364128440618515, -0.016732772812247276, 0.09631969779729843, -0.08860832452774048, -0.27295416593551636, 0.06648027151823044, -0.23439672589302063, 0.10406927019357681, -0.48430755734443665, -0.15580326318740845, -0.20117461681365967, -0.2336462140083313, 0.11773429811000824, -0.04244568571448326, 0.28608858585357666, 0.31808021664619446, -0.013498848304152489, 0.10776229202747345, -0.046070028096437454, 0.393954873085022, 0.3854161500930786, 0.032114334404468536, 0.03780946880578995, -0.30289772152900696, 0.04835449159145355, 0.0721396803855896, 0.28991222381591797, -0.19727690517902374, -0.39724957942962646, 0.12963396310806274, 0.175572007894516, -0.1389506310224533, 0.278925359249115, -0.09375394135713577, -0.24747313559055328, 0.30935558676719666, -0.016305195167660713, -0.13617302477359772, 0.017851946875452995, -0.08339282870292664, 0.031390491873025894,
0.01619967445731163, -0.13840940594673157, -0.08391678333282471, 0.3211025893688202, 0.21177688241004944, 0.014526152051985264, -0.42216071486473083, -0.12584182620048523, -0.10086309164762497, -0.028171611949801445, 0.1878698319196701, -0.06664213538169861, 0.08614951372146606, -0.2989863455295563, 0.20882725715637207, -0.44621846079826355, 0.0016437406884506345, 0.09562605619430542, 0.09329288452863693, 0.11905770748853683, -0.32457205653190613, 0.13578179478645325, 0.1594551056623459, -0.08969059586524963, 0.17447984218597412, 0.09443006664514542, 0.03533649072051048, 0.01784980297088623, 0.07162028551101685, -0.2332533597946167, -0.053219713270664215, -0.07436078786849976, 0.37707385420799255, 0.005611306522041559, -0.10838468372821808, -0.1197439581155777, 0.23406468331813812, -0.23932704329490662, -0.07726596295833588, -0.04945116862654686, -0.11839868873357773, -0.2123451977968216, 0.41817983984947205, -0.029164521023631096, 0.15586835145950317, -0.14909134805202484, 0.08769682794809341, 0.04309334605932236, -0.14071451127529144, -0.18670766055583954, -0.18392376601696014, 0.29788392782211304, -0.07358545064926147, 0.09537433832883835, 0.22669105231761932, 0.4993996322154999, 0.007303241174668074, -0.48877066373825073, 0.0510115921497345, -0.08374154567718506, 0.37914493680000305, 0.028396928682923317, 0.063367560505867, 0.07607129961252213,
0.20188407599925995, -0.05107920244336128, 0.1650366634130478, 0.1657799333333969, -0.1764845997095108, 0.010874695144593716, 0.15668846666812897, -0.005609754007309675, 0.16559019684791565, 0.23195549845695496, -0.12413006275892258, 0.05616206303238869, -0.06859546899795532, 0.09650513529777527, -0.38976484537124634, -0.028438851237297058, -0.161062553524971, 0.12960849702358246, -0.3899165987968445, -0.15262643992900848, 0.5304341316223145, 0.0953008159995079, -0.2594270408153534, 0.007248270325362682, -0.28104132413864136, -0.3487270772457123, 0.15463870763778687, -0.13129045069217682, -0.1879572719335556, 0.11245732009410858, -0.003136834129691124, -0.26154324412345886, 0.42485547065734863, 0.014355454593896866, -0.154105544090271, -0.10183683037757874, 0.373794287443161, 0.034247662872076035, 0.038774505257606506, -0.5281487107276917, -0.02223805896937847, -0.11032676696777344, -0.16454946994781494, -0.0360712930560112, 0.033605918288230896, -0.07726965844631195, 0.1322648674249649, -0.2289835661649704, 0.053930044174194336, -0.30160847306251526, 0.020992612466216087, 0.23180349171161652, 0.16622081398963928, 0.27931827306747437, 0.06514774262905121, -0.16416095197200775, 0.03578432276844978, 0.17329896986484528, -0.08639983087778091, -0.38002949953079224, 0.017878063023090363, 0.03587501868605614, -0.06240982934832573, 0.06863262504339218,
-0.12552018463611603, -0.3243626654148102, -0.0663520023226738, -0.21162793040275574, 0.13025522232055664, 0.40512967109680176, 0.0857614055275917, -0.14056353271007538, 0.4164426624774933, -0.0457971915602684, -0.24074284732341766, 0.1463683545589447, -0.16872107982635498, -0.15035945177078247, -0.21472309529781342, -0.09392143040895462, 0.01433088630437851, -0.03405436873435974, -0.38381990790367126, 0.03382847458124161, 0.07119926810264587, -0.2565579116344452, 0.3024546205997467, -0.456058144569397, 0.3691522181034088, -0.18217165768146515, -0.08533905446529388, -0.10202009975910187, 0.15363524854183197, 0.31167787313461304, -0.07611831277608871, -0.11380799859762192, -0.039470843970775604, -0.3687566816806793, 0.1817597597837448, -0.16720856726169586, 0.05472128465771675, 0.07578682899475098, 0.12891998887062073, 0.35435304045677185, -0.15147069096565247, -0.09892383962869644, 0.13294216990470886, 0.009300743229687214, -0.10655128955841064, 0.09298502653837204, -0.02109624817967415, 0.4169010519981384, -0.029679130762815475, -0.11500820517539978, 0.005687056574970484, -0.04250840097665787, 0.20898114144802094, 0.015919633209705353, 0.25096210837364197, 0.06446491181850433, 0.09068497270345688, -0.22087796032428741, -0.21390226483345032, -0.3002292811870575, -0.09537585079669952, -0.03796610236167908, -0.1803753823041916, -0.14473123848438263,
0.35012102127075195, 0.059626106172800064, -0.3687075674533844, 0.05231688544154167, 0.19923576712608337, 0.20274823904037476, -0.4249401390552521, 0.011610638350248337, 0.15388381481170654, -0.125732421875, -0.37812602519989014, -0.2740623950958252, 0.35330531001091003, -0.2705554962158203, 0.16544611752033234, 0.002769442507997155, 0.12512080371379852, 0.027835696935653687, 0.017491737380623817, -0.1690189242362976, 0.16275231540203094, 0.18212802708148956, -0.34168028831481934, -0.2864512801170349, 0.0952884778380394, 0.5435932278633118, 0.07034879177808762, -0.25899195671081543, 0.22473356127738953, -0.1388711780309677, 0.00653447350487113, 0.05244738981127739, 0.21415433287620544, -0.01284742821007967, 0.157610684633255, -0.2017478346824646, 0.0660264864563942, -0.24125899374485016, -0.39621084928512573, -0.32658669352531433, 0.20647644996643066, 0.05451096221804619, -0.018909979611635208, -0.20352616906166077, -0.011465194635093212, 0.18125829100608826, 0.17735540866851807, 0.010052983649075031, 0.46779629588127136, 0.09087897837162018, -0.22823482751846313, 0.11353566497564316, 0.18997028470039368, 0.034588366746902466, 0.0669124573469162, 0.1618603765964508, 0.03614521399140358, 0.043883319944143295, 0.23425425589084625, -0.09686969965696335, 0.031117388978600502, 0.0757792517542839, -0.03508290648460388, 0.34675681591033936,
0.05433015152812004, 0.4576016068458557, -0.03763464093208313, -0.4389778971672058, -0.13874787092208862, -0.03234665468335152, -0.2558503746986389, -0.016744131222367287, 0.24918293952941895, 0.10270116478204727, 0.024538252502679825, -0.23195357620716095, 0.08439143747091293, -0.11550682783126831, -0.035919200628995895, 0.14030109345912933, -0.006709786597639322, 0.29347509145736694, 0.2016308456659317, -0.0035067410208284855, 0.24494272470474243, -0.12544459104537964, 0.15112608671188354, 0.31994324922561646, -0.1190531924366951, -0.20497600734233856, -0.03656202554702759, 0.43562304973602295, -0.059185367077589035, 0.08694932609796524, -0.0889303907752037, 0.126450777053833, 0.2557103931903839, -0.0641770213842392, 0.06228599324822426, -0.4890616536140442, 0.07797668874263763, -0.20913346111774445, 0.11035116761922836, -0.03808953985571861, -0.07178669422864914, 0.20369799435138702, -0.08371955901384354, 0.10236015915870667, -0.09706196188926697, 0.03679060563445091, -0.2616509795188904, -0.3568490743637085, -0.187897726893425, 0.038352660834789276, -0.3068864345550537, -0.1895342320203781, 0.13874205946922302, 0.2657475769519806, 0.028588930144906044, -0.08648867905139923, 0.06991703063249588, -0.3166888952255249, -0.13195453584194183, 0.23229776322841644, -0.27287915349006653, 0.05350274592638016, -0.3460174798965454, 0.12308811396360397,
0.26898708939552307, -0.03516491502523422, 0.3941175043582916, 0.12836101651191711, 0.04179401695728302, 0.25570228695869446, -0.04796408489346504, -0.10030338913202286, -0.28123003244400024, 0.12640565633773804, -0.18568363785743713, 0.3341386914253235, 0.11729995161294937, -0.09921757876873016, -0.23085813224315643, 0.17857451736927032, 0.16599740087985992, 0.052748728543519974, -0.08794588595628738, 0.21382996439933777, -0.02612348645925522, -0.00933977123349905, 0.2887776792049408, 0.384523868560791, 0.013664166443049908, -0.007996208034455776, -0.08231444656848907, -0.1968032568693161, 0.16143852472305298, 0.09314275532960892, 0.06499846279621124, -0.21282555162906647, 0.19713492691516876, -0.21813592314720154, 0.279240220785141, 0.24448418617248535, -0.14885313808918, 0.04753473773598671, -0.23627562820911407, 0.07799849659204483, -0.13829006254673004, 0.0034334154333919287, -0.03864585980772972, -0.10081798583269119, -0.14923356473445892, -0.17722894251346588, -0.23517636954784393, 0.2068779468536377, 0.14518572390079498, -0.20809945464134216, -0.18833006918430328, -0.11136409640312195, 0.33014073967933655, 0.17730723321437836, -0.37908273935317993, -0.3088739514350891, 0.11812793463468552, -0.10527046024799347, 0.08849596977233887, -0.04410620033740997, 0.10423550754785538, 0.127914160490036, 0.09410761296749115, -0.066744863986969,
0.06672881543636322, -0.027948345988988876, 0.04823748394846916, -0.27806660532951355, 0.07567626237869263, -0.017976956441998482, -0.050444286316633224, -0.0795060247182846, 0.16945849359035492, 0.20001663267612457, -0.04819365590810776, 0.06190740317106247, 0.06206512078642845, 0.03885846585035324, -0.3204215466976166, -0.15028643608093262, -0.03300713375210762, -0.086025170981884, 0.010125214233994484, 0.027959901839494705, -0.23783695697784424, 0.07679281383752823, -0.2928089201450348, 0.29010242223739624, -0.34115374088287354, 0.3636496067047119, -0.18686482310295105, -0.26911789178848267, 0.1551046520471573, 0.14477714896202087, -0.4202267527580261, -0.08789479732513428, -0.22648920118808746, 0.30556705594062805, -0.18639308214187622, -0.002992295892909169, -0.008356022648513317, 0.08418690413236618, 0.10320264101028442, -0.10082023590803146, -0.10288526862859726, 0.008667207323014736, -0.11529293656349182, 0.19419904053211212, -0.40940165519714355, 0.14696477353572845, -0.03188379481434822, -0.11428933590650558, -0.16416007280349731, -0.12045929580926895, 0.19158071279525757, -0.11375505477190018, -0.3173965811729431, -0.09958234429359436, 0.4565064013004303, 0.10652592033147812, 0.06510422378778458, 0.10254006832838058, 0.095486581325531, 0.15755599737167358, 0.08648058772087097, 0.33886709809303284, -0.23601286113262177, -0.32559117674827576,
-0.006392123177647591, 0.31507086753845215, -0.06501293182373047, -0.08332599699497223, 0.2203531563282013, -0.2266920655965805, 0.057736292481422424, 0.07054648548364639, -0.25053587555885315, 0.46130210161209106, 0.2561451494693756, 0.15866291522979736, 0.2623133361339569, 0.00034564206725917757, -0.39180999994277954, -0.05989649519324303, -0.020569797605276108, -0.04219941049814224, 0.22441263496875763, 0.0704246312379837, 0.16698753833770752, -0.3254133462905884, -0.11247999221086502, -0.014743824489414692, 0.48776116967201233, -0.2315439134836197, 0.22745314240455627, 0.03800051286816597, -0.05531184375286102, 0.39055997133255005, -0.10745099186897278, -0.08098067343235016, 0.06371864676475525, 0.07073979079723358, -0.18994140625, -0.16446349024772644, 0.08728917688131332, -0.5442534685134888, 0.23661595582962036, -0.07772788405418396, -0.10734713077545166, 0.2141745388507843, 0.038316044956445694, 0.13859368860721588, 0.2988687753677368, -0.3128017485141754, -0.11222432553768158, 0.1288944035768509, 0.20077049732208252, -0.061535876244306564, 0.1604907065629959, 0.09082185477018356, 0.18237018585205078, -0.13749368488788605, -0.09314750134944916, -0.19673679769039154, -0.05960686132311821, 0.1083715632557869, 0.22240589559078217, -0.0347185842692852, -0.12915271520614624, 0.19614550471305847, 0.04660876840353012, 0.07600250095129013,
0.4065556526184082, 0.0002450762549415231, 0.10419129580259323, 0.19176025688648224, -0.3466227948665619, -0.03391699865460396, -0.04256425425410271, 0.340251624584198, -0.1729956865310669, -0.008674576878547668, -0.062196001410484314, 0.18286679685115814, -0.25686490535736084, -0.04857742041349411, -0.06232735142111778, 0.19977040588855743, -0.16090095043182373, -0.1423206627368927, -0.530562162399292, -0.044599924236536026, 0.12564492225646973, 0.025377918034791946, 0.08991066366434097, 0.12538503110408783, -0.014779701828956604, 0.13301284611225128, 0.07265602052211761, -0.11806472390890121, 0.007597255054861307, 0.31989040970802307, 0.09254366159439087, -0.10916566103696823, 0.3476170301437378, 0.5260198712348938, -0.02364923059940338, -0.11256702244281769, -0.31098461151123047, 0.03178305923938751, -0.10050862282514572, 0.23648002743721008, 0.3747507631778717, 0.22132578492164612, -0.047209806740283966, 0.28665658831596375, 0.09866784512996674, 0.1361253559589386, -0.13312838971614838, 0.13648371398448944, 0.15382103621959686, -0.1466463804244995, 0.11374425888061523, 0.13956061005592346, 0.11185163259506226, -0.130147784948349, 0.2244550883769989, 0.13174407184123993, -0.27927711606025696, -0.20415537059307098, 0.31454262137413025, -0.15028943121433258, -0.3236458897590637, -0.23660072684288025, 0.18536914885044098, -0.4096868932247162,
0.30947136878967285, -0.0849093571305275, 0.21316516399383545, -0.20545178651809692, -0.1374402940273285, -0.4024994671344757, 0.12162370979785919, 0.0009168206015601754, 0.08723218739032745, 0.05059809237718582, -0.28705430030822754, 0.391390323638916, 0.28951627016067505, -0.2057054340839386, 0.0457998588681221, 0.304433137178421, -0.41995328664779663, 0.09708274900913239, 0.046069998294115067, -0.17556847631931305, -0.2982698678970337, 0.03948473930358887, 0.024826066568493843, -0.028041694313287735, -0.1537836641073227, 0.11021096259355545, 0.20129238069057465, -0.19928914308547974, -0.01601755991578102, -0.11871786415576935, -0.131470188498497, 0.1461990475654602, 0.12090586870908737, -0.060065120458602905, -0.25035426020622253, -0.2574452757835388, -0.015209294855594635, 0.2493465542793274, -0.18700388073921204, 0.24015457928180695, -0.09195782989263535, -0.19632703065872192, 0.13889366388320923, 0.025394383817911148, 0.26301130652427673, -0.10363899171352386, 0.0873158723115921, 0.043175119906663895, 0.049761150032281876, 0.1147710308432579, 0.052815429866313934, 0.3676343858242035, -0.06718316674232483, 0.18894796073436737, 0.08162610977888107, 0.3305005133152008, 0.1427229791879654, -0.02267688885331154, -0.1590755432844162, -0.09739181399345398, -0.35870635509490967, -0.007054912857711315, -0.1551501750946045, 0.19686298072338104,
0.0185087863355875, -0.06785915046930313, 0.18566691875457764, 0.02575773559510708, 0.3358951210975647, 0.027333274483680725, -0.04885311797261238, -0.05295475944876671, 0.46935683488845825, 0.015468239784240723, 0.24127784371376038, -0.0041878120973706245, 0.11105716228485107, -0.14263597130775452, 0.2293909192085266, 0.19102168083190918, 0.1983901560306549, 0.34687739610671997, 0.12647835910320282, -0.11666419357061386, -0.0991179570555687, 0.1247200220823288, 0.26890814304351807, -0.06817004829645157, -0.21554908156394958, -0.085010826587677, 0.03125299885869026, 0.30665281414985657, 0.3894624710083008, -0.13467180728912354, 0.19878485798835754, 0.09434276819229126, -0.07875919342041016, 0.09291547536849976, -0.11155751347541809, 0.21348704397678375, -0.04432350769639015, -0.2574108839035034, 0.36569809913635254, -0.4439719021320343, -0.04825654625892639, 0.14210806787014008, 0.11825603246688843, -0.03453178331255913, 0.1573014259338379, -0.07088786363601685, -0.293485164642334, -0.38085994124412537, 0.2612791955471039, 0.1658189594745636, 0.13287505507469177, -0.064630426466465, -0.07420709729194641, -0.25701379776000977, -0.03541967272758484, 0.06238483265042305, -0.0075263832695782185, -0.08489524573087692, -0.05681770294904709, -0.2192639857530594, -0.0275107529014349, -0.16867905855178833, -0.289664089679718, -0.10103718936443329,
0.03313948214054108, -0.24771243333816528, 0.1333932876586914, -0.03617074713110924, 0.07231853157281876, 0.17609938979148865, 0.17027170956134796, -0.006112763658165932, 0.2874106466770172, -0.0570903979241848, 0.3012474477291107, 0.17530496418476105, -0.010637197643518448, -0.13970759510993958, 0.10209067910909653, 0.18708527088165283, -0.052593033760786057, 0.19204166531562805, -0.3478400409221649, -0.1757628619670868, -0.13571883738040924, -0.18332551419734955, 0.05455784499645233, -0.1640140861272812, -0.11452797055244446, -0.2377883344888687, 0.37367337942123413, -0.32165709137916565, -0.21415039896965027, 0.38435208797454834, -0.25956493616104126, -0.11865808814764023, -0.015119307674467564, -0.17285887897014618, 0.04535394161939621, -0.14092200994491577, 0.20858553051948547, -0.03553612530231476, -0.11073973029851913, 0.0694882795214653, 0.1300153285264969, -0.5417325496673584, 0.0017745427321642637, 0.1411040872335434, 0.036258962005376816, 0.1244482696056366, -0.17178259789943695, 0.15455059707164764, 0.10272886604070663, 0.07378450036048889, 0.36670634150505066, -0.0027694152668118477, 0.06724943220615387, 0.2802591323852539, -0.24105693399906158, -0.003954858053475618, -0.2950175106525421, 0.10346117615699768, 0.193254753947258, 0.37110641598701477, 0.23778799176216125, -0.05873313546180725, 0.0544663704931736, -0.08399435132741928,
-0.36146095395088196, 0.2962509095668793, 0.502885639667511, -0.02028668485581875, 0.07868592441082001, 0.08247391879558563, -0.16097408533096313, 0.13509759306907654, 0.08946885913610458, -0.204945906996727, 0.06655493378639221, 0.1268196702003479, 0.07170205563306808, 0.1165899783372879, 0.06462548673152924, -0.15464285016059875, -0.3001168966293335, -0.03450922667980194, 0.10341935604810715, -0.26110902428627014, 0.09092097729444504, 0.030485818162560463, -0.29042914509773254, 0.16819319128990173, -0.4556637406349182, 0.15600241720676422, 0.004728476982563734, 0.10293633490800858, 0.3589214086532593, 0.23189525306224823, 0.19753161072731018, 0.27439799904823303, 0.04057518392801285, -0.27917101979255676, -0.05723753198981285, -0.21668751537799835, 0.18438395857810974, 0.11542855948209763, 0.01649949885904789, 0.009400347247719765, 0.0340404212474823, 0.2128370702266693, 0.14376509189605713, 0.14965583384037018, -0.00047292420640587807, -0.010273088701069355, 0.08464280515909195, 0.28774458169937134, -0.07135236263275146, -0.29120156168937683, 0.10424640029668808, 0.23197799921035767, 0.29933497309684753, -0.13615365326404572, -0.34399306774139404, -0.08445274084806442, -0.024210195988416672, -0.17341631650924683, 0.18326407670974731, -0.059918977320194244, 0.11962945014238358, 0.07381042838096619, 0.17614217102527618, -0.1506659984588623,
-0.0397232361137867, 0.30611452460289, 0.04448114335536957, 0.04682879522442818, 0.15442927181720734, 0.006957551464438438, -0.043349739164114, -0.2945917844772339, -0.09230826795101166, 0.09101632237434387, 0.051373858004808426, 0.3278844654560089, -0.3870142698287964, 0.23767809569835663, 0.048867061734199524, 0.01503050234168768, 0.07662869244813919, 0.5024855732917786, 0.02873343974351883, 0.12958888709545135, 0.023050880059599876, 0.2537936568260193, 0.05853986367583275, 0.30629459023475647, -0.021947933360934258, -0.27621498703956604, 0.14850233495235443, 0.1016957089304924, 0.155493825674057, -0.009837714955210686, -0.09803555905818939, 0.07185204327106476, -0.4357776343822479, 0.14126098155975342, -0.4140251874923706, -0.4302712380886078, 0.27165985107421875, -0.006889387499541044, -0.151995450258255, -0.1459905505180359, -0.014474859461188316, 0.2573084831237793, -0.325351357460022, 0.06765912473201752, -0.028294606134295464, 0.08600375801324844, -0.3028075695037842, 0.3364848494529724, 0.22114837169647217, 0.24027471244335175, 0.09029746055603027, -0.2130052149295807, 0.17891894280910492, 0.21875247359275818, 0.15096016228199005, 0.004154405556619167, -0.04955440014600754, 0.10524386167526245, -0.037774477154016495, -0.21028642356395721, -0.3929040729999542, 0.01454863790422678, 0.06393346935510635, -0.13464859127998352,
0.025278441607952118, -0.3645801544189453, -0.09256625175476074, 0.005662923213094473, -0.21991361677646637, -0.36308568716049194, 0.13678500056266785, -0.2503262162208557, 0.26556453108787537, -0.3662881553173065, 0.15171651542186737, 0.28852155804634094, -0.2227102667093277, -0.2247639149427414, -0.02986740879714489, -0.18589268624782562, -0.02892710454761982, -0.04237255081534386, 0.16664135456085205, -0.12143872678279877, 0.21180923283100128, -0.02885911427438259, 0.013975566253066063, 0.06999417394399643, -0.28307801485061646, 0.20561432838439941, -0.1700226217508316, 0.11085346341133118, -0.08915464580059052, -0.13802431523799896, 0.09389067441225052, -0.09580907970666885, -0.15705052018165588, 0.0820850282907486, 0.004431499633938074, 0.005826637614518404, 0.08676734566688538, -0.28869110345840454, -0.03794268146157265, -0.096590057015419, 0.1637212336063385, 0.07025992125272751, -0.3444174826145172, 0.1128665953874588, -0.019571086391806602, -0.1030270904302597, 0.08172495663166046, 0.12637507915496826, 0.24360719323158264, -0.32485419511795044, 0.1883363425731659, 0.03382541984319687, -0.0541912280023098, -0.26357951760292053, -0.18962739408016205, 0.08711197972297668, 0.3166581094264984, -0.1719648241996765, -0.08658064901828766, 0.47726666927337646, -0.2747075855731964, 0.22099556028842926, 0.03698163479566574, -0.05647868290543556,
0.31238994002342224, 0.16542695462703705, 0.19511562585830688, -0.2843930423259735, 0.09305332601070404, 0.05068578943610191, 0.09886328876018524, -0.2308340072631836, 0.11491087079048157, -0.008846951648592949, 0.2510007917881012, 0.08952765166759491, -0.2239411175251007, 0.24030166864395142, 0.16133183240890503, 0.0608094297349453, 0.05875391513109207, -0.2029719352722168, 0.01936561055481434, -0.14558905363082886, -0.01692477986216545, -0.12355227768421173, 0.19651557505130768, 0.17040978372097015, 0.07620572298765182, -0.17596952617168427, 0.2504979372024536, -0.06416888535022736, -0.30348488688468933, -0.22104978561401367, 0.01641702838242054, 0.20754830539226532, 0.14112217724323273, -0.0723244771361351, -0.32707566022872925, -0.31498953700065613, -0.19865287840366364, 0.062431514263153076, 0.22704839706420898, -0.3916095197200775, -0.09715702384710312, 0.2952495515346527, -0.06985797733068466, -0.13865619897842407, 0.03833187371492386, -0.12924332916736603, 0.3438185155391693, -0.16433924436569214, -0.05952231585979462, -0.18864303827285767, -0.12136757373809814, 0.05489973723888397, 0.3927173912525177, -0.07207917422056198, 0.07521853595972061, 0.06464774906635284, 0.18380697071552277, 0.15018321573734283, 0.19131101667881012, 0.2504652440547943, 0.11989764869213104, -0.1533215343952179, -0.29858559370040894, -0.4259025454521179,
-0.030837293714284897, 0.22673574090003967, -0.2131558358669281, 0.3116041421890259, 0.07541875541210175, -0.039370905607938766, -0.27626630663871765, -0.039860405027866364, 0.061105385422706604, -0.0172190610319376, -0.20183023810386658, 0.3338738679885864, -0.10700380802154541, 0.21383976936340332, -0.26362156867980957, -0.014694377779960632, 0.02330108918249607, -0.13981236517429352, 0.16161681711673737, 0.010307333432137966, 0.08908507972955704, -0.04784204438328743, 0.27585574984550476, -0.23569665849208832, 0.2656855583190918, -0.09697975218296051, -0.14668036997318268, 0.07568179070949554, 0.004268067888915539, -0.1501862108707428, 0.20432178676128387, 0.19455765187740326, -0.2774145007133484, -0.2536284029483795, 0.05154496431350708, 0.1378028839826584, 0.024168850854039192, -0.06090310215950012, -0.001029554521664977, 0.11016061156988144, -0.029598210006952286, -0.293108731508255, 0.25973427295684814, -0.06653746962547302, -0.08246829360723495, 0.19100849330425262, -0.2944634258747101, -0.2317153513431549, -0.34765708446502686, 0.04819812625646591, -0.3255918025970459, 0.28101974725723267, 0.12651212513446808, -0.07300949841737747, 0.20048432052135468, -0.024731287732720375, 0.13930441439151764, 0.463765412569046, 0.01768670417368412, 0.2588244080543518, -0.09634973108768463, 0.47366687655448914, 0.02335538901388645, -0.21040403842926025,
0.21054571866989136, 0.14227285981178284, -0.17787672579288483, 0.2743385136127472, -0.38815516233444214, -0.15954174101352692, 0.002442434197291732, 0.04164835438132286, 0.13529276847839355, 0.3553277552127838, 0.23279772698879242, -0.19383296370506287, -0.19717547297477722, -0.35103121399879456, 0.007425261195749044, -0.0331408828496933, -0.3320544958114624, -0.35392680764198303, -0.04369613900780678, 0.23183977603912354, 0.021768417209386826, -0.0024604147765785456, 0.1500832885503769, -0.1998964250087738, 0.14451831579208374, 0.221664160490036, -0.18372057378292084, -0.11345420777797699, 0.31108295917510986, -0.393432080745697, 0.2634880244731903, 0.24741747975349426, 0.008883596397936344, -0.2189708948135376, 0.18643566966056824, -0.11681561172008514, 0.15935978293418884, -0.35160231590270996, 0.036389291286468506, 0.10492219030857086, -0.36678841710090637, -0.248343363404274, -0.2804430425167084, 0.2095412313938141, 0.16792170703411102, 0.2895321547985077, 0.1308264434337616, -0.10110902041196823, -0.2530820369720459, 0.1414310187101364, 0.12359096109867096, -0.302605003118515, -0.12149112671613693, -0.13518352806568146, -0.2450622171163559, -0.010402855463325977, 0.035367053002119064, -0.09675177931785583, 0.04545334354043007, -0.07653072476387024, 0.24352453649044037, -0.13606122136116028, -0.06970705837011337, -0.18091724812984467,
-0.08201926201581955, -0.1866493821144104, -0.1131119653582573, -0.019012415781617165, -0.042199164628982544, 0.1382540762424469, -0.09655465185642242, 0.06915418803691864, 0.19765999913215637, -0.07097046822309494, -0.23073624074459076, 0.03908802196383476, 0.2760128080844879, -0.00456013809889555, 0.04121312499046326, -0.1575220674276352, -0.20175020396709442, -0.06377504020929337, 0.14098386466503143, 0.32027000188827515, 0.3676002323627472, 0.3439023196697235, 0.1523047685623169, 0.07666324079036713, 0.054060932248830795, 0.04655112698674202, -0.07645564526319504, -0.29502978920936584, 0.025475259870290756, -0.06884007155895233, -0.19785897433757782, 0.4187791645526886, 0.03747796267271042, 0.032370537519454956, 0.0721406638622284, 0.1866198033094406, -0.3945367634296417, -0.06775254756212234, 0.46698758006095886, -0.0316786915063858, -0.0897374302148819, -0.03977910056710243, -0.13060727715492249, -0.36196017265319824, 0.1910530924797058, -0.16782981157302856, -0.015290429815649986, -0.1638566106557846, 0.19302158057689667, -0.07767874002456665, 0.020951228216290474, -0.08157570660114288, -0.14133544266223907, 0.3126501739025116, 0.026408659294247627, -0.015131586231291294, -0.18850962817668915, -0.2646854519844055, -0.12255066633224487, 0.34457820653915405, -0.11716485023498535, -0.315853089094162, 0.11297842860221863, 0.05532151833176613,
0.13903923332691193, -0.22487880289554596, 0.0921778678894043, -0.14758123457431793, -0.2967821955680847, 0.03227916732430458, -0.18329676985740662, 0.017478859052062035, 0.05438852682709694, 0.12375129014253616, -0.18617020547389984, -0.12690089643001556, 0.08776235580444336, 0.08130618929862976, -0.3200933039188385, 0.04696931689977646, -0.1256019026041031, -0.20685650408267975, -0.1858566552400589, -0.1499037742614746, -0.43157958984375, -0.08893323689699173, 0.042416397482156754, 0.07279770076274872, 0.01575990952551365, -0.0831768810749054, 0.0532439649105072, -0.18901939690113068, -0.11404885351657867, -0.0726853758096695, -0.1149023026227951, -0.20684804022312164, -0.47092607617378235, -0.11746873706579208, 0.10042732208967209, -0.0966787114739418, 0.6618722081184387, 0.18154247105121613, 0.026916224509477615, -0.06707850098609924, -0.17063023149967194, 0.0871533453464508, 0.1837531477212906, 0.08773227781057358, -0.149225652217865, 0.060020189732313156, 0.16736158728599548, -0.2969225347042084, -0.05877888947725296, 0.2702353894710541, -0.3806065320968628, 0.0456702746450901, -0.10917260497808456, -0.486723393201828, 0.16100847721099854, -0.2669149935245514, -0.08561932295560837, -0.10726587474346161, 0.018504930660128593, 0.21155625581741333, -0.3591488301753998, -0.3212418854236603, 0.0372176319360733, -0.010918990708887577,
0.30725666880607605, 0.06439764052629471, 0.6454928517341614, 0.07144532352685928, -0.09721868485212326, -0.21094900369644165, 0.008583607152104378, -0.016053594648838043, 0.1748056858778, 0.011450285091996193, 0.08305816352367401, -0.12919501960277557, -0.002512875245884061, -0.04103846475481987, -0.25963130593299866, 0.2549067437648773, 0.2305002063512802, -0.20889677107334137, 0.28320738673210144, -0.14083361625671387, 0.15660254657268524, 0.04397348314523697, -0.4993143677711487, -0.06814014166593552, 0.05022379383444786, -0.18584664165973663, 0.14794006943702698, 0.28632330894470215, -0.2335289716720581, -0.2081790417432785, 0.05061470717191696, 0.03965131938457489, -0.29988351464271545, 0.3147178590297699, -0.001184727530926466, -0.11886689066886902, 0.0015819151885807514, -0.012473267503082752, 0.11392008513212204, -0.09148083627223969, 0.028905991464853287, -0.015238962136209011, 0.2669486105442047, 0.1411116123199463, 0.1351621001958847, -0.33904263377189636, -0.18565452098846436, 0.37529799342155457, -0.007174262311309576, 0.11749941855669022, 0.05931863188743591, -0.10531433671712875, 0.2133532613515854, 0.12582474946975708, 0.49601829051971436, 0.09330052882432938, -0.07098070532083511, -0.18080832064151764, 0.11017507314682007, 0.1531803011894226, 0.017410846427083015, -0.09246926754713058, 0.09739645570516586, 0.14062811434268951,
0.02389615774154663, 0.03035588376224041, 0.5142766833305359, 0.4218630790710449, 0.049600999802351, 0.2873830199241638, 0.21868321299552917, 0.12309714406728745, -0.00753603084012866, 0.31986716389656067, -0.0649620071053505, -0.2471110075712204, -0.05429311469197273, 0.28202107548713684, 0.11149179935455322, 0.17531467974185944, -0.07050368934869766, -0.057107195258140564, -0.3270343244075775, 0.29477211833000183, 0.1903006136417389, 0.052428197115659714, 0.21842513978481293, -0.15273289382457733, -0.34297168254852295, -0.11760266870260239, 0.018938377499580383, -0.029650138691067696, -0.0977548211812973, 0.14113757014274597, -0.2182745486497879, -0.11463199555873871, 0.06259847432374954, 0.03624597564339638, -0.25779497623443604, -0.40710505843162537, -0.20021212100982666, -0.1683637946844101, -0.000837805971968919, -0.13537947833538055, -0.12031388282775879, -0.15488217771053314, -0.3508727252483368, -0.10552629828453064, 0.4083881378173828, 0.13978828489780426, -0.287343829870224, 0.3215276002883911, -0.32718342542648315, -0.15618771314620972, -0.22361646592617035, 0.0069677988067269325, -0.19057343900203705, -0.29948416352272034, -0.29834070801734924, 0.17224325239658356, 0.1146252229809761, 0.18922875821590424, 0.13469304144382477, 0.0941481739282608, -0.2474820911884308, 0.38234737515449524, -0.1496705412864685, -0.11239305883646011,
0.19784201681613922, -0.3969569206237793, -0.05266123265028, 0.019723009318113327, 0.07849761843681335, -0.22379307448863983, -0.051335085183382034, -0.29943984746932983, -0.30788934230804443, 0.07522010803222656, -0.14757812023162842, 0.03196045383810997, -0.0694500282406807, 0.13319061696529388, -0.08462312072515488, -0.10854639858007431, 0.6316619515419006, -0.034466248005628586, 0.1343453824520111, 0.053525447845458984, 0.10339134931564331, 0.02865591086447239, 0.03252394497394562, -0.011319676414132118, -0.25431111454963684, 0.13584814965724945, 0.08830542117357254, -0.017391463741660118, 0.2170121967792511, -0.41046202182769775, -0.16355276107788086, -0.21584312617778778, 0.05879233777523041, 0.04890036955475807, 0.04135072976350784, -0.22158800065517426, 0.2664918601512909, -0.013579458929598331, 0.26019614934921265, 0.491608589887619, 0.2364039272069931, 0.0032359790056943893, -0.0941893681883812, 0.025189129635691643, 0.05842839181423187, 0.16013352572917938, 0.030927859246730804, -0.10043062269687653, -0.04382280632853508, -0.2145724892616272, -0.06786015629768372, 0.12684281170368195, 0.10734248161315918, -0.10892079025506973, -0.18328601121902466, -0.03380616381764412, -0.48631447553634644, 0.16675055027008057, -0.3113933503627777, 0.054405711591243744, 0.41163137555122375, 0.12779457867145538, -0.11379340291023254, -0.20658183097839355,
-0.0710127055644989, -0.2210080772638321, 0.1837570071220398, -0.03010268323123455, 0.13260309398174286, -0.10273078829050064, 0.3001297116279602, 0.017332376912236214, -0.0005528827896341681, 0.16260062158107758, -0.22110620141029358, -0.29728978872299194, -0.26521605253219604, 0.05952988192439079, 0.16144990921020508, 0.05881164222955704, -0.2912413775920868, 0.5438634157180786, -0.036802589893341064, 0.25958251953125, 0.0945764034986496, 0.05372830852866173, 0.2356446385383606, -0.22186477482318878, 0.06200416386127472, 0.05959915369749069, -0.026595406234264374, 0.12570685148239136, 0.054429154843091965, -0.16484571993350983, -0.1603497713804245, 0.06619846075773239, -0.501171886920929, -0.18991641700267792, 0.053386788815259933, -0.12604562938213348, -0.17159250378608704, -0.23960472643375397, 0.033549562096595764, 0.3372472822666168, -0.4025603234767914, -0.25373610854148865, 0.1137784793972969, -0.15534673631191254, -0.10488761961460114, 0.38528481125831604, 0.4280557632446289, -0.33746960759162903, 0.21023128926753998, -0.27672117948532104, -0.020644331350922585, -0.19532866775989532, -0.022013025358319283, 0.15509964525699615, 0.19968561828136444, -0.2332061231136322, -0.2623874247074127, -0.09224027395248413, 0.17620238661766052, 0.014069010503590107, 0.07872210443019867, 0.03901960700750351, -0.17008481919765472, 0.08343065530061722,
-0.18807485699653625, -0.01219072937965393, 0.2879650890827179, -0.26247838139533997, -0.11913338303565979, 0.07463657855987549, 0.0033098908606916666, 0.10694396495819092, 0.12835954129695892, 0.18757082521915436, -0.19544145464897156, 0.3356703817844391, 0.1513935625553131, -0.16597868502140045, -0.034436147660017014, -0.15960614383220673, 0.22155942022800446, 0.17292141914367676, 0.0387079194188118, -0.15799321234226227, -0.08253122866153717, 0.2024853676557541, 0.3180711269378662, -0.021305818110704422, -0.03248605877161026, -0.20270179212093353, 0.02356010302901268, 0.06873826682567596, -0.018450984731316566, -0.14237533509731293, -0.035530634224414825, -0.24361908435821533, 0.08484897017478943, 0.06719916313886642, 0.6450656056404114, -0.23583948612213135, 0.02720271423459053, 0.11151883006095886, -0.10653956234455109, 0.24056656658649445, -0.1588478684425354, -0.37448984384536743, -0.2563982903957367, -0.19325286149978638, 0.09546629339456558, -0.010445279069244862, 0.2780810594558716, -0.20757831633090973, 0.08600544184446335, -0.07641874253749847, -0.0817662701010704, 0.0014635113766416907, -0.21754416823387146, -0.22864535450935364, 0.12623150646686554, 0.05302312597632408, 0.16042199730873108, 0.1852722465991974, 0.14634209871292114, -0.17632171511650085, 0.09456150978803635, 0.2891296446323395, 0.3867383301258087, 0.026037009432911873,
-0.1257644146680832, 0.24231943488121033, -0.1404971182346344, -0.02136591635644436, -0.20707479119300842, 0.10837924480438232, 0.1335144191980362, 0.09109535068273544, -0.1852940022945404, 0.08689896762371063, -0.04794985428452492, -0.027707267552614212, -0.02046472765505314, -0.08231598138809204, -0.03822190687060356, 0.23260772228240967, -0.03264796733856201, 0.2456115037202835, -0.05743967369198799, 0.030364833772182465, -0.0915626734495163, 0.04181360825896263, -0.006327526643872261, -0.003547102678567171, 0.12416649609804153, 0.28852713108062744, 0.22813630104064941, 0.34125614166259766, -0.16116340458393097, 0.25250017642974854, 0.05026295781135559, -0.0018142869230359793, -0.023673612624406815, -0.08533018827438354, -0.3415226638317108, -0.08321437984704971, 0.3302457630634308, 0.17791292071342468, 0.3434782326221466, 0.023093005642294884, 0.16849078238010406, -0.40995240211486816, -0.5249396562576294, -0.1297314465045929, -0.2913346290588379, -0.4130355715751648, -0.1998545080423355, 0.12631843984127045, 0.31142157316207886, -0.12899401783943176, -0.44358307123184204, -0.2140914499759674, 0.43924424052238464, -0.3237314224243164, 0.10087960958480835, 0.1969510018825531, 0.045873820781707764, -0.08112629503011703, -0.00040803704177960753, -0.009951917454600334, -0.12140925973653793, 0.07533226907253265, 0.005208337679505348, 0.01432163454592228,
0.0011529105249792337, -0.09115615487098694, 0.14899590611457825, 0.006068561226129532, -0.15287162363529205, -0.07718147337436676, 0.4457695782184601, -0.10216241329908371, -0.02018916979432106, -0.14822432398796082, -0.18072879314422607, 0.2369735836982727, 0.14833948016166687, -0.0748174861073494, 0.08260497450828552, -0.06290348619222641, -0.2449645698070526, -0.09737452119588852, 0.4599185883998871, 0.0684090256690979, -0.18674643337726593, 0.016460876911878586, -0.2631532847881317, 0.32395055890083313, 0.05725901201367378, -0.2008274793624878, -0.007541032042354345, 0.021315740421414375, 0.03262805566191673, 0.13137541711330414, 0.34816572070121765, -0.0851907804608345, 0.17212608456611633, -0.2673085331916809, -0.20879366993904114, -0.3900737464427948, -0.04012399539351463, 0.03887966275215149, 0.2564270496368408, -0.4819597601890564, 0.12978234887123108, 0.09077814966440201, -0.1490877866744995, 0.12998205423355103, -0.10906677693128586, 0.043852780014276505, -0.03638920933008194, 0.11062474548816681, -0.08210351318120956, 0.2729865312576294, -0.11791132390499115, 0.11750106513500214, -0.04775229096412659, -0.4820653796195984, 0.3161122500896454, -0.3643699288368225, -0.209455668926239, 0.05421049892902374, -0.13102252781391144, 0.15390467643737793, -0.05486297607421875, 0.07906825840473175, -0.18340188264846802, 0.10516295582056046,
-0.33084040880203247, -0.16995877027511597, 0.1079324409365654, -0.24379879236221313, -0.3527768850326538, 0.15616855025291443, 0.008366703055799007, -0.0969766229391098, -0.17130860686302185, -0.09353560209274292, 0.0949896052479744, -0.016695339232683182, 0.0411747545003891, 0.4252241849899292, -0.20106256008148193, 0.4446154832839966, -0.25478577613830566, 0.25188711285591125, -0.009475409053266048, 0.029391972348093987, -0.019595613703131676, -0.2143106758594513, -0.45360463857650757, 0.016879435628652573, -0.06768728792667389, 0.014206331223249435, -0.21589547395706177, -0.21933938562870026, 0.021369248628616333, -0.20222777128219604, 0.23641851544380188, -0.12856237590312958, -0.0715055838227272, 0.14699025452136993, 0.2996751368045807, -0.2386595755815506, -0.42206746339797974, 0.08663035929203033, 0.06440073251724243, 0.33814114332199097, -0.1407044231891632, -0.042813025414943695, 0.03989918902516365, -0.13612589240074158, 0.1285373568534851, -0.21258646249771118, -0.14941522479057312, -0.24292361736297607, -0.22223709523677826, 0.22474174201488495, 0.337430864572525, 0.038002386689186096, 0.23239634931087494, 0.0759345144033432, 0.11976788938045502, 0.02114860713481903, 0.18903881311416626, -0.23169195652008057, 0.07209917902946472, -0.04464871436357498, 0.16754521429538727, 0.10748168081045151, -0.23573465645313263, -0.49145784974098206,
-0.1957855075597763, -0.046767499297857285, -0.12223086506128311, -0.015636462718248367, 0.20285753905773163, -0.11558524519205093, 0.07219371944665909, -0.21191875636577606, 0.18459968268871307, -0.4220340847969055, 0.17269368469715118, -0.3341642916202545, 0.10067978501319885, 0.0183078795671463, -0.47232183814048767, -0.014571137726306915, 0.053244318813085556, 0.06149270385503769, 0.3734400272369385, 0.17857708036899567, -0.008093386888504028, -0.04410697519779205, 0.2754773199558258, 0.18504570424556732, 0.1200716495513916, 0.04236815869808197, 0.10496503859758377, -0.28381672501564026, -0.17150887846946716, -0.22746294736862183, 0.4480615258216858, 0.2821616232395172, -0.0029120566323399544, 0.36328262090682983, -0.09342461079359055, -0.12107545882463455, 0.01918075792491436, -0.15531159937381744, 0.2339821755886078, -0.06197280064225197, -0.36644795536994934, -0.18067333102226257, 0.13682888448238373, 0.18227459490299225, -0.07348141074180603, 0.2166258841753006, 0.007642141543328762, 0.09267737716436386, -0.09611064940690994, 0.013361520133912563, -0.383576363325119, 0.15280938148498535, -0.3539581298828125, 0.18414419889450073, -0.2406155914068222, -0.038389094173908234, 0.06692039966583252, -0.14942142367362976, 0.1936253160238266, -0.18996088206768036, 0.026306835934519768, -0.11550431698560715, -0.07351162284612656, 0.13443021476268768,
-0.17884767055511475, -0.3998406231403351, 0.19002600014209747, 0.17331930994987488, -0.10714472830295563, 0.2052433341741562, -0.2318836748600006, 0.25183191895484924, -0.09878984093666077, -0.04128825664520264, 0.2899407148361206, 0.446248322725296, -0.05437944084405899, -0.19562052190303802, -0.585371732711792, 0.2519065737724304, 0.07959840446710587, -0.06803366541862488, -0.10348652303218842, -0.2822064161300659, 0.08649174869060516, -0.014257906004786491, -0.15863963961601257, 0.156245157122612, 0.2931146025657654, 0.014276991598308086, -0.2587485611438751, -0.24943649768829346, 0.08006291836500168, -0.15855593979358673, 0.015654321759939194, 0.07077784091234207, -0.1364690214395523, -0.45262888073921204, 0.06978248804807663, 0.18719501793384552, -0.0056531080044806, 0.15675662457942963, -0.009549683891236782, 0.4433845579624176, -0.017836155369877815, -0.1979849934577942, 0.09775348752737045, -0.3783029615879059, -0.08032229542732239, 0.23257270455360413, 0.05240793153643608, -0.03514157980680466, -0.3124164938926697, -0.0742071121931076, -0.15323731303215027, -0.3742382526397705, -0.04623790085315704, -0.12764614820480347, -0.2051415890455246, 0.47846269607543945, -0.2836051285266876, -0.11861202865839005, -0.03953741863369942, -0.11035434156656265, 0.1299901008605957, 0.019193237647414207, -0.016944995149970055, 0.10321185737848282,
-0.0009014614624902606, -0.2483372539281845, -0.017994482070207596, 0.009452667087316513, -0.05325490981340408, -0.20300444960594177, -0.26278871297836304, 0.1928037405014038, 0.0646645650267601, 0.21291740238666534, -0.2355530709028244, -0.35844752192497253, -0.06611598283052444, 0.297145813703537, -0.05115869641304016, -0.01127222552895546, -0.08776919543743134, -0.17957474291324615, 0.247311532497406, -0.383821576833725, 0.0821162685751915, -0.15972916781902313, 0.24521706998348236, 0.12254619598388672, 0.259448379278183, 0.13130119442939758, 0.09686722606420517, -0.03172393515706062, 0.4138358235359192, 0.36801451444625854, -0.13009151816368103, -0.0723801851272583, 0.018073178827762604, -0.15490829944610596, -0.005148089490830898, 0.09385741502046585, -0.02798568457365036, 0.23425963521003723, -0.22458164393901825, -0.036949362605810165, 0.23439624905586243, -0.32284122705459595, -0.22539173066616058, -0.32756665349006653, 0.039961736649274826, 0.047775156795978546, 0.16009747982025146, 0.39358052611351013, 0.1690393090248108, 0.28687888383865356, 0.261459082365036, 0.32116976380348206, 0.03503156825900078, 0.19922032952308655, -0.249899223446846, 0.4157591164112091, 0.07628903537988663, -0.25690633058547974, -0.052538514137268066, -0.02192312851548195, 0.2653754651546478, -0.10269948095083237, -0.09618090838193893, -0.13902059197425842,
-0.2696931064128876, 0.3230154514312744, 0.026832791045308113, -0.21251003444194794, -0.21733441948890686, 0.09079378843307495, -0.2828184962272644, -0.09124567359685898, 0.2114335298538208, 0.19469906389713287, -0.022313369438052177, -0.164247527718544, 0.1334366649389267, -0.19048428535461426, 0.033072661608457565, 0.25256451964378357, -0.05641678348183632, 0.020724045112729073, 0.19961541891098022, 0.03695432469248772, -0.165076345205307, -0.04938673600554466, -0.2700321674346924, 0.055302541702985764, 0.08590912073850632, -0.06636247783899307, 0.045735567808151245, -0.10297877341508865, -0.14219583570957184, -0.382948637008667, -0.22363661229610443, 0.005050645209848881, -0.17012624442577362, -0.2315412014722824, 0.15406957268714905, 0.22738400101661682, -0.1570565402507782, 0.023686110973358154, -0.25386789441108704, -0.1064082682132721, -0.10690240561962128, -0.0027768434956669807, -0.14952075481414795, 0.3516197204589844, 0.13207873702049255, 0.2573806345462799, 0.11864296346902847, -0.09605573117733002, 0.35574737191200256, -0.17523574829101562, -0.34614577889442444, 0.3352838456630707, -0.17446310818195343, -0.03722435235977173, -0.14346912503242493, -0.107912078499794, -0.14211320877075195, -0.22820167243480682, -0.4885924458503723, 0.11878221482038498, 0.2721026539802551, 0.10796575993299484, 0.21228651702404022, -0.16145722568035126,
0.4041188657283783, -0.03356417268514633, -0.19032640755176544, -0.45682480931282043, -0.5097225308418274, 0.09857941418886185, -0.009886288084089756, 0.021701721474528313, 0.14589761197566986, -0.19663602113723755, -0.08482477813959122, 0.017155494540929794, -0.16346722841262817, 0.2224845588207245, 0.15277011692523956, 0.10433158278465271, 0.09387801587581635, 0.34562477469444275, -0.022023146972060204, 0.026920771226286888, 0.20446129143238068, -0.12351030111312866, 0.07145996391773224, 0.10850730538368225, 0.057992853224277496, 0.18857546150684357, 0.3575584292411804, 0.0740726962685585, 0.1576394885778427, 0.37771573662757874, -0.06147846207022667, 0.04311593621969223, -0.009551454335451126, 0.10635874420404434, -0.11586068570613861, 0.12618805468082428, 0.19026786088943481, -0.089003786444664, -0.0851612538099289, -0.2383938580751419, -0.16822734475135803, -0.048808373510837555, 0.394181489944458, -0.10394477099180222, 0.055144015699625015, -0.3622596859931946, -0.018059365451335907, 0.12983325123786926, -0.011692951433360577, 0.04133570194244385, 0.13735587894916534, -0.0032673832029104233, 0.1120591089129448, -0.060483209788799286, 0.01567775011062622, 0.3682747483253479, -0.1900750696659088, 0.17011360824108124, -0.29255539178848267, -0.14943183958530426, -0.0866243839263916, 0.3925267159938812, 0.2225056141614914, 0.0969647467136383,
-0.0838068500161171, 0.006485362537205219, -0.03939681872725487, -0.12226635962724686, 0.28080782294273376, -0.16742484271526337, -0.09699120372533798, -0.21956008672714233, -0.16747073829174042, 0.2837265431880951, 0.09205342829227448, 0.017519649118185043, 0.1384313702583313, -0.11667750030755997, 0.2177944779396057, 0.3104768395423889, 0.26173946261405945, -0.03240690380334854, -0.4953587055206299, -0.07785288989543915, 0.07010392844676971, -0.1258038431406021, -0.03676603361964226, -0.13720227777957916, -0.04534001648426056, 0.22927945852279663, -0.034888796508312225, -0.09005448967218399, -0.08093579858541489, 0.08375724405050278, 0.015797076746821404, -0.2731182277202606, -0.5148862600326538, 0.22122234106063843, -0.09368252754211426, -0.040999870747327805, -0.18326012790203094, -0.05039161443710327, -0.11010251194238663, -0.3919132351875305, -0.4679921865463257, -0.32431235909461975, -0.17659492790699005, 0.21495772898197174, -0.046151868999004364, 0.05661740526556969, 0.07633829116821289, 0.04750899225473404, -0.33775922656059265, 0.14334475994110107, -0.01935882307589054, 0.2732241749763489, -0.06712719053030014, -0.4666736423969269, 0.27735573053359985, -0.1240755096077919, -0.5507733821868896, -0.27159383893013, 0.17171326279640198, 0.040401678532361984, -0.16223855316638947, -0.12603752315044403, -0.2342987358570099, -0.019546663388609886,
0.14193329215049744, -0.026867391541600227, -0.17870967090129852, -0.15280558168888092, 0.19642503559589386, -0.15801814198493958, -0.11315837502479553, 0.3669082224369049, -0.1577109396457672, -0.3181537091732025, -0.11415904015302658, -0.0309954471886158, 0.009862706996500492, 0.233992338180542, -0.32325097918510437, 0.2589956820011139, 0.0063042775727808475, -0.18357577919960022, 0.276886910200119, 0.0911804661154747, 0.03064335323870182, -0.045181967318058014, 0.23245121538639069, -0.308879554271698, -0.11067768186330795, 0.14706379175186157, -0.39059361815452576, -0.28163838386535645, -0.13662753999233246, 0.010095811448991299, 0.09906160831451416, 0.023096784949302673, 0.006180209573358297, -0.3039402365684509, 0.10501519590616226, 0.1776038259267807, 0.1372348815202713, -0.13453367352485657, -0.39700987935066223, 0.0010246371384710073, 0.05025613680481911, 0.31817835569381714, -0.22447478771209717, 0.23616980016231537, -0.14246657490730286, -0.2393181025981903, 0.1490744799375534, -0.08540262281894684, 0.19078640639781952, -0.07182654738426208, -0.05606691539287567, 0.0574406161904335, 0.008359992876648903, 0.07038824260234833, 0.06316349655389786, 0.2578144669532776, -0.32612136006355286, -0.07345867902040482, 0.06181265786290169, -0.13856437802314758, 0.1979413777589798, -0.08588368445634842, 0.10267020761966705, 0.22796595096588135,
-0.1796584129333496, -0.1904177963733673, -0.16351249814033508, -0.13134507834911346, -0.14220447838306427, 0.19859419763088226, -0.31691452860832214, -0.10577167570590973, 0.16172382235527039, 0.3162141442298889, -0.06775624305009842, 0.23046401143074036, -0.2668044865131378, 0.08624326437711716, 0.15820454061031342, 0.19512169063091278, 0.049414731562137604, -0.22346514463424683, 0.22229403257369995, -0.08287879824638367, -0.026838527992367744, 0.09956689924001694, -0.3557438254356384, -0.1069137305021286, -0.08756686002016068, -0.3744136691093445, 0.14354102313518524, -0.06727045029401779, 0.008466854691505432, 0.35700780153274536, 0.4939635694026947, -0.3908447325229645, 0.14679306745529175, 0.22930081188678741, -0.2881211042404175, 0.1290629655122757, -0.12524452805519104, -0.3304075300693512, 0.04701261967420578, 0.2800227701663971, -0.3230159878730774, 0.09879232943058014, -0.11500541120767593, 0.0362529419362545, -0.04350704327225685, -0.2689753472805023, 0.02588058076798916, -0.13336169719696045, 0.09296043962240219, -0.06818533688783646, -0.029198763892054558, 0.07066517323255539, -0.15209832787513733, 0.18604683876037598, -0.10515747964382172, -0.30256369709968567, -0.135837584733963, 0.18867458403110504, 0.22656750679016113, 0.1607307493686676, -0.14843130111694336, -0.3051166832447052, -0.0518786646425724, 0.23063190281391144,
0.018146932125091553, -0.11793885380029678, 0.4509401321411133, -0.22922533750534058, 0.037289902567863464, 0.364090234041214, -0.21341775357723236, 0.13338132202625275, -0.25054895877838135, -0.015633178874850273, -0.1162131279706955, 0.23702938854694366, -0.13638129830360413, -0.33323490619659424, -0.08577365428209305, 0.10958632081747055, -0.3912063241004944, -0.02023419737815857, -0.025240672752261162, 0.07067553699016571, 0.009613011963665485, 0.2264815717935562, 0.1316387802362442, -0.26753947138786316, 0.13014911115169525, 0.2883484959602356, 0.20305712521076202, 0.02455638349056244, -0.10389631986618042, -0.09327908605337143, 0.02042291685938835, -0.0869123712182045, -0.03909043222665787, 0.3601551651954651, -0.3958345353603363, -0.029686400666832924, 0.01109581720083952, -0.10574975609779358, 0.17004269361495972, -0.41494059562683105, 0.256333589553833, 0.033534638583660126, -0.16137348115444183, 0.29505589604377747, 0.05690490081906319, -0.12207478284835815, 0.09198429435491562, 0.1057756170630455, -0.6120206117630005, 0.09539633244276047, 0.028934188187122345, 0.026885801926255226, 0.13621175289154053, 0.009057381190359592, -0.09918951243162155, -0.13973687589168549, 0.25748056173324585, 0.030844558030366898, -0.10204268991947174, 0.12827928364276886, 0.17835380136966705, -0.125399649143219, -0.20865961909294128, -0.09368482977151871,
-0.03036022000014782, -0.084290511906147, -0.05363548547029495, 0.18052558600902557, -0.09359468519687653, 0.17312808334827423, -0.31860077381134033, -0.08852558583021164, -0.029148414731025696, -0.06474368274211884, -0.20941242575645447, -0.16867707669734955, 0.051804885268211365, -0.31595873832702637, 0.19874852895736694, 0.14045079052448273, -0.35051846504211426, -0.3103433847427368, 0.501418948173523, 0.16420415043830872, 0.2825300991535187, -0.0017268856754526496, 0.08675762265920639, 0.2360270917415619, 0.08214966952800751, -0.186763733625412, -0.08440715819597244, -0.21355466544628143, -0.558998703956604, -0.23738163709640503, -0.17298538982868195, -0.02532285451889038, 0.1137373074889183, -0.01570226065814495, 0.009629889391362667, 0.23972444236278534, 0.24517880380153656, -0.14457356929779053, 0.056140873581171036, 0.023059681057929993, -0.09087758511304855, 0.016633838415145874, 0.05372585728764534, 0.050862979143857956, -0.1417422741651535, 0.2405398190021515, -0.07448842376470566, -0.2652028501033783, -0.44511494040489197, -0.13231760263442993, 0.2815009653568268, -0.0810655802488327, 0.26957616209983826, -0.1915811002254486, 0.00544060068204999, 0.4721551835536957, 0.04099012911319733, 0.13957734405994415, 0.27655935287475586, -0.3937584161758423, -0.14749015867710114, -0.33996403217315674, -0.2624504864215851, -0.22429712116718292,
0.19711485505104065, -0.0044821081683039665, -0.07913549989461899, 0.0898035392165184, -0.09003008902072906, 0.030512209981679916, 0.03955952078104019, 0.041428256779909134, -0.30545294284820557, 0.1453956812620163, 0.014602967537939548, 0.013874635100364685, 0.2981070876121521, -0.28941214084625244, 0.04186287894845009, -0.0024136267602443695, -0.057411160320043564, 0.27222415804862976, 0.021773595362901688, -0.09060576558113098, 0.04529780521988869, -0.45429760217666626, 0.04184382036328316, 0.026679664850234985, -0.017849475145339966, -0.2098107784986496, -0.11961635202169418, 0.19436469674110413, 0.17300985753536224, 0.14784477651119232, 0.15642842650413513, -0.40431082248687744, -0.389797180891037, 0.08668920397758484, -0.4300883412361145, -0.39920127391815186, -0.24469605088233948, 0.1740092635154724, 0.2640460729598999, -0.1409989893436432, -0.18565335869789124, 0.2945958375930786, 0.17078623175621033, -0.12215468287467957, -0.22408047318458557, 0.03947927802801132, -0.3046225905418396, -0.23074571788311005, 0.03166703134775162, 0.024253230541944504, 0.020313067361712456, -0.053350549191236496, 0.0006993089918978512, 0.31342166662216187, -0.06651940196752548, 0.5574514269828796, 0.12858587503433228, 0.10324130952358246, 0.2700449824333191, 0.017772050574421883, 0.03991419076919556, 0.06925506889820099, 0.1725231558084488, -0.26418644189834595,
0.08903563022613525, -0.05474573373794556, 0.18538446724414825, -0.28394532203674316, -0.04509396106004715, -0.055563442409038544, -0.05494408681988716, 0.004086871165782213, 0.05862156301736832, -0.23206354677677155, 0.20647136867046356, -0.008961639367043972, 0.2865903079509735, 0.3791692554950714, 0.20332707464694977, -0.18370310962200165, -0.2092852145433426, 0.27398374676704407, -0.02305460348725319, -0.046321626752614975, 0.1503375768661499, 0.3286162316799164, -0.13484685122966766, -0.041634052991867065, 0.5879794955253601, 0.07589022815227509, -0.09777042269706726, 0.06732820719480515, 0.00188070151489228, -0.34826844930648804, 0.03731757402420044, 0.03895934298634529, -0.1452646106481552, 0.0165428277105093, -0.03879997506737709, 0.1908486932516098, 0.31696218252182007, -0.14663273096084595, -0.29480069875717163, 0.3355652391910553, -0.3174750804901123, 0.11460418999195099, -0.5011340975761414, -0.033632803708314896, -0.47657620906829834, 0.20985345542430878, -0.23663540184497833, -0.32563355565071106, 0.29291680455207825, 0.012337224557995796, -0.13864578306674957, -0.04267077520489693, -0.38282665610313416, -0.12664616107940674, -0.08982159197330475, -0.25023356080055237, 0.054130639880895615, -0.156589075922966, -0.21433328092098236, -0.008436196483671665, -0.05910755693912506, 0.0576213076710701, -0.060834359377622604, -0.06563329696655273,
-0.3219887912273407, -0.09100334346294403, -0.2869504988193512, 0.27057409286499023, 0.17809174954891205, -0.33137035369873047, -0.023429445922374725, -0.03795218467712402, 0.14500778913497925, 0.015035931952297688, -0.0548032708466053, -0.13523977994918823, 0.306665301322937, 0.181746706366539, -0.09101160615682602, 0.12064095586538315, -0.19890639185905457, -0.003671811195090413, -0.0642724335193634, -0.27615442872047424, -0.2289843112230301, 0.5165755748748779, 0.24463041126728058, -0.13692814111709595, 0.06912830471992493, -0.06306667625904083, 0.3101241886615753, -0.1035999283194542, 0.0324273481965065, -3.1315803994402813e-07, -0.0728132575750351, -0.016478076577186584, 0.005849556066095829, 0.20945873856544495, 0.4283464550971985, 0.006791056599467993, -0.16554689407348633, 0.09852427989244461, -0.17728133499622345, 0.22657997906208038, -0.219585120677948, 0.218720942735672, 0.08309552818536758, -0.04229384660720825, -0.3296152651309967, -0.08817405253648758, 0.02102021686732769, -0.12681078910827637, 0.031640276312828064, 0.0070064375177025795, -0.00033698396873660386, -0.19572791457176208, 0.05862831324338913, -0.13647834956645966, -0.3896544575691223, 0.0371021144092083, -0.3458873927593231, -0.11404914408922195, 0.01220331247895956, 0.13929052650928497, 0.2083710879087448, 0.3882925510406494, 0.03961889073252678, 0.07805271446704865,
