#include "neural_network.h"
#include <stdio.h>
#include <math.h>

const float weights_fc1[] = {
-0.1817486435174942, 0.12170687317848206, -0.3096977472305298, 0.27137476205825806, 0.08397679030895233, 0.3423771560192108, -0.24230006337165833, 0.45367324352264404, 0.2080950289964676, 0.4579574763774872, 0.33249959349632263, -0.10254867374897003, -0.2518395483493805, -0.11473028361797333, 0.1779957115650177, 0.3366367518901825, 0.07762285321950912, -0.2110649049282074, 0.14467237889766693, 0.12494321912527084,
0.02300255000591278, -0.36793506145477295, 0.21902503073215485, 0.11661175638437271, -0.22896462678909302, -0.1980091780424118, -0.0743170827627182, 0.12948715686798096, -0.14735007286071777, -0.10993491113185883, 0.07094306498765945, 0.10910453647375107, -0.23674920201301575, 0.21311379969120026, 0.0008013524347916245, -0.18000061810016632, 0.4043456017971039, 0.5904838442802429, -0.09414710104465485, 0.17535550892353058,
-0.09056194126605988, -0.601970374584198, 0.43571215867996216, 0.03626491501927376, -0.24614271521568298, -0.40265804529190063, 0.039496101438999176, -0.2706345319747925, -0.3758482336997986, 0.30390557646751404, -0.22371703386306763, -0.019251516088843346, 0.15043991804122925, -0.5300785899162292, 0.2993432581424713, -0.08211462944746017, -0.28640684485435486, -0.13984797894954681, -0.005178222432732582, -0.0035147438757121563,
-0.2549121379852295, 0.17679107189178467, 0.21088247001171112, 0.013846487738192081, 0.446554034948349, 0.12355794757604599, -0.46886399388313293, 0.5539983510971069, 0.020670384168624878, -0.004833300597965717, 0.0783841535449028, 0.07810128480195999, 0.4068465232849121, 0.35792049765586853, -0.29302600026130676, -0.2189241498708725, -0.09310287237167358, -0.21190498769283295, -0.1753760129213333, -0.2331390231847763,
-0.19333210587501526, -0.006128573790192604, -0.08441326767206192, -0.029150573536753654, 0.18171820044517517, -0.4009825587272644, -0.6339964866638184, -0.09059499949216843, 0.21906107664108276, -0.040803421288728714, 0.18359212577342987, 0.0012414829107001424, 0.1583506464958191, 0.4055459499359131, -0.47393497824668884, -0.5349406599998474, 0.3681298494338989, 0.022671949118375778, -0.015792984515428543, 0.03862069547176361,
-0.015179891139268875, 0.2783442437648773, 0.7631372809410095, -0.010047974064946175, 0.1424962729215622, 0.29094552993774414, -0.27814897894859314, -0.6525605916976929, -0.04212844371795654, -0.12335871160030365, -0.10821054875850677, 0.32163673639297485, 0.19942180812358856, -0.5551425218582153, -0.21228556334972382, -0.3165576159954071, 0.16105449199676514, -0.06883815675973892, -0.3119906783103943, -0.12733906507492065,
0.24455232918262482, -0.35437193512916565, -0.134932741522789, 0.0739673376083374, 0.1740560382604599, 0.0030888281762599945, -0.10262101888656616, -0.408143550157547, 0.16831140220165253, 0.06854763627052307, -0.21719498932361603, -0.1678803414106369, -0.030696967616677284, 0.1464005559682846, -0.34777870774269104, 0.6505722403526306, -0.0037377215921878815, 0.01100428681820631, 0.1714468151330948, 0.21441470086574554,
0.20072762668132782, 0.553621232509613, 0.15307201445102692, 0.054143160581588745, 0.22770166397094727, 0.1854427307844162, -0.00861335638910532, 0.16345790028572083, 0.4555037319660187, -0.11648459732532501, -0.18163202702999115, 0.38781771063804626, 0.7365162372589111, 0.09452918916940689, -0.2531401216983795, -0.583202064037323, -0.28347232937812805, 0.17317429184913635, -0.13716250658035278, 0.1749984622001648,
0.13901856541633606, 0.22207067906856537, 0.05259360745549202, -0.06472434848546982, -0.41246339678764343, 0.37580060958862305, -0.2046836018562317, 0.2989261746406555, 0.3465020954608917, 0.0855623185634613, 0.01961660012602806, 0.09631868451833725, 0.1997152864933014, -0.25442251563072205, 0.15666556358337402, 0.13352897763252258, 0.01556528639048338, -0.3645210564136505, 0.1758197695016861, -0.20061685144901276,
0.155451238155365, -0.08811464160680771, 0.030063308775424957, -0.4088137745857239, -0.14224164187908173, -0.14361627399921417, 0.17613254487514496, -0.4861781597137451, -0.09087405353784561, 0.15470115840435028, 0.08487336337566376, -0.04844776540994644, 0.37434929609298706, 0.6777083873748779, 0.11677321046590805, 0.7323373556137085, 0.05500567704439163, -0.01375313475728035, 0.17666885256767273, -0.047126658260822296,
0.3402104079723358, -0.23377767205238342, 0.17115283012390137, -0.04530871659517288, 0.4929523468017578, 0.10684143006801605, -0.1217256560921669, 0.2486385852098465, -0.053129903972148895, 0.1737927347421646, 0.11331887543201447, -0.019249754026532173, 0.387854665517807, 0.013805892318487167, -0.03358019143342972, -0.2807667851448059, 0.06086774170398712, -0.01610260084271431, -0.2613588273525238, -0.2029239386320114,
0.203243225812912, 0.06629067659378052, 0.33213740587234497, -0.41256508231163025, 0.1691131889820099, -0.15790791809558868, 0.24897950887680054, -0.34825634956359863, -0.5500956773757935, 0.3445869982242584, -0.06700361520051956, 0.05870625749230385, -0.055251751095056534, 0.11375293880701065, 0.6960443258285522, 0.15088579058647156, 0.006965603679418564, -0.06405951827764511, -0.02533518150448799, 0.00531060341745615,
-0.009365655481815338, -0.33099275827407837, 0.0013735179090872407, 0.12646876275539398, -0.33944806456565857, -0.10379431396722794, -0.32128027081489563, 0.3748721778392792, 0.02810717560350895, -0.024867981672286987, 0.11859831213951111, 0.2759370803833008, 0.13362719118595123, 0.10348830372095108, 0.10224022716283798, 0.2983064353466034, -0.4170326292514801, -0.12238014489412308, -0.0739068016409874, -0.2644246816635132,
-0.04679073765873909, 0.005064700730144978, 0.7857611179351807, -0.3329712450504303, -0.10168777406215668, 0.4071618616580963, -0.1569368988275528, -0.41038841009140015, -0.05146606266498566, -0.027879642322659492, 0.0941024124622345, -0.23250487446784973, 0.3097248673439026, 0.495116263628006, -0.06624356657266617, 0.20101605355739594, 0.004419357981532812, 0.07935245335102081, -0.07159850746393204, 0.2363966703414917,
-0.129140704870224, 0.3759630024433136, 0.03038257360458374, 0.2173355370759964, 0.1822632998228073, 0.15632204711437225, -0.3612518906593323, 0.3088335394859314, 0.07249612361192703, -0.019117172807455063, 0.08901400119066238, -0.4064946174621582, -0.5528932809829712, 0.5353536605834961, -0.6704317927360535, 0.6469109654426575, 0.3584481477737427, 0.5863686203956604, 0.15461568534374237, 0.030578065663576126,
0.3772336542606354, -0.2848353683948517, 0.17611369490623474, 0.0788310170173645, -0.15828700363636017, -0.4268770217895508, -0.12267846614122391, -0.025249142199754715, -0.3096231520175934, -0.30690646171569824, -0.06319768726825714, -0.10321013629436493, 0.13314706087112427, 0.3531716763973236, 0.21340079605579376, -0.010952837765216827, -0.06431713700294495, -0.26077428460121155, 0.23823128640651703, -0.09407714009284973,
-0.2506363093852997, 0.07776876538991928, -0.16078267991542816, -0.3940815031528473, -0.026408186182379723, 0.08431077748537064, -0.22138036787509918, -0.5437209010124207, -0.4716961979866028, 0.013897363096475601, -0.22365181148052216, 0.10813010483980179, -0.2043539434671402, -0.44145840406417847, 0.35140421986579895, 0.07527396827936172, -0.18904957175254822, 0.13017916679382324, 0.05823777616024017, -0.1899661421775818,
-0.17740638554096222, 0.025350065901875496, 0.28061532974243164, 0.07259680330753326, 0.15915869176387787, 0.1746901124715805, 0.2103232890367508, -0.5240384340286255, -0.08642975986003876, -0.1945367157459259, 0.15556734800338745, 0.28167667984962463, 0.033575039356946945, 0.33410724997520447, -0.2506530284881592, 0.366670697927475, -0.3212488889694214, 0.11505741626024246, -0.09277500957250595, -0.06955506652593613,
0.6701964139938354, -0.1927381306886673, 0.0003650184953585267, -0.21619181334972382, -0.0923890694975853, 0.07842283695936203, -0.31014397740364075, 0.16242261230945587, -0.3367287218570709, -0.15003618597984314, 0.3505799472332001, 0.11793440580368042, 0.10281718522310257, -0.04709421843290329, 0.27474263310432434, 0.011247833259403706, -0.13599732518196106, 0.011320243589580059, -0.006214186083525419, -0.08239883929491043,
-0.1783725470304489, 0.04866738244891167, 0.5274728536605835, 0.17308703064918518, 0.008130672387778759, -0.030958255752921104, -0.4533901512622833, -0.4160972237586975, 0.21418434381484985, -0.12494724988937378, -0.08519851416349411, 0.11024916917085648, 0.36760780215263367, -0.04876385256648064, 0.0427822545170784, -0.5085790753364563, -0.2431778907775879, 0.12640069425106049, 0.09697217494249344, 0.04431217163801193,
0.004884303547441959, -0.2787210941314697, 1.2480225563049316, -0.15739920735359192, -0.04747482016682625, 0.014863136224448681, 0.40370863676071167, -0.13385534286499023, -0.6398687362670898, -0.007435357663780451, 0.0948445275425911, -0.28989946842193604, -0.037981126457452774, -0.18601010739803314, -0.15017975866794586, -0.13465476036071777, -0.021398914977908134, 0.10926667600870132, -0.11087693274021149, -0.06681986153125763,
-0.042283736169338226, -0.26713451743125916, -0.04194596782326698, 0.026562251150608063, 0.023863526061177254, -0.0763639286160469, -0.006701479200273752, 0.12236107140779495, -0.2798791229724884, 0.03521779552102089, 0.04876970499753952, -0.3833715617656708, 0.171147882938385, 0.1486249715089798, 0.28218960762023926, -0.05078741908073425, 0.29292812943458557, 0.305757999420166, -0.2081698775291443, 0.3595418930053711,
0.32227984070777893, -0.31231826543807983, -0.4271584153175354, 0.18158140778541565, -0.05353313684463501, 0.24111266434192657, -0.12882593274116516, -0.23543411493301392, 0.26585426926612854, -0.11174078285694122, 0.008471268229186535, -0.25204119086265564, 0.12530237436294556, 0.26855379343032837, -0.3523756265640259, -0.060701873153448105, 0.06043686717748642, 0.12354665249586105, 0.03272790089249611, -0.2612141966819763,
-0.10065707564353943, 0.184392049908638, 0.1786959171295166, -0.033735767006874084, 0.17587783932685852, 0.29751983284950256, 0.10983244329690933, 0.35757872462272644, 0.20845411717891693, -0.22032853960990906, 0.03871859237551689, 0.18846063315868378, 0.12933455407619476, 0.3364264965057373, -0.3876073956489563, 0.015443763695657253, 0.17909955978393555, -0.051364194601774216, -0.1254599243402481, 0.23676498234272003,
-0.0899280235171318, 0.14046096801757812, 0.07073166221380234, -0.019155539572238922, 0.2564055621623993, 0.09912135452032089, 0.17926070094108582, -0.2156677544116974, 0.30941376090049744, 0.2444993108510971, 0.09648236632347107, 0.5125413537025452, -0.36077138781547546, -0.6604291200637817, 0.5680623650550842, 0.28177887201309204, 0.4059438705444336, 0.3926125764846802, -0.0876440778374672, 0.4170225262641907,
-0.20132297277450562, 0.21007297933101654, -0.6939109563827515, -0.17656077444553375, -0.21153834462165833, -0.44656965136528015, -0.23663826286792755, -0.20424006879329681, 0.13430610299110413, -0.10410280525684357, 0.1664157658815384, 0.3139333724975586, -0.3350158631801605, 0.31856971979141235, -0.2689189612865448, 0.5607661604881287, 0.3832056522369385, 0.37459513545036316, 0.18339760601520538, -0.060758061707019806,
-0.03385184332728386, 0.03824010491371155, -0.6857559680938721, 0.24365918338298798, -0.09450829029083252, -0.35865822434425354, 0.6371725797653198, -0.061959218233823776, 0.37608471512794495, 0.05208431929349899, 0.004600724205374718, 0.0525461882352829, -0.3735610246658325, -0.4765390455722809, 0.38229289650917053, 0.2837234437465668, 0.38073062896728516, -0.2921273708343506, -0.07240702956914902, 0.07267659157514572,
-0.27713409066200256, 0.7847633361816406, 0.5279345512390137, -0.04529058188199997, 0.46422088146209717, 0.370889276266098, 0.12781691551208496, 0.6552810668945312, -0.17910978198051453, -0.022313740104436874, 0.18114297091960907, -0.15438464283943176, -0.24571041762828827, 0.1785244196653366, -0.3217494487762451, 0.3472968339920044, 0.19260551035404205, -0.03945864364504814, -0.05499554052948952, 0.15859892964363098,
-0.08546140789985657, 0.06405764073133469, 0.31439417600631714, -0.6043891906738281, 0.022471515461802483, 0.4509310722351074, 0.1046331524848938, -0.1560855209827423, 0.2992025315761566, 0.0001779877202352509, -0.09735794365406036, -0.0664452537894249, 0.39879611134529114, 0.027231963351368904, 0.0689506083726883, 0.05964173376560211, 0.021347494795918465, -0.5057298541069031, 0.015520763583481312, -0.31044289469718933,
0.1489880383014679, 0.14009977877140045, -0.3148200213909149, 0.35821449756622314, 0.14115430414676666, -0.04149581119418144, 0.03621374070644379, -0.5241613984107971, -0.5527595281600952, 0.06090002879500389, 0.013301162980496883, -0.2347349375486374, 0.29094433784484863, -0.13146266341209412, -0.18949435651302338, -0.46496832370758057, 0.2722376883029938, 0.038184892386198044, -0.053558871150016785, -0.11237035691738129,
0.494052916765213, -0.21308153867721558, 0.08007489144802094, 0.03413912281394005, -0.2928116023540497, -0.11446542292833328, 0.059956107288599014, 0.05436277389526367, -0.06472296267747879, -0.0010028257966041565, 0.09601515531539917, -0.016147758811712265, 0.2723327875137329, 0.32381919026374817, -0.1330612152814865, 0.31986090540885925, -0.10458510369062424, -0.26137953996658325, 0.3143230974674225, -0.6355160474777222,
-0.14245715737342834, 0.6684318780899048, -0.09696804732084274, -0.28676310181617737, 0.6149792671203613, -0.252409428358078, -0.4472923278808594, -0.1438310295343399, 0.38872504234313965, -0.09134611487388611, -0.058037061244249344, -0.1512468159198761, 0.11434774100780487, -0.06896264106035233, 0.41888564825057983, -0.13121753931045532, -0.1584010124206543, 0.36032918095588684, 0.24040348827838898, 0.011774119921028614,
-0.024628108367323875, -0.057545412331819534, 0.3185109794139862, 0.34112051129341125, 0.19235801696777344, 0.23972280323505402, 0.09867419302463531, 0.31112736463546753, -0.15204255282878876, 0.18486696481704712, -0.011846765875816345, -0.008405722677707672, -0.455150842666626, -0.6137880086898804, 0.4487874209880829, 0.6210102438926697, -0.18397249281406403, 0.06818433851003647, -0.07854007184505463, 0.07307758182287216,
0.0007679265108890831, -0.16759760677814484, -0.8526133298873901, 0.06397120654582977, -0.18059512972831726, 0.2521515190601349, -0.08174257725477219, 0.03337281942367554, -0.38980138301849365, -0.03921733796596527, -0.07618512213230133, -0.1538829356431961, -0.12286286801099777, -0.524574339389801, 0.8583052158355713, 0.18352118134498596, -0.15285539627075195, -0.1254921555519104, 0.029320741072297096, 0.07281100749969482,
-0.04984966292977333, -0.16151253879070282, -0.41043010354042053, 0.05178136005997658, -0.1690981090068817, -0.002197507070377469, -0.15402042865753174, 0.08242504298686981, 0.0371062308549881, -0.12849193811416626, 0.3761940896511078, -0.2730928659439087, 0.22171539068222046, 0.438167542219162, -0.9912719130516052, -0.190114364027977, -0.07034582644701004, 0.2592217028141022, 0.02869131974875927, 0.026170924305915833,
0.028192618861794472, -0.07697714865207672, -0.30547863245010376, -0.11163651198148727, -0.021492885425686836, -0.016612879931926727, -0.5123128294944763, -0.10746879130601883, -0.019978370517492294, -0.0180202666670084, -0.2087324857711792, -0.4131929874420166, 0.40722689032554626, -0.21454809606075287, 0.2426805943250656, -0.6561077237129211, 0.4616493582725525, 0.6432495713233948, -0.11208389699459076, 0.24994118511676788,
-0.009531360119581223, -0.27319490909576416, -0.08265728503465652, 0.020269548520445824, -0.026207273826003075, 0.21658554673194885, 0.1971600204706192, 0.1442277878522873, -0.6153085827827454, 0.27492520213127136, -0.01575036346912384, 0.1496308445930481, -0.23572422564029694, -0.3155858814716339, -0.012205377221107483, 0.009241407737135887, -0.2802591919898987, -0.2367631494998932, 0.1651127189397812, 0.05935843288898468,
0.138686403632164, -0.29726526141166687, 0.6929624080657959, 0.02846374921500683, 0.29819899797439575, 0.38008129596710205, 0.18097391724586487, 0.6110548377037048, 0.028267337009310722, 0.07074364274740219, -0.199799045920372, -0.22189724445343018, 0.6724361777305603, -0.2912266254425049, 0.42355063557624817, -0.061837196350097656, 0.09091492742300034, -0.18520265817642212, 0.07314207404851913, -0.3779904246330261,
0.08282099664211273, 0.046330347657203674, -0.2793084383010864, 0.02301696687936783, -0.2596319913864136, 0.3536926507949829, -0.13184717297554016, -0.39176851511001587, -0.28521114587783813, -0.09366117417812347, -0.03886013478040695, 0.07081460952758789, 0.7794404625892639, 0.1508082002401352, -0.05329827219247818, -0.27012327313423157, 0.27641454339027405, 0.1691594421863556, 0.0894889086484909, -0.35677117109298706,
-0.1002398133277893, -0.3867015242576599, -0.583085834980011, -0.5456267595291138, -0.2693316638469696, -0.6097268462181091, 0.0020371032878756523, -0.08843008428812027, -0.23343047499656677, 0.22348693013191223, 0.026527609676122665, 0.041953738778829575, 0.09145352989435196, -0.37531036138534546, 0.04117514565587044, -0.22933366894721985, 0.30722346901893616, 0.20367281138896942, -0.2881055474281311, 0.07272233068943024,
-0.4034152030944824, 0.13339270651340485, -0.1874176263809204, 0.2740076780319214, 0.07823023200035095, 0.1087605357170105, 0.2221716195344925, -0.17116358876228333, 0.5527695417404175, 0.08856452256441116, -0.15888118743896484, -0.049966610968112946, 0.2549605369567871, -0.05502292141318321, 0.04712025448679924, -0.15559685230255127, -0.30180731415748596, 0.16922181844711304, -0.24101027846336365, 0.004052066244184971,
0.13561183214187622, 0.32597532868385315, 0.017599154263734818, -0.12965823709964752, 0.3026503920555115, -0.16327781975269318, 0.17799486219882965, 0.1451808363199234, 0.53208327293396, 0.130361407995224, 1.5343077393481508e-05, -0.02694437839090824, -0.0939522311091423, 0.32661890983581543, -0.02383519895374775, -0.49319449067115784, -0.32372742891311646, -0.17941413819789886, 0.3735654354095459, 0.019569478929042816,
-0.17130368947982788, -0.05905189365148544, 0.8070722222328186, -0.03266703337430954, 0.07746495306491852, 0.09244683384895325, 0.13093975186347961, -0.8084666728973389, 0.0025547684635967016, 0.033796679228544235, -0.00859091617166996, -0.26657843589782715, -0.4349198341369629, 0.40547671914100647, -0.21345928311347961, 0.6077562570571899, 0.3616701066493988, 0.13908487558364868, 0.016340035945177078, 0.10750235617160797,
0.07155881822109222, 0.056214589625597, -0.6844677925109863, 0.12373585999011993, 0.22701634466648102, -0.5561761260032654, -0.12482418864965439, 0.1107780784368515, 0.07229174673557281, 0.050591666251420975, -0.026997700333595276, 0.6086439490318298, -0.3042523264884949, 0.4323725402355194, 0.017520757392048836, 0.4503909647464752, 0.16369475424289703, 0.08012984693050385, 0.18374167382717133, 0.11111228168010712,
0.11524419486522675, 0.43421614170074463, -0.08955343812704086, -0.1664097011089325, 0.08944950997829437, -0.2538357377052307, 0.04756338894367218, 0.7038996815681458, 0.1363750845193863, -0.045407988131046295, -0.022120891138911247, -0.20732104778289795, 0.3285508453845978, 0.43898117542266846, -0.7831996083259583, -0.32483920454978943, 0.281803697347641, -0.027546579018235207, -0.33728405833244324, 0.2283208668231964,
-0.1883224993944168, -0.3353027105331421, 0.5404126048088074, 0.19832086563110352, 0.10274309664964676, 0.28371462225914, -0.2575870752334595, -0.2999051511287689, 0.09289386868476868, 0.051255811005830765, -0.44801589846611023, 0.3306744694709778, 0.2594766616821289, -0.28178319334983826, 0.2534513771533966, -0.617716372013092, 0.012940321117639542, 0.1118159145116806, 0.20654749870300293, -0.12532326579093933,
-0.19206863641738892, -0.260655015707016, -0.6277978420257568, 0.11950553208589554, 0.0707545131444931, 0.08285874128341675, 0.04155817627906799, -0.3488021194934845, -0.05359211191534996, -0.2057163268327713, 0.0005409909063018858, -0.09249761700630188, 0.6248904466629028, 0.7816728949546814, -0.6341520547866821, -0.5086805820465088, 0.22158457338809967, -0.11196723580360413, 0.21010620892047882, 0.18378230929374695,
-0.03935582563281059, 0.42743879556655884, 0.0387173555791378, -0.0703255906701088, 0.34328657388687134, 0.21832139790058136, 0.1317618489265442, -0.12101580202579498, -0.3268251121044159, 0.1335676908493042, -0.04097734019160271, -0.06834186613559723, -0.05716448277235031, -0.6013522744178772, 0.3945881724357605, -0.059138134121894836, -0.26526907086372375, -0.0578913651406765, 0.06651030480861664, 0.07773774117231369,
0.35067394375801086, 0.09331949800252914, -0.3116438686847687, -0.035602767020463943, -0.1181361973285675, 0.012420140206813812, -0.15908433496952057, 0.20447322726249695, -0.06643802672624588, 0.23661528527736664, 0.34496384859085083, 0.164264515042305, -0.26261231303215027, -0.33742451667785645, 0.5081835985183716, 0.6035592555999756, -0.08781921863555908, -0.0056960382498800755, 0.01180257834494114, 0.25824812054634094,
-0.10916323959827423, -0.24097920954227448, 0.8348343372344971, -0.12219244241714478, -0.04560800641775131, 0.5612121224403381, 0.11988412588834763, 0.08161833882331848, -0.18293550610542297, -0.017823902890086174, 0.23287278413772583, -0.37956199049949646, -0.6246728301048279, -0.24021148681640625, 0.23763395845890045, 0.2704804539680481, 0.1517895758152008, 0.021254833787679672, 0.13591688871383667, 0.09366106241941452,
-0.28027668595314026, 0.2921585440635681, -0.2146417498588562, -0.16951961815357208, 0.4329867959022522, 0.02354063093662262, 0.26916518807411194, 0.739801824092865, -0.21547836065292358, 0.1415247619152069, 0.14058618247509003, 0.09836612641811371, -0.36552393436431885, 0.11038368940353394, -0.3263448178768158, -0.12094788998365402, 0.05986782908439636, 0.09318318963050842, -0.15583764016628265, -0.1832606941461563,
0.02928246185183525, -0.19845211505889893, -0.21416401863098145, -0.4253493547439575, 0.4248826205730438, -0.13325662910938263, -0.17594531178474426, -0.7146289348602295, 0.39462459087371826, 0.018978049978613853, 0.0369560569524765, -0.061183150857686996, -0.06613042205572128, -0.4434204399585724, -0.005022331140935421, 0.23857048153877258, 0.0017671878449618816, 0.23308442533016205, 0.27210381627082825, 0.25175726413726807,
-0.23647759854793549, 0.17078357934951782, 0.07366374135017395, -0.05898590385913849, -0.07636958360671997, 0.2784441113471985, 0.35257986187934875, -0.37822362780570984, 0.12220177799463272, -0.04899422451853752, -0.16330274939537048, -0.17035163938999176, 0.5466968417167664, 0.12630723416805267, 0.3709801435470581, -0.505555272102356, 0.1388310343027115, -0.0513610765337944, -0.22242450714111328, 0.05684369429945946,
0.2828618586063385, -0.04568132758140564, 0.1425108164548874, 0.05690263211727142, -0.3149794638156891, 0.10419709980487823, -0.4772644340991974, -0.5638299584388733, 0.05825018882751465, 0.14729411900043488, -0.0021723338868469, 0.0744921937584877, -0.399786114692688, 0.5585549473762512, -0.6156913638114929, -0.0021339980885386467, -0.10155706852674484, -0.14882530272006989, -0.4964146912097931, 0.18424910306930542,
-0.04207770153880119, 0.005229477304965258, 0.5989561676979065, -0.09704981744289398, -0.08323755860328674, 0.16306087374687195, -0.48106279969215393, 0.8202880620956421, 0.001653211424127221, -0.053007371723651886, 0.03732897341251373, 0.1312282234430313, -0.5326898694038391, 0.5379620790481567, -0.569538950920105, 0.24228139221668243, 0.15575408935546875, -0.2834959626197815, 0.1592574566602707, 0.2531764805316925,
-0.13700786232948303, -0.31905850768089294, 0.3230687975883484, 0.20209738612174988, -0.1921815127134323, 0.113482765853405, 0.147519052028656, 0.24716275930404663, 0.3947816491127014, -0.10096406936645508, 0.12674136459827423, 0.3232593834400177, -0.34833866357803345, 0.7293928861618042, -0.6083644032478333, 0.1340339332818985, -0.14369432628154755, -0.17987634241580963, -0.11440841853618622, -0.014519045129418373,
-0.17704080045223236, -0.025198455899953842, 0.05811215564608574, 0.07691389322280884, 0.023151110857725143, -0.2282789796590805, -0.09505056589841843, 0.381313294172287, 1.1423829793930054, -0.08143624663352966, -0.027375783771276474, -0.14568263292312622, 0.3611888885498047, 0.27946043014526367, 0.5361443758010864, -0.07789944112300873, -0.10625090450048447, -0.03957777097821236, -0.30327722430229187, -0.08539795875549316,
0.03096970170736313, -0.06251023709774017, -0.3957500159740448, -0.3320240378379822, 0.30155640840530396, -0.3932078778743744, 0.10628989338874817, 0.0785718560218811, 0.07176312804222107, -0.029968678951263428, 0.18056584894657135, 0.28774189949035645, 0.2422948181629181, 0.715224027633667, 0.33643314242362976, -0.1719077229499817, 0.23127588629722595, 0.12444709241390228, -0.17367590963840485, -0.3393574059009552,
0.14093905687332153, 0.2691197395324707, -0.529484212398529, -0.16937188804149628, -0.06040260195732117, -0.16373568773269653, 0.10940645635128021, -0.05595530569553375, 0.02950798161327839, -0.035527098923921585, -0.15140162408351898, 0.03435591235756874, -0.3140706717967987, -0.1754334419965744, 0.6989712715148926, 0.5005486011505127, 0.420325368642807, 0.18076245486736298, 0.05658569559454918, 0.10381408780813217,
-0.16218608617782593, 0.07944712042808533, -1.0927963256835938, -0.0625494197010994, 0.2444581538438797, -0.9371782541275024, 0.18013320863246918, 0.2863585650920868, -0.2520865201950073, 0.008170687593519688, -0.1647213250398636, -0.05175355076789856, -0.2280389666557312, -0.2904665172100067, 0.2050364762544632, 0.16240794956684113, 0.19478288292884827, 0.004496338311582804, -0.2094612419605255, 0.19067956507205963,
-0.02850101888179779, -0.2091609239578247, -0.6600361466407776, -0.32275938987731934, -0.18971526622772217, 0.14703978598117828, -0.04869404807686806, 0.520367443561554, -0.27199363708496094, 0.1750909835100174, 0.21284514665603638, 0.13233530521392822, -0.40371936559677124, -0.49818646907806396, 0.11647845059633255, 0.25628218054771423, -0.09355784207582474, -0.021152885630726814, -0.058083731681108475, -0.2185553014278412,
0.7653225660324097, -0.04414646700024605, -0.25928136706352234, 0.27691763639450073, 0.20813393592834473, -0.20474062860012054, -0.0386749804019928, 0.13153758645057678, -0.15652397274971008, 0.0931304469704628, -0.21877990663051605, 0.07898890227079391, 0.13638657331466675, 0.08318184316158295, 0.133138507604599, -0.17270442843437195, -0.1638508439064026, -0.15236221253871918, -0.20542208850383759, -0.15117058157920837,
0.24507392942905426, 0.0774497538805008, -0.3921657204627991, 0.16529597342014313, 0.2318556159734726, -0.10355304181575775, -0.1807214766740799, 0.3930736184120178, -0.24045461416244507, 0.021981989964842796, -0.043776798993349075, 0.07165930420160294, 0.2069234848022461, -0.3887133300304413, 1.0474958419799805, 0.008591108955442905, -0.0776611939072609, -0.10237828642129898, 0.07949308305978775, 0.0002522562281228602,
0.259403258562088, 0.13731539249420166, -0.26419857144355774, 0.168905571103096, -0.16439996659755707, -0.01830105483531952, 0.2651379704475403, -0.3351820111274719, 0.09241673350334167, 0.445766419172287, -0.09505503624677658, -0.18854519724845886, -0.518912136554718, -0.023312069475650787, 0.06671455502510071, 0.012285307981073856, -0.4990862011909485, 0.02600735053420067, -0.1226518452167511, -0.47724172472953796
};

const float biases_fc1[] = {
-0.008926484733819962, 0.17319002747535706, -0.08351927250623703, 0.0027876091189682484, 0.11357580125331879, 0.12691354751586914, 0.04156080260872841, 0.021526169031858444, -0.07075802236795425, -0.014014726504683495, -0.06203340366482735, -0.002525889780372381, -0.053273919969797134, 0.028111105784773827, 0.09709762036800385, -0.06111793965101242, -0.04455111548304558, -0.00823045615106821, -0.1169007420539856, 0.09272748231887817, 0.05582350865006447, 0.1396656334400177, -0.07035728543996811, -0.02509126625955105, 0.10575847327709198, 0.16938576102256775, -0.009962799027562141, -0.003650043625384569, -0.19336247444152832, 0.04728122428059578, -0.2396022081375122, 0.14636294543743134, -0.05943869426846504, -0.07439633458852768, 0.08653862774372101, 0.17198598384857178, -0.18627020716667175, -0.021748745813965797, 0.04118286073207855, 0.16008785367012024, -0.039453908801078796, -0.175434410572052, 0.19296732544898987, 0.04135436192154884, 0.14508230984210968, 0.03763081505894661, 0.03871851786971092, 0.006587331648916006, -0.06935622543096542, 0.15048550069332123, 0.1207856759428978, 0.12146493047475815, 0.030812161043286324, -0.03381101414561272, 0.1220802366733551, 0.0018447479233145714, 0.010352276265621185, -0.002407136606052518, 0.12570901215076447, 0.1489589363336563, -0.004259724635630846, -0.028655437752604485, -0.05129849165678024, -0.19232358038425446
};

const float weights_fc2[] = {
-0.14114518463611603, -0.3693908452987671, -0.13480062782764435, 0.1108701303601265, -0.036732807755470276, 0.11058457940816879, 0.300094336271286, 0.04849515110254288, 0.09408136457204819, 0.14452053606510162, -0.038678087294101715, 0.07815192639827728, -0.19881069660186768, -0.25492796301841736, -0.040965162217617035, 0.16669918596744537, -0.2695249319076538, 0.30729809403419495, -0.05222434550523758, 0.026169484481215477, -0.06821216642856598, 0.06075163558125496, -0.014623223803937435, -0.1838959902524948, 0.327212393283844, 0.10711061209440231, 0.4367336630821228, 0.422950804233551, -0.20516692101955414, -0.08943099528551102, 0.13435745239257812, 0.06735759228467941, -0.03597445413470268, -0.30512163043022156, -0.3329463601112366, 0.19287115335464478, -0.47888997197151184, -0.07924522459506989, -0.09605478495359421, -0.2941325902938843, -0.26853254437446594, -0.1502702385187149, 0.08751320093870163, 0.002513950690627098, -0.032607682049274445, -0.25942328572273254, 0.18612000346183777, -0.06218333914875984, 0.006107579916715622, 0.038560137152671814, -0.026805244386196136, -0.23660336434841156, 0.18706877529621124, -0.18538007140159607, -0.23514032363891602, -0.593417227268219, -0.02809852734208107, -0.04227789118885994, 0.2943410575389862, 0.13944855332374573, -0.17081411182880402, 0.695267915725708, 0.2600647211074829, -0.3955947160720825,
0.1762116402387619, -0.36051565408706665, -0.05657656863331795, -0.13071809709072113, -0.05826766416430473, 0.07016958296298981, -0.17017613351345062, -0.4261505901813507, 0.03609231114387512, 0.024912990629673004, 0.05520852282643318, -0.3359643816947937, 0.09616514295339584, -0.06820019334554672, 0.3275706171989441, 0.002218564972281456, 0.033848073333501816, -0.09265343099832535, -0.06860220432281494, -0.2505650222301483, 0.11741306632757187, 0.12980258464813232, -0.12470722943544388, -0.18409086763858795, 0.23906046152114868, -0.22578305006027222, 0.1656242311000824, 0.1321253478527069, 0.046186260879039764, -0.1278463900089264, -0.08853936940431595, -0.1859743893146515, 0.19560447335243225, -0.14784657955169678, 0.3068142831325531, -0.14265725016593933, -0.01773286797106266, 0.23695848882198334, 0.0961456149816513, -0.08310770243406296, 0.08748659491539001, -0.2388591319322586, 0.23612217605113983, -0.5611987709999084, -0.43463894724845886, -0.3894241154193878, -0.021944629028439522, 0.018733274191617966, -0.21151456236839294, 0.4198484420776367, -0.07484177500009537, 0.06255468726158142, 0.1566324383020401, -0.13250985741615295, -0.23499616980552673, 0.09884564578533173, 0.24165084958076477, -0.12666764855384827, 0.2025519460439682, -0.15064731240272522, 0.23943272233009338, -0.05379384756088257, -0.07636494189500809, 0.04749680683016777,
-0.21550443768501282, -0.14155302941799164, -0.19548292458057404, -0.15587909519672394, 0.11339428275823593, -0.033604785799980164, 0.21091698110103607, -0.23063959181308746, -0.08494558185338974, 0.09268855303525925, 0.154677614569664, 0.41505247354507446, -0.003089954610913992, 0.11516433954238892, 0.06899354606866837, 0.2645106017589569, -0.1345089077949524, -0.010799398645758629, -0.20105959475040436, 0.05094672366976738, 0.27873340249061584, 0.10028132051229477, -0.6598973870277405, -0.3272275924682617, -0.2797297239303589, -0.13961608707904816, -0.02512546442449093, 0.2932250499725342, 0.06084650754928589, -0.03770029544830322, 0.023053541779518127, -0.02337212674319744, 0.14322097599506378, 0.3061777949333191, -0.02230045199394226, -0.31912851333618164, 0.3105330169200897, -0.2833874225616455, 0.20377212762832642, -0.4718804955482483, -0.3501269221305847, -0.008444254286587238, -0.16380688548088074, 0.020100412890315056, 0.11545179784297943, 0.12529075145721436, -0.2732278108596802, -0.2761175036430359, 0.04646901413798332, 0.3994087874889374, -0.11709930002689362, 0.056925155222415924, -0.127789705991745, 0.052287593483924866, 0.2256138175725937, -0.04584765061736107, -0.12113861739635468, 0.13788528740406036, -0.18492870032787323, -0.043328095227479935, 0.23130285739898682, -0.26652759313583374, 0.28111371397972107, -0.12883467972278595,
0.06957033276557922, 0.08791129291057587, -0.2043696641921997, 0.4302009344100952, 0.2997208535671234, -0.08259157836437225, -0.34790849685668945, 0.39523786306381226, 0.029017655178904533, -0.2528621256351471, 0.0945308655500412, -0.22702011466026306, -0.5412335991859436, -0.510419487953186, 0.1927911937236786, 0.18667227029800415, -0.5213862657546997, -0.2289956957101822, -0.10465638339519501, 0.13716234266757965, -0.40515878796577454, -0.1950518637895584, -0.09632904082536697, -0.1612209677696228, 0.08814223855733871, -0.3877699673175812, 0.13565637171268463, 0.07951474189758301, 0.10076428204774857, 0.16827932000160217, -0.1344970017671585, 0.44256266951560974, 0.15206211805343628, 0.06670539081096649, -0.10311387479305267, -0.2311330884695053, 0.11658700555562973, -0.10747233033180237, 0.038236211985349655, -0.382189005613327, 0.08237136155366898, -0.028240621089935303, -0.18820235133171082, -0.11775945872068405, -0.03929451107978821, 0.08134014159440994, -0.2558642625808716, 0.2968304753303528, -0.01297062262892723, -0.18870510160923004, -0.07125625759363174, 0.2481924593448639, 0.22517073154449463, -0.43733158707618713, -0.42221876978874207, -0.2407759577035904, 0.1294468194246292, 0.18086443841457367, -0.17067426443099976, -0.08691408485174179, -0.10555803030729294, -0.018640363588929176, 0.09363550692796707, 0.05148370936512947,
-0.29414328932762146, 0.07674345374107361, -0.21352770924568176, -0.22803901135921478, 0.0686824768781662, 0.2167213410139084, -0.1435379683971405, 0.28809240460395813, -0.05249729007482529, -0.3041577637195587, -0.18034033477306366, -0.2637297213077545, 0.3575113117694855, -0.01572643779218197, -0.1541943997144699, -0.5218642950057983, 0.033927470445632935, -0.3821223974227905, -0.004894169978797436, 0.3045574426651001, -0.05202560871839523, 0.11239342391490936, 0.1517900973558426, 0.03367669880390167, 0.400113970041275, 0.021475696936249733, 0.06390837579965591, -0.16969220340251923, -0.24558594822883606, -0.13631777465343475, 0.15321223437786102, 0.42300426959991455, -0.01775404065847397, 0.1749027669429779, -0.07232312858104706, -0.10278064757585526, 0.17369145154953003, 0.06730067729949951, 0.5212616324424744, -0.12579594552516937, 0.10795702040195465, -0.08237413316965103, -0.07696207612752914, 0.025869105011224747, -0.3155592381954193, 0.08847041428089142, -0.16495275497436523, 0.01024384330958128, 0.0963289737701416, -0.032863713800907135, -0.22479578852653503, 0.19417722523212433, 0.26601648330688477, 0.16332213580608368, -0.2904811203479767, -0.5235686898231506, 0.1269075870513916, 0.21490789949893951, -0.09045819938182831, -0.2657996118068695, 0.17729584872722626, 0.31184664368629456, -0.3029038906097412, -0.2520633041858673,
-0.21107488870620728, -0.15245476365089417, 0.13990309834480286, 0.09367290139198303, 0.07617582380771637, -0.3746245205402374, -0.15326103568077087, 0.45553719997406006, -0.567379891872406, 0.1274438351392746, 0.19039283692836761, 0.009183341637253761, -0.4185815155506134, 0.21735671162605286, -0.018449608236551285, -0.4092767536640167, 0.11981140077114105, 0.056190673261880875, -0.23276743292808533, 0.06976667791604996, -0.5779837369918823, 0.2936204671859741, 0.12148665636777878, 0.21436195075511932, 0.15624554455280304, -0.16230179369449615, 0.07645832747220993, -0.03149842470884323, -0.14800789952278137, 0.1272217184305191, 0.12381099164485931, -0.13758164644241333, 0.0574226975440979, -0.010764369741082191, 0.0842851996421814, 0.025721745565533638, 0.08967956900596619, -0.06416302919387817, 0.16145838797092438, -0.19571059942245483, 0.15086527168750763, 0.3612426817417145, 0.01696769706904888, 0.3827635645866394, -0.27753493189811707, 0.1636597365140915, 0.18663519620895386, 0.08776385337114334, -0.14297646284103394, -0.45493084192276, -0.2422555387020111, 0.09682434052228928, -0.18637821078300476, -0.015193664468824863, 0.08405245840549469, 0.0098840007558465, 0.4378773868083954, 0.02008221670985222, -0.19967475533485413, 0.4758930504322052, -0.2949818968772888, -0.2141687273979187, 0.16952559351921082, -0.22389645874500275,
0.09255868196487427, 0.021937184035778046, -0.3451912999153137, -0.17452934384346008, 0.0866452157497406, 0.014910700730979443, 0.10721120983362198, 0.2768997848033905, -0.13866926729679108, -0.034342166036367416, 0.0062677995301783085, -0.022554868832230568, 0.029803480952978134, 0.008734564296901226, 0.18788230419158936, -0.15227103233337402, -0.37350764870643616, -0.38844650983810425, -0.20199276506900787, -0.09856845438480377, -0.28767338395118713, 0.3575967252254486, 0.38992902636528015, -0.19214248657226562, -0.27233436703681946, 0.018350837752223015, -0.48779311776161194, 0.2765294909477234, -0.06820444017648697, 0.01723290979862213, -0.18502964079380035, -0.10951295495033264, 0.048244040459394455, -0.02286158688366413, 0.11100274324417114, -0.09169399738311768, 0.07271752506494522, -0.22056333720684052, -0.1745937466621399, -0.17970463633537292, -0.36731424927711487, -0.19192342460155487, 0.25791117548942566, 0.23211228847503662, 0.18848638236522675, -0.04483059421181679, 0.2659884989261627, 0.4031817615032196, -0.15446865558624268, 0.0071094161830842495, -0.04405596852302551, -0.20817448198795319, 0.05885767564177513, -0.27881214022636414, 0.49336981773376465, -0.11318809539079666, 0.14158205687999725, -0.19788622856140137, 0.18043114244937897, 0.028582165017724037, -0.18895770609378815, -0.1979741007089615, -0.3374954164028168, -0.23696953058242798,
-0.07207083702087402, 0.14638999104499817, -0.059238165616989136, 0.1087895929813385, -0.23100560903549194, 0.1263294368982315, 0.1371944546699524, -0.3772578835487366, -0.28706467151641846, -0.21816065907478333, -0.3798549771308899, 0.170354962348938, -0.10958467423915863, 0.02635534480214119, -0.2937144637107849, 0.13687369227409363, 0.07665147632360458, -0.6399190425872803, -0.2633206844329834, 0.07542397826910019, 0.3473491072654724, 0.14472328126430511, -0.2849469482898712, -0.11363210529088974, 0.02716914936900139, -0.2556793987751007, -0.37052682042121887, 0.094582200050354, -0.053072743117809296, 0.3886025547981262, 0.18803410232067108, -0.11560025066137314, 0.17105722427368164, 0.07751157879829407, 0.186213418841362, 0.1208111122250557, 0.05104302614927292, -0.1981489062309265, -0.05884327366948128, -0.14027073979377747, -0.1736978441476822, -0.21247366070747375, 0.21143391728401184, -0.12309657037258148, -0.3017752468585968, 0.2610373795032501, -0.11359872668981552, -0.03279963880777359, -0.4777814745903015, -0.05780467763543129, -0.0671728253364563, -0.010833986103534698, 0.19323615729808807, -0.009112072177231312, -0.25511080026626587, -0.10275992751121521, -0.13546423614025116, 0.1914229840040207, 0.17484617233276367, -0.06303688883781433, 0.02363770455121994, 0.05745575204491615, 0.09201563894748688, -0.06567525863647461,
-0.11404915153980255, 0.14750371873378754, -0.04427449032664299, 0.3847161829471588, 0.07131561636924744, 0.15450221300125122, -0.49090734124183655, 0.589684247970581, -0.2646600008010864, -0.11689461022615433, -0.0831608772277832, 0.05310676619410515, 0.10046330839395523, 0.0489548034965992, -0.2421584576368332, 0.152191162109375, -0.10649306327104568, -0.0016573568573221564, 0.20368680357933044, -0.20464162528514862, 0.037554629147052765, -0.13722580671310425, 0.12416545301675797, -0.012094489298760891, -0.13361351191997528, -0.1642175316810608, -0.29719996452331543, -0.07093022763729095, 0.20471099019050598, -0.26027506589889526, 0.4368617534637451, -0.17233681678771973, -0.07657913118600845, 0.11429937183856964, -0.15946559607982635, 0.1604059934616089, 0.027759352698922157, 0.16502900421619415, 0.10073487460613251, -0.1273835301399231, 0.054436635226011276, 0.07292371243238449, 0.1298910230398178, -0.39555150270462036, 0.16612575948238373, 0.04067898169159889, 0.25803157687187195, 0.18041346967220306, 0.12235508114099503, 0.37373676896095276, 0.009036600589752197, -0.1445997953414917, 0.05582087114453316, 0.28271856904029846, -0.06434953957796097, 0.25022220611572266, 0.09102431684732437, 0.1323171854019165, -0.21743720769882202, 0.4447212517261505, -0.2981981337070465, -0.01263278815895319, -0.359590619802475, 0.0671328753232956,
-0.3789318799972534, 0.4097175896167755, 0.17847970128059387, 0.18331071734428406, -0.12954267859458923, -0.30230656266212463, 0.26377272605895996, 0.008585337549448013, 0.1318008154630661, 0.249813050031662, 0.41965052485466003, 0.13245432078838348, 0.19635047018527985, 0.2163727879524231, -0.23227986693382263, 0.15045614540576935, 0.2794570028781891, -0.013843773864209652, -0.03542755916714668, 0.014551776461303234, 0.17907533049583435, -0.042312733829021454, 0.17453114688396454, -0.10089002549648285, 0.203521728515625, -0.45848143100738525, 0.06940870732069016, -0.3646986186504364, 0.32763007283210754, 0.08429624140262604, -0.286465585231781, -0.1346607357263565, 0.26503559947013855, 0.011621266603469849, -0.11914502084255219, -0.054126251488924026, -0.004276095889508724, 0.1318090558052063, -0.06516198813915253, 0.005329853389412165, -0.21085552871227264, 0.14685937762260437, -0.2840120494365692, -0.2977587580680847, -0.06498487293720245, -0.251558393239975, 0.03549458459019661, -0.022668102756142616, -0.1765661984682083, 0.256905198097229, 0.19425788521766663, -0.411245197057724, 0.08699837327003479, 0.008956927806138992, -0.17430074512958527, 0.08866715431213379, 0.019065814092755318, 0.05478568747639656, -0.15280306339263916, 0.07023803144693375, 0.6145330667495728, 0.017903275787830353, 0.19969503581523895, -0.27142393589019775,
-0.09908747673034668, 0.06634294241666794, -0.20392824709415436, 0.18704737722873688, 0.1971806436777115, -0.17834685742855072, -0.0012581232003867626, 0.17980708181858063, 0.01830299198627472, 0.08864641189575195, 0.3117936849594116, 0.11857201159000397, -0.08071822673082352, -0.04486526548862457, 0.029386235401034355, -0.2905809283256531, -0.12212520092725754, 0.1573277860879898, 0.11360368877649307, -0.0541292205452919, -0.10655015707015991, 0.291536808013916, 0.1634136140346527, 0.08988974988460541, 0.07106222957372665, 0.23860172927379608, -0.017003411427140236, 0.01318337582051754, 0.3027169108390808, 0.11232125759124756, 0.25974565744400024, 0.28759515285491943, -0.25746846199035645, -0.24196270108222961, -0.031771060079336166, 0.015264660120010376, -0.16978426277637482, -0.07181954383850098, 0.21207726001739502, 0.28944331407546997, 0.05658915638923645, -0.1692064106464386, 0.01679684966802597, 0.01558072492480278, -0.23813508450984955, 0.09409128129482269, -0.00708707794547081, 0.14161720871925354, -0.39449939131736755, -0.39965277910232544, -0.2800220251083374, -0.20805637538433075, 0.24818305671215057, 0.15402506291866302, -0.11616476625204086, 0.4047434628009796, -0.20607531070709229, -0.08018388599157333, -0.012454619631171227, 0.08822361379861832, -0.304902583360672, 0.4676218330860138, -0.07648760825395584, -0.40569165349006653,
-0.00504842447116971, 0.2517724335193634, -0.043055519461631775, 0.029409997165203094, 0.18019495904445648, 0.09705429524183273, -0.2854059636592865, 0.23387733101844788, 0.00690828962251544, -0.23723170161247253, -0.5891409516334534, 0.08615347743034363, -0.1250300407409668, -0.28042072057724, 0.005436886567622423, -0.13836966454982758, 0.13586834073066711, 0.09165310114622116, 0.2046109139919281, -0.1818731427192688, 0.1892443597316742, 0.11641215533018112, -0.04950688034296036, 0.027041016146540642, -0.10146179795265198, -0.5029523372650146, -0.2401040494441986, 0.0633196011185646, 0.1461191177368164, 0.1373363733291626, -0.009181996807456017, 0.1829412877559662, 0.19190889596939087, -0.0787341445684433, 0.16539286077022552, 0.3050055205821991, -0.08202464878559113, -0.16451238095760345, 0.08945921063423157, -0.058008842170238495, -0.0024021149147301912, 0.29213109612464905, 0.1284802407026291, 0.0752137303352356, -0.3146849572658539, -0.4664973020553589, -0.09253917634487152, 0.19680742919445038, -0.0998624712228775, -0.08189242333173752, -0.009931902401149273, 0.04125853627920151, 0.24703837931156158, 0.31398168206214905, 0.2923624813556671, 0.1998601108789444, 0.1682850867509842, 0.20166455209255219, -0.331531286239624, -0.49112385511398315, 0.05299649015069008, -0.0233633890748024, -0.013452330604195595, -0.2882673740386963,
-0.012461191043257713, 0.2266891896724701, -0.18633058667182922, 0.10398925840854645, 0.19590984284877777, 0.02673875167965889, -0.04773489013314247, 0.7906251549720764, -0.198052316904068, -0.2737562954425812, -0.5180463194847107, -0.05622806400060654, 0.0027327327989041805, -0.10218477994203568, 0.1170162558555603, -0.3111584484577179, -0.04106451943516731, 0.10895555466413498, -0.12400590628385544, -0.06562107056379318, 0.0449221134185791, -0.23114122450351715, -0.13281075656414032, 0.05585852265357971, -0.054702699184417725, -0.17076990008354187, 0.03241731598973274, 0.16126109659671783, -0.19807733595371246, -0.30220234394073486, -0.17992208898067474, 0.02869001403450966, -0.095899797976017, -0.21816132962703705, 0.0737140104174614, 0.24062904715538025, -0.17521069943904877, -0.274297297000885, 0.12106098234653473, 0.14144589006900787, -0.1791342794895172, -0.20824818313121796, -0.036648597568273544, -0.013219209387898445, 0.019601525738835335, -0.013094821013510227, 0.24934087693691254, 0.12155120074748993, -0.11923307180404663, 0.12110603600740433, 0.20062173902988434, -0.07305406033992767, -0.19284962117671967, -0.7143414616584778, 0.067585289478302, 0.18319687247276306, -0.02361118420958519, 0.14234140515327454, -0.19379466772079468, -0.30100879073143005, -0.6254680156707764, 0.019562911242246628, 0.08740327507257462, -0.24972116947174072,
0.012790031731128693, -0.12021186947822571, -0.33460116386413574, -0.2627694308757782, -0.22898104786872864, -0.19249370694160461, -0.14416922628879547, 0.06333497166633606, 0.016535285860300064, 0.23357075452804565, -0.2190699428319931, -0.0025356768164783716, -0.06990642845630646, 0.29755687713623047, 0.3334311246871948, 0.08635671436786652, -0.03651786595582962, 0.38926437497138977, 0.10221192240715027, 0.28954237699508667, -0.05480852350592613, -0.024370664730668068, 0.34524205327033997, -0.3150259852409363, 0.13261966407299042, 0.08449859172105789, -0.36314260959625244, 0.07493768632411957, 0.15136857330799103, 0.25391680002212524, -0.2023618072271347, -0.5957241654396057, 0.10288611054420471, 0.5285126566886902, -0.04601166024804115, 0.11225881427526474, 0.2984579801559448, 0.15714715421199799, -0.035895928740501404, 0.010742676444351673, 0.10849199444055557, -0.045059870928525925, -0.20016144216060638, -0.06100866198539734, 0.17215149104595184, -0.10414499044418335, -0.0017453948967158794, -0.15823572874069214, -0.40125811100006104, -0.062219779938459396, 0.1259518712759018, -0.044920310378074646, -0.052441053092479706, 0.022446757182478905, -0.061988312751054764, -0.12161482125520706, 0.25588542222976685, -0.3932177722454071, 0.07997024804353714, 0.16461685299873352, -0.030453216284513474, -0.1544605940580368, 0.00591568648815155, -0.034786488860845566,
0.13891014456748962, -0.1885181963443756, 0.12289242446422577, 0.2214846909046173, -0.4101178050041199, 0.03397728130221367, -0.1466648131608963, -0.10985209047794342, 0.04543154686689377, 0.26251327991485596, 0.049213483929634094, 0.2093547284603119, 0.22347000241279602, 0.11823288351297379, -0.11219088733196259, 0.008235989138484001, -0.1395053118467331, 0.01692422293126583, 0.029244445264339447, 0.09538917988538742, -0.1114368811249733, 0.3384958803653717, 0.2698512077331543, -0.10402034223079681, -0.3213560879230499, -0.34509938955307007, -0.0956386923789978, -0.42458686232566833, -0.39379778504371643, -0.12414632737636566, 0.26922062039375305, -0.03433854505419731, 0.3753059208393097, -0.08471676707267761, 0.01769997365772724, -0.6968604326248169, 0.37457019090652466, 0.24675697088241577, 0.008539426140487194, -0.16588115692138672, -0.09831968694925308, -0.09931665658950806, -0.24318066239356995, -0.20203067362308502, -0.1957980841398239, -0.3158670663833618, 0.07533296942710876, -0.17790018022060394, 0.4010128378868103, -0.061430372297763824, -0.07907463610172272, -0.21601082384586334, 0.17580397427082062, -0.09233861416578293, 0.21557895839214325, 0.15279348194599152, -0.4967106282711029, -0.2197570651769638, -0.2976652979850769, -0.33481624722480774, 0.10375963151454926, 0.15969054400920868, 0.30782243609428406, 0.05729255452752113,
-0.10094264894723892, -0.2552027106285095, -0.12584882974624634, 0.18318399786949158, 0.3163888156414032, 0.3008088767528534, -0.0265792366117239, 0.010330510325729847, 0.06999485939741135, -0.28811654448509216, -0.06566563248634338, -0.03687252476811409, 0.2467181384563446, -0.1589592844247818, -0.07999629527330399, -0.022547872737050056, -0.04160911589860916, -0.33412298560142517, 0.2740040719509125, 0.19404645264148712, -0.31711071729660034, -0.37917667627334595, 0.13734599947929382, 0.024628974497318268, 0.23993758857250214, -0.02423946186900139, -0.1653909981250763, 0.12289316207170486, 0.13987261056900024, 0.26556217670440674, -0.00764769921079278, 0.0013405727222561836, 0.0676402673125267, -0.3280419409275055, -0.03046923503279686, -0.14793181419372559, -0.3026072382926941, -0.27720099687576294, -0.3142845034599304, 0.08391880244016647, 0.18571938574314117, -0.1671009063720703, 0.21261365711688995, -0.18608635663986206, -0.12761777639389038, 0.02166161686182022, 0.03783115744590759, -0.5751567482948303, -0.06465664505958557, 0.21385999023914337, -0.16916924715042114, 0.4007716476917267, -0.08647975325584412, -0.1743326336145401, -0.047217391431331635, -0.01518598198890686, -0.5365583896636963, 0.015609348192811012, 0.21312054991722107, 0.05461573600769043, 0.35158252716064453, 0.2885657250881195, 0.4090203046798706, 0.008745457977056503,
-0.2616618573665619, -0.3129064738750458, 0.4243946969509125, -0.15608172118663788, -0.10618013143539429, -0.01426755916327238, 0.14705219864845276, -0.06701648980379105, 0.0008626027265563607, -0.41891247034072876, -0.4379032850265503, 0.18393826484680176, -0.03285437449812889, -0.02518135868012905, -0.05634697899222374, 0.33730030059814453, -0.14344625174999237, -0.2144632488489151, -0.4025852084159851, -0.409811407327652, -0.008923109620809555, 0.29692867398262024, 0.0988132581114769, -0.4082518219947815, -0.00024114453117363155, 0.02159000374376774, 0.25341853499412537, -0.47452613711357117, 0.09130267053842545, -0.13124847412109375, -0.08933465927839279, -0.1394539475440979, 0.14505992829799652, 0.11176929622888565, 0.2447672188282013, -0.11909516155719757, -0.21611234545707703, -0.14659662544727325, -0.17221900820732117, 0.2103959619998932, 0.17840616405010223, -0.08412110060453415, -0.08245571702718735, 0.0645395815372467, 0.17104294896125793, 0.07396058738231659, -0.14768046140670776, 0.2455713301897049, 0.0952419862151146, 0.017953716218471527, 0.2183350920677185, 0.23411785066127777, -0.0534859299659729, -0.1271028071641922, -0.3866915702819824, 0.08372437208890915, 0.12914007902145386, 0.06007617339491844, 0.13938339054584503, 0.02285980060696602, 0.3028424084186554, 0.2542780041694641, 0.3969494104385376, 0.27571532130241394,
-0.1133192628622055, 0.21053747832775116, -0.10869543999433517, -0.18626336753368378, 0.11927108466625214, 0.29315894842147827, -0.15319576859474182, 0.2243834137916565, 0.2220350056886673, -0.05564039200544357, -0.4798634648323059, -0.3635798990726471, -0.14702264964580536, -0.43643617630004883, 0.28180038928985596, 0.08258552849292755, -0.026712652295827866, -0.09892405569553375, -0.07348208129405975, 0.044704169034957886, 0.416659414768219, 0.22980690002441406, -0.2427460253238678, 0.09797915816307068, 0.14813104271888733, -0.08834973722696304, -0.3144937753677368, 0.15230461955070496, -0.013542911037802696, 0.05393541604280472, 0.21446718275547028, 0.06121862307190895, -0.13345076143741608, -0.7062446475028992, -0.18398147821426392, 0.0592995248734951, -0.07323511689901352, -0.2524084448814392, -0.1210201233625412, -0.4324950575828552, -0.2894043028354645, 0.5212788581848145, 0.18685977160930634, -0.4159787893295288, -0.014006808400154114, 0.42204099893569946, -0.3139684200286865, -0.188005730509758, -0.6072797179222107, 0.34676989912986755, -0.25827470421791077, 0.0006054226541891694, 0.0507672093808651, -0.405485600233078, 0.06805063039064407, -0.12456762790679932, 0.05926812067627907, -0.3975016176700592, -0.18836304545402527, -0.5787765383720398, -0.26007941365242004, -0.2402637004852295, -0.13270540535449982, -7.627947343280539e-05,
0.23452679812908173, -0.17456035315990448, 0.056192122399806976, 0.07720690220594406, 0.2621997594833374, 0.09042127430438995, -0.13654474914073944, -0.0327615849673748, 0.005822250619530678, 0.2179463654756546, 0.20857203006744385, -0.3927449584007263, 0.14293049275875092, 0.18961720168590546, -0.147427037358284, -0.5410000681877136, -0.1783473789691925, 0.10148248076438904, -0.21533943712711334, -0.1802159696817398, -0.12307541072368622, -0.08375123143196106, -0.28132542967796326, 0.030293241143226624, 0.22051486372947693, -0.2769019603729248, -0.11968935281038284, 0.026182234287261963, 0.30678924918174744, 0.2813062369823456, 0.15933391451835632, 0.29792168736457825, -0.07534991204738617, 0.10991350561380386, -0.3102480173110962, 0.040436260402202606, 0.005919938907027245, 0.2127869576215744, -0.4148184359073639, -0.296246737241745, 0.18727616965770721, 0.06261412799358368, 0.32298389077186584, -0.11634644865989685, 0.13859127461910248, -0.027318207547068596, -0.013011720962822437, -0.17258502542972565, 0.25163623690605164, -0.0671645924448967, -0.15492603182792664, 0.468891978263855, 0.2173059582710266, -0.2165435254573822, -0.7632462382316589, -0.5591627955436707, 0.11854773759841919, 0.4046758711338043, 0.3554689884185791, -0.07136335223913193, -0.06508045643568039, 0.0656537190079689, -0.09491313248872757, -0.4074248969554901,
-0.1500994861125946, -0.38679438829421997, -0.08859182894229889, 0.29343298077583313, -0.028260307386517525, 0.010953936725854874, -0.1539893001317978, -0.12046283483505249, 0.3173074722290039, -0.1055077388882637, 0.23783151805400848, 0.28366705775260925, 0.11247355490922928, -0.20134419202804565, -0.18794870376586914, 0.04877956211566925, 0.24609288573265076, 0.07886609435081482, -0.04738261178135872, -0.11961021274328232, 0.25675222277641296, -0.05612930282950401, 0.2686583697795868, 0.02584890089929104, -0.13510610163211823, 0.0651988685131073, -0.5155639052391052, -0.23249556124210358, 0.23951271176338196, 0.08379508554935455, 0.02779672108590603, 0.20687510073184967, -0.4038250744342804, 0.13342814147472382, 0.42342934012413025, 0.19658492505550385, 0.3306322395801544, -0.26549822092056274, -0.024202320724725723, 0.10298515111207962, -0.2751193344593048, 0.200661763548851, -0.3946942090988159, -0.27167022228240967, -0.06294067203998566, -0.04494407773017883, -0.07564499974250793, 0.0708923488855362, 0.41311898827552795, -0.19078193604946136, 0.23984627425670624, -0.09580102562904358, 0.13462209701538086, -0.0612148642539978, 0.15056519210338593, -0.3207728862762451, 0.021139590069651604, -0.1304534673690796, 0.00486519280821085, 0.4129492938518524, 0.154031902551651, -0.0006496406276710331, 0.2762119174003601, -0.15782248973846436,
0.18031173944473267, 0.10732656717300415, 0.1949716955423355, 0.27804872393608093, -0.27267149090766907, -0.21306507289409637, 0.07712230086326599, 0.06077611818909645, -0.1548495888710022, -0.05875943601131439, -0.08114661276340485, 0.009401051327586174, -0.1194511353969574, -0.25023436546325684, 0.06497855484485626, -0.17501570284366608, -0.08065956085920334, -0.4006737172603607, -0.29804784059524536, -0.07169967889785767, -0.5024216175079346, -0.1250646561384201, -0.12752576172351837, -0.1233505979180336, 0.5633484721183777, 0.09413003921508789, -0.011748593300580978, -0.22703702747821808, -0.14553427696228027, -0.29069462418556213, 0.15781329572200775, 0.09337393939495087, -0.32950493693351746, -0.15780694782733917, -0.006612197961658239, 0.22151628136634827, 0.024313179776072502, 0.36810019612312317, 0.10018053650856018, -0.17295478284358978, -0.17966119945049286, 0.07732747495174408, -0.17118002474308014, 0.1918884813785553, 0.02511131949722767, 0.3936474025249481, -0.030156027525663376, 0.001297838520258665, -0.12968933582305908, -0.23826348781585693, -0.08686996251344681, 0.04153348132967949, 0.07627514749765396, -0.24386127293109894, 0.1418125033378601, 0.1670050173997879, -0.20898295938968658, 0.014743980020284653, 0.3452651798725128, -0.3370784521102905, 0.14228057861328125, 0.09416469186544418, -0.2841983735561371, -0.3557402789592743,
-0.17515906691551208, -0.30811193585395813, -0.2099534422159195, 0.34169813990592957, 0.34608206152915955, 0.17420336604118347, -0.015414902940392494, -0.167168527841568, -0.13262438774108887, -0.23482771217823029, 0.1732684224843979, 0.21437594294548035, -0.08032361418008804, 0.22861309349536896, -0.08274436742067337, 0.3185519874095917, -0.1077786460518837, -0.09001262485980988, -0.14903953671455383, -0.17255333065986633, 0.0066497004590928555, 0.10224618017673492, -0.1600063294172287, 0.2230510711669922, -0.12548644840717316, -0.6227545142173767, -0.16117975115776062, 0.18405821919441223, -0.013375270180404186, -0.02073768898844719, -0.11738712340593338, -0.03632809966802597, -0.04835066944360733, 0.16908547282218933, -0.3418792486190796, 0.09324869513511658, -0.02202422544360161, 0.1491725742816925, 0.3856845498085022, -0.08034639060497284, -0.06938999146223068, 0.10619132965803146, 0.305948942899704, -0.05850685015320778, -0.12869498133659363, 0.14974379539489746, 0.11537317931652069, -0.014470917172729969, -0.20988425612449646, -0.45480066537857056, 0.4967910051345825, -0.02106219343841076, 0.1969062089920044, -0.37652137875556946, -0.054048214107751846, -0.15974192321300507, -0.6692396998405457, -0.07896499335765839, -0.04259432107210159, -0.19886979460716248, 0.1916874200105667, -0.14407648146152496, -0.1885729879140854, 0.004138854797929525,
-0.044770631939172745, 0.23858772218227386, -0.30190035700798035, 0.10074440389871597, -0.09718084335327148, -0.40525689721107483, 0.01926317624747753, -0.0015429125633090734, 0.17702405154705048, -0.3247341513633728, -0.004341709893196821, -0.061428070068359375, -0.13359643518924713, 0.3008752167224884, 0.0732453390955925, 0.057571038603782654, -0.005969078745692968, 0.07675228267908096, -0.2343524843454361, 0.030934233218431473, -0.04836214706301689, 0.04858119413256645, 0.00012234266614541411, 0.03974736109375954, 0.0939093604683876, 0.45745930075645447, 0.14963920414447784, -0.29922521114349365, 0.18738901615142822, 0.16446171700954437, -0.07437047362327576, 0.05867085978388786, -0.03843226656317711, 0.23622842133045197, -0.17977310717105865, -0.09195186197757721, -0.02701680175960064, 0.48127251863479614, 0.04085246101021767, 0.03331798315048218, 0.12201528251171112, 0.02751333825290203, 0.6138250231742859, 0.11472304910421371, -0.05916334316134453, -0.18087612092494965, -0.29853612184524536, -0.19113020598888397, 0.33804967999458313, -0.05260508134961128, -0.0020049342419952154, 0.052689481526613235, -0.06244828179478645, 0.00932577159255743, -0.017323965206742287, -0.055601075291633606, 0.13475331664085388, -0.38257497549057007, 0.11604011058807373, 0.06094922870397568, 0.07196656614542007, 0.0046292562037706375, 0.2738364040851593, -0.5338580012321472,
0.11117950081825256, -0.16421250998973846, 0.24572795629501343, -0.15382501482963562, -0.020638154819607735, -0.09323851764202118, -0.15025772154331207, 0.4212914705276489, -0.1845276951789856, 0.29267048835754395, -0.19537268579006195, 0.021935002878308296, 0.13580046594142914, 0.27462613582611084, -0.5015936493873596, 0.21702519059181213, -0.5890727639198303, 0.20615530014038086, -0.09254342317581177, 0.26796194911003113, -0.08951681107282639, 0.05952482298016548, 0.23102204501628876, 0.15239761769771576, -0.09374848753213882, -0.03188565373420715, -0.16643844544887543, -0.16661889851093292, 0.2085300087928772, 0.037583597004413605, 0.16530491411685944, 0.2344561666250229, -0.17502690851688385, 0.19658537209033966, 0.20362761616706848, -0.4662463366985321, 0.21682022511959076, -0.357412725687027, 0.043574050068855286, -0.13318298757076263, -0.3859230875968933, 0.3688744008541107, 0.21297802031040192, -0.45131218433380127, 0.02732858806848526, -0.11374147981405258, 0.039263058453798294, -0.04775287210941315, -0.21673591434955597, 0.050527118146419525, 0.1828964501619339, -0.08750804513692856, -0.20824651420116425, -0.05156634375452995, 0.11193118989467621, 0.2282615303993225, 0.1688598394393921, 0.36458587646484375, -0.3639514148235321, -0.0663708969950676, -0.06730829179286957, -0.1129450649023056, 0.12400665879249573, 0.10433582216501236,
0.07608729600906372, 0.08329734951257706, -0.21320976316928864, -0.033425673842430115, -0.10046640783548355, 0.14725960791110992, 0.061130866408348083, -0.03371742367744446, 0.21385593712329865, -0.23522303998470306, 0.07200958579778671, -0.056587234139442444, -0.3703213632106781, -0.2919766306877136, 0.31819480657577515, -0.02262147143483162, 0.07426123321056366, 0.00032423919765278697, -0.35933825373649597, 0.1141785979270935, -0.15939562022686005, 0.15956078469753265, 0.1445719599723816, 0.1654919534921646, 0.21718579530715942, -0.19945739209651947, 0.11748126894235611, 0.26059529185295105, 0.025561949238181114, -0.30251917243003845, -0.023045485839247704, -0.474353164434433, 0.0010816359426826239, 0.17410637438297272, -0.056978024542331696, -0.050480086356401443, -0.2319004386663437, -0.28022801876068115, -0.36951231956481934, 0.0394032783806324, -0.31577563285827637, -0.03000340797007084, 0.2720499634742737, -0.5474996566772461, 0.3866814970970154, -0.10997756570577621, 0.04505622386932373, -0.28266987204551697, -0.10469014942646027, -0.03882810100913048, -0.04560134559869766, 0.19334197044372559, -0.08898060768842697, 0.27108240127563477, 0.17987795174121857, 0.061516422778367996, -0.0638909637928009, 0.19496329128742218, -0.2048366218805313, -0.0467584989964962, -0.17688792943954468, -0.10549221932888031, -0.08949653804302216, 0.08358693867921829,
6.899768050061539e-05, 0.22194227576255798, 0.13839049637317657, 0.028821207582950592, 0.27335456013679504, 0.1564376801252365, -0.2414505034685135, -0.15220031142234802, -0.022603847086429596, -0.10313106328248978, -0.16227313876152039, 0.08955658972263336, 0.1523626744747162, -0.08991778641939163, 0.037350140511989594, -0.14319951832294464, 0.05659737065434456, 0.14306573569774628, -0.48473748564720154, 0.3997096121311188, -0.32076123356819153, 0.023389283567667007, 0.05795993655920029, -0.1619368940591812, 0.1248890683054924, 0.4195498526096344, 0.023797621950507164, -0.22194240987300873, -0.5250067710876465, -0.0599026121199131, 0.3376377522945404, -0.025708377361297607, -0.1562463790178299, 0.010787169449031353, -0.10012201219797134, 0.1484777331352234, 0.018183762207627296, -0.47823503613471985, -0.28505614399909973, -0.13018102943897247, 0.0074086119420826435, -0.04140113666653633, -0.028745874762535095, 0.39166459441185, 0.11307545006275177, -0.4439290165901184, -0.048208512365818024, 0.09009111672639847, -0.24497541785240173, -0.386233925819397, -0.3208002746105194, -0.41433635354042053, -0.2454657107591629, -0.16702915728092194, -0.2956436574459076, 0.25837624073028564, -0.2961898148059845, -0.014621952548623085, 0.2494846135377884, 0.13775816559791565, -0.11732872575521469, -0.11810477077960968, 0.01931869611144066, -0.17371679842472076,
0.15023145079612732, -0.01755828596651554, 0.014756575226783752, -0.022607360035181046, -0.24881196022033691, 0.009524553082883358, -0.025290673598647118, -0.17798081040382385, 0.11265897750854492, -0.058403629809617996, -0.11398634314537048, 0.14078091084957123, 0.04741566255688667, -0.2380169779062271, -0.0748668983578682, -0.1961607038974762, 0.04522377997636795, -0.0023163044825196266, -0.12373971194028854, 0.28975600004196167, 0.05062777176499367, 0.3210190534591675, -0.1048571988940239, -0.08034858107566833, 0.02147063799202442, -0.281065970659256, 0.18037070333957672, -0.2061622440814972, 0.2308015525341034, 0.05809611827135086, -0.06192139536142349, 0.043780770152807236, -0.09603080153465271, 0.5432529449462891, -0.9287402629852295, 0.05449659749865532, -0.03480186685919762, -0.21875540912151337, 0.001738638849928975, -0.01771235279738903, 0.04109671339392662, -0.6230068802833557, -0.12997135519981384, -0.0707082599401474, -0.4039602279663086, 0.08809413760900497, -0.3757650852203369, -0.013506840914487839, -0.051230333745479584, 0.2920930087566376, 0.15651708841323853, 0.5555519461631775, 0.11450760811567307, -0.3630729019641876, -0.14776286482810974, -0.11564163118600845, 0.4688568711280823, -0.04422055557370186, 0.4380373954772949, 0.17740921676158905, 0.005122879985719919, -0.31752681732177734, -0.06631922721862793, -0.22680100798606873,
0.2135056108236313, 0.16719383001327515, -0.12606941163539886, -0.44701993465423584, -0.38991883397102356, -0.042177483439445496, 0.053101979196071625, -0.022020552307367325, -0.14949843287467957, 0.2704816460609436, 0.2374904304742813, 0.3637212812900543, 0.06821849942207336, -0.048987362533807755, -0.04386354237794876, -0.01625632308423519, -0.06795734912157059, -0.4508729577064514, -0.10045147687196732, -0.29454731941223145, -0.04809414967894554, -0.14683879911899567, -0.12541963160037994, -0.3642338812351227, 0.2232062816619873, 0.20439669489860535, -0.16997846961021423, -0.019892241805791855, 0.02974514476954937, -0.25425195693969727, 0.23411045968532562, -0.19756092131137848, -0.2652846872806549, -0.43323057889938354, 0.07290182262659073, -0.13779786229133606, -0.23084667325019836, -0.2047012597322464, -0.018832584843039513, -0.1538684368133545, 0.05913414806127548, 0.1455330103635788, 0.21681593358516693, 0.15021862089633942, -0.22018225491046906, -0.4764309227466583, -0.06224862113595009, -0.04891708865761757, 0.21923938393592834, -0.08869125694036484, 0.3978337347507477, -0.017115836963057518, 0.12504620850086212, -0.12821179628372192, -0.1839085966348648, 0.24858348071575165, -0.003464129753410816, 0.19248150289058685, -0.0015190346166491508, -0.08652552217245102, 0.1042272299528122, -0.23933535814285278, 0.10696914047002792, 0.12172180414199829,
0.03703734651207924, 0.07246430963277817, 0.1603996306657791, -0.19805970788002014, -0.007868560031056404, 0.37534987926483154, 0.10884421318769455, -0.275084525346756, 0.09298428148031235, 0.030044520273804665, 0.06626292318105698, 0.12423713505268097, -0.2529073655605316, -0.07165560126304626, -0.01339782401919365, -0.03019028715789318, 0.035817790776491165, 0.5272937417030334, 0.16929714381694794, -0.22455546259880066, -0.09179230779409409, -0.008869914337992668, 0.32041576504707336, -0.10488251596689224, 0.3743763864040375, 0.043122172355651855, 0.0883730873465538, 0.009136158041656017, 0.44320058822631836, -0.19226661324501038, -0.16362574696540833, 0.09813500195741653, 0.1831149458885193, -0.019381113350391388, -0.3129624128341675, -0.0541846826672554, 0.1991012543439865, 0.2787696421146393, 0.3038674294948578, -0.2580264210700989, -0.16215114295482635, -0.6184217929840088, 0.20250780880451202, 0.2871812880039215, -0.20418612658977509, 0.20420442521572113, -0.20705343782901764, -0.028926076367497444, 0.08373363316059113, -0.01363458577543497, -0.08889144659042358, -0.00043075528810732067, -0.3459859788417816, 0.02070821449160576, -0.10578770935535431, 0.00015178602188825607, -0.03741556778550148, 0.11125834286212921, 0.0261582862585783, 0.09328169375658035, -0.15998314321041107, -0.13390915095806122, 0.02368944138288498, -0.022498702630400658,
0.04687691852450371, -0.02229536511003971, -0.034521035850048065, 0.11710143089294434, 0.26412951946258545, 0.10723759979009628, 0.05659801512956619, -0.22883674502372742, -0.18492057919502258, -0.34739983081817627, -0.12536005675792694, -0.1844249814748764, -0.5242210626602173, 0.21466882526874542, 0.1269848346710205, -0.3904685080051422, 0.09185971319675446, -0.1569289118051529, -0.017452426254749298, 0.15641112625598907, 0.34109583497047424, -0.3505423069000244, 0.2479248195886612, 0.09192810952663422, -0.046659428626298904, -0.08439188450574875, -0.00739337969571352, -0.3366120755672455, -0.09585873782634735, -0.1223396435379982, -0.08851086348295212, 0.10919316858053207, 0.028088605031371117, 0.09846305102109909, 0.009678258560597897, 0.29404735565185547, 0.1209331601858139, -0.12465288490056992, 0.08448189496994019, -0.010322180576622486, 0.13225579261779785, 0.13958224654197693, 0.09341733902692795, 0.09655734151601791, -0.18257953226566315, 0.16008782386779785, 0.27210724353790283, -0.0967693105340004, -0.32350343465805054, 0.2161693274974823, -0.3466891050338745, -0.11181142926216125, 0.1876046508550644, -0.4544280767440796, 0.05465836822986603, -0.041299961507320404, 0.2999051511287689, 0.05185573920607567, 0.0017265417845919728, -0.1454574018716812, -0.2865583598613739, 0.1509079784154892, -0.14069916307926178, 0.24965620040893555,
0.09935950487852097, 0.29181548953056335, -0.23591618239879608, 0.238979771733284, -0.11377181112766266, 0.13052402436733246, -0.5133207440376282, -0.35239899158477783, -0.01915624737739563, 0.28015291690826416, -0.17259001731872559, 0.14756232500076294, -0.3111625909805298, 0.21283406019210815, -0.03421085700392723, -0.20502254366874695, 0.21658949553966522, 0.18041223287582397, 0.14103855192661285, -0.27726057171821594, -0.5451574325561523, -0.0619964636862278, -0.050279129296541214, 0.16444939374923706, 0.07225047796964645, 0.1423780769109726, -0.10912206023931503, 0.2304593324661255, -0.02202342450618744, -0.06481614708900452, -0.2503608763217926, 0.04416709393262863, -0.24820154905319214, -0.13129134476184845, -0.08373234421014786, -0.6015284061431885, -0.49983763694763184, -0.17041122913360596, 0.11484402418136597, -0.009103057906031609, -0.014546060934662819, -0.05511217191815376, 0.032917965203523636, 0.09758270531892776, 0.079771026968956, 0.10821598023176193, -0.020834239199757576, -0.1848280131816864, -0.11564343422651291, 0.18967373669147491, 0.22591665387153625, -0.5378352403640747, 0.08191981166601181, 0.0657222792506218, 0.06209023669362068, -0.09179147332906723, -0.1404556930065155, 0.16168063879013062, 0.2951083481311798, 0.06856805086135864, -0.0797642394900322, -0.12274537980556488, -0.08710047602653503, -0.01166193000972271,
-0.10429611802101135, 0.12031073123216629, 0.21205957233905792, -0.3603140115737915, -0.2747832238674164, -0.16289645433425903, -0.10591960698366165, -0.07850360870361328, -0.31417369842529297, -0.23154370486736298, -0.057357680052518845, -0.07727847993373871, -0.030817130580544472, 0.10872384160757065, 0.08464392274618149, -0.42224007844924927, -0.4768063724040985, 0.08980115503072739, 0.04016011953353882, -0.19788648188114166, 0.28052082657814026, 0.17068088054656982, -0.1601012498140335, 0.11469613015651703, 0.057686369866132736, -0.11421801894903183, 0.4371665418148041, 0.027420038357377052, 0.10497096925973892, 0.14311544597148895, -0.4415394067764282, 0.03372674435377121, 0.05241580307483673, 0.0006347207818180323, 0.15341292321681976, -0.15297375619411469, 0.40133070945739746, -0.03335611894726753, -0.25662803649902344, 0.057978466153144836, -0.31132274866104126, -0.714553713798523, 0.05833711475133896, 0.13550788164138794, 0.2548152208328247, -0.11171448230743408, -0.08376754820346832, -0.8070371150970459, -0.2171400487422943, 0.02581474930047989, -0.011331028304994106, -0.006576439365744591, 0.3420848548412323, -0.21001499891281128, -0.5459035634994507, -0.02376984804868698, 0.2672000527381897, -0.15555539727210999, 0.13566023111343384, 0.21215003728866577, 0.06363140791654587, -0.3395947217941284, -0.31500717997550964, 0.0626804307103157,
-0.5136539340019226, 0.04921107366681099, 0.06895368546247482, 0.3142308294773102, -0.03949245810508728, 0.35346508026123047, -0.24866913259029388, 0.0673680379986763, 0.5539085865020752, 0.21094876527786255, -0.07728719711303711, -0.021323172375559807, -0.26460033655166626, 0.4962892532348633, -0.31397220492362976, -0.033475715667009354, 0.13792641460895538, -0.04907103627920151, -0.14819341897964478, 0.0493752583861351, 0.2465035617351532, 0.15684634447097778, -0.0548117533326149, -0.49654069542884827, 0.04225677251815796, 0.05920889601111412, -0.13473862409591675, -0.010594384744763374, -0.07846656441688538, 0.07163888216018677, -0.08218064159154892, 0.4525807201862335, -0.17902451753616333, 0.0854819044470787, -0.10974414646625519, -0.05986428260803223, -0.08416977524757385, 0.0013310573995113373, 0.1716010868549347, 0.1367531716823578, 0.2358846515417099, -0.09531190246343613, -0.3089573383331299, -0.40353283286094666, -0.2510567009449005, -0.2051665186882019, 0.15118950605392456, -0.19324837625026703, -0.24168875813484192, -0.15875425934791565, -0.23486123979091644, 0.2924036681652069, -0.11008615046739578, 0.028611663728952408, 0.13394290208816528, 0.0941782221198082, 0.40376147627830505, -0.055919867008924484, -0.18836021423339844, 0.009305880405008793, 0.10745763033628464, -0.006218139082193375, -0.2480114996433258, -0.15709206461906433,
0.15407191216945648, -0.03640670329332352, -0.33656808733940125, 0.2438761591911316, 0.4775732457637787, 0.15682393312454224, 0.1682652235031128, 0.28265827894210815, -0.015791071578860283, 0.33998268842697144, 0.021522725000977516, 0.09570576995611191, 0.2542039453983307, -0.08250615000724792, -0.5022444128990173, -0.14953576028347015, 0.007076060865074396, -0.15496781468391418, 0.12846918404102325, 0.02282050810754299, 0.23601345717906952, 0.15781866014003754, 0.2199833244085312, -0.3514910340309143, 0.07845913618803024, -0.0711693987250328, 0.030767733231186867, -0.3321203887462616, -0.1055048331618309, -0.4689387381076813, -0.00926526915282011, 0.1774846315383911, -0.20979741215705872, -0.15746864676475525, -0.1282905787229538, -0.042486611753702164, -0.3048282861709595, 0.05563155934214592, -0.06795383989810944, 0.07528797537088394, 0.1403665691614151, 0.08675732463598251, -0.14912979304790497, 0.030051445588469505, 0.06898614764213562, 0.16567787528038025, -0.38598474860191345, -0.22817343473434448, -0.011707344092428684, -0.46094682812690735, -0.16130289435386658, -0.262271523475647, -0.19561414420604706, 0.2684563100337982, -0.3661852180957794, -0.1965343952178955, 0.13332921266555786, 0.02628975920379162, 0.13085487484931946, -0.07452868670225143, 0.042115360498428345, -0.5928221344947815, -0.0913429707288742, -0.21111561357975006,
0.15699192881584167, 0.19646814465522766, 0.36231690645217896, -0.07395361363887787, -0.13641498982906342, -0.5984241962432861, 0.02306520752608776, -0.012769326567649841, 0.5822620391845703, 0.15657083690166473, -0.30280837416648865, 0.142385333776474, -0.16290991008281708, 0.19066256284713745, 0.2791993021965027, 0.03854992613196373, 0.03292945772409439, -0.19111669063568115, -0.2637358009815216, 0.045593954622745514, 0.05856168270111084, 0.17173850536346436, 0.32788336277008057, 0.15334802865982056, -0.030088108032941818, -0.26901113986968994, -0.056635066866874695, 0.28149718046188354, 0.08080136775970459, -0.07285866141319275, 0.004803862888365984, -0.2641330063343048, 0.13301260769367218, 0.1268499791622162, -0.0396907739341259, -0.07469495385885239, 0.03686989098787308, -0.30040910840034485, -0.07347529381513596, -0.28276029229164124, 0.03526218608021736, -0.16143274307250977, 0.2138053923845291, 0.11963886767625809, -0.14512856304645538, -0.20517119765281677, -0.04073668271303177, -0.07214570790529251, 0.0872202068567276, 0.09890978038311005, 0.10866868495941162, -0.07970865815877914, -0.17544910311698914, 0.2938825786113739, -0.14432252943515778, -0.361705482006073, -0.19372965395450592, -0.3963794410228729, 0.275389701128006, 0.15959887206554413, 0.1424684077501297, 0.017817188054323196, -0.29795512557029724, 0.15941789746284485,
-0.15804505348205566, 0.24736237525939941, 0.057390809059143066, 0.09062644094228745, 0.03766506537795067, 0.14155784249305725, 0.030217714607715607, 0.0967952311038971, -0.27304956316947937, 0.008563078008592129, -0.1863049566745758, -0.4424073100090027, -0.19631998240947723, 0.22657103836536407, 0.07201972603797913, 0.052979014813899994, 0.054001111537218094, -0.14127616584300995, 0.09137825667858124, 0.4984835684299469, -0.20272518694400787, -0.016156407073140144, 0.0720617026090622, -0.2591865658760071, -0.3277542293071747, -0.14464940130710602, -0.046534985303878784, -0.3102584779262543, 0.04901450499892235, -0.0695979967713356, -0.26935243606567383, -0.15103526413440704, -0.410546213388443, -0.30271115899086, 0.1984042525291443, 0.05968942865729332, -0.17418916523456573, 0.06235303729772568, 0.32358434796333313, 0.030777830630540848, 0.24136818945407867, 0.07332051545381546, 0.1529284566640854, -0.36638960242271423, -0.16085849702358246, 0.1783156543970108, 0.11732763051986694, -0.06986171752214432, 0.20638374984264374, -0.30236560106277466, -0.7351430654525757, -0.3010917603969574, -0.1773480325937271, 0.09462074935436249, 0.08070463687181473, -0.052878741174936295, -0.1933991014957428, -0.06910202652215958, 0.3152208626270294, 0.09615841507911682, -0.5958278775215149, -0.16948936879634857, 0.041883792728185654, -0.37374183535575867,
0.04405508190393448, -0.20496448874473572, -0.14814700186252594, -0.02664106711745262, -0.06450296938419342, 0.10795146971940994, 0.1141369566321373, 0.18637342751026154, -0.21236483752727509, -0.20473478734493256, 0.06422712653875351, 0.20893147587776184, 0.1165224239230156, 0.1653929501771927, 0.023156583309173584, 0.2798371911048889, 0.38782915472984314, -0.17306050658226013, -0.4002894163131714, -0.002782592084258795, -0.22791336476802826, -0.12274514138698578, 0.10948222130537033, -0.032273028045892715, -0.04805127903819084, -0.4452274441719055, 0.13942734897136688, -0.15464994311332703, 0.0731385126709938, 0.23915217816829681, -0.1531592160463333, 0.3037075996398926, -0.20580635964870453, -0.17975683510303497, -0.03657650947570801, -0.22220686078071594, 0.034020595252513885, 0.047589268535375595, -0.16820028424263, -0.17782168090343475, 0.12652626633644104, 0.20338456332683563, -0.269046813249588, 0.2832750678062439, -0.14666129648685455, -0.03085385262966156, -0.15480917692184448, 0.2229284644126892, -0.1818532943725586, -0.2822227478027344, 0.027065174654126167, 0.10146582871675491, -0.3378368318080902, 0.17321202158927917, -0.019243910908699036, -0.040536560118198395, 0.0541582927107811, 0.06733005493879318, 0.09697119891643524, 0.16983933746814728, -0.1890600025653839, 0.3911791145801544, 0.08975007385015488, 0.1521720290184021,
-0.20125488936901093, 0.1353728324174881, -0.48947516083717346, -0.23758062720298767, 0.3803331255912781, -0.1198052316904068, 0.11678501218557358, 0.16193361580371857, -0.08761632442474365, 0.23630376160144806, -0.17557315528392792, -0.10533289611339569, -0.25634080171585083, 0.004435114562511444, 0.5778324604034424, -0.07407602667808533, -0.37691530585289, -0.047035157680511475, -0.25578057765960693, -0.1883666217327118, -0.34680429100990295, 0.12983787059783936, 0.25662946701049805, 0.19952984154224396, 0.023177286610007286, 0.0958830937743187, -0.0024749140720814466, -0.1901613473892212, 0.08421982079744339, 0.14867103099822998, 0.35493963956832886, -0.045066799968481064, -0.35569143295288086, -0.07103129476308823, 0.059820566326379776, 0.0647614449262619, -0.017464950680732727, 0.13231338560581207, 0.007545842323452234, -0.06346482038497925, -0.26528382301330566, -0.2869352102279663, 0.0063801659271121025, 0.13620449602603912, 0.03864859789609909, -0.30101463198661804, 0.32201826572418213, -0.41642630100250244, -0.0025551433209329844, -0.0064036063849925995, 0.4342164397239685, -0.4840809106826782, -0.3059961795806885, 0.07069285959005356, 0.11274121701717377, -0.059737443923950195, -0.09865637123584747, 0.2530944049358368, 0.16218264400959015, 0.1894155591726303, -0.16558803617954254, -0.5154297351837158, -0.16496442258358002, -0.08622846752405167,
-0.08224740624427795, 0.18760214745998383, 0.09792459011077881, -0.14683233201503754, -0.2391110062599182, 0.2735655903816223, 0.43679025769233704, 0.19760330021381378, 0.42538368701934814, -0.021237751469016075, 0.05609305575489998, -0.07601658999919891, 0.09623624384403229, -0.17685306072235107, 0.1082921102643013, -0.08653949201107025, -0.46263861656188965, 0.20053543150424957, -0.35999763011932373, -0.003401427762582898, 0.08846589922904968, -0.4101405143737793, -0.10448918491601944, -0.015723735094070435, -0.2794276475906372, -0.19510172307491302, -0.17514917254447937, -0.15707702934741974, -0.2328943908214569, -0.017622284591197968, -0.2440454512834549, -0.14482241868972778, 0.09266052395105362, 0.22823746502399445, 0.11012861132621765, -0.14496460556983948, -0.010348014533519745, 0.09405774623155594, 0.19919846951961517, 0.0173842404037714, -0.0685390904545784, 0.39708271622657776, -0.025591012090444565, 0.17382864654064178, -0.22765807807445526, -0.028262294828891754, -0.3441866636276245, -0.2528364658355713, -0.16797028481960297, -0.07113750278949738, -0.30658209323883057, 0.29545092582702637, -0.43240928649902344, 0.33004871010780334, 0.320262610912323, 0.009307937696576118, 0.26862165331840515, -0.10235733538866043, -0.005857544951140881, 0.23725773394107819, 0.18551185727119446, 0.16343368589878082, 0.2606457471847534, -0.01978331245481968,
0.1711522489786148, 0.32582053542137146, 0.09937027096748352, -0.060253042727708817, 0.3087034225463867, -0.08793363720178604, -0.5103757381439209, -0.07312320172786713, -0.05200965702533722, -0.3427305221557617, 0.07202263921499252, -0.15225417912006378, -0.33206281065940857, 0.008272376842796803, -0.26379188895225525, -0.050137750804424286, -0.5577440857887268, 0.04263127222657204, -0.36786597967147827, 0.14343710243701935, 0.007266291417181492, 0.09490226954221725, -0.15176957845687866, 0.30356451869010925, 0.25949403643608093, -0.021048085764050484, -0.04792386293411255, -0.24089494347572327, -0.10166753828525543, -0.4219038486480713, -0.11801615357398987, -0.2715204060077667, 0.08631572872400284, -0.6055363416671753, -0.30435022711753845, -0.11931580305099487, -0.3338240683078766, 0.2177640199661255, -0.3510304093360901, 0.0963946208357811, 0.00481207063421607, -0.19990624487400055, -0.4350689947605133, 0.05155627429485321, -0.06120007485151291, 0.0671703889966011, -0.0035925882402807474, 0.1282893270254135, -0.30983421206474304, -0.14149051904678345, 0.3279818892478943, -0.21960105001926422, -0.03251747786998749, -0.14004281163215637, 0.10152823477983475, -0.082452192902565, -0.3528059124946594, -0.010131199844181538, 0.22235020995140076, 0.05921049043536186, -0.14077676832675934, 0.007695284206420183, 0.1873873919248581, -0.3278124928474426,
-0.2603309750556946, 0.35195067524909973, 0.19553561508655548, -0.1530437022447586, -0.09521914273500443, -0.12777073681354523, -0.06937044858932495, -0.057668011635541916, -0.29618123173713684, 0.07127472013235092, -0.04544418677687645, 0.055960763245821, -0.44808483123779297, -0.4054926335811615, -0.2231495976448059, 0.14715994894504547, 0.4441165328025818, 0.07542741298675537, 0.1569346934556961, -0.3321593999862671, 0.23755453526973724, 0.2420353889465332, -0.0707654133439064, -0.2851303219795227, 0.0691666379570961, 0.021358303725719452, -0.275996595621109, -0.7290334701538086, -0.37810444831848145, 0.34138673543930054, -0.16986173391342163, -0.050036802887916565, -0.065838523209095, 0.05239959433674812, -0.005288738291710615, -0.025308256968855858, 0.1011117696762085, -0.32782667875289917, 0.20606811344623566, 0.2461620271205902, -0.2731449604034424, 0.1292058676481247, 0.3136216402053833, -0.09021010994911194, -0.40152764320373535, 0.027982788160443306, 0.21752558648586273, -0.010178375989198685, -0.17162646353244781, 0.1579430252313614, -0.45207348465919495, -0.1381424367427826, -0.16998843848705292, -0.3408656716346741, -0.015332888811826706, -0.26402658224105835, -0.4511537253856659, -0.37253010272979736, 0.14460472762584686, -0.24214521050453186, -0.07846452295780182, 0.4094669818878174, 0.049123138189315796, 0.17964985966682434,
-0.05958959087729454, -0.44326144456863403, -0.1002952978014946, -0.21385690569877625, -0.03974916785955429, 0.03770984709262848, 0.25198420882225037, -0.24690832197666168, 0.04547641798853874, 0.13785304129123688, -0.21305659413337708, 0.10198399424552917, -0.200936958193779, -0.23460255563259125, 0.2055562138557434, -0.4722413420677185, -0.06650914251804352, -0.21671372652053833, 0.1994296908378601, 0.18081025779247284, -0.05350984260439873, -0.018238142132759094, -0.5489462614059448, 0.09152720123529434, 0.2511255741119385, -0.02913910709321499, -0.02179664745926857, -0.00665637431666255, -0.14840294420719147, -0.09273002296686172, 0.09697286039590836, 0.5452987551689148, 0.17823272943496704, -0.1212945505976677, -0.13223804533481598, -0.02860587276518345, 0.14092490077018738, -0.36363914608955383, -0.04705141857266426, -0.05911385267972946, 0.2711506485939026, -0.24396547675132751, 0.4167914390563965, -0.12387235462665558, 0.32095253467559814, -0.15090562403202057, -0.05779431015253067, 0.2605225443840027, -0.11549261957406998, 0.07827161252498627, 0.12158917635679245, -0.21484173834323883, -0.050820816308259964, -0.2370634824037552, -0.5501497983932495, -0.16372326016426086, -0.24539245665073395, -0.18440140783786774, 0.114962637424469, 0.2547719478607178, 0.31347596645355225, -0.11531785875558853, -0.23037448525428772, -0.06956291943788528,
-0.046311475336551666, -0.03098450042307377, 0.25168249011039734, -0.004926648922264576, 0.16314725577831268, -0.05681956559419632, 0.31635338068008423, -0.0017030457966029644, -0.02180430106818676, -0.3074267506599426, 0.12885257601737976, 0.01347876712679863, 0.07994172722101212, -0.15522661805152893, 0.06297328323125839, 0.06594052165746689, 0.1120457723736763, 0.0007536665652878582, -0.13122551143169403, -0.07332726567983627, -0.03461117669939995, -0.04347383603453636, -0.09067227691411972, 0.3068126440048218, 0.3967200219631195, 0.1282770037651062, -0.2811634838581085, -0.09250597655773163, -0.27619343996047974, -0.0533282533288002, 0.011459045112133026, -0.5289396643638611, 0.1544451266527176, -0.14794018864631653, 0.0750093162059784, -0.3267185688018799, -0.16918568313121796, -0.22623249888420105, 0.26155227422714233, -0.35747918486595154, 0.14579148590564728, -0.19239065051078796, -0.041912470012903214, -0.2637002766132355, 0.29769569635391235, -0.2468632608652115, -0.08460091054439545, -0.14977002143859863, 0.0025834268890321255, -0.10191743075847626, -0.017945704981684685, -0.13053590059280396, 0.15517613291740417, -0.10267656296491623, 0.03180105984210968, 0.18080663681030273, 0.49321645498275757, -0.06228051334619522, 0.006458639167249203, -0.3219018280506134, -0.3616041839122772, -0.083588607609272, -0.4840969145298004, -0.00558199267834425,
-0.22053517401218414, -0.1798371970653534, 0.1673792004585266, -0.11792024970054626, 0.03303297609090805, 0.014841439202427864, -0.35391461849212646, 0.23105530440807343, 0.10128245502710342, 0.15695692598819733, 0.0991087406873703, -0.3586804270744324, 0.0765276849269867, -0.019167566671967506, -0.1233377605676651, -0.017994258552789688, 0.07553081959486008, -0.15027092397212982, -0.012997789308428764, 0.0042029148899018764, -0.07150141894817352, 0.16824324429035187, -0.03753884509205818, -0.38467463850975037, -0.24977895617485046, 0.07122451812028885, -0.2630714774131775, -0.08513282239437103, -0.008195499889552593, -0.210087850689888, 0.019102849066257477, -0.04665471240878105, -0.03342075273394585, 0.8073613047599792, -0.27486419677734375, -0.16447113454341888, 0.09663974493741989, -0.35863834619522095, 0.18495522439479828, 0.15573641657829285, -0.3330283761024475, 0.16645482182502747, -0.10019542276859283, 0.03443621098995209, -0.27495265007019043, -0.14992454648017883, -0.2144758254289627, -0.20780988037586212, 0.24412240087985992, -0.015665292739868164, 0.09543139487504959, -0.2829160690307617, 0.14268919825553894, 0.3321700096130371, -0.5209726095199585, 0.2228015959262848, 0.13360808789730072, -0.21881692111492157, 0.15728682279586792, 0.06392262130975723, 0.16379451751708984, 0.018785910680890083, 0.20080186426639557, -0.1417624056339264,
-0.01755267009139061, 0.142152801156044, -0.2525351941585541, -0.23940663039684296, 0.05766436085104942, -0.3120746314525604, 0.03545115515589714, 0.020939597859978676, 0.26950985193252563, 0.07987606525421143, 0.1675395369529724, 0.13564737141132355, 0.040151190012693405, 0.2520664632320404, 0.044581182301044464, -0.29486146569252014, -0.04448292776942253, 0.14704394340515137, -0.19992472231388092, -0.21158698201179504, -0.7950582504272461, 0.003802597988396883, -0.24057042598724365, -0.4209873080253601, -0.1413983851671219, 0.10951004177331924, 0.21253126859664917, -0.5048954486846924, 0.145660862326622, 0.08433520048856735, 0.05905880406498909, -0.30990925431251526, 0.4468296468257904, 0.19684116542339325, -0.021585403010249138, 0.23536503314971924, -0.018399259075522423, -0.09377280622720718, 0.0408230721950531, 0.2870817482471466, -0.08492767065763474, 0.015988241881132126, 0.03704505413770676, -0.11758345365524292, 0.09617728739976883, -0.09900292754173279, -0.2603759467601776, -0.3044818341732025, 0.07080569863319397, -0.1498837023973465, -0.12008082866668701, 0.03389519453048706, 0.06819161027669907, 0.016901860013604164, -0.20915967226028442, -0.30733031034469604, 0.2277560979127884, -0.10517142713069916, 0.5203406810760498, 0.157520592212677, -0.4860353171825409, -0.17628704011440277, 0.010337603278458118, -0.0045820195227861404,
-0.0982276126742363, -0.16040872037410736, -0.07880311459302902, 0.06961598247289658, 0.08001281321048737, -0.3467729687690735, 0.03150426968932152, -0.27620816230773926, 0.08853137493133545, -0.06066591665148735, 0.21018914878368378, -0.13844101130962372, -0.055989786982536316, -0.10412634909152985, -0.5585406422615051, -0.31297576427459717, -0.21135292947292328, 0.07264674454927444, 0.0015342938713729382, 0.11602018028497696, -0.3280891180038452, -0.17073507606983185, 0.35113197565078735, -0.20596367120742798, -0.00979074276983738, -0.21668261289596558, 0.1852826625108719, 0.17139272391796112, 0.05297891050577164, 0.08920037746429443, 0.35158950090408325, 0.35870686173439026, 0.2766767740249634, -0.12158959358930588, 0.013021348044276237, -0.06658074259757996, -0.021537527441978455, 0.3116348087787628, -0.16167090833187103, 0.10457278043031693, -0.16009345650672913, 0.09034606069326401, -0.2974880635738373, -0.08271433413028717, 0.06139901652932167, 0.10810118168592453, -0.20814017951488495, -0.16621069610118866, 0.010598069056868553, 0.05114850401878357, 0.0881662517786026, 0.5387707352638245, -0.01818065531551838, 0.11035606265068054, -0.468906432390213, 0.09563388675451279, 0.29534128308296204, -0.2682158946990967, 0.358842670917511, 0.06370964646339417, -0.1852271854877472, -0.034922998398542404, 0.051867373287677765, -0.11573454737663269,
-0.20172423124313354, 0.1692962497472763, -0.426616370677948, -0.08230505138635635, -0.310522198677063, -0.06750483810901642, -0.1880330890417099, -0.009268239140510559, 0.11315248906612396, -0.07371918857097626, 0.05604606121778488, -0.30523329973220825, -0.12368511408567429, 0.13791747391223907, -0.3941502571105957, -0.04881277680397034, -0.08272048085927963, 0.1576884388923645, -0.3275493383407593, -0.34819188714027405, -0.2685414254665375, -0.16071948409080505, -0.07615896314382553, 0.17205819487571716, -0.043110355734825134, -0.13401535153388977, -0.015504185110330582, -0.32047906517982483, -0.11241698265075684, -0.5112645030021667, 0.06352312117815018, -0.04377323389053345, -0.4923160672187805, 0.15272586047649384, 0.11440539360046387, -0.09999047964811325, -0.031077664345502853, -0.39836785197257996, -0.07730374485254288, -0.09945439547300339, -0.19267426431179047, -0.42006176710128784, -0.15592344105243683, -0.0726495012640953, 0.004158947616815567, -0.08249904215335846, -0.09281373769044876, 0.12012052536010742, -0.10147757828235626, 0.08242569863796234, -0.3043598532676697, -0.024529114365577698, 0.06558500975370407, -0.06907394528388977, -0.09474843740463257, 0.013075417838990688, 0.09898488223552704, -0.2970570921897888, -0.08117163926362991, -0.12254638224840164, 0.29804930090904236, -0.12169290333986282, 0.15188470482826233, 0.050232160836458206,
-0.020096829161047935, -0.029722200706601143, -0.29615649580955505, -0.0511394739151001, -0.24709516763687134, 0.07532365620136261, -0.11414245516061783, 0.00845856312662363, 0.1046256273984909, -0.13233767449855804, 0.20287743210792542, -0.00421548169106245, 0.2549542486667633, 0.274034321308136, 0.12497614324092865, 0.2701294720172882, -0.20178720355033875, 0.21378883719444275, 0.38520577549934387, 0.05882299318909645, -0.07115069031715393, 0.10560373216867447, -0.15594306588172913, 0.048101361840963364, 0.3977835774421692, -0.3920283913612366, -0.06640127301216125, -0.23989607393741608, -0.24621032178401947, 0.14585143327713013, -0.6025293469429016, 0.3022204339504242, 0.11699026823043823, 0.0575474351644516, 0.17709356546401978, 0.2823691666126251, -0.15075132250785828, -0.06347457319498062, -0.19058817625045776, -0.15902696549892426, 0.06670907884836197, -0.027833376079797745, -0.024428406730294228, -0.09315885603427887, -0.251421183347702, 0.32220882177352905, 0.0057097855024039745, -0.07222426682710648, 0.351116418838501, 0.10923616588115692, 0.022153478115797043, 0.08803927153348923, -0.05060639977455139, 0.2818810045719147, -0.36207470297813416, 0.13484209775924683, -0.15614992380142212, 0.025521837174892426, 0.0303947813808918, -0.07440131902694702, -0.013460824266076088, 0.12431928515434265, -0.054762858897447586, -0.24225491285324097,
-0.28710296750068665, 0.03780509531497955, -0.13041655719280243, -0.25811561942100525, -0.21139544248580933, -0.09050510078668594, -0.1686265468597412, -0.30354470014572144, 0.2172970473766327, 0.11698894947767258, -0.22784139215946198, 0.26850003004074097, 0.20832805335521698, 0.026880143210291862, -0.02136142924427986, 0.48434969782829285, 0.14054100215435028, -0.1054234653711319, -0.22383654117584229, 0.19727905094623566, -0.006873866077512503, -0.4266737997531891, -0.025505051016807556, 0.010555131360888481, -0.2267487645149231, -0.19772151112556458, -0.22447460889816284, -0.256732702255249, 0.11803105473518372, -0.44846946001052856, 0.07493578642606735, 0.14378730952739716, -0.1489132046699524, 0.045217275619506836, -0.04513693228363991, -0.37657690048217773, -0.1720217913389206, 0.15670348703861237, 0.004851110279560089, 0.304352730512619, -0.28896406292915344, -0.20069412887096405, 0.34252917766571045, 0.11211223900318146, 0.19819863140583038, 0.18258030712604523, 0.4544885754585266, 0.02364376373589039, -0.1542489230632782, -0.15105274319648743, -0.11283811926841736, -0.15597189962863922, 0.1938742995262146, -0.002446684055030346, -0.24587209522724152, -0.14320038259029388, -0.060731712728738785, 0.10624151676893234, -0.17980140447616577, 0.22900526225566864, -0.04720064252614975, -0.025684501975774765, 0.0136140501126647, -0.219030499458313,
-0.26984718441963196, 0.1883716881275177, 0.1098163053393364, -0.3535537123680115, 0.04892658069729805, -0.19350072741508484, 0.1324688047170639, -0.4184325337409973, 0.030217450112104416, 0.14624300599098206, -0.3690475821495056, 0.028487298637628555, -0.17811527848243713, -0.2086113542318344, -0.04375838488340378, -0.1198410838842392, -0.2799300253391266, -0.25903216004371643, -0.1521361619234085, -0.4647766947746277, -0.5322552919387817, 0.21643181145191193, 0.0678064227104187, 0.12756800651550293, -0.03999629616737366, 0.1320439726114273, 0.12816652655601501, -0.022391771897673607, -0.12322858721017838, -0.44700929522514343, -0.28959476947784424, -0.3798111379146576, -0.2353387027978897, -0.2782638669013977, -0.05042164400219917, 0.017765888944268227, 0.12364717572927475, 0.07579273730516434, -0.5091080665588379, 0.24829818308353424, 0.3704134523868561, -0.107497438788414, 0.2563886344432831, 0.012592406012117863, -0.09115536510944366, -0.13568463921546936, -0.1411801278591156, -0.1984768807888031, -0.22986574470996857, 0.42888927459716797, 0.029649805277585983, -0.0048674349673092365, 0.09489573538303375, -0.3199390769004822, -0.1452091485261917, 0.10021773725748062, 0.17622429132461548, 0.18988056480884552, -0.2881157398223877, -0.1201382577419281, -0.14049679040908813, -0.035933103412389755, -0.24585318565368652, -0.3321317136287689,
0.16275040805339813, 0.02047242783010006, -0.2690070569515228, -0.03720755875110626, 0.07274546474218369, -0.061080172657966614, -0.34991374611854553, 0.2975284159183502, -0.028049860149621964, 0.14184772968292236, -0.15043134987354279, -0.34972110390663147, -0.38114723563194275, -0.22489625215530396, 0.009078524075448513, -0.2884979546070099, 0.24903778731822968, -0.23405352234840393, -0.16521641612052917, 0.029427915811538696, 0.13675077259540558, 0.0007133292965590954, 0.09168608486652374, -0.06712402403354645, -0.30709314346313477, 0.34018608927726746, 0.310518354177475, -0.47475600242614746, -0.34737247228622437, 0.3450903296470642, -0.15482234954833984, 0.2244182974100113, 0.129225492477417, -0.3022330701351166, 0.12054885923862457, 0.16381002962589264, 0.02958996221423149, -0.041725043207407, 0.07299112528562546, -0.40914928913116455, -0.02644106186926365, 0.14830496907234192, 0.03188420087099075, -0.03667900338768959, 0.047782428562641144, 0.2303360253572464, 0.1433553844690323, 0.018324553966522217, -0.12235566973686218, 0.008967425674200058, 0.08289063721895218, 0.16145871579647064, 0.09032277017831802, -0.16570863127708435, -0.3243316113948822, 0.05553057789802551, 0.15647658705711365, 0.48284912109375, -0.26600342988967896, 0.11081908643245697, -0.04228360950946808, 0.16443364322185516, -0.18140260875225067, -0.2886509299278259,
-0.05010977387428284, 0.12724222242832184, 0.15889927744865417, 0.033147182315588, -0.04298781976103783, 0.46655139327049255, -0.1134309321641922, -0.1274435818195343, -0.08518236875534058, 0.02180214412510395, -0.01512928120791912, -0.3094840943813324, -0.14174900949001312, 0.21030549705028534, 0.16648168861865997, -0.2983154356479645, 0.08091408759355545, 0.23237672448158264, 0.16061396896839142, 0.08606602996587753, 0.12866680324077606, -0.24171429872512817, 0.16096684336662292, -0.3311247229576111, 0.16913388669490814, -0.10057494789361954, 0.24723397195339203, -0.3997960388660431, 0.08467675000429153, 0.44457629323005676, 0.4668138921260834, -0.3337394595146179, -0.3532665967941284, -0.1986360251903534, 0.14695844054222107, -0.15807360410690308, -0.4925297498703003, -0.3645477890968323, 0.094757080078125, 0.24612075090408325, -0.04653049260377884, 0.11309019476175308, 0.05847489461302757, 0.19271917641162872, -0.1505395919084549, 0.014592609368264675, -0.2850583493709564, 0.13704276084899902, 0.07860306650400162, -0.00022405698837246746, -0.2484734207391739, -0.3182617425918579, -0.1810043305158615, 0.06900008767843246, -0.1668308526277542, -0.13226130604743958, -0.203791543841362, -0.5225360989570618, -0.14271926879882812, -0.1623726338148117, -0.059711307287216187, -0.007992682047188282, -0.5582872629165649, -0.4190780222415924,
