#include "neural_network.h"
#include <stdio.h>
#include <math.h>

const float weights_fc1[] = {
0.10198188573122025, 0.5136528015136719, 1.0789529085159302, 0.1613824963569641, 0.057357173413038254, 0.0063470532186329365, 0.36100414395332336, -0.14122019708156586, 0.09573020040988922, -0.09809672832489014, 0.1639447659254074, 0.04634774103760719, -0.25192075967788696, -0.032430119812488556, -0.09144385159015656, -0.4096395969390869, -0.0057970196940004826, -0.11421225965023041, 0.15779295563697815, 0.2240898311138153,
-0.2261822372674942, 0.21661286056041718, 0.251385897397995, -0.08516278862953186, 0.24868790805339813, -0.46158120036125183, 0.021880557760596275, 0.07675209641456604, 0.035711146891117096, -0.058671291917562485, 0.08163055032491684, 0.007599023170769215, -0.5173903703689575, 0.938355028629303, -0.39279958605766296, 0.6635435819625854, 0.412386417388916, 0.13677199184894562, 0.1385960578918457, 0.10365106910467148,
-0.3844691812992096, 0.1749996393918991, -0.3536239564418793, -0.19286133348941803, 0.07635396718978882, -0.3921933174133301, -0.08629153668880463, -0.12787044048309326, -0.08555727452039719, -0.026003489270806313, -0.08780226856470108, -0.41971197724342346, -0.04411716386675835, 0.08934591710567474, -0.2437492311000824, -0.5656725764274597, 0.26647132635116577, 0.17429915070533752, 0.34402814507484436, -0.24483990669250488,
-0.23251184821128845, -0.08159687370061874, -0.08887990564107895, -0.10929769277572632, -0.14354203641414642, 0.4388178884983063, 0.35737740993499756, 0.19153060019016266, -0.38992220163345337, -0.25102147459983826, 0.1199905276298523, -0.1626930683851242, 0.15574418008327484, -0.03584809973835945, -0.44843509793281555, -0.16237163543701172, -0.3245532810688019, -0.08619696646928787, 0.14489509165287018, 0.1533854454755783,
-0.338371217250824, 0.5137847661972046, -0.2933967113494873, -0.1947851926088333, 0.08333295583724976, -0.3950004577636719, 0.03346498683094978, -0.1708831638097763, 0.6105987429618835, 0.011599672958254814, 0.07192844897508621, -0.11531071364879608, 0.5667314529418945, 0.1893063187599182, 0.2306206226348877, -0.29334187507629395, 0.27923187613487244, 0.02977452427148819, -0.30996739864349365, -0.012879683636128902,
0.09152915328741074, 0.2774692177772522, -0.5512045621871948, 0.011398310773074627, 0.1567755788564682, 0.04023195058107376, -0.36840566992759705, 0.089944027364254, -0.05582704767584801, 0.22353017330169678, -0.027940673753619194, -0.02697647362947464, 0.3352929353713989, -0.6469794511795044, 0.4158201217651367, -0.20505067706108093, -0.07213292270898819, 0.21192383766174316, -0.08763085305690765, 0.17419272661209106,
0.2859104871749878, 0.11935748159885406, -0.3931008577346802, 0.03625224158167839, 0.15424460172653198, -0.3278001844882965, 0.2109348475933075, 0.33011212944984436, -0.2841281592845917, -0.11652281880378723, -0.046324241906404495, -0.3671223819255829, -0.1325424611568451, -0.2456015646457672, 0.09363756328821182, -0.3709103763103485, -0.16068299114704132, -0.017998140305280685, 0.06370678544044495, 0.13889014720916748,
-0.16099590063095093, -0.5399553179740906, 0.1582457572221756, -0.3526715636253357, 0.16695518791675568, 0.28318580985069275, 0.07344621419906616, 0.5385962724685669, 0.43015211820602417, 0.05484494939446449, 0.1495792120695114, 0.2519529163837433, 0.3326871693134308, -0.025981150567531586, -0.04627864062786102, 0.06542502343654633, -0.24086861312389374, 0.33491435647010803, -0.013525065965950489, -0.1824929118156433,
-0.3740541338920593, 0.11315902322530746, -0.4939134120941162, 0.026807794347405434, -0.26035454869270325, -0.08769575506448746, 0.34268873929977417, 0.15853425860404968, -0.6712369322776794, 0.20912952721118927, 0.035142432898283005, 0.041373006999492645, -0.18813255429267883, -0.17116065323352814, 0.29812246561050415, 0.5255327820777893, 0.335115522146225, 0.1191895455121994, -0.02853209339082241, 0.17833125591278076,
0.09814216941595078, -0.4956706762313843, -0.21474647521972656, 0.03349689766764641, -0.12991096079349518, -0.2161220908164978, -0.28651589155197144, -0.038126107305288315, 0.024302175268530846, -0.02048535645008087, 0.04245612397789955, 0.14656755328178406, -0.1475686877965927, 0.2883206307888031, -0.08233252167701721, 0.27374163269996643, -0.4440059959888458, 0.029204847291111946, -0.12127821147441864, 0.0035479567013680935,
-0.09869638830423355, 0.41080722212791443, 0.2113364189863205, 0.09755294024944305, 0.2551589608192444, 0.11389985680580139, 0.4294983744621277, 0.02899257466197014, 0.09003490209579468, -0.02020539715886116, 0.2569136619567871, -0.286383718252182, -0.5164472460746765, 0.07589828968048096, -0.30177560448646545, 0.6535105109214783, 0.1642177253961563, -0.11224835366010666, -0.02516069822013378, -0.02497710846364498,
-0.14530131220817566, -0.15010488033294678, -0.5610626339912415, -0.09808801114559174, -0.20901669561862946, -0.1747075617313385, -0.39209088683128357, 0.02018020488321781, -0.4744337499141693, -0.07484814524650574, 0.019851332530379295, 0.07953160256147385, 0.08443881571292877, 0.13390710949897766, -0.3156895935535431, -0.12671822309494019, 0.0003644146490842104, -0.0697840005159378, 0.110097236931324, 0.12188481539487839,
0.1321328580379486, -0.12897855043411255, 0.541926383972168, 0.04302716255187988, 0.0877155065536499, 0.18620635569095612, -0.6731788516044617, -0.1463014781475067, 0.35774001479148865, -0.31200623512268066, 0.039335016161203384, 0.05006823688745499, -0.06112853065133095, 0.08318253606557846, -0.5074904561042786, -0.28921762108802795, -0.33823323249816895, -0.04531710222363472, -0.07191310822963715, -0.18576253950595856,
-0.11338169127702713, 0.6655217409133911, -0.10323639959096909, 0.3448904752731323, -0.0021588269155472517, 0.19001704454421997, -0.15533284842967987, 0.6448523998260498, 0.03654288128018379, -0.048341792076826096, 0.18102331459522247, -0.15055832266807556, 0.1337265819311142, 0.07903926819562912, -0.5935494303703308, 0.024924812838435173, -0.23437759280204773, -0.2603028118610382, -0.11452151089906693, -0.5927545428276062,
0.2149226814508438, -0.46070486307144165, 0.2458132803440094, 0.28117474913597107, -0.09847119450569153, -0.1435764878988266, 0.3011989891529083, -0.9133709669113159, -0.4897172152996063, -0.044305428862571716, -0.18505209684371948, -0.02017589472234249, -0.3418619632720947, -0.41673848032951355, 0.06314916908740997, 0.34132328629493713, -0.05948216840624809, -0.008191680535674095, 0.17841960489749908, -0.15605568885803223,
0.1739671528339386, -0.2721496820449829, 0.10873661935329437, 0.11063379049301147, -0.060486577451229095, -0.0884195864200592, -0.16342468559741974, 0.1970972865819931, -0.046310558915138245, 0.07779933512210846, 0.09932327270507812, -0.256294310092926, -0.47967231273651123, 0.06894282251596451, -0.30430731177330017, 0.46935099363327026, -0.14631322026252747, 0.47344449162483215, -0.23355521261692047, -0.05318928137421608,
-0.03503761067986488, -0.09716004133224487, 0.07747500389814377, -0.14670954644680023, -0.02455989085137844, -0.32558491826057434, -0.42193931341171265, -0.635313868522644, -0.3143783509731293, 0.02973957546055317, -0.03690382093191147, 0.04752534255385399, 0.45185989141464233, 0.2373979091644287, -0.19447161257266998, -0.1663004457950592, 0.0686262845993042, 0.36173874139785767, 0.018689582124352455, 0.10899045318365097,
0.12363546341657639, -0.1813114434480667, -0.39478442072868347, 0.1840294450521469, 0.08737963438034058, -0.23242270946502686, -0.4427207112312317, 0.4018166959285736, 0.07945677638053894, 0.026604238897562027, 0.02721935324370861, -0.16670924425125122, 0.3184710144996643, 0.2943829894065857, -0.21533691883087158, -0.16051645576953888, -0.025448670610785484, 0.12875667214393616, 0.1793355941772461, 0.08042354881763458,
0.38114869594573975, 0.6503520607948303, -0.35445278882980347, 0.16303983330726624, -0.032525546848773956, 0.03443484753370285, 0.23217839002609253, 0.1234644204378128, -0.08328083902597427, 0.0764288678765297, -0.15034063160419464, 0.032252322882413864, 0.09830448776483536, -0.127020463347435, 0.12384139001369476, -0.3198830783367157, -0.22270675003528595, 0.4530176818370819, -0.3588493764400482, 0.2402069866657257,
0.03226541355252266, -0.18445897102355957, 0.11981048434972763, 0.061707865446805954, 0.006897750776261091, 0.14715704321861267, -0.21298635005950928, -0.3149096965789795, -0.22835950553417206, -0.03299917280673981, 0.1974210888147354, 0.3482872247695923, 0.11161080002784729, 0.15645453333854675, -0.2626049816608429, -0.008312434889376163, 0.1704842448234558, -0.0517110750079155, 0.22742009162902832, -0.28998059034347534,
-0.08225318789482117, -0.015706393867731094, -0.03745994344353676, -0.14526709914207458, 0.25765806436538696, 0.18510732054710388, -0.19744254648685455, 0.3197249472141266, -0.21730977296829224, -0.013625586405396461, 0.13379985094070435, -0.37197786569595337, -0.291058748960495, 0.009857844561338425, 0.15414024889469147, -0.019447069615125656, -0.14953869581222534, 0.07110557705163956, -0.05456031113862991, -0.04263722151517868,
0.14044497907161713, -0.0038554505445063114, 0.347470760345459, -0.06719258427619934, 0.062311526387929916, -0.2502378523349762, 0.04423961788415909, -0.34925439953804016, -0.2824319005012512, 0.14251652359962463, -0.04320957884192467, 0.1427682638168335, 0.36372220516204834, -0.374399334192276, 0.6584893465042114, -0.5908489227294922, 0.3468227982521057, -0.27744656801223755, -0.156679168343544, -0.22968192398548126,
-0.03753141313791275, -0.056115880608558655, 0.01620127446949482, 0.06888854503631592, -0.20559144020080566, -0.0963624119758606, 0.1511853039264679, 0.12448350340127945, 0.19510383903980255, -0.2448229044675827, 0.45267194509506226, -0.07814133912324905, 0.08352137356996536, -0.018205853179097176, 0.12305813282728195, -0.07008880376815796, -0.3895254135131836, 0.010335545055568218, 0.004085510037839413, -0.11490632593631744,
0.062173206359148026, -0.2652454972267151, 0.8261597752571106, -0.10882864147424698, -0.11896859854459763, 0.21384039521217346, 0.1420164406299591, 0.4608948826789856, 0.19477534294128418, -0.037577904760837555, -0.25416550040245056, -0.04044250026345253, 0.15369577705860138, -0.07756315171718597, 0.16375188529491425, 0.009626666083931923, -0.32394057512283325, 0.18784205615520477, 0.2419099062681198, 0.17512933909893036,
-0.3405776917934418, -0.21551603078842163, 0.25607797503471375, 0.15416808426380157, 0.1067207008600235, -0.07594107836484909, -0.4794107973575592, -0.05696343630552292, -0.4643665552139282, -0.034227821975946426, -0.2600719630718231, -0.1303251087665558, 0.4485277831554413, -0.13420753180980682, -0.05567488074302673, -0.32647088170051575, -0.38216903805732727, -0.03605491667985916, 0.24146045744419098, -0.06493888050317764,
0.15120944380760193, 0.12483968585729599, 0.7079837918281555, 0.18008244037628174, 0.055524952709674835, 0.30516791343688965, -0.5940544009208679, -0.023909473791718483, 0.2937638461589813, -0.08444329351186752, -0.006566893309354782, 0.09403862059116364, 0.126320943236351, 0.1523558497428894, -0.20912116765975952, -0.21376006305217743, -0.06655076891183853, -0.08331236243247986, 0.06681440025568008, 0.1385812908411026,
0.06367591768503189, 0.2583003044128418, -0.5756116509437561, 0.29811325669288635, 0.2689128816127777, -0.25225773453712463, -0.5034136772155762, -0.27620869874954224, -0.10298780351877213, -0.12756608426570892, 0.07888901233673096, -0.027441808953881264, 0.14623744785785675, 0.17253857851028442, -0.29208871722221375, -0.305992066860199, -0.11772523820400238, -0.16246353089809418, -0.1485537737607956, -0.5072413086891174,
-0.20376910269260406, 0.3497340977191925, 0.32455703616142273, 0.04023471847176552, 0.15482690930366516, 0.15267033874988556, 0.40158864855766296, -0.6954851746559143, 0.3441513776779175, 0.0541880838572979, -0.09682076424360275, -0.07422102987766266, -0.3101210594177246, -0.6461710929870605, 0.7034270167350769, 0.0992332324385643, 0.02346210926771164, 0.12013968080282211, 0.3778645992279053, -0.13533079624176025,
0.08389729261398315, -0.36476051807403564, -0.12968876957893372, 0.022692544385790825, -0.15575002133846283, 0.041056208312511444, -0.17691253125667572, 0.12247909605503082, -0.6269323229789734, 0.05515928193926811, -0.11632917821407318, -0.14521582424640656, -0.028014017269015312, -0.08547724038362503, 0.14273542165756226, -0.07028158754110336, 0.06703373789787292, -0.15309825539588928, -0.22136373817920685, -0.25800395011901855,
0.19128760695457458, 0.21352387964725494, 0.07691919058561325, -0.18958334624767303, 0.20883481204509735, -0.17758268117904663, 0.6081403493881226, -0.09515548497438431, 0.42276355624198914, 0.1965421885251999, -0.12206663936376572, -0.06699346750974655, -0.23531126976013184, 0.026616908609867096, 0.14864730834960938, 0.5425767302513123, 0.008308724500238895, 0.22892127931118011, -0.01852261833846569, 0.08547396957874298,
-0.1281493455171585, -0.013139129616320133, -0.2985881268978119, 0.1939140260219574, 0.22454586625099182, 0.11582698673009872, -0.033580340445041656, -0.7004871964454651, 0.10473667830228806, 0.05758744850754738, 0.01608770713210106, -0.29510635137557983, 0.32388874888420105, -0.8507218360900879, 0.2441953420639038, -0.061811767518520355, 0.019875701516866684, -0.23173998296260834, -0.34039708971977234, -0.057102885097265244,
-0.1897946447134018, -0.036457695066928864, 0.13627327978610992, -0.19092638790607452, -0.040708284825086594, -0.10121507942676544, 0.020557032898068428, -0.45756345987319946, -0.8895925283432007, -0.016757505014538765, -0.06690900772809982, 0.07617248594760895, 0.5732443332672119, -0.14879782497882843, 0.10495761781930923, -0.46563610434532166, -0.09809385240077972, 0.005189239047467709, -0.14319853484630585, 0.20949546992778778,
0.26176097989082336, -0.16832078993320465, 0.48219093680381775, -0.09415098279714584, -0.2742193639278412, 0.22703412175178528, -0.04824579134583473, -0.686024010181427, 0.3363265097141266, 0.04674218222498894, -0.1648249477148056, -0.012938929721713066, 0.3351403772830963, -0.3938320577144623, 0.5384174585342407, -0.3744562268257141, -0.11550188064575195, -0.15268544852733612, 0.11148150265216827, -0.06654714047908783,
-0.011058061383664608, 0.5053739547729492, -0.05536782741546631, -0.09881304949522018, -0.0259564071893692, -0.07589695602655411, 0.16474419832229614, 0.26406610012054443, 0.4144763648509979, 0.016253771260380745, -0.1651734560728073, -0.19468972086906433, 0.3485499322414398, -0.026949545368552208, -0.02686729095876217, -0.15640516579151154, -0.08724203705787659, -0.06560905277729034, -0.13170954585075378, -0.22650912404060364,
-0.24435289204120636, 0.37350285053253174, 1.0612331628799438, 0.07116111367940903, 0.192534402012825, 0.2298605889081955, 0.5503861308097839, 0.33927980065345764, -0.298845112323761, 0.019103096798062325, 0.027697987854480743, 0.15625706315040588, -0.25876036286354065, 0.14650371670722961, -0.002843173686414957, 0.2353559285402298, -0.2824723422527313, 0.07593872398138046, -0.1923009753227234, -0.2239353358745575,
-0.08245807141065598, -0.056229960173368454, 0.05780594050884247, -0.30017799139022827, -0.15346679091453552, 0.04457605257630348, -0.3855763077735901, 0.22519893944263458, -0.01245934423059225, -0.01079705823212862, -0.023548437282443047, -0.015855660662055016, -0.13164572417736053, 0.23693285882472992, -0.4546135365962982, 0.3320923149585724, 0.3735558092594147, -0.2711714506149292, 0.03632322698831558, -0.3078964054584503,
0.22986839711666107, -0.29337406158447266, 0.3511430323123932, 0.06650298833847046, -0.2924954891204834, 0.5166739225387573, -0.10795243084430695, -0.6272191405296326, 0.1275845617055893, 0.07316941767930984, 0.05173153057694435, -0.252707839012146, 0.1391674280166626, -0.11012133955955505, 0.07480134814977646, -0.35227057337760925, -0.27260223031044006, 0.005201076157391071, -0.0959726944565773, 0.13478125631809235,
0.09767715632915497, 0.012785767205059528, 0.297171026468277, 0.09826470911502838, -0.10696925222873688, -0.13049115240573883, 0.39088696241378784, -0.3132705092430115, 0.4011838138103485, 0.19216163456439972, -0.08464737981557846, -0.1928916871547699, 0.03898238018155098, -0.49174532294273376, 0.18102578818798065, 0.2945062220096588, 0.11525427550077438, -0.03887490928173065, 0.2740590274333954, -0.07767681777477264,
0.2217147946357727, -0.18051597476005554, 0.1664263904094696, -0.2866857349872589, -0.030674774199724197, 0.20089353621006012, 0.03376607969403267, -0.23275268077850342, 0.09705942869186401, -0.18273939192295074, 0.027803994715213776, 0.05025510489940643, 0.29129934310913086, 0.8408339619636536, -0.08385372906923294, -0.023577598854899406, 0.0320332907140255, -0.06885558366775513, -0.3057292401790619, 0.0845700204372406,
0.025710085406899452, 0.03711386024951935, 0.5607693195343018, 0.25816500186920166, 0.07891371846199036, 0.05227086320519447, 0.3060727119445801, 0.44917958974838257, 0.04921809583902359, 0.1638496220111847, -0.004200087394565344, -0.33480527997016907, -0.4071657061576843, 0.4827197790145874, -0.6351374387741089, 0.4190811216831207, -0.044288575649261475, 0.012918384745717049, -0.02956211566925049, 0.18226651847362518,
-0.2135356217622757, 0.06633184105157852, -0.4514226019382477, -0.14055845141410828, 0.13902902603149414, -0.16678385436534882, 0.16787070035934448, -0.508762776851654, 0.1569969207048416, -0.23451673984527588, -0.23712095618247986, 0.003111833706498146, 0.26358553767204285, -0.38024500012397766, 0.594041109085083, -0.2076159566640854, 0.4443589150905609, 0.24306967854499817, -0.2704255282878876, -0.14146876335144043,
0.26665207743644714, 0.2774879038333893, 0.2910453677177429, 0.13697752356529236, 0.19352366030216217, 0.08786303550004959, 0.502937912940979, 0.09894093126058578, -0.3215256333351135, -0.015585420653223991, -0.02530411072075367, 0.4052760899066925, -0.02158430777490139, -0.42262521386146545, -0.08584517240524292, -0.19686736166477203, -0.22516456246376038, 0.5291951298713684, 0.1448950469493866, 0.09386036545038223,
0.09787899255752563, 0.07198373973369598, -0.3292236030101776, -0.12404582649469376, 0.14353850483894348, -0.3703848421573639, -0.24829138815402985, -0.18701568245887756, 0.15174278616905212, -0.019921062514185905, 0.13460113108158112, 0.2849927842617035, 0.31842130422592163, 0.30922359228134155, -0.30127623677253723, -0.28626328706741333, -0.0006001392612233758, 0.022872719913721085, 0.2203313112258911, -0.0865398496389389,
0.02283124253153801, 0.3295324444770813, -0.17147737741470337, -0.21990452706813812, 0.033158741891384125, -0.18737614154815674, -0.1370466649532318, -0.19060799479484558, 0.7248204946517944, -0.03624145686626434, 0.028793729841709137, 0.002560875378549099, -0.026973906904459, -0.2893596887588501, 0.6364620923995972, 0.04081098362803459, -0.05401160940527916, 0.13875284790992737, 0.24503560364246368, 0.138346329331398,
-0.24809479713439941, -0.05583870783448219, 0.604447603225708, 0.18124012649059296, 0.009207559749484062, 0.4235168993473053, -0.548391580581665, 0.5147842168807983, 0.0116513567045331, -0.08369091153144836, 0.1628507673740387, 0.06585347652435303, 0.08866579830646515, 0.5511562824249268, -0.6262868642807007, -0.27187681198120117, 0.2311040759086609, 0.36708855628967285, 0.06328672915697098, 0.1614108830690384,
0.4361138641834259, 0.33905988931655884, 0.3476872444152832, 0.008579789660871029, -0.158414825797081, -0.14969006180763245, 0.24622614681720734, 0.2753504514694214, -0.24791370332241058, -0.036126259714365005, -0.07559037953615189, -0.31156641244888306, -0.1845860481262207, -0.07891977578401566, 0.10449295490980148, 0.5675676465034485, -0.07263575494289398, -0.06382669508457184, 0.04219037666916847, -0.33557119965553284,
-0.1981492042541504, 0.4338124394416809, -0.6035789251327515, 0.028292063623666763, -0.0522669292986393, -0.3886299431324005, 0.15505075454711914, -0.432388037443161, 0.3267461657524109, 0.13630564510822296, -0.04382710158824921, 0.2652924954891205, -0.2997135818004608, -0.3715537190437317, 0.04621574282646179, 0.27028965950012207, 0.1446569710969925, 0.2316277027130127, 0.25518760085105896, -0.28681129217147827,
-0.03381144255399704, -0.38126319646835327, -0.17691439390182495, 0.07524101436138153, -0.1425972431898117, -0.2016075700521469, -0.25087329745292664, -0.4617276191711426, -0.6403506994247437, -0.07074208557605743, 0.06982079148292542, 0.040063317865133286, -0.0906972587108612, -0.3034425973892212, 0.6497640609741211, 0.3622967600822449, -0.04969826340675354, 0.15288934111595154, 0.06667827069759369, -0.0238556656986475,
0.3009776771068573, 0.1423117071390152, -0.6562451124191284, -0.2875291705131531, 0.21265025436878204, -0.5673949122428894, -0.13588976860046387, 0.29706400632858276, -0.5524486303329468, 0.07498268783092499, -0.10088182240724564, -0.11943512409925461, 0.4118962287902832, -0.04091208055615425, 0.0626581534743309, -0.24818919599056244, -0.008659412153065205, -0.4819727838039398, 0.13843031227588654, 0.04809269681572914,
-0.21987155079841614, 0.3123674690723419, -0.45656442642211914, 0.31471529603004456, 0.27576205134391785, 0.02791338600218296, -0.06314555555582047, 0.4559439420700073, 0.3639187514781952, -0.10863770544528961, 0.03610074892640114, 0.06875459104776382, -0.08602920174598694, 0.36097559332847595, -0.103908970952034, 0.028182296082377434, 0.28545352816581726, -0.0693005695939064, 0.0027731393929570913, 0.01135257724672556,
-0.13364949822425842, 0.08112896233797073, -0.38283291459083557, 0.0578434132039547, 0.1312769204378128, -0.019588341936469078, 0.030438769608736038, 0.26186028122901917, 0.09069362282752991, -0.13134761154651642, -0.20369020104408264, 0.014371752738952637, 0.2466612607240677, 0.4312707483768463, -0.2062147557735443, -0.4932413101196289, -0.06988202780485153, 0.02062162756919861, 0.1293453723192215, -0.2359384447336197,
0.30381566286087036, -0.20097403228282928, 0.9659759402275085, -0.06476578116416931, 0.06919591128826141, 0.02459278702735901, 0.06523683667182922, 0.39418351650238037, -0.010195350274443626, 0.257239431142807, 0.044513098895549774, 0.34214118123054504, -0.46872782707214355, -0.10511484742164612, 0.021366680040955544, -0.15911152958869934, -0.30648598074913025, 0.15233691036701202, 0.10300720483064651, -0.09105722606182098,
0.24987874925136566, 0.28776007890701294, -0.008229505270719528, 0.13953626155853271, 0.2102588713169098, 0.01810026727616787, -0.12702447175979614, -0.007290008943527937, -0.1609085351228714, -0.04411378875374794, 0.17237111926078796, 0.11564534157514572, -0.551585853099823, 0.5215030312538147, -0.2803525924682617, 0.2684389054775238, 0.01096509862691164, -0.1915174126625061, 0.13071836531162262, 0.11360529810190201,
-0.23521819710731506, -0.096291683614254, -0.20885500311851501, -0.06375165283679962, -0.2692343294620514, -0.4584847092628479, 0.33843451738357544, 0.6422854661941528, 0.23874987661838531, 0.03375840187072754, 0.04870779439806938, 0.39402955770492554, -0.5010796785354614, -0.2110218107700348, 0.31055009365081787, 0.49098068475723267, 0.298798143863678, -0.10670829564332962, 0.12180127203464508, 0.1419186294078827,
0.08258262276649475, 0.203095480799675, 0.24729739129543304, -0.3149871528148651, -0.005893749184906483, 0.22940176725387573, -0.3909720480442047, 0.3478388488292694, -0.2914370894432068, 0.14905540645122528, 0.012136287055909634, -0.16207878291606903, -0.2361128032207489, -0.21071450412273407, -0.048541359603405, -0.30180996656417847, 0.028134845197200775, 0.15701264142990112, -0.045898012816905975, 0.13651330769062042,
-0.19136430323123932, -0.23112305998802185, -0.09694002568721771, -0.009577052667737007, -0.019380418583750725, 0.033218298107385635, 0.31076058745384216, 0.29192838072776794, -0.5000715255737305, 0.02199840545654297, 0.13268689811229706, -0.34654176235198975, 0.16876721382141113, -0.060533322393894196, 0.25921639800071716, 0.12942689657211304, -0.6085526347160339, -0.15062597393989563, 0.2149244099855423, 0.17321239411830902,
-0.5510228872299194, 0.18190746009349823, 0.4791906774044037, 0.0550360307097435, 0.16002929210662842, -0.00940106064081192, -0.35506704449653625, 0.0027571972459554672, 0.6373592019081116, -0.004383305087685585, -0.08906898647546768, 0.31408700346946716, 0.41140303015708923, -0.3331264555454254, 0.045207198709249496, -0.20664134621620178, -0.47224104404449463, -0.278751403093338, -0.04180610924959183, 0.2670708894729614,
-0.2979050576686859, -0.590040385723114, -0.3970317840576172, -0.009208334609866142, -0.037085335701704025, 0.01568317972123623, 0.44704753160476685, -0.1710130125284195, 0.168558731675148, 0.008824490942060947, 0.011161078698933125, 0.0866842195391655, -0.39057278633117676, -0.6227527856826782, 0.16963684558868408, -0.11816833168268204, 0.4628753662109375, -0.09527438133955002, 0.0340612530708313, 0.22422456741333008,
-0.3769829571247101, 0.3623974919319153, 0.7646527290344238, -0.3920736014842987, 0.02319149486720562, 0.44198790192604065, -0.17474696040153503, -0.0840296745300293, 0.13052111864089966, 0.06409744173288345, 0.03819689899682999, 0.08042094856500626, -0.41582807898521423, -0.08276333659887314, -0.4457801282405853, -0.15996745228767395, 0.13513146340847015, -0.058259375393390656, 0.10430845618247986, 0.0564749650657177,
-0.41651517152786255, -0.04826094210147858, -0.21884073317050934, -0.160486102104187, -0.13772715628147125, 0.5535276532173157, -0.19046391546726227, 0.08309753239154816, -0.06561436504125595, -0.031570903956890106, 0.13983985781669617, -0.059009891003370285, -0.1428929567337036, 0.012084666639566422, 0.0745014026761055, -0.48312392830848694, 0.11247105896472931, -0.18249842524528503, 0.15152058005332947, -0.5589045882225037,
0.21788214147090912, 0.02555292285978794, 0.10142575949430466, -0.48045334219932556, 0.1022190973162651, -0.012481600046157837, 0.11313467472791672, -0.23559926450252533, -0.010194622911512852, -0.23803512752056122, 0.13838961720466614, 0.131157785654068, -0.05667148157954216, 0.01769440434873104, 0.17533104121685028, 0.4449649751186371, -0.026917418465018272, 0.20143170654773712, -0.022343339398503304, -0.07062586396932602,
0.04642338678240776, -0.5535262823104858, -0.1806022971868515, 0.2287764698266983, -0.28413820266723633, -0.28110289573669434, 0.018803352490067482, -0.10906225442886353, 0.21094749867916107, -0.01872400753200054, -0.0016083638183772564, 0.15010406076908112, -0.4269210398197174, 0.20905430614948273, -0.03133683651685715, 0.07676118612289429, -0.19592106342315674, -0.018674122169613838, -0.3696071207523346, -0.06724296510219574,
0.2990456223487854, -0.18268263339996338, -0.2473590224981308, 0.01880934089422226, -0.11065748333930969, 0.33885735273361206, 0.09249720722436905, -0.29512542486190796, 0.2788824141025543, -0.11528347432613373, 0.04199616611003876, 0.03313986957073212, 0.2906129062175751, -0.1950693428516388, 0.02733467146754265, -0.005879064090549946, 0.3087308406829834, 0.17747679352760315, -0.13927917182445526, 0.4347885847091675,
0.7200720310211182, 0.15769542753696442, -0.6225460767745972, 0.46324029564857483, -0.07881885766983032, -0.19060614705085754, 0.30768948793411255, 0.042529474943876266, 0.0369652584195137, -0.0781322494149208, 0.11074956506490707, 0.246720090508461, 0.049090418964624405, 0.07692959159612656, -0.2336609661579132, -0.36774712800979614, -0.3336290717124939, -0.05294991657137871, 0.13565592467784882, 0.02886725589632988
};

const float biases_fc1[] = {
0.0215713270008564, 0.1925254911184311, 0.20499320328235626, -0.09940827637910843, 0.22129298746585846, 0.05059589073061943, -0.2872861325740814, 0.027674177661538124, -0.003458207007497549, -0.023359086364507675, 0.1049143448472023, 0.03041069395840168, -0.059718407690525055, 0.0942220613360405, -0.14431925117969513, -0.0736108124256134, 0.29574620723724365, 0.0029091292526572943, -0.11752182245254517, -0.03729758784174919, -0.2931191623210907, 0.22286921739578247, -0.18684977293014526, -0.24573777616024017, -0.09781166911125183, -0.08298368006944656, 0.01818983070552349, 0.12123943120241165, 0.009126237593591213, 0.08369068056344986, -0.03276047855615616, 0.12832355499267578, -0.04265516251325607, -0.036182720214128494, -0.022918062284588814, 0.21891261637210846, -0.16313646733760834, 0.038432396948337555, -0.09066414088010788, -0.005427035503089428, 0.07089715451002121, -0.149150088429451, 0.14077182114124298, -0.09287294000387192, 0.05294772982597351, -0.10501819103956223, 0.046731576323509216, 0.01496362965553999, 0.1558704823255539, 0.08092817664146423, -0.07585592567920685, -0.13896262645721436, -0.030378786846995354, 0.24492190778255463, 0.032889507710933685, -0.27272969484329224, -0.046415943652391434, 0.3393615484237671, 0.17027495801448822, 0.04002968221902847, 0.12641195952892303, 0.033042311668395996, 0.10095884650945663, -0.06923148781061172
};

const float weights_fc2[] = {
-0.17310112714767456, 0.3481583297252655, 0.06411615014076233, -0.0723254382610321, 0.22715583443641663, 0.18458114564418793, -0.5027310252189636, -0.19379255175590515, -0.07163318246603012, 0.029042908921837807, -0.12255769222974777, -0.22179442644119263, 0.2297481745481491, 0.1121094599366188, 0.2345685362815857, -0.2014969438314438, -0.03144532069563866, -0.03702497109770775, 0.053843576461076736, -0.13504065573215485, 0.11015957593917847, 0.4262571930885315, -0.10891252756118774, -0.011214460246264935, 0.040025852620601654, 0.06402849406003952, 0.2224552482366562, -0.33814185857772827, 0.21545065939426422, -0.165542870759964, -0.28302720189094543, -0.0690373107790947, 0.08212518692016602, 0.2212173044681549, -0.2827150821685791, 0.10412131994962692, 0.1571020632982254, -0.05337332561612129, -0.012891746126115322, 0.2033768892288208, -0.42853137850761414, -0.5638694763183594, 0.34662485122680664, -0.3128848075866699, 0.18706025183200836, 0.0881628692150116, -0.24084821343421936, -0.0501004122197628, 0.10933034867048264, 0.11727351695299149, 0.19744308292865753, -0.0873393788933754, -0.0034309488255530596, -0.19364088773727417, 0.33339157700538635, -0.24672278761863708, -0.008493972010910511, 7.376651865342865e-06, 0.19600442051887512, 0.013284794986248016, 0.17892682552337646, 0.18420980870723724, -0.11217635124921799, -0.09758033603429794,
0.3084324598312378, 0.21951691806316376, 0.010692807845771313, -0.2544477880001068, 0.2831905782222748, 0.016258079558610916, -0.35594239830970764, -0.0005486920126713812, -0.24917112290859222, -0.18906378746032715, 0.2663240134716034, -0.23065708577632904, -0.06672020256519318, -0.07712773978710175, -0.19019892811775208, -0.21153193712234497, -0.03315348923206329, -0.4099726974964142, 0.08269324898719788, 0.21019332110881805, -0.013315831311047077, 0.0014008766738697886, -0.34666958451271057, -0.04964695870876312, -0.17371559143066406, -0.34703385829925537, -0.0738963857293129, 0.030895378440618515, -0.26545655727386475, 0.38728073239326477, -0.00036934620584361255, -0.44508257508277893, -0.02279016561806202, -0.17405010759830475, -0.314269095659256, 0.0841740071773529, 0.050128914415836334, 0.11211946606636047, 0.04918694123625755, -0.5211226940155029, 0.2477794885635376, 0.03488275781273842, 0.05469562113285065, 0.11184442788362503, -0.1279456466436386, 0.05746283754706383, 0.35195446014404297, -0.41444486379623413, 0.17599092423915863, -0.0662677064538002, 0.0981270968914032, 0.07205868512392044, -0.04380981624126434, 0.5624254941940308, 0.1678389608860016, 0.11548574268817902, 0.041913218796253204, 0.2812193036079407, 0.3260400891304016, -0.20438438653945923, 0.08188546448945999, -0.29628807306289673, -0.025433052331209183, -0.05866492539644241,
0.05729204788804054, -0.21692344546318054, 0.12175090610980988, -0.21742630004882812, -0.014976884238421917, -0.13174812495708466, -0.29860442876815796, 0.009255900047719479, 0.28314444422721863, 0.0472363643348217, -0.03691074252128601, 0.1607733517885208, -0.07767846435308456, -0.0159686878323555, 0.08419020473957062, 0.2633140981197357, 0.07722847163677216, -0.0704907476902008, -0.2529974579811096, -0.025738470256328583, 0.018219545483589172, -0.03182545676827431, 0.6717336773872375, -0.06607633084058762, -0.15325547754764557, -0.3905508518218994, -0.034452300518751144, 0.3185894787311554, -0.04644915834069252, -0.06203501299023628, -0.10495369881391525, -0.013449804857373238, -0.04968462139368057, -0.22125142812728882, -0.2469991147518158, 0.18349608778953552, -0.19874127209186554, -0.011935161426663399, -0.12232382595539093, -0.3948058784008026, -0.15397460758686066, -0.2745635509490967, 0.008572298102080822, -0.22342835366725922, -0.322764128446579, -0.3573302626609802, 0.3508065342903137, 0.11989726126194, 0.028472227975726128, -0.6582677364349365, 0.036313313990831375, -0.2925358712673187, -0.25529545545578003, -0.2330971509218216, 0.326326459646225, -0.01523070503026247, -0.007776492275297642, 0.26560550928115845, 0.18749386072158813, -0.12169313430786133, 0.026914682239294052, 0.0897236093878746, -0.14691774547100067, 0.009004252962768078,
0.06742242723703384, 0.14356903731822968, 0.12026847898960114, 0.20856793224811554, 0.13950365781784058, -0.1591721624135971, 0.11966494470834732, 0.08674368262290955, 0.19021190702915192, -0.0986306443810463, 0.031986575573682785, -0.13049452006816864, -0.13181912899017334, -0.07970396429300308, -0.3077227771282196, -0.05654817447066307, 0.419607937335968, -0.044319357722997665, 0.1568453311920166, -0.10740723460912704, -0.07945025712251663, -0.2976486086845398, 0.1255204677581787, 0.013753669336438179, 0.1656566560268402, 0.3422911465167999, 0.12122894823551178, -0.25564056634902954, -0.013987643644213676, 0.08338884264230728, 0.007305937819182873, 0.20194381475448608, -0.09619154781103134, 0.1689012199640274, 0.06842214614152908, -0.1738974153995514, -0.048940446227788925, -0.004685674328356981, 0.16248300671577454, -0.33168691396713257, -0.46838921308517456, 0.07613244652748108, 0.18830814957618713, 0.162741556763649, -0.13690221309661865, 0.4240863025188446, -0.1245972290635109, 0.17101947963237762, 0.46251213550567627, 0.1033579409122467, 0.17715081572532654, 0.09485210478305817, 0.0818435475230217, -0.4310031533241272, -0.1950385719537735, 0.1969018280506134, 0.2734035849571228, 0.01837882213294506, -0.14643928408622742, 0.05417891964316368, 0.12420281767845154, 0.24503298103809357, -0.11693054437637329, 0.238582044839859,
-0.019648665562272072, 0.06942550837993622, -0.27281132340431213, -0.24892660975456238, -0.4351484775543213, -0.12005879729986191, -0.07106620818376541, -0.11818154901266098, -0.05566547065973282, 0.41490381956100464, 0.22795052826404572, -0.3022899329662323, 0.13362030684947968, -0.12230419367551804, -0.020808899775147438, -0.09069938957691193, 0.08468911051750183, -0.12562553584575653, 0.12369149178266525, -0.06757721304893494, -0.028751889243721962, -0.00442251842468977, 0.06019197031855583, -0.13083067536354065, 0.04681112989783287, 0.43305063247680664, 0.3977237045764923, 0.37444111704826355, -0.22776876389980316, -0.0937974750995636, -0.3467397093772888, -0.006681110709905624, -0.2029372602701187, 0.2285495102405548, 0.29654014110565186, -0.34145620465278625, -0.18472915887832642, -0.09105218946933746, 0.2168649435043335, 0.18402934074401855, 0.15649060904979706, 0.1805035024881363, 0.07358434051275253, -0.3695789873600006, 0.09099259972572327, 0.03416522219777107, 0.09667190164327621, -0.178727388381958, 0.026461109519004822, 0.2745051085948944, -0.06091553717851639, -0.0890364721417427, 0.08055005967617035, -0.35265055298805237, 0.1833924651145935, 0.08774524182081223, -0.1755746603012085, -0.6560907363891602, 0.13458634912967682, -0.02670999988913536, -0.10938660055398941, -0.03201010823249817, -0.25266116857528687, 0.18269483745098114,
-0.4037185311317444, -0.03882679343223572, -0.3017760217189789, -0.355234831571579, 0.09778111428022385, 0.15795239806175232, -0.009373849257826805, 0.10906518250703812, 0.14759768545627594, -0.29315322637557983, -0.03139938414096832, -0.051951900124549866, -0.3075639605522156, 0.24167101085186005, 0.2414550483226776, 0.13598085939884186, 0.1550852209329605, -0.28471294045448303, 0.18334828317165375, 0.03398730605840683, -0.08346813917160034, 0.005878468044102192, 0.024414584040641785, -0.05268681049346924, 0.18427392840385437, -0.010969849303364754, -0.09180427342653275, -0.1130511537194252, 0.30305805802345276, -0.11857101321220398, -0.08261746168136597, -0.23228295147418976, -0.0034716357477009296, -0.17760860919952393, -0.4244866669178009, 0.3822205066680908, -0.13768362998962402, -0.021418476477265358, 0.0787789523601532, 0.05578993633389473, 0.13965041935443878, -0.10840142518281937, 0.12847447395324707, -0.2454138845205307, 0.3523448705673218, -0.1895643174648285, 0.08115417510271072, 0.3691887855529785, -0.3136405944824219, 0.05732472613453865, 0.10715825110673904, 0.035183437168598175, -0.16498161852359772, -0.3618086874485016, -0.1823655217885971, -0.11188459396362305, -0.40100717544555664, 0.3717974126338959, 0.18591858446598053, -0.11550663411617279, 0.04887320101261139, -0.21765221655368805, -0.021496539935469627, 0.25583767890930176,
0.18198785185813904, 0.0947846993803978, 0.2265329658985138, 0.05369455739855766, 0.0994865819811821, 0.015132038854062557, 0.03934484347701073, 0.5367905497550964, -0.11000088602304459, 0.10824115574359894, -0.04403197392821312, 0.35594475269317627, -0.19872665405273438, 0.1898902803659439, -0.2137916535139084, -0.15747034549713135, 0.251086950302124, -0.2330443412065506, 0.0816337987780571, 0.2981847822666168, 0.29987993836402893, 0.07238101959228516, 0.2595197558403015, 0.0034115947782993317, -0.046110138297080994, -0.1428801268339157, 0.083946093916893, -0.0861220583319664, -0.05226088687777519, 0.1974981129169464, -0.11027350276708603, -0.5627812743186951, -0.28401944041252136, -0.15039294958114624, 0.06964210420846939, 0.25144508481025696, 0.0694449171423912, 0.09581632912158966, 0.28662845492362976, 0.3051404058933258, -0.2985919713973999, -0.19799545407295227, 0.008745001628994942, 0.034133248031139374, 0.15368878841400146, 0.1160404160618782, 0.16936402022838593, 0.24851995706558228, -0.013190147466957569, 0.08271534740924835, -0.11620505899190903, -0.010126406326889992, 0.3416125774383545, -0.20571596920490265, 0.29106032848358154, 0.04040788114070892, -0.35531944036483765, -0.3784528374671936, 0.2321106493473053, 0.06538398563861847, 0.2009347528219223, 0.025065837427973747, -0.16455471515655518, -0.18721944093704224,
-0.31771180033683777, -0.3389003872871399, -0.19201618432998657, 0.17356829345226288, -0.10698653757572174, -0.16000212728977203, 0.050769608467817307, 0.4114344120025635, -0.23878850042819977, -0.07688454538583755, -0.3669234812259674, 0.25286194682121277, -0.11129716038703918, -0.39542970061302185, 0.021493028849363327, 0.15278448164463043, 0.16818813979625702, 0.17644621431827545, -0.14915511012077332, -0.06911296397447586, 0.34467604756355286, -0.3979564309120178, -0.30439865589141846, 0.17692145705223083, 0.04862683638930321, 0.09867718815803528, 0.035604093223810196, -0.039231665432453156, 0.35050469636917114, -0.2073347270488739, -0.48484185338020325, 0.012637150473892689, -0.02165229246020317, 0.28041088581085205, 0.008009130135178566, 0.3996315598487854, -0.12233538180589676, -0.1407516747713089, 0.009798345156013966, -0.119661845266819, 0.1072499006986618, 0.062110841274261475, 0.24422235786914825, 0.2235897332429886, 0.016850905492901802, -0.0019787177443504333, -0.015221737325191498, -0.059048645198345184, -0.1700470745563507, 0.041765108704566956, -0.011077862232923508, 0.25190839171409607, 0.22304415702819824, 0.3823091983795166, 0.3905181288719177, 0.05779241397976875, -0.01295667327940464, -0.01547450851649046, 0.24100340902805328, 0.020535912364721298, 0.45897454023361206, 0.1721954494714737, -0.09144602715969086, -0.06134479120373726,
-0.17430280148983002, 0.3196018934249878, -0.06157980114221573, 0.1280103623867035, 0.048506077378988266, 0.051324181258678436, -0.2983434498310089, -0.4075983464717865, -0.22497203946113586, 0.20909404754638672, -0.2563116252422333, 0.12672443687915802, 0.04004385694861412, -0.05769596993923187, -0.10472182184457779, 0.00673946738243103, 0.6145731806755066, -0.1839064061641693, 0.014264412224292755, 0.2495252788066864, 0.018613342195749283, -0.07278942316770554, -0.29156428575515747, 0.0169815756380558, -0.04841777682304382, -0.031577084213495255, 0.022270724177360535, -0.0632285326719284, 0.22499486804008484, -0.2944027781486511, 0.24680130183696747, 0.1965392827987671, 0.20375822484493256, -0.19744142889976501, -0.055910851806402206, 0.016952838748693466, 0.06671541184186935, -0.015105589292943478, -0.08306652307510376, -0.25346285104751587, 0.1337752640247345, -0.16222217679023743, -0.07670704275369644, -0.14760169386863708, 0.22000421583652496, -0.1299569457769394, 0.12531982362270355, -0.041014447808265686, -0.1819537729024887, -0.1285611093044281, -0.1889517903327942, 0.24888868629932404, -0.5699108839035034, -0.004169844556599855, 0.32834240794181824, -0.3166404962539673, -0.2460557520389557, -0.1494436115026474, -0.4798862636089325, -0.04784699156880379, -0.43287530541419983, -0.024348106235265732, 0.016457252204418182, 0.04812365770339966,
-0.19661346077919006, -0.1612679809331894, -0.15387743711471558, 0.06382595747709274, 0.29250621795654297, 0.14757362008094788, -0.5099151730537415, 0.14801068603992462, -0.008556152693927288, -0.26619499921798706, -0.35161373019218445, -0.00020915358618367463, 0.12388042360544205, 0.010485176928341389, -0.011458268389105797, -0.12653034925460815, -0.12422634661197662, 0.11558838933706284, -0.18558478355407715, 0.2027716189622879, 0.10479039698839188, 0.1796250194311142, 0.27362945675849915, 0.014079603366553783, 0.056555502116680145, 0.2279283106327057, -0.16730941832065582, -0.312272846698761, -0.0033874933142215014, -0.10425978899002075, 0.28544944524765015, -0.024258801713585854, 0.009176397696137428, -0.1269928216934204, -0.14970846474170685, 0.1815239042043686, -0.0511569045484066, 0.10528136044740677, 0.040733303874731064, -0.16372859477996826, 0.14910632371902466, 0.2989642322063446, -0.04568953067064285, -0.22815220057964325, 0.066862091422081, -0.10820949077606201, 0.1718025803565979, -0.358665406703949, -0.052703626453876495, 0.2432515174150467, -0.11836854368448257, -0.2717188894748688, -0.048760343343019485, -0.17508867383003235, 0.13964661955833435, 0.058545589447021484, -0.26396989822387695, 0.36162489652633667, -0.43843162059783936, 0.08265523612499237, -0.3551379144191742, 0.4896734654903412, 0.1877051740884781, -0.08141286671161652,
-0.02358897216618061, -0.38457486033439636, -0.171229287981987, 0.24053989350795746, -0.029804177582263947, -0.1583072692155838, 0.02963259629905224, 0.06526913493871689, 0.036948591470718384, -0.23058754205703735, -0.02125927433371544, 0.3448297679424286, 0.18404588103294373, 0.4193238914012909, -0.08125290274620056, 0.2704252600669861, 0.06445734202861786, -0.04668206721544266, -0.018440380692481995, -0.05701473355293274, -0.03742058202624321, -0.20163051784038544, -0.017752360552549362, -0.2362261414527893, -0.26743283867836, 0.15226012468338013, 0.27799031138420105, -0.09799227863550186, -0.044405385851860046, -0.0943165197968483, 0.2027619332075119, -0.31766700744628906, -0.0965183898806572, 0.2429763227701187, 0.27784183621406555, -0.18188002705574036, 0.16733703017234802, -0.011652708984911442, 0.07868236303329468, -0.004182946402579546, 0.03187189996242523, -0.39770153164863586, 0.01804192364215851, -0.1583745777606964, 0.3090971112251282, -0.02110232226550579, -0.08731111139059067, 0.1887512058019638, -0.1660480946302414, 0.12685686349868774, 0.004652618430554867, -0.18034330010414124, 0.1305912882089615, -0.04787494242191315, -0.038097940385341644, 0.2054172307252884, 0.1043943390250206, -0.14598023891448975, 0.07305911183357239, 0.019352536648511887, -0.0424312949180603, -0.08997536450624466, 0.06442303955554962, 0.29214102029800415,
-0.07154038548469543, -0.320100337266922, 0.31981104612350464, 0.03704385831952095, -0.3614804446697235, 0.0054613701067864895, -0.07524935156106949, -0.29024142026901245, 0.07385741919279099, 0.27462583780288696, -0.2570662498474121, 0.01709367334842682, 0.0438038632273674, -0.05256342887878418, 0.10268276929855347, -0.15248465538024902, -0.14613047242164612, 0.03191647306084633, -0.18324950337409973, -0.2176087200641632, -0.20221003890037537, 0.04372589290142059, -0.04760534688830376, -0.06998013705015182, -0.22725613415241241, 0.07507073879241943, -0.030044851824641228, 0.10184135288000107, 0.16350948810577393, -0.08439167588949203, -0.10009071230888367, -0.37950554490089417, -0.09192495793104172, 0.22866970300674438, -0.5261187553405762, 0.7885094285011292, 0.2074260264635086, 0.08123160153627396, 0.300213485956192, 0.19757084548473358, -0.19859960675239563, -0.019504396244883537, -0.08928453177213669, 0.09666687250137329, 0.1701100766658783, 0.060405172407627106, 0.1638709008693695, 0.08030594140291214, 0.10585694015026093, -0.22195424139499664, -0.11068709939718246, 0.250205934047699, -0.11510304361581802, -0.03835931047797203, 0.09236952662467957, 0.26728495955467224, -0.16558140516281128, -0.273393452167511, -0.42321333289146423, -0.4960000813007355, -0.21607805788516998, -0.1273656040430069, 0.018113335594534874, 0.1648557484149933,
0.2935207784175873, 0.5393949151039124, 0.007899945601820946, 0.3429138958454132, -0.10657068341970444, -0.39418476819992065, 0.07944750785827637, 0.07395823299884796, -0.08965738117694855, 0.04699017107486725, 0.11321134865283966, 0.18496713042259216, -0.1354118138551712, 0.3770056664943695, -0.0324154794216156, 0.23206005990505219, -0.2013082206249237, -0.3961603045463562, 0.16501401364803314, -0.13265953958034515, 0.11871476471424103, 0.08895109593868256, -0.11523128300905228, -0.09359696507453918, -0.09983322769403458, -0.023691346868872643, -0.3009803593158722, -0.03001778945326805, 0.28677505254745483, 0.18071125447750092, -0.021113313734531403, 0.11107765138149261, 0.10067242383956909, 0.4918706715106964, -0.0015258187195286155, 0.3057617247104645, -0.04420490190386772, 0.027443023398518562, 0.03457726165652275, 0.09959433227777481, -0.04064379259943962, 0.14212296903133392, -0.246841698884964, -0.22729922831058502, -0.2249344140291214, -0.12593679130077362, 0.19895851612091064, -0.07220455259084702, 0.04338917136192322, 0.14504902064800262, -0.10990295559167862, -0.386610746383667, -0.1424819529056549, -0.1413164585828781, 0.25199389457702637, -0.2729463279247284, 0.04122596234083176, 0.06256785243749619, -0.18605054914951324, -0.05122783035039902, -0.1234426200389862, -0.02455892600119114, -0.14227458834648132, -0.13619714975357056,
0.10457168519496918, 0.22803336381912231, 0.04758727177977562, 0.42107802629470825, -0.15083488821983337, 0.11566877365112305, -0.04346738010644913, -0.2697409987449646, 0.07632773369550705, -0.20275942981243134, -0.17313779890537262, -0.03119988925755024, 0.4446333944797516, -0.2919691801071167, -0.202623650431633, -0.21684420108795166, 0.19057123363018036, -0.13541153073310852, 0.026468992233276367, -0.09530828148126602, -0.11550683528184891, -0.34145498275756836, 0.08895616978406906, 0.29619351029396057, -0.19310784339904785, -0.08235945552587509, 0.09536265581846237, -0.0015293500619009137, 0.14919798076152802, 0.3930884301662445, -0.15211986005306244, 0.10665024816989899, 0.033414825797080994, -0.2828211188316345, 0.19881492853164673, 0.06925203651189804, 0.14935557544231415, -0.40755805373191833, 0.21717225015163422, -0.10792522132396698, -0.06492551416158676, 0.11288464814424515, -0.29778727889060974, -0.08231005072593689, 0.42698290944099426, -0.15409411489963531, 0.046219032257795334, 0.14957571029663086, -0.3825218081474304, 0.04077731817960739, 0.024696150794625282, -0.10490705817937851, 0.098236583173275, -0.32557785511016846, -0.02271752618253231, -0.08546924591064453, 0.06692042201757431, -0.0049683088436722755, 0.008196813985705376, -0.2066868245601654, -0.05425344035029411, -0.2954067885875702, 0.023748809471726418, -0.3552716076374054,
-0.6248283982276917, 0.018848340958356857, 0.26423415541648865, 0.22901493310928345, 0.17272019386291504, -0.0742856040596962, 0.18662410974502563, -0.049114443361759186, -0.3892030715942383, -0.1104666143655777, 0.029514050111174583, -0.12647241353988647, 0.024523932486772537, 0.01563435047864914, 0.030459720641374588, 0.42310631275177, -0.35265016555786133, 0.4757486581802368, -0.034946005791425705, 0.10714903473854065, -0.09651792049407959, 0.06943781673908234, -0.29078060388565063, 0.19863760471343994, -0.04072896018624306, -0.005105806980282068, 0.24897751212120056, 0.2640353739261627, -0.11211387068033218, 0.20427636802196503, 0.03346141800284386, -0.1180148720741272, 0.11644002050161362, 0.20973393321037292, -0.40467533469200134, -0.08219891041517258, 0.3852292001247406, 0.27073678374290466, 0.05892256647348404, -0.06676793098449707, 0.0796467736363411, 0.09950076788663864, -0.029192712157964706, -0.24733766913414001, -0.07418492436408997, 0.012999391183257103, -0.06617507338523865, 0.4848259389400482, 0.05382997915148735, 0.07906849682331085, -0.05713052675127983, 0.08141885697841644, -0.11513406038284302, 0.023898227140307426, 0.10700397938489914, 0.31663981080055237, -0.09500293433666229, -0.22639179229736328, 0.018268069252371788, -0.12035933136940002, 0.22367344796657562, 0.08766472339630127, -0.1872805505990982, 0.1994694471359253,
-0.13432785868644714, -0.19859318435192108, 0.38588646054267883, -0.20554901659488678, 0.21691271662712097, -0.09201721101999283, 0.4112177789211273, 0.06635355204343796, -0.11687184125185013, 0.12234045565128326, 0.07223587483167648, 0.021507691591978073, 0.13829630613327026, -0.22160249948501587, -0.1863076537847519, -0.41467612981796265, -0.374031126499176, -0.4330892562866211, 0.11970432102680206, -0.038485754281282425, 0.19646033644676208, -0.10393349081277847, -0.11075621098279953, 0.06314797699451447, -0.04291926696896553, 0.4504084587097168, -0.049176689237356186, 0.28184160590171814, -0.0398569256067276, -0.07511643320322037, -0.10229852050542831, 0.33249524235725403, 0.21881961822509766, -0.22290587425231934, 0.24052754044532776, 0.0626557394862175, 0.026136884465813637, -0.31034913659095764, -0.23757022619247437, 0.15071867406368256, 0.026823580265045166, 0.060366980731487274, -0.23624920845031738, -0.07680928707122803, 0.1121402159333229, -0.118459053337574, 0.0058552878908813, 0.17673298716545105, 0.2473146915435791, -0.03548538684844971, -0.059886250644922256, -0.1268993616104126, -0.13751766085624695, -0.19525186717510223, 0.15151561796665192, 0.3175342381000519, 0.34702470898628235, -0.0571993887424469, 0.07316645234823227, 0.14478421211242676, -0.03125831112265587, 0.04714418947696686, 0.309431791305542, -0.07180218398571014,
-0.13123731315135956, 0.28119510412216187, 0.31161898374557495, 0.02849683165550232, -0.08920188248157501, 0.09739337116479874, 0.09815038740634918, -0.043029170483350754, 0.1800491362810135, -0.05888185650110245, 0.1672605723142624, 0.163188636302948, 0.25610196590423584, 0.12796777486801147, 0.00822374690324068, 0.10410086810588837, 0.23903100192546844, 0.07666800171136856, 0.10035855323076248, -0.09225962311029434, -0.38380903005599976, -0.17542149126529694, -0.29562538862228394, -0.03949049115180969, 0.11692693829536438, -0.2886173725128174, 0.09564639627933502, -0.1554276943206787, -0.15457192063331604, -0.12190264463424683, -0.01267432514578104, 0.16163454949855804, 0.1237974464893341, -0.3244830369949341, -0.5571715831756592, 0.4710225760936737, -0.04277936741709709, 0.0581953227519989, 0.3516004979610443, 0.22375904023647308, 0.08428031951189041, -0.518639087677002, 0.0874699130654335, -0.26409831643104553, -0.26382961869239807, 0.010252024978399277, 0.03105289302766323, -0.013041549362242222, 0.07710052281618118, -0.02702559530735016, -0.04201071709394455, -0.20226557552814484, -0.0669245719909668, 0.07840462028980255, -0.29420462250709534, 0.008889647200703621, -0.46142953634262085, 0.11351856589317322, 0.11156018823385239, 0.4100075364112854, 0.03308727219700813, 0.14473383128643036, 0.012577913701534271, -0.08938436955213547,
-0.23316067457199097, 0.20874418318271637, 0.17644396424293518, -0.0011549992486834526, 0.22421522438526154, -0.37423738837242126, -0.046904221177101135, -0.1693357527256012, 0.19319017231464386, -0.1764865517616272, 0.15121592581272125, 0.1584910750389099, 0.028185008093714714, -0.056533172726631165, 0.030637778341770172, -0.04809834063053131, 0.043716758489608765, 0.1768893599510193, 0.3196113109588623, 0.12356684356927872, -0.23416854441165924, 0.4324380159378052, 0.06727923452854156, 0.3606593906879425, -0.2069367617368698, -0.022070610895752907, -0.08419031649827957, -0.055683813989162445, 0.263506144285202, -0.2558744251728058, -0.03643931820988655, -0.2703600525856018, -0.03031197004020214, -0.07191333919763565, 0.06686845421791077, -0.011464408598840237, -0.473880797624588, -0.05373067781329155, 0.036821890622377396, -0.25493124127388, 0.2127847820520401, -0.10598929226398468, -0.19816334545612335, -0.07717057317495346, 0.0056668054312467575, 0.2746359407901764, -0.04759202525019646, -0.13485413789749146, -0.19355221092700958, 0.08556290715932846, -0.02371414192020893, -0.14675763249397278, 0.3580408990383148, 0.09714597463607788, -0.554721474647522, 0.25324344635009766, -0.03571765124797821, -0.13614371418952942, -0.2145538479089737, -0.31345194578170776, -0.3855758011341095, 0.13718517124652863, -0.27177077531814575, 0.05957631394267082,
-0.2162427008152008, -0.15536046028137207, 0.13105230033397675, 0.07744737714529037, -0.21706053614616394, 0.16766059398651123, -0.005825494881719351, -0.03569072112441063, -0.027330804616212845, 0.013461106456816196, -0.05506739765405655, -0.00835423544049263, -0.007705252151936293, 0.09206688404083252, 0.5580024123191833, 0.04151755943894386, 0.3848441541194916, -0.0967610776424408, 0.03474320098757744, 0.11668313294649124, 0.09365970641374588, 0.2595822811126709, 0.0963224321603775, 0.03744469955563545, -0.023519117385149002, 0.20041167736053467, 0.2904841899871826, 0.037135638296604156, -0.051653604954481125, -0.25740790367126465, 0.11046670377254486, 0.3576540946960449, 0.25492289662361145, -0.14706476032733917, 0.1841038316488266, 0.3288649022579193, 0.35001620650291443, 0.1841457486152649, -0.1757785826921463, -0.10780743509531021, 0.14919307827949524, 0.15172237157821655, -0.3918170928955078, 0.23896145820617676, -0.02157968282699585, 0.03705466538667679, -0.28540873527526855, -0.18285803496837616, 0.4757632911205292, -0.219808429479599, -0.1957869529724121, -0.0791027620434761, -0.21141521632671356, -0.3984454572200775, -0.1096995547413826, 0.28647381067276, 0.22806143760681152, -0.08015143126249313, 0.47515034675598145, -0.005919353105127811, -0.11622903496026993, -0.07128769904375076, 0.11745238304138184, -0.27490687370300293,
-0.20000767707824707, 0.2590705156326294, 0.2103946954011917, -0.29201486706733704, 0.0940752923488617, -0.14600208401679993, -0.42543360590934753, -0.3537016212940216, 0.07507626712322235, -0.23915375769138336, 0.016636857762932777, 0.19048292934894562, 0.25347840785980225, -0.03814270719885826, -0.16146093606948853, -0.05826835334300995, 0.09668797999620438, 0.04762834683060646, -0.1426049768924713, 0.17344507575035095, 0.13858012855052948, 0.04301891475915909, -0.044527169317007065, -0.03767094761133194, 0.18901778757572174, 0.08502336591482162, -0.14618195593357086, -0.04732534661889076, 0.2623613774776459, -0.01795053295791149, -0.24335792660713196, 0.04669125750660896, 0.21185043454170227, 0.05901750922203064, -0.09418631345033646, -0.07761205732822418, -0.14068013429641724, -0.35882410407066345, 0.06732365489006042, 0.09086202830076218, -0.04035525023937225, 0.04665519297122955, 0.38345226645469666, 0.36418765783309937, -0.1778361052274704, 0.15336312353610992, 0.07247424870729446, -0.0656028464436531, 0.12420390546321869, -0.20043276250362396, -0.4384840130805969, -0.32945987582206726, -0.31165823340415955, -0.2461501806974411, -0.2896457612514496, -0.022495802491903305, -0.0401482880115509, -0.17591801285743713, 0.001560437842272222, 0.17488062381744385, 0.013009712100028992, -0.004578961059451103, 0.022172894328832626, -0.32440170645713806,
0.14440427720546722, 0.11512792110443115, 0.22142928838729858, -0.1035478487610817, 0.03649057447910309, -0.022032393142580986, -0.15331625938415527, 0.08918114751577377, 0.16652248799800873, 0.14219480752944946, -0.43892568349838257, -0.3928355574607849, 0.06967923045158386, 0.09290038049221039, -0.015650827437639236, 0.09613480418920517, 0.0534789077937603, -0.035640325397253036, -0.35657426714897156, -0.02355051413178444, -0.2647221088409424, 0.19067451357841492, -0.06611073017120361, -0.1739659607410431, -0.1647353172302246, -0.13175350427627563, -0.12956999242305756, 0.2540665864944458, 0.2608545124530792, 0.0024575707502663136, -0.07441435754299164, 0.02475322037935257, 0.07482848316431046, 0.1770823746919632, -0.0005646115751005709, -0.0623512826859951, 0.07054201513528824, -0.04028834030032158, 0.05155375972390175, -0.1332961767911911, 0.11888628453016281, -0.1068640649318695, 0.3672686517238617, 0.08366798609495163, -0.37075677514076233, 0.11982768028974533, -0.362469881772995, 0.22935916483402252, -0.29483672976493835, 0.17688599228858948, 0.108624167740345, -0.0485454723238945, 0.0795392096042633, -0.11714565008878708, 0.26104897260665894, 0.44264957308769226, -0.07726918160915375, 0.21202115714550018, 0.13180279731750488, 0.13916973769664764, -0.13936637341976166, -0.22124215960502625, 0.43764910101890564, -0.06514932215213776,
0.10226405411958694, -0.04025028273463249, -0.09886770695447922, 0.2679359018802643, -0.03926214203238487, -0.2741085886955261, -0.11498557776212692, 0.06695034354925156, 0.19632849097251892, 0.013937092386186123, 0.023168420419096947, -0.08287924528121948, 0.0209059976041317, 0.48919832706451416, 0.1492006480693817, -0.28257644176483154, 0.19997666776180267, 0.40323612093925476, 0.07896924763917923, -0.052497390657663345, 0.14285512268543243, 0.19392769038677216, -0.220147043466568, -0.05590170621871948, -0.03329392150044441, -0.14854827523231506, 0.07945594191551208, -0.3344472050666809, -0.3346461355686188, 0.04110240563750267, -0.3753511607646942, 0.2870289087295532, -0.17536763846874237, -0.05325869098305702, -0.3500518798828125, -0.23701728880405426, -0.21502986550331116, -0.40279412269592285, 0.20208856463432312, -0.035083357244729996, 0.22910717129707336, 0.22613559663295746, 0.12595057487487793, -0.14899256825447083, 0.24780045449733734, -0.041086345911026, 0.19691435992717743, -0.1560066193342209, 0.012439818121492863, -0.04494766145944595, -0.19594596326351166, 0.08773478120565414, 0.00013512844452634454, -0.01884579099714756, 0.23518021404743195, -0.22314344346523285, 0.35684913396835327, 0.09789057821035385, -0.08345872163772583, -0.23428040742874146, 0.025846827775239944, 0.04358058422803879, 0.05184529721736908, 0.2421521246433258,
-0.22346746921539307, -0.056604281067848206, 0.17922286689281464, 0.14300572872161865, 0.03476404771208763, -0.2691533863544464, -0.22214451432228088, -0.31601712107658386, 0.1794484406709671, 0.01928635686635971, 0.2602778375148773, -0.3892078995704651, -0.1632063239812851, 0.22604846954345703, -0.05132921040058136, -0.042023178189992905, -0.03853871673345566, -0.30066800117492676, -0.29355019330978394, 0.22142770886421204, 0.005445112939924002, 0.08583926409482956, -0.10481780022382736, -0.26959604024887085, 0.17628325521945953, -0.2713773548603058, 0.4303755462169647, 0.3684818148612976, -0.03393728658556938, 0.15032964944839478, 0.11265549063682556, -0.36814549565315247, -0.04905911907553673, 0.001174483448266983, 0.2686830461025238, 0.3592998683452606, -0.24653533101081848, 0.07745090126991272, -0.003796893637627363, 0.0025584851391613483, 0.0038938673678785563, -0.11136626452207565, -0.15552444756031036, 0.14610940217971802, 0.043509818613529205, 0.05254117771983147, -0.00671789376065135, 0.273171603679657, -0.05475117266178131, 0.07470939308404922, -0.2719680368900299, -0.15994693338871002, -0.034824054688215256, 0.2495172768831253, -0.15332207083702087, -0.19097483158111572, -0.33318641781806946, 0.49861642718315125, -0.008781145326793194, 0.01818556897342205, 0.1784997135400772, 0.1704045683145523, -0.12082628905773163, -0.3102153539657593,
0.07348775863647461, -0.28204163908958435, -0.0326855406165123, 0.324627161026001, -0.02587106078863144, -0.36614322662353516, -0.18416626751422882, -0.03486134111881256, -0.3382006883621216, 0.11824853718280792, 0.25989899039268494, 0.1514212191104889, -0.04671713337302208, -0.012759314849972725, 0.059784673154354095, 0.08224079012870789, -0.36825042963027954, -0.3578284680843353, -0.10953918844461441, 0.17596358060836792, -0.4397009313106537, 0.052627529948949814, 0.2898560166358948, -0.05761537700891495, 0.2886550724506378, -0.30421242117881775, -0.35674145817756653, 0.15078765153884888, 0.09223075211048126, -0.33263638615608215, 0.1353951096534729, 0.30878424644470215, -0.2177993208169937, -0.30470648407936096, 0.054499708116054535, 0.11759573221206665, 0.1679617166519165, -0.2303449511528015, 0.2914847433567047, -0.27770495414733887, -0.04770837351679802, 0.11761125922203064, -0.05878054350614548, 0.1491801142692566, 0.22899450361728668, 0.32166531682014465, -0.5383411049842834, 0.20292341709136963, 0.10001397877931595, -0.055301234126091, 0.06794115155935287, -0.007368419319391251, -0.08429291099309921, -0.1957697719335556, -0.0027867641765624285, -0.11059547960758209, -0.3438155949115753, 0.1621841937303543, -0.17184177041053772, 0.2733338177204132, -0.10990855097770691, 0.06662303954362869, 0.06904897093772888, -0.025459524244070053,
-0.10706201940774918, 0.035410940647125244, 0.25651785731315613, 0.03502845764160156, 0.26199859380722046, 0.17523647844791412, -0.37488195300102234, 0.10047939419746399, 0.3535228967666626, -0.04957796260714531, 0.10826855897903442, -0.14304962754249573, -0.28365159034729004, 0.015588868409395218, 0.018105387687683105, 0.07893695682287216, -0.1317838579416275, -0.2485290765762329, 0.19650697708129883, -0.20672495663166046, 0.040746770799160004, 0.24613463878631592, 0.005685019306838512, 0.3735518753528595, 0.1627519577741623, -0.42925676703453064, -0.07130400091409683, 0.09309712052345276, 0.016384759917855263, 0.02666410245001316, -0.35723647475242615, -0.20887796580791473, -0.5000596642494202, 0.3979971408843994, -0.1451389044523239, -0.1092870682477951, -0.15160153806209564, 0.17800630629062653, -0.057346779853105545, -0.4846034348011017, -0.02853715606033802, 0.02651648409664631, 0.24410799145698547, -0.1335201859474182, 0.084228515625, 0.043783679604530334, -0.0323009118437767, -0.15114691853523254, -0.015825066715478897, -0.12208294123411179, 0.043931204825639725, -0.1531698852777481, -0.3009059429168701, 0.362419068813324, -0.22461119294166565, -0.12927772104740143, -0.16555216908454895, -0.16791680455207825, -0.39831459522247314, 0.29524630308151245, -0.05550450459122658, -0.06268180161714554, 0.06310893595218658, -0.2982923686504364,
-0.21510504186153412, -0.12937161326408386, -0.029305165633559227, 0.029938802123069763, 0.4655376076698303, -0.03757321834564209, 0.10965965688228607, 0.25281649827957153, 0.020330438390374184, -0.30758997797966003, -0.24906019866466522, -0.28602734208106995, 0.0033636661246418953, -0.12510143220424652, -0.21899542212486267, -0.03937157988548279, -0.18108057975769043, 0.2960139811038971, -0.03092777729034424, 0.2623264789581299, -0.09931395947933197, -0.20290210843086243, -0.0889909639954567, -0.21226832270622253, 0.008469153195619583, -0.20967592298984528, 0.09577025473117828, 0.023756086826324463, 0.1953243762254715, -0.21741095185279846, 0.02220987156033516, 0.005893320310860872, -0.22265096008777618, 0.212024986743927, -0.1976187527179718, -0.25310590863227844, -0.03338354080915451, 0.14413435757160187, 0.38291776180267334, 0.3012419641017914, 0.0753113254904747, -0.06839792430400848, 0.11984483152627945, 0.2553206980228424, 0.11300944536924362, 0.08054541051387787, 0.02682337537407875, -0.3547522723674774, -0.008698554709553719, 0.17822383344173431, 0.3876435160636902, -0.17320941388607025, -0.4373275339603424, -0.264588326215744, -0.2837013602256775, 0.4384027421474457, 0.3082007169723511, 0.19726282358169556, 0.12531456351280212, -0.07234007865190506, 0.04630713909864426, -0.42574188113212585, -0.15785358846187592, -0.5655125975608826,
-0.06300278007984161, 0.00863696075975895, 0.11190968006849289, 0.20398780703544617, 0.19853641092777252, -0.38159847259521484, 0.11304689198732376, -0.27025842666625977, 0.04260838404297829, 0.19349519908428192, -0.231191024184227, -0.15903151035308838, 0.01659283973276615, -0.005625632591545582, -0.10847725719213486, 0.043797969818115234, -0.009753987193107605, -0.15692263841629028, 0.057595204561948776, -0.005374932661652565, -0.3829888105392456, -0.14266151189804077, 0.4819473922252655, -0.06565399467945099, -0.13105927407741547, 0.015213779173791409, 0.031248407438397408, -0.130429208278656, -0.038415126502513885, -0.03180079534649849, -0.44754233956336975, 0.04825851693749428, -0.13603223860263824, -0.036368370056152344, -0.1958487629890442, 0.0008662563050165772, 0.16605444252490997, 0.10379625111818314, -0.03993678838014603, 0.20369844138622284, 0.21765992045402527, 0.10120280832052231, 0.19593636691570282, 0.23089630901813507, -0.009205248206853867, -0.003986123017966747, -0.21644780039787292, 0.1782144010066986, -0.03209317475557327, 0.3313536047935486, 0.1604612171649933, -0.2764367461204529, -0.04128023609519005, 0.4641563594341278, -0.019759736955165863, -0.30347004532814026, -0.08970972895622253, -0.24415843188762665, 0.34096604585647583, -0.26576653122901917, -0.35976675152778625, 0.2711200416088104, -0.35884883999824524, 0.30459582805633545,
0.09502564370632172, -0.28550073504447937, 0.1220666766166687, -0.12431352585554123, 0.23979471623897552, -0.013072975911200047, -0.045992784202098846, -0.13173168897628784, -0.35253986716270447, 0.10040000826120377, -0.04460360109806061, -0.3309994339942932, 0.31358933448791504, 0.3388972282409668, -0.2549627423286438, 0.01389396097511053, -0.148286834359169, -0.1256793588399887, -0.0989728793501854, -0.24619930982589722, -0.004916517995297909, -0.018796993419528008, 0.00974592287093401, -0.012004731222987175, 0.06162263825535774, 0.2186046689748764, 0.16616782546043396, 0.2470787614583969, 0.15715518593788147, -0.438484787940979, -0.05102173238992691, 0.06856762617826462, 0.2334161400794983, 0.03757155314087868, -0.14867180585861206, -0.0819869115948677, 0.2706942856311798, 0.2899058759212494, 0.021089045330882072, -0.2110220342874527, 0.025072548538446426, -0.10097911953926086, 0.2142602652311325, 0.33159974217414856, -0.17757651209831238, 0.044060833752155304, 0.3698209822177887, -0.31048816442489624, -0.7139610052108765, -0.004778504371643066, -0.06015365943312645, 0.2030215561389923, 0.00534473592415452, -0.12663640081882477, -0.27971574664115906, -0.11297841370105743, 0.41007739305496216, 0.07123903185129166, -0.04814666137099266, -0.20637381076812744, 0.06360359489917755, -0.009854832664132118, -0.16737237572669983, -0.04708925262093544,
-0.11256925761699677, -0.43140023946762085, 0.015685029327869415, -0.08569182455539703, -0.3668507933616638, -0.05587135627865791, -0.39235877990722656, 0.2658827602863312, -0.17499753832817078, 0.4960668683052063, -0.24540658295154572, 0.2071203589439392, 0.179118350148201, 0.04479131102561951, -0.20192328095436096, -0.017385069280862808, 0.16718296706676483, 0.06248360499739647, 0.018366334959864616, 0.2855519950389862, -0.07545647770166397, 0.06480979174375534, -0.23157921433448792, 0.23975896835327148, -0.31046876311302185, 0.33438920974731445, -0.466268926858902, -0.1258927881717682, -0.06984183937311172, -0.10746713727712631, -0.46075439453125, 0.43516966700553894, 0.11310768872499466, 0.17202894389629364, 0.18865033984184265, 0.09386028349399567, 0.13802245259284973, 0.20063968002796173, -0.1205691546201706, -0.055882953107357025, -0.007091253995895386, -0.09331707656383514, 0.004797818139195442, -0.009757686406373978, 0.2531231641769409, -0.37022721767425537, -0.09348011016845703, 0.1759159415960312, 0.15305361151695251, -0.14605702459812164, -0.024924205616116524, 0.06335101276636124, -0.18047504127025604, -0.058536335825920105, -0.38795724511146545, 0.03159388527274132, 0.059769317507743835, 0.33516597747802734, 0.1500086635351181, 0.03677089139819145, -0.04348976910114288, -0.008641560561954975, 0.053618136793375015, 0.015190432779490948,
0.17305900156497955, -0.4636794924736023, 0.20803138613700867, -0.3020939528942108, 0.010642164386808872, 0.1530488133430481, 0.06018184497952461, 0.021706515923142433, 0.11419887095689774, 0.03142391890287399, -0.06901801377534866, -0.22851575911045074, 0.08863303810358047, -0.4059370458126068, 0.17450104653835297, 0.3322157561779022, 0.06387703865766525, 0.04539006948471069, 0.005752748344093561, 0.12551280856132507, -0.2616719603538513, 0.0002857039507944137, -0.22619135677814484, -0.2932601273059845, -0.04793165251612663, 0.27728918194770813, -0.3415899872779846, -0.34527522325515747, -0.072051040828228, 0.12050290405750275, -0.1986093819141388, 0.13824735581874847, -0.14050360023975372, 0.05345073342323303, -0.37446004152297974, -0.26848840713500977, -0.09119163453578949, 0.07934363186359406, 0.04692670330405235, 0.011495290324091911, -0.2759069502353668, -0.2575853765010834, -0.29087895154953003, -0.21198001503944397, 0.19471442699432373, 0.3838561475276947, -0.0017830836586654186, 0.04520033299922943, -0.5663534998893738, -0.07991691678762436, -0.6094577312469482, -0.17266395688056946, -0.3150520622730255, 0.08036354184150696, 0.1415308266878128, -0.4267251789569855, 0.0018179480684921145, 0.2596987783908844, -0.04345943406224251, -0.27641186118125916, -0.3725983202457428, -0.15608981251716614, -0.10620484501123428, 0.07680454850196838,
-0.1412399709224701, 0.0915529802441597, 0.16978716850280762, 0.04265394061803818, 0.08264025300741196, 0.026379629969596863, -0.37457188963890076, -0.15855242311954498, -0.05620788782835007, -0.2588595747947693, 0.1479029506444931, 0.15532538294792175, -0.39188283681869507, 0.20016081631183624, -0.23139403760433197, -0.12464750558137894, 0.28505346179008484, -0.11313328146934509, 0.15033742785453796, -0.19741791486740112, 0.20870719850063324, 0.04215599223971367, 0.013547930866479874, -0.139728844165802, 0.10150352120399475, 0.04074327275156975, -0.28730508685112, 0.09406153857707977, -0.41328516602516174, 0.25441327691078186, -0.04187246039509773, 0.09928303211927414, 0.16170600056648254, 0.08125830441713333, -0.06445589661598206, 0.11210528761148453, 0.12142395973205566, 0.15680739283561707, -0.38133421540260315, -0.06299006938934326, 0.39975568652153015, -0.19844883680343628, -0.0003843865415547043, 0.014835516922175884, 0.17302832007408142, -0.34193140268325806, -0.06362688541412354, -0.06207963824272156, -0.18690168857574463, 0.4283818006515503, -0.0825095847249031, -0.015308872796595097, 0.10995961725711823, -0.24337248504161835, -0.00921769067645073, -0.0004740114673040807, 0.24558091163635254, 0.20129594206809998, -0.00039008865132927895, 0.32485586404800415, -0.33574727177619934, -0.29903897643089294, 0.032162219285964966, -0.49993202090263367,
0.0379030667245388, -0.33212047815322876, -0.28051942586898804, 0.05462313070893288, 0.23553305864334106, 0.08411215990781784, 0.4362747073173523, -0.40918654203414917, -0.024496247991919518, 0.12039083987474442, 0.12506337463855743, -0.07040422409772873, -0.24599432945251465, 0.10926298797130585, -0.24803125858306885, -0.1719217747449875, 0.15520021319389343, 0.11124169826507568, -0.06508232653141022, 0.07293745875358582, 0.050631266087293625, 0.09465333819389343, 0.025563620030879974, 0.39877864718437195, 0.2212781012058258, -0.10786204785108566, -0.22463403642177582, 0.34129834175109863, -0.31492605805397034, -0.05357692390680313, -0.11638681590557098, 0.0976024866104126, 0.3919215798377991, 0.3587939441204071, -0.040800388902425766, -0.2554084360599518, -0.015279692597687244, 0.022269219160079956, -0.028283046558499336, 0.1368984431028366, -0.12400779128074646, -0.0528167299926281, 0.008495321497321129, 0.1935652792453766, -0.04903106391429901, 0.32731106877326965, 0.1234317421913147, -0.14433160424232483, 0.07960595190525055, 0.04332208260893822, -0.016286905854940414, -0.193729430437088, -0.18172311782836914, 0.1729557365179062, 0.028033122420310974, 0.48954835534095764, 0.1991347372531891, 0.19851553440093994, -0.030871156603097916, -0.09191544353961945, 0.24271664023399353, 0.12263579666614532, 0.05228528752923012, 0.1341913491487503,
0.05025079846382141, -0.09510792046785355, -0.016417140141129494, 0.10083799809217453, -0.17098182439804077, 0.100889652967453, 0.12247415632009506, -0.6324917078018188, 0.4389423727989197, -0.022055944427847862, 0.0697462409734726, 0.15274971723556519, -0.15753662586212158, -0.2522788643836975, 0.3372337222099304, 0.25347477197647095, 0.2876845598220825, 0.0638895109295845, 0.11440809816122055, 0.4974275827407837, 0.31492698192596436, -0.14701086282730103, 0.023622767999768257, -0.319131076335907, -0.15855875611305237, 0.2631906569004059, -0.09097494930028915, -0.0786714106798172, -0.02769743651151657, -0.20676860213279724, 0.1387355625629425, 0.34268391132354736, -0.409280389547348, -0.42036473751068115, -0.029738478362560272, 0.19427092373371124, -0.020420297980308533, -0.16751307249069214, 0.08562134206295013, 0.01117278914898634, 0.1474296897649765, 0.09771794080734253, 0.20489086210727692, -0.2996484041213989, -0.2206430584192276, -0.15118002891540527, 0.0951414406299591, 0.37067320942878723, -0.08414719998836517, -0.049345310777425766, 0.24861472845077515, -0.10584075003862381, -0.11642006784677505, 0.15198425948619843, -0.036720145493745804, 0.2173755019903183, 0.184894397854805, -0.0988805890083313, -0.4742094576358795, -0.021536415442824364, 0.3224950134754181, -0.06899210065603256, -0.019460640847682953, -0.2594742476940155,
0.4379706382751465, -0.39074328541755676, -0.10161900520324707, -0.2047882378101349, 0.020975347608327866, -0.10754898190498352, 0.07738935947418213, -0.012004092335700989, 0.08406487852334976, -0.15884704887866974, -0.04508666694164276, 0.061113230884075165, 0.13246005773544312, -0.11742913722991943, -0.05000383034348488, 0.04277745261788368, 0.2302098125219345, 0.15587250888347626, 0.391434907913208, 0.19756661355495453, -0.30910059809684753, 0.2650979459285736, 0.011669179424643517, -0.5207072496414185, 0.1294340193271637, -0.08203034102916718, -0.09790603816509247, 0.2342408448457718, 0.2725425064563751, -0.21926036477088928, -0.10003422945737839, 0.427621990442276, 0.21371573209762573, -0.026464292779564857, -0.3199121356010437, 0.017317861318588257, 0.256982684135437, -0.03444281965494156, -0.08134725689888, -0.4135521948337555, -0.08035799860954285, -0.09079446643590927, 0.14155718684196472, 0.05984678491950035, 0.07159987837076187, -0.023103803396224976, -0.009824377484619617, 0.17620094120502472, 0.15740373730659485, 0.16329851746559143, 0.06520357728004456, -0.18480071425437927, -0.07050635665655136, -0.19551195204257965, -0.19256234169006348, 0.0767093300819397, -0.1012488305568695, -0.40730106830596924, -0.37656354904174805, -0.08735475689172745, 0.29830849170684814, 0.1913498044013977, 0.3375278413295746, -0.1679200679063797,
0.35293343663215637, -0.06767407804727554, -0.04319814220070839, 0.08658600598573685, -0.08637440949678421, -0.154343843460083, 0.4154411852359772, -0.05751306191086769, 0.32796531915664673, -0.27893269062042236, -0.2631743848323822, -0.29905885457992554, -0.23062683641910553, 0.10180322825908661, 0.04738721251487732, 0.09744638949632645, -0.17167329788208008, -0.20518094301223755, -0.09898306429386139, 0.13897277414798737, 0.32436397671699524, 0.11146074533462524, -0.10927676409482956, 0.09939107298851013, 0.10848584771156311, 0.1573624163866043, -0.5300657153129578, 0.43169811367988586, 0.07035519927740097, 0.02564076893031597, -0.12102041393518448, 0.14314724504947662, 0.09742431342601776, -0.2855134606361389, 0.3106176555156708, -0.3658502399921417, 0.11579816788434982, 0.0037645557895302773, -0.10089226067066193, -0.15457198023796082, 0.09081277251243591, -0.23457126319408417, -0.2902359366416931, -0.08600562065839767, 0.04721875861287117, -0.055473752319812775, -0.05407807603478432, -0.2084987461566925, 0.17757883667945862, -0.22859102487564087, 0.031177062541246414, 0.30298739671707153, -0.19458416104316711, -0.2130979597568512, -0.20919473469257355, 0.3449932038784027, -0.29725995659828186, 0.06894636899232864, 0.17638428509235382, 0.1445065289735794, -0.4056222438812256, 0.19764091074466705, -0.15825289487838745, -0.49245157837867737,
-0.22499795258045197, 0.18407733738422394, -0.07349719852209091, 0.19026249647140503, 0.21571333706378937, 0.0597107894718647, 0.23888221383094788, -0.04701821133494377, -0.03345758840441704, 0.2735832631587982, 0.14997068047523499, 0.2507709562778473, 0.5504639744758606, 0.2754451036453247, 0.013974854722619057, 0.09601990133523941, 0.01825178973376751, -0.2303420901298523, -0.1839364916086197, 0.10692811012268066, 0.07885489612817764, -0.18945859372615814, 0.2807106673717499, -0.4918317496776581, -0.1571391373872757, -0.059763338416814804, -0.10974786430597305, 0.26210522651672363, 0.17216821014881134, 0.26246121525764465, -0.024329425767064095, -0.28865501284599304, -0.45738711953163147, 0.13767549395561218, 0.04692433774471283, -0.00537454430013895, -0.3202131986618042, 0.019828064367175102, -0.3611327111721039, -0.0015808060998097062, 0.1584959328174591, -0.01314679067581892, -0.15507183969020844, -0.005547479726374149, 0.22006013989448547, 0.328474223613739, -0.07213101536035538, -0.1116129606962204, 0.2874849736690521, -0.23222921788692474, -0.000299759121844545, 0.4345359206199646, 0.19452548027038574, 0.10919160395860672, -0.0973811224102974, -0.061963941901922226, -0.08101420849561691, -0.10349784046411514, -0.015155891887843609, -0.05691349506378174, -0.05744285136461258, 0.14836502075195312, -0.04201043024659157, -0.058717384934425354,
0.0378759428858757, -0.016518717631697655, -0.10709655284881592, -0.5116066932678223, -0.20472417771816254, -0.08775565028190613, 0.021144693717360497, 0.10578884184360504, -0.050487834960222244, -0.5697034597396851, 0.14223240315914154, -0.18236704170703888, 0.13489976525306702, 0.2286885529756546, -0.33061814308166504, 0.09354700148105621, 0.2475869506597519, -0.0833640769124031, -0.01139135379344225, -0.15858332812786102, 0.24034443497657776, -0.07877551019191742, 0.060673296451568604, 0.21353670954704285, -0.47201675176620483, -0.06875903904438019, -0.16963455080986023, 0.07013656198978424, 0.18968696892261505, 0.0820956602692604, 0.10924974083900452, 0.18365168571472168, -0.07874371856451035, -0.07862783968448639, 0.03380502760410309, 0.014382650144398212, 0.22584573924541473, 0.12679100036621094, 0.0810086652636528, 0.2378794252872467, -0.07450941950082779, -0.017037803307175636, -0.23193661868572235, 0.027351537719368935, -0.020425178110599518, 0.052296362817287445, -0.5108227133750916, -0.024641364812850952, 0.022265784442424774, -0.0874873474240303, -0.2470373958349228, 0.06487410515546799, -0.4145953953266144, 0.0881790965795517, -0.061939433217048645, 0.2635136544704437, 0.37815770506858826, 0.050116997212171555, -0.30908793210983276, -0.06910344213247299, 0.002391268266364932, 0.3735587000846863, 0.22203415632247925, -0.0738801658153534,
-0.21901680529117584, -0.019944459199905396, 0.17755062878131866, -0.017606684938073158, -0.10544521361589432, 0.037040773779153824, -0.056466344743967056, -0.23856349289417267, 0.04748479649424553, -0.012503878213465214, -0.02447320520877838, 0.2545124888420105, -0.13441531360149384, 0.15734156966209412, -0.038869958370923996, -0.04899802431464195, 0.12600944936275482, 0.09336765110492706, 0.07104676961898804, 0.3307281732559204, -0.1588873267173767, 0.04097940772771835, 0.1861310601234436, 0.05113633722066879, 0.39087724685668945, 0.19799265265464783, 0.28462448716163635, -0.46523362398147583, 0.32461613416671753, -0.08403735607862473, -0.05101688951253891, 0.10328333079814911, -0.1814429610967636, -0.1764131784439087, -0.22123003005981445, -0.007825164124369621, 0.01580876111984253, -0.34418556094169617, 0.193070650100708, -0.05261814594268799, -0.13661034405231476, -0.024995876476168633, -0.10155842453241348, -0.18903782963752747, -0.1694234162569046, -0.5838792324066162, 0.2030773013830185, -0.17082448303699493, 0.10076494514942169, 0.24106396734714508, 0.02851191535592079, 0.5515950322151184, -0.13278208673000336, 0.26981088519096375, 0.06494130194187164, -0.09874162077903748, 0.020791582763195038, 0.128474622964859, 0.26464661955833435, 0.0015710284933447838, -0.27029961347579956, 0.20678487420082092, 0.2869192361831665, -0.019117040559649467,
-0.28682225942611694, -0.023584522306919098, 0.004449063446372747, 0.03346831351518631, 0.07754288613796234, -0.13695462048053741, -0.40905478596687317, -0.034847114235162735, 0.16178788244724274, -0.16483637690544128, 0.2122788280248642, -0.15100263059139252, -0.17488206923007965, -0.02451063133776188, 0.19793400168418884, -0.14048412442207336, -0.3269364833831787, -0.3762337863445282, 0.09568376839160919, -0.23174847662448883, 0.2349037528038025, 0.12632061541080475, 0.23619112372398376, -0.15831810235977173, -0.2795543074607849, -0.20735865831375122, -0.2132091075181961, 0.3143687844276428, 0.005910574924200773, 0.028008392080664635, 0.07655638456344604, 0.38809579610824585, 0.031546663492918015, 0.07438234984874725, 0.0275723934173584, -0.3778454065322876, 0.05460094287991524, 0.14926566183567047, 0.22613425552845, 0.04810691997408867, -0.054982490837574005, -0.24414315819740295, -0.367057204246521, 0.26687759160995483, -0.24921424686908722, 0.13035306334495544, 0.37603795528411865, -0.10954675078392029, -0.13772869110107422, 0.13755786418914795, 0.14075428247451782, 0.11858250945806503, 0.004711061250418425, 0.23224084079265594, -0.18381649255752563, 0.2132515013217926, -0.23442761600017548, 0.16843929886817932, -0.10278937220573425, 0.06471409648656845, 0.02614961378276348, -0.14391644299030304, 0.31905436515808105, -0.029765723273158073,
-0.10600180923938751, 0.10712350159883499, 0.4117504954338074, -0.09625587612390518, -0.44071581959724426, 0.22973290085792542, -0.05635203793644905, -0.03662697225809097, 0.0775318294763565, 0.06801044940948486, -0.05902927741408348, -0.1145610585808754, 0.07390694320201874, 0.10150348395109177, -0.37334516644477844, -0.02899318002164364, 0.08406427502632141, 0.08754148334264755, 0.03707114979624748, 0.3882981836795807, 0.37608420848846436, -0.1088181808590889, 0.06443823873996735, -0.016231030225753784, 0.03934037685394287, -0.1637035757303238, 0.056214336305856705, -0.1470898687839508, -0.016703389585018158, -0.2842414677143097, 0.3141658902168274, 0.3037804961204529, 0.2637604773044586, 0.23755253851413727, -0.3509325385093689, 0.05117190256714821, 0.07509423047304153, -0.1477416455745697, -0.12299727648496628, -0.23201680183410645, 0.10020768642425537, 0.0009565442451275885, 0.20073248445987701, -0.01750083640217781, 0.4017387330532074, -0.06027903035283089, 0.07563275843858719, -0.26592883467674255, -0.12521415948867798, 0.1487666666507721, 0.32886630296707153, -0.21303744614124298, 0.1377590298652649, -0.15553124248981476, -0.050914108753204346, -0.13363993167877197, 0.001028543571010232, -0.33060383796691895, 0.2409963458776474, -0.17760586738586426, 0.1726112812757492, 0.09532782435417175, -0.17089897394180298, 0.188507542014122,
0.38709384202957153, -0.08585464954376221, -0.3689687252044678, 0.16453424096107483, -0.3171025812625885, -0.04300641268491745, 0.07522360235452652, -0.12279216200113297, -0.20774607360363007, -0.19866876304149628, 0.08556245267391205, -0.12140859663486481, 0.08754182606935501, -0.18049538135528564, -0.0027165026403963566, 0.28671616315841675, 0.20164382457733154, 0.05735179781913757, 0.5642709732055664, -0.03551781177520752, 0.26189830899238586, 0.003918147645890713, 0.1434086412191391, -0.01512953545898199, 0.04072950780391693, 0.0737416073679924, 0.12852473556995392, 0.02333470806479454, -0.29988086223602295, -0.03348556533455849, 0.23845943808555603, 0.1342972069978714, -0.3478928208351135, -0.23574554920196533, -0.16323962807655334, 0.07531744986772537, -0.3958987891674042, -0.04483739286661148, -0.24084551632404327, 0.40567994117736816, -0.3028710186481476, -0.13053041696548462, 0.18880032002925873, -0.1833753138780594, 0.16378381848335266, 0.13058625161647797, -0.02540276013314724, 0.348058819770813, 0.025993771851062775, 0.2361576110124588, -0.11155404150485992, 0.10694209486246109, -0.06888583302497864, 0.0909256786108017, 0.04055033251643181, 0.44984808564186096, -0.1364368200302124, 0.037356529384851456, -0.05746693164110184, -0.11481641232967377, -0.38641345500946045, -0.11953727900981903, 0.295686811208725, -0.04544825851917267,
0.32718583941459656, 0.059314366430044174, 0.3038404881954193, -0.06360291689634323, -0.36233681440353394, 0.09395851194858551, -0.1129075214266777, 0.08520403504371643, 0.03011487051844597, -0.12295857071876526, -0.20559988915920258, 0.2907837927341461, -0.24152322113513947, -0.13638098537921906, -0.04156056046485901, -0.15620964765548706, 0.10727481544017792, 0.07263641804456711, 0.2832823395729065, -0.1545233279466629, 0.06672894954681396, -0.129683256149292, -0.10058226436376572, -0.1568683683872223, 0.029369652271270752, -0.12379694730043411, 0.025078918784856796, 0.29328206181526184, 0.05715337023139, -0.4051624834537506, -0.025569584220647812, 0.03149513155221939, 0.18025457859039307, 0.006438774522393942, -0.1663622111082077, -0.2797684967517853, -0.11616367846727371, -0.0635334923863411, -0.23570427298545837, -0.007650521118193865, 0.010867667384445667, 0.45081043243408203, -0.6332656741142273, -0.43377384543418884, -0.020412622019648552, -0.0954432263970375, -0.1597071886062622, 0.4573349058628082, 0.2170860469341278, -0.1165158823132515, 0.025031305849552155, -0.05590960755944252, 0.0504721961915493, 0.05512822046875954, -0.08271022140979767, 0.23210926353931427, -0.07715624570846558, 0.3815752863883972, 0.025691183283925056, -0.04320568963885307, -0.193259134888649, -0.03478506952524185, -0.1794150024652481, -0.14817240834236145,
-0.17577022314071655, -0.03571544215083122, 0.17522650957107544, -0.03284917399287224, -0.1137344017624855, -0.03950363025069237, 0.12348756939172745, -0.08457586914300919, -0.33980613946914673, -0.05023584142327309, 0.3756130039691925, -0.14437437057495117, 0.24921303987503052, -0.2697468101978302, 0.03149542212486267, -0.21603430807590485, 0.37887638807296753, -0.03719961643218994, -0.0386546365916729, 0.1596125215291977, 0.32429590821266174, 0.08996791392564774, -0.09258842468261719, 0.011766206473112106, -0.026927558705210686, -0.10919012874364853, -0.15287742018699646, -0.03617974743247032, 0.1450275480747223, -0.18252527713775635, -0.16445675492286682, -0.3972356617450714, -0.16322487592697144, -0.20021837949752808, -0.5328351855278015, -0.060941413044929504, -0.3217436969280243, 0.11937117576599121, -0.004168692976236343, -0.2770645022392273, 0.017090152949094772, -0.24778734147548676, -0.18874643743038177, 0.2777647078037262, -0.14997655153274536, -0.46407395601272583, 0.006412580143660307, 0.06600198894739151, -0.08129328489303589, -0.13736385107040405, 0.28597894310951233, -0.19536976516246796, -0.25945213437080383, -0.1420314759016037, 0.12912775576114655, 0.1811627596616745, -0.0033594942651689053, 0.10350167006254196, -0.10964778810739517, 0.3530229926109314, -0.239169180393219, -0.08478616923093796, 0.027775373309850693, -0.08248373121023178,
0.09634208679199219, -0.06899525225162506, -0.016843346878886223, 0.06709302216768265, 0.24589145183563232, 0.133751779794693, -0.05958902835845947, -0.16811886429786682, 0.18374933302402496, -0.05177941173315048, -0.2348746657371521, -0.0489635169506073, 0.028489861637353897, -0.06558156758546829, -0.15355227887630463, 0.15293794870376587, -0.4115981459617615, -0.11957685649394989, 0.4165303409099579, 0.2491201013326645, -0.07441040873527527, 0.27767443656921387, 0.020888634026050568, -0.03546757996082306, -0.07961691170930862, -0.08189605921506882, 0.23518984019756317, 0.16662713885307312, 0.14882482588291168, 0.3003637194633484, -0.250222772359848, -0.014766124077141285, 0.055852338671684265, 0.06942114979028702, 0.14757677912712097, 0.09941155463457108, -0.1288665533065796, -0.11430710554122925, -0.10555240511894226, 0.22217251360416412, 0.1924562305212021, 0.10513729602098465, -0.2432059496641159, 0.4352051019668579, -0.1933884471654892, 0.02375858835875988, -0.22510424256324768, -0.19547531008720398, -0.31430694460868835, -0.24960669875144958, 0.15703123807907104, 0.10122367739677429, -0.09485900402069092, 0.1266375035047531, 0.10755375027656555, 0.33975768089294434, 0.16209003329277039, 0.12232851982116699, -0.4225214123725891, 0.3135632872581482, 0.30457013845443726, 0.020610766485333443, -0.20381249487400055, 0.4021777808666229,
0.04193548858165741, -0.17721392214298248, 0.24367903172969818, 0.010217465460300446, 0.10938336700201035, -0.22527362406253815, 0.08307456225156784, -0.10321791470050812, -0.28191959857940674, 0.21768926084041595, -0.05944132059812546, 0.11276879161596298, 0.12832042574882507, 0.09829282015562057, 0.3468436300754547, -0.07868055999279022, 0.32410728931427, -0.035087861120700836, 0.048152998089790344, -0.2710438370704651, -0.040899235755205154, -0.041271407157182693, 0.053705453872680664, -0.05294794589281082, -0.11638365685939789, -0.1673375368118286, -0.1070534884929657, -0.023587724193930626, -0.11103557050228119, 0.32226186990737915, 0.22757254540920258, -0.05366747826337814, -0.015936845913529396, -0.10630243271589279, 0.21398425102233887, 0.05920030549168587, -0.33821719884872437, -0.21301718056201935, -0.28373220562934875, -0.1582733541727066, -0.09518596529960632, 0.16598330438137054, -0.03954891115427017, 0.02843141183257103, -0.3157922923564911, 0.16234159469604492, 0.17630535364151, -0.2219001054763794, -0.22099721431732178, 0.4395301342010498, 0.16032996773719788, -0.04297121614217758, -0.42956599593162537, -0.28746750950813293, -0.3898191452026367, -0.021404024213552475, -0.27181053161621094, 0.10013379901647568, -0.12465516477823257, -0.16241858899593353, 0.25823187828063965, 0.07832672446966171, -0.541915237903595, 0.03783726319670677,
-0.16315355896949768, 0.14463813602924347, 0.1149316281080246, -0.026165418326854706, -0.019919810816645622, -0.170175701379776, -0.03642420470714569, -0.20095427334308624, 0.20246100425720215, 0.3389950692653656, -0.08009214699268341, -0.08085184544324875, -0.13981471955776215, -0.31174132227897644, -0.17971040308475494, 0.42809760570526123, -0.30646511912345886, -0.10915646702051163, 0.12775807082653046, -0.2721289396286011, 0.03497908636927605, -0.1307106763124466, -0.0829048827290535, 0.0371537059545517, -0.25979483127593994, -0.19533990323543549, 0.18093068897724152, -0.2898774743080139, 0.07112251967191696, 0.04829754680395126, 0.03947700932621956, -0.4973753094673157, -0.12365715205669403, -0.18139596283435822, -0.2798600196838379, -0.1577334702014923, 0.10875958949327469, 0.2012353092432022, -0.12653851509094238, -0.01954013854265213, 0.2857968807220459, -0.15977038443088531, -0.08794932812452316, -0.11160975694656372, 0.1941850781440735, 0.3177937865257263, 0.1741645187139511, -0.15034762024879456, 0.18472892045974731, 0.17347891628742218, -0.2124900072813034, -0.1350610852241516, 0.046958766877651215, -0.037898436188697815, 0.0946318507194519, 0.19632235169410706, -0.11976110935211182, 0.22904780507087708, 0.06956405937671661, 0.12888075411319733, 0.35818642377853394, 0.20471200346946716, 0.23322878777980804, -0.25484123826026917,
0.20271381735801697, 0.2565971910953522, -0.1396421641111374, -0.15462788939476013, -0.10147262364625931, -0.12049416452646255, 0.07016363739967346, 0.21111536026000977, -0.05742045119404793, 0.03906163200736046, -0.05138558894395828, -0.0907275602221489, -0.056776247918605804, 0.12716373801231384, 0.07485231757164001, -0.1411973536014557, -0.1774454563856125, -0.11209262162446976, -0.22431062161922455, 0.15770260989665985, -0.10311800986528397, -0.5421900153160095, -0.14970040321350098, 0.1480555534362793, 0.35517510771751404, 0.16808225214481354, 0.353964626789093, 0.03894922882318497, -0.18338172137737274, 0.03308786451816559, -0.1289553940296173, 0.416023313999176, 0.0218940619379282, 0.12196104228496552, -0.06305210292339325, 0.04351169988512993, -0.1885644644498825, -0.468261182308197, -0.33819612860679626, -0.1863713413476944, 0.12970370054244995, -0.15865914523601532, -0.5426238179206848, -0.11957260966300964, -0.19001169502735138, -0.08420993387699127, -0.4713108539581299, 0.12309105694293976, -0.4269976317882538, -0.04784682020545006, 0.2136145979166031, -0.07017397880554199, 0.15409521758556366, -0.3383485972881317, -0.06279774010181427, 0.28992724418640137, 0.039008352905511856, -0.19135519862174988, -0.1791398674249649, -0.3214021623134613, -0.0642055794596672, 0.036278750747442245, -0.09712068736553192, -0.2537831664085388,
-0.08801694214344025, -0.27623316645622253, -0.10289199650287628, 0.07637958228588104, -0.3170952796936035, 0.06155282258987427, -0.20981426537036896, 0.010266819037497044, -0.027528753504157066, -0.26804837584495544, -0.03362081199884415, -0.09693378210067749, -0.0919763371348381, 0.15548543632030487, 0.14363084733486176, -0.07647199183702469, 0.07940848171710968, -0.5183326601982117, -0.13720035552978516, 0.20932118594646454, -0.14322829246520996, 0.46236109733581543, -0.31470346450805664, 0.18100304901599884, -0.15647651255130768, -0.07333400845527649, 0.38687241077423096, 0.21911075711250305, -0.15726500749588013, 0.12436838448047638, 0.14939607679843903, 0.1704283356666565, 0.05036192014813423, -0.08558677136898041, -0.22227153182029724, -0.442246675491333, 0.041645001620054245, 0.1422932893037796, -0.21680952608585358, 0.013052037917077541, -0.008815315552055836, 0.10071808099746704, 0.29727375507354736, 0.08333181589841843, -0.3821429908275604, -0.020086880773305893, 0.31578728556632996, 0.06568421423435211, -0.08943411707878113, 0.07031400501728058, 0.3065570294857025, -0.0346008762717247, 0.3324368894100189, -0.3282766342163086, 0.16514715552330017, -0.4947671890258789, 0.07843843847513199, 0.011340660974383354, -0.041293710470199585, -0.2383745163679123, -0.2436935156583786, 0.08969977498054504, -0.06620065867900848, 0.12622947990894318,
-0.1732569932937622, -0.00631534680724144, -0.37985721230506897, 0.27519601583480835, 0.14894184470176697, 0.167387455701828, -0.15798065066337585, -0.10142559558153152, 0.00024075453984551132, 0.19295072555541992, 0.04369673877954483, 0.2101384997367859, -0.25018310546875, 0.00095620151842013, 0.020325815305113792, 0.07371945679187775, -0.4199802875518799, 0.12590214610099792, 0.3453544080257416, -0.061623066663742065, 0.05823845788836479, -0.27937906980514526, -0.16266708076000214, -0.12217288464307785, -0.19567136466503143, 0.023775683715939522, 0.053895529359579086, 0.05653701722621918, 0.039758119732141495, -0.011241989210247993, -0.006034484598785639, -0.054830122739076614, -0.12328063696622849, -0.17567983269691467, 0.2921583950519562, 0.010992557741701603, -0.06875365972518921, -0.031666602939367294, -0.011157057248055935, -0.08321435004472733, -0.21233384311199188, 0.2557808756828308, 0.15612125396728516, 0.1443282961845398, 0.20565848052501678, 0.19236022233963013, 0.220628559589386, 0.07334849238395691, -0.4462159276008606, -0.06556166708469391, 0.1587035059928894, -0.36561816930770874, -0.14468522369861603, 0.18364962935447693, -0.16781280934810638, 0.13971133530139923, 0.05899887531995773, -0.08544954657554626, 0.28746965527534485, 0.29351407289505005, -0.31405654549598694, 0.4322068393230438, 0.15396739542484283, -0.0687902644276619,
-0.060867950320243835, 0.40234073996543884, -0.08848536014556885, -0.11950453370809555, -0.3610858917236328, 0.24026669561862946, 0.16291257739067078, -0.04934529587626457, 0.0898616760969162, -0.2680366635322571, 0.37014538049697876, -0.0580320730805397, -0.17438890039920807, 0.0453854575753212, 0.051639799028635025, 0.03494027256965637, -0.17098575830459595, 0.0928194597363472, 0.18881702423095703, 0.02337031066417694, -0.12682434916496277, -0.32534435391426086, 0.04685000702738762, 0.08084462583065033, -0.1809176206588745, -0.06911052763462067, -0.09316357970237732, -0.003334475215524435, -0.19600069522857666, -0.05435309559106827, -0.45102256536483765, -0.1783962994813919, -0.16216827929019928, 0.07775313407182693, 0.2515365183353424, -0.024405330419540405, 0.20970898866653442, -0.21753118932247162, -0.14925281703472137, -0.03487837314605713, 0.07747599482536316, -0.2090938836336136, -0.061399273574352264, 0.27348244190216064, 0.07230547815561295, 0.20245258510112762, -0.11800765991210938, -0.0891771912574768, 0.15296709537506104, 0.2823755443096161, 0.24789127707481384, 0.18038268387317657, 0.12894442677497864, 0.1392640769481659, 0.09752892702817917, -0.1929214596748352, -0.01828550174832344, 0.356794148683548, -0.798538088798523, -0.26842376589775085, -0.31019341945648193, 0.08067971467971802, 0.040840473026037216, -0.031592514365911484,
-0.24176019430160522, 0.16885583102703094, 0.01760207675397396, -0.221482053399086, 0.21037782728672028, -0.24042466282844543, -0.052321657538414, 0.008754158392548561, 0.14810553193092346, -0.07887588441371918, 0.2615090310573578, 0.002629726892337203, 0.11832087486982346, 0.1277683973312378, -0.38280537724494934, 0.05724132061004639, 0.13073113560676575, -0.08326549828052521, 0.037597786635160446, 0.06483392417430878, -0.06410601735115051, 0.12118092179298401, 0.008040666580200195, -0.1607455015182495, -0.4088188707828522, 0.05421912670135498, 0.12724556028842926, -0.3331161439418793, -0.25782066583633423, -0.26441314816474915, -0.14803330600261688, -0.09394627809524536, 0.291692316532135, 0.18837687373161316, 0.15822559595108032, 0.33979925513267517, -0.1890391707420349, -0.22532689571380615, -0.24705004692077637, -0.1949404925107956, -0.092229925096035, 0.30675598978996277, 0.06398502737283707, 0.12657709419727325, 0.1911536157131195, -0.09604465216398239, 0.2404850274324417, 0.045714013278484344, -0.19490431249141693, -0.21477560698986053, 0.19838789105415344, 0.1859988123178482, 0.058751385658979416, -0.07798021286725998, 0.3091479539871216, -0.15559342503547668, -0.18928058445453644, 0.27350059151649475, 0.05054571479558945, 0.3506307601928711, -0.2356727123260498, -0.1733069121837616, -0.01769479364156723, -0.6021662950515747,
-0.05469033122062683, -0.12317296862602234, -0.06567076593637466, 0.12389165163040161, -0.3840582072734833, -0.2284267693758011, 0.22043317556381226, 0.18185465037822723, -0.21528568863868713, 0.05463677644729614, 0.10331740975379944, -0.03760740906000137, -0.12594598531723022, 0.030783141031861305, 0.12215402722358704, -0.23409992456436157, -0.29093316197395325, -0.16205278038978577, 0.2896735668182373, -0.0364171601831913, 0.1357237994670868, 0.012796841561794281, 0.2731688916683197, -0.27180540561676025, 0.12199672311544418, 0.0832752212882042, 0.06435144692659378, -0.2973763644695282, 0.2882988154888153, 0.20382452011108398, -0.17739719152450562, -0.05399518832564354, 0.32436034083366394, -0.0025118296034634113, -0.1131887435913086, -0.06023556739091873, -0.06187257915735245, 0.07922621071338654, 0.1775110810995102, 0.05303766578435898, -0.056209370493888855, -0.026200538501143456, 0.43439316749572754, -0.2988995611667633, 0.1280699074268341, 0.06051183491945267, -0.15320783853530884, -0.22176560759544373, -0.20972394943237305, -0.3258664309978485, 0.013295655138790607, -0.2673216760158539, 0.3113018572330475, 0.1789279282093048, -0.09850481897592545, 0.11124365031719208, -0.15186890959739685, 0.20022761821746826, -0.2878264784812927, -0.06210853531956673, -0.04670827463269234, 0.3251439929008484, -0.1861972063779831, -0.14604459702968597,
