#include "neural_network.h"
#include <stdio.h>
#include <math.h>

const float weights_fc1[] = {
0.3500882089138031, -0.1398494392633438, -0.09566782414913177, -0.07600114494562149, -0.24150171875953674, -0.02696521021425724, 0.006095671094954014, 0.016725653782486916, -0.16977530717849731, 0.00799333956092596, 0.152279332280159, 0.08861974626779556, -0.5609561204910278, 0.0007687542238272727, 0.25252625346183777, -0.041262488812208176, -0.16864436864852905, -0.09411478042602539, 0.3169364929199219, -0.06691396981477737,
-0.2621837854385376, -0.5385475754737854, -0.23348532617092133, 0.15572099387645721, -0.12383374571800232, 0.19628497958183289, -0.41222047805786133, -0.3488048017024994, 0.09292817860841751, -0.007375400513410568, -0.015959614887833595, -0.5234590172767639, -0.09395483881235123, -0.0553302988409996, -0.058294374495744705, -0.1994169056415558, -0.10643425583839417, -0.019965391606092453, 0.0951029509305954, 0.17357312142848969,
0.31851497292518616, -0.02841050922870636, 0.9132339954376221, 0.03490201011300087, -0.034031324088573456, 0.2916516661643982, 0.22355659306049347, 0.493108868598938, -0.49327149987220764, 0.18066275119781494, 0.15930242836475372, 0.3302525281906128, -0.08148720115423203, -0.0015888008056208491, 0.19888156652450562, -0.17440615594387054, -0.020958125591278076, -0.11449762433767319, 0.04695306345820427, -0.07680081576108932,
-0.5495620965957642, 0.11368905752897263, -0.5733304619789124, 0.04993954300880432, 0.06312381476163864, 0.2706323266029358, -0.11336788535118103, -0.0940980389714241, -0.08003993332386017, 0.18205370008945465, -0.07457570731639862, -0.24308493733406067, -0.05376126617193222, -0.05062440410256386, -0.015713946893811226, 0.1342334747314453, 0.29037612676620483, -0.14615756273269653, -0.2263135015964508, 0.4713030755519867,
-0.405589759349823, 0.03991904854774475, -0.46967777609825134, -0.06371510773897171, -0.2139735072851181, -0.06426683813333511, 0.29483097791671753, 0.42717859148979187, 0.47747620940208435, -0.0020370292477309704, 0.14702357351779938, -0.005284556187689304, 0.046838339418172836, 0.14361976087093353, 0.1096937358379364, 0.3484881818294525, 0.2749660313129425, -0.12163599580526352, 0.15865091979503632, -0.11023019999265671,
0.3933389484882355, -0.10404679924249649, 1.0919995307922363, -0.02259530872106552, 0.17313626408576965, 0.6239840984344482, -0.512825071811676, -0.06084664538502693, 0.337527871131897, -0.2496480941772461, -0.040563859045505524, 0.06561311334371567, 0.15188227593898773, 0.08297127485275269, -0.2584179639816284, -0.05418629199266434, -0.10589872300624847, -0.29417046904563904, -0.00621760031208396, 0.16075679659843445,
-0.20963454246520996, 0.39392635226249695, 0.5395363569259644, 0.2598046660423279, 0.1256413459777832, 0.017536329105496407, 0.7151291966438293, -0.078672394156456, -0.2649390399456024, 0.06826671212911606, 0.03215610608458519, -0.1521148830652237, -0.21650509536266327, -0.42441388964653015, 0.18202103674411774, 0.08761952817440033, 0.07444809377193451, -0.015427871607244015, -0.11644655466079712, 0.01667255163192749,
0.2027309685945511, 0.28114399313926697, -0.3199661672115326, 0.031344376504421234, 0.10432329028844833, 0.32603874802589417, -0.006214459426701069, -0.6842073202133179, -0.29978349804878235, -0.05952218919992447, 0.03900241106748581, 0.06152931973338127, -0.21366940438747406, -0.09528131783008575, -0.11221136152744293, -0.08572375029325485, 0.020563364028930664, 0.021797604858875275, -0.033637885004282, -0.22419847548007965,
0.24924498796463013, 0.3337092995643616, 0.12699070572853088, 0.019534772261977196, 0.3573690354824066, -0.5109283328056335, -0.045696500688791275, 0.6907174587249756, 0.3407014012336731, 0.03126765415072441, 0.16765263676643372, -0.022880665957927704, 0.3378506600856781, 0.014218492433428764, -0.4101131558418274, -0.09660045802593231, -0.3172132968902588, -0.329497754573822, 0.12892991304397583, 0.061724014580249786,
0.183949276804924, 0.7026655673980713, -0.49252769351005554, 0.11234627664089203, -0.059413645416498184, -0.14004552364349365, 0.008082645013928413, -0.2527334690093994, 0.16111452877521515, 0.026457814499735832, -0.16053709387779236, -0.029892876744270325, 0.14989399909973145, -0.02494669519364834, -0.11064723879098892, 0.3144242465496063, 0.13115549087524414, -0.2033797949552536, 0.1312333047389984, -0.30149152874946594,
-0.10303589701652527, 0.13410837948322296, -0.7662701606750488, -0.20652534067630768, 0.059409476816654205, -0.48123928904533386, -0.0840131863951683, 0.04829946160316467, 0.05216371268033981, -0.018212342634797096, 0.17094847559928894, 0.22552840411663055, 0.011621733196079731, 0.07137222588062286, 0.22810731828212738, 0.1324784904718399, 0.4456448256969452, -0.20738354325294495, -0.028397640213370323, -0.0014178650453686714,
0.13432936370372772, 0.47939935326576233, 0.12650181353092194, 0.14479680359363556, 0.14334657788276672, -0.4503938555717468, -0.30773863196372986, 0.24613770842552185, 0.7608660459518433, -0.11466801166534424, 0.008202427998185158, 0.07054496556520462, 0.29769763350486755, -0.19092649221420288, 0.11124686151742935, -0.10895998775959015, -0.0923067256808281, 0.1780727207660675, -0.06611986458301544, -0.06520990282297134,
0.12276951968669891, -0.015827298164367676, 0.8212292790412903, 0.31689852476119995, 0.0122927725315094, 0.11800339818000793, -0.11176881939172745, 0.286653995513916, -0.3542799949645996, -0.04623984172940254, -0.1383567899465561, -0.08009228855371475, 0.250026673078537, 0.20424771308898926, -0.09872177988290787, -0.07855837792158127, -0.07581490278244019, 0.35616931319236755, 0.10561733692884445, -0.14603492617607117,
0.33075830340385437, 0.4825623035430908, -0.29553449153900146, 0.06118207424879074, 0.009994500316679478, 0.22441713511943817, 0.11178611218929291, 0.39746302366256714, 0.00045839822269044816, 0.3176453411579132, 0.13157352805137634, -0.1148378774523735, -0.027895785868167877, 0.17362184822559357, -0.025521863251924515, 0.0698384940624237, -0.13853104412555695, -0.045245952904224396, 0.0607464537024498, 0.15906356275081635,
-0.15481404960155487, 0.16703614592552185, -0.32023075222969055, -0.06404205411672592, -0.04697563126683235, 0.4217948913574219, 0.37249743938446045, -0.7849494814872742, 0.28191763162612915, -0.038422517478466034, -0.17097127437591553, 0.12390520423650742, 0.048340246081352234, 0.0012925289338454604, -0.4513527750968933, 0.31270426511764526, -0.15405210852622986, 0.06651132553815842, 0.058329761028289795, 0.13909180462360382,
0.07987765967845917, -0.3523171842098236, -0.20494815707206726, -0.037932273000478745, -0.23180866241455078, 0.0810648575425148, -0.4125818610191345, -0.18325170874595642, -0.003991211298853159, -0.07772926986217499, 0.09072844684123993, -0.1935751736164093, 0.21095870435237885, 0.36402562260627747, -0.07726245373487473, 0.01850152388215065, -0.014367558993399143, 0.33420270681381226, 0.12291468679904938, 0.11809227615594864,
-0.5206666588783264, 0.08528080582618713, 1.3024848699569702, -0.026858296245336533, 0.10774098336696625, 0.2873609960079193, -0.4007307291030884, -0.059361062943935394, 0.1935940831899643, -0.17691990733146667, -0.10746636241674423, 0.016946349292993546, -0.006339472718536854, -0.2194952666759491, 0.03380047157406807, -0.09133714437484741, 0.2942078113555908, -0.28126776218414307, 0.05970853939652443, 0.14369656145572662,
0.3379334807395935, 0.17719358205795288, -0.22648131847381592, -0.07387453317642212, 0.012552610598504543, 0.17424000799655914, 0.45691978931427, 0.3628130257129669, -0.22638145089149475, -0.10402163863182068, -0.023909496143460274, -0.12356565147638321, 0.10446259379386902, -0.32577934861183167, 0.6371524333953857, 0.35429543256759644, 0.03822069615125656, 0.15249961614608765, -0.12024480104446411, 0.1752457171678543,
-0.04380369558930397, 0.2813671827316284, -0.282645046710968, -0.048920437693595886, 0.09372946619987488, -0.23464268445968628, 0.1481352299451828, -0.03033060021698475, 0.43278610706329346, 0.02080928348004818, 0.000497510889545083, -0.01909819059073925, -0.1798216700553894, -0.04552043229341507, -0.08567546308040619, 0.1601133495569229, 0.3228614032268524, 0.4778840243816376, -0.005834606010466814, 0.3629285395145416,
0.19031669199466705, 0.3263688087463379, 0.10583199560642242, 0.1030389815568924, 0.16998571157455444, 0.5979014039039612, 0.5504000186920166, -0.29490384459495544, -0.02200677990913391, 0.04980190098285675, 0.01827530562877655, -0.24341151118278503, 0.3581557869911194, 0.007756448816508055, 0.25002068281173706, -0.03285583481192589, -0.27248772978782654, 0.0061296033672988415, 0.1813640147447586, 0.33446264266967773,
-0.28703731298446655, -0.3740520477294922, 0.7370681166648865, -0.038910266011953354, -0.06299816071987152, 0.1064804270863533, 0.357204794883728, 0.46332141757011414, 0.032281357795000076, -0.002332208910956979, -0.02335132285952568, -0.02150995284318924, -0.3813268542289734, -0.07636310905218124, 0.07419067621231079, 0.2655167281627655, 0.45367369055747986, -0.004324333742260933, -0.16560731828212738, 0.16200898587703705,
-0.03429938852787018, -0.31482717394828796, 0.41006335616111755, 0.15595148503780365, -0.2530020773410797, 0.05025831237435341, 0.14352819323539734, 0.1959846019744873, -0.1990392953157425, -0.0411880761384964, 0.037348631769418716, -0.3012588620185852, -0.013105294667184353, -0.17633478343486786, 0.3522959351539612, 0.16839519143104553, 0.2476905882358551, -0.22353655099868774, -0.015607214532792568, -0.27747786045074463,
0.1199292317032814, 0.3098827004432678, -0.7684382200241089, 0.228184312582016, 0.3402930200099945, -0.44043752551078796, 0.5507423281669617, -0.14752721786499023, -0.04585772007703781, -0.14407314360141754, 0.032535359263420105, -0.1710195541381836, -0.19731013476848602, 0.21098436415195465, 0.015568970702588558, 0.03998662531375885, -0.11506152898073196, 0.09714800864458084, -0.12886232137680054, 0.03526996076107025,
0.4916016161441803, -0.21004560589790344, 0.5364276170730591, -0.3286643624305725, 0.2099657952785492, 0.08181077241897583, -0.16414670646190643, -0.0978570431470871, -0.001099801273085177, -0.007363618817180395, -0.11540108919143677, -0.0003909817023668438, 0.275252103805542, 0.08839865773916245, -0.1659078598022461, -0.23422512412071228, 0.2116956114768982, 0.13895146548748016, -0.0010333458194509149, -0.05730460211634636,
-0.08813782781362534, -0.09822554141283035, -0.03603260591626167, -0.28075936436653137, 0.3386472165584564, 0.14920441806316376, -0.3892464339733124, -0.4637943208217621, -0.2464085966348648, -0.07181522250175476, -0.1651819944381714, -0.10234793275594711, 0.30958327651023865, -0.07890662550926208, 0.27713721990585327, 0.09350959956645966, -0.09018930047750473, 0.08783058822154999, -0.10002947598695755, -0.37675580382347107,
-0.3959280252456665, 0.6735584139823914, -0.15854652225971222, -0.31346455216407776, 0.44768092036247253, -0.24898700416088104, 0.19382688403129578, -0.5193670392036438, 0.007521273102611303, 0.20051124691963196, 0.08599938452243805, -0.06936722993850708, 0.11501536518335342, -0.33589616417884827, 0.13874869048595428, 0.1605810970067978, -0.3021544814109802, 0.2038726508617401, -0.13273417949676514, -0.07973435521125793,
-0.06772270053625107, -0.3790919780731201, -0.09266653656959534, 0.057802505791187286, -0.16743791103363037, 0.12732504308223724, 0.11189698427915573, 0.1546511948108673, -0.4194544553756714, 0.022940773516893387, -0.11215931922197342, -0.025877317413687706, 0.30912721157073975, -0.04601684585213661, 0.2080105096101761, -0.08255552500486374, -0.1388823539018631, 0.06127384677529335, -0.07215232402086258, 0.04537545144557953,
-0.07341736555099487, -0.05472055450081825, -1.3151062726974487, 0.14080356061458588, 0.16868844628334045, -0.4374576508998871, -0.29870983958244324, 0.6267098188400269, -0.2962494194507599, -0.049893081188201904, 0.1384449452161789, 0.12715262174606323, 0.16732388734817505, 0.21236862242221832, -0.07720344513654709, 0.1338087022304535, 0.3784369230270386, -0.052021995186805725, -0.2887176275253296, 0.05626112222671509,
0.5119878649711609, -0.5770280957221985, 0.7919995188713074, 0.10523980855941772, -0.2130417823791504, 0.03877686336636543, 0.21374721825122833, -0.09477289021015167, -0.2105402946472168, -0.004051057621836662, 0.1919315904378891, 0.06422168016433716, 0.0652323067188263, -0.1203591525554657, -0.10028555244207382, 0.04899970814585686, -0.4941805303096771, 0.08599686622619629, -0.15495900809764862, -0.12090278416872025,
0.053502049297094345, -0.10794690996408463, 0.18413323163986206, 0.04393049329519272, 0.10122472047805786, 0.2947782278060913, -0.3062989413738251, 0.3146478831768036, -0.261155366897583, 0.005314618814736605, 0.2909788191318512, -0.02863602712750435, 0.05995916202664375, -0.10133515298366547, -0.36038464307785034, -0.44559842348098755, 0.5504639744758606, 0.14665736258029938, -0.08950065076351166, -0.12029953300952911,
-0.4090718924999237, 0.2861705720424652, -0.1906171590089798, -0.2321602702140808, 0.19105438888072968, -0.009705889038741589, 0.34774771332740784, 0.28626060485839844, 0.23332227766513824, -0.03773780167102814, -0.052174754440784454, -0.17713534832000732, 0.08402267843484879, 0.20278063416481018, -0.10502976179122925, 0.21745814383029938, 0.004765278194099665, 0.39008721709251404, -0.152866393327713, 0.14658290147781372,
-0.1311841458082199, -0.45460033416748047, -0.16662722826004028, -0.23680168390274048, -0.1460987627506256, -0.06829575449228287, -0.3212822675704956, -0.567573606967926, -0.5373631715774536, 0.01650875434279442, 0.07206765562295914, -0.059776581823825836, 0.20198526978492737, 0.14538271725177765, 0.11513207852840424, 0.0817759707570076, 0.01187741570174694, -0.019543897360563278, -0.0696110650897026, 0.08156172931194305,
0.11742120236158371, -0.39932671189308167, -0.5492412447929382, 0.3106011152267456, 0.0404740609228611, -0.37674587965011597, -0.3965764045715332, 0.0205477736890316, -0.5558341145515442, 0.13615308701992035, 0.05317510664463043, 0.05998018756508827, 0.05510282143950462, 0.049613963812589645, 0.2568419277667999, 0.12524351477622986, -0.2824418842792511, -0.3319602906703949, -0.0980537012219429, 0.25227224826812744,
-0.1246819794178009, 0.22338759899139404, 0.12215327471494675, -0.034287355840206146, 0.3119972348213196, 0.43489518761634827, -0.042181991040706635, 0.9776052832603455, -0.2479100227355957, 0.024601783603429794, 0.07129260152578354, 0.1102796345949173, -0.005396020133048296, 0.39922529458999634, 0.027068408206105232, 0.2344035506248474, 0.24563194811344147, -0.07432211190462112, 0.10622245073318481, 0.06524673849344254,
0.8452834486961365, -0.532303512096405, 0.551476001739502, 0.30396828055381775, -0.1453055739402771, -0.1455279290676117, -0.26550352573394775, -0.2268705517053604, 0.46125075221061707, -0.00839296355843544, -0.04034578800201416, -0.018139123916625977, 0.043246425688266754, 0.15157650411128998, 0.0430443100631237, 0.014162689447402954, -0.11500079929828644, -0.02224338985979557, -0.22209365665912628, 0.0828339233994484,
-0.10187450051307678, -0.23160502314567566, 0.7241880297660828, 0.15848231315612793, 0.16638289391994476, 0.1859060823917389, 0.19259651005268097, -0.07560879737138748, -0.4838709533214569, -0.0826621726155281, 0.10759392380714417, -0.03792552277445793, -0.08619850873947144, 0.09940892457962036, -0.2422037571668625, -0.22793379426002502, -0.015054960735142231, -0.018094688653945923, 0.33903899788856506, 0.015749672427773476,
-0.5167907476425171, -0.026766803115606308, -0.24738557636737823, -0.13917066156864166, -0.14794473350048065, -0.22098074853420258, 0.07296688854694366, -0.5968834757804871, -0.44563162326812744, -0.04977914318442345, -0.060899216681718826, -0.0016824277117848396, 0.2667391300201416, -0.12219782918691635, -0.11733809858560562, -0.462208092212677, -0.10419356822967529, -0.23011243343353271, 0.06942835450172424, 0.172038733959198,
0.13283167779445648, -0.20361144840717316, 0.11659881472587585, -0.14408203959465027, 0.2646009027957916, 0.16418848931789398, -0.1701682060956955, -0.03876989707350731, 0.3826609253883362, -0.019908230751752853, 0.27355700731277466, 0.22718960046768188, -0.47674357891082764, -0.14328697323799133, 0.13298434019088745, 0.018252994865179062, -0.1681440770626068, 0.0653909295797348, 0.2621152698993683, 0.034397948533296585,
-0.41423436999320984, -0.18092910945415497, 0.6364594101905823, -0.36527249217033386, -0.1968728005886078, 0.4613870680332184, 0.36878612637519836, -0.20156697928905487, -0.04298631474375725, 0.32195183634757996, -0.168924018740654, -0.06394732743501663, 0.20952913165092468, -0.4060966968536377, 0.2702971398830414, 0.06332452595233917, -0.24607248604297638, -0.006542625371366739, -0.16606470942497253, -0.049271970987319946,
0.42721113562583923, 0.1587362438440323, -0.33948349952697754, 0.14465409517288208, 0.17576847970485687, -0.10319758206605911, -0.1443871706724167, 0.01755334436893463, 0.13340821862220764, -0.173360213637352, 0.24515174329280853, 0.20424336194992065, 0.2466048151254654, -0.20824937522411346, -0.20788949728012085, 0.23107117414474487, -0.4028075933456421, 0.04464693367481232, -0.2873081862926483, -0.07728497684001923,
0.1217547208070755, 0.3290213346481323, 0.051686596125364304, -0.381124347448349, 0.08820457011461258, -0.19941310584545135, -0.2667924761772156, -0.2210896909236908, 0.096345454454422, -0.15810638666152954, -0.15702944993972778, 0.16676419973373413, -0.295894980430603, 0.055658258497714996, 0.22357873618602753, 0.14700287580490112, -0.11372773349285126, -0.32738927006721497, -0.09639407694339752, 0.10028940439224243,
-0.13096389174461365, 0.477579265832901, 0.21950630843639374, -0.0018312358297407627, 0.08042306452989578, -0.0558185838162899, -0.31218221783638, 0.0993977040052414, -0.18246901035308838, -0.021319417282938957, 0.11004651337862015, -0.3260250687599182, 0.1328057497739792, 0.029864603653550148, -0.06991995126008987, 0.00260205683298409, 0.4197610318660736, -0.03014216385781765, -0.06654153019189835, 0.27976933121681213,
0.015257206745445728, 0.15546806156635284, 0.9146892428398132, -0.18653707206249237, 0.23720736801624298, -0.039155445992946625, -0.28113555908203125, -0.09770815819501877, 0.4650943875312805, 0.006146840285509825, 0.05810335651040077, -0.05633585900068283, 0.15986281633377075, -0.13648250699043274, 0.1947849988937378, -0.3933824598789215, 0.2238890379667282, -0.20917876064777374, 0.17569227516651154, -0.30786681175231934,
0.29373884201049805, 0.10055031627416611, -0.7099011540412903, 0.012440175749361515, -0.172895148396492, -0.39878982305526733, 0.39652934670448303, -0.09740407019853592, -0.4171094298362732, -0.054293688386678696, -0.13871903717517853, -0.3831615149974823, 0.08748181909322739, 0.14325952529907227, -0.10810815542936325, -0.15542331337928772, 0.35765257477760315, -0.007788551039993763, -0.006349143572151661, -0.15414293110370636,
-0.4030626118183136, 0.13072364032268524, -0.7797651886940002, -0.15560147166252136, -0.0445202998816967, -0.6693961024284363, 0.15717346966266632, -0.15788915753364563, -0.18551243841648102, 0.038221292197704315, 0.12996263802051544, 0.07194977253675461, -0.15830931067466736, 0.044110510498285294, 0.25448518991470337, 0.14913353323936462, 0.09065123647451401, -0.11129022389650345, -0.04003365710377693, -0.3327934443950653,
0.011929025873541832, -0.08252766728401184, -0.8856115937232971, 0.22647488117218018, -0.1198417916893959, -0.2991613745689392, -0.3415723145008087, 0.12854255735874176, 0.34340405464172363, 0.20770904421806335, 0.14546146988868713, 0.2453344166278839, -0.25658535957336426, -0.13080699741840363, -0.25860995054244995, -0.10539541393518448, -0.18757447600364685, 0.32192787528038025, 0.2282908856868744, 0.16921879351139069,
0.24992436170578003, -0.26531127095222473, -0.10757248848676682, -0.010269539430737495, 0.18144792318344116, -0.021920496597886086, 0.34481924772262573, -0.10065410286188126, 0.11120910197496414, -0.15250353515148163, 0.0705251395702362, -0.12154223769903183, -0.0901152566075325, -0.2478947788476944, -0.1890372931957245, 0.0633334144949913, -0.02672930248081684, -0.20553511381149292, 0.43240195512771606, 0.15188755095005035,
0.14689385890960693, 0.09800216555595398, 0.3914020359516144, -0.0564483143389225, -0.15997178852558136, 0.3583299219608307, -0.14953145384788513, 0.4898625314235687, 0.07564757019281387, -0.12492714077234268, -0.2806558609008789, 0.042732976377010345, 0.19355283677577972, 0.08347326517105103, -0.08963430672883987, -0.2282228171825409, 0.17163170874118805, -0.08997060358524323, -0.24095414578914642, 0.09389758855104446,
-0.077483169734478, -0.11084631085395813, -0.22072316706180573, -0.020945018157362938, -0.34197908639907837, -0.05754424259066582, -0.4605062007904053, -0.4454062879085541, 0.04950658604502678, -0.15784090757369995, 0.2437308430671692, -0.1602654904127121, -0.12326478958129883, -0.014320201240479946, -0.24005436897277832, -0.19307631254196167, -0.22631800174713135, 0.07129073888063431, -0.24016173183918, 0.07499773800373077,
-0.3012872040271759, -0.1869153529405594, -1.1090081930160522, 0.07619914412498474, -0.2656894326210022, -0.013096327893435955, -0.5036927461624146, 0.08140680193901062, -0.05454302951693535, -0.10454707592725754, -0.16554434597492218, -0.08729074895381927, -0.09515281021595001, 0.31329432129859924, -0.09983491152524948, 0.02362704463303089, -0.07423526048660278, 0.08367903530597687, 0.5068886876106262, -0.026065457612276077,
-0.4117792844772339, 0.05162668600678444, 0.5244719386100769, 0.3487902879714966, 0.28905782103538513, 0.031998176127672195, -0.1312442421913147, -0.7039962410926819, 0.454821914434433, -0.06638679653406143, -0.08527706563472748, 0.26730719208717346, 0.09566007554531097, -0.06695223599672318, -0.005969246383756399, -0.13017073273658752, -0.06208528205752373, 0.048307426273822784, 0.21783368289470673, 0.001266668550670147,
0.20835387706756592, -0.19594337046146393, 0.15652725100517273, 0.3429414927959442, -0.0560419037938118, -0.40916571021080017, 0.11429019272327423, -0.644370973110199, -0.5445173382759094, -0.00537615641951561, -0.346543550491333, 0.24078728258609772, -0.4253423511981964, -0.2840674817562103, 0.37257274985313416, -0.07114141434431076, 0.1591283679008484, 0.206174835562706, -0.03774956613779068, 0.23223160207271576,
-0.11110896617174149, -0.11392012238502502, -0.33721596002578735, -0.40056371688842773, -0.13281874358654022, 0.030318012461066246, -0.32652369141578674, -0.5638257265090942, 0.38291871547698975, -0.05942578241229057, -0.03248894587159157, 0.17368833720684052, 0.14564202725887299, 0.13597552478313446, 0.2313765436410904, -0.019435955211520195, 0.3829331398010254, 0.153068408370018, -0.04229418560862541, 0.006317545659840107,
-0.11369070410728455, 0.35189488530158997, -0.5272922515869141, 0.22368720173835754, -0.00530711654573679, -0.0465225912630558, 0.16519998013973236, -0.17337946593761444, 0.9676891565322876, 0.0502438098192215, 0.023480504751205444, 0.09906051307916641, 0.10817153751850128, -0.0728297159075737, 0.29354459047317505, 0.03804530203342438, 0.42323315143585205, -0.27494877576828003, -0.08907771855592728, -0.3654170334339142,
-0.1644037365913391, -0.11080780625343323, 0.7597249746322632, -0.17876186966896057, -0.10490575432777405, -0.1307215690612793, -0.32287147641181946, -0.3519248366355896, -0.6512110829353333, 0.013649743050336838, 0.10143879801034927, -0.015440288931131363, 0.3305326998233795, 0.10290729999542236, 0.036655087023973465, 0.21723672747612, 0.4322655200958252, 0.1465659737586975, 0.28533613681793213, 0.0382077619433403,
-0.3501291573047638, -0.0841665044426918, 0.08371344208717346, 0.08316726237535477, -0.24853762984275818, -0.21213962137699127, -0.16452209651470184, -0.3463578224182129, 0.1288759559392929, -0.1126275286078453, 0.06979871541261673, 0.2822214663028717, -0.06183119863271713, 0.14387930929660797, -0.10425169765949249, -0.22050681710243225, -0.2443976253271103, -0.3001636266708374, -0.11810832470655441, 0.225174680352211,
-0.17466895282268524, 0.2855517864227295, -0.5198545455932617, -0.11714227497577667, 0.21940878033638, 0.03807276859879494, -0.09768176823854446, -0.4940412640571594, 0.5041012167930603, 0.07858113944530487, 0.021112609654664993, -0.2884482145309448, -0.010318445973098278, 0.08909701555967331, 0.38484063744544983, -0.20202472805976868, -0.2908456325531006, 0.2842082679271698, -0.18472301959991455, -0.10183286666870117,
0.6723191142082214, 0.923552930355072, 0.419353187084198, 0.10322973877191544, 0.35089364647865295, 0.12868088483810425, -0.38499605655670166, -0.01859264448285103, -0.3301449716091156, 0.02993129752576351, -0.05922040343284607, -0.12219174951314926, -0.09693910926580429, 0.026917286217212677, 0.0024642462376505136, -0.1960262805223465, 0.010735949501395226, -0.14273014664649963, 0.03443102538585663, -0.06752563267946243,
0.2734375, 0.12220634520053864, -0.27314653992652893, -0.02178972028195858, 0.06275136023759842, -0.3594829738140106, -0.27755340933799744, -0.5004212856292725, 0.15896263718605042, 0.06911369413137436, -0.3078296184539795, -0.2650288939476013, 0.15555107593536377, -0.24861527979373932, -0.13590364158153534, 0.37162309885025024, -0.1938989758491516, 0.22843430936336517, 0.19830027222633362, -0.07968953996896744,
0.07317744940519333, -0.24933502078056335, -1.2770060300827026, -0.03127716854214668, 0.27589496970176697, -0.4160919189453125, 0.029092051088809967, -0.04016675427556038, -0.19061629474163055, 0.02225453034043312, -0.06496036052703857, -0.11395210772752762, 0.07482210546731949, -0.1825203150510788, -0.07876158505678177, 0.2841736376285553, 0.025657040998339653, 0.11692511290311813, 0.15984387695789337, 0.0038638198748230934,
0.18788646161556244, 0.06392482668161392, 0.6168461441993713, -0.21013082563877106, -0.10270509123802185, 0.17696653306484222, 0.2937067449092865, 0.423580139875412, 0.3283718526363373, 0.10089823603630066, -0.056675925850868225, 0.39513012766838074, 0.08506297320127487, -0.227680504322052, 0.25404876470565796, -0.17485955357551575, 0.2995683252811432, 0.13293962180614471, 0.1475307047367096, 0.15443123877048492,
-0.025093551725149155, 0.2412121742963791, -0.3975036144256592, 0.044163599610328674, 0.062224093824625015, -0.10574578493833542, 0.4654465317726135, -0.6738325357437134, 0.5437420010566711, 0.025862019509077072, -0.19381733238697052, 0.09097284078598022, 0.34698063135147095, -0.13932396471500397, -0.03133044391870499, -0.17173314094543457, -0.06428393721580505, 0.054327014833688736, -0.12119674682617188, -0.09231427311897278,
0.14224989712238312, -0.19124442338943481, 0.9958083033561707, 0.35382694005966187, -0.11275047063827515, 0.3594951033592224, -0.2530224621295929, -0.3636300563812256, 0.5149012207984924, 0.07806634902954102, 0.0587601512670517, 0.14496628940105438, 0.05064811185002327, 0.126434788107872, -0.3666824400424957, -0.01602993719279766, 0.2579898238182068, 0.16749481856822968, -0.21479643881320953, -0.16311819851398468,
-0.2960033118724823, -0.18814358115196228, 0.30489450693130493, -0.004292153753340244, 0.12323062866926193, -0.16298030316829681, -0.17367056012153625, 0.4431303143501282, 0.1681140959262848, 0.2170335054397583, 0.008903980255126953, -0.11273535341024399, -0.18744151294231415, 0.007518336642533541, -0.12680067121982574, 0.01704546809196472, 0.3912997841835022, -0.09931265562772751, -0.29934030771255493, 0.021523354575037956
};

const float biases_fc1[] = {
-0.06205637753009796, -0.1439138799905777, -0.1528928428888321, 0.01955306902527809, 0.1595146805047989, -0.10013741999864578, -0.020423684269189835, -0.17214804887771606, -0.0025995762553066015, -0.08582192659378052, 0.2091812938451767, -0.09906386584043503, 0.1146550253033638, -0.10554421693086624, -0.21039527654647827, 0.011740198358893394, 0.10988195240497589, 0.00850528571754694, 0.12733931839466095, -0.04676694795489311, 0.3241599500179291, 0.18290768563747406, -0.12596866488456726, 0.018710751086473465, -0.07244743406772614, 0.049441829323768616, -0.12088917195796967, 0.1562918722629547, -0.03955314680933952, 0.14044439792633057, 0.17972373962402344, -0.06086649000644684, -0.09547360986471176, 0.18006667494773865, 0.016306782141327858, -0.15622428059577942, 0.07007718831300735, -0.21142072975635529, 0.012643830850720406, -0.14823321998119354, -0.05045788362622261, 0.2178364247083664, 0.11975698918104172, 0.039766162633895874, -0.017352813854813576, -0.07180517911911011, -0.11387529224157333, 0.026394544169306755, 0.007627957500517368, 0.027916232123970985, 0.08456026762723923, 0.03428572416305542, 0.11308716237545013, 0.21535524725914001, 0.22847014665603638, -0.012883520685136318, -0.15171965956687927, -0.01617572456598282, -0.0636821836233139, 0.004574317950755358, 0.07125823944807053, -0.11881958693265915, 0.03623289614915848, 0.23941223323345184
};

const float weights_fc2[] = {
0.13885681331157684, 0.12606145441532135, -0.3772621154785156, 0.0953882560133934, -0.004612661898136139, 0.008398312143981457, -0.2460068315267563, -0.17427149415016174, 0.0613807737827301, -0.20260298252105713, 0.08695502579212189, 0.09242852032184601, -0.22999151051044464, -0.1832006871700287, 0.014826754108071327, 0.030160918831825256, -0.15535707771778107, -0.06772955507040024, 0.33739906549453735, 0.08652155846357346, 0.19656772911548615, 0.0583769865334034, 0.0088533665984869, -0.28984078764915466, -0.0521857813000679, 0.12426403164863586, -0.03499952703714371, -0.26518768072128296, -0.43565645813941956, 0.0016853067791089416, 0.36234724521636963, -0.3358546495437622, -0.39622482657432556, -0.16221235692501068, 0.22835540771484375, -0.05026824027299881, -0.16016538441181183, -0.5691931247711182, 0.021682007238268852, -0.3516579568386078, 0.09890732169151306, -0.24365666508674622, -0.1157207190990448, 0.1512727588415146, -0.09048955142498016, -0.15703071653842926, -0.35613948106765747, -0.07870252430438995, -0.3121720254421234, 0.10000450909137726, 0.10194312781095505, 0.21924105286598206, 0.24090541899204254, -0.11419561505317688, 0.1268070787191391, -0.32883796095848083, 0.06251604110002518, -0.051623135805130005, 0.6376727223396301, 0.06334216147661209, -0.22745589911937714, -0.2062176764011383, -0.5071837306022644, -0.0042475443333387375,
-0.008205954916775227, -0.1347217559814453, 0.263719767332077, -0.2453898936510086, -0.10526429861783981, 0.05652673542499542, -0.046796079725027084, 0.28459835052490234, 0.31576642394065857, 0.21726244688034058, 0.06864144653081894, -0.028824418783187866, -0.03117692656815052, 0.023692071437835693, 0.39355576038360596, 0.14968691766262054, -0.09286101162433624, 0.0052445996552705765, -0.13799460232257843, 0.22993260622024536, 0.30654412508010864, -0.38166582584381104, -0.1284194439649582, 0.05704525113105774, -0.1165018305182457, 0.1590633988380432, -0.22129446268081665, -0.15546740591526031, 0.11254752427339554, -0.1576746255159378, -0.35020712018013, 0.278114378452301, -0.28784337639808655, -0.26133328676223755, 0.1886443942785263, 0.26272052526474, 0.4503471255302429, 0.41732534766197205, -0.2504904568195343, 0.2114657312631607, 0.005267485044896603, -0.4524267911911011, 0.02117759920656681, 0.15074008703231812, 0.32711514830589294, 0.013715227134525776, -0.005685982294380665, -0.5032055974006653, -0.39606228470802307, -0.16601456701755524, 0.24205614626407623, 0.17983397841453552, -0.007017388474196196, 0.10564779490232468, 0.21519650518894196, 0.07895728200674057, 0.03360806405544281, 0.295006662607193, -0.11923450231552124, -0.12634553015232086, 0.166982039809227, -0.015420488081872463, 0.11686212569475174, -0.08592059463262558,
-0.19400472939014435, 0.32920506596565247, 0.22749119997024536, 0.2133970707654953, -0.04656898230314255, 0.07166944444179535, -0.14813271164894104, 0.24189800024032593, -0.044774968177080154, 0.20076730847358704, -0.2296038269996643, 0.20969070494174957, -0.1130332425236702, -0.3951549530029297, 0.07734882831573486, -0.013515225611627102, 0.279116153717041, -0.2809923589229584, -0.27838072180747986, 0.2606302797794342, 0.112948477268219, -0.01311560533940792, -0.16766925156116486, -0.31640613079071045, 0.27670618891716003, 0.0958310142159462, -0.014354359358549118, -0.09682930260896683, 0.1781521737575531, 0.07494893670082092, -0.28752100467681885, -0.011002253741025925, -0.09476824104785919, 0.04882019758224487, 0.4607499837875366, -0.2247793972492218, 0.01979825459420681, -0.15798969566822052, 0.28996679186820984, 0.023174770176410675, 0.15923923254013062, -0.21806217730045319, 0.19887210428714752, -0.29436907172203064, 0.029115281999111176, -0.04399427771568298, -0.052270542830228806, -0.09875106811523438, 0.08204886317253113, -0.10766024142503738, 0.08429044485092163, -0.21319928765296936, 0.1907939612865448, 0.029438506811857224, -0.27078747749328613, 0.16542582213878632, -0.04335830733180046, -0.23227566480636597, 0.17013424634933472, -0.13696110248565674, 0.2254510074853897, 0.2666332423686981, 0.5785714387893677, 0.12424846738576889,
0.08028092980384827, -0.036013949662446976, 0.01526293158531189, -0.17196835577487946, -0.1003127172589302, -0.2847980856895447, 0.09977386146783829, -0.17852683365345, -0.2018643617630005, 0.3618668019771576, -0.27720826864242554, 0.1443791687488556, 0.03880564495921135, -0.30541402101516724, -0.22230014204978943, -0.3404238820075989, 0.0055464827455580235, -0.17390552163124084, 0.21236534416675568, -0.11749768257141113, -0.21643319725990295, -0.17510171234607697, 0.21769343316555023, -0.40693679451942444, 0.05775029584765434, -0.7184348702430725, 0.03367869183421135, -0.009331225417554379, -0.3405548930168152, -0.10733962059020996, 0.1402556598186493, -0.15245722234249115, -0.11052502691745758, -0.059927668422460556, 0.015847139060497284, -0.2052052915096283, 0.3965985178947449, 0.02255009487271309, -0.060332875698804855, -0.41928479075431824, 0.09844522178173065, 0.008786744438111782, -0.015289245173335075, 0.368802547454834, 0.193581685423851, 0.04071555286645889, 0.14946477115154266, -0.133188396692276, -0.08893682062625885, 0.28345242142677307, 0.18894654512405396, 0.04924337565898895, -0.3563481569290161, -0.18655763566493988, -0.40478041768074036, 0.06591827422380447, -0.18782053887844086, 0.16190087795257568, 0.21767663955688477, -0.21144475042819977, 0.4923170804977417, 0.15437671542167664, -0.4625122547149658, -0.4289454221725464,
0.45572376251220703, -0.460173636674881, -0.12152862548828125, 0.14610406756401062, 0.07150397449731827, -0.008268195204436779, -0.34900200366973877, -0.02344050072133541, -0.08938921988010406, 0.1781562715768814, 0.0382753424346447, 0.15684455633163452, 0.10589055716991425, 0.045136958360672, 0.031885284930467606, 0.25221186876296997, -0.3406688868999481, 0.08024363964796066, 0.32632002234458923, 0.09952469170093536, 0.16093456745147705, -0.23332789540290833, -0.14833447337150574, -0.022858530282974243, -0.02168569341301918, 0.0730462446808815, -0.2298288494348526, 0.05515465512871742, 0.058595798909664154, -0.12451504915952682, 0.13922734558582306, -0.23942254483699799, 0.13813790678977966, -0.0587531141936779, 0.00544211408123374, -0.371931254863739, -0.07469771057367325, 0.1991923451423645, 0.1419523060321808, -0.2966017723083496, -0.05499551445245743, 0.12498623877763748, -0.05124207213521004, 0.23221036791801453, 0.12590663135051727, 0.41453245282173157, -0.2604519724845886, -0.26606062054634094, 0.011421514675021172, -0.23281259834766388, -0.2725048363208771, -0.2120693325996399, -0.10457128286361694, 0.08356025069952011, -0.181657612323761, 0.2862391173839569, 0.05831640586256981, -0.03673418611288071, -0.012032853439450264, 0.12271153926849365, -0.38872748613357544, 0.11490540951490402, -0.23688772320747375, 0.19437815248966217,
-0.2439439594745636, 0.09970936179161072, 0.4118841290473938, -0.08269157260656357, -0.0823272317647934, -0.006777587812393904, 0.16483601927757263, 0.1077679991722107, -0.07646693289279938, -0.2847175896167755, -0.06430703401565552, 0.04225914552807808, -0.008284859359264374, -0.2018386423587799, 0.08386605978012085, 0.09388814866542816, -0.01414052490144968, 0.06056899577379227, 0.05763872712850571, -0.2625851035118103, 0.2853875458240509, -0.050799660384655, -0.25190332531929016, -0.10555434226989746, -0.23681336641311646, -0.1701575666666031, 0.1630868911743164, -0.04524478688836098, 0.2769745886325836, 0.15600994229316711, 0.2707614600658417, -0.007629712112247944, -0.13534095883369446, 0.28342175483703613, -0.07182011008262634, -0.06091216951608658, 0.13636086881160736, -0.41867077350616455, -0.37920325994491577, -0.537293016910553, -0.10407665371894836, -0.2161884903907776, -0.48262640833854675, 0.12658023834228516, -0.40142756700515747, -0.01343598309904337, -0.1868559718132019, 0.03702768683433533, -0.18993936479091644, -0.2181294709444046, -0.15709081292152405, 0.1649121791124344, 0.15229377150535583, 0.21169163286685944, -0.1035882756114006, 0.05716178938746452, 0.009348521009087563, 0.3816407322883606, 0.29850658774375916, 0.07877174019813538, 0.2201933115720749, 0.36370018124580383, 0.1998032182455063, 0.19968748092651367,
-0.19256192445755005, -0.5394625067710876, -0.09303146600723267, 0.010179935954511166, -0.17475751042366028, -0.36169472336769104, -0.29829955101013184, -0.3735336661338806, -0.038737595081329346, 0.31284868717193604, 0.2520521581172943, -0.5111770033836365, -0.018320878967642784, 0.06716248393058777, -0.25115302205085754, 0.16374912858009338, 0.08309174329042435, -0.04208466410636902, 0.08779969066381454, -0.01851724274456501, -0.15704752504825592, 0.020515579730272293, 0.08559899777173996, -0.16939155757427216, -0.2116050124168396, -0.1089751198887825, -0.392101913690567, 0.46263018250465393, -0.11994101852178574, 0.13632291555404663, 0.19773034751415253, 0.23417283594608307, 0.12047519534826279, -0.04887617379426956, -0.11155638843774796, 0.12762108445167542, 0.33306923508644104, -0.4310906231403351, -0.22530148923397064, -0.10939095169305801, -0.2810957133769989, 0.11583712697029114, -0.13340120017528534, 0.27795207500457764, 0.0034287527669221163, -0.18491524457931519, -0.30171728134155273, 0.4702698290348053, 0.04172385111451149, 0.06079891696572304, -0.5585839748382568, -0.15240907669067383, 0.1392403542995453, -0.04959753900766373, 0.19969263672828674, -0.38446927070617676, -0.030684800818562508, -0.14683999121189117, 0.1684619039297104, 0.15515434741973877, 0.030939999967813492, -0.09441492706537247, -0.045236166566610336, 0.37152034044265747,
-0.025855407118797302, 0.12787294387817383, -0.3832673132419586, -0.1486949771642685, -0.08913101255893707, 0.11813270300626755, -0.3899999260902405, 0.11233774572610855, -0.04156142473220825, 0.20196616649627686, 0.0108251441270113, -0.2498348355293274, -0.2220207154750824, -0.2726749777793884, 0.022023875266313553, -0.3349122107028961, 0.2726641595363617, -0.19526734948158264, 0.13669385015964508, -0.5936639308929443, 0.03454335406422615, 0.09985364228487015, -0.04842745140194893, -0.21835120022296906, -0.22327114641666412, -0.26967117190361023, 0.2459111362695694, 0.04419900104403496, -0.10403497517108917, 0.12761835753917694, -0.2338077872991562, 0.34469354152679443, -0.05760344862937927, -0.03872717171907425, -0.3254837095737457, -0.16706974804401398, 0.16299229860305786, 0.22935301065444946, 0.10305950045585632, -0.07954172044992447, -0.5403486490249634, -0.0872894749045372, -0.3125223219394684, -0.05871852487325668, 0.30620142817497253, -0.05313153192400932, -0.36713579297065735, -0.14090390503406525, -0.3056841492652893, 0.2549459934234619, -0.08460749685764313, 0.03160742670297623, 0.4305652976036072, 0.07284179329872131, 0.06240140646696091, 0.30041101574897766, -0.5575753450393677, -0.09757668524980545, -0.23231229186058044, 0.006836126558482647, -0.06598605215549469, -0.37419602274894714, 0.05829876661300659, 0.35786840319633484,
0.0992496982216835, 0.07145357131958008, 0.2645535171031952, -0.3606681823730469, 0.048214301466941833, -0.13524137437343597, 0.1630740612745285, -0.06874962896108627, 0.10370497405529022, 0.01512066274881363, -0.10887926816940308, -0.07386894524097443, -0.2826910614967346, 0.09750805050134659, -0.15766391158103943, 0.031246701255440712, -0.28844043612480164, -0.06439823657274246, -0.1352921426296234, 0.09118875116109848, -0.1787225604057312, 0.1256338357925415, -0.14214222133159637, -0.26457759737968445, 0.09373772889375687, 0.0443144254386425, -0.21387390792369843, -0.11275129020214081, 0.03411075472831726, 0.17240017652511597, -0.7195861339569092, -0.24347415566444397, 0.22433742880821228, -0.3100193738937378, 0.23741327226161957, -0.40890592336654663, -0.0990150198340416, -0.19528640806674957, -0.04931991174817085, -0.05813780054450035, -0.2278863787651062, -0.24454115331172943, 0.2343941181898117, 0.11047069728374481, -0.11591413617134094, -0.3019185960292816, 0.14229436218738556, 0.037859514355659485, 0.08380287885665894, -0.08575962483882904, 0.12429247051477432, 0.5271977186203003, -0.1024065911769867, 0.13718238472938538, -0.042981620877981186, 0.10883539170026779, -0.02757890149950981, 0.02043905481696129, -0.13506607711315155, 0.07594311237335205, 0.45579859614372253, 0.35723674297332764, -0.08514655381441116, 0.18103820085525513,
-0.01856086403131485, 0.11888336390256882, 0.02147735096514225, 0.1448245346546173, 0.03525220975279808, -0.42257025837898254, 0.3216715157032013, 0.04200258478522301, -0.19258135557174683, 0.2338523417711258, 0.39584866166114807, -0.04924233630299568, -0.29154884815216064, -0.21425379812717438, -0.30034661293029785, -0.02427239902317524, 0.37497788667678833, -0.10753389447927475, 0.09965553879737854, -0.14983199536800385, 0.2264568954706192, 0.03169236704707146, 0.10945038497447968, 0.07384829968214035, -0.23805391788482666, -0.08348064869642258, -0.14064347743988037, 0.21267004311084747, 0.06374628841876984, 0.023386025801301003, -0.04322752356529236, -0.17826761305332184, -0.06906341761350632, 0.2838248610496521, -0.38785481452941895, -0.12389630824327469, -0.10370703041553497, -0.18374288082122803, -0.15249991416931152, -0.1675882190465927, 0.21033340692520142, -0.02738169953227043, 0.21817432343959808, -0.06109253689646721, -0.04400399327278137, -0.06783994287252426, -0.09453251212835312, -0.07044555246829987, -0.44471779465675354, -0.4602974057197571, -0.012390445917844772, -0.2240303009748459, 0.09399331361055374, 0.011637148447334766, 0.06987402588129044, 0.06160919740796089, -0.032383956015110016, -0.03549286723136902, -0.31971070170402527, 0.04311130940914154, 0.29371222853660583, -0.06209179013967514, -0.771638810634613, 0.1048831194639206,
-0.021542690694332123, -0.08600194752216339, 0.11712002754211426, -0.2574637234210968, 0.17202849686145782, -0.03129682317376137, -0.171250119805336, 0.1038191169500351, 0.6171948313713074, 0.2793024480342865, 0.18255451321601868, 0.09486504644155502, -0.06727054715156555, -0.21103471517562866, -0.03457140550017357, -0.07336914539337158, 0.3771016299724579, -0.07655864953994751, 0.34241795539855957, -0.19216245412826538, -0.22255322337150574, -0.0025359545834362507, 0.009053918533027172, 0.028475677594542503, 0.11411190778017044, 0.1144898533821106, -0.45039305090904236, -0.1009555235505104, -0.06045578420162201, -0.013738634064793587, 0.11770503222942352, 0.07533608376979828, 0.0001040617935359478, 0.13309836387634277, -0.133359894156456, -0.09512142837047577, 0.11476118862628937, -0.31065478920936584, -0.3164446949958801, 0.2248426079750061, 0.05933478847146034, -0.13336540758609772, 0.10828601568937302, 0.05746430158615112, 0.0519743487238884, 0.3627350628376007, -0.18754547834396362, 0.34311142563819885, 0.06495247036218643, -0.14475291967391968, -0.13386164605617523, 0.2535684406757355, 0.15412865579128265, -0.05088241770863533, -0.04789074510335922, 0.2610839605331421, -0.24281220138072968, 0.2968214154243469, 0.020454663783311844, 0.019093992188572884, -0.20769301056861877, -0.12586979568004608, 0.18701188266277313, -0.053385842591524124,
0.34058865904808044, 0.011107202619314194, 0.0581645667552948, 0.08151904493570328, 0.2524475157260895, -0.1029227003455162, -0.1691875159740448, -0.2522335648536682, -0.25571051239967346, -0.11899890005588531, 0.14477665722370148, -0.1885680854320526, -0.06436020135879517, -0.39813563227653503, 0.3984055817127228, -0.12443353235721588, 0.04793945699930191, -0.13928046822547913, -0.28848347067832947, -0.001841347198933363, 0.07870034873485565, 0.5017014145851135, -0.30719608068466187, 0.20719920098781586, -0.04848369210958481, 0.2487046718597412, 0.046191100031137466, -0.23974460363388062, -0.03932030871510506, -0.0719226747751236, 0.011027113534510136, 0.2859298288822174, -0.034296438097953796, -0.011930673383176327, -0.16376224160194397, -0.11619987338781357, 0.14930377900600433, -0.0582931712269783, -0.0076604257337749004, 0.1971084624528885, 0.1742120385169983, -0.34925657510757446, -0.12283706665039062, 0.09610772132873535, -0.05593930929899216, -0.054578740149736404, -0.40985456109046936, -0.30609220266342163, 0.02698126621544361, 0.10718290507793427, 0.16018146276474, -0.14061176776885986, -0.26166215538978577, -0.20620429515838623, 0.1984318494796753, 0.3443045914173126, -0.10053177177906036, -0.3459266424179077, 0.17647956311702728, -0.01054451335221529, 0.27371901273727417, 0.07943372428417206, 0.19072844088077545, -0.26794686913490295,
0.0777292549610138, 0.23732952773571014, 0.11010614037513733, 0.18436920642852783, -0.6936711072921753, -0.39210209250450134, -0.15935900807380676, -0.22418491542339325, 0.24299907684326172, -0.20140904188156128, 0.25276097655296326, 0.15648199617862701, -0.19224055111408234, -0.01376525592058897, 0.19545181095600128, -0.0781397745013237, -0.19678165018558502, 0.13519376516342163, 0.1026078388094902, -0.2271518111228943, 0.08429117500782013, -0.26492881774902344, 0.18345998227596283, -0.2538880407810211, 0.07483923435211182, 0.09138355404138565, -0.028564665466547012, -0.1470138430595398, -0.020647350698709488, 0.09896322339773178, 0.06136729568243027, 0.4052775800228119, 0.0552319772541523, -0.043287064880132675, -0.4221890866756439, 0.26922607421875, -0.3927362561225891, 0.17620891332626343, 0.36213937401771545, -0.002841968322172761, -0.15648271143436432, -0.09320001304149628, 0.2818349003791809, 0.1665297895669937, -0.03295359015464783, -0.09123792499303818, -0.01742352358996868, 0.21404026448726654, -0.3219822645187378, -0.1662270724773407, 0.05428455024957657, -0.10725010186433792, -0.2802773416042328, -0.29231318831443787, -0.2560371458530426, -0.4241406321525574, 0.03823012113571167, -0.047119736671447754, -0.022266151383519173, 0.09355614334344864, 0.2698187828063965, 0.19745506346225739, -0.06655816733837128, 0.25626659393310547,
0.19488193094730377, 0.21566466987133026, 0.08191116154193878, -0.13509179651737213, -0.14404001832008362, 0.1156286671757698, -0.1803998351097107, 0.020322583615779877, 0.21084652841091156, 0.12658081948757172, 0.13619789481163025, 0.00934595800936222, 0.35111796855926514, -0.44072625041007996, -0.11730492860078812, -0.31222590804100037, -0.141218364238739, 0.3549492657184601, -0.753409743309021, -0.00975838489830494, -0.07098149508237839, -0.03608747944235802, 0.24525578320026398, 0.12606459856033325, -0.14124716818332672, 0.04867642745375633, -0.03515700250864029, 0.05874313414096832, 0.031028620898723602, -0.14831405878067017, -0.17186903953552246, -0.5429186224937439, 0.29846563935279846, 0.181728795170784, 0.2663383185863495, -0.15086069703102112, -0.229714035987854, -0.010605047456920147, -0.19433225691318512, 0.08578784763813019, 0.17415520548820496, 0.004855974577367306, -0.0479155071079731, 0.2311711460351944, 0.17648904025554657, -0.6061060428619385, -0.07860779017210007, 0.10573642700910568, 0.1007004901766777, -0.1062869280576706, -0.3786635100841522, 0.02861296944320202, -0.03718090057373047, 0.2832825183868408, 0.1368408203125, -0.2521038353443146, -0.12727229297161102, -0.0385529063642025, -0.005363804753869772, 0.159549742937088, 0.27771586179733276, -0.38917970657348633, 0.12550310790538788, -0.199794203042984,
0.04223757982254028, -0.13041190803050995, 0.14997828006744385, 0.01395399309694767, 0.07398071885108948, 0.23346976935863495, 0.4121474027633667, -0.014880799688398838, -0.1617504060268402, 0.09500619024038315, 0.09898009896278381, -0.3294520378112793, 0.07345980405807495, 0.09397450089454651, 0.1565008908510208, -0.13167673349380493, 0.08557792007923126, 0.3496817350387573, 0.19057929515838623, -0.16163723170757294, 0.22447802126407623, 0.23150436580181122, -0.529946506023407, 0.19264696538448334, -0.13532160222530365, -0.3164438009262085, -0.3878936469554901, 0.08403421193361282, -0.12933067977428436, 0.14359159767627716, 0.053127266466617584, -0.20128630101680756, -0.3425702452659607, 0.1576797366142273, 0.3604084849357605, 0.016953615471720695, -0.4025208055973053, 0.1689770370721817, 0.2798072099685669, -0.23435524106025696, 0.08350375294685364, -0.18301749229431152, 0.07090889662504196, -0.3338838815689087, -0.12412288784980774, 0.044879890978336334, -0.022528549656271935, 0.12314990162849426, 0.10420243442058563, -0.07657752186059952, -0.4802382290363312, -0.04536052793264389, 0.10857947170734406, 0.026203762739896774, 0.2575743794441223, -0.06496365368366241, -0.03925184905529022, -0.15026292204856873, -0.25067251920700073, -0.4074212908744812, 0.1746598482131958, -0.16416823863983154, 0.04737932235002518, 0.09149663895368576,
0.17799575626850128, 0.09020216763019562, 0.303171843290329, -0.17195744812488556, -0.4149623513221741, -0.21107329428195953, 0.05213693529367447, -0.30375605821609497, -0.3860674500465393, 0.24349820613861084, -0.05504918843507767, 0.018717126920819283, -0.38882046937942505, 0.06468331813812256, 0.031283918768167496, -0.5600237250328064, -0.3493320047855377, -0.32844239473342896, 0.028181059285998344, 0.030689029023051262, 0.034537531435489655, -0.10907449573278427, -0.1293790191411972, 0.2970099151134491, 0.37965506315231323, 0.03523719310760498, 0.15939202904701233, 0.09451524913311005, 0.44054436683654785, -0.055187806487083435, -0.5681458115577698, 0.00014352952712215483, 0.3092838227748871, 0.20418140292167664, 0.26446035504341125, 0.2428581565618515, -0.12699738144874573, -0.1257122904062271, -0.13052043318748474, -0.04100397229194641, -0.0015631765127182007, -0.1721671223640442, -0.11397190392017365, -0.011904790997505188, 0.28533637523651123, 0.14686165750026703, -0.06142900511622429, -0.09290820360183716, -0.10900602489709854, -0.05237862840294838, -0.0971292033791542, 0.24465815722942352, -0.14989648759365082, -0.16439300775527954, 0.061393409967422485, -0.2885890007019043, 0.01775290258228779, 0.2799932658672333, 0.013392102904617786, 0.3566053509712219, 0.15408654510974884, -0.404619425535202, 0.019189897924661636, 0.053335197269916534,
0.10012119263410568, -0.06338315457105637, 0.06859534978866577, -0.023691942915320396, 0.40871670842170715, -0.38136011362075806, 0.18977947533130646, -0.0920168086886406, -0.2120116651058197, -0.2981317639350891, -0.29402419924736023, 0.01446317508816719, -0.3264849781990051, -0.12569859623908997, 0.01409328356385231, 0.24182851612567902, 0.01805165968835354, -0.20912614464759827, -0.11123137176036835, -0.15540750324726105, 0.20770561695098877, 0.25490033626556396, -0.3254391849040985, 0.003313504159450531, -0.018848134204745293, -0.3611193895339966, 0.16987517476081848, -0.1657920628786087, -0.07606521248817444, -0.13516531884670258, -0.011451526544988155, 0.10783428698778152, -0.2121240794658661, 0.086667500436306, -0.0561806857585907, 0.24514994025230408, 0.24260807037353516, -0.0047120642848312855, 0.24944622814655304, 0.18836304545402527, 0.15984374284744263, -0.16856294870376587, -0.43624579906463623, 0.49632272124290466, 0.34606850147247314, -0.2022429257631302, 0.0004003728390671313, 0.2801830768585205, -0.21035873889923096, 0.058215029537677765, -0.5585073232650757, 0.10139050334692001, -0.13762512803077698, -0.3141132593154907, -0.10475458949804306, -0.18283700942993164, -0.20063158869743347, -0.461455374956131, -0.2954883277416229, -0.10179920494556427, -0.20060481131076813, 0.09537295997142792, -0.06112195923924446, -0.13678725063800812,
0.20640359818935394, 0.22236484289169312, -0.08032994717359543, 0.040407922118902206, -0.4769287705421448, 0.3426944613456726, -0.01563434489071369, -0.2894911766052246, 0.11128823459148407, -0.16585710644721985, -0.41996514797210693, 0.09609126299619675, 0.11584559828042984, 0.036274105310440063, 0.04517386108636856, 0.14621374011039734, 0.45892998576164246, 0.09070390462875366, 0.18399298191070557, 0.4271790683269501, -0.019762970507144928, -0.09644195437431335, -0.30067554116249084, 0.18786835670471191, -0.058023612946271896, 0.19263824820518494, 0.10624920576810837, 0.08429046720266342, 0.1251065880060196, 0.2683592736721039, -0.12332400679588318, 0.08355428278446198, 0.17122524976730347, -0.19956862926483154, 0.16269522905349731, -0.0077369133941829205, -0.06767221540212631, -0.10213252156972885, -0.04984090477228165, -0.0021028851624578238, 0.18305137753486633, 0.25376826524734497, 0.4762853682041168, -0.10248591005802155, -0.3860776424407959, -0.3305286765098572, -0.0794866755604744, -0.015062814578413963, -0.06857234984636307, 0.23223578929901123, -0.1354958862066269, 0.18034961819648743, -0.020374080166220665, 0.37173035740852356, -0.14548572897911072, 0.12439112365245819, 0.11121374368667603, 0.019476890563964844, 0.13451090455055237, -0.21402646601200104, 0.08708514273166656, -0.12785232067108154, 0.024367529898881912, -0.34601086378097534,
0.17922034859657288, 0.002709336578845978, -1.461834654037375e-05, 0.006483415607362986, -0.19850757718086243, 0.41081562638282776, 0.26449209451675415, 0.08849120140075684, -0.022665930911898613, -0.16815023124217987, -0.06124201789498329, 0.13209261000156403, 0.10324367135763168, -0.13501900434494019, -0.2550021708011627, -0.269308865070343, -0.22322216629981995, -0.14227454364299774, -0.12382176518440247, 0.04369717836380005, 0.21431086957454681, 0.19857539236545563, 0.0962778851389885, -0.016132429242134094, -0.6017028093338013, 0.11711927503347397, 0.1941758543252945, 0.27355849742889404, 0.1628565937280655, -0.25614550709724426, -0.016165874898433685, 0.16346915066242218, 0.48125767707824707, 0.26581811904907227, -0.027857473120093346, 0.34812745451927185, -0.003021248383447528, 0.2269454002380371, -0.0931955948472023, -0.04029575735330582, -0.0709620788693428, -0.361327201128006, 0.21849535405635834, 0.10729837417602539, 0.305538147687912, 0.049686770886182785, 0.32414108514785767, 0.06222568452358246, -0.01284079160541296, -0.29781535267829895, -0.09669780731201172, 0.051525767892599106, -0.2721211016178131, -0.22933048009872437, 0.0783611387014389, 0.07558078318834305, -0.21568992733955383, -0.32828250527381897, -0.02826092392206192, 0.05333513393998146, -0.055762697011232376, 0.0005081546842120588, -0.162238210439682, 0.07374359667301178,
0.12012290954589844, -0.03981315344572067, 0.12101426720619202, -0.025149160996079445, 0.03807296231389046, -0.15206824243068695, -0.08006488531827927, 0.48665711283683777, -0.06358060985803604, -0.3375736474990845, 0.022650253027677536, 0.38161906599998474, -0.26187989115715027, 0.07680745422840118, -0.3468199074268341, -0.08263860642910004, -0.09477060288190842, -0.04618624225258827, -0.007450109347701073, -0.03091917745769024, -0.09932558983564377, -0.02624218724668026, 0.22310391068458557, -0.03434183448553085, 0.02448188327252865, 0.09185390919446945, -0.2560504972934723, 0.09641185402870178, -0.005455808714032173, -0.1489797979593277, -0.2159741371870041, 0.45491424202919006, 0.41868311166763306, -0.3681192994117737, 0.30883118510246277, -0.12934747338294983, 0.11813084036111832, 0.1061943992972374, -0.10489598661661148, 0.2877432107925415, 0.21419209241867065, -0.05832763388752937, -0.4084192216396332, 0.024461444467306137, -0.21363168954849243, -0.3873741328716278, -0.17602644860744476, -0.04110389202833176, 0.14743928611278534, -0.02312646619975567, -0.17027825117111206, -0.6441226005554199, -0.2511608600616455, 0.1309773027896881, 0.07749412953853607, -0.07533156871795654, -0.47027045488357544, 0.14557324349880219, 0.17540410161018372, -0.4151223301887512, -0.020375294610857964, -0.3765906095504761, -0.17649534344673157, -0.15206371247768402,
-0.035716332495212555, 0.040358904749155045, 0.024376854300498962, -0.01195471826940775, -0.5158239006996155, -0.0929325520992279, 0.24692583084106445, 0.1457570642232895, 0.001895139110274613, -0.23181957006454468, -0.2998831272125244, 0.27442681789398193, -0.010901947505772114, 0.044419411569833755, 0.21596935391426086, 0.06866035610437393, -0.022262845188379288, 0.23914150893688202, 0.05946129187941551, 0.003859923919662833, 0.010454894043505192, 0.3267706334590912, 0.3286811113357544, 0.09633036702871323, 0.16063575446605682, 0.04479041323065758, -0.2754124402999878, -0.2884798049926758, 0.022957729175686836, -0.4640239179134369, -0.0524015799164772, 0.14290399849414825, -0.37916579842567444, 0.04876437783241272, 0.09736558049917221, -0.19289904832839966, 0.01188796479254961, -0.09506404399871826, -0.32632821798324585, -0.26090261340141296, -0.01806364580988884, 0.2094845473766327, 0.11543131619691849, 0.14989812672138214, 0.46999600529670715, 0.060425497591495514, -0.16673703491687775, -0.26609551906585693, 0.08037251979112625, 0.08146990835666656, 0.055408742278814316, 0.10312246531248093, 0.17245273292064667, 0.029238229617476463, 0.15734469890594482, 0.11889799684286118, 0.09274668246507645, -0.13082106411457062, 0.04936566948890686, 0.11499796062707901, -0.1741553694009781, 0.08562923967838287, -0.09813989698886871, 0.13223440945148468,
0.03717182204127312, 0.002711436478421092, 0.11360332369804382, 0.17356353998184204, -0.022892821580171585, -0.2875644266605377, 0.46149396896362305, -0.02973427064716816, -0.07489050924777985, 0.23484160006046295, -0.04856603592634201, -0.04930431768298149, -0.02054993249475956, -0.20539933443069458, -0.2616008520126343, -0.141701340675354, -0.22303767502307892, 0.2646614909172058, -0.03495946153998375, 0.09580396115779877, 0.07021676748991013, 0.03991742059588432, 0.04794562980532646, 0.07367706298828125, -0.010705489665269852, 0.11744800209999084, 0.05638650804758072, 0.14914165437221527, -0.0604117326438427, 0.004549473524093628, 0.2978450059890747, -0.43115589022636414, -0.1761961728334427, -0.20401714742183685, -0.17128100991249084, 0.045852262526750565, 0.14662611484527588, -0.1426875740289688, 0.11748740822076797, 0.19950200617313385, -0.06169329956173897, -0.15409806370735168, 0.08047401905059814, 0.2893264591693878, -0.2038642168045044, 0.13823337852954865, 0.11898781359195709, 0.20645160973072052, -0.436814546585083, 0.10467999428510666, 0.289135605096817, -0.17325226962566376, -0.15237753093242645, 0.41045576333999634, -0.21656616032123566, 0.021071676164865494, -0.05444204434752464, -0.6803362369537354, -0.21947436034679413, 0.28183677792549133, -0.07217555493116379, -0.3270334005355835, -0.06638675183057785, 0.1887531727552414,
-0.21529768407344818, 0.02984652854502201, 0.20147958397865295, -0.34716853499412537, -0.08330376446247101, 0.13330423831939697, -0.348376601934433, -0.05035422742366791, 0.18509778380393982, -0.02087506279349327, -0.23081077635288239, 0.25962480902671814, 0.25575926899909973, -0.041052062064409256, -0.05454012006521225, 0.1411827653646469, -0.2763417661190033, -0.19405338168144226, 0.2350439578294754, 0.0957682877779007, -0.18554745614528656, -0.24669958651065826, -0.19694703817367554, 0.4327203631401062, -0.24259382486343384, 0.032115355134010315, -0.13562831282615662, 0.07528144121170044, 0.13060790300369263, 0.026254326105117798, 0.3856145739555359, -0.24180059134960175, -0.20199845731258392, 0.018993742763996124, -0.2235131412744522, -0.22837843000888824, -0.14333730936050415, 0.3544154763221741, 0.30381542444229126, 0.1900397390127182, 0.041624441742897034, -0.1290956735610962, 0.06902770698070526, -0.26351818442344666, -0.04490750655531883, -0.2371920943260193, -0.20897866785526276, 0.1644093245267868, 0.11756077408790588, -0.052909377962350845, -0.03297077491879463, -0.17863328754901886, 0.5396749377250671, -0.11582855135202408, -0.1176060363650322, 0.13863469660282135, 0.18813258409500122, -0.17871415615081787, 0.16482043266296387, 0.12868887186050415, 0.40791767835617065, 0.13024838268756866, 0.027023781090974808, -0.05862892419099808,
-0.1221163347363472, 0.318716436624527, -0.11492297053337097, -0.01890036277472973, -0.22563977539539337, 0.19914546608924866, -0.15965810418128967, 0.4463561177253723, -0.03562110289931297, 0.03301752358675003, 0.23957112431526184, -0.24414658546447754, 0.2921915054321289, -0.19516253471374512, 0.17150679230690002, -0.011867322027683258, -0.23395228385925293, -0.2890617251396179, -0.007173639256507158, 0.010419340804219246, 0.2472994178533554, 0.39460015296936035, -0.11032167077064514, 0.010311415418982506, 0.5272449851036072, -0.030880281701683998, -0.047706205397844315, 0.22881391644477844, -0.4405061602592468, 0.17196157574653625, -0.19392743706703186, 0.38337936997413635, -0.0887838751077652, -0.03897999972105026, -0.44988664984703064, -0.010222353972494602, 0.8002055287361145, -0.5523999929428101, 0.034857649356126785, -0.14352577924728394, -0.008283831179141998, 0.08294922113418579, -0.025896668434143066, -0.019618961960077286, 0.06232057884335518, -0.014910377562046051, -0.07802465558052063, 0.1823684126138687, 0.055841561406850815, 0.21111848950386047, -0.2703760862350464, 0.015193204395473003, -0.05747226998209953, -0.14445286989212036, 0.10923779010772705, -0.3795464038848877, 0.022986626252532005, 0.10121332108974457, 0.07864350825548172, -0.017138512805104256, -0.23275692760944366, -0.16855435073375702, -0.25466421246528625, -0.016098950058221817,
0.1693461537361145, -0.03369219973683357, -0.20496471226215363, -0.12322650849819183, 0.09116587787866592, -0.153036966919899, 0.18837018311023712, 0.35413262248039246, -0.2929675877094269, 0.13975994288921356, -0.29249125719070435, -0.26610898971557617, 0.13580332696437836, -0.10307645797729492, -0.21286386251449585, -0.052456144243478775, 0.042050424963235855, 0.20262792706489563, -0.008685005828738213, -0.09658721089363098, 0.39134481549263, 0.15681400895118713, -0.12656007707118988, -0.008872498758137226, 0.25563427805900574, 0.17667506635189056, 0.015203085727989674, -0.14711156487464905, 0.1904487907886505, -0.38870367407798767, -0.02649790048599243, 0.08500077575445175, 0.20076215267181396, 0.2654508352279663, -0.1610555499792099, 0.31751397252082825, 0.03669208660721779, 0.07485733181238174, -0.033741533756256104, 0.09002949297428131, -0.31887176632881165, -0.3205030858516693, 0.05631011351943016, -0.062155500054359436, 0.0709102600812912, -0.4242541193962097, 0.23399718105793, -0.5184848308563232, 0.271601140499115, 0.05784310773015022, 0.04981822520494461, 0.2157684862613678, -0.3582782447338104, 0.36392292380332947, -0.2867263853549957, 0.12684151530265808, -0.22065609693527222, -0.38061341643333435, 0.09921066462993622, -0.22887320816516876, -0.19784055650234222, 0.29786771535873413, -0.2604822814464569, 0.060485392808914185,
-0.24547919631004333, -0.13368795812129974, -0.2469063252210617, 0.014773033559322357, 0.07147536426782608, 0.09180562943220139, -0.5431819558143616, -0.1974763572216034, 0.16905537247657776, -0.13996177911758423, 0.03194749727845192, 0.01385612040758133, -0.07320195436477661, -0.1676943600177765, -0.1100195124745369, 0.34187906980514526, -0.10769718140363693, -0.14151716232299805, 0.2003931701183319, -0.40587136149406433, 0.18664821982383728, 0.1700201779603958, -0.14890612661838531, 0.08952716737985611, 0.05313826724886894, -0.22437380254268646, 0.019547970965504646, -0.18851223587989807, 0.2361314743757248, 0.22871318459510803, 0.030523115769028664, -0.13776236772537231, -0.08637718111276627, 0.26184505224227905, 0.29210689663887024, 0.15105140209197998, 0.4468976557254791, -0.03598692640662193, 0.09913580864667892, -0.2831164002418518, 0.03449016809463501, 0.03375476598739624, 0.42147892713546753, -0.2658642828464508, -0.2725751996040344, 0.03783782944083214, 0.14691300690174103, 0.19964711368083954, -0.05134857818484306, -0.015475481748580933, -0.017558524385094643, -0.004327451344579458, 0.022611260414123535, 0.16979582607746124, 0.31903204321861267, 0.2358614057302475, -0.22479906678199768, 0.00917700957506895, -0.36220237612724304, -0.20562636852264404, 0.1381177306175232, -0.4488213062286377, 0.19695645570755005, 0.17127789556980133,
-0.11705125868320465, 0.05855737626552582, 0.2640613615512848, 0.09939124435186386, -0.21194793283939362, -0.25612711906433105, 0.02939223125576973, 0.2904422879219055, -0.07820780575275421, -0.05175125598907471, -0.2010771781206131, -0.3408642113208771, -0.045964956283569336, -0.13874118030071259, 0.2819536030292511, 0.43361803889274597, -0.18863709270954132, 0.18342284858226776, -0.08877698332071304, 0.033756159245967865, -0.2368290275335312, -0.20175744593143463, 0.24444909393787384, -0.1176922395825386, 0.13211888074874878, 0.06592405587434769, -0.043430496007204056, 0.21125368773937225, -0.2825601398944855, 0.21176764369010925, 0.16798706352710724, 0.2857678234577179, 0.3632955253124237, 0.19498422741889954, -0.258804589509964, -0.13199108839035034, 0.1418319195508957, -0.48179978132247925, 0.0480356328189373, -0.352425754070282, 0.1041300892829895, 0.10405327379703522, -0.2563067078590393, -0.011840534396469593, 0.2785990238189697, 0.00736289843916893, 0.20638589560985565, 0.06146586686372757, -0.10794477164745331, -0.03660324588418007, 0.09268945455551147, 0.33283093571662903, -0.12263879925012589, -0.41416066884994507, 0.3209267556667328, 0.13307873904705048, 0.0330372117459774, -0.1497439742088318, 0.312655508518219, -0.22097782790660858, -0.24133676290512085, -0.4265570044517517, -0.04266481101512909, -0.13343442976474762,
-0.2842649519443512, 0.26553118228912354, 0.0023954675998538733, 0.08689218759536743, 0.11744843423366547, 0.012941380962729454, 0.11577610671520233, 0.0666145533323288, 0.17414617538452148, 0.30420374870300293, 0.13166148960590363, 0.24788397550582886, -0.2381051629781723, 0.2687084674835205, 0.15610159933567047, 0.0172687079757452, -0.01831018179655075, -0.40859344601631165, -0.16158610582351685, 0.10091136395931244, -0.38452404737472534, 0.0324641652405262, 0.04887529835104942, -0.3389144539833069, -0.2797335982322693, 0.2441159039735794, -0.1213463768362999, -0.2641110420227051, -0.018848545849323273, 0.055822957307100296, 0.5972996354103088, 0.031439706683158875, 0.012220858596265316, -0.4202215075492859, -0.05793747305870056, -0.21431879699230194, 0.1342751383781433, -0.14766214787960052, -0.03516869619488716, -0.2060214877128601, -0.40577149391174316, 0.029870139434933662, 0.006114913150668144, 0.052335578948259354, 0.292118102312088, 0.023389752954244614, 0.2879731059074402, -0.32474732398986816, 0.12229131907224655, 0.0174938403069973, -0.12942613661289215, -0.10436678677797318, -0.10081195086240768, 0.3587441146373749, 0.21107614040374756, -0.10147634893655777, -0.09775425493717194, 0.14032335579395294, -0.17797958850860596, 0.047097500413656235, -0.17322920262813568, 0.12257932871580124, -0.002337563084438443, -0.39063799381256104,
0.08158951252698898, -0.09650049358606339, 0.08482705056667328, -0.2427625209093094, 0.07296857982873917, 0.16198796033859253, -0.17077778279781342, -0.003651021746918559, 0.32780927419662476, -0.2825469970703125, -0.44793903827667236, -0.005509388167411089, -0.1494951844215393, 0.2971237599849701, 0.24972636997699738, -0.05117496848106384, -0.025885719805955887, 0.03334856405854225, -0.01809925027191639, -0.24356722831726074, 0.34312281012535095, -0.0629003494977951, 0.3596383035182953, 0.09968923777341843, -0.3371589183807373, -0.17069877684116364, 0.06785718351602554, 0.1694362461566925, -0.08718152344226837, 0.11973527073860168, -0.27905377745628357, -0.27697256207466125, -0.07448305189609528, 0.10410280525684357, 0.33953985571861267, -0.28620240092277527, 0.21267631649971008, 0.03982561081647873, 0.25985392928123474, 0.09468400478363037, -0.14663712680339813, -0.09899584203958511, -0.10474729537963867, -0.018101070076227188, -0.4053144156932831, 0.2935273349285126, -0.06307674944400787, -0.3322742283344269, -0.27160465717315674, 0.05219566822052002, -0.25731921195983887, 0.12156989425420761, -0.5009415745735168, -0.1769152283668518, -0.18878620862960815, -0.010928316973149776, 0.2829764783382416, -0.2474450170993805, -0.35851752758026123, -0.0995178371667862, 0.2091253697872162, 0.14869169890880585, 0.33299896121025085, 0.010628866963088512,
-0.019612735137343407, 0.06947784870862961, -0.18473684787750244, -0.12867949903011322, 0.11164253205060959, -0.29319125413894653, 0.1436869353055954, -0.61907958984375, -0.0008727873209863901, -0.16091927886009216, 0.012412762269377708, 0.0315159447491169, 0.10899968445301056, 0.2735608220100403, -0.26437216997146606, 0.09293507039546967, -0.19052395224571228, 0.35015079379081726, -0.2738696038722992, 0.11262520402669907, 0.39269527792930603, 0.017995189875364304, -0.24613051116466522, -0.045620597898960114, 0.025942131876945496, -0.23107825219631195, 0.41270485520362854, -0.010217658244073391, 0.2277156114578247, -0.1335863322019577, -0.15495188534259796, 0.10992209613323212, 0.007564605679363012, 0.06493274122476578, -0.026593908667564392, -0.37212419509887695, 0.23944616317749023, -0.3250371217727661, -0.07944472879171371, -0.3555474877357483, -0.33050984144210815, -0.3238466680049896, -0.26794925332069397, 0.22392350435256958, 0.26661863923072815, 0.07888990640640259, -0.387887179851532, 0.32328933477401733, -0.09301184117794037, 0.041530024260282516, -0.12137963622808456, -0.0437895692884922, -0.18908952176570892, -0.41241127252578735, 0.1814686506986618, 0.10130469501018524, -0.12107934057712555, -0.35196560621261597, -0.015331493690609932, -0.24147941172122955, 0.027591587975621223, -0.28570547699928284, 0.1806354969739914, -0.2012355774641037,
-0.2603095769882202, -0.2651209533214569, -0.3285154104232788, 0.31727367639541626, 0.13580399751663208, 0.27274465560913086, 0.10862620919942856, -0.040725111961364746, 0.48879268765449524, -0.022014176473021507, -0.1928892582654953, -0.09510231763124466, -0.35278481245040894, -0.3032172918319702, 0.311367392539978, -0.4294748604297638, 0.07645709067583084, -0.33559560775756836, -0.09688553959131241, -0.05596840754151344, 0.21187305450439453, -0.06156577914953232, -0.1621861755847931, -0.041102394461631775, 0.1230740174651146, 0.019230056554079056, -0.24061055481433868, 0.18213990330696106, 0.1752961426973343, -0.4547654390335083, 0.17238165438175201, -0.3303258419036865, 0.0534701943397522, 0.06892243772745132, -0.1995227187871933, -0.101300448179245, -0.2639227509498596, -0.007093037478625774, 0.11951925605535507, 0.011561237275600433, 0.12900206446647644, -0.15763507783412933, -0.07786116003990173, 0.00808835867792368, 0.07805133610963821, -0.13873881101608276, -0.3188524842262268, -0.1957600861787796, -0.14780846238136292, 0.11673314869403839, 0.27342966198921204, 0.037298984825611115, -0.15093855559825897, 0.11638359725475311, -0.34027040004730225, -0.10313155502080917, 0.19717688858509064, 0.18637017905712128, -0.07038253545761108, -0.11383402347564697, -0.18261495232582092, -0.06349830329418182, -0.11633904278278351, 0.2021351307630539,
-0.18981103599071503, 0.08534955978393555, 0.05000866949558258, -0.447201132774353, 0.24837499856948853, -0.09980851411819458, 0.019134292379021645, -0.052160151302814484, -0.09980741143226624, 0.2887088656425476, -0.07501386851072311, 0.2685742676258087, -0.14907214045524597, -0.40426936745643616, 0.7180473804473877, -0.17847871780395508, 0.07441885769367218, 0.044244833290576935, 0.029607299715280533, 0.2646832764148712, 0.10913333296775818, 0.10014050453901291, -0.011333605274558067, -0.3981389105319977, 0.04699927940964699, 0.25132685899734497, 0.06257626414299011, -0.12313234061002731, -0.07512666285037994, -0.5173835158348083, 0.160594180226326, -0.2505323588848114, 0.01725136861205101, -0.062013834714889526, 0.005356574896723032, -0.12154027819633484, -0.09404458850622177, 0.022594494745135307, -0.11259892582893372, -0.09794314205646515, -0.07276131957769394, -0.050832681357860565, 0.36428290605545044, 0.12960553169250488, -0.36226508021354675, 0.0728868618607521, 0.19531072676181793, 0.08014718443155289, -0.003516036318615079, 0.151228129863739, 0.0681966096162796, -0.10733432322740555, 0.5093523859977722, 0.26263490319252014, -0.02502221055328846, -0.1423185020685196, 0.26864081621170044, 0.15689794719219208, 0.16877372562885284, -0.2652483284473419, 0.13536778092384338, 0.048578787595033646, -0.250622034072876, 0.0573788657784462,
-0.05170004069805145, -0.14110998809337616, 0.043987616896629333, 0.16024667024612427, 0.006561020854860544, -0.012842374853789806, 0.2406197041273117, 0.2245146483182907, -0.3237725794315338, 0.1721670776605606, 0.06200535222887993, -0.11744755506515503, -0.06786558032035828, 0.14739802479743958, -0.06865371018648148, -0.36410945653915405, 0.07638489454984665, 0.2962515354156494, 0.2633514404296875, -0.12129750102758408, 0.29862597584724426, 0.13840484619140625, 0.2158145308494568, -0.14833694696426392, 0.036888379603624344, 0.21692197024822235, 0.04200232774019241, -0.07364274561405182, -0.0039331549778580666, 0.014360344037413597, 0.28040003776550293, -0.15078116953372955, -0.11666037142276764, -0.022777117788791656, -0.1439829170703888, -0.10885339975357056, -0.03403807058930397, 0.10203293710947037, 0.15735915303230286, -0.1958412379026413, -0.16232365369796753, 0.16380004584789276, 0.23115013539791107, 0.3161008358001709, 0.054206620901823044, -0.37734928727149963, 0.006561906076967716, -0.05463724583387375, -0.1547582447528839, -0.9673305749893188, 0.05649810656905174, 0.1277245730161667, -0.34441450238227844, 0.03074178472161293, -0.17909592390060425, -0.18488657474517822, -0.031791605055332184, 0.23067615926265717, 0.05303245037794113, 0.12627306580543518, 0.21586266160011292, -0.26634126901626587, 0.18823009729385376, 0.027635138481855392,
0.027056822553277016, 0.1018197238445282, -0.16713371872901917, -0.12624628841876984, 0.08043583482503891, -0.5233431458473206, 0.1600477695465088, -0.1564730405807495, -0.22169411182403564, -0.4281073808670044, -0.16239513456821442, -0.4115585684776306, -0.1528175324201584, 0.1083584800362587, 0.2623191177845001, 0.17226454615592957, 0.23940229415893555, -0.015457128174602985, 0.10811050981283188, -0.08655235171318054, 0.11070607602596283, -0.351821631193161, -0.18789836764335632, -0.13568097352981567, -0.16562728583812714, 0.15297813713550568, -0.045889828354120255, -0.16585560142993927, -0.18754161894321442, -0.23308676481246948, 0.21957038342952728, -0.3445756733417511, 0.1020909994840622, -0.15982811152935028, -0.38053563237190247, -0.3057086765766144, 0.03507986664772034, 0.009603166952729225, 0.1346009224653244, -0.2860499620437622, 0.20645564794540405, -0.33992210030555725, 0.14613395929336548, -0.25724542140960693, 0.19398874044418335, 0.300640732049942, -0.1574600338935852, -0.0208733007311821, 0.017867470160126686, 0.028790311887860298, -0.22863924503326416, -0.11143853515386581, 0.17730160057544708, 0.22540955245494843, -0.08751730620861053, -0.15228500962257385, -0.24813154339790344, -0.18248240649700165, 0.21409738063812256, 0.029257548972964287, 0.4683137536048889, 0.06716401875019073, 0.20591290295124054, 0.06171608343720436,
0.002599873812869191, 0.07001671940088272, -0.2024012804031372, 0.3156478703022003, 0.20740748941898346, -0.1355336308479309, 0.15423178672790527, -0.20158599317073822, -0.09296883642673492, -0.06856143474578857, 0.5268566608428955, -0.2049102932214737, -0.18920239806175232, -0.10446084290742874, 0.17897331714630127, 0.11890661716461182, -0.15883733332157135, -0.3314724266529083, 0.2590138018131256, -0.057977162301540375, 0.05296944081783295, -0.030477384105324745, 0.26747608184814453, -0.2326752245426178, -0.1304536759853363, -0.14849317073822021, -0.2317991852760315, 0.07612136006355286, 0.015442869625985622, 0.07254882901906967, -0.202186718583107, -0.08391863852739334, -0.24217157065868378, 0.33915975689888, -0.195844367146492, -0.2302427589893341, -0.3042601943016052, 0.4792408049106598, -0.0974433496594429, 0.030132656916975975, -0.19970199465751648, -0.1051071435213089, -0.24817585945129395, 0.028063515201210976, 0.2175343632698059, 0.006652387324720621, 0.34329789876937866, 0.07949639111757278, 0.14844799041748047, 0.18470461666584015, -0.20116373896598816, -0.06364090740680695, -0.10312394052743912, 0.392749547958374, -0.08468251675367355, 0.18807488679885864, 0.060991209000349045, -0.2249516248703003, -0.008327013812959194, 0.14641597867012024, 0.1382272094488144, -0.2552568018436432, 0.0018026713514700532, -0.15246254205703735,
-0.23060175776481628, 0.041436415165662766, 0.09119881689548492, -0.0733274295926094, -0.32113349437713623, 0.40756067633628845, 0.4299095869064331, -0.10408907383680344, -0.543221116065979, -0.050539761781692505, -0.10185228288173676, -0.24667884409427643, 0.054732970893383026, -0.033852025866508484, 0.09112386405467987, 0.06688404083251953, 0.2577630579471588, -0.0014569209888577461, 0.10533343255519867, 0.007641814183443785, 0.30839312076568604, -0.11761453002691269, 0.08692256361246109, -0.16928014159202576, 0.33794695138931274, -0.17269067466259003, 0.12909002602100372, -0.5887660980224609, -0.13346053659915924, 0.027927877381443977, 0.020238202065229416, 0.1372818648815155, 0.5081967115402222, 0.08597961813211441, -0.019278669729828835, 0.11410215497016907, 0.3695383667945862, 0.06162264943122864, 0.19702333211898804, -0.023103894665837288, -0.08161194622516632, -0.19354449212551117, -0.06939927488565445, 0.3144199252128601, 0.007516645360738039, 0.17036491632461548, -0.0679619163274765, -0.048715990036726, -0.023881200700998306, 0.042102206498384476, 0.007056226022541523, -0.0733807384967804, -0.07658606767654419, -0.13199394941329956, 0.22289340198040009, -0.04401838779449463, 0.14903315901756287, -0.1258719563484192, -0.00783141702413559, 0.21196286380290985, -0.2094983011484146, 0.04395131394267082, -0.2506677210330963, -0.06756245344877243,
0.07757089287042618, 0.2278222292661667, -0.04628763347864151, -0.2521516978740692, 0.051790300756692886, 0.10248738527297974, -0.08658105134963989, -0.29373225569725037, 0.01696699671447277, 0.23467527329921722, 0.18260222673416138, 0.10347151011228561, 0.008228814229369164, 0.33961984515190125, 0.3933972418308258, 0.2403988540172577, 0.08845130354166031, -0.14545094966888428, 0.09793764352798462, -0.2372482419013977, -0.23393481969833374, -0.08247841894626617, -0.3171231150627136, -0.03041287325322628, -0.06927833706140518, -0.45026159286499023, 0.26906198263168335, 0.3095700740814209, -0.13964521884918213, -0.24860882759094238, -0.17418350279331207, -0.1046137884259224, 0.12021053582429886, 0.15812377631664276, 0.08712204545736313, -0.39899498224258423, -0.17001956701278687, 0.05290491133928299, -0.18694669008255005, -0.10682714730501175, 0.33036181330680847, -0.029974443838000298, 0.03222509101033211, -0.2764337658882141, -0.10328513383865356, -0.06737976521253586, -0.24403175711631775, 0.10843732953071594, 0.20399002730846405, -0.10223791003227234, 0.2616720497608185, -0.21633723378181458, -0.20089790225028992, 0.31044265627861023, -0.10179977864027023, -0.10711663961410522, -0.1950981318950653, -0.8564073443412781, -0.2537374794483185, -0.035996805876493454, -0.22069810330867767, 0.08258026093244553, 0.08131735771894455, 0.03168310970067978,
0.10029136389493942, -0.08413945138454437, 0.02523949183523655, 0.012583089992403984, 0.013658976182341576, 0.008340726606547832, 0.026083607226610184, 0.1709466129541397, 0.05700181797146797, 0.26358965039253235, -0.0027337397914379835, 0.2948865294456482, 0.33774080872535706, 0.31165775656700134, 0.2916153371334076, 0.14161917567253113, -0.03764476999640465, -0.07864150404930115, -0.5795117020606995, 0.14951130747795105, -0.12212137132883072, 0.19822251796722412, 0.08461780101060867, -0.20276349782943726, 0.02287723682820797, -0.18167632818222046, 0.19038423895835876, -0.2889341711997986, 0.12411319464445114, 0.07601100951433182, 0.0982380360364914, -0.22948260605335236, 0.15616083145141602, 0.1529279202222824, -0.008015548810362816, 0.22749918699264526, -0.17658114433288574, 0.2060600072145462, -0.38898420333862305, 0.06932838261127472, 0.33222874999046326, -0.18196798861026764, -0.0794113501906395, -0.16939212381839752, -0.024659400805830956, -0.1778179556131363, -0.2063506543636322, 0.23529259860515594, 0.05048562213778496, 0.11032368242740631, -0.10956448316574097, 0.3414192199707031, -0.018157105892896652, -0.08426026999950409, -0.14095790684223175, -0.00339519209228456, 0.2780172526836395, -0.36629292368888855, -0.01911267451941967, 0.0498516745865345, 0.5264419913291931, -0.25662946701049805, -0.04487122222781181, 0.2177438884973526,
-0.09238632023334503, -0.21693848073482513, 0.02079065889120102, 0.14677762985229492, 0.17816117405891418, -0.015368130058050156, -0.01907512918114662, 0.3697880208492279, 0.13453693687915802, 0.15107682347297668, -0.023195628076791763, -0.5009621977806091, -0.06852243095636368, 0.049588821828365326, 0.34447234869003296, 0.06595192104578018, -0.037610795348882675, 0.048777397722005844, -0.054386138916015625, 0.37994420528411865, 0.19763794541358948, -0.2356848418712616, 0.07689359039068222, 0.23731443285942078, -0.26300662755966187, 0.35448208451271057, 0.15361517667770386, -0.5216077566146851, -0.35932886600494385, 0.12263777107000351, -0.05487332120537758, 0.06074313446879387, -0.45921140909194946, -0.06555230915546417, -0.44504883885383606, 0.06855088472366333, -0.1626925766468048, -0.43668195605278015, 0.2979261875152588, -0.6588819026947021, 0.3064750134944916, 0.046767458319664, 0.16563421487808228, 0.20082171261310577, -0.19980663061141968, -0.3338374197483063, -0.24404118955135345, 0.14801135659217834, 0.28468671441078186, 0.09576836973428726, -0.11945761740207672, -0.07265003770589828, 0.26478898525238037, -0.2076907902956009, -0.17065350711345673, 0.09631415456533432, 0.046386320143938065, -0.009108667261898518, -0.007160890381783247, -0.08467715233564377, -0.08096715807914734, -0.011133602820336819, -0.1802634596824646, -0.35661208629608154,
-0.00716212997213006, -0.2651398479938507, 0.05117996037006378, 0.21376219391822815, -0.08659300208091736, -0.13735198974609375, -0.18964751064777374, -0.07188714295625687, 0.043288324028253555, 0.3311060965061188, 0.0857597142457962, 0.1876792460680008, -0.288046658039093, 0.3506709337234497, -0.028113411739468575, -0.09393031150102615, -0.30116739869117737, 0.14729875326156616, -0.06444977968931198, -0.10731713473796844, -0.31875354051589966, 0.18903598189353943, 0.04151831194758415, -0.41756996512413025, -0.06014331802725792, -0.21766628324985504, 0.14511416852474213, 0.22265960276126862, -0.3150636553764343, -0.0814691111445427, -0.09415927529335022, -0.11614995449781418, 0.10768397897481918, 0.43617019057273865, -0.4994317293167114, -0.20046810805797577, 0.24909505248069763, -0.14232327044010162, 0.31568875908851624, 0.1391514539718628, 0.02355276606976986, -0.30411604046821594, 0.21926704049110413, -0.14122965931892395, 0.1541212946176529, -0.22345224022865295, -0.0828542411327362, -0.06697766482830048, -0.12329697608947754, 0.3571229875087738, 0.02975095808506012, -0.14002779126167297, -0.19194762408733368, 0.13906940817832947, 0.2128441333770752, 0.3333972990512848, -0.0028551709838211536, 0.0005146885523572564, 0.36506304144859314, 0.13467323780059814, -0.24098891019821167, 0.10931451618671417, -0.008505929261446, -0.14092740416526794,
-0.11346461623907089, 0.11137877404689789, -0.1188657209277153, 0.025604505091905594, -0.31020861864089966, 0.08954025059938431, -0.10313821583986282, -0.13573278486728668, -0.13609573245048523, 0.18418274819850922, -0.17518730461597443, 0.3011729419231415, 0.05999534949660301, -0.06525923311710358, 0.059603966772556305, 0.23402151465415955, -0.06062375754117966, 0.02550232596695423, -0.0070194280706346035, -0.1407991647720337, -0.15482550859451294, -0.23620283603668213, 0.14443279802799225, 0.3212752044200897, -0.19357086718082428, -0.01018792949616909, -0.017102492973208427, -0.08411194384098053, 0.03314206749200821, 0.13320641219615936, -0.1188448891043663, 0.2617863714694977, -0.07836724072694778, -0.021404597908258438, 0.17851048707962036, -0.33281201124191284, -0.3317353427410126, 0.00661007035523653, 0.09261944144964218, 0.3846009075641632, 0.3579566478729248, 0.017043963074684143, 0.16124460101127625, -0.2039250135421753, -0.4286353886127472, 0.08059156686067581, -0.10516779869794846, 0.12582457065582275, 0.11493689566850662, 0.1647678166627884, 0.11391019076108932, 0.6051669716835022, -0.360919326543808, 0.07325825095176697, 0.11333505809307098, -0.21805398166179657, 0.08158265054225922, 0.4585912227630615, -0.015509789809584618, 0.015440739691257477, -0.34962713718414307, -0.034140363335609436, 0.15409186482429504, 0.2521021068096161,
-0.21831165254116058, 0.1958058625459671, -0.1794811338186264, 0.2118861973285675, 0.12311263382434845, -0.24161094427108765, -0.6243121027946472, -0.02397177554666996, -0.33844053745269775, -0.08782290667295456, 0.08271495997905731, -0.04786140099167824, -0.14408928155899048, 0.0834471806883812, -0.1314624547958374, -0.15101206302642822, 0.18037143349647522, 0.017090333625674248, 0.43394482135772705, 0.22145670652389526, -0.08902949839830399, -0.11303969472646713, -0.04620704427361488, 0.15768788754940033, -0.046032097190618515, -0.48979172110557556, -0.17335118353366852, 0.14758539199829102, -0.14626114070415497, 0.3305460214614868, 0.20462243258953094, -0.46701425313949585, -0.2507408559322357, 0.27784571051597595, -0.32711970806121826, 0.1959787756204605, 0.19425195455551147, 0.13714243471622467, -0.2662127912044525, -0.10968387126922607, -0.1788843721151352, -0.03140188381075859, -0.006137167569249868, 0.0611092634499073, 0.06804537773132324, 0.17081724107265472, 0.04605116695165634, 0.018864450976252556, -0.01517929881811142, -0.03691575676202774, 0.2396475076675415, 0.0801699161529541, -0.0907050296664238, 0.28539979457855225, 0.2648252844810486, -0.28787827491760254, -0.025486048310995102, -0.44052398204803467, 0.0837748572230339, -0.34477800130844116, -0.08322285860776901, 0.2597278356552124, -0.21979491412639618, -0.020172305405139923,
-0.10862764716148376, -0.2898543179035187, 0.371336430311203, 0.20302054286003113, 0.2494356334209442, 0.1225125789642334, 0.26877549290657043, -0.2838113307952881, -0.1383599042892456, -0.13377074897289276, -0.3263947069644928, 0.13092908263206482, 0.14547863602638245, 0.24961252510547638, 0.19500835239887238, -0.25300103425979614, -0.17613205313682556, 0.1105610802769661, 0.195790633559227, 0.11807053536176682, 0.1681685596704483, 0.018825868144631386, 0.02739056572318077, -0.5735862851142883, -0.45593518018722534, -0.07035783678293228, -0.035864170640707016, -0.15631012618541718, 0.41022202372550964, 0.009999440982937813, -0.17012274265289307, -0.19908151030540466, -0.317264586687088, 0.37797755002975464, -0.3893658518791199, -0.11178338527679443, -0.004083068110048771, -0.20439821481704712, -0.1509602963924408, 0.0646631270647049, -0.30609121918678284, 0.3211103081703186, 0.16166044771671295, -0.07523475587368011, -0.26930034160614014, -0.1765088438987732, -0.06280309706926346, -0.10867785662412643, 0.11981984972953796, -0.11922500282526016, 0.038436975330114365, -0.00847109965980053, -0.051447540521621704, -0.17285235226154327, 0.14579398930072784, -0.17366518080234528, -0.622060239315033, -0.3052690923213959, -0.0785483717918396, -0.08307159692049026, 0.07417837530374527, -0.18792764842510223, -0.07212477922439575, -0.15747374296188354,
0.27414602041244507, 0.2683841288089752, -0.22971925139427185, 0.05811787024140358, -0.19183747470378876, -0.22310130298137665, -0.20829884707927704, -0.022172024473547935, 0.20760323107242584, 0.14744704961776733, -0.03427000343799591, -0.19994404911994934, 0.0797954872250557, 0.11104747653007507, 0.12893787026405334, -0.058072544634342194, -0.037110909819602966, -0.11443115025758743, -0.5995891094207764, 0.14835640788078308, -0.26142051815986633, 0.32414141297340393, -0.14806070923805237, 0.09823036193847656, 0.05530097335577011, -0.14005160331726074, -0.15156161785125732, 0.16276487708091736, 0.07321412861347198, 0.37496209144592285, 0.1034666895866394, 0.21400317549705505, 0.04306267201900482, 0.13934612274169922, 0.32524433732032776, -0.08549930155277252, 0.1522587239742279, 0.6240997314453125, -0.1472335010766983, 0.06181801110506058, -0.021430857479572296, -0.1927931308746338, 0.1296718865633011, 0.22821959853172302, -0.42154958844184875, 0.05316745117306709, -0.031608112156391144, -0.37676116824150085, 0.13923123478889465, 0.025762852281332016, 0.01070909108966589, -0.14338189363479614, -0.04002319276332855, -0.09168033301830292, -0.270376980304718, 0.0557728111743927, -0.25651782751083374, 0.07765914499759674, 0.1072239950299263, -0.10675933957099915, -0.4151358902454376, -0.2553653419017792, -0.07872307300567627, -0.03412514179944992,
-0.06506925076246262, -0.1098792552947998, 0.11484228819608688, 0.1650865525007248, -0.2849665880203247, 0.29507559537887573, -0.26764175295829773, 0.14725017547607422, -0.06332510709762573, 0.011746872216463089, 0.0011246519861742854, -0.09577860683202744, 0.07401295751333237, -0.06456442922353745, -0.6041021347045898, 0.06086049601435661, 0.18683850765228271, 0.013244527392089367, 0.002760507632046938, -0.256653755903244, 0.38204920291900635, 0.319529265165329, -0.4064269959926605, 0.22005093097686768, -0.16356521844863892, -0.2174944281578064, 0.13904519379138947, -0.27617529034614563, -0.5102306604385376, -0.09380791336297989, -0.1441756933927536, 0.20158153772354126, -0.04646660387516022, 0.3430703282356262, 0.019334910437464714, -0.18723352253437042, 0.020713431760668755, -0.19092126190662384, -0.2643372714519501, 0.10496003180742264, -0.22152039408683777, 0.3441265821456909, 0.12279367446899414, 0.31328821182250977, -0.15858277678489685, 0.2891075611114502, 0.24004040658473969, -0.17154741287231445, -0.006871107034385204, -0.07593796402215958, 0.20759277045726776, -0.08125302940607071, 0.30190420150756836, 0.18904030323028564, 0.11981933563947678, -0.2132730931043625, -0.053441327065229416, 0.19223597645759583, -0.2522732615470886, -0.30792924761772156, 0.2740018963813782, -0.23040013015270233, 0.20757916569709778, 0.031450822949409485,
-0.3586258292198181, -0.3257910907268524, -0.29344838857650757, 0.08644932508468628, -0.14694547653198242, -0.25822293758392334, 0.15154990553855896, 0.02561701275408268, 0.27467525005340576, -0.18417376279830933, -0.027069255709648132, 0.04170629009604454, 0.10633709281682968, -0.09176791459321976, -0.14238202571868896, 0.1359766274690628, -0.2766067087650299, 0.19019407033920288, 0.031851496547460556, 0.08427447080612183, 0.2235034555196762, -0.1375744640827179, 0.10102368146181107, 0.027521632611751556, -0.025743713602423668, -0.19584162533283234, 0.3264656066894531, 0.311960905790329, 0.06746707111597061, -0.05358491465449333, -0.1842031180858612, -0.003640697803348303, 0.10193882137537003, -0.29543936252593994, 0.3131084740161896, -0.0018171642441302538, 0.174366295337677, 0.026704519987106323, -0.06427629292011261, 0.17318585515022278, -0.13732598721981049, -0.0331508107483387, -0.07381298393011093, 0.21035604178905487, -0.2224346101284027, 0.28272977471351624, -0.07115469127893448, -0.26144394278526306, 0.5345000624656677, -0.05172024667263031, -0.1715853214263916, 0.34336984157562256, -0.23149670660495758, -0.23816274106502533, 0.23611056804656982, 0.030301114544272423, -0.39792370796203613, 0.10356814414262772, 0.0025553738232702017, 0.3766680061817169, 0.0577414333820343, 0.01787196286022663, -0.05800912529230118, -0.2555328905582428,
0.10551857203245163, 0.20743128657341003, 0.18030373752117157, 0.16233620047569275, 0.16854850947856903, 0.1338871866464615, -0.08314527571201324, -0.2423078566789627, -0.1753619760274887, -0.11258897185325623, 0.10632705688476562, -0.11566120386123657, 0.26484185457229614, 0.0025881847832351923, -0.30770620703697205, 0.3168780207633972, 0.03829128295183182, -0.13828641176223755, 6.359152030199766e-05, -0.269800066947937, -0.21694988012313843, -0.1692858189344406, 0.07064700126647949, 0.22644361853599548, 0.07498759776353836, -0.4317176938056946, 0.0007009815308265388, 0.33901241421699524, -0.09515765309333801, -0.12560158967971802, -0.3922162353992462, 0.25595247745513916, 0.29714861512184143, -0.07728938013315201, -0.09966307878494263, 0.1941230744123459, 0.19196440279483795, 0.055224426090717316, -0.08798614889383316, -0.37022027373313904, -0.029856333509087563, -0.23093879222869873, 0.3496849536895752, 0.1605350375175476, -0.12602482736110687, -0.09092087298631668, -0.028032073751091957, -0.2882925271987915, -0.0015026514884084463, 0.37140849232673645, 0.15540321171283722, 0.1588762402534485, 0.14966468513011932, 0.00013864049105904996, -0.1681509017944336, -0.06729161739349365, -0.005177242681384087, -0.12980236113071442, -0.5012824535369873, 0.06615675240755081, -0.300187885761261, -0.32393839955329895, 0.256178081035614, 0.022373655810952187,
-0.11354111135005951, 0.02905886434018612, -0.1397385150194168, 0.3118516206741333, -0.09370073676109314, 0.22966927289962769, -0.4003146290779114, -0.16882039606571198, 0.022692739963531494, -0.21036162972450256, -0.16549360752105713, 0.2889716327190399, -0.0017518072854727507, -0.031183000653982162, 0.343186616897583, 0.0425548180937767, 0.34032610058784485, 0.19249528646469116, -0.04742031171917915, -0.3924866020679474, -0.20520099997520447, 0.2632955312728882, -0.2590651214122772, -0.04505269601941109, 0.004488574806600809, -0.19412794709205627, 0.10509585589170456, -0.009981599636375904, 0.16359061002731323, -0.04574863612651825, -0.2368830144405365, 0.07384735345840454, 0.20066912472248077, -0.4091760814189911, -0.022188952192664146, -0.10004058480262756, 0.40652984380722046, -0.12451323866844177, 0.12058684974908829, 0.09310032427310944, 0.11537324637174606, -0.22963467240333557, -0.1025133728981018, -0.014571283012628555, 0.12194214761257172, 0.1085771918296814, 0.2682376205921173, -0.1439877301454544, 0.18426522612571716, -0.02576449327170849, 0.16490143537521362, 0.374295711517334, 0.18864010274410248, 0.1709810495376587, -0.32722219824790955, 0.07391931861639023, 0.37773990631103516, -0.19092297554016113, 0.24667102098464966, 0.03967290744185448, -0.01852112077176571, -0.13806119561195374, -0.19708842039108276, -0.12131477147340775,
0.05090659111738205, 0.09333185106515884, -0.28488680720329285, 0.11353445798158646, -0.32623013854026794, -0.16969336569309235, 0.06971489638090134, 0.12125512212514877, -0.1661270409822464, -0.40438851714134216, 0.010427739471197128, 0.34369146823883057, -0.02008533477783203, -0.031035088002681732, -0.026392145082354546, -0.23472343385219574, 0.38692712783813477, -0.1330234408378601, 0.3646697700023651, 0.21421359479427338, 0.046360716223716736, -0.29535114765167236, -0.401814728975296, -0.2171095758676529, -0.25689977407455444, 0.1052343100309372, -0.3501950800418854, -0.2794887125492096, -0.25747159123420715, -0.051828403025865555, 0.07255498319864273, -0.1292327642440796, -0.024004975333809853, 0.17352361977100372, -0.3609810471534729, -0.12405835837125778, -0.09418521821498871, 0.012497968971729279, -0.11114571243524551, -0.09365835785865784, -0.1263512670993805, -0.07880707085132599, -0.16764254868030548, 0.060223884880542755, -0.19361038506031036, -0.27311235666275024, 0.12391890585422516, -0.5504050254821777, -0.06073378399014473, 0.06109382584691048, 0.23578621447086334, -0.015085190534591675, 0.05040915310382843, -0.4159114956855774, 0.28069815039634705, -0.03514116257429123, 0.21741198003292084, -0.23249340057373047, -0.1908627450466156, 0.3992270529270172, -0.044183310121297836, -0.3347102105617523, 0.33016979694366455, 0.21263721585273743,
0.24742020666599274, -0.044796328991651535, 0.42194002866744995, 0.2659302353858948, -0.15268805623054504, 0.078092060983181, 0.06076064705848694, 0.12775543332099915, 0.32425281405448914, 0.04206950590014458, -0.03879662975668907, 0.05118846148252487, 0.1019783541560173, -0.28837549686431885, -0.04586229845881462, 0.10878317058086395, 0.5563706159591675, -0.06314915418624878, 0.09377855062484741, -0.3884265422821045, 0.21492040157318115, 0.15820930898189545, -0.10123831778764725, 0.09439434111118317, -0.030627597123384476, 0.41446205973625183, 0.2742883563041687, -0.19919781386852264, -0.1487714797258377, 0.17001748085021973, -0.2754109501838684, -0.3032222390174866, -0.1250411570072174, 0.028899502009153366, -0.0683884471654892, 0.12811842560768127, 0.43799248337745667, 0.20453600585460663, -0.03396347537636757, -0.26594939827919006, -0.3371562361717224, 0.06516673415899277, 0.0578802153468132, -0.3048628270626068, 0.15339668095111847, -0.061058077961206436, -0.16211894154548645, 0.3005691170692444, 0.13215890526771545, -0.021995756775140762, 0.08588659763336182, -0.1169341579079628, -0.09164123237133026, -0.2271522581577301, 0.28598177433013916, -0.08601095527410507, 0.0905320793390274, 0.4963151216506958, 0.21399998664855957, -0.15094159543514252, -0.23656252026557922, -0.07838088274002075, -0.04906390607357025, 0.06340975314378738,
0.037918251007795334, -0.14903943240642548, -0.01628955639898777, -0.19029919803142548, 0.15236292779445648, -0.025493551045656204, -0.16763916611671448, -0.05135250836610794, -0.04300183802843094, -0.25398677587509155, -0.1935644894838333, 0.23632685840129852, -0.29304489493370056, 0.04996465519070625, 0.19647376239299774, 0.052764322608709335, 0.029480284079909325, -0.06028488650918007, -0.30987614393234253, 0.1529761403799057, -0.4270719885826111, -0.20561665296554565, -0.00999357644468546, -0.001022864831611514, 0.07823356240987778, 0.15300437808036804, 0.0232546366751194, -0.07446476072072983, -0.38302022218704224, 0.13751448690891266, -0.2413259595632553, 0.30524760484695435, -0.5418396592140198, -0.10521074384450912, -0.18977776169776917, -0.13405731320381165, -0.004555475898087025, -0.05616674944758415, 0.22353731095790863, 0.03779856115579605, -0.318583607673645, -0.19600838422775269, 0.5455602407455444, -0.4376208186149597, 0.1636200249195099, 0.18053551018238068, 0.03101281076669693, 0.05960104987025261, 0.4024050235748291, -0.37339699268341064, -0.07122243195772171, -0.39933088421821594, -0.15788906812667847, 0.13145291805267334, -0.0981329157948494, 0.16099046170711517, 0.4819081127643585, 0.37446078658103943, -0.1280621588230133, 0.1640593409538269, 0.026076452806591988, -0.005802244413644075, -0.21330736577510834, 0.14189943671226501,
0.2661542296409607, -0.13770262897014618, -0.2478032112121582, 0.09651433676481247, -0.15704429149627686, -0.1600179523229599, 0.4251791834831238, -0.03809653967618942, -0.02909494750201702, 0.21252481639385223, 0.11071127653121948, 0.2606351375579834, 0.28304994106292725, -0.017095115035772324, 0.0009397684480063617, -0.33176812529563904, -0.11448155343532562, -0.5278332233428955, -0.10035750269889832, -0.39322638511657715, 0.005464585032314062, -0.10702651739120483, -0.07477155327796936, -0.018416257575154305, 0.058581236749887466, 0.23605041205883026, -0.20874778926372528, -0.07799161225557327, 0.17185598611831665, 0.369707316160202, -0.1693924069404602, -0.28550243377685547, -0.2203574776649475, 0.02851145900785923, -0.030689992010593414, 0.04903362691402435, 0.1486513316631317, -0.21797436475753784, 0.14893695712089539, 0.1258120834827423, 0.19235338270664215, -0.08176849037408829, -0.004467916674911976, 0.07987575232982635, 0.06954336911439896, -0.35422056913375854, 0.0425226092338562, 0.15334296226501465, 0.2098659873008728, -0.2846281826496124, 0.32560333609580994, 0.08536162227392197, 0.5239130258560181, 0.1233782172203064, -0.056213777512311935, 0.1080683022737503, 0.158534437417984, -0.042447175830602646, -0.08287256211042404, -0.3658403158187866, 0.1367669701576233, 0.2030138522386551, 0.08176492899656296, -0.018068017438054085,
