#include "neural_network.h"
#include <stdio.h>
#include <math.h>

const float weights_fc1[] = {
0.5176662802696228, 0.6397141814231873, -0.29240599274635315, 0.0670941099524498, -0.12167008221149445, 0.7318974137306213, -0.34285837411880493, -0.27039623260498047, -0.10237588733434677, -0.0907234326004982, -0.16256386041641235, 0.01932884007692337, -0.1937396377325058, -0.47943243384361267, -0.009552988223731518, 0.32002872228622437, -0.21770688891410828, 0.17880935966968536, 0.01092105358839035, -0.06182296574115753,
-0.049549952149391174, -0.7443872094154358, -0.6543094515800476, -0.03582363203167915, -0.12965963780879974, -0.13610903918743134, -0.6188825964927673, 0.724216103553772, 0.022425446659326553, -0.02324608527123928, -0.043023914098739624, 0.2699567675590515, -0.0992509201169014, 0.34229955077171326, -0.06559383124113083, 0.444566547870636, 0.5346563458442688, 0.21593356132507324, 0.14018577337265015, -0.14745229482650757,
-0.12445084005594254, 0.7993550300598145, 0.9797288179397583, -0.05126360058784485, 0.1082758679986, 0.1757035255432129, -0.2814975678920746, 0.3892509341239929, 0.7036105990409851, -0.051575057208538055, -0.025447923690080643, 0.3427014946937561, 0.3364697992801666, -0.47660940885543823, 0.03547091409564018, -0.32949256896972656, 0.13892145454883575, -0.4264114797115326, -0.05595365911722183, -0.16883163154125214,
0.25757724046707153, -0.46384888887405396, 0.41864946484565735, -0.08494074642658234, -0.16303889453411102, 0.31132224202156067, -0.9858185052871704, 0.4914540648460388, -0.10270365327596664, -0.05937919020652771, 0.05748370289802551, 0.10667112469673157, 0.04511003568768501, 0.17595864832401276, -0.09055890887975693, -0.1524851769208908, 0.08342369645833969, 0.13314548134803772, 0.1277434378862381, 0.3934355676174164,
-0.30794769525527954, -0.5964217185974121, 0.38911333680152893, 0.09527423977851868, -0.16051119565963745, 0.18195727467536926, -0.08871740102767944, -0.10368038713932037, -0.4332912266254425, -0.07629267871379852, -0.020156564190983772, 0.03983050957322121, 0.7427412271499634, -0.15995045006275177, -0.21538610756397247, -0.9533457159996033, -0.06946448981761932, 0.05590673163533211, 0.16695885360240936, -0.007639363408088684,
-0.09647965431213379, -0.10432388633489609, 1.1453362703323364, -0.04943311586976051, -0.04965940862894058, 0.4444289803504944, 0.6867679357528687, -0.2548764646053314, 0.041184380650520325, 0.06687561422586441, -0.12258141487836838, 0.05021929740905762, -0.3531619608402252, -0.48049747943878174, 0.6560810208320618, -0.13686124980449677, -0.006636429112404585, -0.02360093966126442, -0.09093879908323288, 0.07065223902463913,
-0.10695140808820724, -0.08001212775707245, -0.9473983645439148, -0.012374659068882465, 0.05719677358865738, -0.08411318063735962, -0.10381099581718445, -0.2927590012550354, 0.009320025332272053, -0.009940079413354397, 0.08894836902618408, -0.08558882772922516, 0.0374956950545311, 0.553192675113678, -0.12771908938884735, -0.39913663268089294, 0.09064073115587234, 0.07798685878515244, 0.29979461431503296, 0.4925120770931244,
0.7047230005264282, -0.02351357415318489, 0.1742120385169983, 0.13130992650985718, -0.01932363025844097, 0.01806246116757393, 0.316114217042923, -0.48355844616889954, -0.1318863332271576, 0.080661840736866, 0.09680061042308807, 0.32693883776664734, -0.10745134949684143, -0.10163529217243195, 0.36277875304222107, -0.13520945608615875, -0.07770798355340958, -0.006200886331498623, -0.058546461164951324, -0.09724243730306625,
-0.5743289589881897, -0.23311376571655273, -0.03366579860448837, -0.16870975494384766, -0.07654697448015213, 0.1545560210943222, -0.09093974530696869, 0.18189439177513123, 0.16116733849048615, 0.002951899077743292, 0.06052488833665848, 0.12637723982334137, -0.17616626620292664, 0.3536863625049591, -0.1410311758518219, 0.2554641366004944, 0.7698233127593994, 0.22559258341789246, 0.14132004976272583, -0.12744563817977905,
0.06574505567550659, -0.20369453728199005, -0.34259170293807983, -0.17281794548034668, 0.11613825708627701, 0.042031481862068176, 0.20280572772026062, 0.5169795155525208, -0.3843967318534851, -0.1277885138988495, -0.17846094071865082, 0.009791094809770584, 0.2361091524362564, 0.27703726291656494, -0.09738125652074814, 0.05653306841850281, 0.20655694603919983, -0.31010302901268005, 0.19897396862506866, 0.02685311809182167,
-0.235337033867836, 0.16106563806533813, -0.7086580395698547, 0.04435523971915245, 0.015914492309093475, -0.15688085556030273, -0.19937850534915924, 0.10333655029535294, -0.3113994300365448, 0.15263821184635162, -0.13590285181999207, 0.288237601518631, 0.06409832090139389, -0.9803364872932434, 0.5142505168914795, -0.10571055859327316, -0.21295318007469177, -0.1397770196199417, -0.2340410053730011, -0.3946570158004761,
-0.3615559935569763, -0.5806149840354919, 0.15083961188793182, -0.18470904231071472, 0.06366994976997375, 0.4976019859313965, -0.6232179403305054, 0.31028541922569275, -0.5722247362136841, -0.17783837020397186, 0.02474009059369564, -0.0412004292011261, 0.4259619414806366, 0.40012261271476746, -0.4055264890193939, -0.10765157639980316, -0.06145423278212547, -0.06763090193271637, -0.15604229271411896, -0.17154204845428467,
0.20030458271503448, 0.37371644377708435, -0.8931559324264526, -0.26812565326690674, -0.08071088790893555, -0.20121309161186218, -0.18949556350708008, -0.035245105624198914, -0.24168533086776733, -0.3022764325141907, 0.1295376420021057, 0.3517531454563141, -0.8507884740829468, -0.3424621820449829, -0.13389112055301666, -0.20160792768001556, -0.23528680205345154, 0.04508451744914055, -0.32792484760284424, 0.08393055945634842,
-0.2419964224100113, 0.1200651004910469, -0.03927643597126007, -0.02996096760034561, -0.04424013942480087, -0.012176688760519028, -0.6782866716384888, 0.13039839267730713, -0.3373684287071228, -0.052674777805805206, -0.007770640775561333, 0.10891451686620712, -0.24404200911521912, 0.8170651793479919, -0.3176426291465759, -0.2531006336212158, 0.3508053421974182, 0.25035911798477173, -0.25255414843559265, 0.13127253949642181,
0.005307471379637718, 0.4593542814254761, 0.4885852336883545, -0.22695627808570862, -0.07332805544137955, -0.620501697063446, 0.19243517518043518, 0.2007228583097458, -0.045548584312200546, -0.09552737325429916, 0.07492893934249878, -0.40588870644569397, 0.2684895396232605, 0.07929164171218872, -0.6670758724212646, -0.29068508744239807, 0.062415093183517456, 0.22022859752178192, 0.06028620898723602, 0.19598962366580963,
-0.021470529958605766, -0.017459508031606674, -0.2709895372390747, -0.1496637463569641, -0.11833985149860382, -0.19558991491794586, -0.1636679470539093, 0.3187187612056732, -0.16602151095867157, -0.07277759909629822, -0.1405966430902481, -0.14601576328277588, 0.576421856880188, -0.0956306904554367, 0.5607335567474365, -0.4497120976448059, 0.28002139925956726, -0.04917905852198601, -0.14820310473442078, 0.10662084072828293,
-0.38876304030418396, 0.48636436462402344, 0.9527477622032166, -0.08230684697628021, 0.09789054095745087, 0.4909824728965759, 0.18674015998840332, -0.909459114074707, 0.2967440187931061, 0.00010070976713905111, -0.11410865187644958, -0.050783898681402206, 0.23655050992965698, -0.2428775131702423, 0.10782616585493088, -0.4355471432209015, 0.1189722865819931, 0.2010643035173416, -0.009743926115334034, -0.029010282829403877,
0.4086278975009918, -0.8456351161003113, 0.1569019854068756, 0.32688844203948975, 0.03503410890698433, -0.11252990365028381, -0.3164915442466736, -0.45200568437576294, -0.14447109401226044, -0.09558457136154175, -0.01980328932404518, 0.2324666529893875, -0.5974536538124084, -0.45179876685142517, -0.26809439063072205, -0.03614640235900879, -0.332491397857666, 0.3830143213272095, -0.11226055026054382, 0.49357813596725464,
-0.05480421334505081, 0.019271370023489, 0.19709545373916626, -0.042337093502283096, 0.12261398136615753, -0.20102453231811523, -0.0942777469754219, 0.004279795102775097, -0.8408558368682861, 0.05820075422525406, 0.03976881131529808, -0.11667166650295258, 0.1918850541114807, -0.10508006066083908, -0.26791366934776306, -0.2567026615142822, 0.3908810615539551, -0.15461649000644684, 0.06587636470794678, -0.09849750995635986,
0.1712380349636078, -0.32891371846199036, 0.28006720542907715, 0.04929211363196373, -0.0727384015917778, -0.16752095520496368, 0.21622493863105774, -0.20816613733768463, -0.08749732375144958, 0.05151846632361412, -0.0016762838931754231, -0.6467015743255615, -0.10976366698741913, -0.34768790006637573, 0.06230371072888374, 0.22763556241989136, 0.2981078326702118, 0.013851916417479515, -0.43778273463249207, -0.016714897006750107,
0.17623023688793182, -0.0227805208414793, 0.27811864018440247, -0.4704025685787201, -0.032414793968200684, -0.4517049491405487, 0.12403513491153717, 0.5419124364852905, 0.11403047293424606, -0.2704537510871887, 0.04371141269803047, 0.10769179463386536, 0.4013819396495819, 0.40651223063468933, -0.403745174407959, -0.3311093747615814, -0.18023325502872467, -0.2052692323923111, -0.03368417173624039, -0.028170660138130188,
-0.2850419282913208, 0.18336595594882965, -0.3168957531452179, -0.1927950531244278, 0.1212974563241005, 0.16258561611175537, 0.8564162254333496, 0.03878849744796753, 0.062429796904325485, -0.02233979105949402, -0.0343637689948082, 0.3814530372619629, 0.1649882048368454, 0.5343231558799744, -0.21429726481437683, 0.6837877631187439, -0.21383556723594666, -0.15227165818214417, 0.05674697458744049, 0.2943672239780426,
0.712213933467865, -0.1614583432674408, 0.571177065372467, 0.2603207528591156, -0.06167518347501755, 0.11399290710687637, -0.040847402065992355, 0.4041488468647003, -0.6818015575408936, -0.017414435744285583, -0.049361586570739746, -0.27001968026161194, 0.056464970111846924, -0.27363720536231995, 0.5947404503822327, -0.26105809211730957, -0.032178279012441635, -0.141909658908844, 0.09758774191141129, 0.31360048055648804,
0.09274078160524368, 0.5925756692886353, 1.415042757987976, -0.027779284864664078, 0.17238911986351013, 0.450573205947876, -0.7548596262931824, 0.8895078897476196, -0.19952771067619324, -0.10524766147136688, -0.007702169474214315, -0.05760274827480316, 0.07217589020729065, 0.30704838037490845, -0.42077067494392395, -0.42894619703292847, 0.30401644110679626, -0.04851129651069641, -0.2769400179386139, -0.04472744092345238,
0.3655053675174713, -0.16398470103740692, -0.3886949419975281, 0.2068411111831665, -0.11553536355495453, -0.043766990303993225, 0.46939224004745483, -0.12107030302286148, 0.3656757175922394, -0.09076141566038132, -0.027472419664263725, -0.03224780410528183, -0.10468265414237976, -0.13482224941253662, -0.019776133820414543, 0.11215125024318695, -0.08534727245569229, -0.41382500529289246, 0.21541383862495422, -0.5738271474838257,
0.021770769730210304, -0.3934894800186157, 0.9662855863571167, 0.021637218073010445, 0.0004888257826678455, 0.16825950145721436, 0.5601994395256042, 0.8334637880325317, -0.9985677599906921, 0.07367168366909027, -0.02483597956597805, 0.1755971759557724, -0.14947302639484406, -0.44634318351745605, 0.6840544939041138, -0.13820688426494598, -0.13115960359573364, 0.11304416507482529, -0.30898162722587585, -0.06442395597696304,
-0.41253069043159485, -0.23139452934265137, 0.7275156378746033, -0.3844064474105835, -0.34558171033859253, 0.23655587434768677, 0.1931643784046173, 0.2737937271595001, 0.1838599443435669, -0.1215071827173233, -0.07153132557868958, 0.14597781002521515, -0.6113446354866028, -0.07626023888587952, -0.13773567974567413, -0.0990903377532959, 0.21419823169708252, -0.22024324536323547, 0.005237768404185772, -0.2812432646751404,
0.0070909541100263596, 0.6936237812042236, -0.6102346181869507, 0.23849549889564514, -0.1272396296262741, -0.07350290566682816, -0.57232666015625, 0.523156464099884, 0.4339466094970703, 0.04289969801902771, 0.04827936738729477, -0.3297807574272156, 0.21094074845314026, 0.1129780262708664, -0.11171106994152069, -0.28205135464668274, -0.4541126787662506, 0.11908413469791412, 0.018827853724360466, -0.006374122109264135,
-0.10861142724752426, 0.26027819514274597, 0.33751967549324036, -0.21502578258514404, 0.2887708246707916, 0.5175612568855286, -0.3426041007041931, 0.5170189142227173, 0.16115441918373108, 0.012537064030766487, 0.010849219746887684, 0.06028588488698006, -0.050229042768478394, 0.11840993165969849, -0.1002894937992096, -0.2609747350215912, -0.5789385437965393, 0.11614666134119034, 0.08876746892929077, -0.12770119309425354,
-0.1973254531621933, 0.07975318282842636, 0.4630652964115143, 0.032471224665641785, -0.16013413667678833, -0.008347481489181519, 0.3471565842628479, 0.007091102655977011, -0.740953803062439, -0.023225687444210052, -0.15058569610118866, 0.4999944269657135, 0.10851817578077316, -0.1948942244052887, 0.21346643567085266, -0.272844523191452, -0.30220893025398254, 0.05129949003458023, 0.20283518731594086, -0.13668501377105713,
0.1081685721874237, -0.5601335167884827, -0.09447401762008667, 0.03421590104699135, -0.11866564303636551, 0.3708280026912689, -0.6706578731536865, -0.16236284375190735, -0.012235189788043499, 0.036014240235090256, -0.024153027683496475, 0.3051535487174988, 0.11496646702289581, 0.1916717290878296, -0.05382288992404938, -0.12551939487457275, 0.06178925931453705, -0.02579306997358799, -0.09055633842945099, 0.24506020545959473,
-0.17112120985984802, -0.7992401123046875, -0.11789567768573761, -0.30998966097831726, -0.21922101080417633, -0.3889619708061218, -0.19922006130218506, -0.8069309592247009, -0.5151809453964233, -0.0004386386717669666, -0.0929872989654541, 0.28994882106781006, 0.22101913392543793, 0.14670315384864807, 0.057616930454969406, -0.658669114112854, 0.06641634553670883, -0.034521542489528656, -0.22894187271595, -0.05932654067873955,
-0.11152945458889008, 0.5177139043807983, -0.6348053812980652, 0.01571587100625038, 0.04351012781262398, -0.5163518190383911, 0.36683011054992676, -0.5064220428466797, 0.26793721318244934, -0.01276027224957943, -0.3309808373451233, 0.35910817980766296, -0.37367165088653564, -0.3026365637779236, 0.21372567117214203, -0.13196860253810883, -0.3591814637184143, 0.20196272432804108, 0.07695398479700089, 0.01700054481625557,
-0.6058154106140137, 0.061076123267412186, -0.1889626383781433, -0.12782806158065796, 0.3814724087715149, -0.005229267291724682, 0.05541318282485008, 0.17043069005012512, -0.10980512201786041, 0.14042165875434875, 0.017455795779824257, -0.02107737772166729, -0.8103315830230713, -0.6332499384880066, -0.4290435314178467, 0.6005127429962158, -0.008872832171618938, 0.11829950660467148, -0.027498170733451843, 0.4905601441860199,
0.018177242949604988, 0.0023873464670032263, 0.7535139918327332, -0.00831268448382616, 0.0788036584854126, 0.29478728771209717, -0.3814350664615631, -0.3494325280189514, -0.5529352426528931, 0.0500357486307621, 0.02685130387544632, -0.15028098225593567, -0.03164112940430641, -0.34633222222328186, 0.4883735179901123, 0.0543530099093914, -0.13390591740608215, 0.4820859432220459, 0.45678120851516724, -0.07381535321474075,
-0.12115127593278885, -0.8379391431808472, -0.5067617297172546, -0.06450941413640976, -0.3319352865219116, 0.0014757681638002396, 0.4007563889026642, 0.5576742887496948, 0.46407169103622437, 0.08808564394712448, 0.1306636482477188, -0.19640246033668518, -0.3243907690048218, -0.20449736714363098, 0.09372694790363312, 0.5299873352050781, 0.03547373041510582, 0.24152815341949463, 0.18002037703990936, 0.37166857719421387,
-0.5528566837310791, 0.2290467768907547, 0.2723105251789093, -0.05155954509973526, -0.07597315311431885, -0.388407826423645, -0.562859296798706, 0.8040528297424316, 0.2085636407136917, -0.032081831246614456, -0.018966224044561386, -0.23232011497020721, 0.38196587562561035, 0.20929256081581116, -0.0348537340760231, -0.2847852110862732, -0.12170843780040741, -0.14219214022159576, -0.11164504289627075, -0.0006019665161147714,
0.5347915291786194, -0.5209638476371765, 0.22228407859802246, -0.0031676795333623886, -0.3373599350452423, -0.14161457121372223, -0.17527440190315247, 0.19476108253002167, 0.4924834072589874, -0.09499265998601913, 0.045716576278209686, 0.26032233238220215, -0.915985643863678, -0.1847812384366989, -0.00198794761672616, 0.4077819883823395, -0.013779656030237675, 0.2873207628726959, 0.10745414346456528, 0.0036622905172407627,
0.20778027176856995, -0.0372164286673069, 0.05520850792527199, -0.1860731691122055, -0.011558368802070618, -0.147182434797287, -0.5485959649085999, 0.3497541844844818, -0.2974732518196106, -0.13932625949382782, 0.17708393931388855, 0.07844425737857819, 0.3173852860927582, -0.4004388153553009, -0.001395652536302805, -0.23206670582294464, -0.05502001941204071, -0.10155941545963287, -0.03226390853524208, -0.3971920609474182,
0.03164970129728317, -0.3136870563030243, -0.324550598859787, -0.5494579672813416, 0.1545112282037735, -0.474298357963562, 0.3038228750228882, 0.0852234959602356, 0.07826769351959229, -0.002426301594823599, 0.07686325907707214, 0.11310649663209915, -0.03063669055700302, -0.2050139605998993, -0.017099374905228615, 0.2391311228275299, 0.498593270778656, 0.2169482707977295, 0.13846631348133087, -0.12570875883102417,
0.8719525337219238, 0.36818569898605347, 0.6538997888565063, 0.2064831554889679, 0.10549824684858322, 0.28089457750320435, -0.46054160594940186, -0.07872558385133743, 0.6996384859085083, -0.1046750396490097, -0.0953933522105217, -0.34541088342666626, 0.19216161966323853, -0.015222466550767422, -0.2788408696651459, -0.3078586161136627, -0.06351277977228165, 0.179463729262352, -0.2929380536079407, 0.21586881577968597,
-0.2368823140859604, 0.4354756772518158, -1.8295687437057495, 0.09572727978229523, -0.0620022676885128, -0.19465641677379608, 0.010600365698337555, -0.040874939411878586, -0.27384284138679504, 0.09935227036476135, 0.04845903441309929, 0.15696443617343903, -0.2993476390838623, -0.27017688751220703, -0.2813090980052948, 0.5294729471206665, 0.24181365966796875, -0.4120074510574341, 0.18713678419589996, -0.3091493248939514,
0.7894384860992432, -0.5635997653007507, 0.11554861068725586, 0.1971767097711563, -0.006809829268604517, 0.16794109344482422, 0.01934020221233368, 0.9091077446937561, 0.7088663578033447, -0.0497177354991436, 0.042741913348436356, 0.5226407647132874, 0.14318551123142242, -0.14479339122772217, -0.2339668869972229, -0.2358018159866333, -0.031848274171352386, 0.01055939868092537, 0.20442365109920502, -0.1230795755982399,
-0.10082504153251648, -0.816565990447998, 0.00489250011742115, 0.12924997508525848, -0.14558622241020203, -0.008800306357443333, -0.30936482548713684, -0.8017293214797974, -0.5091499090194702, -0.039438262581825256, -0.14216677844524384, 0.19161905348300934, 0.5235579013824463, -0.2362261861562729, 0.06345999985933304, -0.5203785300254822, -0.08126980066299438, 0.1535327136516571, 0.17039978504180908, 0.14218223094940186,
0.35352522134780884, -0.4601963758468628, -0.12715815007686615, -0.1305101215839386, -0.32639986276626587, 0.008904382586479187, -0.5144327878952026, -0.23423388600349426, -0.4794842004776001, -0.023062579333782196, -0.08408038318157196, 0.2287530153989792, 0.3143085241317749, -0.08798069506883621, -0.23468582332134247, -0.6013368368148804, -0.14669562876224518, 0.3542061448097229, 0.0068458085879683495, 0.23782680928707123,
0.20143471658229828, 0.13013164699077606, 0.4402446150779724, -0.16665241122245789, -0.19164583086967468, -0.13747255504131317, -0.22638899087905884, -0.2809278666973114, 0.2641589343547821, -0.06020410358905792, -0.37266725301742554, 0.2842649817466736, 0.5270714163780212, 0.2942308187484741, 0.06538267433643341, 0.15347710251808167, -0.1609228402376175, -0.021673742681741714, -0.1760357916355133, 0.011892016977071762,
-0.16269747912883759, 0.08451410382986069, -0.2448863536119461, 0.028996888548135757, 0.020960940048098564, 0.1798711121082306, 0.6324277520179749, 0.9189763069152832, 0.013874895870685577, -0.0005453843623399734, -0.0862976536154747, -0.37153372168540955, -0.2518797814846039, -0.1355208307504654, 0.21384412050247192, 0.34093141555786133, 0.45026206970214844, 0.1322922259569168, -0.2703149914741516, -0.27689939737319946,
0.6148061752319336, 0.613923966884613, 0.727086067199707, -0.07723144441843033, 0.3734489679336548, 0.3437345623970032, -0.15468871593475342, 0.5044742226600647, 0.2854655683040619, 0.06834032386541367, -0.1570652276277542, -0.10362353175878525, -0.5284857153892517, 0.04126318171620369, -0.1769670844078064, 0.21248385310173035, -0.2977902293205261, 0.200989231467247, 0.008462765254080296, -0.08943558484315872,
0.19655375182628632, 0.28950172662734985, -0.1418120563030243, -0.013965127989649773, 0.12296804785728455, -0.12282495200634003, 0.2820204496383667, -0.40807124972343445, -0.05756260082125664, 0.043599437922239304, 0.2002388834953308, -0.0578288659453392, -0.7080615162849426, -0.08339850604534149, 0.20192094147205353, 0.27206194400787354, 0.0017714350251480937, -0.41331082582473755, -0.12746365368366241, -0.10535615682601929,
0.418660432100296, 0.2602013349533081, 0.13976413011550903, -0.23244424164295197, 0.18931728601455688, -0.03662528842687607, 0.2441648542881012, 0.41288307309150696, -0.45901966094970703, 0.16450367867946625, -0.06802750378847122, 0.2751184105873108, -0.43148043751716614, 0.288083553314209, -0.26126617193222046, -0.43726983666419983, 0.14856627583503723, -0.20591111481189728, 0.09335236251354218, 0.08879505097866058,
-0.5480553507804871, -0.2460133582353592, 0.2130277156829834, -0.11141102015972137, -0.12965629994869232, 0.036459438502788544, -0.6207551956176758, -0.8426815867424011, -0.2879338264465332, -0.051876217126846313, -0.11523047089576721, -0.44721096754074097, 0.3895860016345978, -0.34210047125816345, 0.4225209355354309, -0.1840275079011917, -0.17033180594444275, -0.3531944453716278, 0.04994884505867958, 0.1434466540813446,
0.11546286940574646, 0.4493879973888397, -0.49394819140434265, 0.06034189462661743, 0.10706358402967453, -0.07013817131519318, 0.06892718374729156, 0.6486823558807373, -0.4354895353317261, -0.025633493438363075, 0.013870727270841599, 0.005555290728807449, 0.001417395775206387, -0.033897124230861664, -0.18777696788311005, 0.09746620804071426, 0.5504858493804932, -0.00956815667450428, -0.10911940783262253, 0.43408700823783875,
0.37275394797325134, -0.30479153990745544, 0.06618697941303253, -0.5270443558692932, -0.005671790335327387, -0.2930961847305298, -0.02854899689555168, 0.11026040464639664, 0.12828867137432098, 0.2328559160232544, -0.04497947543859482, -0.17071793973445892, 0.3448428511619568, 0.15609295666217804, 0.12909702956676483, -0.3057718575000763, -0.14155951142311096, -0.13613195717334747, 0.0009549749083817005, 0.33903801441192627,
0.0968538224697113, -0.45158645510673523, -0.07268786430358887, -0.3001152575016022, -0.06626024842262268, -0.08578500896692276, 0.2658858001232147, 0.16862957179546356, -0.5591859817504883, 0.11337684839963913, 0.1658288538455963, -0.4151643216609955, 0.22044400870800018, 0.288585901260376, 0.13692732155323029, -0.08969201892614365, -0.4187197983264923, 0.22478148341178894, -0.10732325911521912, 0.05012034624814987,
-0.5378211736679077, -0.43999940156936646, -0.8698642253875732, 0.060394082218408585, 0.0018499343423172832, 0.03369599208235741, 0.22376127541065216, 0.26946696639060974, -0.5565758943557739, 0.011695520021021366, 0.08672571927309036, 0.1440272331237793, -0.5338849425315857, 0.20268115401268005, -0.2695310711860657, -0.022530362010002136, -0.10477463901042938, -0.1375884860754013, 0.030430294573307037, -0.353145033121109,
0.4696054458618164, 0.059206582605838776, -0.6656739115715027, -0.11600862443447113, 0.15161141753196716, -0.1858123540878296, -0.8247213959693909, -0.014144280925393105, -0.7799434065818787, -0.011361422017216682, 0.007918915711343288, 0.06697599589824677, 0.15991400182247162, 0.011584545485675335, -0.07251231372356415, -0.07996931672096252, 0.014156938530504704, -0.011488319374620914, 0.11980793625116348, -0.024953214451670647,
-0.09931047260761261, -0.5981982946395874, 0.05568869039416313, -0.21082237362861633, 0.044218387454748154, -0.34161847829818726, 0.46679773926734924, 0.07140564918518066, -0.4147728681564331, 0.010187332518398762, -0.1513451486825943, -0.23932984471321106, -0.03983831778168678, 0.3572293221950531, -0.07882723957300186, -0.6680953502655029, -0.08900787681341171, 0.18515752255916595, -0.024901721626520157, -0.03957293555140495,
-0.1842016875743866, 0.5555986762046814, 0.23757091164588928, 0.0669156089425087, 0.06854184716939926, -0.04845087230205536, 0.43328019976615906, -0.5497353076934814, 1.0036649703979492, 0.032421212643384933, -0.07604678720235825, 0.16083215177059174, -0.09854203462600708, -0.357780784368515, 0.3288538157939911, 0.0188798476010561, 0.22606606781482697, -0.15928922593593597, 0.22150462865829468, -0.17639614641666412,
0.028068147599697113, -0.2594713866710663, 0.818701982498169, -0.15673929452896118, -0.13457264006137848, 0.3793697655200958, 0.9875210523605347, 0.23144391179084778, 0.5214537382125854, 0.1568044275045395, -0.013913867995142937, 0.025527356192469597, -0.30233216285705566, -0.36517155170440674, 0.19189202785491943, 0.15138950943946838, 0.21571603417396545, 0.15575918555259705, -0.4510771334171295, 0.031136084347963333,
-0.6257385611534119, 0.7997366189956665, -0.6939882040023804, -0.07081544399261475, 0.16773924231529236, -0.21747127175331116, 0.0798940360546112, 0.17142541706562042, 0.6785855889320374, 0.03652524575591087, 0.03830258175730705, 0.23692381381988525, 0.1426730901002884, -0.17881523072719574, 0.4308195412158966, 0.010227018967270851, -0.001477477722801268, 0.3379635810852051, -0.027785232290625572, -0.021926211193203926,
0.026433635503053665, -0.23610743880271912, -0.8787251114845276, -0.07061217725276947, 0.13358572125434875, -0.06382670998573303, 0.7354544401168823, 0.24255920946598053, -0.24373239278793335, -0.04290740191936493, 0.13423895835876465, -0.11346141993999481, -0.26627856492996216, 0.2154150903224945, 0.051519688218832016, 0.4343719780445099, 0.4388022720813751, -0.1364259123802185, 0.17368477582931519, 0.19120308756828308,
-0.3812633156776428, 0.7469969987869263, -0.49944984912872314, -0.06605150550603867, 0.4079269766807556, -0.10622633248567581, 0.2135571837425232, -0.173320934176445, 0.5418336987495422, -0.08305075764656067, -0.04137234389781952, -0.07764658331871033, 0.09944405406713486, -0.07434257119894028, 0.334454208612442, -0.2290845811367035, -0.15854831039905548, 0.10547959804534912, 0.04938684403896332, -0.07439271360635757,
0.9981180429458618, 0.01930122636258602, -0.14153358340263367, 0.14635822176933289, 0.07452185451984406, -0.25042110681533813, -0.33094608783721924, -0.1600879430770874, -0.17010697722434998, 0.022795960307121277, 0.05134344846010208, 0.16932809352874756, 0.23481009900569916, 0.07869257032871246, -0.3619261085987091, -0.20564667880535126, -0.13644134998321533, 0.1797274351119995, 0.03087206371128559, 0.06810887157917023,
-0.6738191843032837, -0.0024462388828396797, -0.40184181928634644, -0.0731048658490181, -0.28377804160118103, -0.6023938059806824, -0.054356563836336136, 0.21621449291706085, -0.16055850684642792, -0.24437279999256134, -0.06510719656944275, -0.30806824564933777, -0.12054462730884552, -0.14296504855155945, 0.009749450720846653, -0.10939297080039978, -0.39155617356300354, 0.09022940695285797, 0.05592659115791321, 0.0898384302854538
};

const float biases_fc1[] = {
-0.16679289937019348, 0.24972043931484222, 0.15112125873565674, -0.0893976241350174, -0.1780013144016266, 0.009193623438477516, -0.05443868041038513, -0.13538235425949097, 0.3232351243495941, 0.041181530803442, -0.21081191301345825, -0.06163697689771652, -0.1648201197385788, 0.09982365369796753, 0.13122685253620148, 0.0070423223078250885, -0.052905142307281494, -0.164617657661438, 0.15734533965587616, 0.06820023059844971, -0.26766538619995117, -0.0680186003446579, -0.08402835577726364, -0.0036048830952495337, -0.009613316506147385, -0.15782779455184937, 0.04929732158780098, -0.12105727940797806, -0.016263937577605247, -0.3404161334037781, -0.09510911256074905, 0.0032860846258699894, -0.25290927290916443, 0.13116732239723206, -0.26289278268814087, -0.02085300348699093, 0.02989851124584675, 0.12558580935001373, -0.09974153339862823, 0.24718058109283447, -0.25311359763145447, 0.0904117077589035, -0.22462062537670135, -0.09563886374235153, -0.01944606378674507, -0.0021872890647500753, 0.17362944781780243, -0.2339065670967102, 0.15496498346328735, -0.03934144228696823, -0.21308456361293793, 0.30889275670051575, -0.048406850546598434, -0.1282482147216797, -0.07527607679367065, -0.055319011211395264, -0.06538120657205582, 0.048936523497104645, 0.051095474511384964, 0.018448002636432648, 0.1860005408525467, -0.1763802021741867, -0.10715967416763306, -0.194257453083992
};

const float weights_fc2[] = {
-0.5499753355979919, -0.2627272307872772, 0.35004281997680664, -0.014021066948771477, -0.1424485146999359, 0.24466700851917267, 0.1039317324757576, -0.0524468719959259, 0.0014242324978113174, -0.7308008074760437, -0.13130658864974976, 0.0066248225048184395, -0.050897158682346344, 0.1245831847190857, -0.040772322565317154, -0.30080538988113403, -0.10748311132192612, 0.07236508280038834, -0.013658775947988033, 0.12528902292251587, -0.40356653928756714, -0.11642860621213913, 0.3118054270744324, 0.5786349177360535, -0.15168268978595734, -0.16462886333465576, 0.17153821885585785, 0.062340106815099716, 0.2836727797985077, -0.053223785012960434, -0.1349775791168213, 0.3432074189186096, -0.0023731072433292866, -0.23438018560409546, -0.18792463839054108, 0.41674962639808655, 0.31644824147224426, -0.06981407850980759, 0.01786036416888237, -0.12936903536319733, 0.2696000337600708, -0.042810846120119095, -0.034695859998464584, 0.09342894703149796, 0.11209363490343094, -0.1334226131439209, -0.41301432251930237, 0.5161048173904419, -0.027726035565137863, -0.2119791954755783, -0.13622236251831055, 0.13208496570587158, -0.01397213339805603, -0.30951496958732605, -0.3452804982662201, 0.10654539614915848, 0.10501915216445923, 0.24950876832008362, 0.39577364921569824, -0.1629851907491684, -0.37300458550453186, 0.21290093660354614, 0.2110774964094162, -0.0462007038295269,
-0.47904646396636963, 0.07078009098768234, 0.5260024070739746, -0.2490551918745041, -0.034923259168863297, 0.1705412119626999, -0.05575425922870636, 0.13989779353141785, -0.157165989279747, 0.1257907599210739, -0.17246279120445251, 0.2511301338672638, -0.16469885408878326, -0.04040035605430603, -0.3466710150241852, -0.09139735996723175, 0.039566464722156525, -0.1466922014951706, 0.321776807308197, -0.2658599019050598, 0.3075891435146332, -0.22488698363304138, 0.06211528182029724, 0.7061207294464111, -0.19348949193954468, -0.3126203119754791, -0.11363904178142548, 0.20872361958026886, -0.023799678310751915, -0.545778751373291, 0.43116340041160583, -0.6024162769317627, -0.14434775710105896, 0.16270500421524048, -0.09781471639871597, -0.3898463249206543, -0.014392033219337463, -0.3626505136489868, 0.2618354856967926, 0.25250476598739624, -0.03834996744990349, 0.06126679480075836, -0.07152310013771057, -0.14991961419582367, 0.3940126299858093, 0.09736136347055435, -0.11601246893405914, 0.31510430574417114, -0.040533728897571564, 0.14892219007015228, -0.2383711040019989, 0.18497100472450256, 0.13860966265201569, -0.32274648547172546, -0.3022450804710388, 0.34495267271995544, -0.1609954535961151, -0.005132182501256466, 0.39413726329803467, -0.06750724464654922, -0.28337401151657104, -0.04900810495018959, 0.08318936824798584, -0.33691632747650146,
0.1153591126203537, -0.13030864298343658, -0.19441097974777222, -0.21340090036392212, -0.4550640285015106, -0.15127906203269958, 0.2985307276248932, 0.3271937370300293, 0.11660617589950562, -0.3803965747356415, -0.5531818866729736, 0.055160973221063614, 0.20017048716545105, -0.12285709381103516, -0.3594001233577728, 0.3298514485359192, 0.45661461353302, -0.11745750904083252, 0.017629873007535934, 0.1339067667722702, -0.012936346232891083, 0.025537600740790367, -0.025292668491601944, 0.06830277293920517, 0.10154067724943161, 0.005563295911997557, -0.12024189531803131, 0.10083926469087601, -0.20881237089633942, -0.5978414416313171, 0.3323964774608612, 0.10028542578220367, -0.2634028196334839, 0.004152665846049786, 0.24977858364582062, -0.5623651146888733, -0.0027283066883683205, -0.2606266438961029, -0.030829358845949173, 0.05758514255285263, -0.244572713971138, -0.34213554859161377, -0.4507315754890442, 0.18676872551441193, -0.10810670256614685, 0.21592050790786743, 0.27449658513069153, -0.06050657480955124, 0.18257668614387512, 0.41662561893463135, 0.5159745812416077, -0.42275887727737427, -0.6743831038475037, 0.07713529467582703, -0.3363666832447052, -0.22730791568756104, 0.1363944262266159, 0.025444844737648964, -0.12591436505317688, -0.295413613319397, -0.1664063185453415, 0.27636611461639404, -0.18508759140968323, -0.2105429768562317,
-0.08087184280157089, -0.10952041298151016, -0.28728652000427246, 0.24703392386436462, 0.014580657705664635, 0.30436480045318604, -0.32191652059555054, 0.20875273644924164, -0.29838550090789795, 0.22215403616428375, -0.3859420120716095, -0.13877485692501068, 0.0014350834535434842, -0.2570723593235016, 0.11736191809177399, -0.2216746062040329, -0.025524066761136055, 0.08018829673528671, -0.1504136472940445, 0.15993039309978485, 0.0759250745177269, 0.1995619237422943, 0.20156484842300415, 0.17580637335777283, -0.018863139674067497, 0.37545353174209595, 0.6499624252319336, -0.180771142244339, 0.16414186358451843, 0.13376885652542114, 0.19963552057743073, 0.18141059577465057, 0.012543992139399052, -0.1375299096107483, 0.2163858711719513, 0.32175055146217346, -0.5885049104690552, 0.4101850390434265, -0.25643691420555115, 0.11426284164190292, 0.14917360246181488, -0.2193823903799057, 0.14207300543785095, 0.13636426627635956, 0.44256871938705444, -0.22984471917152405, 0.3973642885684967, 0.04577861353754997, 0.012772724032402039, 0.23887626826763153, 0.17081350088119507, -0.11232613027095795, 1.1585403626668267e-05, 0.28039056062698364, -0.11475610733032227, 0.2210518717765808, 0.12911160290241241, 0.2681119740009308, 0.4268048405647278, -0.5810517072677612, 0.20528331398963928, -0.09621409326791763, 0.39810746908187866, 0.24878913164138794,
-0.4315703213214874, -0.31276190280914307, 0.20538195967674255, -0.6749474406242371, 0.11617632210254669, 0.205790176987648, 0.07422806322574615, 0.07861199229955673, -0.04389457032084465, -0.22335632145404816, 0.1618880331516266, -0.1778496354818344, -0.3127700090408325, 0.34672513604164124, -0.08500252664089203, -0.1667783558368683, 0.3594476282596588, -0.1146019995212555, -0.02626366913318634, 0.3635029196739197, 0.24816513061523438, -0.29387691617012024, -0.1595517098903656, 0.08252158761024475, -0.20398013293743134, -0.39925020933151245, 0.1814497858285904, 0.3433212637901306, -0.010835831984877586, -0.00031794561073184013, -0.05086992308497429, -0.07419468462467194, 0.17399676144123077, 0.2136908918619156, 0.19622214138507843, -0.43291333317756653, 0.1398916095495224, -0.5708779096603394, -0.2041679471731186, -0.13188780844211578, -0.38701215386390686, -0.09616732597351074, -0.23337295651435852, 0.2615951597690582, -0.14192958176136017, 0.10740812122821808, -0.2739158868789673, 0.15769056975841522, -0.16899023950099945, 0.17940974235534668, 0.28029462695121765, -0.03429768607020378, -0.05696921795606613, -0.07708723843097687, -0.06893733888864517, -0.5614191293716431, 0.10399849712848663, 0.4463290870189667, -0.1590694636106491, 0.14737185835838318, 0.12217162549495697, 0.043683987110853195, -0.4760943353176117, 0.43762990832328796,
0.002321077510714531, 0.4291417896747589, 0.28819242119789124, 0.2292361557483673, -0.10699506103992462, -0.21447508037090302, -0.22958320379257202, -0.02569814957678318, -0.1737668365240097, 0.030966954305768013, 0.34288981556892395, 0.09553031623363495, -0.16670292615890503, -0.3472122848033905, -0.08341190963983536, -0.01361740194261074, 0.0350872203707695, 0.08083470910787582, -0.12890970706939697, 0.11291355639696121, 0.32686635851860046, 0.2596440315246582, -0.15830063819885254, -0.02030104026198387, -0.037624817341566086, -0.041601479053497314, -0.5983847379684448, 0.39069172739982605, 0.21088184416294098, -0.3356005847454071, 0.24295145273208618, 0.35937193036079407, 0.09762642532587051, -0.05538615584373474, -0.01314371358603239, -0.19591651856899261, 0.6026427149772644, 0.20563970506191254, -0.08929736912250519, 0.03212136775255203, 0.38262587785720825, -0.20417410135269165, 0.3414539098739624, -0.12716440856456757, -0.037436991930007935, -0.22637218236923218, 0.26294103264808655, -0.35594213008880615, 0.007647580932825804, -0.047492094337940216, -0.19791965186595917, -0.17716312408447266, 0.33475741744041443, -0.13705024123191833, -0.24481908977031708, -0.25238609313964844, 0.421365350484848, 0.19475135207176208, -0.35960298776626587, 0.3019561767578125, -0.5663347840309143, 0.11134007573127747, 0.055139947682619095, -0.002565057948231697,
0.21218247711658478, 0.11925344914197922, 0.08933006227016449, 0.4050123393535614, 0.147768035531044, 0.05309847369790077, -0.27139464020729065, 0.10838622599840164, -0.12686064839363098, -0.021135568618774414, 0.5509630441665649, 0.10879812389612198, -0.42523685097694397, 0.0009120834292843938, -0.21450378000736237, -0.16942141950130463, -0.2934621274471283, 0.4020025432109833, -0.20044979453086853, -0.04084474965929985, -0.2589062452316284, 0.0369337797164917, -0.11468242108821869, -0.08219648152589798, 0.23303848505020142, -0.005142120644450188, 0.05860461667180061, 0.06795482337474823, -0.4068395495414734, 0.16201376914978027, -0.09139099717140198, 0.11217723786830902, 0.5114161968231201, 0.18959851562976837, -0.07094231247901917, 0.10945030301809311, -0.20256415009498596, 0.46381065249443054, -0.3653649687767029, -0.2078865021467209, -0.13252203166484833, 0.36629974842071533, 0.03966860845685005, -0.19133664667606354, -0.06557058542966843, 0.24128960072994232, -0.05251375585794449, -0.5445186495780945, -0.43134212493896484, 0.03673491254448891, -0.17179061472415924, 0.23530519008636475, -0.4823722243309021, 0.046639200299978256, -0.42430639266967773, 0.2077304720878601, 0.06315692514181137, 0.043488383293151855, 0.04980652034282684, 0.14659076929092407, -0.32619327306747437, -0.1492394506931305, 0.10972021520137787, 0.1330001950263977,
-0.41239041090011597, 0.0150309382006526, 0.0010116875637322664, 0.16044291853904724, 0.04365062713623047, 0.056852422654628754, 0.06356934458017349, -0.16390284895896912, -0.06697359681129456, 0.031431153416633606, -0.026498420163989067, -0.09800399094820023, -0.467440128326416, -0.04506339132785797, 0.041801560670137405, -0.10096700489521027, 0.02369525656104088, -0.040777787566185, 0.34315893054008484, -0.023189520463347435, 0.3171790838241577, 0.04486691579222679, -0.4225696325302124, 0.25587499141693115, -0.019712340086698532, -0.13949675858020782, -0.21679313480854034, 0.22504279017448425, -0.3295332193374634, -0.1935703158378601, 0.12339203804731369, -0.43745696544647217, -0.30091336369514465, -0.17453855276107788, 0.19367218017578125, -0.2128700315952301, 0.3664374053478241, -0.5867564082145691, 0.12322145700454712, 0.43371957540512085, -0.5282748341560364, 0.31217455863952637, -0.01321098580956459, -0.09133841097354889, 0.023333391174674034, -0.15102708339691162, 0.3061772286891937, 0.09130797535181046, -0.09315598756074905, 0.1969173699617386, -0.08665604889392853, 0.0845949798822403, -0.18401730060577393, -0.0008078773971647024, 0.3158895671367645, 0.058247312903404236, 0.2598862051963806, -0.08307201415300369, 0.280163049697876, -0.41237932443618774, 0.2822728455066681, -0.14248907566070557, -0.4189576506614685, -0.3299233913421631,
-0.32436221837997437, 0.23999115824699402, -0.3433203101158142, 0.04192673787474632, -0.1741592437028885, -0.14094869792461395, 0.13744626939296722, -0.1910952776670456, 0.10198960453271866, 0.11817971616983414, -0.07342275232076645, 0.08105549216270447, -0.18879762291908264, 0.3472011387348175, -0.4204917550086975, 0.15479478240013123, 0.05706891044974327, 0.10097242146730423, -0.0008098089601844549, 0.005117264576256275, 0.03351224586367607, -0.32980987429618835, -0.23104333877563477, -0.34474143385887146, 0.2683947682380676, -0.37517470121383667, -0.0657220259308815, 0.07155758142471313, -0.1928635537624359, 0.40336546301841736, 0.344758540391922, 0.15880410373210907, -0.03536687046289444, -0.3094073235988617, -0.2156139463186264, 0.17371615767478943, 0.22416213154792786, -0.053479213267564774, -0.5178417563438416, 0.10729249566793442, -0.2500881552696228, 0.378619909286499, 0.05596950650215149, 0.05959757789969444, -0.03163761645555496, -0.14977550506591797, -0.32352161407470703, 0.13789524137973785, -0.1515013575553894, -0.09565469622612, 0.2633031904697418, -0.03412584215402603, 0.15985529124736786, -0.1225053071975708, 0.4483715295791626, -0.6186197996139526, -0.006612488534301519, -0.29658058285713196, -0.4261837601661682, 0.016974331811070442, -0.020258033648133278, -0.41935327649116516, -0.06472107768058777, -0.28971782326698303,
-0.06618864834308624, 0.1718437224626541, -0.13267411291599274, -0.5018900632858276, 0.20786447823047638, -0.012578719295561314, 0.18509379029273987, 0.2303190976381302, 0.04179486259818077, 0.02904321625828743, 0.23536238074302673, 0.0325249508023262, -0.23827166855335236, 0.09330541640520096, 0.29369303584098816, 0.16595451533794403, -0.30770960450172424, 0.05658131092786789, -0.010018302127718925, 0.17671464383602142, -0.09956569969654083, 0.08000661432743073, -0.0617389939725399, -0.46755534410476685, -0.23866234719753265, -0.33215010166168213, 0.24326737225055695, -0.3154858946800232, -0.5993868708610535, 0.12403064966201782, 0.22231169044971466, 0.2005244642496109, -0.2222050130367279, -0.12263287603855133, -0.23757939040660858, -0.20893152058124542, 0.032941244542598724, 0.0967065617442131, -0.040683843195438385, 0.24514293670654297, -0.1512937694787979, -0.04203205555677414, -0.006790787447243929, 0.3104788064956665, 0.47926488518714905, -0.09982704371213913, -0.14535710215568542, 0.11125622689723969, -0.0677049458026886, 0.16970114409923553, -0.09995219856500626, 0.43725576996803284, 0.0072598690167069435, 0.1003117486834526, 0.3969070017337799, 0.08941944688558578, 0.11560367047786713, 0.08066102862358093, -0.6074272394180298, -0.12165845930576324, 0.15648537874221802, -0.09211314469575882, 0.3127235472202301, -0.4215327203273773,
0.3363974690437317, -0.1905643194913864, 0.11698847264051437, -0.41877663135528564, -0.5003206729888916, 0.28939712047576904, -0.004378848243504763, 0.1363265961408615, 0.001399904489517212, -0.2928762435913086, -0.10635814815759659, -0.3884851932525635, -0.48766177892684937, 0.20984980463981628, -0.2912748157978058, -0.5584898591041565, 0.7089336514472961, 0.16794532537460327, 0.19594377279281616, -0.26865094900131226, -0.3200245797634125, -0.06408513337373734, 0.13926126062870026, 0.10894252359867096, -0.3228157162666321, -0.3058575689792633, -0.2880018949508667, 0.20061860978603363, 0.02243735082447529, -0.5760056376457214, -0.0958104357123375, 0.2896122932434082, 0.11738932132720947, -0.20724253356456757, 0.3056446313858032, -0.43925756216049194, -0.484846830368042, -0.07466057687997818, -0.08341479301452637, -0.3064686059951782, 0.2991017997264862, 0.12793657183647156, -0.7124059200286865, -0.07011547684669495, 0.2892536520957947, 0.19867293536663055, -0.05703030899167061, 0.22828589379787445, 0.11066927760839462, 0.027610700577497482, 0.15510061383247375, -0.13979840278625488, -0.10921770334243774, 0.02426585741341114, 0.03827330842614174, -0.07111386209726334, 0.19569820165634155, 0.2015221118927002, -0.051117926836013794, -0.5377631187438965, -0.24972252547740936, -0.2724373936653137, 0.05627031996846199, -0.4734495282173157,
-0.7628498673439026, 0.37018343806266785, -0.045935578644275665, 0.002639206126332283, -0.23940452933311462, -0.09514503926038742, 0.06465700268745422, 0.04272935166954994, 0.08702634274959564, 0.2895972430706024, -0.1546604037284851, -0.042627543210983276, -0.4935971200466156, 0.009258885867893696, -0.05018717795610428, 0.14555422961711884, -0.27992066740989685, 0.00891553983092308, -0.015830347314476967, -0.11152401566505432, 0.04607287421822548, 0.08401209861040115, -0.10195302963256836, -0.021415581926703453, -0.7529007792472839, -0.041884902864694595, -0.010372650809586048, 0.19254420697689056, 0.27686741948127747, -0.5269962549209595, 0.21102681756019592, -0.3762042820453644, 0.054853688925504684, 0.4363301396369934, -0.06213061511516571, 0.21680143475532532, 0.20788434147834778, 0.11354013532400131, -0.07340581715106964, 0.18736787140369415, -0.20222535729408264, 0.00979800708591938, -0.332419216632843, -0.2375737428665161, 0.003753112629055977, -0.21759040653705597, -0.41518646478652954, -0.12954482436180115, -0.06830708682537079, 0.3352126479148865, -0.3475967347621918, -0.5739026069641113, 0.20086383819580078, 0.0036501612048596144, 0.01772712543606758, -0.040018219500780106, 0.46388760209083557, 0.12465283274650574, 0.06503713130950928, 0.48037785291671753, -0.02943289279937744, 0.12332376092672348, 0.029161499813199043, 0.022201180458068848,
-0.29027479887008667, -0.33957600593566895, 0.19397571682929993, -0.026472242549061775, 0.04071648418903351, 0.20595668256282806, 0.18789061903953552, -0.2930757701396942, 0.14224272966384888, 0.025128422304987907, 0.257546991109848, -0.10428699851036072, -0.1765696257352829, -0.5925033688545227, 0.20428375899791718, -0.26127782464027405, 0.00045169811346568167, -0.49531289935112, -0.16675595939159393, 0.00564247090369463, 0.04381244629621506, 0.15616479516029358, -0.16135530173778534, 0.5145867466926575, -0.2098539024591446, -0.2608410120010376, -0.15581855177879333, 0.017082512378692627, -0.03940582647919655, -0.2992837727069855, -0.04587322100996971, -0.2506168782711029, 0.20844155550003052, -0.24142694473266602, -0.20753617584705353, -0.03742341324687004, -0.1343723088502884, -0.3115135431289673, -0.16988559067249298, -0.053878456354141235, 0.35851672291755676, -0.7550742626190186, 0.13046014308929443, -0.061293795704841614, -0.14418083429336548, -0.1640090048313141, 0.10908597707748413, -0.23752576112747192, 0.49172690510749817, -0.17035351693630219, -0.5236841440200806, -0.7293479442596436, -0.47460615634918213, 0.21419043838977814, 0.04668368399143219, -0.9275913238525391, 0.08014501631259918, -0.24763046205043793, 0.22570574283599854, -0.024152643978595734, 0.2765463590621948, -0.6120734214782715, 0.0198920127004385, -0.36349815130233765,
0.35291463136672974, -0.10224314033985138, 0.01821220852434635, -0.17357878386974335, -0.21429139375686646, -0.12485795468091965, -0.15503063797950745, 0.1711266040802002, -0.06394276767969131, -0.1638147234916687, 0.2643625736236572, -0.4435290992259979, -0.2977747321128845, -0.07330639660358429, -0.2731916010379791, 0.011121264658868313, 0.007179659325629473, -0.3507950007915497, -0.623615026473999, 0.22032229602336884, 0.05575798079371452, -0.008159286342561245, 0.13225094974040985, -0.190475732088089, 0.3750980496406555, -0.4405532777309418, -0.15970705449581146, 0.2829502820968628, -0.19650430977344513, -0.08919018507003784, 0.008433261886239052, -0.12773959338665009, 0.03112976998090744, -0.029680918902158737, -0.2358800768852234, 0.07594981044530869, 0.0013217972591519356, 0.03716710954904556, -0.17860549688339233, -0.5431217551231384, 0.13784430921077728, 0.24990536272525787, -0.16602244973182678, -0.24130414426326752, -0.0876547321677208, 0.11395487934350967, 0.25627708435058594, 0.36519360542297363, 0.2609908878803253, -0.7706278562545776, 0.25064292550086975, -0.5369936227798462, -0.35825198888778687, -0.45073848962783813, -0.3211585581302643, 0.4051852822303772, -0.5283204913139343, -0.13371697068214417, 0.09305600076913834, -0.12184090912342072, 0.10146453231573105, 0.37285634875297546, -0.46309593319892883, -0.5398122668266296,
0.1836143136024475, -0.13390696048736572, 0.1860729455947876, -0.1099386066198349, 0.44919219613075256, 0.17238660156726837, -0.05450204387307167, 0.1294352412223816, 0.0641394704580307, 0.0014052673941478133, -0.01986696571111679, -0.00971536710858345, -0.10196846723556519, -0.07349977642297745, -0.07071664184331894, -0.09114459902048111, 0.09799639135599136, 0.13587214052677155, -0.4473343789577484, -0.2089872658252716, 0.09361337870359421, -0.06140866130590439, 0.23818108439445496, 0.18248948454856873, -0.1649506837129593, 0.10373425483703613, 0.035850562155246735, 0.32408615946769714, 0.4434386193752289, 0.2482118159532547, 0.22239720821380615, 0.4641727805137634, 0.37464475631713867, -0.32741376757621765, 0.03313472494482994, 0.13014185428619385, 0.14051921665668488, -0.44423893094062805, -0.3608485162258148, -0.0739840567111969, 0.07614277303218842, -0.38798433542251587, 0.20024923980236053, 0.551802933216095, 0.00428486755117774, 0.04778284579515457, -0.33800193667411804, 0.3598647117614746, -0.26642951369285583, -0.03383634239435196, 0.37854957580566406, -0.41418805718421936, -0.18450362980365753, -0.12896326184272766, 0.10769808292388916, -0.05681375786662102, 0.047838468104600906, 0.021019553765654564, -0.3864877223968506, 0.04002203047275543, -0.37027573585510254, 0.36606255173683167, 0.18786326050758362, 0.14927229285240173,
0.153221994638443, 0.07472953200340271, 0.17654484510421753, 0.034258242696523666, -0.2643418312072754, 0.5231180787086487, -0.2936049997806549, -0.19993463158607483, -0.2715807557106018, 0.1010238379240036, 0.07146265357732773, -0.30652672052383423, -0.5242225527763367, -0.1797630935907364, -0.2547367215156555, 0.30397456884384155, 0.39480459690093994, -0.1831153780221939, -0.16191598773002625, -0.044455669820308685, -0.01995915360748768, 0.1763487011194229, -0.12501659989356995, -0.028929905965924263, 0.5149393677711487, -0.7247332334518433, -0.21230988204479218, -0.01978704333305359, -0.25395551323890686, -0.16036675870418549, 0.03140762820839882, 0.10133899003267288, -0.0038274703547358513, 0.15052691102027893, -0.03883213922381401, -0.5469223260879517, -0.024939827620983124, -0.22157321870326996, 0.010178091935813427, -0.051878880709409714, -0.19190627336502075, -0.21123389899730682, -0.047045525163412094, 0.24562622606754303, 0.014458279125392437, 0.04981420934200287, 0.029413089156150818, -0.011609590612351894, 0.23012354969978333, -0.06887578964233398, -0.1427285075187683, -0.12122132629156113, 0.018299251794815063, 0.37412163615226746, 0.274471253156662, 0.04727454483509064, -0.23276448249816895, 0.4301849901676178, 0.053492166101932526, 0.1797606348991394, -0.24566152691841125, 0.4083251953125, 0.11066934466362, 0.10513890534639359,
-0.025480391457676888, -0.5752512216567993, 0.16436539590358734, -0.44438064098358154, -0.19726809859275818, -0.39557182788848877, 0.27972111105918884, -0.07428557425737381, -0.2397606521844864, 0.15466837584972382, -0.2170374095439911, 0.024924349039793015, -0.12419935315847397, -0.08362490683794022, 0.5467594265937805, -0.005350692197680473, -0.36736682057380676, -0.08932570368051529, 0.04817245155572891, 0.08284547179937363, 0.27240556478500366, -0.06646301597356796, 0.09817786514759064, -0.14876630902290344, 0.05964367836713791, 0.05272064357995987, 0.054714102298021317, -0.0036577340215444565, -0.11811358481645584, -0.23738427460193634, -0.31585168838500977, -0.16458147764205933, -0.11978482455015182, 0.22220419347286224, 0.023928679525852203, 0.21335352957248688, -0.012199857272207737, -0.1237262561917305, -0.16031663119792938, 0.28145861625671387, -0.03514839708805084, 0.4702032506465912, -0.22104981541633606, -0.28858911991119385, -0.33829519152641296, 0.17990626394748688, 0.09972056746482849, -0.04061061888933182, 0.19394135475158691, -0.2760615646839142, 0.5313708186149597, 0.23609626293182373, -0.1533839851617813, 0.24190731346607208, 0.1589207500219345, -0.23967060446739197, -0.4359065890312195, 0.0431453138589859, -0.24078111350536346, 0.12173629552125931, -0.04419725015759468, 0.30366554856300354, -0.10952818393707275, 0.059293583035469055,
-0.11936414986848831, -0.22022126615047455, -0.15878614783287048, 0.006573912687599659, 0.3015598654747009, 0.35233405232429504, 0.164100781083107, -0.2898554801940918, -0.050818346440792084, 0.19135788083076477, 0.21099576354026794, 0.20910288393497467, -0.07449762523174286, -0.0006489803781732917, 0.08211611956357956, 0.008270974270999432, 0.22308072447776794, 0.2273830622434616, 0.4149143099784851, 0.24576029181480408, -0.17588239908218384, -0.35620251297950745, 0.04499831423163414, -0.3020396828651428, -0.13937631249427795, 0.25647813081741333, 0.03969806805253029, -0.32888150215148926, -0.43207013607025146, 0.3273557126522064, -0.16818030178546906, 0.31415116786956787, -0.07272839546203613, -0.7677470445632935, -0.21729333698749542, 0.16484303772449493, -0.17348726093769073, -0.14441068470478058, 0.16295287013053894, -0.19309498369693756, 0.21098081767559052, 0.100665383040905, -0.33335670828819275, 0.2544574737548828, -0.11112257838249207, -0.06132346764206886, -0.03552025929093361, -0.4910741150379181, -0.13534949719905853, -0.3378901779651642, 0.5280297994613647, 0.047007832676172256, 0.0566733181476593, -0.2229723036289215, -0.028060700744390488, 0.4208294153213501, 0.0053932243026793, -0.17103959619998932, -0.13967126607894897, -0.348469078540802, -0.15180769562721252, 0.0692710280418396, -0.41119202971458435, 0.2215563803911209,
0.2073548138141632, 0.00941843818873167, 0.022889817133545876, 0.019485371187329292, -0.35044461488723755, 0.43754464387893677, 0.07121105492115021, 0.1042817234992981, -0.0499427430331707, -0.24767009913921356, -0.67755526304245, -0.09990156441926956, -0.0067117284052073956, 0.2328120917081833, -0.2678349018096924, -0.2903900742530823, 0.05494389683008194, 0.19313472509384155, -0.18595074117183685, -0.8090309500694275, -0.36994823813438416, 0.15958978235721588, -0.4764642119407654, -0.25286999344825745, -0.32489901781082153, 0.35045623779296875, 0.036781195551157, -0.939611554145813, -0.057806674391031265, 0.28527459502220154, 0.04774230718612671, 0.04625711217522621, 0.2283678501844406, -0.553769588470459, -0.23311598598957062, 0.03530483320355415, -0.3477957248687744, 0.19009990990161896, -0.5294362306594849, 0.15792694687843323, -0.47813016176223755, -0.21980252861976624, 0.14486639201641083, 0.10587546974420547, -0.11288125813007355, 0.06511235237121582, -0.6094932556152344, -0.44783568382263184, -0.15187758207321167, 0.12294123321771622, -0.15927182137966156, -0.1867874562740326, -1.31095552444458, -0.397970974445343, 0.12950541079044342, -0.657332181930542, 0.2970799207687378, -0.27117595076560974, 0.0163588747382164, 0.10299554467201233, 0.09665460139513016, 0.13666799664497375, -0.22797268629074097, -0.01763893850147724,
0.339356929063797, -0.25549623370170593, 0.06707601249217987, -0.4400429427623749, -0.2260642647743225, 0.12306889146566391, -0.29223185777664185, -7.163023838074878e-05, -0.1133948564529419, 0.11360982060432434, -0.21461649239063263, 0.18614040315151215, 0.17145967483520508, -0.36059412360191345, -0.27290257811546326, -0.08311640471220016, 0.14848333597183228, -0.5306724905967712, -0.11865504086017609, 0.18303368985652924, -0.022893991321325302, -0.026071324944496155, -0.12797771394252777, 0.09379168599843979, -0.3586623966693878, 0.21670132875442505, -0.08605557680130005, 0.2045784741640091, 0.0059056878089904785, -0.024676406756043434, -0.24565008282661438, -0.20658034086227417, -0.2921515107154846, -0.7684587240219116, -0.05699174478650093, 0.0893903374671936, 0.1633177399635315, -0.07104483246803284, 0.17955097556114197, -0.29343193769454956, -0.019866038113832474, 0.3241899907588959, 0.23959849774837494, -0.5903698801994324, 0.16522668302059174, 0.22211696207523346, 0.02693917788565159, -0.5173152685165405, 0.2044171839952469, 0.1528691202402115, -0.02017236314713955, 0.1740138828754425, -0.06918859481811523, 0.2926402688026428, -0.036306217312812805, 0.12033653259277344, 0.019979456439614296, -0.058118920773267746, 0.27855467796325684, 0.3320755064487457, -0.15653832256793976, 0.3287411034107208, 0.3472534120082855, -0.09491877257823944,
0.22239388525485992, -0.018927011638879776, 0.23349207639694214, 0.2950189709663391, 0.15453702211380005, 0.3512803614139557, 0.15268662571907043, 0.0649806410074234, -0.09381266683340073, -0.17073552310466766, 0.0149140115827322, -0.02366965264081955, -0.1485120952129364, -0.01846347749233246, -0.3314386308193207, -0.05239439383149147, 0.0775623768568039, 0.02841714210808277, -0.03478572890162468, -0.19569037854671478, 0.048257987946271896, 0.022927310317754745, -0.02903440035879612, 0.2944633960723877, 0.1513618677854538, -0.5418721437454224, -0.18167449533939362, -0.07729225605726242, 0.09361539036035538, -0.15543270111083984, 0.25638505816459656, -0.6913751363754272, -0.08456403017044067, -0.1658277064561844, 0.3452566862106323, 0.011635266244411469, 0.23052260279655457, 0.03777237981557846, 0.22301988303661346, 0.09193356335163116, 0.31640490889549255, 0.20875459909439087, 0.2306905835866928, 0.025890430435538292, 0.1951669603586197, -0.0069023966789245605, -0.49131080508232117, -0.04292081296443939, -0.2266826331615448, -0.4858208894729614, 0.044252660125494, -0.5126035809516907, -0.19675672054290771, -0.2040662169456482, 0.057565297931432724, 0.2180332988500595, -0.8421780467033386, 0.4364570677280426, -0.04268421605229378, 0.26435592770576477, -0.6294150948524475, 0.0060640680603682995, -0.039335668087005615, 0.06066800653934479,
-0.13042475283145905, 0.28701481223106384, 0.01254282146692276, -0.2228318154811859, -0.4852644205093384, 0.09165547788143158, 0.06000250577926636, -0.28491729497909546, 0.22992216050624847, 0.1021743044257164, 0.14161856472492218, -0.3651968836784363, -0.039044056087732315, 0.3606559932231903, 0.045526254922151566, 0.1143326386809349, -0.07696816325187683, -0.2298714518547058, 0.15393462777137756, -0.10737690329551697, 0.26152440905570984, 0.1499393880367279, 0.10743478685617447, 0.2794346213340759, 0.002362828701734543, 0.22835256159305573, 0.08136750757694244, -0.1062096580862999, -0.036238573491573334, -0.4753856062889099, 0.09169473499059677, -0.14588205516338348, -0.1245063915848732, -0.20350655913352966, -0.11763732135295868, 0.18123561143875122, -0.16588379442691803, 0.08113961666822433, 0.15479792654514313, 0.07174018025398254, -0.38623619079589844, 0.012476496398448944, 0.03793969750404358, -0.2297183722257614, -0.2929917573928833, 0.019859235733747482, 0.2722357213497162, -0.18830323219299316, -0.08700912445783615, -0.07469968497753143, -0.5801698565483093, 0.44634416699409485, -0.46064212918281555, -0.31192871928215027, 0.0591302327811718, 0.21261754631996155, -0.24947428703308105, 0.24218173325061798, 0.03442193940281868, 0.13584613800048828, 0.16826346516609192, 0.0751725286245346, -0.06725570559501648, -0.29627612233161926,
0.11157062649726868, 0.43820619583129883, -0.20733684301376343, 0.18923085927963257, 0.1188332587480545, -0.08905180543661118, 0.34837859869003296, -0.20473501086235046, 0.27795857191085815, 0.39117109775543213, -0.21416409313678741, 0.03226631507277489, -0.42455464601516724, 0.0034303623251616955, -0.017873983830213547, -0.2755841612815857, -0.31358063220977783, -0.015015250071883202, -0.19396604597568512, 0.20808731019496918, 0.15879546105861664, -0.2558164596557617, 0.10304538160562515, 0.24010872840881348, -0.3915901184082031, -0.4837714731693268, 0.12769199907779694, 0.15336430072784424, -0.21406178176403046, 0.05297140032052994, -0.03880387544631958, -0.20466499030590057, -0.010754521004855633, 0.21733644604682922, 0.03559280186891556, 0.0010148484725505114, -0.07934188842773438, 0.016466757282614708, -0.3512457609176636, -0.4030446410179138, 0.2884504497051239, -0.249515563249588, 0.1887008398771286, -0.17168240249156952, 0.14702223241329193, -0.04733763262629509, 0.3374199867248535, -0.1141325831413269, -0.574203610420227, 0.2909831702709198, -0.5957457423210144, 0.39566275477409363, 0.2377765029668808, 0.041487984359264374, -0.5170974135398865, 0.2516075074672699, 0.042452793568372726, -0.04617170989513397, 0.3725099265575409, 0.08920995146036148, -0.24174262583255768, -0.3517899215221405, -0.017588110640645027, 0.005255873315036297,
-0.763319194316864, -0.172464057803154, -0.017815260216593742, -0.053645722568035126, -0.5299981832504272, -0.22651350498199463, -0.1522832065820694, -0.5464139580726624, -0.21476462483406067, 0.15636160969734192, 0.09649557620286942, 0.4804985821247101, 0.1420155018568039, 0.18912777304649353, -0.08722939342260361, -0.1389765590429306, 0.42310547828674316, 0.15783098340034485, 0.015169144608080387, -0.1969042420387268, -0.20424562692642212, -0.24449551105499268, -0.3358462452888489, 0.04488838464021683, -0.2887885570526123, 0.07039360702037811, 0.07314123958349228, -0.0032357897143810987, 0.2873173952102661, -0.17508231103420258, -0.5811489820480347, -0.15679188072681427, -0.01629052869975567, 0.3414182960987091, 0.05338726192712784, -0.2979046404361725, 0.21659214794635773, -0.8337750434875488, 0.010124076157808304, 0.38596609234809875, 0.10900835692882538, -0.19173985719680786, -0.6082813739776611, -0.3457118272781372, -0.09701860696077347, -0.7700076103210449, 0.15655329823493958, -0.08319008350372314, -0.02545449137687683, -0.12314920872449875, 0.2730562388896942, 0.06271736323833466, -0.10173657536506653, -0.20969070494174957, 0.10148835927248001, 0.0671219602227211, -0.1735842376947403, 0.2998937666416168, -0.21127144992351532, 0.37065204977989197, -0.17564980685710907, 0.2607361376285553, -0.43384385108947754, 0.024411896243691444,
0.1605328768491745, -0.0942688137292862, -0.0031206575222313404, -0.09986323863267899, -0.05801457539200783, 0.07279159873723984, 0.16133682429790497, 0.02865629829466343, -0.1670852154493332, 0.10429395735263824, 0.047992903739213943, -0.03064066357910633, 0.024099210277199745, -0.09212247282266617, 0.15017186105251312, -0.29491114616394043, 0.6017464995384216, -0.30544546246528625, 0.18488368391990662, 0.18158413469791412, 0.05387965962290764, 0.39333656430244446, -0.18504123389720917, -0.3145771920681, -0.1741279661655426, 0.3109906017780304, -0.152415931224823, 0.053032148629426956, -0.08108823001384735, -0.43099504709243774, 0.6386662125587463, -0.30654242634773254, 0.041032575070858, 0.2594626247882843, 0.35246241092681885, 0.0084261829033494, -0.1092643067240715, 0.12739817798137665, -0.6655533313751221, -0.3941015601158142, -0.19332024455070496, -0.08890097588300705, -0.007610035128891468, -0.23517514765262604, -0.2111291140317917, -0.6117669343948364, 0.06816616654396057, -0.15398485958576202, 0.15063625574111938, -0.06483163684606552, 0.12552335858345032, 0.028862178325653076, -0.1077338233590126, -0.22108803689479828, 0.2457670271396637, -0.01821880415081978, 0.3216966688632965, -0.4469861388206482, 0.0071427407674491405, 0.32355648279190063, 0.23100267350673676, 0.31493520736694336, 0.2890881896018982, -0.060340818017721176,
-0.05732717365026474, 0.3849101960659027, -0.4429311752319336, 0.21723157167434692, 0.46000024676322937, -0.10363318026065826, 0.3661709129810333, -0.21767635643482208, -0.3143652379512787, -0.030244870111346245, -0.2690832316875458, 0.09271419793367386, -0.25117605924606323, 0.30524274706840515, 0.11545788496732712, 0.002112286165356636, 0.1751755177974701, 0.1553042083978653, 0.06329543888568878, -0.14084966480731964, 0.029931141063570976, -0.7061430215835571, -0.09392156451940536, 0.43988725543022156, -0.31630584597587585, 0.5085030794143677, 0.07077717781066895, -0.09978078305721283, -0.33239123225212097, -0.33609241247177124, 0.05241204425692558, 0.02714383229613304, 0.08524592220783234, 0.2937195301055908, -0.30792251229286194, -0.16659066081047058, 0.37786200642585754, -0.27068978548049927, -0.4627573788166046, -0.18162813782691956, 0.028556568548083305, -0.39114490151405334, -0.3819235563278198, -0.08699986338615417, 0.029756736010313034, 0.4920584261417389, 0.030638888478279114, 0.01915706694126129, -0.11367785930633545, -0.4188271760940552, 0.04274262115359306, 0.061797093600034714, 0.17125873267650604, 0.1896369308233261, 0.048550646752119064, 0.04053398594260216, 0.1922677457332611, -0.14079585671424866, -0.07196744531393051, 0.048739559948444366, 0.004131222143769264, -0.025516213849186897, -0.23347115516662598, -0.1715586930513382,
0.10165533423423767, -0.10188967734575272, 0.10546080768108368, 0.07014250010251999, 0.3132328689098358, 0.0800539180636406, -0.25550806522369385, 0.22289694845676422, 0.04115643724799156, 0.17002376914024353, -0.23829466104507446, 0.23797357082366943, -0.4174642562866211, -0.3295321464538574, -0.5938998460769653, -0.22325636446475983, 0.4919765591621399, 0.0423717238008976, 0.043597735464572906, -0.1602320671081543, 0.033080894500017166, 0.2862608730792999, 0.327205628156662, -0.481684148311615, 0.4493272304534912, 0.041105810552835464, 0.5098041892051697, -0.525597870349884, 0.07813053578138351, -0.2138683795928955, 0.1740572601556778, 0.21652857959270477, -0.20485280454158783, -0.5230265855789185, -0.187852144241333, -0.2951549291610718, -0.24719218909740448, 0.012845120392739773, 0.2582358717918396, 0.5358309149742126, -0.46996673941612244, -0.3049379885196686, -0.07247921824455261, 0.4045860469341278, -0.2255849987268448, 0.09306870400905609, -0.3033091127872467, 0.6895791888237, 0.035229526460170746, 0.16000063717365265, -0.11332128196954727, -0.07193144410848618, 0.33764612674713135, -0.1988077312707901, 0.19113291800022125, 0.05260108411312103, -0.15784041583538055, -0.0796414241194725, 0.2242395430803299, -0.14579208195209503, -0.19705452024936676, -0.22849132120609283, -0.3521532416343689, -0.3587416112422943,
0.14351612329483032, -0.07952646166086197, -0.40270715951919556, -0.005102400202304125, 0.30388128757476807, -0.06642628461122513, -0.675362229347229, -0.15196073055267334, -0.09554325044155121, 0.32740914821624756, 0.23309862613677979, -0.21200081706047058, 0.06431811302900314, 0.028404904529452324, 0.29620257019996643, 0.38460150361061096, -0.32274556159973145, -0.24902884662151337, 0.14107170701026917, 0.457969605922699, -0.3814895451068878, 0.5250231623649597, 0.5620468854904175, 0.2860610783100128, -0.029751207679510117, 0.04078143835067749, 0.16439154744148254, -0.09207456558942795, 0.3273613154888153, 0.22312000393867493, -0.011885575950145721, -0.31954920291900635, -0.3123478889465332, 0.0806325152516365, -0.18502628803253174, -0.5021440982818604, 0.13305015861988068, -0.2218736708164215, -0.34317952394485474, -0.16877150535583496, -0.25169920921325684, 0.07878947257995605, 0.00734597397968173, -0.003089925041422248, 0.2610812187194824, -0.12035485357046127, 0.16099101305007935, -0.12713482975959778, -0.04974634572863579, 0.013842843472957611, -0.15762543678283691, 0.15703003108501434, -0.3119702637195587, 0.07702074944972992, 0.05113348364830017, 0.2781502306461334, 0.34872156381607056, -0.6088648438453674, 0.09110351651906967, -1.285002589225769, -0.6843308806419373, -0.21233533322811127, 0.15114398300647736, -0.24789944291114807,
-0.5200215578079224, 0.154061958193779, 0.21339371800422668, 0.353985995054245, 0.1382797211408615, -0.4079509675502777, 0.05258256942033768, -0.17232458293437958, 0.10859507322311401, 0.31839531660079956, 0.12067647278308868, 0.2149227410554886, -0.06704898923635483, 0.33282020688056946, -0.09774450212717056, 0.1095326766371727, 0.24251046776771545, -0.03499998897314072, -0.03953571245074272, -0.37420228123664856, 0.2657795250415802, -0.12939895689487457, 0.10745897889137268, 0.21881936490535736, -0.10702807456254959, -0.46559932827949524, 0.10698185116052628, 0.10597395151853561, 0.19409973919391632, 0.1008593887090683, 0.2042778879404068, -0.08072976768016815, -0.6714099645614624, -0.37557026743888855, -0.2104586809873581, 0.03262665495276451, 0.29210227727890015, 0.032788828015327454, -0.07827987521886826, -0.16127724945545197, 0.03590406849980354, -0.24899162352085114, -0.26985037326812744, 0.1865050345659256, 0.5664036870002747, 0.2557724118232727, -0.14682763814926147, -0.10207457840442657, -0.021066969260573387, -0.20080535113811493, 0.2946087121963501, -0.04476242884993553, 0.05304921418428421, -0.016086889430880547, 0.032039571553468704, -0.049636632204055786, -0.19039306044578552, -0.31485608220100403, 0.03531985357403755, -0.30005282163619995, -0.11877743154764175, 0.17063432931900024, -0.1836073398590088, 0.25638067722320557,
0.1377054899930954, -0.006007843650877476, -0.002090990776196122, 0.1239522248506546, 0.017992297187447548, -0.27636733651161194, 0.008836097083985806, -0.029631370678544044, -0.0612386092543602, -0.3403901755809784, -0.2312949150800705, -0.149966299533844, -0.49412423372268677, 0.2096279412508011, 0.037942998111248016, 0.2948489487171173, 0.301797091960907, -0.05630115419626236, -0.06270294636487961, -0.04095575958490372, -0.1244492307305336, -0.24593161046504974, 0.3669871985912323, -0.07613898813724518, -0.20033004879951477, -0.06379400938749313, 0.27654001116752625, 0.29073894023895264, -0.1177760437130928, 0.06669984012842178, 0.4251485764980316, 0.14254797995090485, -0.6513041257858276, -0.042768318206071854, 0.12263894826173782, -0.14296752214431763, -0.2384537309408188, -0.19409982860088348, 0.1558372527360916, 0.08493068069219589, 0.5320571660995483, 0.13481442630290985, 0.07188969850540161, 0.5282521843910217, 0.1668972671031952, 0.0287447739392519, -0.13604268431663513, 0.03283346816897392, -0.044081274420022964, 0.13878725469112396, 0.18709219992160797, 0.08654910326004028, 0.025256186723709106, 0.2623303234577179, -0.2797970473766327, 0.24765922129154205, -0.12055105715990067, -0.3711123764514923, -0.2017139494419098, 0.12511643767356873, -0.08147476613521576, -0.3144390881061554, -0.019932841882109642, -0.3181743323802948,
-0.09667752683162689, 0.204104945063591, 0.14753857254981995, 0.07594796270132065, -0.12998366355895996, -0.28294822573661804, -0.4906626045703888, 0.05823628604412079, -0.4802394509315491, -0.045573603361845016, -0.030690176412463188, -0.23783111572265625, -0.09475184977054596, -0.4111326336860657, 0.1121087595820427, -0.04109857976436615, -0.3065190017223358, -0.04040908440947533, -0.11166384816169739, 0.0031668359879404306, -0.09770024567842484, -0.08805640041828156, 0.6382030844688416, -0.2433612197637558, 0.15958450734615326, 0.3064168691635132, -0.28670626878738403, 0.13402265310287476, -0.14419236779212952, 0.11848725378513336, 0.03678403049707413, -0.08181390911340714, 0.024655485525727272, -0.30358555912971497, 0.10777361690998077, -0.5547307729721069, -0.1625952422618866, 0.17684657871723175, -0.44223472476005554, -0.15849287807941437, -0.01276987511664629, 0.35956430435180664, 0.024146972224116325, -0.2746007442474365, 0.04842875897884369, 0.10415694862604141, -0.06158699840307236, 0.3829086422920227, 0.21998968720436096, 0.4908595681190491, -0.26055973768234253, 0.12235058844089508, 0.15559987723827362, 0.16039252281188965, 0.2060602456331253, 0.2521631717681885, 0.33768340945243835, 0.23348349332809448, -0.3204730451107025, -0.6919838190078735, 0.07954644411802292, -0.2617553770542145, -0.13965871930122375, 0.13049572706222534,
0.14955464005470276, -0.16628344357013702, -0.46194279193878174, -0.16880762577056885, -0.15644659101963043, 0.3974630534648895, -0.037446197122335434, 0.16406862437725067, 0.1883423626422882, 0.043396200984716415, 0.11431009322404861, 0.030117040500044823, 0.12763746082782745, 0.001380173722282052, -0.05562243238091469, -0.44229811429977417, -0.13177531957626343, 0.17668047547340393, 0.2872256338596344, -0.23021942377090454, 0.04395650699734688, -0.4376859664916992, 0.03760067746043205, -0.03835861012339592, 0.20016562938690186, 0.41707566380500793, 0.19210483133792877, 0.14077165722846985, -0.09513135999441147, -0.18344609439373016, -0.1549365222454071, -0.4257592558860779, 0.15166863799095154, 0.002051781164482236, 0.17231349647045135, 0.02907889522612095, -0.19346554577350616, 0.24375297129154205, 0.06952138245105743, -0.17886456847190857, 0.0205832552164793, -0.09116677939891815, -0.03024911694228649, -0.280004620552063, 0.10782574862241745, -0.01688896119594574, 0.009144002571702003, -0.5016347765922546, 0.17383186519145966, 0.16474711894989014, -0.055588074028491974, -0.0384320393204689, -0.3846531808376312, 0.0666431412100792, 0.25038376450538635, 0.36218181252479553, -0.33731645345687866, -0.10682106018066406, 0.3385973870754242, -0.26405319571495056, 0.07233544439077377, 0.4515713155269623, -0.05836533382534981, -0.31880080699920654,
-0.29460597038269043, -0.042390476912260056, 0.07616493105888367, 0.346203476190567, -0.14995001256465912, 0.30109578371047974, -0.3618338704109192, -0.36880919337272644, -0.2347291260957718, 0.15908218920230865, 0.08843042701482773, 0.3967297673225403, -0.14189237356185913, 0.2663632929325104, 0.059451062232255936, -0.3415393829345703, 0.3105468451976776, 0.45473456382751465, 0.0070865764282643795, -0.092093825340271, -0.07995401322841644, 0.028758397325873375, 0.20843505859375, 0.0696239322423935, -0.1445072740316391, -0.35478445887565613, -0.22995921969413757, -0.20706118643283844, -0.03331787884235382, -0.5671076774597168, 0.24761754274368286, -0.12456445395946503, 0.15459175407886505, 0.05557187274098396, 0.30723828077316284, -0.8290655016899109, -0.16357287764549255, -0.22336484491825104, 0.2344675064086914, -0.3817702531814575, -0.04264993965625763, -0.23457036912441254, 0.3172034025192261, -0.3170296847820282, 0.039866019040346146, -0.28774493932724, -0.11364912241697311, 0.4602128863334656, -0.17524594068527222, 0.26185283064842224, -0.059995751827955246, -0.07915325462818146, 0.251306414604187, -0.10954950004816055, -0.12152345478534698, 0.21304823458194733, 0.21732543408870697, -0.18791648745536804, -0.13452187180519104, -0.08541892468929291, 0.20530958473682404, -0.08157134056091309, 0.1778540462255478, -0.5168596506118774,
-0.15732933580875397, 0.15823620557785034, -0.012964078225195408, 0.2985493242740631, -0.07258418947458267, 0.6580716967582703, -0.11322051286697388, -0.48130926489830017, -0.08475715667009354, 0.2137676328420639, -0.2213159203529358, 0.3717529773712158, 0.3731890916824341, 0.05144399777054787, -0.18838036060333252, -0.20433469116687775, -0.19566401839256287, -0.18005813658237457, -0.2798587679862976, 0.10267174243927002, -0.040010854601860046, 0.3673613965511322, 0.2017425149679184, 0.46654418110847473, -0.22964507341384888, -0.09173182398080826, 0.5685515999794006, 0.31345388293266296, 0.12003248184919357, -0.3237304091453552, -0.0919003039598465, 0.15741772949695587, -0.23186402022838593, -0.14623449742794037, -0.010958160273730755, -0.09310551732778549, 0.018874090164899826, -0.02599490061402321, 0.02797960303723812, -0.021972430869936943, 0.07855018973350525, -0.5328305959701538, -0.5363483428955078, -0.17859137058258057, 0.10685189068317413, 0.35201573371887207, 0.18544338643550873, -0.019002284854650497, 0.007461389061063528, -0.20587870478630066, 0.0014685405185446143, -0.6998483538627625, 0.3821043074131012, 0.30275410413742065, -0.47443950176239014, 0.21498380601406097, -0.12242646515369415, -0.3063487112522125, -0.03422461077570915, -0.4134654402732849, -0.2755308449268341, 0.001285863807424903, -0.08264429122209549, -0.22745592892169952,
-0.11845676600933075, -0.055638983845710754, 0.07385656982660294, 0.01110768225044012, -0.5133209228515625, -0.2788609266281128, 0.20191529393196106, -0.15956217050552368, 0.2065696269273758, 0.017646586522459984, -0.24947847425937653, -0.25291380286216736, -0.06502427160739899, -0.4710722863674164, -0.08064895123243332, 0.1555451899766922, -0.42714110016822815, -0.37069734930992126, 0.05490954965353012, -0.17521533370018005, -0.6603254675865173, -0.1478334665298462, -0.2681129574775696, -0.3598833680152893, 0.008716115728020668, -0.035473018884658813, 0.41812294721603394, -0.12648604810237885, -0.08921201527118683, -0.3384262025356293, -0.12359584122896194, -0.16925759613513947, -0.17484356462955475, 0.29689711332321167, -0.05735769122838974, -0.32135701179504395, -0.4017220735549927, -0.14714400470256805, -0.390615850687027, -0.10308507829904556, -0.016628514975309372, 0.14961791038513184, 0.09338986873626709, -0.511082112789154, -0.6611108183860779, -0.46036335825920105, 0.0015580450417473912, -0.4527943432331085, 0.1760537475347519, -0.3058612048625946, -0.03910919651389122, 0.126921147108078, 0.21067842841148376, -0.5601815581321716, 0.1189841702580452, -0.49122536182403564, 0.23800301551818848, 0.258260577917099, 0.14793026447296143, 0.18492235243320465, 0.19275179505348206, 0.1606634110212326, 0.044685158878564835, -0.49848631024360657,
0.18854929506778717, -0.0007149971788749099, 0.09840922802686691, -0.20487982034683228, 0.3905864655971527, -0.08135569840669632, 0.24158766865730286, -0.14968545734882355, -0.1264800727367401, 0.2844680845737457, -0.18319052457809448, -0.27703943848609924, 0.22601696848869324, 0.10156133025884628, 0.11317074298858643, 0.6057596802711487, 0.157871812582016, 0.10665100812911987, 0.1614309698343277, 0.12886010110378265, -0.11763831973075867, -0.23001347482204437, 0.08629430085420609, -0.5983582139015198, 0.16088901460170746, -0.10600002110004425, 0.15814734995365143, 0.05865545570850372, -0.3624732792377472, -0.12759257853031158, -0.3482099771499634, -0.025893954560160637, 0.07476241141557693, -0.28186342120170593, -0.48893532156944275, -0.34117746353149414, -0.021637702360749245, -0.12288278341293335, -0.1754632294178009, 0.5910083055496216, 0.1855742335319519, -0.134880930185318, 0.3258298635482788, -0.19704370200634003, -0.38752415776252747, -0.15968087315559387, 0.1943865716457367, -0.29126253724098206, -0.3434831202030182, 0.32212185859680176, 0.006397175136953592, 0.11778607219457626, 0.23703138530254364, -0.7069681882858276, -0.0943148210644722, 0.13022471964359283, -0.07082179933786392, -0.04328561946749687, -0.4074122905731201, -0.006244393065571785, 0.265470951795578, 0.05760996416211128, 0.010523994453251362, 0.2179955095052719,
0.05024612322449684, 0.34005528688430786, 0.05017240718007088, -0.09575538337230682, 0.00286312447860837, -0.20513038337230682, 0.07251982390880585, -0.32155275344848633, 0.3299805521965027, 0.3124903738498688, -0.14427484571933746, 0.22344817221164703, -0.280781626701355, 0.1559334695339203, 0.26829883456230164, -0.014350335113704205, -0.044356945902109146, -0.4850892424583435, 0.2701030969619751, 0.18058447539806366, -0.17541728913784027, 0.051897358149290085, -0.2641327381134033, 0.09396426379680634, 0.3913847506046295, -0.23933932185173035, 0.28486013412475586, -0.4939577579498291, -0.4951270818710327, 0.02355181984603405, -0.07005318999290466, -0.039020005613565445, -0.31187617778778076, -0.19964158535003662, 0.20555201172828674, 0.33148032426834106, -0.034911926835775375, -0.13679999113082886, -0.18402604758739471, -0.11066886782646179, -0.5937026143074036, -0.12206766754388809, 0.11766590923070908, -0.03290006145834923, -0.05516505613923073, -0.10582628846168518, -0.01503087766468525, -0.032036639750003815, 0.09109929949045181, -0.041556451469659805, 0.00844657700508833, -0.28278619050979614, -0.2010120153427124, -0.28050294518470764, 0.31911012530326843, -0.14515885710716248, 0.20099084079265594, 0.08799336105585098, 0.0425732359290123, -0.05134114995598793, -0.11978735774755478, -0.142943874001503, -1.0173753499984741, 0.14881668984889984,
0.6147057414054871, -0.08959177136421204, -0.05485811457037926, 0.14732743799686432, 0.29914242029190063, 0.09396693110466003, -0.1285853385925293, -0.34929803013801575, 0.4530467391014099, -0.08619087189435959, 0.06069399043917656, 0.49869993329048157, 0.17588822543621063, 0.13045652210712433, -0.05074382200837135, 0.03033931739628315, 0.28348028659820557, -0.04436289146542549, 0.010650012642145157, -0.1501605063676834, 0.4181128442287445, -0.24582119286060333, -0.08199169486761093, 0.41925346851348877, -0.13721588253974915, -0.3045976758003235, 0.09952064603567123, -0.32633718848228455, -0.16659803688526154, 0.28169000148773193, 0.10029195249080658, 0.0046193404123187065, -0.3336303234100342, -0.182454451918602, 0.48462027311325073, -0.35980281233787537, -0.05031213164329529, -0.02625548653304577, -0.3091853857040405, -0.16527163982391357, 0.17826445400714874, 0.12642724812030792, -0.3161903917789459, 0.2792574167251587, 0.39530709385871887, -0.18860335648059845, -0.3897385895252228, -0.30857545137405396, -0.09371885657310486, -0.24720598757266998, 0.14414286613464355, -0.15729790925979614, -0.19214698672294617, -0.13498738408088684, -0.11939945816993713, -0.058866556733846664, -0.11476823687553406, -0.08497166633605957, -0.01361323706805706, -0.05177320912480354, -0.11123301088809967, -0.028552785515785217, -0.1631057858467102, -0.2133781462907791,
-0.15312795341014862, 0.25869396328926086, -0.6406822800636292, -0.17313256859779358, -0.22906051576137543, -0.40271806716918945, 0.08985365182161331, -0.13965408504009247, 0.13901294767856598, 0.07852793484926224, -0.07225710898637772, 0.35861536860466003, -0.05825880542397499, 0.04115555062890053, 0.015658020973205566, 0.18008510768413544, -0.4551504850387573, 0.11920925229787827, -0.22030118107795715, 0.12875939905643463, -0.36728665232658386, -0.0030090599320828915, 0.06049737334251404, 0.23169566690921783, 0.0628514513373375, -0.38839656114578247, 0.18540750443935394, -0.07510989159345627, 0.005650222301483154, -0.13713978230953217, 0.017952382564544678, 0.30434247851371765, -0.515273928642273, -0.11643696576356888, 0.04376257210969925, 0.08892682939767838, -0.03157883882522583, -0.22394047677516937, 0.1376333087682724, -0.4259335994720459, 0.21957743167877197, 0.10670225322246552, -0.3282964825630188, -0.0598553791642189, -0.3707106113433838, 0.1527564823627472, 0.19797496497631073, -0.12062735110521317, -0.033569060266017914, 0.1775406152009964, 0.38531631231307983, -0.05639411881566048, 0.051407892256975174, -0.22172565758228302, -0.010816576890647411, 0.2756366729736328, -0.5130867958068848, -0.14522650837898254, -0.19702456891536713, 0.12505297362804413, 0.030196722596883774, -0.20509494841098785, -0.041224993765354156, 0.10982982814311981,
0.476407915353775, 0.533702552318573, 0.00901674572378397, 0.32202720642089844, -0.20296017825603485, 0.08293917775154114, 0.029334837570786476, 0.1220652163028717, 0.07996315509080887, 0.12453623116016388, -0.12615050375461578, 0.27763664722442627, 0.17561891674995422, 0.06343396008014679, 0.2939150333404541, -0.28598618507385254, 0.03360377252101898, -0.09716208279132843, -0.12198282778263092, 0.2258206605911255, 0.2610466480255127, -0.21296244859695435, 0.1667715460062027, 0.2285538613796234, -0.04481875151395798, -0.32154637575149536, -0.05760224163532257, 0.056530293077230453, 0.08408059924840927, -0.28472092747688293, -0.05270804092288017, -0.5830251574516296, -0.6190597414970398, 0.11598353087902069, 0.045356571674346924, 0.36870864033699036, -0.25957047939300537, 0.20521613955497742, 0.062008000910282135, 0.11003848910331726, -0.21584507822990417, -0.39715543389320374, 0.06386937201023102, -0.11300975829362869, 0.2440241128206253, -0.015609174966812134, -0.13522134721279144, -0.1740756630897522, -0.035385552793741226, -0.3574211597442627, 0.18676027655601501, 0.24653802812099457, 0.08823492377996445, 0.31484588980674744, -0.21114708483219147, 0.12082821130752563, 0.1936289221048355, -0.3972627520561218, -0.1456572562456131, -0.5973995327949524, 0.4309334456920624, -0.24828466773033142, -0.06978528201580048, -0.09381870180368423,
0.3475475013256073, -0.20104429125785828, 0.14799100160598755, 0.14292660355567932, 0.03993367776274681, 0.10527025908231735, 0.054941970854997635, -0.2006329894065857, 0.1385127753019333, -0.2780616581439972, 0.27991241216659546, -0.3803345859050751, -0.28653085231781006, 0.18569566309452057, -0.1515224575996399, 0.3788677752017975, 0.1098703071475029, -0.2571108341217041, -0.1519567370414734, -0.15754634141921997, -0.17864570021629333, 0.022645527496933937, 0.4064609408378601, -0.4004569351673126, -0.25296974182128906, 0.33020320534706116, -0.3910161554813385, 0.11877639591693878, -0.0800531804561615, 0.3681640625, -0.5345315337181091, -0.46721136569976807, 0.11674074828624725, 0.07596669346094131, 0.36121678352355957, -0.037171732634305954, -0.03823357820510864, -0.3320240378379822, -0.3688126504421234, 0.07274816930294037, -0.6563182473182678, -0.17262490093708038, -0.04451345279812813, -0.6217050552368164, -0.11587215214967728, 0.13931497931480408, 0.32105883955955505, -0.2637229859828949, 0.08332385122776031, -0.29667437076568604, 0.12953488528728485, 0.17976069450378418, 0.3721632659435272, 0.05531841889023781, 0.024547796696424484, 0.25048595666885376, -0.022637123242020607, 0.12544022500514984, 0.06336098909378052, 0.3156079053878784, 0.030153395608067513, 0.12318413704633713, -0.10150384157896042, -0.259429931640625,
-0.012386046350002289, -0.05636631324887276, 0.16625259816646576, -0.16614219546318054, 0.07505477219820023, 0.0024365978315472603, -0.15846237540245056, -0.6369803547859192, 0.21452999114990234, -0.08221963047981262, 0.029174253344535828, 0.10195685178041458, -0.5027738213539124, -0.4845472276210785, -0.2707810699939728, -0.1471189707517624, 0.16455087065696716, 0.11552954465150833, -0.19940601289272308, -0.30406299233436584, -0.31252408027648926, 0.1060887798666954, -0.1329168975353241, 0.06437011063098907, -0.07675318419933319, -0.6858354210853577, -0.42798668146133423, -0.17852091789245605, 0.04067758843302727, -0.3018326461315155, 0.16385877132415771, -0.05423268675804138, -0.3165438175201416, 0.37597644329071045, -0.36026817560195923, 0.511958658695221, -0.01182317454367876, 0.26593655347824097, -0.17053793370723724, -0.1458364576101303, -0.2919342815876007, -0.1156555786728859, 0.14796753227710724, 0.3475610613822937, 0.051710885018110275, -0.296588659286499, 0.10357604920864105, 0.489911824464798, -0.16615724563598633, -0.3532411456108093, -0.4005398154258728, 0.05144188180565834, 0.07670286297798157, 0.20661766827106476, -0.02841782011091709, -0.04361775517463684, -0.447984904050827, 0.3420698046684265, -0.2798386216163635, 0.2226007878780365, -0.04042522609233856, 0.307668536901474, -0.3842156231403351, -0.22755920886993408,
0.20821726322174072, -0.1809132695198059, 0.5424416661262512, 0.45279189944267273, -0.032198481261730194, -0.1652366667985916, -0.029610272496938705, 0.32191595435142517, 0.2873462438583374, 0.19523732364177704, -0.18033991754055023, 0.019360292702913284, 0.10483379662036896, 0.30073317885398865, -0.2496536821126938, -0.023779578506946564, -0.14979517459869385, -0.05236541107296944, -0.27499300241470337, -0.048905353993177414, 0.1726618856191635, 0.1400650590658188, -0.3510340750217438, 0.07932248711585999, -0.1266351193189621, -0.843286395072937, 0.3630244731903076, 0.1883419156074524, 0.2546491026878357, 0.006153934635221958, -0.3231867849826813, -0.08212290704250336, -0.1669381558895111, -0.11904482543468475, -0.11734786629676819, 0.30471155047416687, -0.012666578404605389, 0.020924171432852745, 0.02941928058862686, -0.2224324345588684, -0.46716731786727905, 0.04527991637587547, -0.16832585632801056, 0.042075853794813156, -0.28588831424713135, 0.05426238849759102, 0.24198347330093384, -0.28795045614242554, 0.06274709105491638, -1.0170011520385742, -0.25185373425483704, 0.15564416348934174, 0.04890693351626396, 0.29981133341789246, 0.06473386287689209, -0.07418331503868103, -0.15437088906764984, 0.10522862523794174, 0.04311322793364525, 0.14626672863960266, -0.20035144686698914, 0.03083796426653862, -0.1978605091571808, -0.14460384845733643,
-0.43791964650154114, -0.35127347707748413, 0.13157837092876434, -0.08999189734458923, -0.49809855222702026, 0.3280220031738281, -0.03402058407664299, -0.11968963593244553, -0.20318228006362915, 0.04243488609790802, 0.4244178533554077, 0.11486495286226273, -0.7039617896080017, -0.6230347156524658, 0.06952384114265442, 0.281657874584198, 0.3806556165218353, -0.14996421337127686, -0.28596413135528564, 0.33484870195388794, -0.11531062424182892, -0.09624162316322327, -0.23695139586925507, 0.01175902783870697, -0.5595406293869019, 0.27743443846702576, 0.033583734184503555, -0.09884998947381973, 0.1361875981092453, -0.43551573157310486, -0.19361349940299988, 0.10191842913627625, 0.38113418221473694, -0.09878266602754593, -0.17723795771598816, 0.09429522603750229, 0.2512010931968689, -0.42450079321861267, -0.2305753231048584, 0.5733464956283569, 0.05371759459376335, -0.00035825592931360006, -0.5979623198509216, -0.1121857762336731, 0.15326997637748718, -0.29295113682746887, 0.13821852207183838, -0.04195607453584671, 0.15135729312896729, 0.15027643740177155, 0.13035260140895844, 0.0065827262587845325, 0.4892182946205139, -0.16646644473075867, 0.022009441629052162, -0.373311311006546, 0.26669731736183167, 0.060180239379405975, -0.31592437624931335, 0.07713057100772858, -0.15307088196277618, 0.21664780378341675, -0.4635922610759735, 0.03594662621617317,
0.1043451726436615, -0.33732834458351135, -0.029079081490635872, -0.16641762852668762, 0.09277436882257462, 0.4784656763076782, -0.1769731640815735, -0.024332813918590546, -0.39574533700942993, 0.33106136322021484, 0.40183794498443604, -0.12323474138975143, 0.22516143321990967, -0.11593800038099289, -0.05222371593117714, -0.06832766532897949, 0.0714387446641922, 0.1094525083899498, 0.3671478033065796, 0.03861440345644951, 0.27350300550460815, 0.41974693536758423, 0.33557602763175964, -0.7896339893341064, 0.22853396832942963, 0.5205684304237366, -0.09576908499002457, -0.06608165055513382, 0.14280103147029877, 0.08191951364278793, -0.08133399486541748, -0.1427621692419052, -0.04077303037047386, -0.14825181663036346, -0.04746226966381073, -0.003509596223011613, 0.08673615008592606, -0.26978546380996704, -0.3945770561695099, -0.36843767762184143, 0.21384021639823914, -0.08125283569097519, -0.37344568967819214, 0.1575710028409958, -0.0058051543310284615, -0.07784374803304672, 0.47393012046813965, -0.18808864057064056, -0.20101332664489746, 0.1471298336982727, 0.2134404331445694, 0.12451013922691345, -0.12945032119750977, 0.1694195568561554, -0.15318937599658966, 0.20460477471351624, 0.32560378313064575, -0.048808176070451736, 0.0804000124335289, -0.22510528564453125, 0.20900145173072815, 0.05966757982969284, 0.09913034737110138, -0.11040780693292618,
-0.3188486397266388, 0.07293148338794708, -0.2628406882286072, -0.14537863433361053, 0.24923329055309296, -0.2902003824710846, 0.08179643750190735, 0.19244930148124695, -0.46973881125450134, -0.18358652293682098, -0.051860954612493515, -0.8808706998825073, -0.23871004581451416, 0.186777263879776, 0.061864499002695084, 0.036341551691293716, -0.35619914531707764, 0.6687046885490417, -0.08765989542007446, 0.2295808643102646, -0.4910924732685089, 0.08716423809528351, 0.07390046119689941, -0.10290847718715668, -0.5446873307228088, 0.0802484080195427, 0.010126193054020405, 0.01706601306796074, 0.3344910740852356, -0.2595025897026062, -0.06455908715724945, -0.5250505208969116, 0.17598147690296173, -0.10657946020364761, 0.3464762568473816, 0.026792045682668686, -0.42384421825408936, 0.2154054492712021, -0.628975510597229, -0.33137431740760803, 0.06688138842582703, -0.21846729516983032, -0.020397653803229332, 0.2983514070510864, 0.14698854088783264, -0.05261164531111717, -0.14049449563026428, 0.12018141895532608, 0.24377837777137756, 0.17499448359012604, -0.22370126843452454, 0.36924076080322266, -0.2941506803035736, -0.292831689119339, -0.3673562705516815, -0.633308470249176, 0.013667386025190353, -0.22220923006534576, -0.17627032101154327, 0.08923258632421494, -0.12792617082595825, -0.18322862684726715, 0.035113584250211716, 0.028869504109025,
0.06754954904317856, -0.15044023096561432, 0.15263482928276062, 0.195449098944664, 0.3313583731651306, -0.22009170055389404, -0.22140945494174957, 0.07772775739431381, -0.2622343897819519, -0.1908220499753952, 0.07231204211711884, 0.28642019629478455, -0.22696058452129364, 0.3128816485404968, 0.550169050693512, 0.18316112458705902, 0.13863563537597656, -0.638350784778595, -0.1546068787574768, -0.24967677891254425, -0.1891901046037674, -0.4689059853553772, -0.269359290599823, 0.16749043762683868, -0.005410479847341776, -0.4754786789417267, -0.2891234755516052, 0.15128883719444275, 0.286751389503479, 0.15335512161254883, 0.3028244376182556, 0.1878032684326172, 0.1488601118326187, 0.14021621644496918, -0.0399513840675354, -0.13507112860679626, 0.15208423137664795, 0.07053808867931366, -0.04016469791531563, 0.16888077557086945, -0.054472438991069794, 0.011592644266784191, 0.2554395794868469, 0.6661916375160217, -0.16472823917865753, 0.4137084186077118, -0.24725429713726044, -0.29522401094436646, -0.3234272003173828, 0.38702139258384705, -0.45165690779685974, -0.1779763102531433, 0.023203179240226746, -0.24770326912403107, 0.07639244198799133, -0.09844539314508438, 0.1435844600200653, 0.10328346490859985, -0.18932312726974487, -0.03530735522508621, -0.10989073663949966, 0.18022385239601135, -0.0372837670147419, -0.06912849098443985,
-0.5067918300628662, 0.32009169459342957, -0.065816730260849, -0.044502925127744675, 0.04360489174723625, -0.01934351585805416, -0.06201822683215141, -0.13028369843959808, 0.3077356517314911, 0.07404572516679764, -0.3306221663951874, -0.22555223107337952, -0.13392949104309082, 0.5084176659584045, 0.1871425211429596, 0.032084252685308456, -0.15572132170200348, -0.11094585806131363, 0.2182997763156891, 0.005222414620220661, 0.06807083636522293, -0.16706186532974243, -0.3098345100879669, 0.13775606453418732, -0.23687545955181122, -0.2588001787662506, -0.23456861078739166, 0.024238623678684235, -0.414577841758728, -0.582407534122467, -0.12984657287597656, 0.10017260909080505, -0.34892067313194275, 0.07022497057914734, 0.14889416098594666, -0.10005103796720505, 0.315796434879303, 0.03302665427327156, -0.5554721355438232, 0.4749518632888794, -0.1324825882911682, -0.01295409630984068, -0.6393014788627625, -0.040659110993146896, 0.0794467031955719, -0.15326552093029022, 0.12958848476409912, 0.4915716052055359, -0.20340627431869507, -0.26736170053482056, -0.07678434252738953, 0.14040254056453705, -0.2108025997877121, -0.04257306456565857, -0.3212548792362213, -0.01571180857717991, 0.07338441163301468, 0.17587508261203766, -0.017243370413780212, 0.27227842807769775, -0.13846394419670105, -0.463394433259964, -0.2507229447364807, -0.027231166139245033,
0.11277515441179276, 0.46897825598716736, -0.538691520690918, 0.1185491532087326, 0.1755847930908203, -0.3082644045352936, 0.1661461889743805, 0.013292008079588413, -0.09741970896720886, 0.049656789749860764, -0.22711734473705292, -0.33348390460014343, -0.021235382184386253, 0.215615376830101, 0.23592118918895721, -0.07194124162197113, -0.05980973690748215, -0.18625600636005402, 0.014433029107749462, -0.4739748537540436, -0.23687580227851868, 0.005204502493143082, 0.2620867192745209, -0.3181930184364319, 0.07506169378757477, 0.03418748825788498, 0.23178978264331818, 0.12236591428518295, 0.25934264063835144, 0.13255447149276733, 0.11179940402507782, 0.23207908868789673, 0.35473501682281494, 0.2802584767341614, 0.21058185398578644, -0.1342983841896057, -0.07389161735773087, 0.13622038066387177, -0.023751016706228256, -0.1388738751411438, -0.005293676629662514, 0.22464653849601746, 0.30907154083251953, -0.2592795491218567, 0.3095057010650635, -0.24550484120845795, 0.028057154268026352, 0.36503562331199646, 0.10385574400424957, -0.09342064708471298, -0.5085210204124451, 0.20660445094108582, -0.4176543354988098, -0.07427826523780823, -0.05954662337899208, -0.1824440360069275, 0.23205269873142242, -0.4161194860935211, -0.5784315466880798, 0.18963006138801575, -0.1503726840019226, -0.1621091365814209, -0.05442880094051361, 0.2805168628692627,
-0.15847338736057281, -0.0664273202419281, 0.15149672329425812, -0.08051231503486633, 0.10968559980392456, 0.3058079183101654, 0.1951238512992859, 0.16700904071331024, 0.21569159626960754, 0.021374164149165154, -0.22384041547775269, 0.20015279948711395, 0.07195404171943665, -0.18920058012008667, -0.21074198186397552, -0.07460363954305649, 0.28883111476898193, 0.09277817606925964, -0.45496663451194763, 0.16790153086185455, 0.08731487393379211, -0.2636720836162567, -0.01559938583523035, -0.22338329255580902, 0.014352516271173954, 0.44576936960220337, 0.05453140661120415, -0.4805176854133606, 0.12286511063575745, -0.46686261892318726, -0.28293538093566895, -0.31044670939445496, 0.18020756542682648, -0.1426091492176056, 0.15177501738071442, -0.014608524739742279, -0.6515288949012756, 0.08130253106355667, 0.21288587152957916, -0.42308735847473145, -0.41647812724113464, -0.15674160420894623, -0.11306566745042801, 0.511002242565155, 0.24176320433616638, 0.29641595482826233, -0.09062328934669495, 0.020920496433973312, -0.4176890254020691, -0.4137117564678192, -0.12681108713150024, -0.1428632140159607, -0.056352585554122925, -0.17008374631404877, 0.1784704625606537, -0.6044762134552002, 0.21548978984355927, -0.019273074343800545, 0.28550052642822266, -0.3077726662158966, 0.11039567738771439, -0.3461960554122925, 0.30223560333251953, -0.09369421005249023,
0.1126294881105423, -0.24823103845119476, 0.22114920616149902, -0.19223354756832123, -0.029778189957141876, 0.6101328730583191, -0.041298478841781616, 0.4810087978839874, -0.18974217772483826, -0.004612945485860109, 0.2920563817024231, -0.19186607003211975, -0.11580346524715424, -0.22494131326675415, -0.19171811640262604, 0.08451513200998306, 0.4645730257034302, -0.2319868952035904, -0.13457730412483215, -0.1530350297689438, -0.572052001953125, 0.27855101227760315, -0.012017783708870411, 0.23719285428524017, 0.06577478349208832, 0.2576475739479065, -0.2761937081813812, -0.268022358417511, 0.3334207534790039, 0.3270159363746643, -0.16027173399925232, 0.09612724930047989, 0.263612300157547, -0.06825406849384308, 0.13661138713359833, -0.15988203883171082, -0.3037542700767517, -0.14549563825130463, -0.2436356246471405, 0.017689023166894913, -0.13068975508213043, 0.11082534492015839, -0.213917538523674, 0.28468137979507446, -0.042399004101753235, -0.16206207871437073, -0.13217167556285858, 0.050068095326423645, 0.1648937314748764, -0.10374005138874054, -0.08831866085529327, -0.0734316036105156, 0.09356123954057693, 0.25146859884262085, -0.09150592982769012, -0.16450123488903046, -0.3402487337589264, 0.3866221308708191, 0.42944419384002686, 0.01199688483029604, 0.023375852033495903, 0.3381774127483368, -0.2997751235961914, -0.6373133659362793,
-0.3181327283382416, 0.3445958197116852, -0.09398362040519714, -0.49500271677970886, -0.3624715507030487, -0.13088230788707733, -0.2598627805709839, -0.7764653563499451, -0.21963897347450256, 0.0897020548582077, -0.011824028566479683, 0.14614206552505493, -0.0680258646607399, -0.19833332300186157, 0.10053949058055878, 0.4134606420993805, -0.08484786748886108, -0.43143463134765625, 0.12627191841602325, -0.37257084250450134, 0.11360951513051987, 0.2863364815711975, -0.04166778549551964, 0.15890145301818848, -0.38167697191238403, 0.07807417213916779, 0.004982038401067257, -0.3700192868709564, 0.12759366631507874, 0.09830591082572937, -0.4966568946838379, -0.1306833028793335, 0.00201280671171844, 0.2916609048843384, -0.08839695155620575, -0.13277386128902435, 0.7200697660446167, 0.13939762115478516, -0.28498491644859314, 0.2609834372997284, 0.1082804948091507, -0.16827552020549774, -0.029342152178287506, 0.05604248493909836, -0.26992174983024597, -0.006914715748280287, -0.03791235387325287, 0.14305245876312256, -0.19959616661071777, -0.4056377112865448, 0.17173446714878082, -0.014905905351042747, 0.35318589210510254, 0.06277376413345337, -0.1223975121974945, -0.05819632485508919, 0.3342089354991913, -0.32296323776245117, -0.2130393087863922, 0.06606633216142654, -0.32001563906669617, -0.12369457632303238, 0.30133187770843506, 0.5999830961227417,
