#include "neural_network.h"
#include <stdio.h>
#include <math.h>

const float weights_fc1[] = {
0.2481759637594223, -0.16873912513256073, -0.04719028249382973, 0.2455446720123291, -0.017740873619914055, 0.4584560692310333, -0.24030540883541107, 0.28240811824798584, 0.5582749843597412, 0.07677196711301804, -0.025625241920351982, 0.0027848053723573685, 0.4542292058467865, 0.18944022059440613, -0.15846021473407745, -0.3736439049243927, -0.20201906561851501, 0.15802516043186188, -0.06970049440860748, 0.05508147180080414,
0.20510824024677277, -0.1302649825811386, -0.10064832866191864, 0.0123903788626194, -0.163323774933815, 0.16871094703674316, 0.056261152029037476, 0.024225817993283272, 0.2658732235431671, 0.1308968961238861, -0.1972121149301529, 0.1444912999868393, -0.13906317949295044, -0.19869089126586914, 0.19789011776447296, 0.42008909583091736, -0.015138166025280952, -0.364749550819397, -0.14572034776210785, -0.5905432105064392,
0.8200255036354065, 0.20713339745998383, -0.06224386394023895, 0.13419964909553528, -0.011156930588185787, 0.13980960845947266, 0.22523656487464905, -0.01276055071502924, 0.17298004031181335, -0.08092645555734634, -0.08174192905426025, 0.03658837452530861, -0.15879540145397186, 0.04872482642531395, -0.337899386882782, 0.05939719080924988, 0.0978853777050972, 0.1470852643251419, 0.09118422120809555, 0.4988005459308624,
0.8240137100219727, -0.28134438395500183, 0.1868089735507965, 0.08578842133283615, 0.08785893023014069, -0.29008713364601135, -0.029971342533826828, -0.08857963979244232, 0.32792115211486816, -0.16590943932533264, 0.12223990261554718, -0.020946292206645012, 0.14793720841407776, 0.060325756669044495, 0.36917832493782043, 0.1601354032754898, -0.2316371500492096, 0.2188161015510559, 0.2618556618690491, -0.2109118402004242,
-0.1605280041694641, 0.18618205189704895, -0.23955084383487701, -0.0012809562031179667, 0.13050594925880432, -0.14748002588748932, -0.11482652276754379, 0.5182403326034546, 0.2970579266548157, 0.15527035295963287, -0.007550851907581091, -0.09274405986070633, -0.1683964878320694, 0.1650158017873764, -0.008211960084736347, 0.36929482221603394, 0.3821156919002533, -0.05296770855784416, -0.08443185687065125, -0.1311803162097931,
0.05338042974472046, 0.18775446712970734, -0.11885086447000504, 0.12413793057203293, 0.21366062760353088, -0.12454895675182343, 0.1591028869152069, -0.4324856996536255, 0.09342934936285019, 0.0008748998516239226, 0.002469953615218401, 0.05569925904273987, -0.018098626285791397, 0.17154893279075623, 0.25291481614112854, -0.05937003344297409, -0.3145780861377716, -0.6255508065223694, -0.11334481090307236, -0.3202854096889496,
0.19396160542964935, -0.5736648440361023, 0.4200412631034851, 0.2186187207698822, 0.04246142506599426, 0.19053959846496582, -0.11765699833631516, 0.19414138793945312, -0.24398227035999298, -0.194052591919899, -0.024888776242733, -0.014397055841982365, -0.2766563594341278, 0.07898742705583572, -0.5898676514625549, 0.2697620987892151, 0.19819338619709015, 0.3520217537879944, -0.10060935467481613, 0.12196958810091019,
-0.261142373085022, -0.571781575679779, -0.592223584651947, 0.011174479499459267, -0.16396060585975647, -0.4718904495239258, -0.1707645207643509, 0.12093240767717361, 0.29848989844322205, 0.03411966189742088, 0.08907914161682129, 0.15203635394573212, -0.5442811250686646, 0.31293025612831116, -0.048859789967536926, 0.0387246273458004, 0.19345439970493317, 0.1275469809770584, -0.07185875624418259, -0.40441402792930603,
-0.1499914824962616, -0.8209629654884338, 1.0514334440231323, -0.13759300112724304, -0.09969324618577957, 0.5171686410903931, -0.04393184930086136, -1.0074818134307861, -0.21837836503982544, 0.03345001861453056, -0.051447972655296326, -0.012654286809265614, 0.3939695358276367, -0.26707321405410767, 0.15771964192390442, -0.284708172082901, 0.1993405520915985, -0.03440109267830849, 0.1927989274263382, -0.028764765709638596,
0.018557898700237274, -0.532041609287262, -0.25061166286468506, -0.0007747685303911567, -0.01870926097035408, -0.34359145164489746, -0.0477483756840229, 0.7240400314331055, 0.15617434680461884, 0.1628604233264923, 0.030959606170654297, 0.16264469921588898, 0.14109712839126587, -0.13526150584220886, 0.11384355276823044, -0.56691974401474, -0.15577088296413422, -0.38308185338974, 0.34911999106407166, -0.4041925072669983,
0.07880996912717819, 0.6418851613998413, 0.30775943398475647, -0.10504333674907684, 0.52341228723526, -0.010294061154127121, -0.5300630927085876, 0.05474766716361046, -0.10594865679740906, -0.08451945334672928, -0.009069780819118023, -0.09242686629295349, 0.028785405680537224, -0.3072046935558319, -0.05811145529150963, -0.31104591488838196, 0.058293648064136505, -0.23107196390628815, -0.15397216379642487, 0.04991965740919113,
0.006585759576410055, 0.34275659918785095, -0.024626754224300385, 0.030120091512799263, 0.08195213228464127, -0.6795051097869873, 0.041358500719070435, -0.13973890244960785, 0.778038740158081, -0.01855134777724743, -0.1237369254231453, -0.2663121521472931, 0.43080371618270874, -0.5411907434463501, -0.10384061932563782, -0.11041530966758728, 0.03470342606306076, -0.1737070083618164, -0.22426573932170868, -0.06414472311735153,
-0.4217701256275177, -0.4290459454059601, -0.2907300889492035, -0.4029744863510132, -0.21138279139995575, -0.2695741653442383, -0.5266597270965576, 0.12135278433561325, -0.2810972034931183, -0.16372010111808777, 0.009934265166521072, 0.1636427640914917, 0.29939839243888855, 0.45406466722488403, -0.29764777421951294, -0.13660317659378052, 0.5415031313896179, -0.07415224611759186, -0.082383893430233, -0.09620218724012375,
-0.26376214623451233, 0.3853387236595154, 0.7294842600822449, -0.23838824033737183, 0.01153196394443512, 0.005531772039830685, 0.17447255551815033, -0.43299737572669983, 0.19149638712406158, -0.12700769305229187, -0.23284894227981567, -0.20425552129745483, 0.10442712157964706, -0.6039331555366516, 0.5026198625564575, 0.04112020134925842, 0.4924207627773285, -0.18049758672714233, 0.06432218849658966, -0.1175118014216423,
-0.5833244323730469, -0.007839849218726158, 1.65336275100708, -0.15663714706897736, -0.04209176078438759, 0.576759397983551, -0.17095445096492767, 0.16317693889141083, 0.6159337759017944, -0.14329852163791656, -0.1001887321472168, 0.27141281962394714, -0.06996899843215942, 0.23512375354766846, 0.36094194650650024, -0.20398283004760742, 0.05303199216723442, -0.05292091518640518, 0.12324611842632294, -0.0741438940167427,
-0.1829332858324051, 0.14580556750297546, -0.17225012183189392, -0.04550132900476456, 0.034879833459854126, -0.004898669198155403, 0.3297910690307617, 0.10667946934700012, -0.0006226625991985202, 0.04507840424776077, 0.12141654640436172, -0.17499783635139465, -0.837244987487793, -0.2232643961906433, 0.17497272789478302, 0.47134631872177124, 0.28095582127571106, 0.09430606663227081, 0.20777222514152527, 0.33781322836875916,
0.3811556398868561, -0.6666338443756104, -0.026640279218554497, 0.1147812232375145, -0.20211082696914673, 0.4576212167739868, -0.319617360830307, 0.26234158873558044, 0.23793521523475647, 0.007462057750672102, -0.00295151281170547, 0.30936768651008606, -0.2562364339828491, -0.23782417178153992, -0.17143671214580536, -0.007699170615524054, -0.3085951507091522, 0.03831392899155617, -0.20933888852596283, -0.066740982234478,
0.3077087998390198, 0.23131632804870605, -0.6829671263694763, 0.06668750941753387, 0.005913976114243269, -0.6680976152420044, -0.6455668210983276, -0.12509788572788239, 0.005854379385709763, -0.0536498986184597, -0.03217010945081711, 0.32558673620224, -0.09784205257892609, 0.049721356481313705, 0.35143518447875977, -0.03167491406202316, -0.43853887915611267, -0.03170124813914299, -0.025424625724554062, 0.06425438821315765,
0.6653375029563904, -0.4799996316432953, 0.06841962784528732, 0.09048908948898315, -0.21342046558856964, -0.28296247124671936, 0.38351041078567505, -0.37238994240760803, 0.38485193252563477, 0.03601592034101486, -0.0258416086435318, -0.040406107902526855, -0.29613301157951355, 0.17427468299865723, -0.07574920356273651, 0.21692505478858948, -0.14234386384487152, -0.039433062076568604, -0.5549583435058594, -0.23598894476890564,
0.079999640583992, -0.23361408710479736, -0.8574952483177185, 0.12323169410228729, -0.0313018336892128, -0.33014005422592163, -0.10838011652231216, 0.01933346688747406, -0.37614500522613525, 0.35173511505126953, -0.03932013362646103, -0.48759695887565613, -0.2349127233028412, 0.19455429911613464, 0.07726217806339264, 0.3186611533164978, -0.1377107799053192, -0.041824404150247574, -0.13344797492027283, 0.0018230649875476956,
-0.09915830940008163, -0.10047710686922073, 0.21492528915405273, 0.2926155924797058, -0.04171032831072807, 0.25333333015441895, -0.08952385187149048, -0.5255651473999023, 0.985922634601593, -0.004866182338446379, -0.027918849140405655, 0.015961475670337677, 0.13609613478183746, -0.12935836613178253, 0.01595046930015087, -0.3304087221622467, -0.2169603705406189, 0.007147034630179405, 0.37986278533935547, -0.001414208672940731,
0.4058447480201721, 0.39402633905410767, -0.34471216797828674, -0.19036482274532318, -0.2751599848270416, -0.3427692949771881, 0.10170749574899673, -0.30394652485847473, 0.26608920097351074, -0.0031806123442947865, 0.03289664164185524, -0.18432354927062988, 0.07992424815893173, -0.019420761615037918, -0.002636111108586192, -0.0056493994779884815, 0.03686020150780678, 0.04917943477630615, -0.11662369221448898, -0.1448223739862442,
-0.2159012109041214, -0.1074816882610321, 0.2087690681219101, -0.15853054821491241, 0.09282046556472778, -0.15800617635250092, 0.46769723296165466, 0.0017430561129003763, -0.017244193702936172, -0.3451864421367645, -0.12770867347717285, 0.17955602705478668, 0.726474940776825, 0.6964699625968933, -0.5622271299362183, -0.20122508704662323, -0.11912138015031815, -0.29333165287971497, 0.08420377224683762, 0.28608980774879456,
0.3778037130832672, -0.3336936831474304, 0.16732975840568542, -0.1505274474620819, -0.1252138912677765, 0.2869138717651367, 0.1378883421421051, 0.5116509199142456, 0.1327953040599823, 0.039353739470243454, 0.057840198278427124, 0.08352209627628326, -0.3551277816295624, 0.2511462867259979, 0.02712373249232769, 0.2633095979690552, 0.39295652508735657, 0.10312661528587341, 0.12605735659599304, 0.4417370855808258,
-0.20250482857227325, 0.06153534725308418, -0.0874243751168251, -0.45700475573539734, 0.027969060465693474, -0.06563327461481094, 0.35527196526527405, -0.2055535465478897, 0.7358106374740601, 0.029997849836945534, -0.09054774045944214, -0.07044975459575653, -0.15324106812477112, -0.22479334473609924, 0.40781503915786743, 0.05306718498468399, 0.14988936483860016, 0.16478393971920013, 0.2192320078611374, 0.24449267983436584,
0.7139492630958557, 0.1810852289199829, -0.001518602599389851, 0.395688533782959, 0.02706926129758358, -0.07022175937891006, 0.3645223081111908, 0.08031069487333298, -0.3316821753978729, -0.12597309052944183, -0.1546798050403595, 0.25667741894721985, -0.5198733806610107, -0.1423230916261673, -0.1496792733669281, 0.3005419969558716, -0.16403664648532867, -0.23184727132320404, 0.01742926985025406, -0.19617335498332977,
-0.41417980194091797, 0.3344520926475525, 0.7834821939468384, -0.22467133402824402, 0.2772844135761261, 0.12483793497085571, 0.19720889627933502, -0.4926011562347412, 0.16795611381530762, 0.11589576303958893, 0.02021140418946743, 0.06358389556407928, -0.6288888454437256, -0.0834655612707138, 0.2570328414440155, 0.24314001202583313, 0.34578990936279297, 0.1405164748430252, -0.1473180651664734, -0.1364445835351944,
0.13353772461414337, 0.0188619252294302, -0.8061050772666931, 0.1712789535522461, 0.05575263872742653, 0.4841751754283905, 0.4629822075366974, 0.30339157581329346, 0.420237272977829, -0.009930401109158993, 0.1884901523590088, 0.15351887047290802, 0.11127407103776932, 0.0756494477391243, -0.22222743928432465, -0.008430643938481808, -0.34487882256507874, 0.2721303403377533, -0.28407934308052063, 0.06889710575342178,
0.16724072396755219, 0.12280987948179245, 1.3648957014083862, 0.25822913646698, -0.15511606633663177, 0.3482499122619629, 0.09170107543468475, 0.527459979057312, 0.09567757695913315, 0.1265876442193985, 0.1573788970708847, -0.211832195520401, -0.30850279331207275, -0.42467543482780457, -0.14268115162849426, 0.43704769015312195, 0.5497727394104004, -0.24446159601211548, 0.1612275391817093, 0.12312567979097366,
0.08017972856760025, 0.2979065477848053, 0.30170440673828125, -0.025357497856020927, 0.23761332035064697, 0.19475585222244263, -0.3383391201496124, 0.5988088250160217, -0.38454821705818176, 0.012922707945108414, 0.03137639909982681, -0.16149276494979858, 0.0246769730001688, 0.048873040825128555, -0.19484269618988037, -0.00011651812383206561, 0.0162955392152071, -0.009108555503189564, 0.14284710586071014, -0.4016793668270111,
0.6364921927452087, 0.30653202533721924, 0.15068300068378448, 0.0902368426322937, 0.15178005397319794, 0.13571962714195251, -0.046159420162439346, 0.06944164633750916, -0.2709892690181732, 0.08235233277082443, 0.06338222324848175, 0.12598343193531036, 0.15675762295722961, -0.33639732003211975, 0.027958527207374573, -0.06486429274082184, -0.3697805404663086, 0.21971067786216736, -0.19259236752986908, 0.023549364879727364,
0.5925446152687073, 0.8645813465118408, 0.047544214874506, -0.049852561205625534, 0.3032163977622986, 0.23977167904376984, 0.07702828198671341, 0.185066819190979, -0.11886072158813477, 0.09585557878017426, -0.08965104818344116, 0.0395517498254776, -0.33698248863220215, -0.22721943259239197, -0.18598774075508118, -0.03534785658121109, -0.1255893111228943, 0.3294418454170227, 0.3585813045501709, -0.08324143290519714,
0.15561716258525848, 0.22783106565475464, -0.22082607448101044, -0.128644198179245, 0.09144632518291473, 0.35214972496032715, -0.26308688521385193, -0.11166495829820633, -0.6028562188148499, -0.27625951170921326, 0.18120329082012177, 0.06734901666641235, 0.23627887666225433, 0.034539416432380676, -0.19637715816497803, 0.2874966859817505, -0.13507533073425293, 0.05415663495659828, 0.32626691460609436, -0.030654670670628548,
0.43710315227508545, -0.03917037323117256, -0.4606446325778961, 0.07847217470407486, 0.3074544370174408, -0.22684599459171295, 0.1955765038728714, -0.17400555312633514, 0.08752695471048355, 0.04672893136739731, 0.058411821722984314, -0.23185250163078308, -0.1749584674835205, -0.15776287019252777, 0.1284106820821762, -0.2641527056694031, -0.28855887055397034, -0.13240812718868256, -0.01953374594449997, -0.117433100938797,
-0.03936101496219635, -0.04096898436546326, -0.18079963326454163, -0.7242995500564575, -0.17071692645549774, -0.05139390006661415, -0.027267882600426674, -0.24238848686218262, -0.20959870517253876, 0.11287650465965271, 0.2558690011501312, -0.29645514488220215, -0.03949638456106186, 0.32994315028190613, 0.273430198431015, -0.27801111340522766, -0.01926553249359131, -0.01381480973213911, 0.1403457224369049, -0.02961624041199684,
-0.23095327615737915, -0.09893842786550522, 0.18109114468097687, -0.1489333212375641, 0.237280935049057, -0.4269886612892151, 0.1903589516878128, -0.3358296751976013, 0.24490059912204742, 0.07763347029685974, -0.017638899385929108, 7.191770419012755e-05, -0.03936871513724327, -0.05414881929755211, -0.023504991084337234, 0.4659114480018616, -0.0040036458522081375, 0.37911370396614075, 0.050087057054042816, 0.48345211148262024,
0.2321130335330963, 0.46177569031715393, 0.9737209677696228, 0.045487187802791595, 0.015382875688374043, 0.16311241686344147, 0.06039516627788544, -0.3947087526321411, 0.5268855094909668, 0.007210384123027325, 0.011647670529782772, 0.11775565147399902, 0.1755128651857376, 0.048114728182554245, 0.1971692591905594, -0.33282172679901123, 0.011222989298403263, 0.05521425977349281, 0.20949850976467133, -0.2886543869972229,
-0.19540615379810333, -0.20804482698440552, -0.07092457264661789, -0.23807014524936676, 0.12368761748075485, 0.0051476177759468555, 0.09333910793066025, 0.7018507719039917, -0.16423603892326355, -0.024048849940299988, 0.17300744354724884, 0.11693631857633591, -0.19598889350891113, 0.17561590671539307, -0.15244989097118378, -0.12598104774951935, 0.3376574218273163, -0.02038973942399025, 0.003792958799749613, -0.15133266150951385,
-0.4618054926395416, -0.01706058159470558, 0.4868670105934143, -0.0890754759311676, -0.09039361029863358, -0.03916198015213013, -0.19727477431297302, 0.6580247282981873, 0.3598995506763458, -0.03325619921088219, 0.008899670094251633, 0.13011236488819122, -0.2612994909286499, 0.5517221093177795, -0.4416331648826599, -0.0005787154659628868, 0.258889764547348, 0.08731728792190552, 0.06676648557186127, 0.019563645124435425,
0.3955250382423401, 0.3969593644142151, -0.6163836717605591, -0.09409472346305847, 0.025150686502456665, -0.14130952954292297, 0.053323790431022644, -0.3208218812942505, 0.45362529158592224, -0.07181908190250397, 0.21376965939998627, -0.4600216746330261, 0.4769975244998932, -0.2107812613248825, -0.33023011684417725, -0.12029412388801575, -0.0331542007625103, 0.10760197788476944, 0.024785641580820084, 0.005462658125907183,
0.2858678102493286, -0.34355512261390686, -0.0259409062564373, 0.07344846427440643, -0.08100078999996185, -0.5145668387413025, -0.5360860824584961, -0.35331130027770996, -0.22617539763450623, 0.06345218420028687, -0.04474415257573128, 0.26170769333839417, 0.0028693985659629107, 0.12872028350830078, -0.03722560778260231, -0.21448184549808502, -0.26790013909339905, 0.16209210455417633, 0.26870226860046387, 0.24242627620697021,
-0.051972296088933945, -0.1762799322605133, 0.6676722168922424, 0.10260170698165894, -0.015034656971693039, 0.06069513037800789, 0.31973278522491455, -0.4660505950450897, -0.5402497053146362, 0.10971540212631226, -0.19918037950992584, 0.0074744196608662605, 0.3688680827617645, -0.21022766828536987, 0.43172818422317505, -0.5277294516563416, 0.15444597601890564, -0.17421740293502808, -0.044906239956617355, 0.08379185944795609,
-0.7152875661849976, 0.3534289598464966, -0.44602641463279724, 0.3363456428050995, 0.15643224120140076, -0.07861261069774628, 0.3840523362159729, -0.010630409233272076, 0.0005759419873356819, -0.037169817835092545, -0.1036418229341507, -0.02794412523508072, -0.12919344007968903, -0.16039961576461792, 0.35934877395629883, 0.0770089402794838, 0.4639143645763397, -0.019570903852581978, 0.23235762119293213, 0.0005704216891899705,
0.19897259771823883, -0.7772335410118103, 0.10218816995620728, 0.0650661513209343, 0.044779956340789795, 0.2620680332183838, -0.4930267632007599, -0.39565858244895935, 0.13778811693191528, -0.044683102518320084, -0.1695021241903305, -0.19118154048919678, 0.04882557690143585, 0.08367113769054413, -0.40694206953048706, 0.20318171381950378, -0.29371178150177, -0.001931382343173027, 0.09358628839254379, -0.11821354925632477,
0.011561078950762749, 0.23175229132175446, 0.00044642420834861696, 0.1545240879058838, -0.0545213483273983, 0.8044325709342957, -0.21596451103687286, -0.12649980187416077, -0.017913026735186577, -0.11808903515338898, -0.03993738442659378, -0.18757423758506775, -0.458543062210083, -0.16375114023685455, 0.544509768486023, 0.04069703817367554, -0.3552244305610657, -0.34275397658348083, -0.029475437477231026, 0.0787670686841011,
-0.2185276448726654, -0.07322248816490173, -0.00441489415243268, -0.08101432025432587, 0.13169851899147034, 0.3859917223453522, -0.4521349370479584, 0.3485969603061676, 0.15285153687000275, -0.11673898994922638, 0.027777694165706635, -0.02603282779455185, 0.12254608422517776, -0.33440831303596497, -0.06671454757452011, -0.04880668595433235, -0.17997008562088013, 0.3483349084854126, -0.13615401089191437, 0.03020342066884041,
0.2615979313850403, -0.3347633481025696, 0.5457054376602173, 0.01277837622910738, -0.17527708411216736, 0.38678795099258423, 0.20783333480358124, 0.553121030330658, -0.44792747497558594, -0.09320791810750961, -0.03204798698425293, 0.3475411534309387, -0.23901432752609253, 0.0840013399720192, -0.001639244845137, -0.23393180966377258, -0.19754935801029205, 0.22828605771064758, 0.22165651619434357, 0.05005212500691414,
-0.414165735244751, -0.10214020311832428, -0.5139279365539551, 0.028527045622467995, 0.039368852972984314, 0.06907481700181961, 0.6493036150932312, 0.05862080305814743, -0.07762353122234344, 0.04376682639122009, 0.17984633147716522, 0.11715207248926163, -0.2803611159324646, 0.19387049973011017, -0.2915710210800171, 0.4924111068248749, 0.3307284116744995, -0.2378970980644226, 0.23676331341266632, 0.04709248244762421,
0.01537457574158907, -0.021726246923208237, 0.6974948048591614, 0.08799069374799728, -0.02894900180399418, -0.038402434438467026, -0.6690633296966553, 0.5695213079452515, -0.0028276657685637474, -0.08912066370248795, -0.0008367760456167161, -0.04980096220970154, -0.01672331616282463, 0.48911210894584656, -0.17245768010616302, -0.010830993764102459, 0.33548590540885925, 0.25157830119132996, -0.11135996878147125, 0.21155911684036255,
0.25339457392692566, -0.5455140471458435, -0.1264842450618744, -0.2924465537071228, -0.37202882766723633, -0.0004550422600004822, 0.4373014569282532, 0.2945021986961365, -0.2568374574184418, -0.07626260071992874, 0.04049881920218468, 0.2095441371202469, -0.2081475555896759, -0.0991441160440445, 0.26793792843818665, -0.13895569741725922, -0.035549137741327286, -0.02560420334339142, -0.07945559918880463, 0.16207964718341827,
-0.11521875858306885, 0.16474208235740662, -0.29962030053138733, 0.2769105136394501, -0.0977030023932457, -0.1534530222415924, 0.21250960230827332, 0.08114833384752274, 0.0343286469578743, -0.10081665217876434, 0.009021139703691006, -0.12007351219654083, 0.034926943480968475, -0.22324666380882263, 0.04184921830892563, 0.037943750619888306, -0.27175575494766235, 0.601259708404541, -0.016129527240991592, 0.12899142503738403,
-0.5252523422241211, 0.009145774878561497, -0.18314753472805023, -0.027658548206090927, -0.23523713648319244, 0.03730021044611931, -0.20076224207878113, -0.5360156297683716, -0.5227125883102417, -0.1415528506040573, -0.18743008375167847, -0.3748953938484192, 0.33703041076660156, -0.13240113854408264, -0.0895230770111084, -0.19243302941322327, -0.17235353589057922, 0.2627914845943451, 0.22221122682094574, -0.034519683569669724,
-0.2785019278526306, 0.4248218834400177, -0.1491319239139557, -0.13528239727020264, -0.22216737270355225, -0.3117940127849579, -0.16865454614162445, -0.21515390276908875, -0.018359562382102013, 0.2632278800010681, 0.30978602170944214, 0.02649936079978943, -0.07925909757614136, -0.23148183524608612, -0.3122403025627136, 0.058467648923397064, -0.5003800988197327, 0.06284478306770325, -0.028219735249876976, 0.17398375272750854,
-0.616655707359314, 0.017876334488391876, -0.024248497560620308, 0.12737394869327545, -0.010668311268091202, 0.18864741921424866, -0.4179101288318634, -0.4636203944683075, -0.7585932016372681, -0.12064827233552933, -0.04792432114481926, -0.19219009578227997, 0.35705918073654175, -0.09355109930038452, -0.28983214497566223, -0.2752215266227722, 0.15035586059093475, 0.34661421179771423, 0.017286265268921852, 0.12390456348657608,
-0.2935209274291992, -0.47302988171577454, -0.20440247654914856, -0.27001166343688965, -0.10500754415988922, -0.045805659145116806, 0.10897393524646759, -0.08108116686344147, -0.4714708924293518, -0.011644362471997738, 0.052785612642765045, -0.2530113756656647, 0.02215290069580078, 0.493630588054657, -0.34928610920906067, -0.11316662281751633, 0.44349849224090576, 0.038979366421699524, -0.07801920920610428, -0.5864518284797668,
-0.11250963062047958, 0.21900351345539093, -0.5081881284713745, -0.09545911848545074, -0.09891443699598312, -0.06195773929357529, -0.424793541431427, 0.27554604411125183, 0.018159780651330948, -0.04500430077314377, 0.1985100656747818, 0.16741888225078583, -0.09308066964149475, -0.027827508747577667, -0.15422022342681885, 0.2596951127052307, 0.07192056626081467, 0.1448306441307068, -0.2263292819261551, 0.154188871383667,
-0.48119455575942993, 0.2383933961391449, 0.041312798857688904, -0.32625752687454224, 0.1428450047969818, 0.08630336076021194, 0.5640087127685547, -0.4451330304145813, 0.7771090865135193, 0.07584875822067261, -0.05883973836898804, 0.1534717082977295, 0.30377471446990967, -0.39325156807899475, 0.24973168969154358, 0.045039936900138855, -0.040972303599119186, 0.3321901857852936, 0.11854995787143707, 0.01993156410753727,
0.5138044953346252, 0.5929789543151855, 0.06573253870010376, 0.07954519987106323, 0.017362430691719055, -0.47162118554115295, 0.4122515022754669, 0.609497606754303, -0.1781214326620102, 0.030012182891368866, 0.17384742200374603, -0.12927426397800446, -0.08109155297279358, 0.10796592384576797, 0.23935741186141968, -0.18645595014095306, -0.03942856937646866, -0.04259689524769783, -0.05866963416337967, 0.03876836225390434,
-0.36887964606285095, -0.06676115840673447, -0.44960859417915344, -0.09220638126134872, 0.017710093408823013, -0.004298247862607241, 0.3752688467502594, 0.42035919427871704, -0.9128770232200623, 0.36081936955451965, -0.006260787136852741, -0.04605371505022049, -0.13641580939292908, -0.15361766517162323, 0.3071417212486267, -0.03591755032539368, -0.2933410704135895, -0.1713770627975464, -0.045034922659397125, -0.07018681615591049,
0.07666242122650146, 0.2400718778371811, 0.4115533232688904, -0.008338614366948605, 0.08245262503623962, -0.2797735929489136, -0.005682825576514006, -0.2317945510149002, -0.4447483420372009, 0.07809483259916306, 0.22111214697360992, 0.2627817988395691, 0.363781601190567, -0.27694621682167053, 0.18395690619945526, -0.3654387295246124, -0.12441131472587585, 0.08499348908662796, -0.07376404851675034, -0.09774697571992874,
-0.10332442075014114, -0.2011675089597702, 1.1417089700698853, 0.02505658008158207, -0.09115555882453918, 0.23137442767620087, 0.13082389533519745, -0.37748000025749207, -0.17090103030204773, 0.1789715737104416, 0.1561240702867508, -0.07784418016672134, 0.14081324636936188, 0.28262409567832947, -0.3347472548484802, -0.38629692792892456, 0.4404841661453247, 0.11158285290002823, 0.14564752578735352, -0.175226628780365,
-0.019800029695034027, 0.21831253170967102, 0.10077511519193649, -0.11098452657461166, -0.21083973348140717, -0.03459007665514946, 0.5107238292694092, 0.13685119152069092, -0.06134595721960068, 0.004549502395093441, -0.08244488388299942, -0.21084783971309662, -0.35381758213043213, -0.515906035900116, -0.0941755473613739, 0.26919588446617126, 0.059273749589920044, -0.16940119862556458, -0.1351965069770813, 0.20661324262619019,
-0.02809588424861431, 0.4904823303222656, 0.7003470063209534, -0.1063820943236351, 0.15707917511463165, -0.007208438590168953, -0.636002779006958, -0.03888184577226639, -0.05971774086356163, 0.10396600514650345, -0.01741747371852398, 0.001231418107636273, 0.1948358118534088, 0.4113675355911255, -0.14961129426956177, -0.217733696103096, -0.03590874746441841, -0.0631379634141922, -0.037787795066833496, -0.1563386470079422,
-0.17741279304027557, 0.19190436601638794, -0.8538850545883179, -0.28243395686149597, -0.041515689343214035, -0.6264780759811401, 0.036208633333444595, 0.13624036312103271, -0.4883946478366852, 0.02281966619193554, -0.1292169839143753, 0.24444589018821716, 0.1007043868303299, 0.07909037172794342, 0.2451004534959793, -0.22078414261341095, 0.649311900138855, 0.2108474224805832, 0.1150042936205864, 0.014100727625191212
};

const float biases_fc1[] = {
-0.20362821221351624, -0.028717471286654472, -0.14666539430618286, -0.13049177825450897, 0.19321288168430328, 0.119835264980793, -0.08244367688894272, 0.22413226962089539, 0.14884760975837708, -0.09152882546186447, -0.2163548767566681, 0.05140632763504982, 0.2633846402168274, 0.1210014745593071, 0.21656985580921173, 0.24599158763885498, -0.30759257078170776, -0.37160593271255493, -0.06630196422338486, -0.22158189117908478, -0.1940721869468689, 0.038823626935482025, -0.06158693879842758, 0.16640906035900116, 0.11219532042741776, -0.19766084849834442, 0.16354911029338837, -0.23130972683429718, 0.15829208493232727, 0.03533675894141197, -0.21915611624717712, -0.13592451810836792, -0.04336564987897873, -0.26165151596069336, 0.025496946647763252, 0.10690880566835403, -0.05340055748820305, 0.2249884158372879, 0.34035947918891907, -0.08479013293981552, 0.019957398995757103, 0.0006310765165835619, 0.2207937091588974, -0.09837454557418823, 0.024419941008090973, -0.13991373777389526, -0.0027030762284994125, 0.2891981601715088, 0.15575473010540009, -0.05517525225877762, -0.13354800641536713, 0.006557563319802284, -0.310943603515625, 0.08800434321165085, 0.2769554555416107, -0.03828275948762894, 0.06053922697901726, -0.022780582308769226, -0.012759674340486526, -0.0058523500338196754, 0.08762457221746445, 0.02040269784629345, 0.123479925096035, 0.2126924991607666
};

const float weights_fc2[] = {
-0.010005041025578976, 0.36336129903793335, -0.5559559464454651, 0.20112210512161255, -0.10607084631919861, 0.0754593014717102, 0.0174572616815567, -0.4380921721458435, 0.3326045274734497, 0.11364834755659103, -0.1271935999393463, -0.0773736834526062, -0.2034795880317688, 0.1610589176416397, 0.25246208906173706, -0.3404393792152405, 0.2557336390018463, -0.14256598055362701, 0.15038783848285675, -0.35643696784973145, 0.31949567794799805, 0.25992724299430847, 0.11822397261857986, -0.12647569179534912, -0.06656327098608017, -0.007813858799636364, 0.0015032576629891992, 0.032293155789375305, 0.19386416673660278, 0.06681100279092789, -0.11210262030363083, 0.03228873386979103, 0.08785104751586914, 0.33840230107307434, -0.04777689278125763, 0.04354103282094002, 0.4478931427001953, -0.09259572625160217, -0.30610978603363037, 0.32547125220298767, -0.16688033938407898, -0.07777721434831619, 0.25923120975494385, -0.09403568506240845, -0.22890904545783997, 0.044258370995521545, 0.19646431505680084, -0.16039486229419708, 0.09228182584047318, -0.1036602109670639, -0.08629365265369415, -0.1035672202706337, -0.1729355752468109, 0.012276994995772839, -0.639773964881897, -0.23316697776317596, 0.18586686253547668, -0.304008424282074, -0.23623093962669373, 0.3792756497859955, -0.0792623981833458, -0.16165752708911896, 0.22074860334396362, -0.06066928058862686,
-0.010223536752164364, 0.06417475640773773, 0.4710242450237274, -0.4126206338405609, 0.11191292107105255, -0.048260096460580826, -0.22149309515953064, -0.1582339107990265, 0.25980013608932495, -0.3743739724159241, 0.08616119623184204, -0.19348300993442535, -0.3569084107875824, -0.03145059943199158, 0.11738545447587967, 0.07893382012844086, 0.0070845866575837135, -0.41855114698410034, 0.09612341225147247, 0.027604766190052032, -0.12087441980838776, -0.2954810559749603, -0.5241613984107971, -0.09903464466333389, -0.034329988062381744, 0.06834591180086136, -0.021974066272377968, -0.11058720201253891, 0.2586025297641754, 0.18818293511867523, 0.05514080449938774, -0.07371856272220612, 0.2037196159362793, -0.13646145164966583, 0.07132793962955475, -0.1334909200668335, 0.2256396859884262, 0.2644229829311371, 0.3444243371486664, -0.11454799026250839, -0.37149909138679504, 0.3281422555446625, 0.18865150213241577, -0.19579117000102997, 0.03245711699128151, -0.06289492547512054, 0.08100372552871704, 0.09421198815107346, 0.4998665750026703, -0.5858517289161682, -0.026378927752375603, -0.23850500583648682, -0.0938229039311409, -0.1980890929698944, 0.46519047021865845, -0.26246359944343567, -0.02968616597354412, -0.28264951705932617, -0.4487685561180115, -0.029929842799901962, 0.3009718954563141, 0.04373583197593689, 0.3554821014404297, -0.25782257318496704,
0.1732897162437439, -0.2649615406990051, -0.07119414955377579, -0.04010266810655594, -0.16172343492507935, 0.05349050462245941, -0.3913438320159912, 0.1420881599187851, -0.19612447917461395, -0.2596425414085388, -0.17317333817481995, -0.27740204334259033, 0.178361713886261, -0.3410581350326538, -0.07492151111364365, -0.11927446722984314, -0.009609951637685299, -0.14895644783973694, -0.07823739945888519, 0.05103769153356552, 0.20998568832874298, -0.06917285919189453, -0.4528626799583435, 0.44800788164138794, 0.1681137979030609, 0.30580934882164, 0.019601760432124138, 0.3034393787384033, 0.025577759370207787, -0.22840428352355957, 0.0180257149040699, 0.07709512114524841, 0.369215726852417, 0.16557857394218445, -0.3070986568927765, -0.3160462975502014, -0.4395774006843567, -0.008818821981549263, -0.09829819947481155, -0.21536009013652802, 0.19900554418563843, -0.07911650091409683, -0.27976903319358826, -0.4763106405735016, 0.16501501202583313, -0.22801801562309265, 0.17145377397537231, -0.0834379494190216, 0.0811421200633049, 0.2130860984325409, 0.15435272455215454, 0.11615484952926636, -0.15829011797904968, -0.014726269990205765, 0.12407311052083969, -0.06926429271697998, 0.1639387458562851, 0.07379906624555588, -0.004436050076037645, 0.17240460216999054, -0.0019630941096693277, 0.15212324261665344, -0.36438652873039246, 0.17040657997131348,
0.17960913479328156, -0.043811503797769547, -0.0693294107913971, -0.38126394152641296, -0.29889264702796936, -0.1262316256761551, -0.010982288978993893, -0.07379768788814545, 0.10436096787452698, -0.18681201338768005, 0.06147388741374016, -0.2164083868265152, 0.08335712552070618, 0.2927488088607788, 0.0768762081861496, 0.30026108026504517, -0.016388874500989914, -0.4480782449245453, 0.2378697246313095, -0.5713375806808472, 0.11229775100946426, 0.21928007900714874, -0.14823898673057556, 0.39166146516799927, 0.2072780728340149, -0.3197772204875946, 0.13059492409229279, -0.060088660567998886, -0.005689396522939205, -0.5848700404167175, 0.06742671132087708, -0.10118584334850311, -0.08879557996988297, -0.4163634777069092, -0.02834550105035305, 0.42374318838119507, 0.22203031182289124, 0.018398620188236237, 0.37309953570365906, -0.36151739954948425, -0.24054762721061707, -0.023810528218746185, -0.02693982981145382, -0.368503600358963, -0.1423911154270172, -0.12150426208972931, -0.04036615416407585, 0.022910987958312035, 0.000707876228261739, -0.37092164158821106, 0.06501320749521255, -0.20992149412631989, -0.1565415859222412, -0.2939692735671997, 0.16936597228050232, 0.009999777190387249, 0.2648152709007263, -0.16920754313468933, -0.20170514285564423, -0.41548454761505127, 0.40943643450737, 0.20227743685245514, -0.18614307045936584, 0.010777533985674381,
0.0734618529677391, -0.21130430698394775, 0.02121630497276783, -0.049380265176296234, -0.2732085585594177, -0.31186923384666443, 0.040011607110500336, 0.07512613385915756, -0.12702983617782593, 0.18788865208625793, -0.2560761570930481, 0.24057798087596893, -0.06658604741096497, -0.49868112802505493, -0.32511281967163086, 0.23439235985279083, -0.10926841199398041, -0.21621432900428772, -0.34242016077041626, 0.1642712652683258, 0.2222217619419098, 0.3584180772304535, -0.19943901896476746, -0.01955600269138813, -0.08907438814640045, -0.26515403389930725, -0.1213061511516571, 0.08166103065013885, -0.16474339365959167, -0.07822111248970032, 0.46060025691986084, -0.05875636264681816, 0.04927000775933266, 0.09414636343717575, -0.3459146022796631, 0.1619611531496048, -0.12969140708446503, -0.09663549065589905, -0.16938897967338562, 0.2659582793712616, 0.12415453791618347, -0.10963179916143417, 0.20740275084972382, 0.2688925862312317, 0.09886311739683151, 0.2444152534008026, -0.2088260054588318, 0.29865866899490356, 0.36908158659935, -0.12786556780338287, 0.17650635540485382, 0.13891032338142395, -0.3542795181274414, 0.10068828612565994, -0.40664759278297424, 0.030644115060567856, 0.025547541677951813, -0.2702803313732147, -0.40688377618789673, -0.13319452106952667, 0.0768572986125946, 0.35527071356773376, -0.06298299133777618, -0.3231889605522156,
-0.543167769908905, -0.27417808771133423, -0.07038991898298264, -0.6168777346611023, 0.07092399895191193, -0.34608083963394165, -0.29638105630874634, 0.030718527734279633, 0.11285100877285004, 0.2355474829673767, 0.028482308611273766, 0.013614978641271591, 0.05097494646906853, -0.052072785794734955, 0.023554999381303787, 0.35885313153266907, -0.38161513209342957, -0.22282063961029053, -0.39060714840888977, -0.22412900626659393, -0.7813803553581238, -0.2942056357860565, 0.38929110765457153, 0.3825324475765228, -0.1030292809009552, -0.008579426445066929, 0.3917779326438904, -0.034499578177928925, -0.03207669407129288, -0.13766399025917053, -0.15477317571640015, 0.3510863482952118, 0.27740079164505005, -0.2437288910150528, 0.1748795360326767, 0.04102233797311783, -0.2552165389060974, -0.21298527717590332, 0.1046929731965065, -0.23262383043766022, -0.046405646950006485, -0.16846343874931335, -0.33812716603279114, -0.7293069362640381, -0.008093356154859066, -0.12080651521682739, 0.17836470901966095, -0.27803418040275574, 0.15086482465267181, 0.05231448635458946, 0.0011446066200733185, -0.12979426980018616, -0.07268956303596497, 0.11304426938295364, -0.16954760253429413, -0.2215418964624405, -0.13388749957084656, -0.3166276216506958, -0.05299066752195358, -0.24793684482574463, -0.12014000862836838, -0.1394120156764984, 0.3303849697113037, 0.35788023471832275,
-0.0468568317592144, 0.015357171185314655, -0.16211944818496704, 0.1139397919178009, 0.06461941450834274, -0.291968435049057, 0.2730478048324585, -0.022288108244538307, 0.3852662742137909, -0.2413194328546524, -0.012149356305599213, -0.03318283334374428, 0.025078292936086655, 0.09251981973648071, 0.36321207880973816, -0.19502389430999756, 0.07949811220169067, -0.12712985277175903, -0.16745024919509888, -0.45463627576828003, 0.06202816590666771, -0.48472845554351807, -0.037093423306941986, 0.29105353355407715, -0.18871116638183594, 0.028079912066459656, 0.17194513976573944, -0.0639989897608757, 0.2087361216545105, 0.36130234599113464, -0.2257567048072815, 0.1867305338382721, -0.4325961172580719, -0.44868722558021545, -0.2619011402130127, -0.20054470002651215, 0.02904302440583706, -0.029947420582175255, -0.07322391122579575, 0.07038916647434235, 0.09815701842308044, 0.42045095562934875, -0.033169884234666824, -0.05683344230055809, 0.12799927592277527, 0.07203711569309235, -0.032528966665267944, -0.16944129765033722, 0.26071441173553467, 0.12531305849552155, -0.18000707030296326, -0.20245958864688873, -0.24986180663108826, 0.2261754274368286, 0.24645614624023438, -0.09054394066333771, 0.13465696573257446, -0.07861372083425522, -0.22659188508987427, 0.0036163420882076025, 0.3213913142681122, 0.2308705896139145, 0.27424854040145874, -0.4692341387271881,
-0.05116874352097511, 0.08347038179636002, -0.026455961167812347, 0.3078761696815491, -0.10572875291109085, -0.3288992643356323, -0.36937278509140015, 0.02813548408448696, 0.1514747142791748, -0.2503843605518341, 0.1581474095582962, 0.1563606858253479, -0.053429361432790756, -0.01384967751801014, -0.4151703715324402, -0.15329301357269287, -0.23671144247055054, -0.21826858818531036, 0.3528779447078705, 0.07103918492794037, -0.02796819433569908, -0.02841907925903797, 0.139669731259346, -0.08892607688903809, 0.06793677061796188, -0.12653322517871857, -0.5384374260902405, -0.1329294592142105, -0.386818528175354, 0.25747162103652954, -0.08879441022872925, -0.06823676824569702, -0.27611440420150757, 0.04809202253818512, 0.07904153317213058, 0.0647214949131012, -0.45571139454841614, -0.4207896590232849, 0.0682247206568718, 0.7064392566680908, -0.04232402518391609, 0.02908787503838539, -0.17213906347751617, 0.11911765486001968, 0.06329532712697983, -0.5214586853981018, -0.3315376937389374, -0.08758249133825302, -0.1567484587430954, 0.1710318922996521, -0.1372859627008438, 0.2921257019042969, -0.14428842067718506, -0.17391721904277802, 0.016723692417144775, 0.013017399236559868, -0.13240031898021698, -0.3451620638370514, 0.20162945985794067, -0.12156007438898087, 0.04870356246829033, 0.36826303601264954, -0.36566656827926636, 0.25776323676109314,
0.1019517034292221, -0.1093270480632782, 0.0752788856625557, -0.07591670006513596, -0.11117920279502869, 0.06825723499059677, 0.02652668207883835, 0.1771399974822998, 0.06777606159448624, -0.24618756771087646, -0.33489102125167847, -0.11596772819757462, 0.25412866473197937, -0.19313549995422363, -0.7490875720977783, -0.045460473746061325, 0.17791838943958282, 0.05470271781086922, -0.5592455863952637, -0.08536221832036972, -0.07024867832660675, -0.047392457723617554, 0.15014246106147766, -0.028248079121112823, -0.47810253500938416, 0.13541151583194733, 0.0010647648014128208, -0.22321192920207977, 0.13829566538333893, -0.2405819445848465, 0.23820868134498596, 0.04088190570473671, 0.2772500514984131, -0.27288323640823364, -0.16851510107517242, 0.4306488037109375, -0.2807651162147522, -0.286117285490036, -0.2458881437778473, -0.021303823217749596, 0.25434616208076477, 0.2830711901187897, 0.18755489587783813, 0.2938326299190521, -0.0334785021841526, 0.1816314309835434, -0.036403220146894455, -0.018048621714115143, 0.09558038413524628, 0.0881030410528183, 0.2889321446418762, 0.38282889127731323, -0.10304783284664154, 0.04363272339105606, 0.6739122271537781, 0.07972093671560287, -0.8668192625045776, -0.001283228863030672, 0.0002572743978817016, 0.3225458860397339, -0.3327957093715668, 0.2213100790977478, -0.14253519475460052, 0.16969354450702667,
0.053173940628767014, 0.07315364480018616, 0.00897923856973648, -0.1363198161125183, 0.09805603325366974, -0.30972763895988464, -0.12151781469583511, 0.06274846196174622, -0.5393803715705872, 0.20418721437454224, -0.2351004183292389, 0.1733872890472412, 0.08436957001686096, -0.0474252812564373, -0.28378060460090637, 0.16699586808681488, 0.05048868805170059, -0.1550920307636261, 0.05618923902511597, -0.023902704939246178, -0.1505071371793747, 0.31952986121177673, 0.22620831429958344, 0.284004271030426, -0.18004484474658966, 0.16886208951473236, 0.00296398950740695, -0.24355915188789368, -0.07738073170185089, -0.10605619847774506, 0.007672700099647045, 0.23475484549999237, -0.0666312426328659, -0.002373171504586935, 0.0033295261673629284, -0.07175717502832413, -0.3653745949268341, -0.043315690010786057, 0.5283355712890625, 0.07856573164463043, 0.09648768603801727, -0.07307350635528564, 0.0584087111055851, -0.12755069136619568, -0.33216261863708496, -0.09363922476768494, -0.01007777824997902, -0.11796081811189651, 0.006780068855732679, -0.4755978286266327, -0.36072632670402527, -0.2404138296842575, 0.04864304140210152, 0.1915818750858307, 0.632954478263855, 0.32583680748939514, -0.3311685025691986, -0.19874367117881775, -0.13940900564193726, -0.06413234025239944, 0.13456788659095764, 0.006153001915663481, -0.49897366762161255, 0.24996982514858246,
-0.3377291262149811, -0.008816774003207684, 0.2312924712896347, 0.2155013382434845, -0.19532296061515808, -0.13048143684864044, 0.12963809072971344, -0.16173942387104034, -0.3713265359401703, -0.03761465847492218, -0.16335301101207733, -0.2004370242357254, 0.18273131549358368, -0.5156811475753784, -0.5672637820243835, -0.16312538087368011, 0.05169467255473137, -0.14394807815551758, 0.3977451026439667, 0.001204532803967595, -0.19856998324394226, -0.32469454407691956, 0.14985764026641846, 0.12080590426921844, -0.0334477536380291, 0.03393363207578659, -0.19194021821022034, -0.35728880763053894, 0.17304566502571106, -0.5881938338279724, 0.00794850755482912, -0.3028873801231384, -0.09461715817451477, -0.050760477781295776, -0.016822246834635735, -0.46765485405921936, -0.23741215467453003, 0.057371512055397034, -0.21868287026882172, 0.2861808240413666, 0.08228730410337448, 0.18083304166793823, 0.11460641771554947, -0.39185774326324463, -0.3219987750053406, -0.01420819666236639, 0.29062631726264954, 0.22861601412296295, -0.27463415265083313, -0.03785290569067001, -0.23529288172721863, -0.16779832541942596, 0.14499112963676453, -0.2477552592754364, -0.25261712074279785, -0.14399072527885437, -0.056044258177280426, 0.22768805921077728, 0.30976402759552, -0.10270421952009201, -0.049517303705215454, 0.011613386683166027, 0.04108757525682449, 0.2020494043827057,
0.21264302730560303, 0.3238036334514618, -0.19101591408252716, -0.005446658004075289, 0.10694322735071182, 0.3727724850177765, -0.22202745079994202, -0.18167223036289215, -0.12298223376274109, 0.09071343392133713, -0.5551474690437317, 0.24169155955314636, -0.12543316185474396, -0.33077338337898254, 0.03848566487431526, 0.39068907499313354, 0.38000380992889404, -0.0343574658036232, 0.011150016449391842, 0.1101701483130455, -0.07397869229316711, 0.16275343298912048, 0.09016240388154984, 0.12587198615074158, 0.1902369260787964, -0.013496913947165012, 0.1720830798149109, 0.061937082558870316, -0.14032036066055298, -0.11059710383415222, 0.12626232206821442, -0.04361215606331825, -0.3249766230583191, -0.21312424540519714, 0.10754978656768799, -0.016884421929717064, -0.07584302127361298, -0.2568024694919586, 0.025413407012820244, -0.6124448180198669, 0.15277114510536194, -0.22557954490184784, 0.21194180846214294, 0.008451935835182667, 0.10266657173633575, -0.6628828644752502, 0.03504524379968643, -0.0634203627705574, -0.1271236389875412, -0.04288571700453758, -0.14376139640808105, 0.045834336429834366, 0.10049764066934586, -0.024274351075291634, -0.09286412596702576, 0.09882215410470963, 0.24435891211032867, -0.061325427144765854, -0.11941827088594437, -0.2861747443675995, -0.034742746502161026, 0.1276901364326477, 0.1517706662416458, -0.021868737414479256,
0.2535511553287506, 0.16303114593029022, 0.07068327814340591, 0.32898205518722534, -0.15904057025909424, -0.1154874935746193, -0.07298179715871811, 0.11439243704080582, -0.03845268115401268, 0.14883169531822205, -0.0010648741154000163, 0.24046893417835236, -0.2746337056159973, 0.02508118934929371, 0.27311450242996216, -0.13107168674468994, 0.22186237573623657, 0.10441695153713226, 0.09966819733381271, 0.25911104679107666, -0.2278723418712616, 0.00837788637727499, 0.08217708021402359, 0.3478710353374481, 0.4336867332458496, 0.05120854452252388, -0.3712906539440155, -0.09357722103595734, 0.10021310299634933, -0.22629481554031372, -0.09875844419002533, 0.13077454268932343, -0.40989217162132263, -0.1207590103149414, -0.0673583373427391, 0.2853924334049225, 0.11351307481527328, -0.3530517816543579, -0.11282406002283096, -0.3623507618904114, -0.2092643827199936, 0.14463204145431519, -0.20622029900550842, -0.22789430618286133, 0.3924112617969513, 0.09712623804807663, 0.052921295166015625, -0.24590584635734558, 0.1952243149280548, -0.17154096066951752, -0.08312071114778519, -0.12306598573923111, -0.2834199368953705, -0.35659199953079224, -0.05578755587339401, -0.04184218496084213, 0.025540638715028763, 0.23779195547103882, -0.2535046339035034, -0.1504295915365219, -0.1495043933391571, 0.04606814682483673, 0.012508394196629524, 0.34167832136154175,
-0.3399865925312042, -0.1938011348247528, -0.2993701994419098, -0.3516123294830322, -0.5666555166244507, 0.027261169627308846, -0.2552516758441925, 0.14525680243968964, 0.47886908054351807, 0.19062037765979767, -0.417869508266449, 0.020892832428216934, 0.18314626812934875, 0.005662501789629459, 0.28571629524230957, -0.35212913155555725, -0.14933112263679504, 0.31554722785949707, 0.2308143824338913, 0.2942749261856079, 0.02976493164896965, -0.13232311606407166, 0.059721894562244415, 0.18693968653678894, 0.08531929552555084, 0.0384310707449913, -0.17199571430683136, -0.25673654675483704, -0.32801342010498047, -0.382295161485672, -0.34244653582572937, -0.07937459647655487, -0.2028352916240692, 0.06181067228317261, 0.08184078335762024, -0.30378416180610657, 0.09058691561222076, -0.28016334772109985, 0.27871477603912354, -0.021883372217416763, -0.027578730136156082, 0.06446387618780136, 0.1390722393989563, -0.21154440939426422, -0.47815558314323425, -0.18532706797122955, -0.31788355112075806, -0.08113767951726913, 0.041628945618867874, -0.12241104990243912, 0.05824095383286476, 0.39770689606666565, 0.20684877038002014, 0.3757227063179016, -0.07989189773797989, 0.10805702954530716, -0.07181885838508606, 0.032345883548259735, -0.02611388824880123, 0.24601058661937714, 0.20834702253341675, 0.033375151455402374, -0.16731487214565277, 0.04798327386379242,
0.3980248272418976, -0.07718028128147125, 0.3785410225391388, 0.08074992150068283, -0.19634360074996948, 0.12785127758979797, -0.2586945593357086, -0.3543745279312134, -0.1124672144651413, 0.007755598518997431, -0.03910229727625847, 0.37545040249824524, 0.08369258046150208, -0.10402265936136246, 0.006033551879227161, -0.07577333599328995, -0.32106688618659973, -0.0017441532108932734, -0.09962798655033112, 0.15574637055397034, 0.2819724678993225, 0.04091119021177292, 0.13178445398807526, 0.149263396859169, 0.15861882269382477, 0.09763311594724655, -0.04033420979976654, -0.19485127925872803, -0.17330676317214966, -0.391168475151062, 0.2199643850326538, 0.47093573212623596, -0.4891567826271057, 0.05774310976266861, 0.031907763332128525, 0.005320456810295582, 0.2144918143749237, 0.042666155844926834, -0.03448435664176941, 0.4131428599357605, -0.13420262932777405, -0.38440921902656555, 0.13822132349014282, -0.08474887162446976, -0.13818909227848053, -0.22271087765693665, -0.015074039809405804, 0.08183174580335617, 0.03921803459525108, -0.004703891463577747, 0.08035361766815186, 0.15512660145759583, 0.0745333731174469, -0.16866739094257355, -0.1323212832212448, -0.06260980665683746, -0.06467708200216293, -0.005374236963689327, -0.05402521789073944, 0.483012855052948, -0.3141120672225952, -0.32896196842193604, -0.24437326192855835, -0.1511256843805313,
-0.41248229146003723, -0.0415671244263649, -0.1560395359992981, -0.04007435590028763, 0.17867250740528107, 0.05434418469667435, 0.028928320854902267, 0.041024573147296906, -0.06941314041614532, -0.016921721398830414, 0.018892843276262283, 0.002568986499682069, -0.24296273291110992, -0.21483705937862396, 0.19872333109378815, 0.2483084797859192, -0.1485011726617813, -0.4346770942211151, -0.08853425830602646, 0.011691831983625889, -0.08689068257808685, -0.10449784249067307, -0.5567968487739563, 0.168474942445755, 0.05599524453282356, 0.25787028670310974, -0.017292581498622894, -0.3364608883857727, 0.3022662103176117, -0.08042982220649719, -0.16998127102851868, -0.018404455855488777, -0.21236713230609894, -0.16286754608154297, -0.19469355046749115, 0.14459967613220215, 0.00013165301061235368, 0.27582287788391113, 0.320917010307312, 0.2740122377872467, -0.12432072311639786, -0.13650110363960266, 0.10294988006353378, -0.3306959867477417, -0.23206257820129395, -0.42514920234680176, -0.06149256229400635, 0.39187920093536377, -0.2718257009983063, -0.45749932527542114, 0.0896483063697815, 0.07550371438264847, -0.3660504221916199, 0.020623957738280296, 0.25842636823654175, -0.02211715094745159, 0.028400780633091927, -0.3275599479675293, 0.15955892205238342, -0.30272892117500305, 0.02560274675488472, -0.051384665071964264, -0.22045020759105682, -0.23107244074344635,
-0.20519214868545532, 0.029410189017653465, 0.4221090078353882, -0.22908827662467957, 0.05121159180998802, -0.14189019799232483, -0.4331948161125183, 0.2859579622745514, 0.1135309562087059, 0.11196863651275635, -0.22340819239616394, -0.15824729204177856, -0.19181372225284576, -0.05838647857308388, -0.014271832071244717, 0.013031916692852974, 0.2543773055076599, 0.28317803144454956, 0.2570953369140625, 0.012663022615015507, 0.421288400888443, 0.14417682588100433, -0.3927071690559387, 0.2416916787624359, -0.18386490643024445, -0.06728468090295792, -0.44018951058387756, 0.3187566101551056, -0.2637118995189667, -0.336377888917923, -0.16913093626499176, 0.014406551606953144, -0.33352866768836975, -0.18992555141448975, -0.014875521883368492, -0.03044637106359005, 0.08998289704322815, -0.288271427154541, -0.1521238386631012, -0.06659025698900223, 0.21652640402317047, -0.2196476012468338, -0.16678915917873383, -0.32597941160202026, -0.5844815969467163, -0.16080589592456818, 0.10034610331058502, -0.15670441091060638, -0.4615720212459564, 0.08903280645608902, 0.29233700037002563, -0.2298286408185959, -0.134897381067276, -0.21395248174667358, 0.09115374088287354, 0.07379159331321716, -0.11967240273952484, 0.2380276471376419, -0.021541085094213486, 0.07719793915748596, 0.021082118153572083, 0.29960334300994873, -0.2694242596626282, 0.20290802419185638,
-0.32170915603637695, -0.2627323865890503, -0.1479535847902298, 0.0030678336042910814, -0.24507081508636475, 0.012759099714457989, 0.056254588067531586, -0.07957372069358826, -0.17500531673431396, -0.16083668172359467, -0.07200147956609726, -0.18388758599758148, -0.06491147726774216, -0.14255261421203613, -0.08437424153089523, 0.1552209109067917, -0.1561409831047058, 0.17721620202064514, 0.1030888706445694, 0.11926289647817612, -0.06288265436887741, 0.10653450340032578, -0.17162731289863586, -0.17449772357940674, -0.23138296604156494, 0.08965909481048584, 0.08329568803310394, -0.2080809623003006, -0.05072244629263878, -0.15589097142219543, 0.042740561068058014, -0.018207374960184097, -0.03445279225707054, 0.11354375630617142, -0.13716797530651093, -0.04320722073316574, -0.11387857049703598, -0.1911805421113968, 0.10692334175109863, 0.06453720480203629, 0.20135091245174408, -0.26503172516822815, -0.32984474301338196, -0.0388411283493042, 0.27695634961128235, -0.17849834263324738, -0.13031059503555298, -0.04556728154420853, 0.04702567681670189, 0.048205867409706116, -0.23249433934688568, -0.4099019169807434, -0.36982494592666626, -0.057617880403995514, 0.1643197238445282, -0.23801873624324799, 0.11490964889526367, 0.04236709699034691, -0.40752115845680237, 0.06853680312633514, -0.09981738030910492, -0.3444252610206604, 0.26926425099372864, 0.04597627371549606,
-0.41961562633514404, -0.047646548599004745, -0.40648704767227173, -0.3951880931854248, 0.04385603219270706, 0.07592305541038513, 0.09308556467294693, 0.13335591554641724, -0.14763908088207245, -0.5122342109680176, -0.06865816563367844, 0.21496334671974182, 0.014110462740063667, -0.11649162322282791, 0.1317957192659378, 0.2609593868255615, -0.09235810488462448, -0.19301116466522217, -0.048251669853925705, -0.3856348693370819, -0.039234455674886703, -0.11354732513427734, 0.01805580034852028, -0.09444080293178558, -0.16458949446678162, -0.24943247437477112, -0.40301191806793213, -0.3634636700153351, -0.1285187005996704, -0.03135017305612564, 0.18524210155010223, -0.023395860567688942, 0.10033807903528214, 0.1506059616804123, 0.3569202721118927, -0.09570391476154327, -0.1516808569431305, 0.14356066286563873, 0.18640771508216858, 0.12825645506381989, -0.26981958746910095, -0.36125919222831726, 0.04088722541928291, -0.2622317671775818, 0.0607658289372921, 0.07077805697917938, 0.020522888749837875, 0.13088349997997284, 0.2278624325990677, -0.1694536805152893, -0.22553911805152893, -0.32958993315696716, -0.058511607348918915, 0.21576422452926636, 0.12806865572929382, -0.03017972968518734, -0.3842203915119171, -0.07469608634710312, 0.15513360500335693, -0.23127001523971558, -0.37713027000427246, -0.07071325927972794, -0.34737876057624817, 0.03711898997426033,
0.3253767490386963, -0.13800860941410065, -0.32342880964279175, 0.18521717190742493, 0.35387519001960754, 0.1621999889612198, 0.08029646426439285, -0.20536811649799347, -0.2772183120250702, 0.40066978335380554, 0.24776491522789001, 0.1416168510913849, -0.1447470635175705, -0.09144341945648193, 0.25485652685165405, -0.18008694052696228, -0.3130415678024292, -0.03805636614561081, -0.15096890926361084, -0.20056365430355072, 0.21647407114505768, -0.360363245010376, 0.14006544649600983, 0.054483603686094284, 0.3474268913269043, 0.14786186814308167, 0.00974131841212511, -0.2636571228504181, -0.034730616956949234, -0.08828651160001755, 0.29147255420684814, -0.034728165715932846, -0.06686908006668091, -0.24906355142593384, -0.1256481260061264, -0.35480552911758423, 0.3008051812648773, 0.39423754811286926, 0.36345404386520386, 0.05980418249964714, -0.5350937843322754, -0.5617437362670898, -0.20443624258041382, -0.35767170786857605, 0.007437819615006447, 0.1350085735321045, -0.29063910245895386, -0.43638136982917786, 0.18513666093349457, -0.17968043684959412, -0.3079448640346527, -0.30565378069877625, -0.2606763541698456, -0.2523881793022156, -0.46133187413215637, 0.3067827820777893, 0.06833173334598541, -0.12334330379962921, -0.1365651786327362, -0.03719446063041687, -0.15568329393863678, -0.578722357749939, 0.31728294491767883, -0.3981420397758484,
0.1602039486169815, 0.23527538776397705, -0.2284124791622162, -0.23927079141139984, -0.048582933843135834, 0.04375343769788742, 0.11631963402032852, 0.11500516533851624, 0.04862675070762634, -0.023826250806450844, 0.10559631139039993, -0.33476245403289795, -0.2795097231864929, -0.39293935894966125, -0.44512590765953064, 0.2282276600599289, 0.12543943524360657, 0.21836698055267334, -0.14087696373462677, -0.18063288927078247, 0.1644219160079956, -0.34492823481559753, -0.02950218692421913, 0.06015155091881752, 0.24044379591941833, -0.0712968185544014, 0.06641154736280441, -0.0676291435956955, -0.15548765659332275, -0.12617817521095276, -0.21982844173908234, 0.0688568726181984, -0.320735365152359, 0.15341061353683472, 0.021883921697735786, -0.1117839440703392, -0.08966639637947083, -0.2709957957267761, -0.12482394278049469, -0.18357424437999725, -0.07445138692855835, 0.12127970904111862, 0.20827829837799072, 0.2531517446041107, 0.0832347720861435, -0.11434306204319, 0.011068740859627724, 0.24383868277072906, -0.10904407501220703, 0.04060734063386917, 0.061548903584480286, -0.3069663345813751, 0.2907516658306122, -0.04334777966141701, -0.05557078868150711, 0.02543962374329567, -0.24258729815483093, -0.16893959045410156, -0.028056733310222626, 0.20278090238571167, 0.03919229283928871, -0.1895802766084671, -0.08833751827478409, -0.09680277109146118,
0.10647150129079819, -0.6628764271736145, 0.14812824130058289, 0.05232490971684456, -0.08252785354852676, -0.0678674578666687, -0.2709868848323822, -0.16476544737815857, -0.08707273751497269, -0.13709841668605804, 0.034511636942625046, 0.3400037884712219, 0.03996414318680763, 0.00401355279609561, -0.11224901676177979, -0.2503465414047241, 0.13480673730373383, 0.19503436982631683, 0.26498228311538696, -0.28886714577674866, -0.209242045879364, -0.32406723499298096, -0.2740488648414612, 0.21761775016784668, -0.2150995433330536, 0.27981629967689514, 0.18547318875789642, 0.24369022250175476, -0.5045862197875977, 0.2873879373073578, -0.39461463689804077, 0.21606513857841492, 0.24393677711486816, 0.2604447901248932, 0.052254173904657364, 0.034308817237615585, 0.04143967479467392, -0.1731850951910019, -0.23734034597873688, -0.05296812951564789, 0.07264728844165802, -0.16482356190681458, 0.12556707859039307, 0.3771146535873413, -0.7758651375770569, -0.12125539034605026, 0.34635040163993835, 0.0056935762986540794, -0.20984040200710297, 0.06131226196885109, 0.12453501671552658, 0.01724652200937271, -0.18456682562828064, -0.5628588795661926, -0.02955699898302555, 0.30410730838775635, 0.1564074158668518, 0.19204601645469666, -0.1582106351852417, 0.04979526624083519, -0.5584657788276672, -0.11382795125246048, 0.11475935578346252, 0.08645888417959213,
0.1482725292444229, 0.15910126268863678, -0.01330073643475771, -0.19627048075199127, 0.010767758823931217, 0.21298837661743164, -0.04471759870648384, 0.22225594520568848, -0.1490907520055771, 0.3461739718914032, -0.07492685317993164, 0.06176868826150894, 0.5874998569488525, 0.38451677560806274, 0.22296114265918732, -0.034209512174129486, 0.1016170084476471, -0.4397302567958832, -0.35687685012817383, -0.15567579865455627, -0.34835925698280334, -0.0303485170006752, -0.2690690755844116, -0.08651015162467957, -0.10237663984298706, -0.34419554471969604, -0.2682022750377655, -0.04831050708889961, 0.0731922835111618, -0.03669162094593048, 0.001768738031387329, -0.1296265423297882, -0.27077654004096985, 0.1789957582950592, -0.4482826888561249, -0.32940542697906494, -0.053534384816884995, -0.3764631748199463, 0.2557552456855774, 0.03578251972794533, -0.12328718602657318, -0.029098235070705414, -0.033592283725738525, -0.08881265670061111, 0.07020122557878494, -0.19583825767040253, -0.03147320821881294, 0.17968668043613434, -0.11350861191749573, -0.2948673963546753, -0.0521082803606987, -0.03657090663909912, 0.24879805743694305, 0.1850791573524475, 0.01892777718603611, -0.1432715654373169, -0.30112048983573914, -0.257423996925354, -0.35891228914260864, -0.15765398740768433, -0.03206862136721611, 0.1833021640777588, -0.1388975977897644, 0.004897390492260456,
0.13680173456668854, -0.10989422351121902, 0.2575905919075012, 0.06627599149942398, -0.17276395857334137, -0.0196481104940176, 0.3941800892353058, 0.44480499625205994, -0.2596459984779358, -0.44689178466796875, -0.13040271401405334, -0.10425331443548203, -0.1328553408384323, -0.21570461988449097, -0.23028187453746796, -0.03934149071574211, 0.017629966139793396, 0.22970616817474365, -0.40374740958213806, -0.2974153757095337, -0.13303829729557037, 0.03884730860590935, -0.14961878955364227, 0.3181816339492798, 0.027167441323399544, 0.18849775195121765, 0.12172255665063858, 0.1842026263475418, 0.00857007410377264, 0.33527982234954834, 0.08352818340063095, -0.2624439299106598, -0.02099897526204586, -0.23190148174762726, 0.14243429899215698, 0.025114955380558968, -0.14976583421230316, -0.1646813601255417, 0.13967281579971313, 0.10530717670917511, 0.02768217958509922, -0.2565571367740631, -0.13906602561473846, -0.3077746629714966, -0.5276969075202942, -0.2900007367134094, 0.06059278920292854, -0.1242407038807869, -0.12161072343587875, -0.3385862112045288, 0.06263884156942368, -0.22449588775634766, 0.18612660467624664, -0.12896201014518738, 0.10037171095609665, 0.16791440546512604, 0.25254982709884644, 0.24491499364376068, -0.10825631767511368, 0.14110614359378815, -0.04650769382715225, -0.2496049553155899, 0.06094086915254593, -0.020977213978767395,
-0.1762382835149765, 0.2282029688358307, -0.10554986447095871, -0.17980141937732697, 0.056216392666101456, -0.012078624218702316, 0.47530144453048706, -0.15142834186553955, -0.18426966667175293, -0.1307757943868637, 0.002605435671284795, -0.3527798056602478, -0.04001878947019577, 0.11003061383962631, -0.13071325421333313, 0.11869442462921143, 0.11869832873344421, -0.01902170479297638, 0.5107842087745667, 0.3201256990432739, 0.18838971853256226, -0.19368711113929749, -0.16684210300445557, -0.052375275641679764, 0.4216189980506897, 0.49079427123069763, -0.16874201595783234, -0.07647588849067688, -0.20743711292743683, 0.08604969829320908, 0.07844740897417068, 0.13140705227851868, 0.11412834376096725, -0.6802173256874084, -0.011023757047951221, -0.008446800522506237, -0.31432655453681946, -0.010890176519751549, -0.5087824463844299, -0.11731332540512085, -0.11192960292100906, -0.034928224980831146, -0.06135603040456772, 0.3729538917541504, 0.20071838796138763, 0.1695815473794937, 0.12731227278709412, 0.2556169927120209, -0.21797658503055573, -0.3960593342781067, -0.14112789928913116, 0.3238464295864105, -0.09639053791761398, -0.021947182714939117, 0.08899316936731339, 0.1744101494550705, -0.22980548441410065, 0.1431688517332077, 0.02710314467549324, 0.19338561594486237, -0.15664613246917725, 0.3098781704902649, -0.01160633284598589, -0.2708686590194702,
0.14675402641296387, 0.07765816897153854, -0.21170417964458466, 0.026954250410199165, -0.030895033851265907, 0.08034119755029678, 0.1852799654006958, 0.1678244173526764, -0.24400335550308228, 0.23555020987987518, -0.30015474557876587, -0.142599955201149, 0.24934744834899902, -0.2541128993034363, -0.1649685651063919, -0.03439253568649292, -0.49043217301368713, -0.03151990473270416, -0.3449236750602722, 0.1754506230354309, 0.2129390835762024, 0.11220928281545639, 0.30234435200691223, 0.014944503083825111, -0.16692493855953217, -0.1049019992351532, -0.1548895686864853, 0.41941457986831665, -0.34504714608192444, -0.5172384977340698, -0.10065102577209473, -0.8662084341049194, -0.2661583721637726, -0.15902942419052124, 0.17423823475837708, -0.08390966057777405, -0.14378805458545685, 0.06406989693641663, 0.09380080550909042, 0.14302770793437958, -0.37595900893211365, 0.09112712740898132, 0.09723330289125443, 0.10470563173294067, -0.2186528444290161, -0.2675652801990509, -0.01746533252298832, 0.1944897174835205, 0.3055347502231598, -0.08003339916467667, 0.1611563265323639, -0.35676446557044983, -0.22298288345336914, 0.032605793327093124, 0.4706306457519531, 0.20055606961250305, -0.13649417459964752, -0.2615141272544861, 0.2167646735906601, -0.2817264199256897, -0.12661275267601013, -0.18090999126434326, -0.13838808238506317, 0.19451677799224854,
0.2267092764377594, -0.03668371960520744, -0.37559711933135986, 0.06324297934770584, 0.11873677372932434, -0.16944269835948944, -0.17594745755195618, -0.0376279354095459, 0.34571269154548645, 0.1912466585636139, -0.028667792677879333, -0.12888897955417633, -0.2564513683319092, 0.13929015398025513, -0.4349816143512726, -0.07991337776184082, 0.060539789497852325, 0.01690731756389141, -0.12798215448856354, 0.15478986501693726, -0.24754783511161804, -0.13185004889965057, -0.3218352496623993, -0.13773667812347412, 0.1450551301240921, -0.1235537976026535, -0.1541452258825302, -0.2375551462173462, -0.017958788201212883, -0.15797628462314606, 0.1255870759487152, -0.29691532254219055, 0.08367462456226349, -0.19048772752285004, -0.1352686733007431, -0.014880239963531494, -0.3292352259159088, -0.30195853114128113, -0.04313519597053528, -0.08276806771755219, 0.4332314133644104, -0.011265923269093037, -0.41446855664253235, -0.01085526030510664, -0.4176052212715149, -0.04087185859680176, -0.8761556148529053, -0.09784190356731415, 0.5390575528144836, -0.47876328229904175, -0.2649100720882416, -0.21223561465740204, 0.09392693638801575, 0.06890567392110825, 0.0005407976568676531, 0.071046382188797, 0.08523508161306381, 0.10900717228651047, 0.27898624539375305, -0.009971038438379765, -0.18129293620586395, -0.2423076182603836, 0.13600130379199982, 0.011438727378845215,
-0.0905352383852005, 0.025816019624471664, 0.03664177656173706, -0.36504513025283813, 0.28225186467170715, -0.07821515947580338, -0.21447700262069702, -0.020675549283623695, -0.5367897152900696, -0.13079173862934113, -0.6155670881271362, 0.3128701150417328, 0.10440615564584732, 0.22371500730514526, -0.30218395590782166, 0.2795146405696869, -0.08389553427696228, -0.07851680368185043, -0.06639844179153442, -0.3173603415489197, -0.4144062399864197, 0.024889739230275154, -0.04201343655586243, 0.10137206315994263, 0.496915340423584, -0.17446008324623108, -0.2485760599374771, 0.13421669602394104, 0.07120413333177567, -0.09927460551261902, -0.11445948481559753, -0.33960551023483276, -0.4478910267353058, -0.4126044511795044, -0.6099313497543335, -0.0965956598520279, -0.1249275729060173, 0.2800518870353699, 0.28015127778053284, -0.015783078968524933, 0.07581954449415207, -0.4899495542049408, 0.41709157824516296, -0.19155797362327576, 0.0835089311003685, -0.2107127457857132, 0.06030285730957985, 0.12147647142410278, -0.03535566106438637, -0.09599504619836807, 0.3875759541988373, -0.5262537598609924, -0.08465133607387543, 0.10783927142620087, -0.01797221601009369, 0.06997217983007431, 0.043925460427999496, -0.04869868978857994, -0.4084412753582001, -0.23019962012767792, -0.3336229622364044, 0.04956616461277008, -0.2078614979982376, 0.25237151980400085,
0.03683276101946831, -0.010345593094825745, -0.1455010175704956, 0.019344985485076904, 0.04173948988318443, 0.1413308084011078, -0.2353101521730423, 0.022753527387976646, -0.2459009438753128, -0.10012663900852203, -0.19963432848453522, 0.2927856743335724, 0.1411757916212082, -0.11705177277326584, -0.20124392211437225, 0.10322844982147217, -0.12733861804008484, 0.0934198796749115, 0.010216845199465752, 0.3770940601825714, 0.3780837655067444, -0.20673221349716187, 0.1341812014579773, -0.12440180033445358, -0.09767359495162964, -0.13084721565246582, 0.404407799243927, 0.03479805961251259, 0.1543215960264206, -0.14269237220287323, 0.10097125917673111, -0.07604866474866867, -0.09750619530677795, -0.22801271080970764, -0.15630769729614258, 0.5023639798164368, 0.14890041947364807, 0.03326025605201721, -0.3345741331577301, 0.021201681345701218, -0.2666882872581482, -0.029856352135539055, -0.08316630125045776, -0.3440708518028259, 0.1053701788187027, -0.3708057105541229, -0.3692246675491333, 0.0988645851612091, -0.33279329538345337, -0.30655789375305176, 0.23774555325508118, -0.35365426540374756, 0.05657501146197319, -0.09705837070941925, 0.10440894961357117, 0.3252234160900116, 0.20905274152755737, -0.36614876985549927, -0.11668672412633896, -0.06805383414030075, -0.09731642156839371, 0.19555673003196716, -0.33694735169410706, 0.47855210304260254,
0.12662434577941895, 0.19337895512580872, -0.3634719252586365, 0.07488851994276047, -0.05371095612645149, 0.042402420192956924, -0.12565821409225464, -0.2106471061706543, 0.19507890939712524, -0.3319164216518402, 0.16431419551372528, -0.30121660232543945, 0.08080162853002548, -0.364441454410553, -0.17230990529060364, -0.2739400565624237, 0.06923083961009979, 0.36353224515914917, 0.48025980591773987, -0.11834392696619034, -0.029934562742710114, 0.4248569905757904, -0.21259649097919464, 0.36647555232048035, 0.10139330476522446, 0.2901395559310913, -0.24712097644805908, -0.20215214788913727, 0.019813010469079018, 0.05145004019141197, -0.18242652714252472, -0.059166599065065384, 0.3363078534603119, -0.4598492383956909, 0.3085213005542755, 0.07991083711385727, 0.5239677429199219, -0.07874282449483871, 0.10526405274868011, 0.1730944961309433, -0.13411957025527954, 0.2830316722393036, -0.25249695777893066, 0.2434343695640564, 0.3153097927570343, 0.25014036893844604, -0.2296859323978424, -0.041075948625802994, -0.3058517575263977, -0.061398886144161224, 0.022371158003807068, -0.26394569873809814, 0.04954370856285095, 0.041996199637651443, -0.30639100074768066, -0.0950811356306076, -0.05303153768181801, 0.15632259845733643, -0.3355337679386139, -0.14673663675785065, 0.053624872118234634, -0.13287366926670074, 0.14752376079559326, -0.3539939820766449,
-0.19827184081077576, -0.23068180680274963, -0.002400922356173396, -0.07584240287542343, -0.12158364802598953, -0.2227759063243866, -0.0327238067984581, -0.20807313919067383, 0.1026979386806488, 0.09867687523365021, 0.2575194239616394, -0.32962921261787415, 0.0078614242374897, 0.31663286685943604, -0.05234769731760025, -0.247880220413208, 0.1542113572359085, -0.035477202385663986, 0.031131204217672348, -0.18315263092517853, -0.1971691995859146, -0.3437628448009491, 0.15973030030727386, 0.08605041354894638, -0.5740504860877991, 0.3469976782798767, -0.2065533548593521, 0.26857438683509827, -0.0444406233727932, 0.026422040536999702, 0.33900442719459534, -0.12490467727184296, -0.4524368643760681, -0.3189462125301361, 0.04981548711657524, -0.09934309870004654, -0.04661004990339279, -0.023613180965185165, 0.017177226021885872, -0.24980691075325012, 0.026958435773849487, 0.2802439033985138, 0.13781607151031494, -0.17363542318344116, 0.2978458106517792, -0.4770165979862213, 0.3218144178390503, -0.17913246154785156, 0.03661156818270683, -0.31679588556289673, 0.23129023611545563, 0.27865371108055115, -0.17668841779232025, -0.1282908022403717, 0.10873165726661682, -0.5604260563850403, 0.011062615551054478, 0.2635959982872009, 0.1282849758863449, -0.026476364582777023, -0.29211723804473877, 0.046464044600725174, -0.16512461006641388, -0.14278459548950195,
0.3965013027191162, -0.006433784496039152, -0.10896461457014084, 0.16299594938755035, 0.1630307137966156, 0.17425277829170227, -0.004594157915562391, 0.1053721085190773, 0.06179887801408768, 0.003930612932890654, -0.03919094428420067, -0.07329515367746353, 0.1288517415523529, -0.32745182514190674, 0.24280470609664917, -0.12549155950546265, -0.27360373735427856, -0.010891953483223915, -0.3702693581581116, -0.20428162813186646, 0.14656126499176025, -0.2843947112560272, 0.013692292384803295, 0.05787529796361923, -0.5092334151268005, -0.15008114278316498, -0.22243447601795197, 0.0010732212103903294, -0.07818564027547836, 0.161211296916008, 0.01542263850569725, 0.018938418477773666, 0.08834070712327957, -0.19283440709114075, 0.0954943299293518, 0.1067286878824234, -0.25107917189598083, 0.030711133033037186, 0.21602332592010498, -0.010557372123003006, 0.31239748001098633, 0.05432874336838722, -0.09149234741926193, 0.29137787222862244, -0.34508001804351807, -0.018926149234175682, -0.3088892996311188, -0.04867308959364891, 0.2492620050907135, -0.35764002799987793, 0.2489890456199646, -0.05249020829796791, 0.07507743686437607, 0.30393630266189575, 0.07446776330471039, 0.01025835145264864, -0.8911457657814026, -0.016002114862203598, -0.35331496596336365, -0.1040278896689415, 0.24307626485824585, -0.3401157855987549, 0.07137083262205124, 0.26464566588401794,
0.09623976796865463, 0.0017168887425214052, -0.09674704819917679, 0.29264187812805176, 0.16650865972042084, 0.12391965091228485, 0.11789673566818237, 0.041343364864587784, 0.031079331412911415, 0.10823742300271988, 0.15275537967681885, 0.2980513274669647, -0.2929820716381073, 0.01716318167746067, 0.06328769773244858, 0.07702414691448212, -0.08991722017526627, -0.4655475616455078, -0.08854128420352936, 0.10743160545825958, 0.3520636558532715, 0.22004325687885284, -0.06661587208509445, 0.09452977776527405, 0.04434002935886383, 0.036239348351955414, 0.17596280574798584, -0.1378193348646164, -0.42899224162101746, -0.3158329129219055, -0.2840746343135834, -0.10938215255737305, -0.12698495388031006, -0.04312378913164139, -0.5648235082626343, -0.018839219585061073, 0.4098255932331085, 0.026896145194768906, -0.2394925355911255, 0.2555602490901947, -0.293433278799057, -0.2022613137960434, 0.43806883692741394, 0.27681681513786316, 0.04880654811859131, -0.009231066331267357, -0.1331910789012909, -0.3070692718029022, 0.024535153061151505, -0.093156598508358, 0.09895850718021393, -0.21891242265701294, 0.3689826726913452, -0.18857470154762268, -0.22159846127033234, -0.31504499912261963, 0.11384349316358566, 0.12744975090026855, -0.08047683537006378, -0.35059309005737305, -0.09033516049385071, 0.26797565817832947, -0.2742196321487427, 0.18274305760860443,
0.007143947295844555, -0.268994003534317, -0.3253853917121887, -0.22520211338996887, -0.2161031812429428, 0.18562628328800201, 0.1451740562915802, -0.12876355648040771, 0.34707075357437134, -0.074944868683815, 0.07604290544986725, 0.0130462646484375, 0.0802091434597969, 0.08293095231056213, -0.2148558497428894, -0.28755056858062744, -0.3751855194568634, -0.26523274183273315, -0.3179211914539337, 0.07143310457468033, -0.41350919008255005, 0.14260435104370117, -0.11324294656515121, -0.24336177110671997, -0.2152795046567917, -0.27820777893066406, -0.2563679814338684, -0.09250343590974808, -0.27235525846481323, 0.2564420998096466, -0.32876601815223694, 0.08089528232812881, -0.05358054116368294, -0.40981197357177734, -0.08031803369522095, -0.324015349149704, -0.40065041184425354, 0.07932952791452408, -0.25892624258995056, -0.3683943450450897, 0.24591799080371857, 0.01607230119407177, 0.10403997451066971, -0.036801017820835114, 0.016152963042259216, 0.2170248180627823, -0.5776225924491882, 0.015704017132520676, -0.4332028031349182, -0.1693384349346161, -0.14324676990509033, 0.2631538212299347, -0.15242645144462585, 0.19823762774467468, 0.49392950534820557, -0.5335497856140137, 0.0700397863984108, -0.36683014035224915, 0.030794735997915268, 0.014372840523719788, 0.030540047213435173, -0.156742125749588, 0.25752612948417664, 0.4389391541481018,
-0.2085835337638855, 0.2215157002210617, -0.28982701897621155, -0.3622191250324249, 0.029965955764055252, 0.16201187670230865, -0.41752275824546814, -0.0240800678730011, -0.2749163806438446, -0.2051103562116623, 0.2936388850212097, 0.4812397062778473, -0.12281350046396255, -0.3076547384262085, 0.1838696449995041, 0.1274314820766449, 0.44544288516044617, 0.2811645269393921, 0.12207265943288803, -0.07864680886268616, 0.02353128418326378, 0.16703520715236664, -0.11764723807573318, -0.3078399896621704, 0.22861891984939575, 0.3611387312412262, -0.015411772765219212, -0.07815282791852951, -0.2408197969198227, 0.1002904549241066, -0.17614175379276276, -0.5227394104003906, -0.23247085511684418, -0.138609379529953, -0.04081979766488075, 0.3690214455127716, -0.2064497172832489, 0.17964649200439453, -0.06902878731489182, 0.29060834646224976, 0.10929004848003387, 0.1747659295797348, -0.10106972604990005, -0.29799026250839233, -0.1621662676334381, 0.28371766209602356, 0.0186188742518425, -0.2794678807258606, 0.06395352631807327, -0.14306291937828064, 0.12631627917289734, -0.016506224870681763, 0.13153186440467834, -0.19992844760417938, -0.2912839651107788, -0.2232835441827774, 0.12532198429107666, 0.08208708465099335, 0.0853157490491867, -0.1816578060388565, -0.06411419063806534, 0.23324325680732727, 0.1376851499080658, 0.08637446910142899,
-0.07452309131622314, 0.11962386965751648, -0.007618637289851904, -0.05648752301931381, 0.2780318260192871, 0.5650640726089478, 0.03005203790962696, 0.312288373708725, 0.030077511444687843, 0.2397022843360901, -0.35052987933158875, 0.1298062652349472, -0.008666036650538445, 0.2503523826599121, -0.1864486187696457, -0.27760079503059387, -0.03388895466923714, -0.31692537665367126, -0.01735435612499714, -0.12339404970407486, -0.17236101627349854, -0.0580926351249218, 0.27832284569740295, 0.014613408595323563, 0.006999514997005463, -0.05637917295098305, 0.11656854301691055, -0.1741536408662796, -0.08590676635503769, 0.09357798844575882, 0.02609419822692871, 0.28903675079345703, -0.15231163799762726, 0.02221198007464409, -0.09384524077177048, -0.3555183410644531, -0.016046367585659027, 0.218318372964859, -0.44940900802612305, 0.019621245563030243, -0.11618924140930176, 0.004269591998308897, -0.008736832067370415, -0.21985816955566406, -0.1915634721517563, -0.4771074652671814, -0.167184516787529, 0.3302150368690491, -0.19443665444850922, -0.23300382494926453, -0.14753764867782593, -0.609246551990509, -0.3579244613647461, -0.3819800019264221, -0.27803006768226624, -0.40577808022499084, 0.004634843207895756, -0.009503764100372791, -0.3481704890727997, -0.17476007342338562, 0.11611240357160568, 0.25990885496139526, -0.5024774074554443, -0.2605186700820923,
-0.30670636892318726, -0.20298892259597778, -0.3310616612434387, 0.05420355871319771, 0.03542302921414375, 0.19809961318969727, -0.2927483916282654, -0.015021066181361675, -0.12082282453775406, -0.08954405784606934, 0.10422997921705246, 0.3225107192993164, -0.23957553505897522, 0.37431851029396057, -0.0043862005695700645, -0.048471517860889435, 0.08509189635515213, 0.19058167934417725, -0.42311254143714905, -0.1529209017753601, -0.0729387104511261, -0.044523708522319794, -0.2973960340023041, -0.4029659628868103, 0.1454395055770874, 0.07695630937814713, 0.45443642139434814, -0.148292675614357, -0.1473289132118225, -0.2861476242542267, -0.35972684621810913, -0.3469557762145996, -0.40086883306503296, 0.2368742972612381, 0.36814090609550476, 0.22479982674121857, 0.029906364157795906, -0.10724974423646927, -0.37719184160232544, 0.21347947418689728, 0.015699513256549835, -0.32154470682144165, 0.23388218879699707, 0.15481610596179962, 0.24336834251880646, 0.028287038207054138, -0.22511298954486847, -0.04699143394827843, -0.016782555729150772, -0.31662842631340027, -0.21399632096290588, 0.09711996465921402, -0.17794378101825714, -0.0641513392329216, -0.17551696300506592, 0.018608804792165756, -0.027662085369229317, -0.3325801193714142, -0.4181027114391327, -0.24732597172260284, 0.33653929829597473, 0.015807919204235077, 0.304530531167984, -0.16589832305908203,
-0.4697737693786621, -0.358041912317276, -0.16435520350933075, 0.2568688690662384, -0.08696500211954117, 0.3377818167209625, -0.13907180726528168, 0.0566384382545948, -0.43375343084335327, -0.16839571297168732, 0.2314663678407669, -0.6545504927635193, 0.30973342061042786, -0.35403648018836975, 0.2282925695180893, 0.2161484956741333, -0.12243574112653732, -0.31781646609306335, -0.3065486550331116, -0.16593274474143982, -0.2185174524784088, 0.2849503755569458, -0.24691791832447052, -0.06530484557151794, 0.2399623990058899, 0.1890391856431961, -0.1966703236103058, -0.1688232570886612, 0.14559638500213623, 0.27689746022224426, 0.09284815192222595, 0.3355717062950134, 0.013351064175367355, 0.030572768300771713, 0.10502973943948746, -0.5522300004959106, 0.1120428740978241, -0.10708973556756973, -0.2389809936285019, -0.15015773475170135, -0.1069689467549324, -0.142067551612854, 0.14255768060684204, -0.3781485855579376, -0.023687386885285378, 0.1719953566789627, 0.24480699002742767, 0.029307257384061813, 0.08920402079820633, 0.012473921291530132, -0.2366272360086441, -0.496542751789093, -0.06831610202789307, -0.1375017613172531, -0.09704490005970001, 0.29702338576316833, 0.12636810541152954, 0.10996032506227493, 0.029061634093523026, 0.0507260225713253, 0.30315837264060974, -0.0199102945625782, -0.09860648959875107, -0.2196510136127472,
0.4357900321483612, 0.1469024121761322, 0.005247208755463362, -0.07936528325080872, -0.07233463227748871, 0.08930027484893799, 0.002331592608243227, 0.08213777095079422, 0.38937193155288696, 0.3759622275829315, -0.028951076790690422, -0.5666540265083313, 0.06682159006595612, -0.3291712999343872, 0.11010237038135529, -0.1901898831129074, 0.4033934473991394, 0.4421156346797943, -0.03770594298839569, -0.3741295635700226, 0.276029109954834, 0.05444173514842987, -0.24626202881336212, -0.5039422512054443, -0.05611441656947136, -0.2987188398838043, 0.056521330028772354, -0.1955837607383728, -0.012514318339526653, 0.08937254548072815, 0.12353470921516418, -0.30404338240623474, -0.17365436255931854, -0.45521700382232666, -0.23357436060905457, -0.2666581869125366, -0.18252785503864288, -0.15266819298267365, 0.16046731173992157, -0.342363178730011, -0.25779053568840027, -0.14148171246051788, -0.03363022208213806, -0.03495362773537636, 0.42891111969947815, 0.20484207570552826, -0.43008536100387573, -0.11253311485052109, 0.13907000422477722, -0.3614937663078308, 0.05865541473031044, 0.042870838195085526, -0.22420720756053925, 0.11486571282148361, -0.11597247421741486, -0.009775806218385696, 0.151495099067688, -0.15571953356266022, -0.1946292668581009, -0.13426241278648376, -0.1626235544681549, 0.10859422385692596, -0.08907809108495712, 0.3198699951171875,
-0.4775615334510803, 0.13213598728179932, 0.21054022014141083, -0.16777706146240234, 0.10414228588342667, -0.04749605059623718, 0.15262630581855774, -0.1676064431667328, -0.10073856264352798, 0.00869128666818142, -0.3545346260070801, 0.05950068309903145, 0.024282116442918777, 0.16158419847488403, -0.4149109125137329, -0.008956070058047771, 0.19338157773017883, -0.07183678448200226, 0.10577656328678131, 0.005154443439096212, -0.16899490356445312, 0.10161443054676056, -0.3705289959907532, 0.21508602797985077, -0.05159832909703255, -0.26973679661750793, -0.36956262588500977, -0.2127956748008728, 0.09834928065538406, -0.04302273690700531, -0.6053653955459595, -0.0698387548327446, 0.2575106918811798, -0.2558813989162445, 0.05877888202667236, 0.26611679792404175, -0.09920790046453476, -0.10195817798376083, 0.11990407109260559, 0.0003484827175270766, 0.12350146472454071, -0.14869439601898193, -0.04037485644221306, -0.010724494233727455, -0.022839732468128204, -0.36399537324905396, 0.06268235296010971, -0.2481960505247116, 0.48353317379951477, -0.07608919590711594, 0.2841620147228241, 0.24437417089939117, 0.05441796034574509, -0.0025003920309245586, 0.3533705770969391, 0.2351069152355194, -0.1444069892168045, -0.4657561480998993, -0.014831636101007462, -0.17947351932525635, 0.2933393716812134, -0.2945158779621124, -0.3979702889919281, 0.09109628945589066,
0.15069012343883514, -0.34893137216567993, 0.13926197588443756, -0.18038125336170197, 0.08727013319730759, 0.2545085549354553, 0.2709824740886688, -0.23714223504066467, -0.18331868946552277, -0.20141831040382385, -0.31731680035591125, -0.20245032012462616, -0.45765605568885803, -0.08944649249315262, 0.14665639400482178, 0.015633564442396164, -0.17664670944213867, -0.038092371076345444, 0.330582857131958, -0.16510894894599915, -0.28385835886001587, -0.13688130676746368, -0.30971023440361023, 0.06423252075910568, -0.24606531858444214, -0.10208913683891296, 0.006710937712341547, -0.08446040749549866, 0.04730801284313202, 0.20643100142478943, -0.24900376796722412, 0.02179946005344391, -0.3477535545825958, -0.12199333310127258, -0.6184560060501099, 0.3005530834197998, 0.23990358412265778, -0.4255439043045044, 0.18790468573570251, 0.1695863902568817, 0.42233002185821533, 0.13251255452632904, -0.1964024156332016, -0.24082709848880768, 0.15746243298053741, 0.11660611629486084, 0.20648637413978577, -0.0748257264494896, 0.44363218545913696, -0.23665031790733337, -0.06317242980003357, -0.09695172309875488, 0.051161833107471466, 0.006229350809007883, -0.11545757949352264, -0.07950323820114136, -0.22897495329380035, -0.11169837415218353, -0.27172791957855225, 0.004314972087740898, 0.006868366152048111, -0.15377388894557953, -0.05869340896606445, -0.14637736976146698,
-0.05325684696435928, -0.0496470183134079, -0.4661395847797394, 0.22781583666801453, 0.018210595473647118, 0.14349985122680664, -0.08292309939861298, 0.2603418231010437, -0.3920375108718872, 0.02551250346004963, -0.3647007644176483, 0.19701464474201202, -0.07927583903074265, 0.26170670986175537, -0.13556915521621704, 0.1741594672203064, -0.11912639439105988, -0.033754296600818634, -0.19545768201351166, 0.06398303061723709, 0.3479173183441162, -0.21417547762393951, 0.041466545313596725, -0.2347337156534195, -0.050746653228998184, 0.2668952941894531, 0.03442719951272011, -0.25883370637893677, -0.2464759349822998, -0.08697179704904556, -0.17466911673545837, -0.04796983674168587, -0.10450246185064316, -0.03589655086398125, -0.15899233520030975, 0.14371979236602783, -0.19163432717323303, 0.2041875123977661, 0.551090657711029, -0.0933627113699913, -0.3100197911262512, -0.24529261887073517, 0.020358610898256302, -0.4156263768672943, -0.13105131685733795, -0.06956468522548676, 0.18083007633686066, -0.003558197757229209, -0.13841573894023895, -0.3898386061191559, 0.08863244950771332, -0.5048857927322388, 0.06030314043164253, -0.4063984453678131, -0.41410577297210693, -0.17956621944904327, 0.1797630488872528, 0.25446420907974243, 0.26411327719688416, 0.22748111188411713, 0.3172540068626404, -0.02644922398030758, -0.04756927490234375, 0.07045265287160873,
0.022755874320864677, -0.1832045465707779, -0.32190126180648804, 0.14565667510032654, 0.07904210686683655, 0.16930191218852997, -0.20930908620357513, -0.021079763770103455, -0.1784357875585556, 0.026049833744764328, 0.12744028866291046, 0.6282396912574768, -0.07015029340982437, 0.035610347986221313, 0.11179714649915695, -0.2654697597026825, 0.02549455501139164, 0.07713392376899719, -0.10935629904270172, 0.03261850029230118, 0.5049206018447876, -0.048199448734521866, 0.02765955962240696, -0.052759088575839996, 0.21382245421409607, -0.22012080252170563, -0.14932355284690857, -0.24374030530452728, 0.026126310229301453, 0.23708496987819672, 0.21320371329784393, 0.11664369702339172, -0.3480128049850464, 0.16935603320598602, -0.6857404112815857, 0.020411621779203415, -0.1572762280702591, -0.2778431475162506, -0.08607491850852966, 0.13648679852485657, -0.5430362820625305, 0.09769685566425323, -0.02411791682243347, 0.16914574801921844, -0.15819151699543, -0.10033777356147766, -0.04203541576862335, -0.2567838728427887, 0.04400118812918663, -0.05172319710254669, -0.021110136061906815, 0.21118077635765076, 0.07973475009202957, -0.14955678582191467, -0.3176616430282593, -0.23031005263328552, 0.5237621665000916, -0.01576981693506241, -0.04774751514196396, -0.26859796047210693, 0.04479704052209854, -0.2564736306667328, 0.5111967921257019, -0.3252098858356476,
-0.41937166452407837, 0.17550991475582123, 0.013893742114305496, 0.07653864473104477, 0.23275065422058105, -0.0966087356209755, -0.02563389204442501, -0.5074790120124817, 0.18296493589878082, 0.13560700416564941, -0.367911696434021, -0.14382125437259674, 0.02096155472099781, 0.23325757682323456, 0.25309863686561584, 0.012756217271089554, -0.16308444738388062, -0.07225480675697327, -0.39051491022109985, 0.26243582367897034, -0.2434665858745575, -0.033407289534807205, 0.03264525905251503, -0.10410861670970917, 0.19556936621665955, -0.14837972819805145, 0.34442129731178284, -0.4521723687648773, 0.03771801292896271, 0.1680983155965805, 0.11621630936861038, 0.05032967031002045, -0.12581031024456024, -0.1402970850467682, 0.011022213846445084, -0.012235141359269619, -0.43506211042404175, -0.1584467738866806, 0.05643745884299278, 0.21478040516376495, -0.27247050404548645, 0.08193455636501312, -0.11681579053401947, 0.5838642120361328, -0.10547907650470734, 0.10407476127147675, 0.10585545748472214, -0.021233759820461273, 0.032811254262924194, 0.12679490447044373, 0.07486596703529358, 0.13987179100513458, -0.05517689883708954, 0.041526928544044495, 0.09594177454710007, -0.39825770258903503, 0.13076211512088776, 0.045129794627428055, -0.29957473278045654, -0.14322412014007568, -0.01518618781119585, 0.2579868733882904, -0.11708611994981766, 0.15732231736183167,
0.010654791258275509, 0.13368432223796844, -0.15873736143112183, 0.2665436565876007, -0.25724107027053833, 0.25852638483047485, -0.14868642389774323, 0.019918076694011688, 0.21177929639816284, 0.17893441021442413, -0.3089953064918518, 0.11329499632120132, -0.04509907215833664, -0.006861652713268995, -0.07149546593427658, 0.46102312207221985, -0.05710798129439354, 0.055449601262807846, 0.38231128454208374, -0.2239958792924881, 0.3159106969833374, -0.20216314494609833, -0.314175009727478, 0.07628006488084793, -0.07137461006641388, 0.1580229550600052, -0.09706076234579086, 0.10020686686038971, 0.26830676198005676, -0.020029794424772263, -0.039586037397384644, -0.4977606236934662, -0.23051407933235168, 0.03077421337366104, 0.10264875739812851, -0.19584056735038757, 0.28551021218299866, 0.06503913551568985, -0.38232025504112244, -0.15826205909252167, -0.380636602640152, 0.434091180562973, -0.0023870666045695543, 0.041892316192388535, -0.09768121689558029, 0.367039293050766, 0.24780163168907166, -0.1952722668647766, -0.07873984426259995, 0.36041000485420227, -0.47269538044929504, 0.2232550084590912, -0.19714057445526123, -0.12509030103683472, 0.006556500215083361, -0.2792666554450989, -0.049796316772699356, 0.17156369984149933, 0.04377402737736702, -0.10517347604036331, 0.040485087782144547, -0.20183129608631134, -0.24618732929229736, 0.39972254633903503,
0.07399574667215347, 0.06948262453079224, 0.11489113420248032, -0.31701594591140747, 0.009602894075214863, -0.04887834191322327, 0.19421249628067017, 1.4417337297345512e-05, -0.7436525821685791, 0.12241102010011673, -0.08488871902227402, -0.2126014232635498, 0.16884289681911469, 0.2695479691028595, 0.18856537342071533, -0.11601580679416656, -0.08214166015386581, 0.19335630536079407, -0.29812389612197876, -0.07393961399793625, 0.08817218244075775, -0.0890917181968689, 0.10806717723608017, 0.40458232164382935, -0.14242754876613617, 0.03841647505760193, -0.130266934633255, 0.1305834949016571, 0.008124502375721931, 0.07290977984666824, -0.31223639845848083, 0.06914353370666504, -0.09376683831214905, -0.19665485620498657, -0.6916624307632446, -0.12948663532733917, -0.01794634573161602, 0.20369602739810944, 0.33528685569763184, -0.2458900511264801, 0.09007354080677032, -0.05846522003412247, 0.3139762878417969, -0.19135037064552307, -0.12366948276758194, -0.24187400937080383, -0.6576119065284729, 0.32806527614593506, 0.1739717721939087, -0.2225910723209381, -0.2365472912788391, 0.06068245321512222, -0.23834967613220215, -0.5064123272895813, -0.1586754024028778, -0.14890553057193756, -0.09061083942651749, -0.07082728296518326, -0.13864192366600037, -0.3372015655040741, -0.259786993265152, 0.034155528992414474, -0.19019025564193726, 0.32145383954048157,
0.1658608317375183, -0.4107530415058136, 0.20017164945602417, -0.25728172063827515, -0.22380578517913818, -0.09252049773931503, -0.29291868209838867, 0.03396165743470192, -0.41981667280197144, 0.1842559278011322, -0.00828639604151249, 0.09237721562385559, -0.07177163660526276, 0.3877304196357727, 0.41393226385116577, -0.137979194521904, -0.4539533257484436, 0.11615824699401855, -0.7998098134994507, 0.14355069398880005, -0.07023176550865173, 0.09359876811504364, 0.464653342962265, -0.3132662773132324, -0.12923334538936615, -0.07629700750112534, -0.2977817952632904, -0.15106673538684845, -0.28948974609375, 0.21715034544467926, 0.00337703968398273, -0.03289777785539627, 0.11071570217609406, -0.3417589068412781, -0.19839560985565186, 0.053510915488004684, 0.3624977469444275, -0.056267138570547104, 0.008605584502220154, 0.20489612221717834, 0.058757178485393524, 0.10506404936313629, 0.37224337458610535, -0.08496817946434021, -0.07940411567687988, -0.3280032277107239, -0.02796326018869877, -0.46083688735961914, -0.04530783370137215, 0.058284658938646317, -0.09692824631929398, 0.007313283160328865, -0.19588834047317505, 0.2277594357728958, 0.032683152705430984, 0.0024684027303010225, 0.058315642178058624, 0.01979098469018936, 0.14727340638637543, 0.042859502136707306, -0.0847088173031807, -0.024411309510469437, 0.15506981313228607, 0.060925066471099854,
-0.38173210620880127, -0.026514817029237747, -0.06969717144966125, -0.3207901120185852, -0.23487907648086548, 0.12575547397136688, 0.2077637016773224, 0.0963655561208725, 0.1990029513835907, 0.1562434732913971, 0.1133921816945076, 0.018082227557897568, -0.12032567709684372, 0.26925230026245117, 0.3610467314720154, 0.06269747763872147, 0.0974067747592926, -0.24663278460502625, -0.18746685981750488, -0.130732461810112, -0.3045291006565094, 0.17105227708816528, -0.016905002295970917, -0.10826455801725388, 0.02430376410484314, -0.09881595522165298, 0.23113131523132324, 0.02987169846892357, 0.050219595432281494, 0.4041425287723541, 0.17711392045021057, -0.009841482155025005, 0.01910226047039032, -0.36412757635116577, -0.22461314499378204, 0.14073435962200165, -0.36638888716697693, 0.20777253806591034, 0.3201051950454712, 0.031007427722215652, -0.590191125869751, -0.2609408497810364, 0.11495531350374222, -0.16554175317287445, 0.15319837629795074, -0.08838864415884018, -0.1853744089603424, 0.206948921084404, 0.25094762444496155, -0.18004769086837769, -0.27533724904060364, -0.19977974891662598, 0.2450951784849167, -0.0016430020332336426, 0.21717776358127594, 0.11623859405517578, -0.4921996593475342, 0.2396937906742096, -0.17753061652183533, -0.1627378910779953, 0.1015523299574852, -0.43691787123680115, 0.14714400470256805, -0.35314950346946716,
0.1130802258849144, 0.0002884909335989505, -0.20149825513362885, -0.3220054805278778, 0.15642011165618896, -0.564950704574585, -0.3992767333984375, -0.19193163514137268, 0.21088539063930511, -0.195854052901268, -0.41558167338371277, -0.18352681398391724, -0.19087666273117065, 0.2627047598361969, 0.25767412781715393, -0.1807975322008133, -0.0818401649594307, 0.21976923942565918, -0.456665962934494, -0.36158519983291626, 0.07694946229457855, 0.4328014552593231, 0.062006812542676926, 0.15160994231700897, -0.28684166073799133, -0.09014728665351868, -0.4109799861907959, -0.11923245340585709, -0.11903417110443115, -0.02393384836614132, -0.10296736657619476, -0.10583683848381042, -0.009593797847628593, 0.3397863507270813, -0.005331723019480705, 0.09637950360774994, -0.06384459137916565, -0.017951088026165962, -0.07203119993209839, 0.023445503786206245, -0.16335429251194, -0.08687029778957367, -0.25992149114608765, -0.45390066504478455, -0.028838003054261208, -0.051479313522577286, 0.265115886926651, 0.27351129055023193, -0.0395246222615242, 0.037853993475437164, -0.17271451652050018, 0.2213592529296875, 0.40771299600601196, 0.041731566190719604, 0.010354704223573208, 0.2983112335205078, 0.1653643548488617, 0.28180643916130066, -0.04887549206614494, -0.1323775202035904, 0.01466106716543436, -0.13835592567920685, 0.2654497027397156, -0.23840507864952087,
-0.03135501220822334, 0.2569243609905243, -0.19219452142715454, -0.38555821776390076, 0.08610489964485168, 0.18444857001304626, 0.04623322933912277, 0.3830340802669525, -0.11326892673969269, 0.0400780513882637, 0.27202826738357544, -0.09716100990772247, -0.18703393638134003, -0.12090382725000381, 0.056367695331573486, -0.31975919008255005, 0.21261976659297943, -0.7690901756286621, -0.00162844592705369, -0.06253022700548172, 0.17505665123462677, -0.19417399168014526, -0.4487037658691406, -0.22816914319992065, 0.13969439268112183, 0.08221498876810074, 0.042111895978450775, -0.17456354200839996, 0.3147357106208801, -0.03052886202931404, -0.36717545986175537, -0.004372967407107353, -0.24619600176811218, -0.3009086549282074, 0.06978413462638855, 0.06090859696269035, 0.18015208840370178, -0.43970537185668945, 0.2944582998752594, -0.21320627629756927, -0.10785730183124542, -0.29975706338882446, 0.06718938052654266, -0.14707718789577484, -0.05714001506567001, -0.06671502441167831, 0.02940370887517929, 0.10025830566883087, -0.034635279327631, 0.12581631541252136, -0.1545284390449524, -0.41257771849632263, -0.17006996273994446, -0.11228412389755249, -0.35826972126960754, 0.032742828130722046, 0.42929011583328247, 0.4304056763648987, 0.018054742366075516, -0.23168835043907166, 0.15488284826278687, -0.20387987792491913, 0.23658770322799683, 0.10311761498451233,
-0.2763734459877014, -0.013500706292688847, -0.02324836514890194, -0.030019400641322136, 0.2793479561805725, 0.13013280928134918, -0.06943092495203018, -0.4129617512226105, -0.2566661834716797, 0.037376075983047485, 0.2826947271823883, 0.08869282156229019, -0.5450884699821472, 0.28722310066223145, 0.14807946979999542, 0.20940756797790527, -0.27898478507995605, -0.3186808228492737, 0.05543914809823036, 0.03790498897433281, -0.11438987404108047, -0.03574448823928833, -0.1683201938867569, 0.27451568841934204, -0.20997054874897003, -0.16360989212989807, 0.2804771363735199, -0.222078338265419, 0.0041169519536197186, -0.18545421957969666, 0.11519376188516617, -0.3784217834472656, -0.0184179674834013, -0.016921913251280785, 0.13599170744419098, 0.08072493970394135, -0.18662133812904358, -0.2434481829404831, -0.20329643785953522, -0.21244633197784424, -0.45158830285072327, 0.3157055377960205, 0.25822168588638306, -0.40769103169441223, 0.025187551975250244, 0.06810036301612854, -0.1174062192440033, 0.3447686433792114, -0.1476532369852066, 0.07412490248680115, 0.2387235313653946, 0.044122181832790375, -0.12468386441469193, 0.34464889764785767, -0.20874863862991333, -0.07181452959775925, 0.023144323378801346, 0.25000813603401184, 0.40702566504478455, 0.3565056324005127, 0.18170389533042908, -0.002851623808965087, -0.30238914489746094, 0.02538147009909153,
-0.03059406578540802, -0.23922832310199738, -0.09326915442943573, -0.17031694948673248, 0.0812288448214531, 0.18042601644992828, 0.08585135638713837, -0.19915591180324554, -0.6598714590072632, 0.06716500967741013, 0.1064109355211258, 0.0957716554403305, -0.5066543817520142, -0.3045656681060791, -0.24145328998565674, -0.4646754562854767, -0.19725416600704193, 0.4048726558685303, -0.48306307196617126, 0.1300336718559265, -0.38419991731643677, -0.22300536930561066, 0.3047029376029968, -0.6150787472724915, 0.16600319743156433, 0.12237917631864548, -0.19823093712329865, -0.025990452617406845, 0.017509298399090767, 0.24811898171901703, 0.21620343625545502, 0.1507856845855713, -0.08512008190155029, 0.24694707989692688, -0.5118533372879028, -0.2776406705379486, 0.11315061897039413, -0.024408990517258644, -0.5745912194252014, 0.04529848322272301, -0.1655965894460678, -0.3279772102832794, -0.029026752337813377, 0.23070020973682404, 0.13748814165592194, -0.33203306794166565, -0.29559773206710815, 0.004837935324758291, -0.20039871335029602, -0.020555928349494934, 0.030070835724473, 0.2524850070476532, -0.03413955867290497, 0.17500516772270203, -0.01459435187280178, -0.03424155339598656, 0.19111192226409912, 0.2551712393760681, -0.03034275583922863, -0.0404449999332428, 0.28114426136016846, -0.03595335781574249, 0.110736183822155, 0.39952796697616577,
