#include "neural_network.h"
#include <stdio.h>
#include <math.h>

const float weights_fc1[] = {
-0.43191927671432495, -0.0883718878030777, 0.20394665002822876, 0.07204099744558334, -0.04708441346883774, 0.14024411141872406, 0.02888360805809498, -0.2583042085170746, 0.007055807393044233, -0.04423699900507927, -0.3413850665092468, -0.2357700765132904, 0.33230116963386536, 0.08274517208337784, -0.017555754631757736, -0.06150363013148308, 0.5276942253112793, 0.06028945744037628, -0.07028284668922424, 0.30538246035575867,
0.02188788540661335, -0.6500713229179382, -0.005524400621652603, -0.2456243485212326, -0.059896450489759445, 0.06889957934617996, 0.1626054346561432, 0.375758558511734, -0.13914062082767487, -0.265312135219574, 0.01812702976167202, -0.10504409670829773, 0.670487642288208, 0.3124389052391052, -0.4207753539085388, -0.21586959064006805, 0.11299002915620804, -0.21704255044460297, 0.26581376791000366, 0.040531255304813385,
0.11599244177341461, 0.19575728476047516, 0.22235341370105743, 0.21401318907737732, 0.08550631999969482, 0.24605078995227814, -0.28675711154937744, -0.5879402160644531, -0.19042038917541504, -0.032552607357501984, 0.08422597497701645, 0.5089719295501709, 0.2062503695487976, 0.07676904648542404, 0.16037456691265106, -0.19633950293064117, -0.40657559037208557, 0.21455128490924835, 0.23024313151836395, 0.22972674667835236,
-0.22417141497135162, 0.36881011724472046, 0.5556416511535645, -0.2711728811264038, 0.05673980712890625, 0.13737131655216217, -0.0033275808673352003, 0.10403986275196075, 0.08716756850481033, 0.01856948249042034, 0.07492156326770782, -0.1448148787021637, -0.16345538198947906, 0.07484797388315201, -0.4516579806804657, 0.03532758727669716, 0.6355130672454834, 0.08467709273099899, -0.05243535712361336, 0.3668860197067261,
0.3782360553741455, 0.033289819955825806, -0.379279226064682, 0.04027621075510979, 0.04849765822291374, -0.18692466616630554, -0.05262003093957901, 0.4666129946708679, -0.8892831206321716, -0.036742135882377625, 0.0848236232995987, 0.03458308428525925, -0.4913100004196167, -0.03405441716313362, -0.2331906259059906, 0.37140795588493347, -0.09086538106203079, -0.2439291626214981, 0.273343563079834, -0.27105772495269775,
0.07657591998577118, -0.1078285425901413, -0.5671358108520508, 0.03929154574871063, -0.13372884690761566, -0.4310021996498108, -0.21217553317546844, -0.0016666839364916086, -0.37461385130882263, 0.019908329471945763, -0.06676308810710907, -0.10528156161308289, 0.2595229148864746, -0.12260977923870087, -0.30583563446998596, -0.13320375978946686, 0.08978448063135147, 0.4426535367965698, 0.035462599247694016, 0.02235257811844349,
0.0812801718711853, 0.08971083164215088, -0.1880655735731125, 0.07681161910295486, 0.07760684937238693, -0.34734392166137695, -0.1723656952381134, -0.020242342725396156, -0.33117878437042236, 0.012759369798004627, 0.25238242745399475, -0.2571214437484741, 0.19779570400714874, 0.44175654649734497, -0.2796172499656677, -0.5768097043037415, -0.26749566197395325, 0.07465793937444687, -0.02590637095272541, 0.16588811576366425,
-0.4242178499698639, 0.005864904262125492, 0.1538657546043396, -0.07441071420907974, 0.27618131041526794, -0.21974384784698486, 0.24026085436344147, -0.1221158504486084, -0.1347111016511917, 0.07660804688930511, -0.029972132295370102, 0.11022727936506271, -0.6087302565574646, -0.26290974020957947, 0.18125145137310028, -0.037017446011304855, 0.2791033387184143, -0.06975383311510086, 0.11378837376832962, -0.329111248254776,
-0.1658102422952652, 0.759483814239502, -0.0816175639629364, 0.12634864449501038, 0.03135903179645538, -0.13998541235923767, 0.1470893919467926, -0.425782173871994, 0.8971618413925171, -0.04088309034705162, -0.1763921082019806, 0.04079950600862503, 0.3590124547481537, -0.507612943649292, 0.3248666524887085, -0.27506062388420105, 0.026053613051772118, 0.0008888422744348645, -0.013173675164580345, 0.044465772807598114,
-0.3479197323322296, 0.2527037560939789, -0.17690546810626984, -0.1889803260564804, 0.35075876116752625, -0.16645970940589905, 0.2737557888031006, -0.19092750549316406, 0.18208998441696167, 0.06177245080471039, -0.17644084990024567, -0.03285849466919899, -0.08640234172344208, -0.587510347366333, 0.31950873136520386, 0.324336439371109, -0.027051612734794617, 0.286476194858551, -0.03887755423784256, -0.015571584925055504,
0.10744578391313553, -0.13687200844287872, -0.16465504467487335, 0.0149619672447443, -0.0710427388548851, -0.3560928404331207, -0.1539759337902069, 0.5761900544166565, 0.5929028391838074, -0.020148316398262978, 0.09429600834846497, 0.17062950134277344, 0.39196330308914185, -0.1503351777791977, 0.3679483234882355, -0.018020587041974068, -0.2791709899902344, -0.04846478998661041, -0.24099263548851013, -0.20215272903442383,
0.5311986207962036, -0.38621819019317627, 0.43388494849205017, 0.18080127239227295, -0.08155402541160583, 0.18968188762664795, -0.40001142024993896, 0.3235124349594116, 0.24628512561321259, -0.01646888628602028, 0.13456928730010986, 0.02983596920967102, 0.09589975327253342, 0.0740867555141449, -0.39951348304748535, -0.15835508704185486, -0.1338770091533661, -0.06577512621879578, -0.1358790546655655, 0.4583674669265747,
-0.27111080288887024, -0.4605518877506256, 0.9254653453826904, 0.06296484917402267, 0.017279623076319695, 0.10415294766426086, -0.07893673330545425, 0.3161250352859497, -0.9900784492492676, -0.021020963788032532, 0.013997477479279041, -0.016141559928655624, -0.15435664355754852, -0.06662832945585251, 0.15261106193065643, -0.5133860111236572, 0.34778669476509094, 0.307025671005249, -0.36308005452156067, -0.19191735982894897,
0.17630699276924133, -0.5326123833656311, -0.3221805989742279, 0.24756984412670135, -0.030766136944293976, -0.3751901686191559, 0.10083964467048645, -0.325506329536438, -0.2980530858039856, -0.09350454807281494, -0.20604339241981506, 0.167040154337883, -0.02504800632596016, -0.06962742656469345, 0.07005330920219421, -0.31620359420776367, -0.5273075103759766, 0.13520774245262146, -0.24738460779190063, 0.11929617077112198,
-0.06412266939878464, 0.024671364575624466, -0.48636394739151, 0.1559431105852127, -0.06884352117776871, -0.09613768011331558, 0.37296077609062195, -0.18610137701034546, 0.43383023142814636, 0.20611868798732758, 0.10021968185901642, -0.17146514356136322, -0.47875961661338806, -0.13754579424858093, 0.1815648376941681, 0.18304301798343658, 0.3418000042438507, -0.1577889621257782, -0.0688185915350914, 0.01211583986878395,
-0.46123984456062317, -0.35307252407073975, 0.535646378993988, 0.09747215360403061, -0.17542000114917755, 0.021581551060080528, -0.23652967810630798, 0.14556236565113068, 0.5412119626998901, -0.06456032395362854, 0.13599753379821777, 0.3123615086078644, -0.14727018773555756, 0.09676861017942429, -0.28104740381240845, -0.0855846256017685, 0.3030633330345154, 0.30756619572639465, 0.09506674855947495, 0.28463226556777954,
0.09367110580205917, 0.28515493869781494, 0.052465904504060745, -0.2449435144662857, 0.05835483595728874, -0.058482807129621506, 0.1102304607629776, 0.01486825942993164, -0.25970715284347534, -0.2615548372268677, -0.25209540128707886, -0.13968265056610107, 0.7028582692146301, 0.2408495545387268, 0.10783948004245758, -0.20163118839263916, -0.415412038564682, -0.045574821531772614, 0.35584351420402527, -0.04747810214757919,
0.23143824934959412, -0.5029170513153076, 0.732607901096344, 0.2581157684326172, 0.10844945907592773, -0.044242214411497116, 0.358824759721756, -0.3246479332447052, -0.06353898346424103, 0.011978954076766968, 0.0733254924416542, -0.2182522863149643, 0.09716297686100006, -0.5616899728775024, 0.20917277038097382, -0.11170706897974014, -0.13836678862571716, 0.19507429003715515, -0.2499106228351593, 0.14822976291179657,
-0.3511357009410858, 0.4886966943740845, -0.05698709934949875, -0.09457039088010788, 0.35266438126564026, -0.40474453568458557, -0.11512593179941177, 0.3217734694480896, 0.32405251264572144, -0.05687224492430687, -0.03736904263496399, -0.10816656798124313, -0.03527871519327164, 0.20402686297893524, -0.09166277199983597, 0.1161060482263565, -0.04623642563819885, 0.2224765121936798, -0.20801426470279694, 0.21306847035884857,
0.06009509041905403, 0.0471736304461956, -0.590697705745697, -0.40549376606941223, -0.052759576588869095, -0.23346683382987976, -0.44624707102775574, 0.01823037676513195, -0.14509958028793335, 0.002895865822210908, 0.13551445305347443, 0.5887635350227356, 0.5697132349014282, 0.1456330567598343, 0.16908670961856842, -0.12506945431232452, 0.12599191069602966, 0.1439024955034256, 0.02971515618264675, -0.028085460886359215,
0.35486334562301636, 0.033658456057310104, 0.6366994380950928, 0.10917328298091888, -0.004092633258551359, 0.2923557460308075, -0.097793348133564, -0.5190817713737488, -0.30775678157806396, 0.2154773324728012, -0.11197739094495773, 0.1596313714981079, -0.6910581588745117, -0.38878700137138367, 0.18823298811912537, -0.2573895752429962, -0.3592444956302643, -0.2849288582801819, -0.001389797544106841, 0.2161986529827118,
-0.29584985971450806, 0.29388317465782166, 0.3607321083545685, -0.2632422149181366, 0.015265527181327343, 0.022435950115323067, -0.21890899538993835, -0.2771473824977875, 0.14555327594280243, -0.017463628202676773, 0.028197847306728363, -0.2601192593574524, 0.022890262305736542, 0.05070868134498596, 0.40641629695892334, -0.06652234494686127, -0.18469911813735962, 0.1431838572025299, -0.06867644190788269, -0.024732373654842377,
-0.06861092150211334, -0.41089174151420593, -0.5230103731155396, -0.013148966245353222, -0.11566943675279617, -0.07002726942300797, -0.2443283349275589, -0.5477374792098999, -0.6789992451667786, 0.012984097935259342, -0.030582111328840256, -0.268743634223938, 0.33778390288352966, -0.34370264410972595, 0.47635993361473083, -0.08853087574243546, 0.12064629793167114, 0.2728612720966339, 0.14940465986728668, 0.066355399787426,
-0.3882065415382385, -0.17561137676239014, -0.3603987693786621, -0.04123814404010773, 0.10420989245176315, -0.061010852456092834, 0.23772861063480377, 0.4607524573802948, -0.10512338578701019, -0.22265541553497314, 0.09682247042655945, 0.12495574355125427, -0.5516958236694336, 0.41681134700775146, -0.22684524953365326, 0.6869194507598877, 0.1475205421447754, -0.21044059097766876, -0.0011942783603444695, 0.19031083583831787,
0.41880980134010315, -0.3917925953865051, 0.13326777517795563, 0.045110516250133514, -0.28195545077323914, -0.21669384837150574, 0.4015205204486847, -0.22763535380363464, 0.08419182151556015, 0.006031814496964216, 9.00738377822563e-05, 0.14506487548351288, -0.3457580506801605, -0.18500176072120667, 0.15234477818012238, 0.2033362090587616, -0.07727856189012527, -0.008486717008054256, -0.133146733045578, -0.11973259598016739,
0.08200211077928543, 0.2643274962902069, 0.17087818682193756, 0.08150901645421982, 0.09571628272533417, 0.1019577607512474, -0.08947666734457016, 0.38515380024909973, -0.007719481363892555, 0.05331728979945183, 0.12458597868680954, 0.24480655789375305, -0.242756187915802, 0.19601815938949585, -0.5175063610076904, 0.22807683050632477, 0.6306281089782715, -0.24452419579029083, 0.09994474053382874, -0.28933265805244446,
0.2453165501356125, 0.7397512197494507, 0.5562252402305603, 0.06898630410432816, 0.21948064863681793, -0.1778467446565628, -0.3340756297111511, -0.19724108278751373, 0.5609216690063477, 0.028660517185926437, -0.04040548577904701, -0.0016897849272936583, 0.09135529398918152, -0.42465001344680786, -0.005699610337615013, -0.11719349771738052, -0.32092490792274475, -0.17419593036174774, 0.03147350996732712, 0.07968085259199142,
0.43036696314811707, -0.3278895616531372, -0.2818489372730255, 0.16957636177539825, -0.0445549376308918, 0.03360699862241745, -0.3414285480976105, -0.0874154195189476, 0.018717486411333084, -0.1221022829413414, -0.24908246099948883, 0.3037900924682617, -0.21220137178897858, -0.31591981649398804, 0.005534215364605188, 0.08537952601909637, -0.25728821754455566, -0.36554232239723206, -0.3415619730949402, 0.09247050434350967,
-0.01960613578557968, -0.40494170784950256, -0.2506541609764099, 0.003803666913881898, -0.12416497617959976, -0.524511456489563, 0.36094534397125244, -0.19362302124500275, 0.16906960308551788, 0.0024254461750388145, -0.03886943310499191, -0.10881991684436798, 0.07396042346954346, 0.12404116243124008, 0.26114973425865173, 0.0444980151951313, 0.6001591086387634, -0.41238877177238464, 0.06581947952508926, -0.0002490254701115191,
-0.5893295407295227, -0.29470765590667725, -0.5685817003250122, -0.1317608654499054, -0.39358896017074585, -0.03017377480864525, -0.32431691884994507, 0.2678108811378479, -0.36047878861427307, 0.03133830055594444, 0.21380220353603363, -0.07578377425670624, -0.06168041750788689, 0.21667250990867615, -0.11944422125816345, 0.4599097669124603, -0.08355507999658585, -0.19596678018569946, -0.32438212633132935, -0.2881753742694855,
-0.2524318993091583, 0.0024986315984278917, 0.25393471121788025, -0.18265485763549805, -0.1121147945523262, 0.10623054206371307, 0.5563100576400757, 0.5155615210533142, 0.5255440473556519, 0.1270465850830078, -0.008383954875171185, -0.018672525882720947, -0.22859373688697815, -0.19993844628334045, 0.19360321760177612, 0.11567223072052002, 0.2557413876056671, 0.3579287528991699, -0.014051749370992184, 0.179951012134552,
0.38779526948928833, 0.1832612305879593, 0.6864394545555115, 0.20702709257602692, 0.09554790705442429, 0.12663041055202484, -0.0015843854052945971, 0.04102526232600212, 0.5478093028068542, -0.07410537451505661, -0.11738061159849167, 0.06267695873975754, 0.1172596663236618, -0.22755521535873413, 0.1744939535856247, -0.20547623932361603, -0.15457159280776978, -0.014835684560239315, -0.18248265981674194, -0.24632588028907776,
0.13301849365234375, -0.29533711075782776, -0.36659494042396545, 0.169083371758461, 0.1983497142791748, -0.16924236714839935, -0.26249608397483826, 0.14479954540729523, -0.027413347736001015, 0.09247436374425888, -0.11442629247903824, 0.015639467164874077, -0.17722353339195251, 0.12682214379310608, -0.2932203412055969, 0.0069940583780407906, 0.1346708983182907, 0.3017779588699341, 0.09824308007955551, 0.1481480896472931,
0.07829957455396652, 0.004562812857329845, -0.31926989555358887, 0.1509377807378769, -0.03648985177278519, -0.2372814267873764, -0.019081057980656624, 0.049193304032087326, -0.04558051377534866, -0.02234729193150997, 0.08374643325805664, -0.526270866394043, -0.2819075882434845, -0.10775391012430191, 0.16810113191604614, 0.34285634756088257, -0.23833733797073364, 0.08857990801334381, 0.18745511770248413, -0.19625811278820038,
-0.31478360295295715, 0.3419356048107147, 0.6668562889099121, 0.05630311742424965, 0.22362788021564484, 0.3132874369621277, -0.7649161219596863, 0.021681085228919983, -0.005013084504753351, -0.14617003500461578, -0.060728006064891815, -0.07283700257539749, 0.20562365651130676, 0.04530288651585579, -0.32501184940338135, -0.446418434381485, 0.08497728407382965, -0.11814355850219727, 0.05606517568230629, 0.08749200403690338,
-0.2205190360546112, 0.2027108520269394, 0.15224696695804596, 0.27543628215789795, 0.19373849034309387, 0.27899402379989624, -0.1760038137435913, 0.35999202728271484, -0.09126631170511246, 0.11127346009016037, -0.06389588862657547, 0.14698395133018494, 0.22915147244930267, -0.7877224087715149, -0.08195781707763672, -0.043334249407052994, -0.040328655391931534, -0.1989031434059143, -0.181902214884758, -0.09834317862987518,
-0.34374314546585083, 0.14042158424854279, 1.2201281785964966, 0.23059684038162231, -0.14271248877048492, 0.28399088978767395, -0.24987897276878357, 0.002303499262779951, 0.005383368115872145, -0.02791484259068966, 9.777364175533876e-05, 0.01186611969023943, 0.21691033244132996, -0.07418607175350189, -0.09080787748098373, -0.26923978328704834, 0.10584308207035065, 0.041753508150577545, 0.10831154882907867, -0.29093196988105774,
-0.10782451927661896, 0.031510330736637115, -0.3205830752849579, -0.26570627093315125, 0.10855144262313843, -0.0349184051156044, -0.32488781213760376, -0.5658560991287231, -0.555779755115509, -0.08404023200273514, 0.041617002338171005, -0.10270339995622635, 0.38554736971855164, -0.08882047235965729, 0.04394961893558502, -0.06431394070386887, 0.03465098887681961, -0.30781200528144836, -0.003828272921964526, -0.1597215086221695,
-0.3484397232532501, 0.1615460216999054, -0.31667599081993103, -0.2868932783603668, -0.1271323561668396, -0.3492075800895691, -0.3665580749511719, 0.11626989394426346, -0.34338051080703735, 0.19031691551208496, -0.0021568359807133675, -0.038540154695510864, -0.0636836439371109, -0.16230809688568115, 0.4801517426967621, -0.06805692613124847, -0.05025626718997955, 0.09585726261138916, -0.08113140612840652, -0.01688542775809765,
0.06971874833106995, 0.47146138548851013, 0.8774280548095703, -0.21986179053783417, 0.1672942042350769, 0.38220465183258057, 0.12120800465345383, -0.4825945794582367, 0.2884492874145508, -0.06689233332872391, -0.08187472820281982, 0.10439524799585342, 0.46758848428726196, -0.05791968107223511, -0.015041906386613846, -0.19355294108390808, -0.03019660897552967, -0.0161438025534153, -0.36179211735725403, -0.22529134154319763,
-0.01856512762606144, -0.3842237889766693, -0.41947686672210693, -0.4791560173034668, 0.24623894691467285, -0.025483958423137665, -0.15827450156211853, -0.3129575550556183, -0.5542963743209839, 0.09560074657201767, -0.17492656409740448, -0.28132790327072144, 0.30433398485183716, 0.7652134895324707, 0.0015212616417557001, 0.14645078778266907, -0.12226901948451996, 0.014918234199285507, -0.2165372520685196, 0.07624343037605286,
-0.4839601218700409, -0.45330655574798584, 0.4754529595375061, 0.06250914931297302, -0.13847865164279938, 0.18758267164230347, -0.1454017460346222, -0.6937882304191589, -0.2817032039165497, 0.03592899814248085, -0.08948323130607605, 0.21781498193740845, 0.27416789531707764, -0.33484017848968506, -0.00275013642385602, -0.7392942905426025, -0.17471803724765778, -0.08919740468263626, 0.42099812626838684, 0.017554447054862976,
0.11329126358032227, 0.1065857782959938, 0.43915098905563354, -0.18333333730697632, -0.05031806230545044, -0.043859731405973434, -0.46796923875808716, 0.39126721024513245, -0.0001505563996033743, 0.0014575573150068521, -0.13947631418704987, -0.10283072292804718, -0.08606137335300446, 0.46774235367774963, -0.05087756738066673, 0.31716662645339966, 0.3979182243347168, -0.007704541552811861, 0.1974923312664032, -0.06523273885250092,
0.19855181872844696, -0.1086861714720726, 0.020369792357087135, -0.18394678831100464, 0.18938297033309937, -0.22214572131633759, 0.28337234258651733, -0.1075388491153717, 0.14905263483524323, 0.033723149448633194, -0.08069721609354019, 0.33473098278045654, 0.9828503727912903, 0.11232350766658783, -0.10790667682886124, 0.03830019012093544, 0.17134864628314972, 0.09147883206605911, 0.0809144675731659, -0.06711617857217789,
-0.1370590478181839, 0.10856450349092484, 0.20086605846881866, -0.07254538685083389, 0.07398516684770584, 0.11767607182264328, -0.37621602416038513, -0.19114471971988678, 0.7384513020515442, 0.05058390647172928, -0.030829444527626038, -0.04871628060936928, 0.20014601945877075, -0.18341101706027985, 0.20549824833869934, -0.3458751142024994, -0.24932660162448883, 0.09640375524759293, 0.2784213125705719, -0.11002980172634125,
-0.1409631222486496, 0.06101809814572334, -0.6362003684043884, -0.09029483050107956, -0.039780739694833755, 0.22165322303771973, -0.37224477529525757, 0.31822580099105835, 0.18677157163619995, 0.06907496601343155, -0.08373717218637466, 0.109733447432518, -0.09566661715507507, -3.9577560528414324e-05, 0.2394651621580124, 0.296846866607666, 0.03951992839574814, -0.57358717918396, -0.127180814743042, -0.1835796982049942,
0.1285645216703415, -0.35849854350090027, -0.0029372547287493944, 0.18413443863391876, -0.195426344871521, -0.11394314467906952, -0.41235631704330444, -0.14195340871810913, 0.06669909507036209, -0.008644881658256054, -0.06404117494821548, 0.025941595435142517, -0.4153411090373993, 0.4720269441604614, -0.5840636491775513, -0.05849158763885498, 0.17458127439022064, 0.1978941410779953, -0.045163773000240326, 0.2374747097492218,
-0.2873040735721588, -0.7319791913032532, -0.23148652911186218, -0.278402179479599, -0.45295947790145874, -0.2702072858810425, -0.2763197124004364, -0.5363540649414062, -0.242288276553154, -0.06101272627711296, -0.04975661262869835, 0.053000107407569885, 0.010172349400818348, 0.16171112656593323, -0.3910793960094452, -0.3352644443511963, -0.10396556556224823, 0.07323619723320007, -0.18228736519813538, -0.1308097243309021,
0.04945768415927887, -0.33566346764564514, 0.11173256486654282, -0.21861231327056885, -0.057791147381067276, -0.39039409160614014, -0.34717056155204773, 0.1813804656267166, -0.48169249296188354, -0.17833244800567627, -0.13710390031337738, 0.03379654139280319, -0.011897053569555283, 0.28341177105903625, 0.17514774203300476, -0.007772425189614296, 0.20046746730804443, -0.033330753445625305, -0.07669990509748459, -0.1149979755282402,
-0.19484098255634308, 0.26618412137031555, 0.7226505279541016, 0.02174784243106842, -0.011819923296570778, 0.25722214579582214, 0.4068659543991089, 0.5700835585594177, -0.2094845473766327, 0.01148309838026762, 0.060354821383953094, -0.17885588109493256, 0.014798694290220737, -0.3339896500110626, 0.38646963238716125, -0.23268060386180878, -0.2650987207889557, 0.0016556904884055257, 0.06697094440460205, 0.14580000936985016,
0.2859083116054535, -0.09980315715074539, -0.5636196732521057, 0.27205416560173035, -0.2418135553598404, 0.0450681671500206, 0.027683492749929428, 0.4936312437057495, 0.08998887985944748, 0.004740213975310326, -0.23032338917255402, -0.23753181099891663, -0.44109323620796204, 0.11450241506099701, 0.09205838292837143, 0.33655843138694763, -0.21706853806972504, -0.043265387415885925, 0.2597699761390686, -0.21664687991142273,
0.10786693543195724, 0.1861971765756607, 0.17057490348815918, -0.4154583513736725, -0.10517291724681854, -0.06758672744035721, -0.14644505083560944, 0.07097236812114716, 0.05713651701807976, -0.09935648739337921, -0.09649109095335007, -0.1279400885105133, -0.712224543094635, -0.9041780233383179, -0.04201915115118027, 0.0626458004117012, -0.20602907240390778, -0.28663456439971924, -0.020535845309495926, -0.07474616914987564,
-0.2604847252368927, 0.2505435347557068, -0.44784775376319885, 0.0770130529999733, 0.20670756697654724, -0.16342394053936005, 0.6552252173423767, -0.7651491165161133, 0.44675591588020325, 0.10260231792926788, 0.17819476127624512, -0.003999370615929365, -0.32283326983451843, -0.21038947999477386, 0.0637170597910881, 0.3450809419155121, -0.006704160012304783, -0.07882682234048843, 0.15368711948394775, -0.2048971951007843,
-0.2814704179763794, -0.11766607314348221, 0.2251162976026535, 0.12465885281562805, -0.0709349513053894, -0.266500324010849, -0.03807414695620537, 0.30589497089385986, 0.20662172138690948, -0.005924456752836704, -0.07340371608734131, 0.1481204777956009, -0.44275569915771484, 0.33209505677223206, -0.5272071361541748, 0.29756295680999756, -0.08392243832349777, -0.13214370608329773, 0.07180772721767426, -0.2760932147502899,
0.4036462604999542, 0.1845807433128357, 0.37622934579849243, 0.6114186644554138, 0.18010957539081573, 0.21630029380321503, 0.11830303817987442, 0.5063767433166504, -0.10989698767662048, -0.018215352669358253, -0.10696738958358765, -0.013917487114667892, -0.294319748878479, -0.25120770931243896, 0.000496173684950918, 0.049701739102602005, -0.6145315766334534, -0.10685654729604721, -0.07311694324016571, -0.15560373663902283,
-0.3891572654247284, 0.3320685923099518, -1.441819429397583, 0.025456156581640244, 0.07677615433931351, -0.22795887291431427, -0.024102410301566124, -0.2943119704723358, -0.19382344186306, -0.0930691510438919, 0.06906923651695251, -0.10261836647987366, -0.08822959661483765, 0.3143332898616791, -0.1853179633617401, -0.27907946705818176, 0.32447290420532227, -0.08422882109880447, 0.20335613191127777, 0.1862533837556839,
-0.19598111510276794, -0.08817481249570847, -1.071326732635498, 0.3129544258117676, 0.20515771210193634, 0.01278555765748024, -0.01222807727754116, 0.23576512932777405, -0.5940611958503723, 0.16563895344734192, -0.1377338021993637, 0.1482549011707306, 0.07313720136880875, -0.3923192620277405, 0.3829335570335388, -0.2112998217344284, 0.05307384952902794, -0.06045177951455116, 0.056619465351104736, 0.12558016180992126,
0.6015772819519043, -0.4403749406337738, 0.6880188584327698, -0.031018801033496857, 0.2044212967157364, 0.17076145112514496, 0.27886244654655457, 0.5428502559661865, -0.06620054692029953, 0.12386574596166611, 0.12064876407384872, 0.11145259439945221, -0.02897004596889019, -0.04885653406381607, 0.0417867936193943, -0.22932887077331543, -0.30578985810279846, -0.266785591840744, 0.25326305627822876, 0.22184988856315613,
0.08597464859485626, -0.0018778039375320077, 0.23494835197925568, -0.12826192378997803, -0.04654669389128685, -0.40597349405288696, 0.5725091099739075, 0.43089666962623596, -0.06795965135097504, 0.013029382564127445, -0.023324433714151382, 0.15248939394950867, -0.19898764789104462, 0.11718370020389557, 0.10267503559589386, 0.12935590744018555, -0.2660716474056244, -0.14628198742866516, -0.00429028645157814, 0.02830679900944233,
-0.003157957224175334, -0.07281958311796188, 0.32085105776786804, -0.2888224124908447, 0.09091559052467346, -0.2835237979888916, 0.013407557271420956, 0.5752497315406799, 0.29305726289749146, -0.23756033182144165, 0.06793384253978729, 0.26379626989364624, 0.00915402453392744, 0.055038876831531525, 0.006016225554049015, -0.10701549053192139, -0.062349144369363785, -0.0794546976685524, 0.09363120049238205, 0.1527222990989685,
-0.34681883454322815, 0.11846793442964554, 0.3096555173397064, -0.12311667203903198, 0.09176665544509888, 0.2101307213306427, 0.20126616954803467, 0.5977956652641296, 0.003134368918836117, 0.03878653421998024, 0.10551833361387253, 0.060361072421073914, -0.6431249380111694, 0.051566120237112045, -0.05768037214875221, 0.6653923392295837, 0.22906212508678436, 0.27561861276626587, 0.08851545304059982, -0.08115368336439133,
-0.4299805462360382, -0.010696373879909515, -0.020678268745541573, 0.018158532679080963, 0.02135225012898445, -0.16186903417110443, -0.7033689022064209, 0.20004206895828247, -0.1488063931465149, 0.06463966518640518, 0.07882067561149597, 0.10180843621492386, 0.07204460352659225, 0.4542020559310913, -0.38941651582717896, 0.009382572025060654, 0.18655885756015778, -0.1539893001317978, 0.02904624305665493, 0.3471139073371887,
-0.02404429204761982, -0.18745215237140656, 1.0669704675674438, -0.09444040805101395, -0.1341133415699005, 0.16646331548690796, 0.7770785689353943, 0.36330685019493103, -0.34230491518974304, 0.16000311076641083, -0.00974339246749878, 0.274567574262619, -0.04790615662932396, -0.10587935149669647, 0.3796490728855133, 0.16366033256053925, 0.014915759675204754, -0.15859881043434143, -0.27741295099258423, 0.2813616096973419,
0.3135372996330261, -0.15715302526950836, 0.19415386021137238, 0.13754159212112427, -0.04598727449774742, -0.24435968697071075, -0.3422386944293976, 0.12216778844594955, -0.7528789639472961, -0.002920047612860799, 0.0678081065416336, 0.10381606221199036, 0.144774928689003, -0.02548586018383503, -0.35204923152923584, 0.04047320783138275, -0.1635497659444809, -0.038990460336208344, -0.030376935377717018, 0.1392044723033905
};

const float biases_fc1[] = {
0.1824129819869995, -0.10172560065984726, -0.24112491309642792, 0.3741622567176819, 0.003951691091060638, -0.0255812369287014, -0.043551359325647354, 0.23515361547470093, -0.0010632156627252698, 0.016405373811721802, -0.19337007403373718, 0.08386235684156418, 0.1658964902162552, -0.24527867138385773, -0.07427962869405746, 0.2861674726009369, -0.20230281352996826, -0.0034306016750633717, 0.006527322344481945, 0.18653902411460876, -0.1098664402961731, -0.021510785445570946, 0.028322793543338776, 0.13351964950561523, 0.04076748713850975, 0.19959624111652374, -0.022893210873007774, -0.22211384773254395, 0.3357696533203125, 0.03460836037993431, 0.059814248234033585, -0.24185311794281006, -0.03089013695716858, -0.11854252219200134, -0.03518322482705116, -0.1552017480134964, 0.10279776155948639, -0.04502466693520546, -0.06725401431322098, -0.001942685805261135, -0.04713556915521622, -0.05296573042869568, 0.21850773692131042, 0.09242195636034012, -0.1148722842335701, -0.032176800072193146, 0.08504299819469452, 0.0561881884932518, 0.16313594579696655, 0.10109420120716095, -0.0798737183213234, -0.18208883702754974, 0.07446735352277756, 0.18075403571128845, -0.15338385105133057, 0.11443709582090378, -0.06966326385736465, -0.15261255204677582, 0.011919744312763214, -0.10910060256719589, 0.17974132299423218, 0.22149400413036346, -0.051986370235681534, -0.11863524466753006
};

const float weights_fc2[] = {
-0.3484713137149811, -0.28203144669532776, 0.19210459291934967, -0.11429409682750702, 0.3533551096916199, -0.0996345579624176, 0.008602212183177471, -0.03857719898223877, -0.5001192688941956, 0.07766078412532806, 0.04459516331553459, -0.04843384027481079, -0.05941547080874443, -0.24926652014255524, -0.12903115153312683, 0.18088464438915253, 0.06954294443130493, -0.054161928594112396, -0.09803199768066406, 0.24607551097869873, 0.023658569902181625, -0.044935837388038635, -0.10592055320739746, 0.09091362357139587, 0.3582531213760376, 0.10513781011104584, 0.05504808574914932, -0.033205796033144, -0.1464410275220871, 0.19808098673820496, -0.21964170038700104, 0.0179954431951046, -0.19865727424621582, 0.11273717880249023, 0.1616663634777069, 0.37859228253364563, -0.12018150836229324, 0.09107594937086105, -0.00788981281220913, -0.09497029334306717, -0.09505381435155869, -0.13313481211662292, 0.11205320060253143, -0.14712625741958618, -0.10465124249458313, 0.3229968547821045, 0.21480880677700043, -0.020554879680275917, -0.07054374366998672, -0.3001113533973694, -0.011606083251535892, 0.03499580919742584, 0.2625221610069275, 0.003219685750082135, -0.09751047939062119, 0.2361750602722168, -0.004037883598357439, 0.02214198000729084, -0.0791831761598587, -0.16893182694911957, -0.010127841494977474, 0.069651298224926, -0.2969408631324768, 0.3688660264015198,
0.22506791353225708, -0.15442711114883423, -0.04766586050391197, 0.11761792004108429, 0.07470570504665375, -0.026034777984023094, -0.14871202409267426, -0.29098519682884216, -0.20273371040821075, -0.1714143604040146, -0.06828410178422928, -0.02696189098060131, 0.1380791962146759, -0.03891909867525101, -0.058439645916223526, 0.24346399307250977, -0.23700538277626038, -0.08675258606672287, -0.005809754598885775, 0.07016606628894806, 0.009171005338430405, 0.12723931670188904, 0.35967159271240234, -0.19994308054447174, -0.16317863762378693, 0.3011275827884674, -0.314071923494339, -0.22199183702468872, 0.12559331953525543, 0.158271923661232, -0.513935923576355, -0.021079638972878456, 0.12096360325813293, -0.05543094500899315, 0.31118646264076233, 0.0989595353603363, 0.19347600638866425, 0.15657734870910645, -0.1912633627653122, -0.05859246850013733, 0.2927502989768982, 0.06428301334381104, -0.2771087884902954, 0.2436162382364273, -0.14445005357265472, 0.1482934206724167, 0.059478238224983215, 0.3786707818508148, 0.18743450939655304, -0.26336777210235596, -0.3258952498435974, 0.026480671018362045, 0.004100644029676914, -0.2417803406715393, 0.08906808495521545, 0.2657593786716461, -0.3146941661834717, 0.10142584890127182, 0.17074428498744965, -0.09769166260957718, -0.006222547497600317, 0.3142649233341217, -0.04245678335428238, 0.08157750964164734,
0.12866628170013428, 0.2102414071559906, 0.18090122938156128, -0.11350371688604355, -0.3407383859157562, -0.12863971292972565, 0.0743139386177063, -0.10303209722042084, -0.27489906549453735, 0.018597209826111794, 0.3329312801361084, 0.05617523938417435, 0.029383748769760132, 0.027412282302975655, -0.2421632558107376, 0.18368957936763763, -0.11838061362504959, -0.06505514681339264, 0.07288916409015656, 0.012286768294870853, -0.14568017423152924, 0.2199048101902008, 0.2564316689968109, -0.16631025075912476, -0.02294616773724556, -0.14040464162826538, 0.3996070921421051, 0.10605743527412415, -0.07487417012453079, -0.004576710984110832, -0.34413740038871765, 0.20346392691135406, -0.050304144620895386, 0.012803665362298489, 0.0612599216401577, 0.006930068135261536, 0.4747132658958435, 0.02964838594198227, 0.27541571855545044, 0.6814395785331726, -0.039729923009872437, -0.11463850736618042, 0.0748286321759224, -0.23479865491390228, 0.2539738714694977, 0.07967858761548996, 0.31297630071640015, -0.11428391188383102, -0.33852872252464294, 0.008817723020911217, -0.07980580627918243, 0.10315114259719849, -0.22439447045326233, -0.27241066098213196, -0.00954909436404705, -0.21960821747779846, -0.07051403820514679, -0.0990581139922142, 0.08038361370563507, 0.0038304447662085295, 0.05143440142273903, 0.3980521261692047, -0.15616029500961304, -0.17955464124679565,
0.31391575932502747, -0.1905335783958435, -0.10730626434087753, 0.0828910619020462, 0.06426960229873657, 0.2295403778553009, 0.12602145969867706, -0.06363522261381149, 0.009956542402505875, -0.31483519077301025, -0.13165047764778137, -0.023787846788764, 0.20617108047008514, -0.10854845494031906, -0.037051428109407425, 0.0939508005976677, -0.13925814628601074, 0.12568798661231995, 0.19814276695251465, -0.34888777136802673, 0.20787225663661957, -0.12809091806411743, -0.24994683265686035, 0.3834143877029419, -0.04632866010069847, 0.01629796251654625, -0.016478288918733597, 0.03613695129752159, -0.13653255999088287, 0.42236730456352234, -0.14609481394290924, 0.07779201865196228, 0.3835093080997467, 0.3113251030445099, -0.030327681452035904, -0.17465394735336304, -0.07814697921276093, 0.23703700304031372, -0.010064923204481602, -0.01330017764121294, -0.0740349143743515, -0.3544400632381439, -0.12820400297641754, -0.6488376259803772, -0.09818282723426819, -0.36161258816719055, 0.1430656760931015, -0.31913310289382935, 0.1690092533826828, 0.4093678593635559, 0.008697902783751488, -0.37455227971076965, -0.043408673256635666, -0.10389480739831924, -0.2774343192577362, 0.04243510216474533, 0.026698503643274307, -0.08878287672996521, -0.12610650062561035, -0.2536730170249939, 0.28728318214416504, -0.137928307056427, -0.07139945775270462, -0.029131297022104263,
0.26714426279067993, -0.2354598045349121, 0.053281188011169434, 0.00013590232993010432, -0.060626320540905, 0.10665368288755417, -0.0017885282868519425, 0.06250346451997757, 0.5606067180633545, 0.12108504772186279, 0.020999912172555923, 0.07764977216720581, -0.03076333738863468, -0.19738872349262238, -0.09693492949008942, -0.16620585322380066, 0.21048374474048615, 0.13486219942569733, -0.06831859052181244, 0.00010663857392501086, 0.04248770326375961, 0.24175488948822021, 0.12428046762943268, -0.07608559727668762, -0.22511450946331024, -0.19511231780052185, -0.24505335092544556, 0.02162572555243969, 0.08827278763055801, -0.011785474605858326, -0.14200900495052338, 0.0960596427321434, -0.26136136054992676, 0.31146296858787537, 0.35529911518096924, 0.08041025698184967, 0.1711520403623581, 0.18456079065799713, 0.3036179840564728, 0.10461348295211792, -0.27965229749679565, 0.2873557209968567, -0.31179431080818176, -0.029380176216363907, -0.14732001721858978, -0.025139974430203438, 0.014891153201460838, 0.10725870728492737, -0.1292933076620102, 0.11164388805627823, 0.05202757567167282, 0.14678476750850677, 0.17876236140727997, -0.24245505034923553, -0.34299784898757935, 0.06506006419658661, 0.10102450102567673, -0.12780484557151794, -0.15392561256885529, -0.1376243382692337, 0.04462616518139839, -0.29263821244239807, -0.4556320607662201, -0.2345188558101654,
0.1395811289548874, -0.2134084403514862, -0.07595110684633255, -0.4478747844696045, 0.3886592388153076, -0.27518942952156067, -0.10781780630350113, 0.3259555399417877, -0.3906661570072174, 0.11588600277900696, -0.11947893351316452, -0.2043335884809494, 0.295462042093277, -0.04653002694249153, -0.3437347114086151, -0.018323587253689766, -0.1864050030708313, -0.47452497482299805, -0.528862476348877, 0.1772470623254776, 0.037157025188207626, 0.04331376403570175, -0.10136812925338745, 0.3186519145965576, -0.13782808184623718, 0.3529872000217438, -0.37111562490463257, 0.12282679975032806, 0.11960501968860626, 0.21124595403671265, 0.15864458680152893, -0.04041491076350212, -0.1275307536125183, 0.0012106336653232574, -0.010558436624705791, 0.05048252269625664, 0.18469567596912384, 0.5466798543930054, -0.09748953580856323, -0.2508915364742279, 0.14025244116783142, -0.022996652871370316, 0.09325854480266571, -0.029834220185875893, -0.11196362972259521, 0.19456882774829865, -0.2934775650501251, -0.02822236903011799, 0.17526407539844513, -0.00954783707857132, 0.11281584948301315, -0.23298844695091248, -0.14097000658512115, -0.09671279788017273, 0.12011171132326126, -0.3741718828678131, 0.21104763448238373, -0.00813369732350111, -0.13466036319732666, -0.11010950058698654, 0.22689136862754822, 0.23893775045871735, 0.056217845529317856, 0.2090107649564743,
-0.15480153262615204, -0.11499124765396118, -0.033396147191524506, 0.36298587918281555, 0.48057958483695984, -0.128728985786438, -0.10451052337884903, 0.10732797533273697, -0.056643109768629074, -0.17068511247634888, -0.34814751148223877, 0.019545547664165497, 0.012843518517911434, -0.619685173034668, -0.3370633125305176, -0.11868451535701752, -0.07790594547986984, -0.14459757506847382, -0.06391695886850357, -0.12232030183076859, 0.3077712059020996, 0.10794665664434433, -0.1286265105009079, 0.2452140599489212, 0.2463492751121521, 0.24709905683994293, 0.12935182452201843, 0.12971335649490356, -0.16205409169197083, -0.3731358051300049, -0.34983590245246887, 0.15280626714229584, -0.11718539893627167, -0.1112852469086647, 0.06839010864496231, 0.13710863888263702, 0.2655845880508423, -0.017608268186450005, -0.21940375864505768, -0.04760681837797165, 0.14605972170829773, 0.097938172519207, 0.17374441027641296, 0.12468726933002472, 0.0583181232213974, -0.2462252676486969, -0.5027992129325867, -0.19370944797992706, -0.27574285864830017, -0.029161565005779266, -0.24157105386257172, 0.29212307929992676, -0.14460612833499908, -0.1934276521205902, -0.08789458125829697, 0.3958567678928375, 0.11987550556659698, -0.22394512593746185, 0.12131351232528687, -0.07120382785797119, 0.1513032615184784, 0.3186539113521576, 0.09445469826459885, -0.012355177663266659,
-0.20744755864143372, 0.22002412378787994, -0.19214624166488647, 0.23389039933681488, 0.20344394445419312, -0.22281602025032043, -0.0739976242184639, -0.023455984890460968, 0.22797821462154388, -0.06037801876664162, 0.20855915546417236, -0.511777400970459, -0.6151133179664612, -0.07738468050956726, -0.16295567154884338, 0.3704734444618225, -0.15941178798675537, -0.1139003112912178, 0.25496146082878113, -0.01419777050614357, -0.11001493036746979, 0.08287537097930908, -0.17864328622817993, -0.17181278765201569, 0.09311599284410477, -0.16713683307170868, 0.044928986579179764, -0.3164052665233612, -0.2820281386375427, 0.24534450471401215, -0.053103674203157425, 0.04062585160136223, -0.011068975552916527, 0.074956975877285, 0.3083494305610657, 0.07259777933359146, -0.3021305203437805, 0.1046590507030487, 0.13655543327331543, 0.36037400364875793, 0.0006630502757616341, 0.26412802934646606, 0.20076984167099, 0.16392317414283752, 0.29091769456863403, -0.04442356154322624, -0.36395809054374695, -0.31711336970329285, 0.10041892528533936, -0.32062265276908875, 0.06280426681041718, 0.07300084084272385, -0.3400037884712219, -0.06307940185070038, -0.45469486713409424, -0.3980588912963867, 0.027446430176496506, 0.02374015562236309, -0.008664961904287338, 0.07437066733837128, -0.0025353694800287485, 0.017492199316620827, -0.13054953515529633, 0.09177715331315994,
-0.1458338350057602, -0.06534380465745926, -0.005533833988010883, 0.0291557926684618, -0.22854048013687134, 0.13209185004234314, -0.032467372715473175, 0.009643531404435635, -0.17838671803474426, -0.045112334191799164, 0.017317628487944603, -0.10466060787439346, -0.46330538392066956, 0.1425267606973648, 0.187465637922287, -0.28578439354896545, 0.2579387128353119, 0.13132481276988983, 0.35589805245399475, -0.08643899112939835, 0.3652063310146332, 0.09500004351139069, -0.22569900751113892, -0.08434847742319107, -0.08032558113336563, -0.06996896117925644, -0.004529787227511406, 0.30400604009628296, 0.21209387481212616, -0.10140857845544815, 0.10630293190479279, 0.23911963403224945, 0.02238885872066021, 0.09001296013593674, -0.09398750960826874, -0.05145467817783356, 0.1296394169330597, 0.1284603476524353, 0.007491589989513159, -0.09372361749410629, -0.15745334327220917, 0.09432101249694824, 0.30465251207351685, 0.04476277157664299, 0.07314635813236237, 0.4037071168422699, 0.09773625433444977, 0.052221667021512985, 0.0767042338848114, 0.15654417872428894, 0.12988916039466858, 0.3339868485927582, 0.04453461617231369, -0.34941285848617554, 0.20475448668003082, 0.13456076383590698, 0.12383924424648285, 0.5916768908500671, -0.1264979988336563, -0.12509573996067047, 0.14801287651062012, -0.32931238412857056, -0.0026428920682519674, -0.050396062433719635,
0.11256910115480423, 0.23228435218334198, -0.10914157330989838, 0.17522041499614716, 0.00740031898021698, 0.13346204161643982, 0.338045597076416, -0.0736505314707756, -0.4243241250514984, -0.22211407124996185, 0.16322821378707886, 0.07605183124542236, -0.03448409214615822, -0.08199916779994965, -0.06954098492860794, -0.05912352725863457, 0.23155705630779266, 0.0755082294344902, -0.008347384631633759, -0.05411015450954437, -0.23811303079128265, -0.23745112121105194, 0.49784964323043823, 0.031229162588715553, -0.17254216969013214, -0.1864680051803589, -0.49714919924736023, 0.08689804375171661, 0.3045661151409149, 0.05707407742738724, -0.18745937943458557, 0.058473967015743256, 0.14503048360347748, -0.17735348641872406, 0.23527342081069946, -0.19206556677818298, 0.22684000432491302, 0.3632165491580963, 0.21011216938495636, -0.17643333971500397, 0.1803182065486908, 0.07344897836446762, 0.1621519774198532, 0.08939602226018906, 0.03865743428468704, -0.14983579516410828, 0.1726992279291153, 0.0701047033071518, -0.0132206492125988, -0.17579804360866547, -0.18599183857440948, -0.2407502681016922, -0.27255764603614807, -0.05427810922265053, 0.04208328202366829, 0.14163616299629211, 0.24819953739643097, -0.42123833298683167, -0.2983112037181854, -0.4612903296947479, -0.31939277052879333, 0.3817828595638275, -0.09234888851642609, 0.07949590682983398,
-0.2438509166240692, -0.1663701981306076, -0.08629552274942398, 0.061279188841581345, -0.501792311668396, 0.3442944884300232, -0.0458732508122921, 0.060897164046764374, 0.1283665895462036, 0.33182743191719055, 0.0041846283711493015, -0.1510438174009323, -0.30445757508277893, -0.15231484174728394, -0.25759613513946533, 0.24890662729740143, 0.1492518037557602, -0.20691706240177155, 0.4796995520591736, -0.07301758229732513, 0.22545446455478668, 0.2306625247001648, 0.28221437335014343, -0.01924945041537285, -0.11289912462234497, -0.3976427912712097, 0.017382940277457237, -0.1626875102519989, 0.1019400954246521, -0.33879923820495605, 0.39760327339172363, -0.16827264428138733, 0.290336012840271, -0.05210593342781067, -0.04404551535844803, -0.20693795382976532, -0.31935468316078186, -0.04078198969364166, -0.536695659160614, -0.3829112946987152, -0.021950675174593925, -0.26283007860183716, -0.06262420117855072, 0.18652799725532532, 0.00979379191994667, -0.23002614080905914, 0.04566819965839386, 0.00422667758539319, -0.07590510696172714, -0.3497990369796753, -0.26244768500328064, -0.004477276001125574, 0.07760689407587051, -0.11604145169258118, -0.37999972701072693, -0.011528929695487022, -0.05694524198770523, 0.19585591554641724, -0.18093131482601166, -0.047651324421167374, -0.22633592784404755, 0.07364319264888763, -0.17509549856185913, 0.14338642358779907,
0.2435346245765686, -0.12275900691747665, 0.028017723932862282, 0.0023597972467541695, -0.2361467182636261, 0.1681717336177826, -0.051997240632772446, 0.03964604437351227, -0.07164507359266281, -0.4795041084289551, 0.16908597946166992, 0.17308606207370758, -0.10639950633049011, 0.3452432453632355, -0.4380527138710022, -0.12214571982622147, 0.004731493536382914, 0.0239711981266737, -0.012073860503733158, -0.15360024571418762, 0.0012670824071392417, -0.07992297410964966, -0.04073134437203407, 0.20866090059280396, 0.06906145066022873, -0.4385600984096527, -0.05686796456575394, -0.11898091435432434, -0.11626753956079483, 0.06755876541137695, 0.08647920191287994, 0.1830630600452423, 0.003691558726131916, -0.22971680760383606, 0.050687287002801895, -0.1972758173942566, -0.08659881353378296, -0.36223500967025757, -0.1276816427707672, 0.09974046796560287, 0.1439628154039383, 0.2163761705160141, 0.5748738050460815, -0.1295395791530609, -0.4937288761138916, 0.0821061059832573, 0.23020046949386597, 0.06545619666576385, 0.05816470459103584, -0.4193342328071594, 0.1349012702703476, -0.28737401962280273, -0.008514258079230785, 0.24765345454216003, -0.2720109522342682, 0.06777379661798477, -0.02261289395391941, -0.10184384882450104, 0.10708069056272507, 0.11409851163625717, 0.31768888235092163, 0.29578161239624023, 0.04944698140025139, 0.02860807254910469,
-0.1446235030889511, 0.15589384734630585, 0.33518311381340027, 0.10747139900922775, -0.13019482791423798, -0.19188880920410156, -0.05801057070493698, 0.08445987850427628, -0.17061349749565125, -0.33563101291656494, 0.09372706711292267, 0.20295193791389465, 0.07631167769432068, -0.37174662947654724, 0.058195117861032486, 0.07611430436372757, -0.4732678532600403, -0.13870571553707123, -0.8370852470397949, -0.09940013289451599, 0.39659878611564636, -0.22075165808200836, 0.056455161422491074, 0.0024176707956939936, 0.16890782117843628, -0.20660191774368286, 0.27774184942245483, 0.19733726978302002, 0.2851925492286682, -0.07163344323635101, 0.02376660518348217, 0.11887359619140625, 0.007520101498812437, -0.06506902724504471, 0.1475713849067688, 0.12564973533153534, -0.007024586666375399, -0.11378142982721329, -0.06523310393095016, 0.23889917135238647, -0.46556639671325684, 0.38554900884628296, -0.40456414222717285, -0.2984873950481415, -0.2637771666049957, -0.055763065814971924, 0.11875353008508682, 0.2406817376613617, -0.011599390767514706, 0.10949451476335526, -0.01646001636981964, -0.21668663620948792, -0.1585099846124649, 0.2932041883468628, 0.13106346130371094, -0.20417268574237823, -0.12560142576694489, 0.05074790120124817, 0.2958236038684845, -0.16281501948833466, 0.05354985594749451, -0.5733963847160339, 0.24211746454238892, 0.24099400639533997,
0.024243392050266266, -0.38380470871925354, 0.043894317001104355, 0.40037843585014343, 0.08851516991853714, -0.08202649652957916, -0.3060719966888428, 0.32168224453926086, -0.006850108969956636, 0.3717740476131439, 0.14225752651691437, -0.5370514392852783, -0.1220654621720314, -0.07232513278722763, 0.24699880182743073, 0.36784809827804565, -0.03982953727245331, -0.12553410232067108, 0.03746270760893822, -0.2048729509115219, -0.16437019407749176, -0.3467980921268463, -0.42923328280448914, 0.0011480131652206182, 0.054782651364803314, -0.006571418605744839, 0.34199002385139465, -0.06230328604578972, 0.30325037240982056, 0.1781570166349411, -0.06289444863796234, 0.11629565805196762, -0.018831828609108925, -0.19688014686107635, 0.18838046491146088, -0.030766978859901428, 0.15040647983551025, -0.3240271806716919, 0.0828670859336853, -0.1881459355354309, -0.14893940091133118, -0.16597947478294373, -0.2515590786933899, -0.03790419548749924, -0.0063568707555532455, -0.13320444524288177, -0.15575172007083893, -0.022818297147750854, -0.23535911738872528, -0.004376695491373539, -0.0074552446603775024, -0.29226356744766235, 0.24720071256160736, -0.1184144839644432, 0.1645984649658203, 0.12901273369789124, 0.019239366054534912, -0.27119919657707214, -0.11116675287485123, 0.11187577992677689, -0.1429644227027893, -0.10225037485361099, -0.2805839478969574, -0.5043377876281738,
0.28370746970176697, -0.3823155164718628, -0.021386682987213135, -0.09889335930347443, 0.012157791294157505, 0.2746983468532562, 0.09127634018659592, -0.19479511678218842, -0.19238539040088654, -0.22073285281658173, -0.19477306306362152, -0.005424520932137966, 0.09852080792188644, -0.06663401424884796, -0.10741400718688965, -0.1243269145488739, -0.3129830062389374, 0.18994368612766266, -0.0705815777182579, 0.0357394739985466, 0.11983470618724823, 0.022840382531285286, 0.22097855806350708, -0.2058282196521759, 0.05303356423974037, -0.016720019280910492, 0.14252176880836487, -0.0777529776096344, -0.06949031352996826, -0.2058120220899582, 0.09764158725738525, 0.11366914212703705, 0.3115963339805603, -0.35517528653144836, 0.17651721835136414, 0.32989102602005005, -0.09866692870855331, -0.08658353239297867, -0.04556664451956749, -0.28966596722602844, -0.4868067800998688, -0.6218949556350708, -0.5710170865058899, 0.11566517502069473, -0.39285627007484436, 0.06484956294298172, 0.03861996904015541, -0.5428784489631653, -0.401293009519577, 0.07756536453962326, 0.3444709777832031, 0.015246964991092682, -0.33676987886428833, 0.059121616184711456, 0.27126458287239075, -0.15014587342739105, 0.08299688249826431, -0.13126294314861298, 0.4115733206272125, 0.08601417392492294, 0.1451077163219452, -0.2910557985305786, 0.30203595757484436, 0.04385256767272949,
-0.2140699028968811, -0.2224300652742386, -0.19569583237171173, 0.3816314935684204, -0.13092371821403503, -0.4311680495738983, -0.08103545010089874, 0.20589445531368256, -0.03209681063890457, 0.39170053601264954, -0.0426306426525116, -0.010653347708284855, -0.2377716302871704, -0.12183700501918793, -0.1293436586856842, 0.2928423583507538, 0.07028951495885849, 0.21653293073177338, 0.1725938618183136, -0.06824235618114471, 0.031219877302646637, -0.34823015332221985, -0.06636090576648712, 0.013095123693346977, -0.1846209615468979, 0.1365942507982254, -0.06135904788970947, 0.20748135447502136, 0.09792329370975494, -0.022207366302609444, 0.34264665842056274, 0.04035509005188942, -0.01864921860396862, 0.03604845702648163, 0.04607880488038063, -0.05567387491464615, 0.3051435947418213, -0.35716089606285095, -0.03466923162341118, 0.18177609145641327, 0.15518781542778015, -0.11136425286531448, -0.32101333141326904, 0.03942170739173889, -0.10630842298269272, 0.1772090494632721, -0.13556905090808868, -0.25044170022010803, -0.003424156690016389, 0.06341885030269623, 0.3366381824016571, 0.21635839343070984, 0.1335258185863495, 0.03316290304064751, -0.3142523467540741, 0.09255103766918182, 0.07841049879789352, -0.23254838585853577, -0.3121117949485779, -0.2274063527584076, 0.20626914501190186, -0.10018635541200638, 0.42924371361732483, -0.16822141408920288,
-0.2792409360408783, -0.018694113940000534, -0.11955748498439789, 0.07291717082262039, 0.30165523290634155, 0.14651425182819366, 0.03128873556852341, -0.11245518177747726, 0.5712233185768127, -0.062111251056194305, 0.5249743461608887, 0.32979169487953186, 0.23293158411979675, -0.014130232855677605, 0.03875560685992241, -0.10643704980611801, 0.35217180848121643, -0.3444419801235199, 0.2806814908981323, 0.23693285882472992, 0.0711078867316246, 0.18314902484416962, -0.0843038409948349, -0.06760068982839584, 0.21454042196273804, -0.0952344536781311, 0.3851923942565918, 0.06177796795964241, -0.04913081228733063, 0.10331781953573227, -0.009402256458997726, 0.20945683121681213, 0.027541043236851692, -0.018749136477708817, 0.0563494935631752, 0.1012941226363182, -0.13487689197063446, -0.26891323924064636, 0.11839409172534943, 0.44724154472351074, 0.030194103717803955, -0.16655492782592773, 0.016984637826681137, -0.10396670550107956, 0.5719311833381653, 0.054053012281656265, -0.19491758942604065, -0.18578194081783295, -0.1309371292591095, -0.09717556834220886, 0.2494719922542572, -0.2520468831062317, -0.22628414630889893, -0.07793696224689484, 0.33996671438217163, -0.017142293974757195, -0.28900453448295593, -0.09818334132432938, 0.07810947299003601, -0.10321467369794846, -0.04631555452942848, -0.051843028515577316, 0.2470318228006363, -0.0934879258275032,
0.238265722990036, -0.054869286715984344, -0.2504071891307831, -0.0977959930896759, 0.051908206194639206, -0.08570726215839386, -0.1248842105269432, -0.12747758626937866, -0.14432135224342346, -0.08428121358156204, -0.24031950533390045, 0.07371869683265686, -0.3204759955406189, -0.15359459817409515, -0.0018298026407137513, -0.03367305546998978, 0.10803338885307312, 0.18936370313167572, -0.13146506249904633, 0.04355860501527786, 0.06999149918556213, 0.44745874404907227, 0.15447409451007843, -0.417467325925827, 0.16437110304832458, 0.043569616973400116, 0.35179316997528076, -0.04590139910578728, 0.023364517837762833, -0.09822908043861389, -0.10290927439928055, 0.13929639756679535, -0.1146589070558548, 0.40465298295021057, 0.33865347504615784, -0.11306892335414886, 0.23675987124443054, -0.08144798129796982, 0.035599496215581894, 0.24577318131923676, -0.1510910838842392, -0.002854003570973873, -0.04215871915221214, -0.2614859342575073, 0.20934095978736877, -0.3212093710899353, 0.004332643002271652, -0.21011677384376526, 0.0019026783993467689, -0.13329318165779114, 0.15572671592235565, -0.486299067735672, 0.06494788080453873, -0.06273443251848221, 0.08761820942163467, -0.05510680377483368, 0.33159351348876953, 0.043389126658439636, 0.20717237889766693, 0.10083172470331192, -0.36943888664245605, -0.07703746855258942, 0.08650892227888107, 0.29212015867233276,
-0.1976584792137146, -0.24183019995689392, -0.29021841287612915, -0.010070555843412876, 0.11815112084150314, -0.1736484318971634, 0.1014360561966896, -0.22769726812839508, -0.1237257868051529, -0.14953653514385223, -0.07533733546733856, 0.10189085453748703, -0.17346511781215668, 0.09951460361480713, 0.20116984844207764, 0.14930348098278046, 0.12613748013973236, -0.5403523445129395, 0.1951451599597931, 0.0998397246003151, -0.5293682217597961, 0.07201052457094193, -0.1640433371067047, -0.1248202919960022, 0.5496820211410522, 0.19370873272418976, 0.0944724977016449, 0.21116264164447784, -0.19125190377235413, -0.4590455889701843, 0.13498824834823608, -0.08043055981397629, 0.25751614570617676, 0.11474185436964035, 0.16081291437149048, -0.321847528219223, -0.0563889816403389, 0.08073834329843521, -0.011938484385609627, 0.0004443652287591249, 0.1025971844792366, -0.09681061655282974, 0.2776648700237274, 0.01005411334335804, 0.15352804958820343, 0.27627477049827576, -0.05892416834831238, -0.11233623325824738, 0.1694866269826889, -0.11442333459854126, -0.15317007899284363, -0.317444771528244, 0.1041526049375534, -0.17134758830070496, -0.1623230129480362, -0.16351960599422455, -0.32730332016944885, -0.25008425116539, -0.0050978404469788074, 0.017110662534832954, 0.3148229420185089, -0.02642146497964859, 0.15524162352085114, -0.04229259490966797,
0.1280493587255478, -0.03228353336453438, -0.30164581537246704, 0.15404503047466278, -0.1443367600440979, -0.397998571395874, -0.10441634058952332, 0.07397481799125671, 0.0765991061925888, 0.19224821031093597, 0.001274974551051855, -0.3263593912124634, -0.6788784861564636, -0.20985066890716553, -0.11054843664169312, -0.05272349715232849, 0.08269601315259933, -0.23976227641105652, 0.16305918991565704, -0.005448946729302406, 0.020578358322381973, -0.09434670209884644, -0.14135919511318207, -0.1245664730668068, 0.2853308916091919, -0.29615259170532227, 0.010556121356785297, -0.24620087444782257, 0.3367193043231964, 0.019984045997262, -0.14252887666225433, -0.17282550036907196, -0.04295193403959274, -0.0981103777885437, 0.14957505464553833, -0.28845810890197754, -0.35760998725891113, 0.08448898047208786, 0.3024864196777344, -0.28546053171157837, 0.16881656646728516, -0.10374188423156738, -0.08933024853467941, -0.20944876968860626, -0.23165634274482727, 0.1266290694475174, 0.021103469654917717, 0.039832692593336105, -0.2629530727863312, 0.2531420588493347, -0.3025449812412262, 0.22048620879650116, 0.09143922477960587, 0.10547288507223129, -0.005208619404584169, 0.0769372433423996, -0.3714151680469513, -0.027763020247220993, -0.11536628007888794, -0.1612006276845932, 0.05350039154291153, 0.15080223977565765, 0.2077377587556839, -0.19006220996379852,
-0.08235044032335281, 0.14319881796836853, 0.2712686061859131, 0.018898889422416687, -0.10923266410827637, 0.3233877420425415, 0.23436793684959412, 0.03829071298241615, -0.02700495347380638, -0.03723609820008278, -0.21076320111751556, -0.43959152698516846, -0.007214718032628298, 0.15264461934566498, -0.06780446320772171, -0.228250190615654, -0.192543163895607, -0.27476635575294495, 0.02091984823346138, 0.03949926793575287, -0.036013443022966385, 0.16855132579803467, -0.13977789878845215, 0.25973546504974365, 0.22703814506530762, 0.022828109562397003, -0.04720427468419075, -0.14503523707389832, 0.24252140522003174, -0.0008581731235608459, -0.00520247733220458, -0.20737305283546448, -0.12733256816864014, -0.023099666461348534, 0.06407801806926727, 0.1756635308265686, 0.04650721698999405, 0.1561492383480072, -0.020543815568089485, 0.12526507675647736, 0.2481161206960678, -0.3651561439037323, -0.04080626741051674, 0.019995352253317833, -0.535892128944397, -0.05422717332839966, -0.00665671844035387, -0.17543020844459534, 0.14971114695072174, 0.03434007614850998, 0.022847704589366913, 0.15629985928535461, 0.1847778856754303, 0.005168362986296415, -0.11037780344486237, -0.08184739947319031, 0.2613687813282013, -0.17836208641529083, -0.28741055727005005, -0.17950287461280823, -0.1495416909456253, -0.172773078083992, 0.2605569660663605, 0.29327231645584106,
-0.13831335306167603, -0.046373575925827026, 0.15703698992729187, 0.17776945233345032, 0.08177774399518967, -0.026191627606749535, -0.15593598783016205, 0.08666037023067474, 0.1446535438299179, 0.07287898659706116, 0.16710563004016876, -0.03264502063393593, -0.22102157771587372, -0.09320910274982452, -0.0828058123588562, -0.21586252748966217, -0.11197119206190109, 0.03038855828344822, 0.19940410554409027, 0.3342907130718231, 0.22724513709545135, 0.08415526151657104, -0.3201392889022827, 0.06509457528591156, -0.694797158241272, 0.015613561496138573, 0.385921448469162, 0.18621763586997986, -0.39910969138145447, -0.3352712094783783, -0.35409581661224365, -0.11957614123821259, -0.04531647264957428, -0.055866941809654236, 0.10791375488042831, 0.2781974673271179, 0.2700386643409729, 0.21363434195518494, 0.3185644745826721, 0.052953097969293594, -0.12986035645008087, 0.05947643890976906, 0.10946089774370193, -0.007796437479555607, 0.22850900888442993, -0.07565237581729889, -0.2702549993991852, -0.022450236603617668, 0.0862789899110794, -0.22339342534542084, -0.2905231714248657, -0.05621892586350441, 0.07103396952152252, 0.2363167256116867, -0.0415528230369091, -0.26481926441192627, -0.048865772783756256, -0.33401432633399963, -0.1080893874168396, 0.07407626509666443, 0.3493262231349945, 0.26931625604629517, 0.05022640526294708, -0.00956632848829031,
0.16896119713783264, 0.19508524239063263, -0.0834110677242279, -0.03544517606496811, 0.0011377346236258745, -0.357547789812088, 0.04370554909110069, 0.038117386400699615, 0.049013394862413406, 0.5318293571472168, 0.2495540976524353, -0.13159260153770447, 0.06193094700574875, 0.1299762725830078, 0.03359174355864525, -0.09282335638999939, -0.25289636850357056, 0.30728089809417725, 0.07581766694784164, 0.08499160408973694, 0.17623163759708405, 0.18782247602939606, -0.31990447640419006, -0.05538772791624069, 0.39804399013519287, 0.1666819006204605, 0.045284368097782135, 0.005986489821225405, 0.17845773696899414, -0.08069637417793274, 0.13546650111675262, 0.4138491451740265, -0.13846942782402039, 0.21398524940013885, -0.4317034184932709, 0.11317817121744156, 0.22024212777614594, -0.07421647012233734, -0.09088224917650223, -0.10377907752990723, 0.0766376331448555, 0.13493892550468445, -0.22314737737178802, 0.4140695035457611, -0.10266628861427307, -0.22368760406970978, -0.1987132877111435, -0.31209778785705566, -0.11913929134607315, -0.16060470044612885, -0.17087624967098236, 0.10907648503780365, 0.1888774335384369, 0.07762400805950165, 0.14688347280025482, -0.18252384662628174, -0.24918626248836517, 0.07492060959339142, 0.007815957069396973, -0.1495884656906128, 0.07014329731464386, -0.4477824866771698, -0.008063382469117641, -0.06268051266670227,
-0.16639606654644012, -0.1553536057472229, 0.22748024761676788, -0.19480161368846893, 0.6759353876113892, 0.11505188047885895, 0.09386651962995529, -0.28773242235183716, -0.3117411732673645, 0.12085379660129547, 0.323640376329422, -0.1108696460723877, 0.2649115025997162, 0.27650129795074463, -0.001952481921762228, 0.007195863872766495, -0.26048240065574646, -0.12732146680355072, -0.4203227460384369, -0.20361478626728058, -0.16845981776714325, -0.067725770175457, 0.33626195788383484, 0.06364299356937408, -0.28367382287979126, 0.023060956969857216, -0.21382030844688416, 0.25481605529785156, -0.17086899280548096, -0.044080950319767, -0.25598472356796265, 0.24892118573188782, -0.3152856230735779, 0.28214746713638306, -0.1576661318540573, -0.0671389177441597, -0.16338813304901123, -0.04880082234740257, 0.13780926167964935, -0.24222442507743835, -0.0607241727411747, -0.14702701568603516, 0.3108910024166107, -0.17101803421974182, -0.18470193445682526, 0.05251817777752876, -0.1371208131313324, 0.05429504066705704, 0.566253662109375, 0.14077012240886688, 0.02538611739873886, 0.12726248800754547, -0.1926731914281845, 0.01114256214350462, 0.3308408260345459, 0.036522407084703445, 0.2612505555152893, 0.04317420348525047, -0.08879709988832474, -0.046666208654642105, 0.08282674849033356, 0.0003775038640014827, 0.2404475063085556, 0.21448875963687897,
-0.371725469827652, -0.1721799373626709, -0.2688063979148865, 0.11827059090137482, 0.14077642560005188, -0.039958152920007706, 0.059773948043584824, 0.37953701615333557, -0.04096001386642456, 0.008828438818454742, 0.0018690030556172132, -0.07624265551567078, -0.010150296613574028, 0.159894660115242, 0.2079809606075287, -0.01733262464404106, 0.1322557032108307, -0.2654819190502167, -0.25517523288726807, 0.29175084829330444, 0.05709599331021309, 0.07474084198474884, -0.1673145443201065, -0.1923239678144455, 0.11098826676607132, -0.11590239405632019, 0.06876364350318909, 0.3165595233440399, -0.10181625187397003, 0.23555374145507812, 0.04271586984395981, -0.014925681985914707, 0.15299595892429352, -0.049264248460531235, -0.2704695463180542, -0.19156362116336823, -0.07630971074104309, 0.049970321357250214, 0.28235846757888794, 0.16454622149467468, 0.18758314847946167, -0.08725665509700775, 0.24005578458309174, 0.3270256519317627, -0.1557931900024414, 0.036347877234220505, -0.021662302315235138, 0.37399089336395264, 0.22666984796524048, -0.14038912951946259, 0.003898085793480277, 0.3359586000442505, -0.17576804757118225, -0.21993768215179443, -0.12091230601072311, -0.14211422204971313, -0.4691159129142761, -0.15956947207450867, 0.04838339984416962, -0.2640855312347412, -0.16647569835186005, 0.31533169746398926, -0.19819265604019165, 0.41681933403015137,
-0.20997978746891022, 0.13605345785617828, -0.035614654421806335, 0.33026254177093506, 0.0029532890766859055, -0.07225222140550613, 0.24914808571338654, 0.24649827182292938, -0.3670395314693451, 0.3086737096309662, -0.4150502681732178, -0.20275725424289703, 0.27226242423057556, -0.2580910921096802, 0.12399151921272278, 0.11235532909631729, -0.022728674113750458, -0.12740077078342438, 0.24210289120674133, 0.09476146101951599, 0.021536653861403465, -0.20286063849925995, 0.05726837366819382, -0.138475701212883, 0.08674288541078568, -0.09354379773139954, -0.4728730022907257, -0.042969558387994766, 0.03456837683916092, 0.0522221177816391, -0.5642439723014832, -0.12167693674564362, 0.08134406059980392, -0.17002010345458984, -0.30829933285713196, -0.06913518160581589, -0.005494162905961275, 0.02944343350827694, -0.09980294108390808, -0.2965538799762726, -0.13865122199058533, 0.1588604897260666, -0.04009244218468666, 0.014196457341313362, -0.019738148897886276, -0.3762000799179077, 0.19196149706840515, 0.22317467629909515, -0.14808392524719238, 0.1780131459236145, 0.3783889710903168, 0.08413264155387878, 0.02338719181716442, 0.0028941361233592033, -0.35986053943634033, 0.04446449503302574, 0.17259477078914642, 0.17320150136947632, -0.17587091028690338, -0.009286066517233849, 0.49494311213493347, 0.24777890741825104, -0.24034658074378967, 0.07300599664449692,
-0.03760962188243866, -0.1205081045627594, 0.2374720424413681, -0.009567270055413246, 0.05383063480257988, 0.1021120622754097, -0.07738861441612244, 0.18271954357624054, 0.14444026350975037, -0.3042561709880829, 0.3821853697299957, -0.2814218997955322, -0.3780525326728821, -0.10903526842594147, 0.03944293409585953, 0.01355415303260088, 0.19575382769107819, 0.03599365055561066, 0.3035426437854767, 0.20663964748382568, -0.046078529208898544, 0.007131771184504032, -0.21146143972873688, -0.2197289913892746, 0.29054582118988037, 0.1670062392950058, -0.290505051612854, -0.06168778985738754, 0.016495231539011, -0.20198553800582886, 0.2843937277793884, -0.207027867436409, -0.4092206060886383, 0.24352794885635376, -0.11398331075906754, -0.3252241015434265, 0.00904642790555954, 0.15481941401958466, -0.10147129744291306, 0.07977839559316635, 0.046056997030973434, -0.0457998663187027, 0.04245813190937042, 0.1602344810962677, -0.10472255945205688, -0.09226915240287781, 0.24597154557704926, -0.08754761517047882, 0.07584256678819656, -0.0810513123869896, 0.057648636400699615, 0.17002679407596588, 0.2839115560054779, 0.008290276862680912, 0.025742104277014732, -0.026433086022734642, -0.4116222858428955, -0.5114853382110596, 0.17470555007457733, 0.23163507878780365, -0.10973049700260162, 0.21732664108276367, 0.248361736536026, -0.22003430128097534,
-0.12430315464735031, 0.19052191078662872, -0.0008940730476751924, 0.18762844800949097, 0.10457471758127213, -0.10797415673732758, -0.22222857177257538, 0.0501335933804512, -0.37850409746170044, -0.09305883944034576, 0.20538213849067688, -0.1359507441520691, 0.0065298802219331264, 0.04402411729097366, -0.10931970924139023, 0.2751534581184387, 0.1834554374217987, -0.24662995338439941, -0.14603149890899658, 0.3712640702724457, -0.03393936529755592, -0.029210777953267097, -0.11792013794183731, 0.20162926614284515, -0.10492826998233795, 0.4231182336807251, -0.46946287155151367, -0.15916578471660614, 0.025367844849824905, 0.08203136175870895, -0.1443037986755371, -0.09132014960050583, 0.3139343857765198, 0.0046465834602713585, 0.25556042790412903, -0.05814286321401596, 0.2531144320964813, 0.09531612694263458, 0.24820132553577423, -0.2318369746208191, -0.045548215508461, 0.09736685454845428, 0.3691464960575104, 0.03835232928395271, -0.013953817076981068, 0.3484049439430237, -0.025064848363399506, -0.22719208896160126, 0.20418624579906464, -0.13875800371170044, 0.004010246135294437, -0.006131462752819061, -0.366585910320282, 0.5400089621543884, -0.3244159519672394, 0.26221102476119995, -0.2181321382522583, -0.039383869618177414, 0.17914196848869324, 0.1463186889886856, -0.2857692837715149, 0.02976672537624836, -0.2828572690486908, -0.18008016049861908,
-0.09260039776563644, 0.2168426662683487, 0.0020922906696796417, -0.682287335395813, -0.7581332921981812, 0.4607278108596802, -0.15093544125556946, 0.15722832083702087, 0.06944514065980911, -0.021005729213356972, 0.021906454116106033, -0.03161017596721649, -0.2363533228635788, 0.007554367650300264, -0.046006444841623306, 0.3315076529979706, 0.15513253211975098, 0.2678539454936981, -0.12235647439956665, 0.23480179905891418, 0.10366272926330566, 0.1121276319026947, -0.13939785957336426, -0.1589471846818924, -0.0310951080173254, 0.15758591890335083, -0.1201925277709961, -0.06829438358545303, 0.11585945636034012, -0.20436261594295502, -0.0779961496591568, 0.24927805364131927, 0.30192992091178894, -0.0906701385974884, 0.005054134875535965, 0.00839079450815916, -0.02865779958665371, -0.3004727363586426, -0.030399883165955544, 0.40221455693244934, 0.19967274367809296, 0.2004539668560028, 0.12727603316307068, -0.16245639324188232, 0.04739999771118164, -0.08392956107854843, 0.04731973260641098, 0.6419156193733215, -0.1580660194158554, -0.09093418717384338, -0.31900250911712646, -0.18888065218925476, -0.20855960249900818, -0.017019959166646004, 0.2317710667848587, -0.0702170878648758, 0.17069317400455475, -0.5938165187835693, -0.026365404948592186, -0.08339907228946686, -0.15314821898937225, -0.021665267646312714, -0.017542585730552673, 0.039503928273916245,
0.09269377589225769, 0.31051379442214966, -0.4992874264717102, 0.4187009930610657, 0.05803758278489113, 0.481477826833725, -0.043500762432813644, 0.07939860969781876, -0.33723318576812744, -0.014440828934311867, -0.2554053068161011, 0.22355778515338898, 0.23590698838233948, -0.24585582315921783, 0.06328007578849792, -0.05878360942006111, -0.18646353483200073, 0.20526500046253204, -0.35755306482315063, 0.19971978664398193, -0.1349932700395584, 0.012479513883590698, 0.05137600749731064, 0.06666102260351181, 0.06894594430923462, -0.11419660598039627, 0.08852872252464294, -0.37396907806396484, -0.21445944905281067, -0.07052247226238251, -0.049888841807842255, -0.03558402881026268, 0.12400142848491669, 0.21856479346752167, 0.06610270589590073, -0.2552298307418823, 0.09453932195901871, 0.23244893550872803, -0.2491675466299057, 0.07214723527431488, 0.01046278141438961, -0.1634153127670288, 0.009077414870262146, 0.1562488079071045, 0.006650714669376612, 0.2747807800769806, 0.3435971736907959, 0.216139554977417, 0.10490316152572632, 0.24824003875255585, 0.22730287909507751, 0.16459254920482635, 0.27076008915901184, 0.034324321895837784, 0.23015332221984863, -0.026206759735941887, -0.16005772352218628, 0.021897252649068832, -0.35328829288482666, 0.08158309012651443, 0.1935722678899765, 0.017515530809760094, 0.036880843341350555, -0.06698860973119736,
-0.21087896823883057, -0.3733370006084442, -0.03429250419139862, 0.23559308052062988, 0.14010436832904816, -0.06353119760751724, -0.29319292306900024, 0.09746596962213516, 0.2890363037586212, -0.19856372475624084, -0.28402766585350037, 0.2783338129520416, 0.30123671889305115, 0.26561909914016724, 0.03990327939391136, 0.26507872343063354, -0.3679341673851013, 0.3351423740386963, -0.12754125893115997, -0.11686013638973236, -0.2913734018802643, 0.051299799233675, -0.13875451683998108, -0.1060401201248169, 0.02122623287141323, -0.24738097190856934, -0.13725844025611877, -0.282884806394577, 0.28336361050605774, -0.25974753499031067, 0.30101823806762695, 0.213534876704216, 0.052848540246486664, -0.1646583080291748, -0.08677221834659576, 0.13470865786075592, 0.282108873128891, -0.02048339881002903, 0.0743246003985405, -0.19706256687641144, -0.31480643153190613, -0.2273932695388794, -0.02417702041566372, -0.6634930372238159, 0.1203940287232399, -0.1725984513759613, -0.11200319230556488, -0.2755593955516815, -0.3881245255470276, 0.1504758894443512, 0.023094279691576958, -0.08153410255908966, 0.03237396106123924, -0.015174421481788158, 0.07290945202112198, -0.16803286969661713, -0.23418954014778137, 0.3225794732570648, 0.23248577117919922, -0.1490565985441208, 0.07836602628231049, -0.013461478054523468, 0.32941657304763794, 0.16943791508674622,
0.1866336613893509, 0.3947109580039978, 0.1277666687965393, -0.06851975619792938, 0.3740593194961548, -0.26074692606925964, -0.020273251459002495, -0.0959143117070198, -0.13184520602226257, 0.012731432914733887, -0.50996994972229, 0.22458836436271667, 0.2327757179737091, -0.21905069053173065, -0.07389625161886215, 0.028918107971549034, -0.25078102946281433, 0.004681088030338287, 0.019887655973434448, 0.08795595914125443, -0.10785887390375137, -0.21573276817798615, 0.04919802397489548, -0.08592493087053299, -0.00798136554658413, -0.2983599901199341, -0.11811304837465286, 0.03127390146255493, 0.23033182322978973, 0.030023422092199326, 0.13037310540676117, -0.11505180597305298, 0.045721691101789474, -0.08227208256721497, -0.2237137109041214, -0.2157689332962036, -0.2778520882129669, 0.5166393518447876, -0.45026305317878723, -0.002824431285262108, 0.313203901052475, -0.07053294032812119, -0.07137037068605423, -0.1897754818201065, -0.028012752532958984, -0.03736516833305359, 0.176714688539505, 0.02189461700618267, 0.09457197785377502, -0.06919105350971222, 0.13190056383609772, -0.10461259633302689, 0.09797850251197815, -0.16273953020572662, -0.5793523788452148, 0.009790622629225254, -0.09103836119174957, -0.18388229608535767, -0.005505714565515518, -0.105294369161129, -0.6433349847793579, -0.3332667052745819, -0.11834906786680222, -0.18817591667175293,
-0.23237189650535583, -0.2106548547744751, -0.2553943991661072, 0.09096702933311462, 0.1101626604795456, -0.21882550418376923, 0.30710068345069885, 0.15710875391960144, -0.16457845270633698, -0.005139339715242386, -0.2696506679058075, -0.018149003386497498, 0.01619994267821312, 0.116762675344944, -0.27778109908103943, 0.06774970889091492, -0.3819098174571991, 0.03972725197672844, 0.10921469330787659, 0.14734050631523132, -0.15801005065441132, -0.20842090249061584, 0.09755948930978775, 0.5031472444534302, -0.15039989352226257, 0.016267573460936546, -0.1801413893699646, -0.04536845535039902, 0.17969974875450134, -0.13729529082775116, -0.2086961269378662, -0.3364391624927521, -0.21131467819213867, 0.025255123153328896, -0.12907814979553223, -0.13386745750904083, -0.21912679076194763, -0.30840179324150085, -0.059140656143426895, -0.1598304957151413, 0.10947692394256592, -0.019967298954725266, 0.20773503184318542, 0.37005963921546936, -0.07159508764743805, -0.14271600544452667, 0.5135694742202759, -0.061084747314453125, 0.24478676915168762, -0.024588951840996742, 0.15379555523395538, -0.3394521474838257, 0.17425499856472015, -0.04283369332551956, 0.13753566145896912, -0.05213848128914833, -0.28070971369743347, -0.20232345163822174, 0.365168958902359, -0.2731168866157532, -0.08570299297571182, 0.07003948837518692, -0.395052045583725, -0.02255299873650074,
0.1356620490550995, -0.20419856905937195, -0.30865126848220825, 0.29816940426826477, 0.1207139790058136, 0.10094017535448074, -0.10316397249698639, 0.2371867597103119, 0.34506508708000183, 0.1394684761762619, 0.24765963852405548, -0.4524751305580139, -0.07827215641736984, 0.20191942155361176, -0.184163898229599, -0.24356868863105774, -0.2241058051586151, 0.17192575335502625, 0.05815085396170616, 0.02393810823559761, -0.024362219497561455, 0.02867472544312477, 0.5906975865364075, 0.008140943013131618, -0.07884982973337173, 0.07923199236392975, 0.042565710842609406, 0.28526732325553894, -0.26694777607917786, -0.03951394185423851, -0.02327381633222103, 0.07616785913705826, -0.06093190610408783, -0.18595992028713226, -0.2274470031261444, 0.32173991203308105, 0.10422929376363754, 0.1159086525440216, -0.050468090921640396, 0.09138588607311249, -0.07987121492624283, 0.02820737287402153, -0.29479867219924927, -0.23577991127967834, 0.09971372038125992, -0.03663570061326027, 0.12049828469753265, 0.03964841365814209, -0.154619961977005, 0.5778023600578308, -0.12653961777687073, -0.5007598996162415, -0.003972302656620741, -0.1863854080438614, -0.23802438378334045, 0.10988330841064453, 0.10169399529695511, 0.09082429111003876, 0.08743750303983688, -0.0986049547791481, -0.1695549488067627, -0.5385939478874207, 0.342442125082016, 0.1972435861825943,
0.3839785158634186, -0.015075717121362686, 0.03359216824173927, 0.25199607014656067, 0.051440998911857605, -0.07109551131725311, 0.09700500220060349, -0.46741360425949097, 0.06651516258716583, 0.2847113013267517, -0.23747025430202484, -0.29022687673568726, 0.04127512499690056, -0.10723268240690231, 0.16043497622013092, 0.04859326779842377, -0.21911799907684326, -0.17903611063957214, 0.4081704318523407, 0.034103453159332275, -0.14806102216243744, -0.3663226068019867, -0.12082096934318542, 0.17053231596946716, -0.06271661818027496, -0.2844673693180084, 0.2647565007209778, -0.036077287048101425, -0.08836568892002106, 0.1828727275133133, 0.4280071258544922, -0.05827053636312485, 0.07263482362031937, -0.08120780438184738, -0.021194076165556908, 0.03529856726527214, 0.28843194246292114, -0.17573773860931396, 0.1596008837223053, -0.13930673897266388, -0.424922913312912, 0.1648893654346466, -0.22957158088684082, -0.05891256034374237, 0.4095394015312195, -0.04385361447930336, -0.3559396266937256, 0.0033567228820174932, 0.14538797736167908, 0.2519979476928711, -0.08792001754045486, -0.10524306446313858, 0.25231972336769104, -0.1502484828233719, 0.04180903360247612, 0.005297489929944277, -0.4110163450241089, -0.041046299040317535, 0.12591718137264252, -0.46857476234436035, 0.06189824640750885, -0.08330714702606201, -0.05826633796095848, -0.175344780087471,
0.2517089247703552, 0.08590776473283768, 0.06380821019411087, 0.22272245585918427, -0.44300591945648193, -0.278056800365448, -0.07875986397266388, 0.06606420874595642, 0.003194310236722231, 0.03010430559515953, -0.11159577965736389, 0.23795506358146667, -0.2934863269329071, 0.06586693227291107, -0.024441365152597427, 0.13690561056137085, 0.06121862307190895, -0.25937706232070923, 0.11895893514156342, -0.02969607338309288, 0.03882025182247162, 0.261605441570282, -0.26373928785324097, 0.11790431290864944, 0.05358569696545601, -0.11191615462303162, -0.09622108191251755, -0.39135095477104187, 0.2179579883813858, -0.05833454057574272, 0.09078136086463928, 0.1946249008178711, -0.06401707231998444, -0.17908485233783722, -0.24041351675987244, -0.13577306270599365, -0.24123133718967438, -0.040994059294462204, 0.18584661185741425, -0.041131142526865005, -0.48908230662345886, 0.013639015145599842, -0.02184450998902321, 0.14233547449111938, 0.34430181980133057, 0.036105796694755554, -0.05519365519285202, 0.1159500703215599, -0.1354665905237198, 0.1340583860874176, -0.3795040547847748, -0.012685175985097885, 0.3211684823036194, -0.09353134036064148, -0.13562993705272675, 0.0038792670238763094, 0.22525763511657715, -0.369228720664978, 0.08945102989673615, 0.04810694232583046, -0.25910958647727966, -0.3539387583732605, 0.4106602072715759, -0.24475854635238647,
0.026243412867188454, -0.5189852118492126, 0.2181437909603119, 0.2054135650396347, -0.4666728377342224, 0.19311004877090454, -0.15572452545166016, -0.5397399663925171, 0.028403958305716515, 0.1589917093515396, 0.11660852283239365, 0.13663706183433533, -0.19106507301330566, -0.08493851125240326, 0.1582528054714203, 0.2075587660074234, -0.32413026690483093, -0.11259657889604568, -0.18011680245399475, 0.3612726330757141, 0.057008326053619385, -0.22605516016483307, -0.17208091914653778, -0.037318065762519836, -0.07801861315965652, -0.1769992858171463, -0.4005502760410309, 0.014336825348436832, -0.019853873178362846, -0.10787995904684067, -0.14151634275913239, -0.20457613468170166, 0.15145854651927948, -0.2888551950454712, 0.09090881049633026, -0.10279815644025803, 0.284816175699234, -0.4245588481426239, 0.26767271757125854, 0.07917521893978119, 0.3591125011444092, -0.08596491813659668, 0.03227274492383003, 0.058230336755514145, 0.07581768929958344, -0.3172819912433624, 0.11675489693880081, -0.0707247406244278, -0.20398269593715668, -0.18623770773410797, 0.04984354227781296, 0.2938707768917084, 0.1334814429283142, -0.29921138286590576, -0.07412391901016235, 0.11911804229021072, 0.09928300976753235, -0.037338078022003174, -0.08003856986761093, 0.14086924493312836, -0.31755730509757996, 0.025714237242937088, -0.021752655506134033, 0.22143405675888062,
-0.006578506901860237, -0.14645810425281525, -0.147657111287117, -0.15587839484214783, -0.15747828781604767, 0.03555930405855179, -0.1871458739042282, -0.04938407614827156, 0.4546428322792053, 0.11113350093364716, 0.003607032122090459, -0.6345281004905701, 0.13053567707538605, -0.04691852629184723, -0.04804759845137596, 0.07675307989120483, -0.17117545008659363, 0.020278606563806534, -0.1856214702129364, 0.3672318458557129, -0.022261571139097214, -0.2551422119140625, 0.10738252848386765, -0.14952610433101654, -0.05632610246539116, -0.2352711409330368, -0.16106100380420685, -0.2020167112350464, 0.297295480966568, -0.2910217046737671, 0.07125375419855118, -0.03988882526755333, -0.10290637612342834, -0.05154435336589813, -0.04162045195698738, -0.27739280462265015, -0.17241835594177246, -0.014100036583840847, 0.3601051867008209, 0.07540355622768402, -0.1093992218375206, -0.15553317964076996, -0.1601737141609192, 0.3850134015083313, 0.2969764471054077, 0.16068734228610992, -0.021811451762914658, -0.11051607131958008, 0.20823675394058228, -0.5301111936569214, -0.38087987899780273, -0.5150787234306335, -0.1643558293581009, -0.11619748175144196, -0.2898437976837158, 0.23295210301876068, 0.34080925583839417, 0.2198941707611084, -0.15716026723384857, -0.14040015637874603, 0.15215390920639038, 0.1289302557706833, 0.12167558073997498, -0.3540123403072357,
-0.23415447771549225, -0.30854177474975586, -0.062196385115385056, 0.35721608996391296, 0.055807776749134064, 0.4318155348300934, -0.15261146426200867, -0.11388319730758667, -0.30204927921295166, -0.028366731479763985, -0.4233684241771698, 0.22040338814258575, 0.24068735539913177, 0.12459571659564972, -0.16474942862987518, 0.13052898645401, -0.0417279414832592, -0.026298239827156067, -0.3602709472179413, -0.30052095651626587, 0.005717374384403229, -0.42806094884872437, 0.12584567070007324, -0.2470681369304657, 0.21742282807826996, 0.1554572433233261, -0.1873008906841278, -0.04559833183884621, -0.05805124342441559, 0.13030563294887543, 0.2211439460515976, 0.0009730232413858175, -0.05624284967780113, -0.24062436819076538, -0.4720076322555542, 0.08336615562438965, -0.04922238737344742, -0.05644289776682854, 0.17163728177547455, -0.2983805537223816, 0.10749631375074387, 0.169234499335289, -0.4329182803630829, -0.27489084005355835, 0.04217357933521271, -0.26441311836242676, 0.36249667406082153, -0.07285816222429276, 0.10532954335212708, -0.07452758401632309, -0.2491556704044342, 0.33383840322494507, -0.019200898706912994, 0.19388709962368011, 0.13051141798496246, -0.07016947865486145, 0.21004578471183777, 0.02725975215435028, 0.1058187261223793, -0.16449500620365143, 0.12646864354610443, -0.23955388367176056, 0.005502038169652224, -0.08536279946565628,
0.35790902376174927, 0.187620148062706, 0.14758612215518951, 0.26710447669029236, 0.20313140749931335, 0.23333348333835602, -0.10507476329803467, 0.07712502032518387, 0.021778738126158714, -0.15984997153282166, -0.14281262457370758, 0.3267006278038025, -0.1165401041507721, -0.196084126830101, 0.15935558080673218, 0.2642064094543457, 0.02159978821873665, -0.1945434957742691, -0.03532813861966133, -0.027674781158566475, -0.3315657675266266, -0.3175121247768402, -0.2221022993326187, 0.006294139660894871, -0.19474458694458008, 0.34436872601509094, -0.5057909488677979, -0.2523006200790405, 0.22466567158699036, -0.14607112109661102, 0.10296981781721115, 0.04489567503333092, -0.13038989901542664, -0.11075972020626068, -0.13507163524627686, -0.12077025324106216, -0.08291351795196533, -0.14157052338123322, 0.15673710405826569, -0.18706274032592773, 0.004469451494514942, -0.19826653599739075, -0.008737080730497837, 0.18322835862636566, -0.27606672048568726, 0.34100455045700073, 0.211745947599411, -0.27547261118888855, 0.055064812302589417, 0.2729843258857727, -0.43526607751846313, -0.3145175278186798, -0.4784306287765503, -0.15843670070171356, -0.21091969311237335, 0.02469702996313572, -0.12938939034938812, -0.21872451901435852, -0.2788742780685425, 0.18552261590957642, 0.21902351081371307, 0.16381920874118805, -0.24143920838832855, 0.14825746417045593,
0.04289321228861809, 0.14940012991428375, -0.26112744212150574, 0.18776603043079376, -0.4149152934551239, -0.16767147183418274, -0.2645493745803833, -0.15147942304611206, -0.19637809693813324, -0.14796550571918488, 0.14242033660411835, -0.33340469002723694, -0.0987386628985405, 0.01559462957084179, -0.5204215049743652, -0.012800665572285652, 0.3360089361667633, 0.06958338618278503, -0.17260725796222687, 0.25146278738975525, -0.2782229781150818, 0.24640007317066193, 0.06043543666601181, -0.003241173690184951, -0.2946503758430481, -0.06530831009149551, 0.22701092064380646, -0.06646869331598282, 0.418054461479187, -0.09017631411552429, -0.11645437031984329, -0.5102084279060364, 0.0020259772427380085, -0.17294681072235107, -0.3362940549850464, -0.008481352590024471, -0.46005064249038696, 0.07938084751367569, 0.1052190288901329, 0.11409816890954971, 0.1317530870437622, 0.1171397864818573, 0.057100776582956314, 0.10105080157518387, 0.18921613693237305, -0.6163663864135742, -0.21028079092502594, 0.10563221573829651, 0.03630434349179268, -0.1263604760169983, 0.05263427272439003, 0.1983959674835205, 0.042769767343997955, -0.36077985167503357, -0.15098963677883148, 0.05089965835213661, -0.3984130620956421, -0.2546830475330353, -0.2516854703426361, 0.15821996331214905, 0.07988335192203522, 0.05101668834686279, -0.5302724242210388, 0.06919655203819275,
0.04515307769179344, 0.05831926688551903, 0.3091922998428345, -0.1247248575091362, 0.010420793667435646, 0.21713867783546448, -0.34091541171073914, 0.3113233745098114, 0.08992213755846024, 0.005278471391648054, -0.10758788883686066, 0.1838647574186325, 0.013036410324275494, 0.3567642271518707, -0.3809066712856293, -0.3608110845088959, -0.2821292579174042, -0.3296211063861847, -0.18355876207351685, 0.1229286789894104, -0.3869248628616333, -0.3144551217556, 0.07110960781574249, -0.32064253091812134, -0.04189470782876015, 0.20619504153728485, 0.010798417963087559, 0.24481263756752014, -0.1155897006392479, 0.18585819005966187, -0.18863952159881592, -0.20720599591732025, 0.2565397024154663, -0.055599432438611984, 0.15352608263492584, -0.023969536647200584, -0.30370280146598816, -0.3739486634731293, 0.03342021256685257, -0.2237512469291687, -0.06388269364833832, -0.05440178140997887, 0.24041813611984253, 0.3593319356441498, 0.32441461086273193, -0.030620930716395378, -0.10668966919183731, 0.07203391939401627, 0.12096928060054779, -0.25369274616241455, 0.1497604250907898, 0.21812768280506134, 0.1961723119020462, 0.02900291047990322, -0.27530911564826965, 0.08150363713502884, 0.10381297022104263, 0.1450948268175125, 0.2656773030757904, -0.9302523732185364, -0.20442107319831848, 0.17181915044784546, -0.051543913781642914, -0.1483151912689209,
0.02147016115486622, 0.019240403547883034, -0.057389792054891586, -0.20531271398067474, -0.4620813727378845, 0.3831641972064972, -0.21542403101921082, -0.16968528926372528, 0.2283962368965149, -0.34743639826774597, 0.1399458348751068, 0.011920253746211529, 0.11854805052280426, -0.12123263627290726, 0.06265630573034286, 0.3564155697822571, -0.03127383813261986, 0.12406151741743088, -0.03215174004435539, 0.10066474974155426, -0.19300465285778046, -0.2603495717048645, 0.2180301398038864, 0.29849007725715637, -0.12017808854579926, -0.016118431463837624, 0.02780776470899582, 0.30001723766326904, -0.06515347212553024, 0.11920278519392014, -0.5541495084762573, 0.10983643680810928, 0.1133258044719696, -0.04481968283653259, -0.327551931142807, -0.016505403444170952, -0.22718451917171478, -0.07386724650859833, 0.14041326940059662, -0.023886511102318764, -0.25369080901145935, 0.4880535900592804, -0.17329749464988708, 0.2643314599990845, -0.260236918926239, 0.33154141902923584, 0.1492483913898468, -0.016489358618855476, -0.01868932694196701, -0.29636406898498535, 0.04371856525540352, 0.11254981905221939, 0.07727216184139252, -0.007472800090909004, -0.13018271327018738, -0.098126620054245, 0.1699892282485962, -0.02829994075000286, -0.032220736145973206, -0.24765364825725555, -0.30064505338668823, 0.3740304410457611, 0.07247788459062576, 0.16559548676013947,
0.3660203516483307, 0.019180692732334137, -0.09359581023454666, -0.040655676275491714, 0.05359449237585068, -0.0591115728020668, 0.3550940752029419, 0.3129476010799408, -0.10936025530099869, 0.19684332609176636, 0.10511500388383865, -0.21965155005455017, 0.2133670449256897, 0.04803374409675598, 0.12391038239002228, 0.07323829084634781, -0.22832603752613068, -0.05679807811975479, -0.18597368896007538, -0.3468691408634186, 0.11996841430664062, -0.03857449069619179, 0.018445758149027824, 0.004332836251705885, 0.08593026548624039, 0.1206279844045639, -0.08204927295446396, -0.08991917967796326, -0.19250719249248505, -0.434812992811203, 0.18777033686637878, -0.28823623061180115, 0.0763247162103653, 0.0934050902724266, -0.09135837852954865, 0.03257846087217331, -0.2160196304321289, 0.29743072390556335, 0.1483464241027832, 0.1018621176481247, -0.09152187407016754, 0.2085019201040268, -0.36632829904556274, -0.10602005571126938, -0.20662830770015717, -0.0137431425973773, -0.32997989654541016, -0.3185392916202545, -0.43996962904930115, 0.13171157240867615, 0.10845576971769333, -0.34332475066185, 0.22579385340213776, -0.14523957669734955, -0.17463645339012146, 0.5132622122764587, -0.018740618601441383, 0.01891259290277958, -0.0786399096250534, -0.22149363160133362, -0.0039354655891656876, -0.0846308171749115, 0.1033516377210617, -0.0928281769156456,
-0.19605986773967743, 0.19121745228767395, 0.005720212589949369, 0.1370416283607483, 0.24877320230007172, 0.316752552986145, -0.16985902190208435, -0.21756239235401154, 0.01621069386601448, -0.011650036089122295, 0.0216402318328619, -0.1512373834848404, -0.2964344918727875, 0.2469511181116104, -0.13203595578670502, -0.1221255511045456, -0.4361639618873596, 0.10115402936935425, 0.04104108363389969, -0.06077546626329422, -0.08432363718748093, -0.12192428112030029, -0.15215185284614563, 0.3354260325431824, 0.2553105354309082, 0.07695322483778, -0.0633312240242958, -0.11966651678085327, 0.27314287424087524, -0.25683844089508057, 0.20859800279140472, 0.22315149009227753, -0.11977121978998184, -0.134548619389534, 0.048264749348163605, -0.33048856258392334, -0.0985536277294159, 0.03526352345943451, -0.009382476098835468, -0.3200097382068634, 0.32957616448402405, -0.08334090560674667, -0.16913054883480072, -0.13345399498939514, 0.1973576694726944, 0.028279945254325867, 0.198020339012146, 0.3692920506000519, -0.13429976999759674, -0.19253484904766083, 0.40257760882377625, 0.19343622028827667, 0.037164486944675446, 0.1888388693332672, -0.04525996744632721, 0.17548315227031708, -0.04173974320292473, -0.24228258430957794, 0.31677570939064026, 0.0012032060185447335, -0.012436543591320515, -0.0626792460680008, -0.44317129254341125, 0.3456733524799347,
-0.0010408858070150018, 0.28170061111450195, 0.228463813662529, -0.058522291481494904, -0.4132937788963318, -0.003670761128887534, -0.33576449751853943, 0.0864981934428215, 0.15018439292907715, 0.023445548489689827, 0.0506470650434494, 0.29952773451805115, 0.1218804195523262, 0.38773924112319946, 0.242447629570961, 0.18451526761054993, 0.23706315457820892, 0.06687696278095245, -0.022647786885499954, -0.10026255995035172, 0.5238741040229797, -0.08614284545183182, 0.3140529692173004, -0.04608139395713806, 0.148885115981102, -0.038161665201187134, 0.073632150888443, -0.09446648508310318, -0.4266778230667114, 0.013869688846170902, -0.21961219608783722, 0.04839179292321205, -0.39526796340942383, -0.13661736249923706, 0.24696189165115356, -0.08608674257993698, 0.1983892321586609, 0.11724869906902313, 0.057855889201164246, 0.011887180618941784, -0.22633463144302368, 0.2090865820646286, -0.24726668000221252, -0.40574702620506287, -0.0437551885843277, -0.31614866852760315, 0.2660541832447052, 0.16684168577194214, 0.3349238634109497, -0.2091687172651291, -0.1312696635723114, 0.3719441592693329, -0.17136293649673462, -0.28680917620658875, 0.03951127454638481, -0.01737280935049057, -0.08993551880121231, -0.27716466784477234, -0.026019640266895294, -0.23724229633808136, -0.07647840678691864, -0.22967538237571716, -0.1493864357471466, 0.31402233242988586,
-0.08129224926233292, 0.19941017031669617, 0.3993484675884247, -0.03206900879740715, -0.1556939333677292, 0.3512013554573059, 0.2264014631509781, -0.06582598388195038, 0.24162383377552032, 0.19867375493049622, -0.4732266664505005, 0.1010056734085083, -0.3685368001461029, -0.02119496650993824, -0.2451743483543396, 0.06479375809431076, 0.28727224469184875, 0.284212201833725, -0.551253616809845, -0.1527792364358902, 0.26173239946365356, -0.09198702871799469, 0.09640687704086304, -0.1435009390115738, -0.04872095584869385, 0.044079069048166275, 0.2287142425775528, -0.0029980000108480453, -0.05188215151429176, 0.012030544690787792, -0.25056126713752747, 0.046336933970451355, 0.5182974934577942, -0.02922825515270233, -0.35243457555770874, -0.37588009238243103, -0.10172291845083237, -0.07955238968133926, -0.09129028022289276, -0.01513092964887619, -0.2583121359348297, -0.012372887693345547, -0.08367850631475449, -0.340759813785553, -0.3683660328388214, -0.20024584233760834, 0.1501762717962265, -0.14625106751918793, -0.16501586139202118, -0.4088093936443329, -0.1411321759223938, -0.2054566740989685, 0.21526093780994415, -0.28574874997138977, 0.1800326406955719, -0.10005784034729004, -0.13158169388771057, -0.14967244863510132, -0.22403119504451752, 0.09034771472215652, -0.08379540592432022, -0.19959698617458344, 0.03530042991042137, 0.052345022559165955,
0.046722203493118286, 0.16476087272167206, 0.20034825801849365, -0.3770103454589844, 0.2080683410167694, 0.35249561071395874, 0.14793425798416138, 0.32890835404396057, -0.5217641592025757, -0.5187567472457886, -0.1028754860162735, 0.08891832828521729, 0.287632554769516, 0.32098904252052307, -0.1959635615348816, 0.09907934814691544, 0.03598882257938385, 0.13020183145999908, 0.2850414514541626, 0.21933087706565857, 0.06892522424459457, -0.14272987842559814, 0.5534423589706421, 0.04096895456314087, 0.1141929104924202, -0.22838816046714783, 0.07031771540641785, -0.20264427363872528, 0.07809906452894211, 0.15745028853416443, -0.2602849304676056, -0.32131028175354004, -0.027498820796608925, 0.2555798590183258, -0.056351546198129654, -0.23000404238700867, 0.05276123434305191, -0.056090712547302246, 0.4468626379966736, -0.27000680565834045, 0.23753374814987183, 0.10706397145986557, -0.26046350598335266, -0.06222044676542282, -0.21420395374298096, 0.005195044446736574, -0.2297440469264984, 0.29946640133857727, -0.05847783014178276, -0.1237417459487915, -0.04175031930208206, -0.01284761168062687, -0.14592179656028748, -0.03314008191227913, -0.31821209192276, -0.06142614409327507, 0.16721685230731964, 0.14852134883403778, -0.049024052917957306, -0.13739043474197388, -0.08391787856817245, -0.2841641902923584, -0.12255806475877762, 0.11919542402029037,
-0.11724657565355301, 0.22068370878696442, -0.23403438925743103, -0.1335405707359314, 0.0471922904253006, -0.15404942631721497, -0.11019989848136902, -0.04306008294224739, 0.0071226623840630054, 0.041524987667798996, -0.008583282120525837, -0.2400391846895218, -0.08567482978105545, 0.20029844343662262, -0.0894969180226326, 0.1412554532289505, -0.19345904886722565, -0.22212925553321838, -0.2127877026796341, -0.2595977187156677, 0.21922482550144196, 0.4031248986721039, -0.1564217060804367, -0.0739872083067894, -0.203549325466156, -0.18582265079021454, -0.0739671140909195, 0.048690930008888245, -0.1344396024942398, 0.2432047426700592, -0.10471273958683014, -0.2615475058555603, -0.06191500648856163, 0.06124850735068321, -0.2295125126838684, 0.03725096583366394, 0.22842572629451752, 0.10321030020713806, 0.2509874701499939, -0.1579946130514145, 0.0733298659324646, 0.15340542793273926, -0.13569463789463043, 0.2231755256652832, 0.33758580684661865, 0.2931290566921234, 0.3199659585952759, 0.21723806858062744, -0.40121951699256897, 0.16122297942638397, 0.17012660205364227, -0.09006768465042114, -0.01893988624215126, 0.33585265278816223, 0.1103103831410408, 0.4117524325847626, 0.00623056897893548, -0.37991273403167725, -0.43524810671806335, -0.30905571579933167, -0.05602992698550224, 0.09716016799211502, -0.26450297236442566, -0.04800577089190483,
0.2302836775779724, 0.10566264390945435, 0.16821099817752838, -0.35162875056266785, -0.5913519859313965, 0.04403389245271683, 0.18103128671646118, 0.027767512947320938, 0.44256892800331116, -0.25989818572998047, 0.25840479135513306, 0.026338588446378708, -0.4235329329967499, -0.016550958156585693, 0.1164875477552414, 0.35807526111602783, 0.24572286009788513, -0.06447436660528183, -0.37779226899147034, -0.02896634116768837, -0.20355629920959473, -0.31783756613731384, 0.26574891805648804, -0.1111857071518898, -0.3176037073135376, -0.3685157001018524, 0.33692094683647156, -0.06400483846664429, -0.04459044337272644, -0.008431291207671165, -0.2771606147289276, 0.15516942739486694, -0.04611751437187195, 0.06776578724384308, -0.16135163605213165, 0.2973428964614868, 0.24510407447814941, 0.02105898968875408, -0.03632783889770508, -0.19938130676746368, 0.04507366195321083, -0.07920953631401062, 0.23712070286273956, 0.25740593671798706, 0.3603907525539398, 0.1227349117398262, -0.0879092887043953, -0.1415100395679474, 0.13706962764263153, -0.17058397829532623, 0.054728928953409195, -0.031400129199028015, 0.0711631253361702, -0.12682290375232697, -0.15559349954128265, 0.11484553664922714, -0.04628361761569977, -0.3614663779735565, 0.23641729354858398, 0.09747614711523056, 0.13129453361034393, -0.17228956520557404, -0.10290122777223587, -0.14980465173721313,
-0.16913647949695587, 0.12772293388843536, -0.09195034950971603, -0.33099955320358276, 0.32729873061180115, 0.2951454222202301, 0.26511913537979126, -0.2618713974952698, 0.026286637410521507, -0.05235057696700096, 0.26674720644950867, -0.02912253513932228, -0.2788991630077362, 0.2934959828853607, -0.037900954484939575, 0.19437767565250397, 0.1374894380569458, -0.23117327690124512, -0.026973465457558632, 0.249718576669693, -0.19087475538253784, -0.10162027180194855, -0.19913196563720703, 0.00208538887090981, -0.47937214374542236, -0.009505758993327618, 0.15271267294883728, 0.18558038771152496, -0.16402602195739746, -0.0343102365732193, 0.20119425654411316, 0.4253286123275757, -0.27308839559555054, -0.0982496365904808, 0.09209407866001129, -0.0200812891125679, -0.12522713840007782, -0.22867973148822784, -0.25458618998527527, 0.12894843518733978, -0.011171168647706509, -0.3635229170322418, -0.39825060963630676, 0.028168445453047752, 0.019513284787535667, -0.3900282084941864, -0.1482919156551361, -0.3947272002696991, -0.0626123771071434, 0.34137091040611267, 0.06758634746074677, -0.017270077019929886, 0.31822243332862854, 0.23634710907936096, 0.07658632099628448, 0.20103098452091217, 0.26713040471076965, 0.10606369376182556, 0.05013422295451164, 0.16287250816822052, -0.13902200758457184, -0.06617400795221329, -0.15045969188213348, 0.42141127586364746,
0.036888256669044495, 0.042933784425258636, 0.27613237500190735, -0.17569713294506073, 0.020765842869877815, -0.11390137672424316, -0.28534725308418274, -0.24742522835731506, 0.04526287689805031, 0.041648734360933304, 0.2062380611896515, -0.11172831058502197, 0.5177056789398193, -0.057941436767578125, 0.010531684383749962, -0.09817515313625336, 0.1975025236606598, 0.34215041995048523, -0.16973483562469482, -0.12201808393001556, 0.07772257924079895, 0.23888303339481354, 0.2671307921409607, -0.06975490599870682, 0.126961812376976, -0.10931846499443054, 0.483203262090683, -0.27866286039352417, -0.02442268282175064, -0.01047973521053791, -0.26516613364219666, -0.14486004412174225, -0.11887656897306442, -0.24881839752197266, 0.11003921926021576, -0.3399439752101898, 0.2232387661933899, 0.28797611594200134, -0.08723907172679901, -0.0123376976698637, 0.11933381110429764, 0.3317170739173889, 0.15430685877799988, 0.19448336958885193, 0.25463616847991943, 0.011186123825609684, -0.18965737521648407, -0.08246968686580658, 0.005298261996358633, 0.4646199643611908, 0.0730813518166542, -0.1224118173122406, 0.27658259868621826, -0.1764240264892578, -0.12195354700088501, -0.2885177731513977, 0.0976758822798729, -0.1927511990070343, 0.3640861511230469, -0.2337236851453781, -0.014853856526315212, -0.21740464866161346, 0.19280242919921875, 0.18326307833194733,
