#include "neural_network.h"
#include <stdio.h>
#include <math.h>

const float weights_fc1[] = {
0.43296727538108826, 0.6764397621154785, -0.3382454812526703, 0.04451664164662361, -0.13613282144069672, 0.7601245045661926, -0.06899062544107437, -0.08086889982223511, -0.13473649322986603, -0.08732383698225021, -0.12997253239154816, 0.1024218201637268, -0.16022345423698425, -0.4388516843318939, -0.07966052740812302, 0.15436984598636627, -0.30460506677627563, 0.18321669101715088, 0.01092105358839035, -0.05720492824912071,
-0.07835223525762558, -0.629531979560852, -0.5509060621261597, -0.03509552404284477, -0.1345275342464447, -0.19287548959255219, -0.5906341671943665, 0.6619293093681335, 0.010030887089669704, -0.016531070694327354, -0.028259772807359695, 0.332858145236969, -0.07090283185243607, 0.351284921169281, -0.13500922918319702, 0.4337157905101776, 0.5261663198471069, 0.2625582814216614, 0.14018577337265015, -0.10085683315992355,
-0.1270017772912979, 0.7289862632751465, 0.9235314130783081, -0.04864014312624931, 0.09328867495059967, 0.18122228980064392, -0.2905432879924774, 0.4566453993320465, 0.6771563291549683, -0.05138513073325157, -0.04016382247209549, 0.32075250148773193, 0.34455978870391846, -0.49396955966949463, 0.033803630620241165, -0.22427557408809662, 0.16746734082698822, -0.4760149121284485, -0.05595365911722183, -0.21840792894363403,
0.19787517189979553, -0.41265639662742615, 0.3378940522670746, -0.07482244074344635, -0.15162307024002075, 0.2144036740064621, -0.9029241800308228, 0.33868488669395447, -0.2651354968547821, -0.09569402039051056, 0.09075093269348145, -0.04615506902337074, -0.023161089047789574, 0.2717871069908142, 0.0037078240420669317, -0.1343850940465927, 0.11584636569023132, 0.10009613633155823, 0.1277434378862381, 0.3605175018310547,
-0.3445979654788971, -0.5900698900222778, 0.32682713866233826, 0.10026029497385025, -0.15432722866535187, 0.28641432523727417, -0.03738832473754883, -0.23781655728816986, -0.32176533341407776, -0.09313289076089859, -0.02274642139673233, 0.03235134854912758, 0.7787637710571289, -0.1309967190027237, -0.24480366706848145, -0.8900401592254639, -0.032025277614593506, 0.09148301184177399, 0.16695885360240936, 0.02790336310863495,
-0.09589654952287674, -0.09087284654378891, 1.0915701389312744, -0.02619308792054653, -0.05144588649272919, 0.45923087000846863, 0.7039545774459839, -0.25244203209877014, -0.07964427769184113, 0.05303698778152466, -0.13519366085529327, 0.14417681097984314, -0.28794121742248535, -0.4834189713001251, 0.5943466424942017, -0.07587471604347229, 0.020862052217125893, -0.05753904581069946, -0.09093879908323288, 0.036759212613105774,
-0.1260543018579483, -0.016271069645881653, -0.8400852084159851, -0.002617159392684698, 0.06315366923809052, -0.1038627028465271, -0.04312681779265404, -0.3719240725040436, 0.014080321416258812, 0.003416585037484765, 0.09681575745344162, 0.0005602319142781198, 0.002034032717347145, 0.5382388234138489, -0.11671915650367737, -0.41078999638557434, 0.10812221467494965, 0.03526502847671509, 0.29979461431503296, 0.4498057961463928,
0.723171591758728, 0.052046943455934525, 0.3430705964565277, 0.1093178316950798, -0.057523421943187714, -0.015335134230554104, 0.2862117886543274, -0.41640037298202515, -0.039262741804122925, 0.09457989037036896, 0.12400054186582565, 0.2715179920196533, -0.1416953057050705, -0.16403600573539734, 0.27945688366889954, -0.20265084505081177, -0.07662973552942276, 0.0817674994468689, -0.058546461164951324, -0.009454400278627872,
-0.6238462328910828, -0.22641712427139282, 0.0776812881231308, -0.16570033133029938, -0.08837488293647766, 0.12936633825302124, -0.07420559227466583, 0.17398220300674438, 0.25056445598602295, 0.013322251848876476, 0.09004265815019608, 0.10439024865627289, -0.22304703295230865, 0.3248431384563446, -0.14662614464759827, 0.20724177360534668, 0.788179337978363, 0.19000579416751862, 0.14132004976272583, -0.1630098521709442,
-0.029325978830456734, -0.3083325922489166, -0.33243879675865173, -0.12689045071601868, 0.10216330736875534, 0.060342010110616684, 0.27231985330581665, 0.6928752064704895, -0.4976480305194855, -0.111117422580719, -0.11568483710289001, -0.03160294145345688, 0.14324846863746643, 0.08155553042888641, -0.009828081354498863, 0.040024444460868835, 0.22445227205753326, -0.340648353099823, 0.19897396862506866, -0.0033474708907306194,
-0.15884938836097717, 0.12693069875240326, -0.6757165789604187, 0.04949028789997101, -0.040386442095041275, -0.23535160720348358, -0.3322787582874298, 0.025710145011544228, -0.4036145806312561, 0.1604914516210556, -0.17100171744823456, 0.20962296426296234, -0.0037545340601354837, -0.873299241065979, 0.6612484455108643, -0.009094733744859695, -0.15515926480293274, -0.13160072267055511, -0.2340410053730011, -0.3863564133644104,
-0.4322757124900818, -0.5091755390167236, 0.22923544049263, -0.17303308844566345, 0.08354353159666061, 0.4311709702014923, -0.6467835307121277, 0.32319045066833496, -0.5784441828727722, -0.13962295651435852, -0.01714061200618744, -0.05647863447666168, 0.4261917471885681, 0.41520458459854126, -0.48272374272346497, -0.07117792963981628, -0.025815265253186226, -0.09437941759824753, -0.15604229271411896, -0.19830814003944397,
0.3768514096736908, 0.452965646982193, -0.9624539017677307, -0.2282000482082367, -0.08431968092918396, -0.06805027276277542, -0.1911127269268036, -0.0260553490370512, -0.12781605124473572, -0.3210601806640625, 0.08991006016731262, 0.2723454535007477, -0.8284280896186829, -0.369272917509079, -0.07843434810638428, -0.32601436972618103, -0.291835218667984, 0.18034255504608154, -0.32792484760284424, 0.2185576856136322,
-0.23657529056072235, 0.2091405689716339, -0.2027115821838379, -0.034139979630708694, -0.07737080007791519, -0.009865093976259232, -0.614062488079071, 0.08060705661773682, -0.3352208435535431, -0.06431786715984344, -0.003168934490531683, 0.12982940673828125, -0.26988545060157776, 0.806624174118042, -0.29332444071769714, -0.25941088795661926, 0.36557114124298096, 0.2928116023540497, -0.25255414843559265, 0.17367638647556305,
-0.05062196031212807, 0.3727225065231323, 0.41908690333366394, -0.2611435651779175, -0.10067794471979141, -0.6050401329994202, 0.34953024983406067, 0.12162703275680542, -0.07167941331863403, -0.16347897052764893, 0.025613779202103615, -0.28733885288238525, 0.3094581961631775, 0.21335338056087494, -0.6188792586326599, -0.33898407220840454, 0.05308186635375023, 0.20534272491931915, 0.06028620898723602, 0.18127569556236267,
-0.1401366889476776, -0.019316351041197777, -0.35077837109565735, -0.15354351699352264, -0.06541650742292404, -0.33126670122146606, -0.012269130907952785, 0.33019307255744934, -0.009003328159451485, -0.07306545227766037, -0.09923738241195679, -0.036222659051418304, 0.6769145727157593, -0.06329240649938583, 0.446525514125824, -0.5404966473579407, 0.3025084435939789, -0.13494719564914703, -0.14820310473442078, 0.0210390817373991,
-0.4062422215938568, 0.4969567060470581, 0.7719294428825378, -0.08800062537193298, 0.06966820359230042, 0.5023866295814514, 0.1658855825662613, -0.9316418766975403, 0.22460196912288666, 0.0013983098324388266, -0.12674686312675476, -0.09613363444805145, 0.2673555314540863, -0.2887355089187622, 0.07107698917388916, -0.4221947193145752, 0.10959317535161972, 0.15977980196475983, -0.009743926115334034, -0.07028577476739883,
0.46516144275665283, -0.6981695890426636, -0.056822068989276886, 0.3428061306476593, 0.025647928938269615, -0.09623681008815765, -0.2766385078430176, -0.4986240267753601, -0.19058504700660706, -0.10416259616613388, -0.030442990362644196, 0.3057817816734314, -0.5491542220115662, -0.38591721653938293, -0.23575274646282196, -0.04179450124502182, -0.3518209159374237, 0.28949621319770813, -0.11226055026054382, 0.4002370536327362,
-0.08011645078659058, -0.021771332249045372, 0.25908681750297546, -0.023406393826007843, 0.11313000321388245, -0.1887149214744568, -0.12844619154930115, 0.03298484906554222, -0.8367391228675842, 0.03073073923587799, 0.025237683206796646, -0.24815219640731812, 0.11799032986164093, -0.2106768786907196, -0.15893331170082092, -0.25380292534828186, 0.3883548378944397, -0.11592748016119003, 0.06587636470794678, -0.059824179857969284,
0.21623997390270233, -0.2936142683029175, 0.25814270973205566, 0.08702930063009262, -0.07170093804597855, -0.13554111123085022, 0.3041585385799408, -0.24678035080432892, -0.0972721204161644, 0.035109441727399826, -0.015822330489754677, -0.5478180646896362, -0.022304972633719444, -0.34651100635528564, -0.010431147180497646, 0.15466931462287903, 0.2629295885562897, -0.021098218858242035, -0.43778273463249207, -0.05162057280540466,
0.1820412427186966, -0.07476633042097092, 0.4457847774028778, -0.47875621914863586, -0.06825646013021469, -0.5282506346702576, -0.04955979436635971, 0.48960915207862854, 0.07956787198781967, -0.18245358765125275, 0.01911630854010582, -0.06302254647016525, 0.2588747441768646, 0.29937320947647095, -0.23629391193389893, -0.2285485565662384, -0.17760682106018066, -0.10309597104787827, -0.03368417173624039, 0.0739545151591301,
-0.3949699401855469, 0.2905389368534088, -0.22742781043052673, -0.21547570824623108, 0.1006297618150711, 0.37727051973342896, 0.8866636157035828, 0.20970545709133148, 0.10898407548666, 0.013133196160197258, -0.10333564132452011, 0.3882012665271759, 0.11671707034111023, 0.4750518202781677, -0.34384411573410034, 0.6684114336967468, -0.19303831458091736, -0.24705857038497925, 0.05674697458744049, 0.19982412457466125,
0.7053853273391724, -0.260139137506485, 0.5402058362960815, 0.2610153257846832, -0.06874709576368332, -0.002705000340938568, -0.005413773003965616, 0.3177770972251892, -0.7419003844261169, -0.02571001462638378, -0.03408410772681236, -0.34934186935424805, 0.025111613795161247, -0.19969961047172546, 0.5642569661140442, -0.14093822240829468, 0.0006857381667941809, -0.19215083122253418, 0.09758774191141129, 0.26348626613616943,
0.09748627245426178, 0.4846010208129883, 1.360162615776062, -0.01243526954203844, 0.19386209547519684, 0.4576527774333954, -0.7457057237625122, 0.8811231255531311, -0.18657606840133667, -0.07053891569375992, 0.03620798885822296, -0.09690971672534943, 0.02996249869465828, 0.2877795100212097, -0.3858223557472229, -0.3536587357521057, 0.29683831334114075, -0.006601134315133095, -0.2769400179386139, -0.0028366134501993656,
0.3463124930858612, -0.20683687925338745, -0.38412389159202576, 0.21098533272743225, -0.08928456157445908, -0.05869973450899124, 0.4843430519104004, -0.179509237408638, 0.31839704513549805, -0.10056708008050919, -0.026952628046274185, -0.07926499098539352, 0.008963684551417828, -0.03102555125951767, 0.08583157509565353, 0.08076153695583344, -0.07469616085290909, -0.38787907361984253, 0.21541383862495422, -0.5480115413665771,
0.02403993159532547, -0.4418414533138275, 0.9055859446525574, 0.022006893530488014, 0.013580109924077988, 0.14220738410949707, 0.5278490781784058, 0.8332054615020752, -0.9457418918609619, 0.05496591702103615, -0.032252926379442215, 0.08142881840467453, -0.11936835944652557, -0.4603257179260254, 0.6171954870223999, -0.1443766951560974, -0.11320285499095917, 0.08717929571866989, -0.30898162722587585, -0.09029459953308105,
-0.4759357273578644, -0.17472460865974426, 0.747356653213501, -0.3798235356807709, -0.2916971743106842, 0.3310454785823822, 0.23438803851604462, 0.20005467534065247, 0.24099966883659363, -0.15351378917694092, 0.003907924052327871, 0.12022895365953445, -0.5018930435180664, -0.04581790789961815, -0.07590538263320923, -0.07852349430322647, 0.2614917457103729, -0.22624850273132324, 0.005237768404185772, -0.2872347831726074,
0.004348660819232464, 0.530881941318512, -0.7180678844451904, 0.2420995980501175, -0.17130853235721588, 0.05946900323033333, -0.6032079458236694, 0.5399348139762878, 0.4309479594230652, 0.029800649732351303, 0.02893141284584999, -0.31822335720062256, 0.23810343444347382, 0.11582433432340622, -0.07161910831928253, -0.2524920105934143, -0.4798930287361145, 0.12580165266990662, 0.018827853724360466, 0.00030990998493507504,
-0.040599871426820755, 0.45692867040634155, 0.16944049298763275, -0.22797469794750214, 0.24744877219200134, 0.36102360486984253, -0.3526027798652649, 0.5956738591194153, -0.009743444621562958, -0.0477914921939373, 0.0506826788187027, 0.15635156631469727, -0.020194292068481445, 0.10220115631818771, -0.12710458040237427, -0.2816457748413086, -0.6218040585517883, 0.019008301198482513, 0.08876746892929077, -0.2248610109090805,
-0.256247878074646, 0.029414396733045578, 0.4341670572757721, 0.019284522160887718, -0.2071138471364975, -0.07919556647539139, 0.36428341269493103, 0.023382630199193954, -0.7378163933753967, 0.00017673446564003825, -0.14779114723205566, 0.434388130903244, 0.13671496510505676, -0.21577271819114685, 0.24205222725868225, -0.25862881541252136, -0.2523234188556671, 0.09583105146884918, 0.20283518731594086, -0.09235918521881104,
0.07567084580659866, -0.4613100588321686, -0.12262773513793945, 0.04871978983283043, -0.08402014523744583, 0.2403341382741928, -0.6255542039871216, -0.15290719270706177, -0.059114012867212296, 0.046227071434259415, -0.038479533046483994, 0.2889094054698944, 0.11438222229480743, 0.29744210839271545, -0.016892321407794952, -0.08039689064025879, 0.06235797330737114, -0.10256059467792511, -0.09055633842945099, 0.16844426095485687,
-0.10445970296859741, -0.8390317559242249, -0.08895319700241089, -0.24536097049713135, -0.21651162207126617, -0.2600775957107544, -0.2070906162261963, -0.8139104843139648, -0.6186458468437195, 0.01561607513576746, -0.05848686024546623, 0.2647162675857544, 0.3419225215911865, 0.1707916110754013, 0.16534052789211273, -0.4844576418399811, 0.08172223716974258, -0.11920863389968872, -0.22894187271595, -0.14392556250095367,
-0.18917472660541534, 0.599613606929779, -0.5868635773658752, -0.012514964677393436, 0.1319698691368103, -0.46246108412742615, 0.46345582604408264, -0.42208364605903625, 0.32958340644836426, -0.07203107327222824, -0.3656018376350403, 0.3418949246406555, -0.17949576675891876, -0.18347492814064026, 0.22513841092586517, -0.36960017681121826, -0.2417389154434204, 0.27492284774780273, 0.07695398479700089, 0.08978134393692017,
-0.5614119172096252, 0.1853979229927063, -0.29990968108177185, -0.07458362728357315, 0.3729158043861389, -0.031470946967601776, 0.06303755193948746, 0.11441224813461304, -0.21030913293361664, 0.09461753070354462, 0.038630660623311996, -0.024202195927500725, -0.6999045014381409, -0.7162477374076843, -0.41808706521987915, 0.6980507969856262, -0.03339617699384689, 0.10433259606361389, -0.027498170733451843, 0.47649475932121277,
0.12611864507198334, 0.14340543746948242, 0.7076449394226074, 0.034621935337781906, 0.054556358605623245, 0.30624309182167053, -0.2767546772956848, -0.20545999705791473, -0.6564400792121887, 0.055219702422618866, 0.023621270433068275, -0.12396058440208435, -0.11380142718553543, -0.2852555811405182, 0.4933018982410431, -0.003794657764956355, -0.12006440758705139, 0.43728476762771606, 0.45678120851516724, -0.11851365864276886,
-0.1691727191209793, -0.9040079712867737, -0.3675525188446045, -0.059897806495428085, -0.3569694757461548, -0.01250878069549799, 0.3264850378036499, 0.395368754863739, 0.35180360078811646, 0.08921781182289124, 0.14783962070941925, -0.12016014009714127, -0.4073767066001892, -0.2315443903207779, 0.16215570271015167, 0.6289085745811462, 0.025968778878450394, 0.23619744181632996, 0.18002037703990936, 0.3665277063846588,
-0.49883875250816345, 0.18487778306007385, 0.315603107213974, -0.003749375231564045, -0.09948775917291641, -0.30430692434310913, -0.5133349895477295, 0.8153131604194641, 0.28485000133514404, -0.0389469675719738, 0.0007079898496158421, -0.2558403015136719, 0.2908306121826172, 0.17340350151062012, -0.1990959495306015, -0.18691937625408173, -0.14816144108772278, -0.12407276779413223, -0.11164504289627075, 0.017525115981698036,
0.4524397850036621, -0.4565029442310333, 0.15940424799919128, -0.02267797291278839, -0.3265645503997803, -0.19224466383457184, -0.144285187125206, 0.39686453342437744, 0.48392394185066223, -0.06469357758760452, -0.03339091315865517, 0.2384590059518814, -0.8874266147613525, -0.20795318484306335, 0.32000529766082764, 0.29241982102394104, 0.005288205575197935, 0.3452491760253906, 0.10745414346456528, 0.06154601275920868,
0.19153334200382233, 0.032932259142398834, 0.010136405006051064, -0.18579156696796417, -0.005179353058338165, 0.07636921852827072, -0.5395556688308716, 0.25605836510658264, -0.31219998002052307, -0.12890249490737915, 0.11920643597841263, 0.10163924843072891, 0.45715779066085815, -0.24586622416973114, 0.01085269171744585, -0.09465999156236649, -0.013032205402851105, -0.07588646560907364, -0.03226390853524208, -0.3715057969093323,
0.025756875053048134, -0.13774320483207703, -0.26445865631103516, -0.5309371948242188, 0.1687198132276535, -0.35885921120643616, 0.41316312551498413, 0.17438971996307373, 0.03345498442649841, -0.003417530097067356, 0.024038802832365036, -0.07798393815755844, 0.03923695534467697, -0.18983115255832672, -0.18373161554336548, 0.2875683605670929, 0.45719432830810547, 0.2042549103498459, 0.13846631348133087, -0.13853223621845245,
0.8199702501296997, 0.18871358036994934, 0.5654275417327881, 0.21925413608551025, 0.11806550621986389, 0.2977229058742523, -0.4904610514640808, -0.06372174620628357, 0.7659119963645935, -0.06597117334604263, -0.12832926213741302, -0.2862360179424286, 0.1791403740644455, -0.00975709781050682, -0.2697567641735077, -0.3127535581588745, -0.0553358718752861, 0.16172946989536285, -0.2929380536079407, 0.19811108708381653,
-0.25587448477745056, 0.36482885479927063, -1.6650320291519165, 0.07357443124055862, -0.08642679452896118, -0.19339507818222046, -0.07928405702114105, -0.06288483738899231, -0.2904176414012909, 0.0925537645816803, -0.0032541947439312935, 0.19864585995674133, -0.28371456265449524, -0.21872496604919434, -0.19506822526454926, 0.48004233837127686, 0.2591903805732727, -0.4800407588481903, 0.18713678419589996, -0.3771141469478607,
0.7816042304039001, -0.5448119044303894, 0.08211749792098999, 0.20364312827587128, -0.04074840992689133, 0.1941046565771103, 0.09851294010877609, 0.870071530342102, 0.7756182551383972, -0.029294319450855255, 0.037578433752059937, 0.4771776497364044, 0.13003452122211456, -0.13980676233768463, -0.17752735316753387, -0.2941645681858063, -0.03396647796034813, -0.013336285017430782, 0.20442365109920502, -0.14693184196949005,
-0.08848801255226135, -0.8084847927093506, -0.0569080114364624, 0.13697373867034912, -0.14186805486679077, 0.05366005375981331, -0.30135422945022583, -0.7628560662269592, -0.43728211522102356, -0.02523530088365078, -0.12831076979637146, 0.25937533378601074, 0.513620913028717, -0.19115588068962097, 0.043353121727705, -0.5061529278755188, -0.07882577180862427, 0.1706630438566208, 0.17039978504180908, 0.15931080281734467,
0.3543950021266937, -0.3803662061691284, 0.12457066029310226, -0.05939719080924988, -0.31594136357307434, 0.08006293326616287, -0.4781899154186249, -0.2587238550186157, -0.5167683959007263, -0.029788488522171974, -0.07025055587291718, 0.16031114757061005, 0.3188454210758209, 0.05063088238239288, -0.1695927083492279, -0.5789752006530762, -0.12059938162565231, 0.3354817032814026, 0.0068458085879683495, 0.21912476420402527,
0.14717568457126617, -0.002522108843550086, 0.5712127089500427, -0.0886421650648117, -0.18513277173042297, -0.035663336515426636, -0.17852070927619934, -0.11249890923500061, 0.285431832075119, -0.08061961829662323, -0.3309517204761505, 0.29092293977737427, 0.5314976572990417, 0.2686271369457245, 0.11228103190660477, 0.06354089081287384, -0.20961208641529083, -0.10077356547117233, -0.1760357916355133, -0.06745944917201996,
-0.13221247494220734, 0.14004449546337128, -0.38446274399757385, 0.037398651242256165, 0.046203844249248505, 0.29001861810684204, 0.6263865232467651, 0.8876867890357971, 0.04715115949511528, 0.01915789395570755, -0.08903449773788452, -0.42937618494033813, -0.1275576949119568, -0.07468799501657486, 0.21979650855064392, 0.30613431334495544, 0.428661048412323, 0.11656957864761353, -0.2703149914741516, -0.29264169931411743,
0.5480538606643677, 0.6510637402534485, 0.4988740086555481, -0.08086037635803223, 0.32096171379089355, 0.3107532262802124, -0.2050202637910843, 0.2667583227157593, 0.18684032559394836, 0.09501532465219498, -0.28626298904418945, -0.1838999092578888, -0.38361257314682007, -0.032212719321250916, -0.09249383956193924, 0.11552202701568604, -0.236506387591362, 0.21329310536384583, 0.008462765254080296, -0.07743468135595322,
0.21852274239063263, 0.1878669559955597, 0.00397159717977047, -0.056989025324583054, 0.09968238323926926, -0.10982948541641235, 0.24599719047546387, -0.38009169697761536, -0.101762555539608, 0.03934021294116974, 0.19335998594760895, 0.020624345168471336, -0.6412965059280396, -0.0643085315823555, 0.30026230216026306, 0.28425782918930054, -0.011427685618400574, -0.4802704453468323, -0.12746365368366241, -0.17229701578617096,
0.5829259157180786, 0.3157775104045868, 0.04994239658117294, -0.12099352478981018, 0.18048757314682007, -0.269998699426651, 0.28311488032341003, 0.4261761009693146, -0.3838880658149719, 0.15849028527736664, -0.06162324175238609, 0.2852073311805725, -0.42936620116233826, 0.31677520275115967, -0.2733462154865265, -0.38169968128204346, 0.05382402613759041, -0.17578154802322388, 0.09335236251354218, 0.11764898151159286,
-0.5274381041526794, -0.2671205699443817, 0.170093834400177, -0.09877463430166245, -0.1454857736825943, 0.0468597449362278, -0.6224511861801147, -0.8416221141815186, -0.28931301832199097, -0.042920663952827454, -0.10313519835472107, -0.3481723368167877, 0.3245176374912262, -0.2255871444940567, 0.4614909589290619, -0.16199302673339844, -0.15125122666358948, -0.3790605664253235, 0.04994884505867958, 0.11761044710874557,
0.1563282310962677, 0.500954806804657, -0.6650422215461731, 0.10249515622854233, 0.10016517341136932, -0.09644584357738495, -0.0207060594111681, 0.61385178565979, -0.5289404392242432, -0.021902168169617653, -0.02097409963607788, -0.01915799081325531, 0.08118990808725357, 0.061280421912670135, -0.05718137323856354, 0.09882916510105133, 0.5261959433555603, 0.004332232289016247, -0.10911940783262253, 0.4479779303073883,
0.2542288303375244, -0.30286815762519836, 0.04630804806947708, -0.4403296709060669, -0.05593709275126457, -0.34415125846862793, -0.020593876019120216, 0.20698195695877075, 0.14434590935707092, 0.1794958859682083, -0.10198642313480377, -0.13772670924663544, 0.3853928744792938, 0.10189209133386612, 0.030963342636823654, -0.4270281493663788, -0.04365365579724312, -0.18428848683834076, 0.0009549749083817005, 0.2905018925666809,
0.07000336796045303, -0.29474514722824097, -0.007858946919441223, -0.3614993095397949, -0.08092892915010452, -0.22668574750423431, 0.41311901807785034, 0.12942202389240265, -0.7028820514678955, -0.023841340094804764, 0.14155229926109314, -0.3076821267604828, 0.0708506777882576, 0.1910805106163025, 0.09878543019294739, -0.12186719477176666, -0.43575504422187805, 0.23248982429504395, -0.10732325911521912, 0.057329531759023666,
-0.5660765171051025, -0.49213430285453796, -0.7672459483146667, 0.04210193082690239, 0.016512038186192513, -0.06455396115779877, 0.1495434194803238, 0.20864836871623993, -0.5398113131523132, 0.024601051583886147, 0.11658694595098495, 0.18075330555438995, -0.43951818346977234, 0.226559117436409, -0.2009504735469818, -0.003129167715087533, -0.08602119982242584, -0.19206802546977997, 0.030430294573307037, -0.40745994448661804,
0.4961002767086029, 0.05580438673496246, -0.5724231004714966, -0.08867059648036957, 0.10634267330169678, -0.2043749839067459, -0.7380927801132202, -0.05992729589343071, -0.8183369040489197, -0.053772784769535065, 0.0042749675922095776, 0.24795903265476227, 0.15218061208724976, 0.08869148045778275, -0.10968045890331268, -0.00991589855402708, 0.019458062946796417, -0.14209675788879395, 0.11980793625116348, -0.1552591472864151,
-0.0898950845003128, -0.5480464100837708, -0.13861460983753204, -0.1816009283065796, -0.05341517925262451, -0.2596369683742523, 0.5451613664627075, 0.18581920862197876, -0.44152429699897766, -0.058669786900281906, -0.24674099683761597, -0.2587939500808716, 0.012602648697793484, 0.28130605816841125, -0.06122182682156563, -0.6283190846443176, -0.10238265246152878, 0.1700105518102646, -0.024901721626520157, -0.055178310722112656,
-0.15517675876617432, 0.4543018341064453, 0.3232649862766266, 0.08743835240602493, 0.06041285768151283, -0.12283159047365189, 0.3720542788505554, -0.5273838639259338, 0.962454080581665, 0.050124116241931915, -0.057681623846292496, 0.1676703244447708, -0.10005590319633484, -0.4062511622905731, 0.37318557500839233, 0.062702476978302, 0.23818260431289673, -0.18268491327762604, 0.22150462865829468, -0.19980882108211517,
0.044832419604063034, -0.29488587379455566, 0.9232351779937744, -0.15127097070217133, -0.14781704545021057, 0.44799867272377014, 0.9333391189575195, 0.2280891239643097, 0.5510958433151245, 0.1460850089788437, 0.007045919541269541, 0.05715807527303696, -0.27646496891975403, -0.3629869222640991, 0.10879926383495331, 0.17999637126922607, 0.19897228479385376, 0.1673445850610733, -0.4510771334171295, 0.04268438741564751,
-0.6456791758537292, 0.7725277543067932, -0.6678000092506409, -0.06910402327775955, 0.15161022543907166, -0.23392273485660553, 0.07755789160728455, 0.200217604637146, 0.6487936973571777, 0.030200041830539703, 0.0366775207221508, 0.13101713359355927, 0.10874924063682556, -0.2016599178314209, 0.448695570230484, -0.0235015656799078, 0.008108398877084255, 0.3394910991191864, -0.027785232290625572, -0.020406492054462433,
-0.0662682056427002, -0.1768631786108017, -0.8310586214065552, -0.07326411455869675, 0.15097905695438385, 0.03833583742380142, 0.7173916697502136, 0.18150772154331207, -0.34394946694374084, -0.07437815517187119, 0.09535107761621475, -0.04543496295809746, -0.2347290813922882, 0.1365470588207245, 0.07309406250715256, 0.4049076437950134, 0.4491552710533142, -0.18373125791549683, 0.17368477582931519, 0.14392800629138947,
-0.35019999742507935, 0.6993244886398315, -0.505811333656311, -0.08468383550643921, 0.4197707176208496, -0.08044726401567459, 0.14199699461460114, -0.13021139800548553, 0.5666711330413818, -0.0707249641418457, 0.007174966391175985, -0.08448673784732819, 0.08581048995256424, -0.06480377912521362, 0.3375435471534729, -0.17301909625530243, -0.181971937417984, 0.09665467590093613, 0.04938684403896332, -0.08322300761938095,
0.7731930017471313, 0.0485827662050724, -0.008855968713760376, 0.11313352733850479, 0.0640917420387268, -0.07801344990730286, -0.3933646082878113, -0.22890904545783997, -0.2455379217863083, 0.05135120451450348, 0.08177226036787033, 0.25375181436538696, 0.1796075999736786, 0.0843425914645195, -0.20247326791286469, -0.04139871895313263, -0.1362628936767578, 0.13716083765029907, 0.03087206371128559, 0.02565167099237442,
-0.57819664478302, -0.07405944168567657, -0.5406783223152161, -0.026580652222037315, -0.2811349630355835, -0.5736241340637207, 0.06604249775409698, 0.07618670910596848, -0.20164398849010468, -0.24558302760124207, -0.0031989035196602345, -0.3983629643917084, -0.05976675823330879, -0.21171265840530396, -0.0870586410164833, 0.024306243285536766, -0.42985737323760986, 0.04453166946768761, 0.05592659115791321, 0.044246625155210495
};

const float biases_fc1[] = {
-0.25351300835609436, 0.24124309420585632, 0.1796102076768875, -0.057610586285591125, -0.140680193901062, 0.03657301887869835, -0.03716191276907921, -0.13432206213474274, 0.3415241241455078, 0.05867348983883858, -0.1536802500486374, -0.02610039710998535, -0.22033318877220154, 0.114516481757164, 0.12176536023616791, 0.029154160991311073, -0.06227923557162285, -0.18386828899383545, 0.15470172464847565, 0.03316759690642357, -0.26622188091278076, -0.04720499366521835, -0.051387641578912735, -0.010759281925857067, 0.0009167301468551159, -0.13995598256587982, 0.09621483087539673, -0.14662007987499237, -0.0589727945625782, -0.2912580668926239, -0.09452221542596817, 0.018398409709334373, -0.1370602399110794, 0.10683147609233856, -0.24938970804214478, -0.030722975730895996, 0.003410237142816186, 0.14476710557937622, -0.058197617530822754, 0.2058994024991989, -0.24494634568691254, 0.10777440667152405, -0.2266988903284073, -0.09322554618120193, 0.006418506149202585, -0.04977177828550339, 0.15217150747776031, -0.17452318966388702, 0.14170344173908234, -0.13033457100391388, -0.1941624879837036, 0.2847290635108948, 0.04632513225078583, -0.1446569412946701, -0.05675104260444641, -0.05002036318182945, -0.07985251396894455, 0.061079807579517365, 0.03450649604201317, 0.027951225638389587, 0.19634823501110077, -0.1997857391834259, -0.10703984647989273, -0.2321814000606537
};

const float weights_fc2[] = {
-0.5038906931877136, -0.32492709159851074, 0.27737319469451904, -0.03525472804903984, -0.14858326315879822, 0.2682740390300751, 0.11519768834114075, -0.06464742869138718, -0.043313585221767426, -0.6388009786605835, -0.1687384992837906, 0.05815781652927399, -0.07425221055746078, 0.114737369120121, -0.12413953989744186, -0.1844819039106369, -0.08128033578395844, 0.09079497307538986, -0.06680799275636673, 0.14455246925354004, -0.26915818452835083, 0.12985801696777344, 0.3070690333843231, 0.5212880373001099, -0.08336321264505386, -0.1329222321510315, 0.19943763315677643, 0.037616562098264694, 0.31472015380859375, -0.018258731812238693, -0.2918250858783722, 0.3381553292274475, 0.011540123261511326, -0.3467766046524048, -0.13920128345489502, 0.40066441893577576, 0.34752798080444336, -0.07335425168275833, 0.054596155881881714, -0.008937519043684006, 0.27942582964897156, -0.1128438413143158, -0.006964530795812607, 0.1011284664273262, 0.14808154106140137, -0.06853591650724411, -0.4953685402870178, 0.4244685173034668, 0.04277360811829567, -0.2845791280269623, -0.14013150334358215, 0.10806427896022797, 0.015506785362958908, -0.2847045958042145, -0.2662965953350067, 0.1189807578921318, 0.11499159038066864, 0.21429896354675293, 0.4585117995738983, -0.2361031472682953, -0.3018856942653656, 0.17210540175437927, 0.2093062847852707, -0.006086808163672686,
-0.7521751523017883, 0.04974181950092316, 0.5636137127876282, -0.3231576979160309, -0.06471186876296997, 0.11416800320148468, -0.049703795462846756, 0.17420604825019836, -0.18189147114753723, 0.15886333584785461, -0.2355891466140747, 0.3009369969367981, -0.10412662476301193, -0.08509287983179092, -0.25684332847595215, -0.04753032326698303, -0.04567980021238327, -0.1979072391986847, 0.36242759227752686, -0.20380017161369324, 0.24583680927753448, -0.18925870954990387, 0.029758431017398834, 0.6757524609565735, -0.17107632756233215, -0.018510697409510612, -0.2126477211713791, 0.12966178357601166, -0.006155028007924557, -0.27793610095977783, 0.32814663648605347, -0.4565891623497009, -0.1497412621974945, 0.12866328656673431, -0.2524121403694153, -0.30551764369010925, 0.032337088137865067, -0.45528292655944824, 0.33793774247169495, 0.3444192111492157, -0.07316351681947708, 0.02087480016052723, -0.07631142437458038, -0.1978299617767334, 0.335713267326355, -0.045724764466285706, -0.14683471620082855, 0.10633475333452225, -0.03756245970726013, 0.09346414357423782, -0.16371436417102814, 0.23763123154640198, 0.0897531732916832, -0.4047120213508606, -0.3608030676841736, 0.3856344223022461, -0.32849472761154175, 0.022592101246118546, 0.3301267623901367, -0.06164688989520073, -0.22785744071006775, -0.022810950875282288, 0.07043449580669403, -0.34991398453712463,
0.05929800122976303, -0.10831268876791, -0.1954127699136734, -0.05307108536362648, -0.632748007774353, -0.14895524084568024, 0.3832699656486511, 0.06673499941825867, 0.12626373767852783, -0.46716630458831787, -0.35231292247772217, 0.05034208297729492, 0.2678042948246002, -0.040915943682193756, -0.14023098349571228, 0.217584028840065, 0.4020179808139801, -0.3095247745513916, 0.0398600734770298, 0.10888275504112244, -0.19327503442764282, 0.24484995007514954, -0.16480425000190735, 0.10296311974525452, 0.07045143842697144, 0.022004930302500725, -0.11480551958084106, 0.1593269407749176, -0.2783028483390808, -0.44366005063056946, 0.33276277780532837, -0.0850885733962059, -0.15746699273586273, 0.10319137573242188, 0.18396951258182526, -0.8368663191795349, 0.04919024929404259, -0.21849481761455536, -0.2129797339439392, 0.01943008229136467, -0.20946331322193146, -0.2685335576534271, -0.21044416725635529, 0.10537660121917725, 0.05365202575922012, 0.2816580533981323, 0.345054566860199, 0.2902963161468506, 0.1800314337015152, 0.5596004724502563, 0.41952750086784363, -0.33808988332748413, -0.6032409071922302, 0.13091081380844116, -0.26499518752098083, -0.2725664973258972, -0.035542089492082596, 0.06169520318508148, -0.22510910034179688, -0.18577693402767181, -0.1820068061351776, 0.37918174266815186, -0.2312721163034439, -0.17413783073425293,
-0.12472910434007645, -0.18008413910865784, -0.3621143102645874, 0.24939872324466705, -0.024927692487835884, 0.25893452763557434, -0.24273480474948883, 0.24392180144786835, -0.32595500349998474, 0.1676989048719406, -0.47644171118736267, -0.16547884047031403, 0.024004098027944565, -0.23839491605758667, 0.024660954251885414, -0.20875857770442963, 0.14646008610725403, 0.1028347909450531, -0.1675414741039276, 0.23466192185878754, 0.14955127239227295, 0.19904711842536926, 0.19411538541316986, 0.10555694252252579, -0.04540937766432762, 0.2654215395450592, 0.6591446399688721, -0.1699129045009613, 0.18540963530540466, 0.17694629728794098, 0.12874561548233032, 0.084481380879879, 0.054426465183496475, -0.11748380213975906, 0.26379188895225525, 0.28306156396865845, -0.748344898223877, 0.30064573884010315, -0.2253284454345703, 0.033117394894361496, 0.07712285220623016, -0.1844317466020584, -0.018602287396788597, 0.10373357683420181, 0.24648550152778625, -0.18792159855365753, 0.43781614303588867, 0.057413600385189056, 0.0903267040848732, 0.06546352058649063, 0.22983288764953613, -0.0686999261379242, -0.12961505353450775, 0.30101364850997925, -0.06747700273990631, 0.20120784640312195, 0.07075802236795425, 0.2968270182609558, 0.3076208531856537, -0.5453759431838989, 0.209971621632576, -0.07544008642435074, 0.4155106544494629, 0.29770416021347046,
-0.4496980607509613, -0.1150071918964386, 0.37787288427352905, -0.6170048713684082, 0.025007640942931175, 0.04726826399564743, 0.06178782880306244, 0.09694153070449829, -0.0597829669713974, -0.11347388476133347, 0.17275655269622803, -0.04119100421667099, -0.0475955605506897, 0.4033072590827942, -0.039374615997076035, -0.17062339186668396, 0.3217052221298218, -0.08630621433258057, -0.17069122195243835, 0.2802049219608307, 0.2070932239294052, -0.34645184874534607, -0.1920287311077118, 0.2081747204065323, -0.28395164012908936, -0.6892040967941284, 0.29457250237464905, 0.30050933361053467, 0.08248574286699295, -0.17418347299098969, 0.100623220205307, -0.1950000524520874, 0.15737497806549072, 0.1508379429578781, 0.17628490924835205, -0.49461060762405396, 0.08901243656873703, -0.3649314045906067, -0.07354118674993515, -0.15195529162883759, -0.4351402223110199, -0.08145426213741302, -0.0327310748398304, 0.24419057369232178, -0.07870033383369446, 0.0528581403195858, -0.23732469975948334, 0.1117820292711258, -0.28028157353401184, -0.03585539385676384, 0.2736009359359741, -0.056161247193813324, -0.3144010007381439, -0.11590643227100372, -0.19263184070587158, -0.7009440064430237, 0.1062363013625145, 0.41554638743400574, -0.3625633716583252, 0.12840501964092255, 0.09659937024116516, 0.11173245310783386, -0.2791770398616791, 0.42516615986824036,
-0.026042869314551353, 0.3735913336277008, 0.2249380648136139, 0.11890924721956253, -0.2648637592792511, -0.13533322513103485, -0.1624963879585266, -0.07363823056221008, -0.22874099016189575, 0.0025946926325559616, 0.3751080632209778, 0.07022009789943695, 9.790666808839887e-05, -0.3652408719062805, -0.03333519399166107, -0.15695056319236755, 0.05710065737366676, 0.12260759621858597, -0.16868925094604492, 0.13232998549938202, 0.37964093685150146, 0.34116533398628235, -0.19532030820846558, -0.05642988905310631, -0.023376090452075005, -0.07406067103147507, -0.4729226529598236, 0.39732134342193604, 0.17787055671215057, -0.22442452609539032, 0.20530009269714355, 0.33916762471199036, 0.13309124112129211, -0.07069063931703568, -0.08449606597423553, -0.20669308304786682, 0.5519106388092041, 0.11023800075054169, -0.003885579528287053, 0.10541755706071854, 0.42036840319633484, -0.22942493855953217, 0.36200085282325745, 0.03570082411170006, -0.0961475521326065, -0.09679330885410309, 0.184670552611351, -0.20327143371105194, 0.015617012046277523, 0.02274211496114731, -0.2998095750808716, -0.245062917470932, 0.43893054127693176, -0.23857411742210388, -0.26439034938812256, -0.28038284182548523, 0.42263662815093994, 0.17482797801494598, -0.30000513792037964, 0.280036062002182, -0.5506461262702942, 0.14794005453586578, 0.011551540344953537, 0.0005638159345835447,
0.31102097034454346, 0.09146670252084732, 0.18003107607364655, 0.22614632546901703, 0.0922774225473404, 0.052920151501894, -0.2820907533168793, 0.028558865189552307, -0.13609153032302856, 0.05529575049877167, 0.5244245529174805, 0.14819510281085968, -0.32226571440696716, -0.026636578142642975, -0.21433252096176147, -0.09311254322528839, -0.2585359811782837, 0.3765965700149536, -0.2187848538160324, -0.08043589442968369, -0.2381453663110733, 0.2421157956123352, -0.19746068120002747, -0.11554481834173203, 0.2565419673919678, 0.022998396307229996, 0.02847863920032978, -0.02368863858282566, -0.04563215374946594, 0.20380224287509918, -0.10239343345165253, -0.03136118873953819, 0.5074630379676819, 0.2321147620677948, -0.03418373316526413, 0.06350547075271606, -0.29586347937583923, 0.240187868475914, -0.3211722671985626, -0.12854298949241638, -0.1504499763250351, 0.3496130406856537, 0.08611075580120087, -0.2726808786392212, -0.19570471346378326, 0.15475672483444214, -0.14731785655021667, -0.4939672648906708, -0.48630791902542114, 0.26900923252105713, -0.3216606676578522, 0.2461743801832199, -0.1903635710477829, -0.038557153195142746, -0.44034093618392944, 0.2830798327922821, 0.07011392712593079, 0.03571976348757744, 0.10764627158641815, 0.16914743185043335, -0.20491604506969452, -0.03381490707397461, 0.16528093814849854, 0.16720929741859436,
-0.284743994474411, -0.009447641670703888, -0.0858997106552124, 0.2507132291793823, -0.058309540152549744, 0.10138266533613205, -0.08292552828788757, -0.1546556055545807, -0.14454570412635803, 0.02706322632730007, -0.044436197727918625, -0.039025478065013885, -0.5666230320930481, -0.009497592225670815, -0.13726553320884705, -0.15199747681617737, -0.0615677647292614, 0.16691195964813232, 0.3276157081127167, -0.0394316203892231, 0.12746258080005646, 0.3489261865615845, -0.17574723064899445, 0.23680046200752258, -0.004978518467396498, -0.08623220026493073, -0.11647801101207733, 0.2788393795490265, -0.24783746898174286, -0.1402745097875595, 0.051686953753232956, -0.37233155965805054, -0.2500605285167694, -0.030863428488373756, 0.2727283835411072, -0.40538275241851807, 0.3720684051513672, -0.7370880842208862, 0.07011204957962036, 0.39388877153396606, -0.4564032554626465, 0.26468637585639954, -0.12444793432950974, -0.19875335693359375, 0.02135169878602028, -0.010670588351786137, 0.26678603887557983, 0.12250667065382004, -0.0973525419831276, 0.37931039929389954, -0.022426752373576164, 0.13960890471935272, -0.07807309180498123, -0.12222804874181747, 0.31260690093040466, 0.14902569353580475, 0.19744332134723663, -0.12352587282657623, 0.2931773364543915, -0.3343743681907654, 0.3494803011417389, -0.15898199379444122, -0.3552774488925934, -0.3221745491027832,
-0.052630238234996796, 0.15408466756343842, -0.36077043414115906, -0.12724457681179047, -0.20567132532596588, -0.10841440409421921, 0.06367620825767517, -0.1864556223154068, 0.006737140007317066, 0.05134163051843643, 0.022533845156431198, 0.22993965446949005, -0.03866641968488693, 0.36335286498069763, -0.4354517161846161, 0.2559340000152588, -0.003164977068081498, 0.21995961666107178, -0.061125248670578, -0.1103215292096138, 0.10780477523803711, -0.1669161468744278, -0.29612040519714355, -0.30466049909591675, 0.26938608288764954, -0.4319157600402832, -0.02654346451163292, 0.1202135905623436, -0.2659899592399597, 0.4202137291431427, 0.30973827838897705, 0.09207170456647873, -0.03246713802218437, -0.22382310032844543, -0.0253459420055151, 0.13397595286369324, 0.31139588356018066, -0.052651070058345795, -0.5241814851760864, 0.19647842645645142, -0.028829511255025864, 0.3220723867416382, -0.10816089808940887, 0.022033043205738068, 0.09815242886543274, -0.08809512108564377, -0.47999444603919983, -0.12216941267251968, -0.21503865718841553, 0.12428806722164154, 0.23770803213119507, -0.04336387664079666, 0.20284311473369598, -0.1615869700908661, 0.3825759291648865, -0.5304225087165833, -0.10881669074296951, -0.33708539605140686, -0.4385882616043091, 0.013642201200127602, -0.19854629039764404, -0.07096986472606659, -0.055646732449531555, -0.10644256323575974,
0.023729849606752396, 0.15379364788532257, -0.10753235220909119, -0.37967172265052795, 0.1966765820980072, -0.08088863641023636, 0.2130296677350998, 0.2277623564004898, -0.011832918971776962, 0.013756259344518185, 0.12583330273628235, -0.028203042224049568, -0.1689935326576233, 0.08697044104337692, 0.3820481598377228, 0.29295653104782104, -0.3202245533466339, -0.004316309001296759, -0.02062797173857689, 0.1474670171737671, -0.07110413908958435, -0.015427963808178902, -0.06944099068641663, -0.5308085680007935, -0.14452597498893738, -0.3590814769268036, 0.21110041439533234, -0.29208609461784363, -0.8124187588691711, 0.10358039289712906, 0.20406915247440338, 0.12686046957969666, -0.23038524389266968, -0.1498441994190216, -0.289337694644928, -0.2564907371997833, 0.1774412989616394, 0.14207251369953156, 0.0827818214893341, 0.21898095309734344, -0.09356743097305298, -0.01226004771888256, -0.011870671063661575, 0.29524722695350647, 0.41410404443740845, -0.018939387053251266, -0.14074641466140747, 0.15325656533241272, -0.13109369575977325, 0.04996393248438835, 0.03128618746995926, 0.4410771429538727, 0.07877665013074875, 0.08556832373142242, 0.36720967292785645, 0.09867845475673676, 0.14329203963279724, 0.06041331961750984, -0.6959934830665588, -0.09444653242826462, 0.13268812000751495, -0.07770798355340958, 0.2628808319568634, -0.36771538853645325,
0.36962202191352844, -0.1228175014257431, -0.057250093668699265, -0.5269718766212463, -0.6969313025474548, 0.11152847856283188, 0.05315567925572395, 0.18367691338062286, -0.012799852527678013, -0.4125029444694519, 0.00994904711842537, -0.3959793448448181, -0.48967185616493225, 0.3348579704761505, -0.25767049193382263, -0.3835736811161041, 0.564609169960022, 0.19933998584747314, 0.24545234441757202, -0.16532231867313385, -0.3135424852371216, -0.03469054773449898, 0.1551770716905594, 0.07592986524105072, -0.4822312593460083, -0.4547716975212097, -0.4089408814907074, 0.29104045033454895, 0.12328887730836868, -0.6474882364273071, -0.1569250226020813, 0.3825254738330841, 0.06024889275431633, -0.16987846791744232, 0.31935441493988037, -0.3605072796344757, -0.25472861528396606, -0.057979997247457504, -0.013466752134263515, -0.26430952548980713, 0.22221589088439941, 0.1868341714143753, -0.638705313205719, -0.04220188409090042, 0.23111377656459808, 0.13331224024295807, -0.023971907794475555, 0.20440445840358734, 0.005545843858271837, -0.006602352485060692, 0.24199530482292175, -0.04513589292764664, -0.03365481644868851, 0.0010253824293613434, -0.027602676302194595, 0.024594979360699654, 0.3929160237312317, 0.06548987329006195, -0.06523750722408295, -0.5283911824226379, -0.1890365332365036, -0.22407926619052887, 0.14380860328674316, -0.19233456254005432,
-0.558427631855011, 0.31005859375, -0.0229979008436203, 0.07318133115768433, -0.037191957235336304, -0.14712639153003693, -0.05073872208595276, -0.02339084818959236, 0.059936098754405975, 0.2912684381008148, -0.08896476030349731, -0.058859847486019135, -0.28524672985076904, -0.023153619840741158, -0.028669005259871483, 0.022933676838874817, -0.3164626657962799, 0.09611046314239502, 0.011234316043555737, -0.04193539544939995, 0.11830707639455795, 0.137848362326622, 0.01842641271650791, -0.03421460837125778, -0.5186941623687744, -0.17103350162506104, 0.11163502186536789, 0.34235879778862, 0.2507307529449463, -0.9014095664024353, 0.0445651076734066, -0.47471535205841064, -0.02289227955043316, 0.36831697821617126, -0.0355929359793663, 0.206992968916893, 0.22783935070037842, 0.15225869417190552, -0.0727565586566925, 0.15203729271888733, -0.30648213624954224, 0.11572094261646271, -0.24701079726219177, -0.1634133756160736, -0.3175707459449768, -0.14469273388385773, -0.4614787995815277, -0.24181334674358368, -0.10297955572605133, 0.18853123486042023, -0.141493022441864, -0.6053233742713928, 0.10619620978832245, -0.029664790257811546, -0.07194102555513382, -0.004181915894150734, 0.12171123921871185, 0.1325172334909439, -0.055742841213941574, 0.49356210231781006, -0.06295210868120193, -0.03605474531650543, 0.04884420707821846, 0.04118316248059273,
-0.3349364101886749, -0.4684523642063141, 0.13902752101421356, 0.05721200630068779, 0.14621876180171967, 0.1416092813014984, 0.10260585695505142, -0.26843684911727905, 0.09591414779424667, 0.03588935360312462, 0.21656286716461182, -0.09777151793241501, -0.02997295744717121, -0.576663076877594, 0.2950827181339264, -0.33767157793045044, -0.1504039317369461, -0.49469810724258423, -0.19422611594200134, -0.15517325699329376, 0.29093101620674133, 0.1280616819858551, -0.15996696054935455, 0.5199350118637085, -0.16206376254558563, -0.30968815088272095, -0.12486754357814789, -0.17653390765190125, -0.08047330379486084, -0.19996313750743866, -0.060889676213264465, -0.12475769221782684, 0.3016301989555359, -0.26053759455680847, -0.06923727691173553, 0.0006912629469297826, -0.18260638415813446, -0.12724299728870392, -0.0032547300215810537, 0.03846579045057297, 0.33948442339897156, -0.770010769367218, 0.34281378984451294, -0.05619077757000923, -0.12492302060127258, -0.1627931445837021, -0.05175749212503433, -0.25407904386520386, 0.4956211745738983, -0.2372489720582962, -0.4560528099536896, -0.5595389008522034, -0.33986666798591614, 0.24013133347034454, -0.0021616010926663876, -0.5098268389701843, 0.04586975276470184, -0.29401466250419617, 0.190999835729599, -0.037512924522161484, 0.3387291729450226, -0.5784437656402588, 0.18880657851696014, -0.13387128710746765,
0.11245082318782806, -0.012948567047715187, 0.062175069004297256, -0.38334158062934875, -0.15087275207042694, -0.12758807837963104, 0.06533142179250717, 0.19953642785549164, -0.09043178707361221, -0.26970261335372925, 0.17520417273044586, -0.5273047685623169, -0.05576883256435394, -0.031043535098433495, -0.39615145325660706, -0.11574865877628326, -0.1074766144156456, -0.33818572759628296, -0.5918914079666138, 0.21089373528957367, -0.01485319435596466, -0.019040388986468315, 0.222960963845253, -0.20924155414104462, 0.37503910064697266, -0.37913310527801514, -0.13985510170459747, 0.3626817762851715, -0.6684134006500244, 0.05302796885371208, -0.07577329874038696, -0.16492898762226105, -0.2815985679626465, -0.07023055851459503, -0.3813766539096832, 0.042424771934747696, -0.0628134086728096, -0.16719689965248108, -0.03432489186525345, -0.6748989224433899, 0.11431688070297241, 0.25379011034965515, -0.05525115877389908, -0.111814945936203, -0.16312699019908905, 0.07127697020769119, 0.27309226989746094, 0.41508346796035767, 0.19097064435482025, -0.7335426807403564, 0.04104519262909889, -0.3602280616760254, -0.6294122934341431, -0.5090480446815491, -0.2828716039657593, 0.332282155752182, -0.7566906809806824, -0.12948384881019592, 0.009409048594534397, -0.003670054953545332, 0.05222516879439354, 0.2742122411727905, -0.47151070833206177, -0.4158948063850403,
0.09568527340888977, -0.053929224610328674, 0.1814361810684204, -0.04649925231933594, 0.3946656584739685, 0.201568141579628, -0.1176089197397232, 0.13607633113861084, 0.10268332064151764, 0.05862985923886299, -0.021216729655861855, -0.034136347472667694, -0.2388947755098343, -0.13082049787044525, -0.05844170227646828, -0.02797912247478962, 0.030333254486322403, 0.17633144557476044, -0.4683600664138794, -0.16426853835582733, 0.12622788548469543, -0.0671532154083252, 0.24170634150505066, 0.21086008846759796, -0.10923399031162262, 0.16310225427150726, 0.1107957661151886, 0.19390001893043518, 0.28882133960723877, 0.24840305745601654, 0.17282432317733765, 0.46061861515045166, 0.32127800583839417, -0.34407392144203186, 0.029517779126763344, 0.1717906892299652, 0.17481201887130737, -0.41366147994995117, -0.24514874815940857, -0.1244601234793663, 0.16767922043800354, -0.31625136733055115, 0.34891119599342346, 0.5268344283103943, -0.00879154447466135, 0.16809673607349396, -0.3410946726799011, 0.4340497553348541, -0.1613868921995163, -0.0904514417052269, 0.40355193614959717, -0.4815508723258972, -0.2822909355163574, -0.07329266518354416, 0.15984848141670227, -0.20223842561244965, 0.01086001843214035, 0.01650080643594265, -0.32272884249687195, 0.025160664692521095, -0.3072267770767212, 0.3019862473011017, 0.12955865263938904, 0.09916902333498001,
0.0999198853969574, 0.11001725494861603, 0.13224126398563385, 0.04707696661353111, -0.2957485318183899, 0.4600169062614441, -0.18375107645988464, -0.28413230180740356, -0.25629672408103943, 0.015413335524499416, 0.05228115990757942, -0.33316805958747864, -0.4727810025215149, -0.28234434127807617, -0.2707518935203552, 0.33629679679870605, 0.3122793734073639, -0.2591730058193207, -0.2234356850385666, -0.04984322935342789, 0.029199810698628426, 0.23227624595165253, -0.05394860729575157, -0.08523695915937424, 0.5000144839286804, -0.6213313341140747, -0.11762910336256027, -0.03978002071380615, -0.18661047518253326, -0.05263540521264076, 0.02054569497704506, 0.13491280376911163, -0.07125585526227951, 0.1890954077243805, -0.10744497179985046, -0.3680365979671478, 0.05899590998888016, -0.36752039194107056, 0.02757146954536438, 0.06263545900583267, -0.1923186182975769, -0.2505333125591278, -0.01631784997880459, 0.15957625210285187, -0.09727911651134491, 0.026419110596179962, 0.012526867911219597, 0.0037860290613025427, 0.16174738109111786, -0.1686277687549591, -0.15753068029880524, -0.15078510344028473, 0.07168778032064438, 0.32428354024887085, 0.1460893750190735, -0.05856948718428612, -0.3085428774356842, 0.3978763222694397, 0.12415485829114914, 0.23320862650871277, -0.2551698386669159, 0.40121743083000183, 0.07840659469366074, 0.22106531262397766,
-0.23723936080932617, -0.49252504110336304, 0.08901770412921906, -0.34779495000839233, -0.1529349535703659, -0.3413936197757721, 0.3118811547756195, 0.07994630187749863, -0.3138006329536438, 0.06266982108354568, -0.16527315974235535, -0.05541778728365898, -0.3097953200340271, -0.16574950516223907, 0.6025083065032959, -0.006682181265205145, -0.4588489532470703, -0.0704384297132492, 0.03947996720671654, 0.1439604014158249, 0.16414692997932434, -0.24787433445453644, 0.25812068581581116, -0.15731604397296906, 0.07485000044107437, -0.03356839716434479, -0.1693987101316452, -0.025238780304789543, -0.3039233088493347, -0.14983879029750824, -0.1270819753408432, -0.28876441717147827, -0.1564009189605713, 0.28563541173934937, 0.09451305121183395, 0.14609606564044952, -0.024006275460124016, 0.04319621995091438, -0.13273237645626068, 0.19064903259277344, -0.011235745623707771, 0.46880173683166504, -0.2682935893535614, -0.21037302911281586, -0.23423148691654205, 0.13705305755138397, 0.0643012747168541, 0.04555853083729744, 0.18613334000110626, -0.01801827736198902, 0.4164237082004547, 0.22442381083965302, -0.1327514946460724, 0.25709712505340576, 0.10037735104560852, -0.3603111803531647, -0.456658273935318, 0.047392088919878006, -0.12048240751028061, 0.11498934775590897, -0.12269962579011917, 0.24212820827960968, -0.04341709986329079, 0.07416877150535583,
-0.26364314556121826, -0.17169801890850067, -0.1629711091518402, -0.13670401275157928, 0.2763601541519165, 0.33357998728752136, 0.20085640251636505, -0.2326664924621582, -0.08477889746427536, 0.20516251027584076, 0.19218191504478455, 0.20780721306800842, -0.019393017515540123, 0.0033842718694359064, 0.1491490751504898, 0.04676244780421257, 0.21359045803546906, 0.16781866550445557, 0.44715556502342224, 0.23575779795646667, -0.0652516558766365, -0.5013065934181213, 8.662595791975036e-05, -0.21746255457401276, -0.16362924873828888, 0.2573370933532715, -0.006670606322586536, -0.34646841883659363, -0.3343617618083954, 0.350781112909317, -0.12648935616016388, 0.33574962615966797, -0.08644527196884155, -0.6983000636100769, -0.08262354135513306, 0.20048785209655762, -0.13490301370620728, -0.212882861495018, 0.16318818926811218, -0.11077623814344406, 0.14567473530769348, 0.15209238231182098, -0.4228684902191162, 0.25367313623428345, -0.14160260558128357, -0.04494478181004524, -0.1059669554233551, -0.17425847053527832, -0.10403481870889664, -0.3302014172077179, 0.5371463894844055, 0.02145814336836338, 0.09960256516933441, -0.09312275797128677, -0.06359750032424927, 0.5169162154197693, 0.07579716295003891, -0.19843263924121857, -0.1396593302488327, -0.4103028178215027, -0.16686952114105225, 0.047902364283800125, -0.4287835955619812, 0.2485075742006302,
-0.09650111943483353, -0.031938083469867706, 0.11658208817243576, 0.0631536990404129, -0.4178958535194397, 0.5329066514968872, 0.15191997587680817, 0.17427697777748108, -0.05642344430088997, -0.2673969268798828, -0.45732322335243225, 0.045087363570928574, 0.06841124594211578, 0.18458636105060577, -0.1514476090669632, -0.2223493903875351, 0.1030181497335434, 0.22547365725040436, -0.2402905523777008, -0.5833166837692261, -0.08808732032775879, 0.2593933939933777, -0.44143810868263245, -0.11780472844839096, -0.25434908270835876, 0.1985340118408203, 0.18714921176433563, -0.8981330394744873, 0.06407780200242996, 0.23140376806259155, -0.011514895595610142, -0.08602821081876755, 0.4724835455417633, -0.3876335918903351, -0.5973469018936157, 0.05663014203310013, -0.19697877764701843, 0.16600199043750763, -0.30101537704467773, 0.27152231335639954, -0.29431596398353577, -0.20292241871356964, 0.29219692945480347, 0.05542197450995445, -0.1980014592409134, 0.2284182608127594, -0.4788986146450043, -0.1185346394777298, -0.04959828406572342, 0.09779300540685654, -0.2574401795864105, -0.20757202804088593, -1.2376757860183716, -0.2520051896572113, 0.13003402948379517, -0.7728465795516968, 0.3692774772644043, -0.1385902464389801, 0.09769656509160995, 0.14032994210720062, 0.14530952274799347, 0.33333754539489746, -0.023218505084514618, 0.1579803079366684,
0.3203696608543396, -0.3106347620487213, 0.05573437735438347, -0.5194063782691956, -0.15504731237888336, 0.16669175028800964, -0.35896360874176025, 0.0004077516496181488, -0.11714868992567062, 0.18242602050304413, -0.14183691143989563, 0.2420286387205124, 0.32636338472366333, -0.33036065101623535, -0.36933571100234985, -0.07699615508317947, 0.09007173776626587, -0.5172945261001587, -0.20270231366157532, 0.2161489725112915, -0.08453910797834396, 0.07473519444465637, 0.0748022049665451, 0.12459465116262436, -0.3054691553115845, 0.28421550989151, 0.026991015300154686, 0.02943173237144947, 0.16335545480251312, 0.15132001042366028, -0.3249497711658478, -0.035473499447107315, -0.11991550028324127, -0.65782231092453, -0.25061532855033875, 0.1457018256187439, 0.08305226266384125, -0.004572661593556404, 0.1997814029455185, -0.259863942861557, 0.01265699602663517, 0.3048269748687744, 0.10294002294540405, -0.571463942527771, 0.029004300013184547, 0.37554240226745605, 0.1783597469329834, -0.4976534843444824, 0.13370291888713837, 0.24274978041648865, -0.3342527747154236, 0.22168059647083282, -0.08557047694921494, 0.1891956478357315, 0.006531151477247477, 0.13795170187950134, 0.07169272005558014, -0.06884842365980148, 0.33142367005348206, 0.2698974609375, -0.17415544390678406, 0.24601003527641296, 0.2495357096195221, -0.07217646390199661,
0.1107790470123291, 0.012591679580509663, 0.22482609748840332, 0.11960025131702423, 0.15842729806900024, 0.3753474950790405, 0.16564610600471497, 0.012168985791504383, -0.14879140257835388, -0.32705360651016235, 0.10297808796167374, -0.10372226685285568, -0.15818184614181519, -0.19245941936969757, -0.2470930516719818, -0.20674960315227509, -0.010423100553452969, 0.058929022401571274, -0.07274531573057175, -0.07210303097963333, 0.14548586308956146, -0.12492594122886658, 0.023286569863557816, 0.28034430742263794, 0.1585261970758438, -0.31658613681793213, -0.1667010486125946, -0.06531626731157303, 0.1391027420759201, -0.1673801839351654, 0.2506633400917053, -0.8956615328788757, -0.1378711611032486, -0.20259469747543335, 0.27273598313331604, 0.05850427597761154, 0.22345070540905, 0.0389566496014595, 0.1883665770292282, -0.07917013764381409, 0.3779520094394684, 0.19693557918071747, 0.3487732410430908, 0.1297185868024826, 0.2017892301082611, 0.00047969279694370925, -0.3042810261249542, -0.008918961510062218, -0.1868710219860077, -0.2851870059967041, -0.0438639372587204, -0.5757379531860352, -0.19428503513336182, -0.5240029692649841, 0.051971763372421265, 0.11804413795471191, -0.7198578119277954, 0.46788156032562256, -0.07492606341838837, 0.23760223388671875, -0.652245819568634, -0.006668344140052795, -0.13213865458965302, 0.05002626031637192,
-0.025829512625932693, 0.34256792068481445, -0.08528473228216171, -0.12821877002716064, -0.47525134682655334, 0.042525555938482285, 0.01891227439045906, -0.3270416855812073, 0.19308356940746307, 0.1743212342262268, 0.11511985212564468, -0.32422369718551636, -0.08294006437063217, 0.3502349853515625, -0.0747223049402237, 0.1542082130908966, -0.13294970989227295, -0.16817501187324524, 0.09808355569839478, -0.10319630801677704, 0.256009966135025, 0.05073614791035652, 0.11532186716794968, 0.16698278486728668, 0.04667850583791733, 0.1993657946586609, 0.1249166876077652, -0.07236039638519287, -0.080732062458992, -0.5076713562011719, 0.1289215385913849, -0.26080846786499023, -0.18951791524887085, -0.1567101776599884, -0.19105766713619232, 0.22289517521858215, -0.21202510595321655, 0.08857877552509308, 0.19877870380878448, -0.010430672205984592, -0.3668416738510132, -0.015653951093554497, 0.04184911400079727, -0.2883869409561157, -0.37350720167160034, 0.044828739017248154, 0.24185219407081604, -0.030186258256435394, -0.12975279986858368, -0.21923458576202393, -0.4454825818538666, 0.4363298714160919, -0.1974576711654663, -0.2431560754776001, 0.051193755120038986, 0.2771404981613159, -0.23469622433185577, 0.19276300072669983, 0.05368276312947273, 0.09145025908946991, 0.18243291974067688, 0.037278588861227036, 0.008101831190288067, -0.19461779296398163,
0.14049935340881348, 0.3426584005355835, -0.3983612060546875, 0.16504253447055817, 0.08734290301799774, -0.10416480153799057, 0.344533771276474, -0.15165334939956665, 0.31033632159233093, 0.40633049607276917, -0.2676171362400055, 0.0018905287142843008, -0.12410558015108109, -0.011141812428832054, -0.04355330765247345, -0.4521712362766266, -0.2561018764972687, -0.03790706768631935, -0.2980281710624695, 0.09861768782138824, 0.21341699361801147, -0.3284253776073456, 0.047247264534235, 0.17521286010742188, -0.46426472067832947, -0.4543818533420563, 0.06649462878704071, 0.22319874167442322, -0.3562759459018707, 0.004744491074234247, 0.020402325317263603, -0.3483582139015198, 0.04923316463828087, 0.15212470293045044, 0.06306370347738266, 0.016386453062295914, -0.053787413984537125, 0.09845514595508575, -0.4808054268360138, -0.4863106608390808, 0.35552093386650085, -0.26203933358192444, 0.23679998517036438, -0.2468429058790207, 0.1681918352842331, -0.04445347189903259, 0.2808559536933899, -0.13372214138507843, -0.43173128366470337, 0.2790484130382538, -0.4685905873775482, 0.38763633370399475, 0.1614425629377365, -0.14765138924121857, -0.40885403752326965, 0.12826427817344666, 0.05537902191281319, -0.023739073425531387, 0.37285131216049194, 0.09924012422561646, -0.22318115830421448, -0.2820780277252197, -0.057669833302497864, 0.027759088203310966,
-0.7351532578468323, -0.12630149722099304, -0.05392936244606972, -0.1554015874862671, -0.4997546970844269, -0.2183213233947754, -0.16402556002140045, -0.5822511911392212, -0.2685300409793854, 0.08133131265640259, 0.18906249105930328, 0.49395474791526794, 0.1939087212085724, 0.27513521909713745, -0.1136309951543808, -0.2313951998949051, 0.33990806341171265, 0.09061585366725922, -0.004735482856631279, -0.23278968036174774, -0.28233787417411804, -0.224381685256958, -0.19493576884269714, 0.09100101888179779, -0.21856510639190674, 0.2614348530769348, -0.0448419488966465, 0.10024925321340561, 0.2785934805870056, -0.14358370006084442, -0.4627119302749634, -0.19355499744415283, 0.06454262137413025, 0.3386733829975128, 0.12735562026500702, -0.32371723651885986, 0.22308684885501862, -0.9471327662467957, -0.05963290110230446, 0.3706025183200836, 0.16639895737171173, -0.17162324488162994, -0.44532132148742676, -0.3660332262516022, 0.014029915444552898, -0.8585349917411804, 0.09655256569385529, -0.012053399346768856, -0.06809796392917633, -0.006795640103518963, 0.23808911442756653, 0.10612627863883972, -0.10490888357162476, -0.26953694224357605, 0.03201767057180405, 0.1599406898021698, -0.25097236037254333, 0.27800196409225464, -0.2657266855239868, 0.35573551058769226, -0.18115252256393433, 0.2626807689666748, -0.304295152425766, -0.07633460313081741,
0.1141667366027832, -0.07241006195545197, 0.04014049842953682, -0.12479907274246216, 0.009606975130736828, 0.11667010933160782, 0.17899852991104126, 0.058199986815452576, -0.13688652217388153, 0.029329776763916016, 0.01671462692320347, -0.002583474153652787, 0.20084089040756226, -0.0612226240336895, 0.19198258221149445, -0.17238716781139374, 0.496011883020401, -0.2572697699069977, 0.12440044432878494, 0.1699490249156952, 0.1933453530073166, 0.4062364995479584, -0.09314341843128204, -0.23685544729232788, -0.2576269805431366, 0.23198208212852478, 0.13469375669956207, 0.030800973996520042, 0.07095611840486526, -0.40813538432121277, 0.5283413529396057, -0.16566318273544312, 0.0864921435713768, 0.2925262749195099, 0.2928721606731415, 0.033159852027893066, -0.020939793437719345, -0.024834750220179558, -0.45424747467041016, -0.20653748512268066, -0.18196634948253632, -0.06260734051465988, -0.03376901522278786, -0.30030307173728943, -0.08772097527980804, -0.5175835490226746, 0.16561953723430634, 0.0757627859711647, 0.16629943251609802, -0.13500508666038513, 0.07382740080356598, 0.08785467594861984, 0.01389150507748127, -0.15455704927444458, 0.3457699716091156, 0.08860625326633453, 0.2013581544160843, -0.47121551632881165, 0.005995281506329775, 0.34384533762931824, 0.28547224402427673, 0.32542523741722107, 0.31362220644950867, 0.0036185604985803366,
0.08801955729722977, 0.40772342681884766, -0.5482875108718872, 0.15712015330791473, 0.44628334045410156, -0.10082992911338806, 0.4058513641357422, -0.20239901542663574, -0.3392394483089447, -0.21670001745224, -0.6519780158996582, 0.07460516691207886, -0.2618047893047333, 0.3412241041660309, 0.11940208822488785, -0.0801135003566742, 0.053273893892765045, 0.19952669739723206, 0.06665584444999695, -0.1303277164697647, -0.1522935926914215, -0.7761453986167908, -0.08270279318094254, 0.3588608205318451, -0.4123992323875427, 0.4660850465297699, -0.018524136394262314, -0.14396221935749054, -0.33088400959968567, -0.22957435250282288, 0.014008894562721252, 0.10637690871953964, 0.059633489698171616, 0.3122192323207855, -0.3456485867500305, -0.14090947806835175, 0.32281386852264404, -0.4292677044868469, -0.2576259970664978, -0.19148916006088257, 0.01736484467983246, -0.5063939690589905, -0.529574990272522, -0.08349777013063431, 0.14694790542125702, 0.48385506868362427, -0.043310217559337616, 0.13864021003246307, -0.04187610372900963, -0.48561424016952515, -0.04276767373085022, 0.09897270798683167, -0.03824722021818161, 0.16508696973323822, 0.11521473526954651, 0.11131112277507782, 0.04793839901685715, -0.18610039353370667, -0.263264000415802, 0.022704046219587326, 0.07374168187379837, 0.026439154520630836, -0.09919891506433487, -0.20416352152824402,
0.12153395265340805, -0.14910966157913208, 0.05537978559732437, -0.13560684025287628, 0.3005070984363556, 0.21477916836738586, -0.21016523241996765, 0.17784267663955688, 0.02661389671266079, 0.2470073252916336, -0.24594856798648834, 0.22944067418575287, -0.3549225330352783, -0.41503414511680603, -0.49097180366516113, -0.32743069529533386, 0.5662236213684082, 0.015846699476242065, 0.2384537309408188, -0.04017621651291847, 0.00506825465708971, 0.2695125937461853, 0.29808709025382996, -0.4590964615345001, 0.3695223927497864, -0.00954081304371357, 0.5580237507820129, -0.5393057465553284, -0.015777546912431717, -0.2810131311416626, 0.07650882005691528, 0.3132685720920563, -0.3627413809299469, -0.40814924240112305, -0.2952275574207306, -0.2835898697376251, -0.07889942824840546, 0.03480954095721245, 0.23982594907283783, 0.5154616236686707, -0.6166858673095703, -0.3387305736541748, 0.0069509875029325485, 0.3252747654914856, -0.21930529177188873, -0.08664146810770035, -0.24752815067768097, 0.5630351901054382, -0.0034981200005859137, 0.07945342361927032, -0.2034939080476761, -0.00841004028916359, 0.4103359580039978, -0.19269530475139618, 0.2831646203994751, 0.020298464223742485, 0.018505124375224113, -0.11851467937231064, 0.284872829914093, -0.18538041412830353, -0.13528747856616974, -0.3077048361301422, -0.17211757600307465, -0.35062336921691895,
0.11714404821395874, -0.37617048621177673, -0.4087359607219696, -0.10100876539945602, 0.34445279836654663, -0.16201148927211761, -0.4531607925891876, -0.09535492956638336, -0.19843854010105133, 0.2733834385871887, 0.24776707589626312, -0.2730524241924286, 0.03187025338411331, -0.04197552055120468, 0.15674887597560883, 0.2691085934638977, -0.4129861295223236, -0.0719410702586174, 0.10051580518484116, 0.4752765893936157, -0.5883251428604126, 0.14509853720664978, 0.6008425951004028, 0.23011645674705505, 0.026202330365777016, -0.0408392958343029, -0.025390299037098885, -0.1955108642578125, 0.18366146087646484, 0.2922614812850952, -0.16745314002037048, -0.34090927243232727, -0.25240394473075867, 0.1369609534740448, -0.22451573610305786, -0.4299180805683136, -0.009491506032645702, -0.26048028469085693, -0.18524284660816193, -0.2964077889919281, -0.13625279068946838, 0.044021666049957275, 0.10273870080709457, 0.08688464015722275, 0.19671325385570526, 0.04766383394598961, 0.09944754093885422, -0.11182023584842682, -0.061344485729932785, 0.02762126550078392, -0.34610283374786377, 0.18747340142726898, -0.26807525753974915, 0.002894124248996377, 0.07300084829330444, -0.01070244051516056, 0.19035477936267853, -0.5245804786682129, 0.13919076323509216, -0.8815102577209473, -0.5796962976455688, -0.12129496783018112, 0.2236686646938324, -0.22680515050888062,
-0.6072429418563843, 0.10805593430995941, 0.21965959668159485, 0.3186606466770172, 0.13740834593772888, -0.37423160672187805, -0.00020313258573878556, -0.17240281403064728, 0.10633151233196259, 0.2621171176433563, 0.2524827718734741, 0.1850898563861847, -0.1668546050786972, 0.27856236696243286, -0.06982877850532532, 0.08658648282289505, 0.2389918565750122, 0.006903109606355429, -0.04666006937623024, -0.3503200113773346, 0.24378791451454163, 0.012384115718305111, 0.08942677825689316, 0.2138487547636032, -0.09152736514806747, -0.48063668608665466, 0.0398826040327549, 0.03673173487186432, 0.18813395500183105, 0.04230941832065582, 0.19866232573986053, 0.02457926794886589, -0.5338037014007568, -0.3421195447444916, -0.24835626780986786, 0.008126405999064445, 0.24562443792819977, 0.11322164535522461, -0.033509086817502975, -0.12397633492946625, 0.03826671466231346, -0.1978015899658203, -0.16684205830097198, 0.16151487827301025, 0.5338597297668457, 0.2719278931617737, -0.1889592856168747, -0.044770434498786926, 0.05057823285460472, -0.2602899670600891, 0.2815859317779541, -0.10532944649457932, 0.013348786160349846, 0.053847622126340866, 0.06196780130267143, -0.12699633836746216, -0.22284634411334991, -0.33250752091407776, 0.04390385001897812, -0.3065238296985626, -0.16195955872535706, 0.14034879207611084, -0.17886272072792053, 0.3030989468097687,
-0.11919915676116943, -0.11285023391246796, -0.07103746384382248, -0.005881589371711016, -0.09976203739643097, -0.24146224558353424, 0.01198503840714693, -0.07403648644685745, -0.047454141080379486, -0.47274813055992126, -0.4196544289588928, -0.12066596001386642, -0.6170275211334229, 0.2412078082561493, 0.15335752069950104, 0.129568949341774, 0.3703594207763672, 0.021663591265678406, -0.12430401146411896, 0.09155355393886566, -0.22685372829437256, -0.31803005933761597, 0.4153240919113159, -0.07344302535057068, -0.15252478420734406, -0.047320421785116196, 0.42256149649620056, 0.3074115216732025, -0.2705676555633545, 0.06956809014081955, 0.19513384997844696, 0.15577875077724457, -0.5179920792579651, -0.027893606573343277, 0.09407704323530197, -0.12355795502662659, -0.1305963099002838, -0.3553990423679352, 0.1339232623577118, 0.13093014061450958, 0.6277757883071899, 0.023876361548900604, -0.013095802627503872, 0.4723019301891327, 0.03485950082540512, -0.17832760512828827, -0.10881949961185455, 0.010859308764338493, 0.03058505803346634, -0.04238758236169815, 0.25261449813842773, 0.1314718872308731, 0.03477565199136734, 0.3382709324359894, -0.33517390489578247, -0.04171839356422424, -0.05196665972471237, -0.32371029257774353, -0.17191825807094574, 0.19169668853282928, -0.11513188481330872, -0.260520875453949, -0.035482000559568405, -0.2303590327501297,
-0.10500074923038483, 0.2871708869934082, 0.2512907385826111, 0.06473451852798462, -0.1343304067850113, -0.43800976872444153, -0.43587327003479004, 0.018858669325709343, -0.39080139994621277, -0.006615304388105869, 0.1256340891122818, -0.20894938707351685, -0.13767112791538239, -0.3947770595550537, 0.0354362428188324, -0.03321060165762901, -0.29600653052330017, -0.06932682543992996, -0.08165200054645538, -0.013815942220389843, -0.21876776218414307, -0.0762898325920105, 0.6442848443984985, -0.2640116810798645, 0.170960932970047, 0.16297566890716553, -0.1534992754459381, 0.142575204372406, -0.42111024260520935, 0.10005944222211838, 0.17535100877285004, 0.011043600738048553, -0.0474126860499382, -0.4691224694252014, -0.016032014042139053, -0.41184425354003906, -0.324243426322937, 0.12611892819404602, -0.45370346307754517, -0.18348076939582825, -0.0438879020512104, 0.4181858003139496, 0.0620831735432148, -0.23894120752811432, 0.03130989894270897, 0.10254648327827454, -0.07917444407939911, 0.1661861091852188, 0.2076050341129303, 0.40930652618408203, -0.18995332717895508, 0.07080724090337753, 0.1662047803401947, 0.2517296373844147, 0.23403462767601013, 0.20549561083316803, 0.34536170959472656, 0.25739428400993347, -0.2270541936159134, -0.6291521191596985, 0.038408614695072174, -0.3198198676109314, -0.21513912081718445, 0.12052299082279205,
-0.0009825109736993909, -0.14842522144317627, -0.3555675446987152, -0.08082689344882965, -0.11580286175012589, 0.35371407866477966, -0.1954202950000763, 0.23954151570796967, 0.229233980178833, 0.1624494343996048, 0.1133221760392189, 0.0863313227891922, 0.22868627309799194, -0.13715355098247528, -0.0025183926336467266, -0.4618358910083771, -0.09238973259925842, 0.1697007417678833, 0.25732800364494324, -0.3080856502056122, -0.06727581471204758, -0.3815549910068512, 0.07701551914215088, -0.02563856542110443, 0.19990096986293793, 0.42299795150756836, 0.2978515923023224, 0.18359063565731049, 0.10350757837295532, -0.22502920031547546, -0.09295813739299774, -0.47621452808380127, 0.13383078575134277, 0.032057985663414, 0.1122695654630661, -0.0016078276094049215, -0.26205500960350037, 0.44603922963142395, 0.09840120375156403, -0.09640952199697495, 0.0004667715111281723, -0.14364780485630035, 0.03717426210641861, -0.32039493322372437, -0.11945042759180069, 0.0949462354183197, -0.07063412666320801, -0.3963662087917328, 0.20957772433757782, 0.35975632071495056, 0.0034621888771653175, -0.16568797826766968, -0.0988381877541542, 0.20688387751579285, 0.2800403833389282, 0.40803223848342896, -0.24781087040901184, -0.0785989984869957, 0.3993475139141083, -0.2792423367500305, 0.00532215740531683, 0.38483330607414246, 0.028673775494098663, -0.42068231105804443,
-0.4806841313838959, 0.024401221424341202, 0.14730364084243774, 0.3773728013038635, -0.16692717373371124, 0.3718472123146057, -0.2940700054168701, -0.06657131016254425, -0.09501148015260696, 0.2664032280445099, 0.005477298516780138, 0.42721739411354065, -0.03025851957499981, 0.31716442108154297, -0.07663492858409882, -0.25137001276016235, 0.378566712141037, 0.3976110816001892, -0.0977611094713211, -0.1860629767179489, 0.0796458050608635, 0.28352388739585876, 0.14378489553928375, 0.08163672685623169, -0.1853780746459961, -0.4452001452445984, -0.0038907804992049932, -0.1789221614599228, 0.05792035162448883, -0.6954688429832458, 0.3485495448112488, -0.07710113376379013, 0.23679305613040924, 0.08535045385360718, 0.3336673378944397, -0.6675399541854858, -0.27268168330192566, -0.12759245932102203, 0.24709293246269226, -0.3005202114582062, -0.1145908311009407, -0.05700599402189255, 0.30193549394607544, -0.22092677652835846, -0.00806458666920662, -0.007176485378295183, -0.2117827832698822, 0.5078560709953308, -0.13184766471385956, 0.14924253523349762, -0.05128592252731323, -0.10181013494729996, 0.05473586544394493, -0.24513915181159973, -0.12783601880073547, 0.08141482621431351, 0.03700559586286545, -0.1349993348121643, 0.04377324879169464, -0.01765047386288643, 0.197116419672966, -0.1387939155101776, 0.2613745629787445, -0.5630775690078735,
-0.1927749514579773, 0.16176171600818634, 0.05862864479422569, 0.1814878284931183, -0.12476939707994461, 0.6649121046066284, -0.35214048624038696, -0.6072151064872742, -0.15408053994178772, 0.3556348383426666, -0.1998569667339325, 0.3358159363269806, 0.3043689727783203, -0.12717269361019135, -0.1039956584572792, -0.08648329973220825, -0.23091694712638855, -0.40413999557495117, -0.29115423560142517, 0.07643871009349823, -0.05292016640305519, 0.5183244347572327, 0.1772521287202835, 0.44055086374282837, -0.09952500462532043, 0.01049201563000679, 0.5828906893730164, 0.24041500687599182, 0.0016962382942438126, -0.012110588140785694, 0.005070011597126722, 0.14483632147312164, -0.14662332832813263, -0.23954099416732788, 0.005544260144233704, -0.2105730175971985, -0.1295488327741623, -0.06803333759307861, -0.14895930886268616, -0.09796594828367233, 0.10612163692712784, -0.2821022868156433, -0.615146279335022, -0.2027326375246048, 0.10179630666971207, 0.29393643140792847, 0.31758639216423035, 0.04852469637989998, -0.16830451786518097, -0.008037824183702469, 0.081198550760746, -0.641761064529419, 0.2531566321849823, 0.37534981966018677, -0.4146782457828522, 0.019783299416303635, -0.07761263847351074, -0.18704207241535187, -0.0760495588183403, -0.34466826915740967, -0.24143891036510468, -0.075562983751297, -0.14368508756160736, -0.09802644699811935,
-0.07162787020206451, -0.013864535838365555, 0.050536930561065674, -0.02635819837450981, -0.40054139494895935, -0.152278333902359, 0.19289785623550415, -0.2076864242553711, 0.17497432231903076, 0.2812166213989258, -0.24311256408691406, -0.14271245896816254, -0.24298804998397827, -0.6710754036903381, -0.13133759796619415, 0.23957711458206177, -0.44371065497398376, -0.24789190292358398, 0.05157313495874405, -0.004751433152705431, -0.32469505071640015, -0.5101137161254883, -0.08847541362047195, -0.3788854777812958, 0.12049032002687454, -0.11815416067838669, 0.3155074417591095, -0.15045011043548584, -0.16550391912460327, -0.2760222256183624, -0.051422569900751114, -0.08029331266880035, -0.14664709568023682, 0.17500780522823334, -0.16137024760246277, -0.27665868401527405, -0.3567856252193451, -0.10815716534852982, -0.37187355756759644, -0.12241833657026291, 0.06760852038860321, 0.13102683424949646, 0.003396780462935567, -0.4473096430301666, -0.5370500087738037, -0.4677092134952545, 0.23211030662059784, -0.35037869215011597, 0.15269267559051514, -0.3861374258995056, 0.12853506207466125, 0.11170004308223724, 0.1614961177110672, -0.46432656049728394, 0.11556582152843475, -0.5286450982093811, 0.2828422486782074, 0.3265672028064728, 0.1276938021183014, 0.12918926775455475, 0.29610636830329895, 0.25603553652763367, -0.03547842428088188, -0.40656179189682007,
0.2209378480911255, -0.10552225261926651, 0.14842179417610168, -0.3536376953125, 0.42053037881851196, -0.04575848951935768, 0.24967338144779205, -0.2746167480945587, -0.1474287509918213, 0.37149882316589355, -0.11086345463991165, -0.2396620661020279, 0.2807663381099701, -0.004619501996785402, 0.16584724187850952, 0.6482799053192139, 0.29111361503601074, 0.0421471893787384, 0.14881902933120728, 0.12683965265750885, 0.011254051700234413, -0.15354333817958832, -0.007445652037858963, -0.5090733766555786, 0.172080859541893, -0.3828962743282318, 0.20190435647964478, -0.08917486667633057, -0.4808203876018524, -0.15395820140838623, -0.2922987937927246, -0.1525924950838089, 0.2576241195201874, -0.3218199908733368, -0.3095671236515045, -0.2853774428367615, -0.128278911113739, -0.2161906361579895, -0.11871469020843506, 0.45338237285614014, 0.1563108116388321, -0.14877726137638092, 0.3302042782306671, -0.16590657830238342, -0.407897025346756, 0.017547551542520523, 0.24830351769924164, -0.2888190746307373, -0.45189398527145386, 0.2081192433834076, 0.022855166345834732, 0.10848037153482437, 0.22583965957164764, -0.5947455167770386, -0.15275849401950836, 0.1819642335176468, -0.06308487057685852, 0.07364765554666519, -0.2767978310585022, 0.0406482107937336, 0.26285192370414734, 0.10023024678230286, -0.047317422926425934, 0.18191397190093994,
0.010479293763637543, 0.3282639980316162, -0.008424107916653156, -0.07283398509025574, -0.005818069912493229, -0.20628419518470764, 0.017704909667372704, -0.3503257930278778, 0.3122185468673706, 0.3005382716655731, -0.14894697070121765, 0.2317512035369873, -0.27561870217323303, 0.1340639293193817, 0.23815952241420746, -0.021759018301963806, -0.020608380436897278, -0.4757305979728699, 0.3072786331176758, 0.23154234886169434, -0.18044348061084747, -0.0807676911354065, -0.20116828382015228, 0.08034360408782959, 0.4174339771270752, -0.1788841038942337, 0.2836344242095947, -0.2410418540239334, -0.43008187413215637, -0.01147924643009901, -0.18828627467155457, -0.03831038996577263, -0.18515698611736298, -0.11676988750696182, 0.11232501268386841, 0.24427984654903412, 0.010156079195439816, -0.15224741399288177, -0.17269262671470642, -0.11730130016803741, -0.4670652151107788, -0.13987791538238525, 0.1102810874581337, -0.08035773783922195, -0.07433342933654785, -0.21549108624458313, -0.0550171360373497, 0.046045925468206406, 0.01887328177690506, -0.10738257318735123, 0.015592527575790882, -0.34156253933906555, -0.09697698801755905, -0.2938583195209503, 0.36855822801589966, -0.12462776899337769, 0.3223343789577484, 0.04946392402052879, 0.10242227464914322, -0.1084466278553009, -0.1229044497013092, -0.1834421455860138, -0.9532976746559143, 0.07876806706190109,
0.6286714673042297, -0.12007015943527222, -0.012029343284666538, 0.03363209590315819, 0.307629257440567, 0.14079858362674713, -0.1051587164402008, -0.3025941848754883, 0.4847962260246277, -0.041508860886096954, 0.1309404820203781, 0.4826548397541046, 0.030598506331443787, 0.09496117383241653, -0.027429934591054916, 0.2007378339767456, 0.38186678290367126, -0.045562490820884705, 0.02130209654569626, -0.11141413450241089, 0.29715782403945923, -0.4770316481590271, -0.11077078431844711, 0.4152863621711731, -0.08223778754472733, -0.21693749725818634, 0.07900926470756531, -0.3494279384613037, -0.126944437623024, 0.24972182512283325, 0.1081809401512146, -0.027371536940336227, -0.30227380990982056, -0.13935264945030212, 0.39224153757095337, -0.34639519453048706, -0.050767332315444946, -0.06584300845861435, -0.35016506910324097, -0.1667305827140808, 0.2286250740289688, 0.15041643381118774, -0.2429095059633255, 0.23873114585876465, 0.29321393370628357, -0.08768466860055923, -0.3187301754951477, -0.4210302233695984, -0.06273433566093445, -0.12895610928535461, 0.1176447719335556, -0.20865179598331451, -0.07970269024372101, -0.3299950659275055, -0.10923832654953003, -0.1667945683002472, -0.040420565754175186, -0.03614737465977669, 0.007321815937757492, -0.13903674483299255, -0.1314525455236435, -0.060087211430072784, -0.33281004428863525, -0.1763318032026291,
-0.20990322530269623, 0.12969566881656647, -0.6176967620849609, -0.18096444010734558, -0.21131223440170288, -0.3258476257324219, 0.04028163105249405, -0.07422976195812225, 0.14840003848075867, 0.24892567098140717, -0.023472504690289497, 0.42372024059295654, -0.19813372194766998, 0.015096449293196201, 0.2296300083398819, 0.2826930284500122, -0.36263635754585266, 0.0668192133307457, -0.22387051582336426, 0.12634950876235962, -0.25022920966148376, 0.16691604256629944, 0.09686999768018723, 0.24942173063755035, 0.06788300722837448, -0.2603001594543457, 0.179334357380867, 0.008064793422818184, 0.18324247002601624, -0.06700531393289566, 0.04560806229710579, 0.36985185742378235, -0.37779247760772705, -0.20887690782546997, 0.0648508071899414, -0.04827059060335159, 0.05068500339984894, -0.3089345097541809, 0.10479126125574112, -0.147049218416214, 0.20002612471580505, 0.09278237074613571, -0.41945594549179077, -0.09031151980161667, -0.5414065718650818, 0.2093220055103302, 0.16847215592861176, -0.17909225821495056, -0.03760726749897003, -0.05614590272307396, 0.34067365527153015, -0.029283244162797928, -0.0228109210729599, -0.3558460772037506, 0.0048006153665483, 0.2306414544582367, -0.6550869941711426, -0.13652780652046204, -0.31636345386505127, 0.1271539181470871, 0.05796170234680176, -0.182394877076149, 0.050705622881650925, 0.17994065582752228,
0.19013236463069916, 0.5271912813186646, -0.002171538071706891, 0.2307003140449524, -0.37092524766921997, -0.026415033265948296, 0.023864248767495155, 0.04346158355474472, 0.050953254103660583, 0.13275980949401855, 0.05923456326127052, 0.22675485908985138, -0.008290010504424572, -0.058339376002550125, 0.2724924385547638, -0.110987089574337, -0.1180189773440361, -0.09224215894937515, 0.041372183710336685, 0.32422828674316406, 0.21734538674354553, -0.33546221256256104, 0.13685263693332672, 0.2448287010192871, -0.12713837623596191, -0.3371083438396454, -0.13782356679439545, 0.11745943874120712, 0.17309656739234924, -0.26490285992622375, -0.25973519682884216, -0.4294796586036682, -0.6879401803016663, 0.07848715782165527, -0.11031855642795563, 0.41984641551971436, -0.16141000390052795, 0.155954971909523, 0.12150423228740692, 0.185407355427742, -0.1577962189912796, -0.37102967500686646, 0.005503087304532528, -0.11120463907718658, 0.07101842761039734, 0.08449747413396835, -0.17721456289291382, -0.34046700596809387, 0.0782977044582367, -0.5191028118133545, 0.21527312695980072, 0.2551102042198181, 0.11813532561063766, 0.13147097826004028, -0.18736997246742249, 0.350123792886734, 0.14838071167469025, -0.3529758155345917, -0.18726719915866852, -0.5248978734016418, 0.36916834115982056, -0.2129681408405304, 0.03129451349377632, -0.015532724559307098,
0.10242447257041931, -0.17345014214515686, 0.15255296230316162, 0.009534635581076145, 0.08840361982584, 0.06923538446426392, 0.0779866948723793, -0.2633531987667084, 0.15138298273086548, -0.18671159446239471, 0.31884896755218506, -0.21955043077468872, -0.3412671685218811, 0.1487569659948349, -0.1303764283657074, 0.33846163749694824, 0.12534894049167633, -0.23725561797618866, -0.08470626920461655, -0.14463771879673004, -0.3751945197582245, -0.07269466668367386, 0.34410229325294495, -0.31545987725257874, -0.38134825229644775, 0.3399926722049713, -0.43432819843292236, 0.050469718873500824, 0.04354375973343849, 0.3806630074977875, -0.5345929861068726, -0.3649764358997345, 0.13368408381938934, 0.14351703226566315, 0.27342715859413147, -0.011676064692437649, -0.028900038450956345, -0.3396388292312622, -0.49683135747909546, -0.017477789893746376, -0.5647199749946594, -0.24035990238189697, 0.16389307379722595, -0.6027876138687134, -0.04675453528761864, 0.12759700417518616, 0.2995404005050659, -0.3242011070251465, -7.97387256170623e-05, -0.24985376000404358, -0.009185214526951313, 0.1782475709915161, 0.29729515314102173, 0.1003255695104599, 0.07751628756523132, 0.21040596067905426, 0.058688923716545105, 0.11333881318569183, 0.1365436166524887, 0.3364929258823395, 0.06892477720975876, 0.19004245102405548, -0.09811747074127197, -0.2582628130912781,
-0.12756192684173584, -0.22175157070159912, 0.15746790170669556, -0.31065136194229126, 0.17273271083831787, 0.01314914133399725, -0.11089014261960983, -0.4223629832267761, 0.10510165989398956, -0.0963081568479538, -0.30471357703208923, 0.09399078041315079, -0.2560226321220398, -0.4912475049495697, -0.06361709535121918, -0.2233021855354309, 0.035003434866666794, 0.18080265820026398, -0.12825459241867065, -0.40882888436317444, -0.1453932523727417, -0.016323616728186607, -0.1432352364063263, 0.13694830238819122, -0.030560242012143135, -0.5628252625465393, -0.3703063130378723, -0.11146898567676544, -0.023503858596086502, -0.15819217264652252, 0.02305937185883522, -0.12876862287521362, -0.5426223278045654, 0.2475353181362152, -0.3158906102180481, 0.5136204957962036, -0.10304675251245499, 0.1826329380273819, -0.28229787945747375, -0.24573178589344025, -0.32443588972091675, -0.10097397118806839, 0.23873738944530487, 0.37541070580482483, 0.019524533301591873, -0.47734546661376953, 0.10207516700029373, 0.35238566994667053, -0.20712438225746155, -0.4952917695045471, -0.6454135775566101, 0.12852388620376587, -0.15945973992347717, 0.3886631429195404, -0.009585215710103512, -0.07631175965070724, -0.2768634855747223, 0.2330700308084488, -0.2960315942764282, 0.1256120502948761, 0.05922138690948486, 0.32757139205932617, -0.1011938601732254, -0.31564608216285706,
0.10814312845468521, -0.03771773353219032, 0.4674973487854004, 0.26728227734565735, -0.07963987439870834, -0.24620307981967926, -0.07917153835296631, 0.2860366702079773, 0.27834099531173706, 0.08145558089017868, -0.3469560444355011, -0.029905444011092186, -0.07651856541633606, 0.2738531827926636, -0.46544793248176575, -0.06322114914655685, -0.19329245388507843, -0.09315850585699081, -0.30805838108062744, -0.2479160726070404, 0.07890225201845169, 0.197575181722641, -0.31876644492149353, 0.03418600559234619, -0.16669975221157074, -0.643683135509491, 0.28039437532424927, 0.22258903086185455, 0.15428529679775238, -0.0797080248594284, -0.10449273139238358, -0.07558415085077286, -0.18937614560127258, -0.15773555636405945, -0.05884689465165138, 0.26868006587028503, -0.06248972937464714, 0.013656554743647575, -0.005382749252021313, -0.21178799867630005, -0.3979469835758209, 0.03758225962519646, 0.04263083636760712, -0.039832185953855515, -0.26767635345458984, 0.03579791262745857, 0.2543194591999054, -0.36763396859169006, 0.07631943374872208, -1.042130947113037, -0.19506283104419708, 0.11089389026165009, -0.1445259004831314, 0.21150483191013336, 0.140492245554924, 0.13018809258937836, -0.20405100286006927, -0.008943826891481876, 0.008119641803205013, 0.11445716768503189, -0.162681445479393, 0.019554851576685905, -0.11536809056997299, -0.1612740010023117,
-0.16186127066612244, -0.2546135485172272, 0.19982555508613586, -0.10123113542795181, -0.4419529139995575, 0.3170303702354431, -0.08935761451721191, -0.07527730613946915, -0.2138480246067047, -0.06663789600133896, 0.4320826530456543, 0.07222755998373032, -0.8138516545295715, -0.46434685587882996, 0.10944338142871857, 0.30967798829078674, 0.36978447437286377, -0.20376378297805786, -0.24734312295913696, 0.26119211316108704, -0.30851757526397705, 0.0007736256811767817, -0.30783340334892273, 0.08046012371778488, -0.5042767524719238, 0.22726981341838837, 0.020687690004706383, -0.21949763596057892, 0.1386815905570984, -0.33995479345321655, -0.2271423488855362, 0.14062020182609558, 0.4573613703250885, 0.0039645032957196236, -0.2379179447889328, -0.007161836605519056, 0.40875914692878723, -0.3954668939113617, -0.34578242897987366, 0.5307083129882812, -0.0059377700090408325, 0.04145072400569916, -0.5161417722702026, -0.0022372216917574406, 0.19599215686321259, -0.2836706340312958, 0.08184851706027985, -0.12675169110298157, 0.16354013979434967, 0.211643248796463, 0.09095428138971329, 0.09666966646909714, 0.3055310845375061, -0.11626331508159637, -0.10241985321044922, -0.40236806869506836, 0.290732741355896, 0.07912256568670273, -0.3674911856651306, 0.1613142192363739, -0.15195265412330627, 0.30636081099510193, -0.44486746191978455, 0.009498142637312412,
0.10732033848762512, -0.24600760638713837, 0.1368909627199173, -0.11560087651014328, 0.10750659555196762, 0.3824326694011688, -0.0879490077495575, 0.018302466720342636, -0.43863314390182495, 0.15973924100399017, 0.3296339809894562, -0.13228900730609894, 0.34855684638023376, -0.10236410051584244, -0.07798752933740616, -0.1063053086400032, -0.045938342809677124, 0.0661579817533493, 0.27143484354019165, 0.04990272969007492, 0.18883000314235687, 0.2722828984260559, 0.347186416387558, -0.7042732834815979, 0.2391045093536377, 0.46879297494888306, -0.02675577439367771, -0.022624436765909195, 0.08066816627979279, 0.12340634316205978, -0.12076868861913681, -0.10145829617977142, -0.08543818444013596, -0.14669159054756165, -0.039694011211395264, 0.056071795523166656, -0.07501653581857681, -0.1701851487159729, -0.18803086876869202, -0.42926058173179626, 0.2338941991329193, -0.013633431866765022, -0.3594639301300049, 0.19975560903549194, 0.0264698788523674, -0.08886519819498062, 0.4215812683105469, -0.24098710715770721, -0.2444586306810379, 0.10156502574682236, 0.1515563726425171, 0.14469043910503387, -0.2335180640220642, 0.20603159070014954, -0.19813591241836548, 0.294379860162735, 0.38762205839157104, -0.07983364164829254, 0.024916959926486015, -0.15671466290950775, 0.15698403120040894, 0.08701135218143463, 0.12508009374141693, -0.051108863204717636,
-0.23481851816177368, 0.14384256303310394, -0.25355467200279236, 0.016784854233264923, 0.13750319182872772, -0.303674578666687, 0.08640929311513901, 0.19652920961380005, -0.48702365159988403, -0.22513608634471893, -0.0806669071316719, -0.7225208878517151, -0.27050334215164185, 0.22637978196144104, 0.11858994513750076, 0.2546460032463074, -0.3004074692726135, 0.5651573538780212, -0.07994448393583298, 0.18284201622009277, -0.4189450442790985, -0.047924771904945374, 0.12323332577943802, -0.016910284757614136, -0.32863977551460266, 0.11531268060207367, 0.06450782716274261, 0.15467143058776855, 0.5502098798751831, -0.35007256269454956, 0.06760580837726593, -0.30334314703941345, 0.17829416692256927, -0.25200220942497253, 0.3958667814731598, -0.0002761280629783869, -0.2909591495990753, 0.11506666243076324, -0.44360166788101196, -0.21532386541366577, 0.05629713833332062, -0.08220883458852768, -0.12503913044929504, 0.31705009937286377, 0.13781557977199554, 0.054755691438913345, -0.08343834429979324, 0.1444515883922577, 0.17420417070388794, 0.07906583696603775, -0.016009479761123657, 0.41851431131362915, -0.2517935335636139, -0.286246657371521, -0.49233484268188477, -0.5739148259162903, 0.15089178085327148, -0.20489808917045593, -0.1375073492527008, 0.17147865891456604, -0.20404984056949615, -0.11039718985557556, 0.04035579413175583, -0.093215212225914,
-0.04476768150925636, -0.07557746022939682, 0.13269858062267303, 0.08873354643583298, 0.21845030784606934, -0.2267480045557022, -0.059194497764110565, 0.11262968182563782, -0.2981971204280853, -0.019924765452742577, 0.24668723344802856, 0.29484328627586365, 0.007360666058957577, 0.43291184306144714, 0.5604529976844788, 0.21073190867900848, -0.11051501333713531, -0.6913353800773621, -0.11595139652490616, -0.24226564168930054, -0.09489800781011581, -0.6642935872077942, -0.2755766212940216, 0.1663994938135147, -0.11245161294937134, -0.28500616550445557, -0.3511110246181488, 0.11944083124399185, 0.1731068640947342, 0.12324204295873642, 0.2828719913959503, 0.08850888907909393, 0.11242900043725967, 0.1871112436056137, -0.018294233828783035, -0.07139869779348373, 0.13855507969856262, 0.029614292085170746, 0.15066729485988617, 0.23470520973205566, 0.027214432135224342, -0.015867186710238457, 0.25934669375419617, 0.550839364528656, 0.029722481966018677, 0.4629422128200531, -0.15108352899551392, -0.29487740993499756, -0.30324530601501465, 0.2870102524757385, -0.5179674029350281, -0.09850386530160904, 0.029103420674800873, -0.1271485835313797, -0.06757375597953796, 0.04602225497364998, 0.22626516222953796, 0.026153309270739555, -0.2273728847503662, -0.076288603246212, -0.11003304272890091, 0.23346243798732758, 0.032927390187978745, -0.09849380701780319,
-0.38032248616218567, 0.3546040952205658, -0.081629678606987, 0.030008861795067787, -0.03547526150941849, 0.0454898476600647, -0.12076620757579803, -0.0613778717815876, 0.35423216223716736, 0.21080167591571808, -0.2327873408794403, 0.038962289690971375, -0.11936882883310318, 0.5367302298545837, 0.06979986280202866, 0.05109332501888275, -0.17087416350841522, -0.17387047410011292, 0.22541724145412445, -0.11783045530319214, 0.048902932554483414, -0.17464186251163483, -0.3565891981124878, 0.0647234097123146, -0.24735000729560852, -0.20106875896453857, -0.29414698481559753, 0.030937189236283302, -0.11768819391727448, -0.5271049737930298, -0.08562099188566208, 0.11633063107728958, -0.25719285011291504, 0.09263297915458679, 0.3149406611919403, -0.12924127280712128, 0.2407866269350052, -0.13607658445835114, -0.34750938415527344, 0.48124292492866516, -0.22984682023525238, 0.03240702673792839, -0.6743618845939636, -0.07255896180868149, 0.15833188593387604, -0.11431644856929779, 0.08602172136306763, 0.4291730523109436, -0.12180101126432419, -0.11311078071594238, -0.10142937302589417, 0.18712350726127625, -0.17857611179351807, -0.03153959661722183, -0.3042012155056, 0.09238093346357346, -0.10591645538806915, 0.17917315661907196, -0.004309745971113443, 0.3037978410720825, -0.0368373841047287, -0.4073236584663391, -0.13766951858997345, -0.15224692225456238,
0.058241210877895355, 0.38963499665260315, -0.4398070275783539, 0.08405487984418869, 0.15988583862781525, -0.317679226398468, 0.24515968561172485, 0.047065168619155884, -0.14787757396697998, 0.006337844301015139, -0.19158293306827545, -0.6939417123794556, -0.08318442851305008, 0.16140353679656982, 0.10935968905687332, -0.19328013062477112, -0.2767377197742462, -0.1820293664932251, 0.0456940159201622, -0.3160701096057892, -0.42817428708076477, -0.006675982382148504, 0.27501049637794495, -0.4697940945625305, 0.09993837028741837, 0.18560251593589783, 0.0993151068687439, 0.28182271122932434, 0.1423228234052658, 0.03710820898413658, -0.017742494121193886, 0.12604835629463196, 0.35154348611831665, 0.17060329020023346, 0.010918191634118557, -0.15779393911361694, -0.0282973051071167, -0.007491650525480509, -0.10922088474035263, -0.21537409722805023, -0.022247344255447388, 0.25406381487846375, 0.33769258856773376, -0.2405993640422821, 0.19333678483963013, -0.20801551640033722, 0.004384394269436598, 0.16674304008483887, 0.1439424753189087, -0.010533553548157215, -0.47757717967033386, 0.25206080079078674, -0.22968760132789612, 0.1012236550450325, -0.01273089274764061, -0.3993956744670868, 0.4728081524372101, -0.27210909128189087, -0.5964904427528381, 0.11699418723583221, -0.1405968815088272, -0.18465691804885864, 0.06051364913582802, 0.11182622611522675,
-0.32785555720329285, -0.01239907369017601, 0.13197486102581024, 0.12793730199337006, 0.0887342020869255, 0.19910754263401031, 0.23404674232006073, 0.18754951655864716, 0.1613187938928604, -0.07508605718612671, -0.35519939661026, 0.10127176344394684, -0.12900079786777496, -0.12915755808353424, -0.4297216832637787, 0.13864298164844513, 0.2094184160232544, 0.09480655938386917, -0.3665950298309326, 0.2561582326889038, -0.0809188261628151, -0.46078622341156006, 0.09120751172304153, -0.1345149278640747, 0.17034876346588135, 0.4543810784816742, -0.13031595945358276, -0.44000762701034546, 0.31130585074424744, -0.43183866143226624, -0.3823300004005432, -0.29173576831817627, 0.13588839769363403, -0.2849210500717163, 0.17240917682647705, -0.08908730745315552, -0.5914905667304993, 0.04920795187354088, 0.13585485517978668, -0.4198955297470093, -0.3325132429599762, 0.0033058105036616325, -0.08531161397695541, 0.5798974633216858, 0.23786561191082, 0.16924108564853668, -0.1877245455980301, -0.09096498787403107, -0.3812142610549927, -0.3020135462284088, -0.08570786565542221, -0.09848521649837494, -0.20006676018238068, -0.18075981736183167, 0.14408566057682037, -0.2461138516664505, 0.018735550343990326, 0.06508035212755203, 0.1763136237859726, -0.28067049384117126, 0.06017010286450386, -0.24442411959171295, 0.344587504863739, -0.17120860517024994,
0.0653783529996872, -0.1641165316104889, 0.24809975922107697, -0.22547903656959534, -0.059800926595926285, 0.587852954864502, -0.008596224710345268, 0.4495261609554291, -0.19781553745269775, -0.0846671536564827, 0.2369033843278885, -0.2221589982509613, 0.13465580344200134, -0.2282174527645111, -0.15301726758480072, 0.08510743826627731, 0.4619356393814087, -0.13764895498752594, -0.09292223304510117, -0.15073241293430328, -0.38042524456977844, 0.309883713722229, -0.032140012830495834, 0.21797572076320648, 0.022234227508306503, 0.12554651498794556, -0.220106303691864, -0.2964765131473541, 0.2245602011680603, 0.3011450469493866, -0.11109437048435211, 0.15702290832996368, 0.21866336464881897, -0.10634566843509674, 0.08703753352165222, -0.18130439519882202, -0.17282947897911072, -0.16414456069469452, -0.22340284287929535, 0.20520563423633575, -0.06140168756246567, 0.14909839630126953, 0.024946777150034904, 0.2434891015291214, -0.12055353820323944, -0.2697003483772278, -0.14427022635936737, 0.013107379898428917, 0.17263557016849518, -0.1193540096282959, -0.0032134782522916794, -0.08387547731399536, 0.29503872990608215, 0.3340378403663635, -0.09969034790992737, -0.04656233265995979, -0.15406009554862976, 0.36576196551322937, 0.36931881308555603, -0.0035237439442425966, 0.015465428121387959, 0.34020084142684937, -0.1732538789510727, -0.6749342083930969,
-0.1330065280199051, 0.2774515450000763, -0.15301352739334106, -0.5585958361625671, -0.37876027822494507, -0.12783141434192657, -0.16027024388313293, -0.5971856117248535, -0.22015957534313202, 0.10833866894245148, 0.17343494296073914, 0.19515001773834229, -0.27857065200805664, -0.19050967693328857, -0.049057018011808395, 0.3889733850955963, -0.03456994518637657, -0.615178108215332, 0.22212548553943634, -0.2978047728538513, 0.008772080764174461, 0.24002991616725922, -0.29417547583580017, 0.009681764990091324, -0.24872049689292908, 0.020474134013056755, -0.056162722408771515, -0.269768625497818, -0.2398458570241928, 0.01842588745057583, -0.5522862672805786, -0.28321224451065063, 0.020127518102526665, 0.16713060438632965, 0.02173987589776516, 0.11495976895093918, 0.6388911008834839, 0.0739796832203865, -0.23100648820400238, 0.07070741802453995, 0.023709964007139206, 0.018409378826618195, -0.18596002459526062, 0.03153816983103752, -0.1399817019701004, -0.17434383928775787, 0.05779828503727913, 0.14807236194610596, -0.3364788293838501, -0.36421525478363037, 0.267646849155426, -0.01737329736351967, 0.30866241455078125, 0.08980563282966614, -0.14378929138183594, 0.05073864758014679, 0.3674014210700989, -0.3452235758304596, 0.00020311774278525263, 0.017324479296803474, -0.1821841597557068, -0.03036952018737793, 0.3179524540901184, 0.6019838452339172,
